#Parameter# /vanilla-lstm-builder/_0 {400,21} 134401 ZERO_GRAD
-4.44350541e-02 -3.23119871e-02 -1.91389229e-02 -7.53837004e-02 +1.15494661e-01 -9.94689614e-02 -3.64124030e-02 +1.07051775e-01 -9.81439948e-02 -9.63755772e-02 +1.08694464e-01 +4.58568856e-02 -5.52577190e-02 -1.79699007e-02 -8.17230120e-02 +2.66929511e-02 -6.45682961e-02 -2.10555531e-02 -1.24639280e-01 +5.03753461e-02 +2.99306586e-02 +6.13734871e-02 -6.80479780e-02 +3.65024470e-02 -7.01807961e-02 +1.06924079e-01 +4.78288084e-02 +4.63637263e-02 -9.89491269e-02 -5.24506010e-02 +8.32711682e-02 +5.54946512e-02 -3.60757113e-03 +7.62291551e-02 -9.40039009e-02 -5.91363087e-02 -9.83443856e-02 -9.72046107e-02 -7.14673474e-02 +5.47086075e-02 +8.72119144e-03 +1.17384560e-01 +7.96812549e-02 -2.99404394e-02 +7.04154968e-02 +1.12885416e-01 +9.75010842e-02 -9.34352130e-02 +1.18106641e-01 -6.91103712e-02 -1.31874988e-02 +9.25363302e-02 +1.34652853e-02 -4.09485288e-02 -1.78006515e-02 -1.56368408e-03 +9.37158689e-02 -8.61758217e-02 -2.67034043e-02 -1.20333679e-01 +5.10824425e-03 +6.59584329e-02 -7.16657266e-02 -1.97383086e-03 -9.70058218e-02 -1.19506605e-01 +2.16750074e-02 +6.88979179e-02 +4.01525712e-03 -4.38857498e-03 +1.11693293e-01 -4.66986671e-02 -1.00913301e-01 +2.17685197e-02 -2.55512148e-02 -1.02991566e-01 +1.03954561e-02 -5.91023974e-02 +9.79680661e-03 +1.13882937e-01 +4.29099202e-02 -2.61668358e-02 -6.11426868e-02 +4.39049723e-03 +9.40988511e-02 +4.47688028e-02 -5.14266221e-03 +1.10766388e-01 +6.14841357e-02 +5.58086559e-02 +8.83526579e-02 -6.19380809e-02 -6.13894016e-02 -6.88068345e-02 -9.63845849e-03 -6.91528991e-02 +2.18366534e-02 -4.11025099e-02 -9.52573866e-02 +4.81861718e-02 -1.29612749e-02 -2.19791830e-02 -5.56524694e-02 +1.07872933e-01 -5.49710728e-02 +3.55964936e-02 +1.08960839e-02 -8.31967518e-02 -8.85692984e-02 -1.49622215e-02 -1.09766647e-01 -8.77484158e-02 +2.82286685e-02 +1.21821597e-01 -3.14466916e-02 -8.63016099e-02 +9.27973390e-02 -9.08099785e-02 -7.40174577e-02 +9.19607207e-02 -5.16788960e-02 +1.17211364e-01 -2.09714472e-02 +9.59485322e-02 +1.17758058e-01 +5.99618927e-02 -5.96606582e-02 +1.27853885e-01 -1.05008177e-01 -4.21880297e-02 +1.19729012e-01 -7.70843104e-02 -7.43282214e-02 +9.26551372e-02 +5.40233627e-02 +3.06194145e-02 -1.01107165e-01 -8.59517753e-02 -5.63306808e-02 -1.02070525e-01 -2.59980168e-02 -7.11063668e-02 +2.19815336e-02 +8.57037678e-02 -8.70872810e-02 -7.25071579e-02 +1.61211658e-02 +4.39464152e-02 +4.27907780e-02 -1.00767061e-01 -3.00454721e-03 +1.06358677e-01 -1.73995662e-02 +2.09003240e-02 +7.09962174e-02 -5.36658689e-02 +1.79684628e-02 -5.58484197e-02 -2.34552864e-02 +9.60774720e-03 +1.17128007e-01 +8.49547163e-02 +5.16854152e-02 +5.52531555e-02 -6.67193234e-02 -1.47857089e-02 +1.02185588e-02 -8.05866867e-02 -9.78894681e-02 +1.69874858e-02 +1.11303583e-01 -1.06325209e-01 +8.09495077e-02 -7.54526556e-02 -8.91130492e-02 -2.13950947e-02 -8.37271661e-02 -8.72444510e-02 +5.61482646e-02 -1.06828131e-01 +7.05998903e-03 +1.19948993e-02 -8.22355300e-02 +1.36642560e-01 +1.16182722e-01 +5.09674996e-02 +1.25112444e-01 -4.14916454e-03 -2.79467534e-02 +1.01273268e-01 +9.94875059e-02 +1.12508930e-01 -2.06955466e-02 +3.96777056e-02 +6.00003600e-02 -7.49038234e-02 +7.14145675e-02 +3.93768288e-02 -1.58693735e-02 +1.03431694e-01 +4.08250690e-02 -1.02604412e-01 +7.17127547e-02 +9.26609430e-03 +2.61580870e-02 +1.11913741e-01 +6.65858807e-03 -5.08758873e-02 -2.78721694e-02 -2.56573483e-02 +5.15853390e-02 -7.12714270e-02 +1.16204493e-01 +1.13625735e-01 -6.98456764e-02 -5.82132488e-02 -6.06701523e-02 +8.39076713e-02 -9.03915688e-02 -4.81135026e-02 -1.74421482e-02 +4.54985164e-02 -8.67190063e-02 -9.96318180e-03 +9.75524783e-02 -7.09304139e-02 -7.72903338e-02 -6.65488392e-02 -4.34319824e-02 -8.83638188e-02 -1.05513394e-01 -1.16619319e-01 +1.37985116e-02 +5.43487258e-02 -6.94941282e-02 +3.59286778e-02 -3.27654816e-02 -2.48005688e-02 +5.06281480e-02 -8.20640996e-02 -5.75957149e-02 -7.55083337e-02 +8.29555318e-02 -2.90626567e-02 -1.78432371e-02 +3.51254120e-02 +8.75725001e-02 -2.18324251e-02 +1.06689401e-01 +1.04251467e-01 -9.66660753e-02 -1.13719158e-01 +1.25901056e-02 -4.99853045e-02 +2.77619455e-02 -8.14640895e-02 +1.12357639e-01 -1.12625360e-01 +8.95795375e-02 -9.14157405e-02 +1.12728057e-02 +2.64185593e-02 +5.67446984e-02 -3.29346210e-02 +4.91369888e-02 +4.45353910e-02 +1.24781564e-01 +7.67833646e-03 +1.12841450e-01 -1.15842549e-02 -4.20557112e-02 -1.04923867e-01 -5.19347750e-02 -9.29528251e-02 +3.76886502e-02 -3.94618660e-02 +6.99902549e-02 +3.69328037e-02 -4.16679569e-02 -6.36233911e-02 +1.02901403e-02 -6.13836292e-03 +1.08127043e-01 -6.18023239e-02 +4.35573682e-02 +7.60871246e-02 +1.18630707e-01 -1.07275948e-01 -9.00314674e-02 -4.58021201e-02 +5.27437851e-02 +8.77459347e-02 -2.79919561e-02 -8.57578591e-03 -4.59618587e-03 -4.49305139e-02 +1.32625867e-02 +1.06417172e-01 -1.33768991e-02 +1.05369881e-01 +3.46411625e-03 +2.32562907e-02 +1.14970513e-01 -1.18309408e-02 +6.88475743e-02 +5.66725731e-02 +6.51925206e-02 +1.08786307e-01 -5.66515997e-02 -2.70868000e-02 +6.28855871e-03 -1.24389865e-02 +1.07127219e-01 +6.98940605e-02 -9.17146653e-02 -6.01327717e-02 +9.37213898e-02 +9.88693070e-03 +3.35094146e-02 -3.84496190e-02 +1.00970194e-01 +1.22478850e-01 -3.01249605e-02 +4.46149930e-02 -1.73494555e-02 +1.73205528e-02 -6.53221309e-02 +7.43884295e-02 -8.23162347e-02 -5.34264110e-02 +9.49879065e-02 -7.90981278e-02 -1.99865978e-02 +5.02939783e-02 +8.48766193e-02 -5.05734272e-02 -5.72512997e-03 -1.09782323e-01 +5.91595545e-02 +8.06364119e-02 +7.71216154e-02 +5.65084023e-03 -3.52847809e-03 +7.90483654e-02 -6.56144544e-02 -3.73962261e-02 +7.98430145e-02 +4.66119722e-02 -9.33411941e-02 +1.18685931e-01 +1.01651415e-01 +4.97096553e-02 -5.97871579e-02 +8.79777744e-02 +5.68083376e-02 -4.91277911e-02 -2.27476303e-02 +2.71027908e-02 +1.89174723e-03 +1.05709463e-01 -2.19784137e-02 -2.04931907e-02 +1.27244830e-01 -1.10912986e-01 -2.15338357e-02 -9.05831978e-02 -4.86637503e-02 +8.62383768e-02 +8.95210877e-02 -5.33241332e-02 -6.36382923e-02 +4.47219014e-02 -5.95830306e-02 +7.24307522e-02 -2.65339650e-02 -4.70314883e-02 -9.81504917e-02 +4.45780531e-03 -7.93054327e-02 -1.15052253e-01 -6.89367875e-02 +4.65738848e-02 -3.75817791e-02 -1.17102794e-01 +4.05142009e-02 +7.55075142e-02 -7.07122758e-02 -7.58831427e-02 +9.00968611e-02 +3.55653651e-02 +6.93964064e-02 -7.98272341e-02 -6.10290058e-02 -7.70669505e-02 +4.95007522e-02 +5.33170113e-03 -1.24015786e-01 -5.99189177e-02 +1.11270912e-01 -8.46581534e-02 +1.22356482e-01 +1.02580108e-01 -8.94847512e-03 +3.66770364e-02 -8.06184113e-03 +1.06152318e-01 -6.83014933e-03 +1.76375061e-02 -1.26846835e-01 +6.97463453e-02 +2.01597884e-02 +1.07050210e-01 +9.51795354e-02 +4.19577286e-02 -7.32921362e-02 +4.69942912e-02 -8.33614916e-02 +2.11700462e-02 -5.62195592e-02 +3.68012278e-03 +1.19519897e-01 -8.98493230e-02 +8.26877281e-02 -2.81831305e-02 +8.47805366e-02 +7.16933534e-02 +4.62072641e-02 -1.04199201e-02 -7.00985417e-02 -3.14188823e-02 +7.75535330e-02 -4.85392138e-02 -3.40994745e-02 -9.95481014e-02 -9.16765537e-03 -1.05129331e-01 +5.47699891e-02 -5.99146448e-02 -1.25782229e-02 -1.22201383e-01 +4.14622575e-02 +5.91552407e-02 -9.71272886e-02 +8.60088691e-02 +9.36200544e-02 +6.90618008e-02 -3.22164893e-02 -2.55680010e-02 +2.07273811e-02 -3.62243876e-02 -9.87690985e-02 -9.35520828e-02 -2.38281619e-02 -5.80099598e-02 -1.13960288e-01 +6.25362024e-02 +2.49450263e-02 -7.52251223e-02 +2.32771877e-02 +3.28397229e-02 +4.45277756e-03 +5.31641468e-02 +1.06917545e-01 -3.60992597e-03 -1.14161735e-02 -3.29875067e-04 +1.06050871e-01 +1.41206861e-01 -2.25735251e-02 +8.70445818e-02 +8.69866461e-02 +2.45576557e-02 -1.17025666e-01 +8.59672278e-02 +6.97880387e-02 +9.16900709e-02 +1.12253837e-01 -2.39846166e-02 +9.65811908e-02 +6.93808943e-02 -4.54657115e-02 +9.42158625e-02 -1.22182611e-02 +1.00775510e-01 -8.73245858e-03 -9.05161053e-02 +5.82785271e-02 -1.12896666e-01 +7.90732801e-02 +1.37978181e-01 +8.36886540e-02 -4.19239551e-02 +2.01223604e-02 -1.51022049e-02 -4.21608612e-02 +6.12414554e-02 -2.19082739e-02 +4.08001170e-02 -3.39150219e-03 -5.65575727e-04 -1.11528791e-01 -1.07546121e-01 +2.52263211e-02 +1.13422044e-01 -2.76492015e-02 +1.13641821e-01 -5.57763502e-02 +1.57760642e-02 -2.62539387e-02 -4.75533791e-02 +5.65299504e-02 +9.63767096e-02 -2.26365961e-02 -8.52788519e-03 -1.05130463e-03 +6.21073283e-02 +1.05431877e-01 +1.21670015e-01 -2.51466017e-02 -1.94387715e-02 +8.92538503e-02 +2.34573986e-02 +8.57690424e-02 -1.02499932e-01 +1.00153826e-01 +7.61966184e-02 +3.97409573e-02 +9.79797766e-02 -4.36800942e-02 +7.37293288e-02 -6.51065707e-02 +7.01454729e-02 -3.67204286e-02 -1.49269113e-02 -2.32032873e-02 -2.32074037e-02 +1.05567977e-01 +1.22748723e-03 -1.26371503e-01 -2.42390744e-02 +6.40094131e-02 +5.62397502e-02 +1.87187642e-02 -1.09199889e-01 -3.82931419e-02 +8.82532373e-02 -1.23100374e-02 +1.18918456e-01 +5.77761326e-03 +5.72499707e-02 -1.51526360e-02 +1.23242542e-01 +7.37897977e-02 +4.27547842e-02 -4.36305720e-03 -2.94247102e-02 -1.28129805e-02 -1.27636269e-03 +6.82131201e-02 -1.62407588e-02 +1.24585003e-01 -6.72211125e-02 -4.79014628e-02 +2.09858641e-03 +4.10183333e-02 +7.40190297e-02 +1.26688136e-03 +1.21131726e-01 +9.09881368e-02 -4.57023233e-02 -5.53439334e-02 +1.79770309e-02 -8.56557116e-02 +2.55114119e-02 -3.42009701e-02 -7.35296980e-02 +1.54497204e-02 -3.03788334e-02 +7.24992156e-02 -1.23898916e-01 -8.33806396e-02 -3.93715762e-02 -9.03057978e-02 +5.24227060e-02 -9.91145670e-02 +3.02790720e-02 +1.44762462e-02 -9.14760754e-02 -1.11701071e-01 +1.22836530e-01 -1.02323078e-01 -6.00534156e-02 +5.23383655e-02 -1.09209158e-01 +3.32547836e-02 -4.41138409e-02 +1.11082092e-01 -3.00223902e-02 -7.30161965e-02 +8.22374895e-02 +9.61462781e-02 +6.04613079e-03 +9.36856642e-02 +3.42285745e-02 -4.42045219e-02 +1.20668918e-01 -8.26066062e-02 -1.19665392e-01 +9.84603837e-02 +1.03231855e-01 -4.36399365e-03 +5.90904988e-02 +8.73270631e-03 -3.33152264e-02 +3.69661138e-03 +8.94116759e-02 -3.94610390e-02 +2.34056972e-02 -1.11176252e-01 +5.20140678e-02 +5.72248548e-02 -8.71635973e-02 +1.46900509e-02 -9.68985781e-02 +2.63876487e-02 -9.35922191e-02 -6.50281981e-02 -5.38797537e-03 -1.05008423e-01 +1.89013667e-02 +1.53173860e-02 -1.08191788e-01 -1.92123167e-02 -4.96847183e-03 -7.67315030e-02 -2.55585462e-02 +3.62610910e-03 -1.12888791e-01 -1.12922899e-02 -3.05175483e-02 +6.76188767e-02 +5.53127453e-02 -2.08145380e-02 +3.80723178e-02 -8.68855193e-02 -5.68713658e-02 -3.76929194e-02 -6.70700520e-02 +6.87860176e-02 -9.44777876e-02 -8.70480090e-02 +7.92668611e-02 +2.61126086e-02 +9.25499573e-02 -2.77688168e-02 +2.12798715e-02 -7.67065138e-02 -2.01895051e-02 +1.31507637e-02 -4.07975242e-02 +1.05065750e-02 +1.07042417e-01 -3.58773097e-02 -2.72268197e-03 -1.02445930e-02 -2.94725858e-02 -1.09429002e-01 +6.73485361e-03 -8.08650330e-02 +7.98549354e-02 +1.17118448e-01 -1.20919302e-01 +8.52065086e-02 +8.06227773e-02 +1.96310859e-02 +3.47119607e-02 +1.12376856e-02 +4.91063902e-03 +6.07386418e-02 +6.38082027e-02 -5.38043398e-03 +4.84584235e-02 -1.08429968e-01 -1.75927542e-02 +1.18857019e-01 +7.07577318e-02 +5.14489114e-02 -9.57379863e-02 +6.84626997e-02 -3.57684642e-02 -7.69941881e-02 +5.78265712e-02 +3.44715151e-03 +1.00437207e-02 +9.85741168e-02 +5.55936135e-02 -6.92301318e-02 +4.20007966e-02 +8.68428499e-02 +1.04751073e-01 -7.44729713e-02 +1.65703089e-03 -6.32082596e-02 +6.09416552e-02 +1.94339119e-02 -1.05120175e-01 +4.06104550e-02 +5.79846576e-02 +8.04044530e-02 -2.46601831e-02 +1.18505128e-01 -5.51574528e-02 +4.29818779e-02 +1.04744807e-01 +1.59374345e-02 +1.24043249e-01 +5.01173511e-02 -1.45009160e-02 -1.16342209e-01 -1.28653413e-02 -3.94860432e-02 -1.63089149e-02 -4.92236651e-02 +8.26563910e-02 +2.66393479e-02 +1.13956235e-01 -1.10551575e-02 -3.71893644e-02 +4.25705723e-02 +6.12847805e-02 +7.51229748e-02 -8.05466026e-02 -1.00963891e-01 -6.26843274e-02 -6.46703690e-02 -5.21888696e-02 -1.11745849e-01 -1.03598252e-01 -7.68544301e-02 -6.69729784e-02 -6.75797164e-02 -8.71404335e-02 -2.90918127e-02 -2.36215703e-02 +6.66622967e-02 -7.01304898e-02 +4.64877784e-02 +2.87596546e-02 -7.26980269e-02 -2.06930395e-02 +1.13355473e-01 +7.74528906e-02 -2.44525895e-02 -9.79347453e-02 -4.33379263e-02 +3.69286947e-02 -6.66545480e-02 -1.97055042e-02 -5.20805735e-03 +4.34524417e-02 -2.59032454e-02 -1.09762430e-01 +4.70820162e-03 -7.17516392e-02 +5.93363680e-02 -6.50676042e-02 -4.28035036e-02 -7.35729337e-02 +5.58529459e-02 -7.24095628e-02 -2.80173998e-02 -7.92551190e-02 +6.00186661e-02 -6.69839457e-02 +1.26235764e-02 +2.44936831e-02 +4.24818061e-02 -1.63113121e-02 +1.12684919e-02 +4.02434319e-02 +5.66889457e-02 +4.87484820e-02 +1.14856347e-01 -3.57594006e-02 +1.11525625e-01 +1.06007211e-01 -7.10109100e-02 -8.42256323e-02 -4.83174436e-02 -1.55331139e-02 +6.70976117e-02 +4.97947447e-02 +5.89114092e-02 -3.33610922e-02 +6.19908087e-02 +7.38757849e-02 +8.43365584e-03 -5.05945012e-02 -9.07187238e-02 -4.36578803e-02 -1.95294397e-03 -1.03194304e-01 +1.76838064e-03 -3.90690975e-02 +1.05645247e-01 +7.41512105e-02 +7.82556832e-02 +1.15541950e-01 +1.01336539e-02 +7.38339201e-02 +1.18557706e-01 +4.63926308e-02 +2.41077524e-02 +2.01680884e-02 +8.89511406e-02 +3.26471329e-02 +3.19280587e-02 +9.33283046e-02 -4.08369377e-02 +6.22325949e-02 -1.30356446e-01 +5.88285662e-02 -3.09270676e-02 -1.26738116e-01 -9.95568931e-02 -3.33999097e-02 +8.56163446e-03 +7.75899086e-03 -1.30539639e-02 -1.00930825e-01 -5.76226898e-02 -1.00595154e-01 -2.46205218e-02 +6.76073655e-02 -1.14834704e-01 -1.64265223e-02 -8.20096210e-03 +7.31478930e-02 -9.84406993e-02 -3.71473655e-02 -1.20095529e-01 -3.32233263e-03 +1.17728643e-01 -3.80225554e-02 -1.15697138e-01 +4.47209878e-03 +2.09330935e-02 -6.69801608e-03 +7.11015984e-02 +9.69949886e-02 -6.01470582e-02 +4.65517603e-02 +2.52761692e-03 +6.43752068e-02 -3.64077371e-03 -6.76159710e-02 +8.47347379e-02 +9.97274593e-02 -7.18695000e-02 +2.75280699e-02 -4.97414097e-02 -3.56130451e-02 +4.29966524e-02 -9.35764909e-02 -1.09048761e-01 +6.46167472e-02 -7.33143017e-02 -7.98176602e-02 +1.26360491e-01 -9.67463180e-02 -4.41729696e-03 +4.39794771e-02 +5.15453964e-02 +4.10426930e-02 +4.67061102e-02 +2.63978355e-02 -8.89146701e-03 +1.02790661e-01 +3.81433964e-02 -8.93591270e-02 +1.15691982e-01 -2.98879985e-02 -3.90143320e-02 +3.67325582e-02 +7.69744515e-02 +1.34639814e-02 +1.05462797e-01 +1.12804055e-01 -1.39100719e-02 -9.62548852e-02 +2.51005962e-03 +3.95829491e-02 -5.47499843e-02 -4.97403108e-02 +2.97798216e-02 +6.48275241e-02 -5.68918921e-02 -5.16130701e-02 +5.98944314e-02 +1.06061086e-01 -5.45851402e-02 -9.66998097e-03 +7.80294314e-02 -2.43343860e-02 +7.52436742e-02 +2.16860902e-02 -5.52589893e-02 +4.45188656e-02 -6.09929673e-02 +5.14204130e-02 -1.02534339e-01 +8.29216465e-03 -1.61905140e-02 -7.86975920e-02 -6.00991547e-02 -5.72247710e-03 -6.80249482e-02 +1.78613719e-02 -6.78688139e-02 -3.84223312e-02 -2.90022907e-03 -9.24674645e-02 +1.77684221e-02 -9.27446061e-04 +9.89782363e-02 +8.63277540e-02 -9.65797976e-02 -7.37442672e-02 +5.35182543e-02 -7.76466280e-02 +6.07553534e-02 -3.26150134e-02 +1.99096408e-02 -9.95630249e-02 +1.22989625e-01 +6.90500960e-02 -7.37302825e-02 -1.01168364e-01 -9.72660780e-02 -1.11128159e-01 +5.35148866e-02 +1.95018630e-02 +3.44358608e-02 +4.33043204e-02 +6.87418059e-02 -1.06871918e-01 +1.03484191e-01 -6.82612211e-02 +8.44424516e-02 +1.06380060e-01 +7.32801780e-02 +2.33679395e-02 -1.02486335e-01 +1.09663814e-01 +4.95593436e-02 +7.92355314e-02 +3.05175986e-02 +7.95903876e-02 +2.13149493e-03 +1.08943701e-01 +3.75313461e-02 +2.08111443e-02 +1.76128056e-02 +5.53833805e-02 +8.05612579e-02 +1.00918442e-01 -4.93580997e-02 -1.23065654e-02 +6.62739277e-02 -3.62804607e-02 -5.85086569e-02 +3.63769941e-02 +1.02858536e-01 +2.79305205e-02 +5.93150146e-02 -2.30191723e-02 +8.79530683e-02 +6.58833385e-02 -8.93601403e-02 -1.13834888e-01 -2.67095901e-02 +8.99183303e-02 -4.75931764e-02 +3.26566175e-02 +1.47099011e-02 -1.44480541e-03 -8.63868669e-02 +1.21261038e-01 +2.68266140e-03 +1.81698706e-02 -2.89085042e-02 -6.32772297e-02 -3.23943328e-03 -2.96009257e-02 -9.77596566e-02 -2.58749090e-02 +4.45276722e-02 +3.86917405e-02 -7.16242418e-02 -5.88775100e-03 -7.73567036e-02 -1.55018456e-02 +6.76086694e-02 -8.15854147e-02 +4.87583205e-02 +7.58701190e-02 -2.91146152e-03 +1.25956506e-01 -8.16211253e-02 -7.40065500e-02 +6.07317239e-02 +8.87602419e-02 +8.46150797e-04 +8.12899172e-02 -9.25219506e-02 -9.52918231e-02 -7.84263164e-02 -2.00913232e-02 -4.40296754e-02 -7.48181045e-02 +7.49462321e-02 -4.65370789e-02 +8.87824968e-02 +9.35072601e-02 +2.68463138e-02 -4.48422693e-02 +1.05093114e-01 -8.61276388e-02 -8.12385678e-02 +8.29421878e-02 -1.04915470e-01 +7.05386177e-02 -7.15569500e-03 -1.08332179e-01 +1.01757295e-01 -7.71963224e-02 -1.18952222e-01 -1.90120831e-03 -4.52974960e-02 -4.38092574e-02 -1.27882376e-01 -9.10647511e-02 -2.16888133e-02 +3.73358466e-02 -2.12355815e-02 +8.86921361e-02 -8.63216743e-02 +1.12494074e-01 +1.07691055e-02 +3.73153798e-02 +6.16526119e-02 -7.23555088e-02 +9.94054303e-02 +5.55852465e-02 -3.82864773e-02 -8.98507312e-02 +4.64404561e-02 -6.44972846e-02 +9.10836533e-02 +4.56838049e-02 +8.76754820e-02 -4.88309525e-02 -8.59026387e-02 +6.65555289e-03 +9.54351667e-03 +8.77594277e-02 +2.04120521e-02 +4.69173528e-02 +2.78335959e-02 +7.69041553e-02 -7.99869150e-02 -3.98755744e-02 +4.90201041e-02 -4.44116332e-02 -2.54187882e-02 -4.71230708e-02 -8.89233574e-02 +1.23147942e-01 +5.02248220e-02 -8.94624889e-02 +3.24295163e-02 -3.74295153e-02 -2.11627558e-02 +2.13171076e-02 +5.16715869e-02 +7.94030800e-02 +7.42341205e-02 -5.76764867e-02 +4.53883298e-02 -2.58631427e-02 +7.76993632e-02 -3.88354957e-02 +2.88456082e-02 +7.41431564e-02 -2.75077927e-03 +8.36613476e-02 +1.01859801e-01 -5.24659157e-02 +3.93435434e-02 +7.23415017e-02 +4.32894304e-02 -8.62276182e-02 +1.90013628e-02 +8.78472626e-02 +6.85355812e-02 +1.00149922e-01 -8.61507431e-02 +6.22876771e-02 +7.42679238e-02 -2.79227514e-02 +2.43383236e-02 -2.28655376e-02 +1.92320198e-02 +4.12096865e-02 +9.89248380e-02 -1.00033589e-01 -2.80556139e-02 -2.26990208e-02 -1.18738838e-01 +7.61494366e-03 +6.40582964e-02 -1.07437849e-01 -1.61106035e-03 +8.50129426e-02 -1.04800567e-01 -9.22144279e-02 +3.30090560e-02 -1.34198526e-02 -2.29615588e-02 +8.96437615e-02 -2.75166351e-02 -1.04578651e-01 +1.15900867e-01 +9.77974981e-02 +3.88883837e-02 -5.75507097e-02 -6.06620014e-02 +8.50248337e-02 +7.13856984e-03 +1.02156870e-01 +3.76640595e-02 -7.81736076e-02 -1.77402291e-02 -3.77122383e-03 +8.02258626e-02 +1.10749118e-01 -2.80362787e-04 -2.98426375e-02 +9.78827402e-02 +1.14164032e-01 -5.82513474e-02 +9.75959562e-03 -8.00318569e-02 +4.48961258e-02 -1.10425323e-01 +8.26408789e-02 +3.88171785e-02 -8.99212733e-02 +6.02373108e-02 -5.00903428e-02 -2.94437595e-02 -8.48659351e-02 +1.04254484e-01 -2.67632045e-02 +3.12858112e-02 +9.39045325e-02 +9.73998681e-02 +6.09091446e-02 +8.00034627e-02 +3.07468064e-02 -9.51404311e-03 -4.50520925e-02 +3.10819340e-03 +1.01049773e-01 -6.48376122e-02 +4.41398621e-02 -7.66211748e-02 +4.82873656e-02 -1.13546036e-01 -5.99089414e-02 -1.02303140e-01 +5.43126017e-02 +5.83100617e-02 +5.92008010e-02 -8.08068588e-02 +1.25987917e-01 +8.50215461e-03 -7.59481937e-02 +3.20795774e-02 +4.82892506e-02 +8.84445459e-02 +5.85117936e-02 -2.89952885e-02 -9.08740908e-02 -1.13323443e-01 -7.90596753e-03 +2.06719469e-02 -1.03644438e-01 -3.02328188e-02 -1.12612315e-01 +9.44816023e-02 +4.36524749e-02 +9.06214043e-02 +6.63746893e-02 +7.80364498e-02 +5.81599101e-02 +5.69987185e-02 -1.17562525e-02 +5.19210547e-02 -4.66336906e-02 +1.20690711e-01 -4.45210002e-02 -6.12858236e-02 +6.29669353e-02 +1.21122058e-02 -4.44157049e-02 -4.18117568e-02 -6.92681819e-02 +9.01705176e-02 -3.12042963e-02 -6.18160740e-02 -8.44268054e-02 -9.66199413e-02 -6.93127140e-02 +9.12826322e-03 -1.10337801e-01 -1.01684608e-01 +4.37796898e-02 -7.35152662e-02 -6.34931624e-02 +5.12890406e-02 +3.24791968e-02 +1.20265391e-02 -2.26750523e-02 +9.86933783e-02 -8.49640444e-02 +4.11857441e-02 -6.75062612e-02 +2.92603057e-02 -1.24109199e-03 -8.16622749e-03 -8.49125087e-02 -3.47187533e-03 +6.43941313e-02 +1.34685701e-02 -7.45359808e-02 -9.60754901e-02 +6.96530789e-02 +8.20943937e-02 -7.38035440e-02 -4.19909954e-02 +5.45623899e-02 -1.20525800e-01 +1.02977052e-01 +6.45007119e-02 +2.69324984e-02 +1.08149521e-01 -1.17792614e-01 -2.98710261e-02 -6.11483343e-02 -3.46483327e-02 +7.52377957e-02 -1.07257687e-01 -8.14956725e-02 +1.06615588e-01 -2.83930469e-02 -4.16613556e-02 +1.27269952e-02 -1.99111905e-02 +3.26935835e-02 -4.03576083e-02 +6.42172247e-02 +7.76141882e-02 -1.04224458e-01 -9.93857980e-02 -9.80405211e-02 +3.22754011e-02 +6.08266145e-02 +6.57918379e-02 +7.76637942e-02 +1.01107404e-01 +9.91894230e-02 -8.53602812e-02 -1.13572903e-01 +9.34925303e-02 -1.66445673e-02 +2.39702109e-02 -4.29847203e-02 +4.67051752e-02 -1.05286524e-01 +1.07115932e-01 +7.39193037e-02 +9.68964696e-02 +9.31806117e-03 +7.15378299e-02 +7.12819099e-02 -6.27180710e-02 -1.01949349e-01 -5.88563271e-02 -2.98713967e-02 -5.08044995e-02 +1.07746802e-01 -3.06789801e-02 -5.56675270e-02 -3.16800214e-02 -7.13068917e-02 -8.98027718e-02 +6.27947822e-02 +2.51108389e-02 +1.00135535e-01 +9.37490463e-02 -5.70663325e-02 +8.98008496e-02 +1.13772592e-02 -3.99869680e-02 -2.39535719e-02 -3.26300301e-02 -8.44431669e-02 -5.16569018e-02 +6.95745349e-02 -6.17384017e-02 +3.07199787e-02 +9.23709571e-02 -1.00483879e-01 +2.87237205e-02 -3.11237182e-02 +2.55439989e-02 +1.04926802e-01 +5.69128431e-02 -3.78937647e-02 +6.39410615e-02 +1.24560222e-01 -4.68001254e-02 -4.30300124e-02 -1.02651112e-01 +7.86590502e-02 -4.58097830e-02 +4.04195711e-02 -3.01898140e-02 -2.80962307e-02 -7.90851861e-02 -6.14872128e-02 -7.11427554e-02 -5.91845950e-03 -5.52897789e-02 +2.33759787e-02 -7.24966004e-02 -5.31620830e-02 -7.93254748e-02 +8.68524760e-02 -8.63005221e-02 -1.09541841e-01 +2.08128784e-02 +7.26983398e-02 +1.15160093e-01 +1.21466860e-01 -4.74007130e-02 -6.15033731e-02 -8.37948099e-02 -1.37146022e-02 -9.28478241e-02 -7.07551241e-02 -4.46120240e-02 +3.38678956e-02 +6.76553622e-02 +1.08269058e-01 -1.37212425e-02 +1.81864817e-02 +6.67451397e-02 +1.24219209e-01 -6.96659042e-03 -8.86371955e-02 -5.45957610e-02 +3.08695715e-02 -7.98257366e-02 -5.15601039e-02 -1.83532629e-02 -7.66509548e-02 -5.00388108e-02 -5.75801656e-02 -2.54201498e-02 +5.84828369e-02 +3.57797630e-02 -2.39379634e-03 -9.78797674e-02 +1.72538981e-02 +9.22707766e-02 +8.80782008e-02 -9.69344303e-02 -4.07828465e-02 +6.39372543e-02 -1.03934303e-01 +1.91507544e-02 -9.50251073e-02 -1.06620803e-01 -1.59360394e-02 +4.25890274e-02 -1.09473867e-02 +2.80770548e-02 -1.00618295e-01 -9.69873592e-02 +8.88286978e-02 +7.98344761e-02 +1.08783253e-01 -8.71343985e-02 +2.01685587e-03 -7.78821558e-02 -2.72179637e-02 +6.07890561e-02 -5.75363189e-02 +8.18383321e-02 +5.62551543e-02 +3.29776332e-02 +3.60962888e-03 +8.49462673e-02 +1.58152971e-02 +1.00161411e-01 -7.80383050e-02 +7.51573825e-03 +4.91349399e-02 +4.25381958e-02 +7.52047226e-02 -5.04497178e-02 +9.51518640e-02 -2.19757352e-02 -2.97448263e-02 -1.10084064e-01 +8.34130719e-02 -3.68714184e-02 +9.30835977e-02 +8.65681842e-02 +1.86930187e-02 -6.71874955e-02 -7.45019391e-02 +5.96538447e-02 +5.68194054e-02 -4.89527062e-02 -9.72797573e-02 +5.05225770e-02 -9.28969085e-02 -3.32139991e-02 +2.92363763e-02 -1.05101824e-01 +1.06277429e-01 -1.83222182e-02 -1.30221189e-03 +5.48783652e-02 +2.04248056e-02 -3.69404368e-02 -1.01708330e-01 +8.54842439e-02 -4.09867316e-02 +3.38154510e-02 +4.57784049e-02 +4.34630774e-02 +4.28914949e-02 +6.32595196e-02 -1.25767589e-01 +3.61243449e-02 -8.84802714e-02 -1.39352456e-02 +7.18324557e-02 -7.12189898e-02 +3.39203104e-02 +6.52362630e-02 +4.56364602e-02 +6.55522570e-02 +1.24874763e-01 -1.04794972e-01 -2.51335893e-02 -8.99739787e-02 +3.92918698e-02 +6.70361593e-02 +5.09869121e-03 +6.41609803e-02 -5.31182699e-02 -9.26643834e-02 +1.12454697e-01 -6.30356818e-02 +5.17574511e-02 +1.25560045e-01 +1.33842137e-02 +4.73716389e-03 -2.82582156e-02 -4.39765342e-02 +1.70589145e-02 -7.76625425e-02 +2.69500297e-02 +8.24543461e-02 +4.50776219e-02 +7.64453039e-02 -7.06408024e-02 +6.25318885e-02 +5.97300567e-02 +1.62930638e-02 +1.00359552e-01 +6.37569502e-02 -9.12306085e-02 -8.30038637e-02 +1.02510173e-02 +8.90754610e-02 +2.99518891e-02 +1.22490309e-01 -3.57408412e-02 -4.63105142e-02 -3.41999270e-02 +2.31609847e-02 -3.34630273e-02 -1.07627012e-01 -1.13347828e-01 -2.43752659e-03 -5.62125817e-02 -3.49290036e-02 -7.74324834e-02 -9.59478542e-02 -8.41260143e-03 +7.31605887e-02 -1.17453381e-01 -5.68313785e-02 -3.48004773e-02 +9.27427709e-02 +1.93934962e-02 +5.45327589e-02 -5.49545214e-02 +9.50709581e-02 -4.32878025e-02 +5.06069735e-02 +4.19919193e-02 -6.09442405e-02 +2.77858246e-02 +3.36869210e-02 -7.08415732e-02 +7.10761175e-02 +1.38540436e-02 -1.03323147e-01 +3.34362537e-02 -3.05436999e-02 -8.57311338e-02 +9.69568565e-02 -2.46044230e-02 +4.01559733e-02 +9.07013938e-02 +5.69858328e-02 +1.17044114e-01 -1.18891135e-01 +1.26611978e-01 +6.63018525e-02 -6.31523803e-02 +3.15438653e-03 +1.54485684e-02 +1.10637434e-01 -6.63672537e-02 -2.04449706e-02 +6.33725375e-02 +4.59715836e-02 +5.76710440e-02 +1.08864106e-01 -8.73981863e-02 +1.07170150e-01 +8.43619276e-03 -4.56624441e-02 -9.03567225e-02 -7.36543164e-02 +1.07718967e-01 +1.26307458e-02 +2.41058990e-02 +5.43319248e-02 -1.00104980e-01 -2.07217429e-02 +6.29380420e-02 -1.21502532e-02 +4.55418974e-02 +6.94443733e-02 +1.05723977e-01 -1.12002030e-01 +3.34368125e-02 -1.76529847e-02 +9.15138051e-02 -9.20209512e-02 +3.76589485e-02 -9.51762795e-02 -5.54144233e-02 +2.33335011e-02 +1.51017001e-02 -1.08718351e-01 -7.72823114e-03 +3.69363502e-02 -7.44494721e-02 +9.27433297e-02 +7.83653036e-02 +8.29713866e-02 -2.15072650e-02 -8.51578936e-02 -1.60680953e-02 -1.51575785e-02 -9.58770607e-03 +1.45734828e-02 -4.27594818e-02 +1.17318995e-01 +3.20705548e-02 -5.15553765e-02 -8.14739540e-02 +1.87154915e-02 +1.23481594e-01 +2.38619298e-02 -5.66970790e-03 +8.53725076e-02 -7.46768489e-02 +7.55380169e-02 +8.37657824e-02 +2.71053053e-02 -7.13246763e-02 +1.06694594e-01 +1.18229389e-01 +7.78542133e-03 +5.90045787e-02 -2.50333194e-02 +3.15586701e-02 +3.41925472e-02 +1.37647404e-03 +4.45980951e-02 +8.90285056e-03 -4.53079194e-02 +3.89670469e-02 -1.13712713e-01 -4.23728339e-02 +4.28645089e-02 -1.24225505e-02 -2.99563557e-02 -2.91801896e-02 -1.01459652e-01 -1.00997202e-01 -1.16721094e-02 -7.58548528e-02 -1.16830088e-01 -4.93782423e-02 +1.21522643e-01 -7.96529874e-02 +6.26919121e-02 -1.15299106e-01 -8.63904655e-02 +3.55205797e-02 +6.91736713e-02 +1.56359728e-02 +8.34732279e-02 +5.86362407e-02 +9.52471346e-02 +6.01533912e-02 +9.72762257e-02 -9.85735282e-02 -6.57304078e-02 +7.18324557e-02 +1.06869258e-01 -6.51008114e-02 +4.34947610e-02 -1.23389840e-01 +3.45637985e-02 -7.45297223e-02 +1.13907859e-01 -1.03562564e-01 +2.40657522e-04 +1.21106431e-01 +6.00077771e-02 -1.16026001e-02 +6.35728315e-02 -1.46503020e-02 +4.36410829e-02 -6.90031156e-05 -2.39440631e-02 -3.17506939e-02 +3.52780707e-02 +7.93533679e-03 +6.29300475e-02 +1.18437693e-01 -1.04864821e-01 -5.89326546e-02 -7.32735097e-02 -7.90163781e-03 -1.70946028e-02 -5.25604282e-03 +1.06284671e-01 +6.49551600e-02 -1.92906207e-03 -4.09630165e-02 +2.66604479e-02 +3.48419286e-02 +1.12024415e-02 +1.08543590e-01 +1.13576949e-01 +6.84310868e-02 -3.01269982e-02 +4.90097255e-02 +1.89756099e-02 +1.65319685e-02 +5.09608574e-02 -3.95905226e-02 +8.95540193e-02 +6.48529530e-02 -9.11562964e-02 -6.17504418e-02 -2.59254854e-02 +2.94271410e-02 +1.17260501e-01 +1.24530092e-01 +6.34568036e-02 -4.01920825e-03 -1.04447588e-01 -3.65258045e-02 -7.96794668e-02 +1.09005988e-01 +3.62945870e-02 +9.11000967e-02 -3.09648383e-02 +1.08277299e-01 -7.33734965e-02 -5.45088854e-03 -1.10621497e-01 +2.33168341e-02 +6.04746491e-02 +1.23809809e-02 -7.49420971e-02 -3.23621668e-02 -1.15771927e-01 -7.49875382e-02 -3.91306914e-02 -1.01351388e-01 +7.37457052e-02 +8.76544788e-02 -3.24242562e-02 +6.80672601e-02 -2.55741682e-02 -9.66671556e-02 +4.32420485e-02 -1.34677719e-02 +1.25211954e-01 +7.82961696e-02 +6.56388998e-02 +3.93216871e-02 +8.70965496e-02 +5.98722175e-02 +1.17047563e-01 -5.14882468e-02 +6.47143275e-02 +2.25307769e-03 -2.01680958e-02 +1.00788049e-01 +9.89545602e-04 +3.53262499e-02 +1.02296606e-01 +7.72717744e-02 +1.15544826e-01 +5.79793490e-02 -9.86743867e-02 -4.07176018e-02 +6.87363418e-03 +6.14007376e-02 -2.81585916e-03 -1.00266173e-01 +1.05777405e-01 +5.98291382e-02 +1.68428235e-02 +1.15760155e-01 -6.76894188e-02 +7.20689893e-02 +8.98171514e-02 -1.51391411e-02 +2.63519231e-02 +1.56766083e-02 +6.75771311e-02 -8.07732046e-02 +7.39257634e-02 -1.45301977e-02 +4.65952717e-02 +1.09847978e-01 +6.90100715e-02 +7.23250434e-02 -6.36733174e-02 -4.71817814e-02 +4.59188670e-02 -8.40308070e-02 -5.83176799e-02 -1.01115786e-01 -6.83959424e-02 +1.12695307e-01 +6.46842867e-02 -7.88336024e-02 +1.12864994e-01 -1.10171378e-01 -6.02913555e-03 -5.24535552e-02 -5.55775799e-02 +5.35464846e-02 -1.22271888e-01 -4.44937199e-02 -5.84560931e-02 +1.19184598e-01 +6.27395092e-03 -1.20152250e-01 -8.65429565e-02 +5.50465919e-02 +1.21350493e-02 +2.46059038e-02 +2.35382542e-02 +8.59005377e-02 +3.83650661e-02 -8.44432637e-02 +5.06933667e-02 +2.82607544e-02 -1.07793547e-01 -2.51475330e-02 +1.24158122e-01 -4.92462814e-02 -5.11898659e-02 +7.94266537e-02 +5.81888109e-02 +4.45298254e-02 -3.35308760e-02 +3.69476415e-02 +1.24307156e-01 -1.44452145e-02 -6.71935529e-02 -8.46909210e-02 +7.72007778e-02 +5.22928089e-02 +3.22387666e-02 +4.16664332e-02 +1.08382426e-01 +8.89782980e-02 +8.65657181e-02 -1.37249073e-02 +9.08660963e-02 +8.11297372e-02 +1.09226376e-01 -3.53539214e-02 +1.13090370e-02 -3.07035260e-02 -3.60622033e-02 +1.33752236e-02 -1.48968194e-02 +5.07215448e-02 -1.03952177e-01 +2.17264835e-02 +1.00034662e-01 +1.61782149e-02 -2.83119623e-02 -2.98151132e-02 +4.63233665e-02 +3.99715565e-02 +1.02156885e-01 -1.00812107e-01 +4.41071056e-02 +3.49130109e-02 -3.37014869e-02 +7.93055147e-02 -4.18928005e-02 +5.95146790e-02 +9.92978141e-02 -8.86169747e-02 +1.19772315e-01 -2.47922111e-02 +2.57956702e-02 -1.05468549e-01 +6.45846650e-02 -5.61665520e-02 -1.15609374e-02 -8.97773206e-02 -5.39733581e-02 -6.66664764e-02 -2.74508540e-02 -1.13108605e-01 +6.30886331e-02 +2.14375872e-02 -5.88848479e-02 +5.24841957e-02 +6.50525689e-02 -3.16385515e-02 +1.74087752e-02 +1.25768185e-01 -5.16452491e-02 +5.43442927e-02 -6.79053292e-02 +3.99469659e-02 +1.36410315e-02 -1.09570533e-01 -1.58638638e-02 +1.64116360e-02 -4.56893742e-02 -1.07339501e-01 -5.21408301e-03 +7.54528418e-02 +6.38776720e-02 +8.47207680e-02 +9.30691138e-02 -6.10709526e-02 +1.04276411e-01 +6.27266392e-02 -2.13080700e-02 +2.06301901e-02 -4.69192564e-02 -1.02318011e-01 -3.74093279e-02 +1.15240842e-01 +9.89563856e-03 -7.55091533e-02 -5.74742928e-02 -8.38715062e-02 -8.98829028e-02 +5.46226501e-02 +2.45175185e-03 -1.08108319e-01 -6.34020418e-02 -1.25829047e-02 -8.58101249e-02 +1.16029061e-01 -8.93333182e-02 +6.15042448e-02 +5.53874597e-02 -2.93655023e-02 -1.51886623e-02 +4.02173996e-02 -8.91853347e-02 +1.00655466e-01 +5.12386933e-02 -1.20038942e-01 +1.19375266e-01 -1.05488099e-01 -9.96365547e-02 -3.33970934e-02 -8.25805739e-02 -9.09828618e-02 +3.29450779e-02 +2.73768436e-02 +1.76078659e-02 +2.36260146e-02 +5.50460406e-02 +1.25415981e-01 +4.58535738e-02 +2.48317681e-02 -2.58642081e-02 +4.58159037e-02 +6.35148883e-02 +5.64556941e-02 -1.40903646e-03 +9.73441377e-02 -7.04510659e-02 +3.59382890e-02 -9.79763940e-02 -1.11107878e-01 -8.83200020e-02 -3.41086127e-02 +5.92475124e-02 +1.17459893e-01 -3.70461755e-02 +5.14021665e-02 +7.05616772e-02 +5.98110333e-02 -7.32100233e-02 -3.94205889e-03 -6.33299053e-02 -5.26317805e-02 -1.28901796e-02 -1.61970239e-02 -7.43988380e-02 +1.20783709e-02 -1.17930800e-01 -1.41606843e-02 +1.71621644e-03 +4.08907942e-02 +9.03503820e-02 -1.45288482e-02 -9.32525992e-02 +1.10250711e-01 +6.74425587e-02 +1.11866891e-01 +9.55033898e-02 +1.22667462e-01 +3.27478461e-02 +9.89490598e-02 -5.60549982e-02 +1.99706927e-02 -1.67102311e-02 -6.38371892e-03 -6.78543299e-02 +1.03806190e-01 +2.95001026e-02 -6.73340410e-02 -8.41517225e-02 +5.61635345e-02 +8.10535550e-02 +8.21252838e-02 +1.08466759e-01 -3.49279195e-02 -6.05490815e-04 +7.14789331e-02 -3.81512009e-03 +1.06432937e-01 +4.54324484e-02 +3.83077227e-02 +8.78620744e-02 +8.28209296e-02 -4.18249592e-02 +5.57683595e-02 -1.01961143e-01 +2.39457991e-02 -1.03304155e-01 -4.40260302e-03 -6.21036114e-03 -1.05025679e-01 -2.88902260e-02 +2.87848711e-02 -4.68611643e-02 -6.32604361e-02 -6.71383590e-02 +1.08451843e-01 -9.53506678e-02 -4.90871556e-02 +4.54459852e-03 -2.82651372e-02 +6.27283156e-02 +1.00656740e-01 -9.72662717e-02 -7.55118281e-02 +7.62631670e-02 +1.08909018e-01 -2.89014056e-02 -5.16993850e-02 +1.10818259e-01 -8.74716491e-02 +1.09005876e-01 -8.81827846e-02 +1.05118928e-02 -1.26709878e-01 -1.05602123e-01 +1.14208996e-01 -5.29112145e-02 +4.86508757e-02 +7.36847660e-03 -4.65923510e-02 -2.66515631e-02 -6.32517855e-04 +1.99774746e-02 +8.40424076e-02 +3.34982984e-02 +8.24102610e-02 +1.15479708e-01 +4.37838957e-02 -1.15121678e-01 -9.89651978e-02 -1.00327894e-01 -4.24269289e-02 -2.59209648e-02 -6.64101616e-02 -3.01189609e-02 -5.08056134e-02 +6.97433427e-02 +1.80796497e-02 +1.16902843e-01 -6.93944562e-03 -4.54482436e-02 -2.79322080e-02 +7.36245811e-02 +7.01952875e-02 -9.92962271e-02 +6.77622184e-02 -2.92687882e-02 -5.32561056e-02 +5.73126078e-02 -2.94446424e-02 -4.15084399e-02 +8.19460526e-02 +1.54961180e-02 +3.31095196e-02 +5.56770675e-02 +9.23997983e-02 +7.62162805e-02 -5.35167828e-02 +2.24511288e-02 -9.77002084e-02 +4.64643352e-02 +8.34655482e-03 -4.86263856e-02 -3.23157641e-03 -7.18614161e-02 -6.00833371e-02 -1.09280184e-01 -3.20865847e-02 +4.17873599e-02 -6.85296655e-02 +8.60476680e-03 +1.11554533e-01 +7.40966946e-02 -3.07468753e-02 -3.52364928e-02 -7.43906945e-02 +5.50267659e-02 +4.09563556e-02 +6.08313084e-02 -9.72907990e-04 -6.71822578e-02 -1.04439870e-01 +6.70495583e-03 +1.08359694e-01 -7.23017231e-02 -7.48171359e-02 -2.01260243e-02 +4.28264923e-02 -3.77711430e-02 +6.38263449e-02 +1.13437712e-01 -5.08707762e-02 +1.17634945e-02 -9.12617221e-02 -1.27993021e-02 +5.33019155e-02 +8.33135769e-02 +9.38953161e-02 +2.15170383e-02 -1.90394856e-02 -4.87847701e-02 -1.61803421e-02 -4.08077787e-04 -1.05277680e-01 +8.26122910e-02 +9.32849944e-03 -5.40101863e-02 -9.07919463e-03 +3.45256217e-02 -2.14092787e-02 -8.12154412e-02 -6.51689321e-02 -1.08930402e-01 -3.02665420e-02 -4.14377591e-03 -1.08005084e-01 +8.33897367e-02 +8.75893980e-02 -1.00943066e-01 -6.21258244e-02 +4.46230881e-02 -3.78191993e-02 +2.82788444e-02 -5.54994419e-02 -9.05923024e-02 -8.24355781e-02 -5.18283732e-02 +1.85784698e-02 -6.11748137e-02 +5.73579632e-02 +1.12948127e-01 +1.37347300e-02 +4.32821140e-02 +2.62225121e-02 +8.40256885e-02 +6.13260530e-02 -6.94204941e-02 -4.84407693e-02 -1.05819467e-03 +4.68073115e-02 +7.19355866e-02 +4.96781729e-02 +2.88447421e-02 -4.44016568e-02 +5.16165383e-02 -6.49684444e-02 +7.04930872e-02 +1.12704933e-01 +1.05272099e-01 +8.68154988e-02 -1.07247055e-01 -1.65333282e-02 -5.32106310e-02 -1.64111126e-02 +4.95086499e-02 -1.07827350e-01 +1.87773015e-02 -8.32615569e-02 -4.23270697e-03 -6.01951666e-02 +7.99048543e-02 +9.97026414e-02 -3.95917967e-02 -4.47355993e-02 +2.39601731e-02 -4.79164235e-02 +5.93839698e-02 -1.04208238e-01 +1.24510363e-01 -8.44526365e-02 -7.36995116e-02 +1.10301577e-01 +2.17976235e-02 -9.19829831e-02 -1.07421177e-02 -3.97841036e-02 -9.53214169e-02 -1.11839741e-01 -5.57331964e-02 +6.89282715e-02 -2.48470362e-02 -8.94320980e-02 +9.90196392e-02 +8.37289989e-02 +1.80650502e-02 +4.88302000e-02 -5.17202318e-02 +2.28996053e-02 -3.10718641e-02 -1.08676754e-01 +2.06874982e-02 +6.61264956e-02 +1.21600488e-02 -1.13554128e-01 -9.46829990e-02 -9.85857472e-02 +9.53029394e-02 -9.44594741e-02 +8.71739313e-02 +1.00527123e-01 -1.10181116e-01 -1.13119982e-01 -4.46986817e-02 -8.43436196e-02 -5.87368533e-02 -8.79334006e-03 +4.73351926e-02 +6.17090464e-02 -1.27799378e-03 -6.08863905e-02 -7.21377432e-02 +6.59405887e-02 -2.42074654e-02 -2.14300733e-02 +8.53180066e-02 +7.36172497e-02 +1.03207968e-01 +7.64495600e-03 +7.03756362e-02 +2.06099115e-02 +1.02271631e-01 -1.11792877e-01 -1.03846520e-01 -3.21646892e-02 -1.10424608e-01 +4.48658727e-02 +1.18036568e-01 +3.00231930e-02 -6.37844531e-03 +3.80863510e-02 +1.01157501e-01 +7.88877010e-02 +1.00121200e-01 -2.49197297e-02 -1.22064903e-01 -9.56475884e-02 -4.77828160e-02 -1.06613390e-01 +4.76675592e-02 +8.17486495e-02 +1.06186748e-01 +6.00502267e-02 +2.71142460e-02 +1.74155589e-02 -6.68640435e-03 -2.31627058e-02 +2.20599324e-02 +1.19083114e-01 -1.10654674e-01 -2.68499199e-02 +4.84366827e-02 +2.18399893e-02 +1.68282073e-02 -3.66321318e-02 +2.96630040e-02 +5.07424632e-03 -7.84788188e-03 -1.83571205e-02 +2.79383734e-04 -5.60328783e-03 -6.96085319e-02 +4.27218042e-02 +4.94417399e-02 -6.53189048e-02 -2.89325118e-02 +1.06504761e-01 +2.97178607e-02 +2.89759897e-02 -1.91664379e-02 -1.41086029e-02 +2.69823167e-02 -5.26062958e-02 +2.72594262e-02 -1.88008491e-02 +4.98934090e-02 +4.60383408e-02 +4.39656675e-02 -4.68495153e-02 -4.91436645e-02 -3.88246626e-02 +7.82540068e-02 +3.54219414e-02 -1.25796124e-01 +2.79915221e-02 +4.92883939e-03 +4.01497958e-03 -9.68986973e-02 +5.10911718e-02 -1.94092486e-02 +4.53950688e-02 -3.27041186e-02 +7.68661499e-02 +5.98255284e-02 -2.50210073e-02 -1.14112876e-01 -1.14170827e-01 +6.74890950e-02 -3.29871774e-02 +3.62268202e-02 +9.23621580e-02 -1.32548241e-02 +4.40851152e-02 +1.30677633e-02 +4.88164388e-02 +6.20162003e-02 -2.86097247e-02 +1.12577537e-02 +1.19157456e-01 -5.16896360e-02 -2.76570991e-02 -5.92255220e-02 +1.06651649e-01 -9.03743058e-02 -7.87477940e-02 -7.54497051e-02 -1.54849212e-03 -9.47143510e-02 -6.53710589e-02 -3.65533233e-02 -1.07397698e-01 -6.72635809e-02 -3.40761207e-02 +1.64860524e-02 -3.06553431e-02 +3.33844498e-02 -7.71311596e-02 +1.13956511e-01 +4.60301852e-03 -4.29639481e-02 +1.11683525e-01 -9.20793787e-02 +4.22453620e-02 -9.16069224e-02 +1.29180714e-01 +7.15186670e-02 +1.10115618e-01 -6.47324324e-02 -3.71656865e-02 -2.91669532e-03 +5.48328878e-03 -2.94364728e-02 +9.56808478e-02 -1.49110174e-02 +4.25027572e-02 -2.02741884e-02 -3.39883305e-02 -4.36982550e-02 -1.08601793e-03 +1.01373196e-01 -9.77744684e-02 +8.42249319e-02 -6.78238422e-02 +1.84632689e-02 +1.25995621e-01 -2.71322727e-02 -3.61225754e-02 -4.75386865e-02 -4.41354327e-02 +9.56368148e-02 -8.73253942e-02 -1.07086085e-01 +4.60834661e-03 -8.32997076e-03 -8.04693252e-02 +3.04939672e-02 -2.94518517e-03 -7.74973705e-02 -4.22696471e-02 -8.82115439e-02 -1.04219951e-01 -1.19445421e-01 +9.63293388e-02 +4.85680997e-02 +1.07772671e-01 +9.50073898e-02 -1.20623402e-01 -6.60968870e-02 +5.34698218e-02 +1.02337666e-01 -6.80368766e-02 -7.50911757e-02 -2.46029440e-02 +6.99202344e-02 +6.08996451e-02 -8.58546421e-02 +4.77957502e-02 +6.79874569e-02 -8.89795646e-02 -1.17561640e-03 -1.18686311e-01 +1.20580137e-01 -1.44364247e-02 -3.21911536e-02 +4.87679318e-02 +4.75789383e-02 +8.84400457e-02 +5.03192917e-02 -6.32765591e-02 -9.90885198e-02 -3.73065621e-02 +3.27427275e-02 +3.10245939e-02 +1.31080925e-01 -3.47145051e-02 -6.34566620e-02 +1.42297149e-02 -5.49536981e-02 +1.10720798e-01 +1.03896530e-02 -1.16160482e-01 -5.40268281e-03 -1.18228961e-02 +8.60406309e-02 +2.60003540e-03 +1.09182887e-01 +4.43132818e-02 -5.17839380e-03 +6.17457628e-02 +1.06761910e-01 -2.73121148e-02 +9.53955948e-02 -1.00921683e-01 -1.22944564e-01 -5.59594333e-02 +1.28085036e-02 -5.28590791e-02 +7.96248987e-02 -4.49315123e-02 -1.02339506e-01 +1.61667112e-02 -7.00237975e-02 +7.76774809e-02 -1.31366998e-02 -7.24249482e-02 +8.06354359e-03 +1.33786574e-01 -2.44536120e-02 +2.38208822e-03 +1.27828315e-01 -2.32907254e-02 +6.89621940e-02 +1.11090906e-01 -8.85972753e-02 -6.85762390e-02 -5.71747236e-02 -6.79464191e-02 -2.00979542e-02 +6.69630840e-02 -5.05427830e-02 -8.39066133e-02 +3.26611064e-02 +8.09865817e-02 -2.51524225e-02 +6.15204051e-02 +1.69462096e-02 -4.57089618e-02 -6.44500628e-02 -1.72087029e-02 -7.58752823e-02 -1.22667365e-01 -6.40424490e-02 -5.64965867e-02 +5.08447960e-02 +4.93479483e-02 +4.42103520e-02 -3.34107922e-03 -3.57494764e-02 +6.95151761e-02 +3.47883487e-03 -7.60999396e-02 +2.37692781e-02 -2.54068058e-02 -1.16030440e-01 +8.26793537e-02 +2.34413799e-02 -5.96164577e-02 +5.84580489e-02 -7.08823502e-02 +2.67585996e-03 +3.24825458e-02 -3.25847007e-02 +4.28539179e-02 +1.20586775e-01 +1.32711351e-01 +3.34364474e-02 +9.75559503e-02 +6.37841374e-02 +3.63266580e-02 +4.79481705e-02 -5.65684773e-03 +1.09949790e-01 -7.76634216e-02 +1.22549184e-01 -1.38264559e-02 +1.12347826e-01 -1.06758527e-01 +2.75937784e-02 -8.02044794e-02 -4.53115962e-02 +1.75013095e-02 -9.13802236e-02 +4.05957699e-02 -8.86094104e-03 -1.81877017e-02 +9.38793644e-02 +2.71848049e-02 -6.53688386e-02 +7.93649927e-02 -1.76803563e-02 -9.21371877e-02 -8.00287053e-02 -2.32849997e-02 +8.02006945e-02 +6.81907088e-02 -6.98535740e-02 +4.21439391e-03 -2.87813693e-02 -5.87907247e-02 +3.46554704e-02 +5.99296056e-02 +4.76475097e-02 -1.36419684e-02 +3.30055393e-02 -1.35968607e-02 +8.35448131e-02 +1.11482784e-01 +6.23748899e-02 +1.10064022e-01 -8.27701390e-02 -8.63461848e-03 -7.61523172e-02 -1.41397314e-02 +3.92753296e-02 -6.35678992e-02 -3.55623551e-02 +4.35021818e-02 +9.61148820e-04 +2.87746992e-02 +1.03657745e-01 -2.60991994e-02 -6.65128678e-02 -7.15133995e-02 -3.01753264e-02 -9.83770192e-02 -5.82974330e-02 -2.13410873e-02 -3.59175019e-02 -1.24839330e-02 -1.29416743e-02 -9.79728848e-02 +3.64176184e-02 -1.14191294e-01 +7.60347303e-03 -9.67661366e-02 +1.20378926e-01 +1.18339211e-01 +1.11643076e-02 +7.59878010e-02 -5.92824481e-02 -6.16606139e-02 -4.44238307e-03 -1.00241840e-01 +6.46140128e-02 +4.40888330e-02 +6.84722662e-02 -1.08892694e-01 -1.73462438e-04 -9.92224738e-02 -6.13140352e-02 -4.09351401e-02 +8.35948661e-02 +7.68160224e-02 -5.56352325e-02 +7.07550421e-02 +1.72777828e-02 -5.31258471e-02 -7.81193301e-02 +1.11258581e-01 +1.16385939e-02 -6.18935898e-02 +5.00984974e-02 -9.18576643e-02 +3.42379150e-04 -9.18896198e-02 -5.74707314e-02 -6.42194375e-02 +9.24272165e-02 -8.74389037e-02 -5.30521013e-02 +6.23644665e-02 +4.69744205e-02 +9.94045958e-02 -1.59554388e-02 +5.20524979e-02 +6.16231449e-02 +6.62579015e-02 -1.75904427e-02 -8.25634524e-02 +1.22909702e-01 -6.04109727e-02 +3.45580280e-02 +1.03703402e-01 +6.78878874e-02 -5.39982878e-02 -3.52663510e-02 +1.31158575e-01 +1.10144749e-01 +6.76470026e-02 +1.08289756e-01 +2.46212408e-02 +4.64682393e-02 -7.80123100e-02 +1.26343086e-01 +5.58577739e-02 -9.81230382e-03 +3.67892347e-02 +2.45209336e-02 -1.23416865e-02 -6.69454318e-03 -1.08096376e-01 +8.00198168e-02 -8.38252604e-02 +1.01765059e-01 +7.69344950e-03 -9.69342738e-02 +1.26657719e-02 +9.40620303e-02 +9.91647840e-02 -1.92258449e-03 -1.64446961e-02 +1.29326507e-01 +8.30030367e-02 +5.10415472e-02 +7.03989342e-02 +1.04034478e-02 -8.29224959e-02 -9.41784009e-02 -6.75547197e-02 +8.61416832e-02 -1.98569484e-02 -4.11236398e-02 +7.47501105e-02 +1.00945182e-01 +1.12562679e-01 +5.93060665e-02 -6.38355687e-02 -1.02431662e-01 -6.85207099e-02 +2.09369063e-02 +1.26983687e-01 +7.09435046e-02 -3.90244164e-02 -2.70009264e-02 +9.92296785e-02 +2.54778657e-02 +7.39114955e-02 -2.96912435e-02 -1.03600167e-01 +6.18755780e-02 +4.55304459e-02 +1.39539286e-01 -3.42009328e-02 +1.17075659e-01 -7.26412982e-02 +9.35289562e-02 +7.73504516e-03 -1.84343047e-02 +8.03690180e-02 -1.18065411e-02 +7.62550831e-02 -2.19301395e-02 -9.88219981e-04 +8.76901764e-03 -9.93793458e-02 -4.26783971e-02 -7.12424293e-02 -1.18231513e-01 -1.49021959e-02 -4.95045893e-02 -8.75614062e-02 +9.77711007e-02 +6.30220473e-02 -9.44605172e-02 -1.30397379e-01 +8.54379162e-02 -1.18690088e-01 -1.28926158e-01 +3.40170860e-02 -3.72200692e-03 +6.66744635e-03 -5.92065938e-02 -3.56098376e-02 -3.47602763e-03 -3.02164978e-03 -1.09663391e-02 -4.32039984e-02 +8.96545723e-02 -5.37070073e-02 +8.64356458e-02 +1.13080859e-01 -8.27187747e-02 -5.71371056e-02 -6.68767542e-02 -2.78024990e-02 +5.25096543e-02 -4.23980244e-02 +1.02839209e-01 +1.19163834e-01 -4.57629003e-02 -6.74362928e-02 +6.28181696e-02 +7.37804994e-02 +2.19736155e-02 +1.07841641e-01 -8.94113444e-03 -4.01495993e-02 +4.56838831e-02 -2.40436587e-02 +8.57741013e-02 -6.03789948e-02 -5.02034277e-03 +7.46520683e-02 +9.85709056e-02 -7.16640651e-02 +4.67229635e-03 -5.08847870e-02 -7.62050599e-02 -2.13417765e-02 -5.69037460e-02 +2.30377782e-02 -1.31571665e-01 +5.52777685e-02 +1.23554897e-02 -5.80357052e-02 +1.19932711e-01 -1.12974450e-01 +3.94646525e-02 -1.38575256e-01 -7.28515685e-02 +1.14993446e-01 -2.67173555e-02 -1.13268822e-01 +6.02955781e-02 +1.10262886e-01 -3.63875851e-02 +3.41681466e-02 -1.01906165e-01 +5.46455793e-02 +6.45078495e-02 -1.34716304e-02 +1.26958750e-02 +1.49820382e-02 +3.48995184e-03 -6.80952147e-02 -4.18071114e-02 -1.33923739e-01 -8.23193640e-02 +9.85638276e-02 +1.11040756e-01 -9.71091315e-02 -9.93484282e-04 -5.10780700e-02 -2.04939861e-02 -5.00970567e-03 +5.60286157e-02 -4.89496849e-02 -1.09516673e-01 +1.17652789e-01 -3.75450850e-02 -8.02272856e-02 +1.28379986e-02 +1.09475693e-02 +6.69344217e-02 -5.60976677e-02 -1.21769719e-01 +2.32087579e-02 -9.49108675e-02 +1.11378141e-01 +6.23547435e-02 -7.17715546e-02 +6.36411831e-02 -4.31598946e-02 -1.75200328e-02 -1.05188064e-01 -1.10873789e-01 +5.56499884e-02 -3.32898386e-02 +3.28394510e-02 -5.77388052e-03 -1.08544096e-01 -6.17300905e-03 -9.95640382e-02 +7.65777901e-02 +9.76455584e-02 +1.19233495e-02 +3.98101192e-03 -2.68465467e-02 -2.38394178e-02 -6.37720451e-02 +8.39411467e-02 +4.97741215e-02 -1.22086562e-01 -5.10461256e-02 -9.96823385e-02 +1.61048807e-02 -6.63469583e-02 -3.07225976e-02 +3.39007862e-02 +8.61376375e-02 -1.11619242e-01 +7.30975494e-02 -9.40810889e-02 -9.03156102e-02 +1.06848702e-01 -4.93912436e-02 +1.15239061e-01 +1.06783822e-01 +1.14195712e-01 +3.09648328e-02 -2.01029070e-02 -1.19377963e-01 -1.43602130e-03 +1.82925817e-02 -2.71529313e-02 +1.60636345e-03 +7.61489198e-02 -4.28661928e-02 -1.11138225e-01 +9.45468619e-02 +4.48273011e-02 +6.74106479e-02 -3.48267965e-02 -6.06510602e-02 +7.87783191e-02 -2.98759490e-02 +6.43063858e-02 -1.94158615e-03 +8.24144632e-02 -7.24622607e-02 +9.66723040e-02 +5.89474011e-03 -1.09865166e-01 -3.97114940e-02 -1.12723887e-01 -2.64784023e-02 +9.40658972e-02 -4.62621301e-02 -5.40580414e-02 +8.57164487e-02 +4.34201658e-02 +3.19707692e-02 +1.87110342e-02 -3.57722454e-02 +2.12385263e-02 +9.89841297e-02 -6.84178770e-02 -5.38660623e-02 -2.04156265e-02 -8.53372663e-02 +1.07456282e-01 +5.56195294e-03 -6.07526302e-02 +7.53358379e-02 +1.37945255e-02 -9.53399539e-02 +1.11105807e-01 +1.08812667e-01 -9.67249721e-02 +3.05496063e-02 -6.56951368e-02 -7.76890218e-02 -1.03461467e-01 -9.21731517e-02 -3.10764443e-02 +6.84469715e-02 -6.15814067e-02 -4.05457877e-02 -6.05164990e-02 +2.10154280e-02 +6.77030832e-02 +2.53752861e-02 +1.42722223e-02 +2.93836445e-02 +4.34157811e-02 +9.28023830e-02 +1.12198651e-01 +3.18513438e-02 +6.83504716e-02 -3.41260955e-02 +4.43963110e-02 -2.05310751e-02 +1.10298581e-01 +1.00621574e-01 +5.23796417e-02 +2.82129906e-02 +1.14930451e-01 -1.06294967e-01 -5.11346273e-02 -2.12567542e-02 +8.41062218e-02 -6.18662983e-02 -9.00556892e-02 +8.21591169e-02 +1.09897777e-01 -6.51338771e-02 -1.74750946e-02 -4.45730351e-02 +4.72815409e-02 +6.21093698e-02 +1.13825470e-01 -9.20341387e-02 +4.50353436e-02 +6.16038106e-02 +8.43739808e-02 +5.65460958e-02 +4.72957157e-02 -2.32425351e-02 -1.13362722e-01 +7.73028433e-02 +7.32354745e-02 +5.26098497e-02 +1.46579910e-02 +1.16113394e-01 +4.36224528e-02 +1.14576735e-01 +1.80345047e-02 -1.16115734e-01 -7.40378499e-02 -1.96796097e-02 +1.37229066e-03 -4.08732668e-02 +1.14776425e-01 -8.91821235e-02 +4.81258146e-02 +6.45757169e-02 +8.94418210e-02 -2.70365141e-02 -8.85932520e-02 +4.74161953e-02 -1.12754432e-02 -6.39488995e-02 +1.72067340e-02 -2.02281922e-02 -6.03423528e-02 -5.20144589e-02 +7.39177689e-02 +5.18207140e-02 -5.74675538e-02 -1.05326347e-01 -1.03297621e-01 +8.89689922e-02 +6.80095842e-03 +1.12070523e-01 -2.31963340e-02 +2.01972611e-02 +9.95320827e-02 -5.06525002e-02 -4.10449458e-03 +5.65322042e-02 +7.82306492e-02 +7.10501000e-02 +1.13689117e-01 +8.46220776e-02 +5.44398874e-02 -7.91537315e-02 +6.16872050e-02 +6.18927963e-02 +2.13068258e-03 +6.44301847e-02 -9.20336992e-02 +5.09854704e-02 +5.86344041e-02 +1.26372753e-02 +7.94169977e-02 -9.24899243e-03 +1.01468861e-01 +5.11056446e-02 -8.93116668e-02 +1.05862126e-01 +1.11822776e-01 +5.22090346e-02 -6.10806011e-02 -1.12936772e-01 +1.10860959e-01 -2.49351617e-02 +1.76234245e-02 +7.01447427e-02 -6.87016025e-02 +1.21147312e-01 -9.99078378e-02 +1.70324501e-02 -5.51074818e-02 -6.04685731e-02 +4.73354235e-02 -2.95901634e-02 -4.07931693e-02 +1.03714682e-01 +2.23665219e-02 -8.60505104e-02 +4.93155085e-02 -9.94137004e-02 +7.28467777e-02 +8.63987803e-02 -9.53211216e-04 +3.85528728e-02 -1.17551968e-01 +8.17041397e-02 +5.60325608e-02 +8.65535736e-02 -8.02925080e-02 -1.48712518e-03 -4.17108312e-02 +1.97667372e-03 +7.64080882e-02 +9.18947086e-02 +1.18020408e-01 -3.57456431e-02 -1.35682104e-02 -6.85948581e-02 -2.88261268e-02 -5.03312834e-02 -5.85906841e-02 +6.52793273e-02 -1.94771830e-02 -3.05539574e-02 +2.77824309e-02 -4.64215763e-02 +9.81997792e-03 -2.64325608e-02 +5.22202551e-02 +6.89809471e-02 -2.44636834e-02 -8.97656605e-02 -5.72397150e-02 -1.12151548e-01 +1.30112112e-01 +6.24017455e-02 -1.02991492e-01 +2.29394194e-02 +8.61281380e-02 +2.84112059e-02 -1.07202791e-01 -1.78089254e-02 +2.10539922e-02 -7.47042820e-02 -1.05834745e-01 -4.15033363e-02 +7.60409310e-02 +1.48299951e-02 +5.12337126e-02 -2.58904789e-02 +2.34655868e-02 -5.50403483e-02 +9.65739787e-02 -3.75879146e-02 -2.15718672e-02 -1.17214024e-02 -3.87676395e-02 -1.10320099e-01 -4.90178987e-02 +6.47789612e-02 -5.44984546e-03 -3.04836687e-02 -7.85346925e-02 +9.09284353e-02 -1.36936586e-02 +1.10972904e-01 +3.66304144e-02 +2.95369234e-02 +1.13162592e-01 -8.24927539e-02 -4.00559306e-02 +5.44589423e-02 -3.65242064e-02 -7.34736770e-02 +6.18991144e-02 -4.44181338e-02 -1.22960540e-03 +8.37648008e-03 -4.16523851e-02 -6.27054721e-02 -4.22070175e-02 +1.04423694e-01 -1.27495125e-01 -1.95297431e-02 +8.14254358e-02 +7.67287090e-02 -4.82181385e-02 -1.15106873e-01 +7.54407570e-02 +1.15391120e-01 +1.01928025e-01 +3.29545401e-02 -5.58484122e-02 -3.75175849e-02 +1.22491345e-01 -8.66999999e-02 -1.11422211e-01 +4.58133146e-02 -7.48821273e-02 -1.83634702e-02 -1.10712163e-01 -5.95905781e-02 -9.37857702e-02 -9.42157283e-02 -1.02763094e-01 -6.31552190e-02 +4.79534827e-02 -5.07299416e-02 -8.76672938e-02 +8.71081874e-02 -3.77568677e-02 +8.18235651e-02 +4.86098304e-02 +1.13617487e-01 +3.22240777e-02 -2.61251256e-02 +1.07578844e-01 +1.22191146e-01 -3.40044461e-02 -6.92934766e-02 -8.66451636e-02 +5.53075299e-02 -9.55826491e-02 -9.64380354e-02 +1.10876180e-01 -3.88077460e-02 +1.17677808e-01 +5.59854582e-02 +1.46665191e-02 -6.58908263e-02 +9.01515409e-02 +7.51797631e-02 +9.26996469e-02 -5.50602973e-02 +6.20629713e-02 +5.90027608e-02 -8.43074694e-02 -9.77780744e-02 -2.76120659e-02 +5.81689961e-02 -5.03940098e-02 +7.65958205e-02 -2.99931765e-02 +1.00636639e-01 -5.74413352e-02 -5.13429269e-02 -2.99104233e-03 -5.15766442e-02 +4.24677581e-02 +1.16927437e-01 +2.11268440e-02 -9.34446603e-02 +4.03419323e-03 +1.12467334e-01 +3.27863172e-02 -1.53482426e-02 -6.25159964e-03 -8.96316618e-02 -2.59096618e-03 -8.52246881e-02 -3.41602825e-02 -1.02712452e-01 +5.00449985e-02 -2.94563491e-02 -1.07921645e-01 +9.28132161e-02 +4.13630195e-02 -7.20270723e-03 +2.24251226e-02 -1.36541594e-02 -8.40173662e-02 +6.55075386e-02 -3.70262712e-02 -3.82972695e-02 -2.45024730e-02 +9.46972370e-02 +1.09396480e-01 +9.83711239e-03 -4.60151844e-02 +6.40332550e-02 -7.70198554e-02 -2.91477162e-02 +4.95027974e-02 +6.14490956e-02 -9.79754999e-02 +8.05006251e-02 -1.22793752e-03 -1.84721574e-02 -9.82629694e-03 +1.15164995e-01 -4.69047874e-02 -9.63863209e-02 -2.51086298e-02 +7.36251846e-02 -7.85612985e-02 -7.97070637e-02 +1.40651511e-02 +4.36252505e-02 -1.56575777e-02 -9.54998732e-02 +2.17279922e-02 +5.65150790e-02 -5.64810373e-02 -7.49571547e-02 +5.08500710e-02 +8.13498646e-02 +6.30895123e-02 +8.44854340e-02 -5.63361682e-03 -1.29931578e-02 -1.07897036e-01 +1.93283870e-03 -9.86890942e-02 +2.16698069e-02 -5.33554889e-02 +5.28579429e-02 +6.25039712e-02 -9.11702737e-02 -6.93507418e-02 -2.21633278e-02 -7.11413026e-02 +2.82188077e-02 +9.79758650e-02 -9.57225934e-02 +8.15041885e-02 -1.10557646e-01 -1.03887627e-02 +1.07881151e-01 -3.90719958e-02 +7.58150890e-02 +3.47315781e-02 +8.37354511e-02 -7.74274096e-02 +1.78710688e-02 +3.94518822e-02 +6.25933260e-02 -4.91250083e-02 -4.00388464e-02 -1.83951054e-02 -6.49262667e-02 -1.07744001e-02 -4.00597556e-03 +9.98324454e-02 +8.68456885e-02 +7.87369609e-02 -6.45713583e-02 +4.06600870e-02 -2.40932330e-02 -5.79627082e-02 -7.24567547e-02 +7.45295063e-02 +8.41849819e-02 -9.08781774e-03 +2.44775023e-02 -9.31506976e-02 -6.54715449e-02 +4.01943102e-02 +6.11827523e-02 +7.63329118e-02 -3.14379722e-04 -8.69970769e-02 -3.84842344e-02 -2.51913462e-02 -9.33577642e-02 +5.17956540e-03 -1.04475446e-01 -8.70363116e-02 -8.94477144e-02 -5.14755100e-02 -9.97711569e-02 +3.51703241e-02 +2.43540518e-02 -3.12378202e-02 -1.24356620e-01 -7.90331960e-02 +8.40328168e-03 -8.04806054e-02 -9.93342474e-02 +7.27605540e-03 +1.16198815e-01 -3.07458080e-02 +3.68268229e-02 -7.21460655e-02 +3.12153902e-02 +1.27050355e-01 -2.75353696e-02 -4.90444340e-02 -8.07447433e-02 -4.29090038e-02 -4.15619388e-02 -2.58543678e-02 -4.77283355e-03 -3.77356708e-02 +2.15274170e-02 +1.41963586e-02 -3.57885323e-02 +5.39813079e-02 -6.12011813e-02 -6.11820742e-02 -1.50747513e-02 +4.83696535e-02 +7.16178417e-02 +9.58507434e-02 +5.12842461e-02 -2.66438089e-02 +1.04855441e-01 -8.63655582e-02 -5.67660406e-02 +5.00670634e-02 +1.22071661e-01 +2.95099225e-02 -6.18681079e-03 -4.62798625e-02 -7.52318129e-02 +8.76398906e-02 +1.08933285e-01 -7.18884245e-02 +4.51289415e-02 -7.74967074e-02 +3.45303826e-02 +8.87919664e-02 +2.69329548e-03 -1.40928337e-02 +7.82444626e-02 -1.28505751e-02 +4.78516007e-03 -1.13366492e-01 +1.19906984e-01 -1.18497737e-01 -5.76822869e-02 +9.94964913e-02 -8.35596919e-02 +1.77708454e-02 -4.89898808e-02 +7.55448118e-02 +6.15178086e-02 -2.64969375e-02 +7.40554780e-02 +4.51296084e-02 +7.57328793e-02 -6.55853152e-02 +7.03790635e-02 -3.08587644e-02 +6.31794259e-02 +3.18335481e-02 -1.21828809e-01 +1.03755668e-02 -6.78680539e-02 -6.21474274e-02 +1.05089299e-01 +2.77622025e-02 +1.02333270e-01 -9.11975279e-02 +1.24197058e-01 +4.16200086e-02 -5.06620184e-02 -6.90225065e-02 -1.15878455e-01 +1.90994814e-02 +6.41849935e-02 +6.35218099e-02 -5.65441214e-02 +9.21979174e-02 -4.76361029e-02 +1.86978281e-02 +5.73779754e-02 -1.01434022e-01 -3.19362991e-02 -2.01480500e-02 +6.32763132e-02 -6.56403452e-02 +3.40455882e-02 +8.26137662e-02 +4.86640036e-02 -6.38883114e-02 +8.23437646e-02 -8.43194276e-02 +2.86133625e-02 +5.78655005e-02 +3.65515798e-02 +2.64911912e-02 -3.42840180e-02 -7.30574578e-02 +9.26172137e-02 -7.06982985e-02 -8.92789010e-03 +4.02145945e-02 +9.82809812e-02 -4.25161934e-03 -8.89821574e-02 -3.73245589e-02 +6.16045520e-02 +5.44193834e-02 +9.53461230e-03 -7.93401226e-02 +2.86832489e-02 +2.98017589e-03 -6.94457963e-02 +1.10035382e-01 +4.59689870e-02 -7.89116398e-02 -4.01788838e-02 +5.84641239e-03 +8.47063065e-02 +8.58526397e-03 +8.56134742e-02 +2.95860395e-02 +1.09704666e-01 +5.68545461e-02 +6.63857386e-02 -1.30839199e-01 +9.65185910e-02 +4.93392767e-03 +2.14056298e-02 -2.24318840e-02 -4.29040156e-02 -3.21467593e-02 +7.25938529e-02 +9.68023911e-02 -3.53489853e-02 +5.63662983e-02 -2.82378588e-02 -2.27764025e-02 -4.37982231e-02 -1.05640925e-02 +1.02395296e-01 -1.72749609e-02 +9.61575136e-02 -1.06435560e-01 +1.06837645e-01 +7.81063139e-02 +4.28170562e-02 -9.50589702e-02 -6.74745589e-02 +4.01577950e-02 -1.04201563e-01 +1.11205783e-02 +1.21957004e-01 -5.13860062e-02 -8.24048743e-02 -3.45251076e-02 +1.26296515e-02 -9.55067202e-02 -3.35304029e-02 +9.88175496e-02 -8.42927173e-02 +2.99746878e-02 +1.10756390e-01 -3.50330696e-02 -1.01034440e-01 +9.87755507e-02 +1.04506977e-01 -4.90445979e-02 +3.83909792e-02 +5.40238060e-02 -9.13029388e-02 +2.75731795e-02 -1.06016129e-01 +5.77026643e-02 -5.36497822e-03 +8.63931701e-02 -7.54011497e-02 +8.40520337e-02 +9.47688222e-02 +1.17217839e-01 -6.50459230e-02 -7.97214136e-02 -1.31221313e-05 -7.97175020e-02 +1.09129786e-01 -2.59889457e-02 +9.30497199e-02 -4.08143736e-02 -2.06471924e-02 -3.00793834e-02 +1.25352710e-01 +1.32183824e-02 -5.20106480e-02 -9.34081748e-02 +9.34836492e-02 +5.67511059e-02 +1.11713568e-02 +4.55677286e-02 -1.02240434e-02 -8.64187256e-02 +7.27392212e-02 +4.36704382e-02 -1.22587919e-01 +7.08474293e-02 -8.53546187e-02 +1.16278650e-02 -1.20158993e-01 +1.19031534e-01 -8.87752697e-03 +1.09480962e-01 -7.25812316e-02 -2.44865865e-02 +4.94117402e-02 -9.74545479e-02 -4.65921685e-02 +7.89841190e-02 +5.27410135e-02 -6.81349710e-02 +2.44849920e-02 -1.15780883e-01 -7.67197385e-02 +2.21373122e-02 +6.65236190e-02 +1.14735536e-01 +5.41391447e-02 +1.07948631e-01 -1.37163550e-02 +5.58646023e-02 +3.56467478e-02 +5.78516759e-02 -8.65077972e-02 +9.51940268e-02 +9.72024798e-02 +3.67816002e-03 -6.94697574e-02 -6.60540462e-02 -7.97310621e-02 -5.42588606e-02 -4.36615534e-02 -6.09485470e-02 +5.87486736e-02 -4.96521369e-02 -7.13263080e-02 -6.26779497e-02 +1.06861591e-01 -4.51832376e-02 +8.75830576e-02 -1.07313611e-01 -5.10991886e-02 -1.18709959e-01 +3.12132630e-02 +6.44009886e-03 -2.34465543e-02 -8.24492946e-02 -5.59220314e-02 -4.74145263e-02 +1.02572456e-01 +5.74671105e-02 +1.60564426e-02 +5.84768467e-02 -3.72996889e-02 +8.12591538e-02 -4.00526822e-02 +4.85977046e-02 +1.25633236e-02 +1.00619540e-01 -3.08841094e-02 -1.00340009e-01 +3.84829119e-02 +8.31426010e-02 -1.15481772e-01 -5.04280999e-02 -1.18877077e-02 +4.34105704e-03 +4.47589196e-02 +2.71704346e-02 +8.04070979e-02 -2.19830889e-02 -1.49647025e-02 +5.49230911e-02 -1.09024547e-01 +1.16216481e-01 -1.06994443e-01 +6.03232794e-02 -1.18347608e-01 +1.57748107e-02 +1.18153863e-01 -1.06398970e-01 +8.03857371e-02 +2.88503524e-02 +4.47631292e-02 +7.71814305e-03 -6.66811839e-02 -4.18886691e-02 +3.07874661e-02 +8.45335517e-03 +4.53503896e-03 +3.39221619e-02 +7.01150149e-02 -3.27738300e-02 -9.47212800e-02 -7.65454471e-02 -9.57520530e-02 +1.20947681e-01 -6.34729043e-02 -3.93131487e-02 +1.13331430e-01 -1.14542641e-01 +8.71348660e-03 -5.02824597e-02 +9.08405930e-02 -9.06078368e-02 +8.64025652e-02 -3.27465646e-02 -1.24663845e-01 -5.71605675e-02 -1.05959259e-01 -6.27421364e-02 +8.11297819e-02 -8.90580043e-02 -1.24846749e-01 -9.63235572e-02 +8.56923088e-02 -1.70059744e-02 +1.06592149e-01 -2.99372096e-02 -3.29655595e-02 -1.54933445e-02 -5.22115193e-02 +8.42038691e-02 -8.04311782e-03 +1.18277676e-01 +1.03963591e-01 +9.65457782e-02 -1.14015289e-01 +8.74936730e-02 -1.15759231e-01 +7.60806054e-02 -8.78544375e-02 -5.20215519e-02 +1.19683743e-01 +1.21428415e-01 -2.93527637e-02 -1.43976249e-02 +8.54413360e-02 -1.09332465e-01 -3.66585255e-02 +9.51892585e-02 -1.30655179e-02 +4.13439423e-02 -3.38243991e-02 +8.07337686e-02 +5.15490919e-02 -1.09939925e-01 -8.36484134e-02 -6.57157525e-02 +9.21657830e-02 -7.57149830e-02 -9.21431649e-03 +9.89010409e-02 -2.96440832e-02 -7.57766739e-02 -3.10343541e-02 -3.18500400e-02 -7.69904209e-03 +1.37050999e-02 +7.85086006e-02 +2.55675297e-02 +6.71888469e-03 -1.92118296e-03 +8.04990232e-02 +6.79509575e-03 +9.65803042e-02 -1.53327783e-04 +2.86990460e-02 -1.19952723e-01 -5.52186891e-02 +7.33910128e-02 +3.18095759e-02 +6.72261864e-02 +6.82694986e-02 +3.10084317e-02 +1.13723710e-01 -6.11418895e-02 +1.06419027e-01 -9.44424421e-02 -9.62929279e-02 -7.47081563e-02 +1.20580912e-01 +5.94205745e-02 +9.33599367e-04 -3.93009633e-02 +8.85731056e-02 +1.21229989e-02 +1.19635426e-01 -6.08850643e-02 +8.00036788e-02 +6.66868612e-02 +1.23055682e-01 -7.71920159e-02 -2.17911620e-02 +8.48425366e-03 -1.18351146e-03 +2.48162989e-02 +1.13326564e-01 -7.36935064e-02 +5.16528413e-02 +9.39143375e-02 -9.44542363e-02 -1.09492362e-01 -1.60007793e-02 -3.92584540e-02 +1.88668091e-02 -4.18416150e-02 -4.64234166e-02 +6.72061145e-02 -1.05396230e-02 +1.10096268e-01 +1.07362546e-01 +3.95618901e-02 +4.99085039e-02 -8.00269544e-02 +4.22388166e-02 +8.66991058e-02 -1.01766258e-01 +5.67259640e-02 +1.08748704e-01 -7.20593631e-02 +3.43576893e-02 +7.70154595e-02 +1.20720804e-01 -7.00836927e-02 -8.49828720e-02 -5.96285760e-02 +1.10047922e-01 +4.41426504e-03 -3.73320840e-02 +6.99760467e-02 +2.36933623e-02 -5.13003692e-02 -7.14012459e-02 +3.59075814e-02 -1.10381462e-01 +8.19701478e-02 -8.68465975e-02 -1.56958227e-03 +2.43118685e-02 +4.42137048e-02 +3.26126441e-02 -3.54547836e-02 +6.74988851e-02 -7.22437203e-02 +2.57953126e-02 +9.34881195e-02 -1.32379606e-01 +1.02549881e-01 -3.20584550e-02 +1.05422596e-02 +3.13388929e-02 -3.62177901e-02 +1.03689268e-01 -5.73871620e-02 -7.77415112e-02 +9.40047204e-02 +7.98193142e-02 -8.61242190e-02 +1.26407102e-01 +4.71379980e-02 -6.29596121e-04 -8.56896415e-02 +6.25779573e-03 -4.30570282e-02 -7.91876316e-02 +1.58346035e-02 +9.46047604e-02 +6.27364591e-02 +5.39628826e-02 -7.76901990e-02 +1.15362987e-01 +5.43422438e-02 -9.69180092e-03 -9.70381200e-02 -7.94883296e-02 +9.48160887e-02 +9.12914146e-03 +1.39698572e-02 +2.35790648e-02 -6.29936308e-02 -6.11177646e-02 -1.90985370e-02 +8.31812024e-02 -8.27787630e-03 +2.85121258e-02 -1.52438218e-02 +6.58207908e-02 -5.38710207e-02 -7.08120391e-02 -3.85545008e-02 +1.92282889e-02 +7.77828172e-02 -1.81026235e-02 +4.23772968e-02 -6.94587454e-02 -6.72511011e-02 -3.63110639e-02 -5.56844473e-02 +2.26791073e-02 -8.42424706e-02 +5.54898381e-02 +3.48831154e-02 -5.16832098e-02 +3.72037441e-02 +1.10711632e-02 -2.48971917e-02 -1.18429087e-01 -8.33779946e-02 -7.97962248e-02 +3.83252539e-02 -5.75358495e-02 -5.35726361e-02 +2.94668786e-03 +7.03521445e-02 -1.63278414e-03 +8.21524262e-02 +5.86408712e-02 -9.07558426e-02 -1.51274176e-02 +1.06726132e-01 -1.11466259e-01 +6.96381042e-03 +7.14357719e-02 -8.27729926e-02 -1.17463768e-02 +7.95807391e-02 +1.28426729e-02 -2.61354633e-02 +8.20571333e-02 +9.61785167e-02 +1.76899508e-02 -2.98272669e-02 +5.61642274e-02 +1.35135753e-02 -2.24918239e-02 +9.31860954e-02 +9.72040277e-03 -7.19234645e-02 -4.33283346e-03 +7.84175843e-02 -1.00162603e-01 -2.79470962e-02 -9.21160206e-02 -7.64252841e-02 -1.81016419e-02 +9.21798199e-02 -1.21579520e-01 -4.93786782e-02 -2.20755525e-02 -8.15888718e-02 -8.81794617e-02 +2.24835221e-02 +6.60974756e-02 -6.12297701e-03 -1.04608737e-01 -4.02623303e-02 -1.06227547e-01 +1.13095812e-01 +1.25998944e-01 +6.12335950e-02 +3.21229063e-02 +6.90636039e-03 +6.58463780e-03 -9.50524360e-02 -1.09202392e-01 -1.10179111e-01 -7.47642070e-02 +4.97977287e-02 +3.16741206e-02 -8.16727579e-02 -6.79598674e-02 +7.16611594e-02 -4.03680429e-02 +1.17046796e-02 -5.43542616e-02 +5.54539487e-02 +6.56751404e-03 +5.64773679e-02 -8.12563598e-02 +6.38227984e-02 -8.35975185e-02 +8.84140879e-02 +1.00159757e-01 -9.88434255e-02 +9.99069884e-02 -5.97938560e-02 -5.59860505e-02 -6.91087022e-02 +2.78581083e-02 -9.00737122e-02 +8.98848027e-02 -7.96795413e-02 +1.27923843e-02 +1.01949416e-01 +9.84650031e-02 +7.69982859e-02 +5.52699007e-02 -8.18064213e-02 -9.60147455e-02 -9.68906730e-02 -5.62742129e-02 -6.52531460e-02 -2.27659848e-02 +6.14698529e-02 -6.93414062e-02 +5.33544905e-02 +1.45663535e-02 -1.84646789e-02 +3.83225381e-02 +3.47426645e-02 +1.06285391e-02 +3.12323719e-02 -1.09637920e-02 -7.13628009e-02 -9.74854007e-02 -1.27643058e-02 +4.63797003e-02 -3.63601260e-02 +1.19894654e-01 -4.28773761e-02 +1.12739116e-01 -4.79487181e-02 -5.86456656e-02 +1.17396228e-01 +1.03392482e-01 +2.56912317e-02 -8.73768255e-02 -1.01089746e-01 +1.57560669e-02 +2.39061359e-02 +2.21638195e-02 -2.23956052e-02 -4.13403548e-02 +7.23683313e-02 -5.01325689e-02 -5.15221581e-02 +9.61461365e-02 -1.58655811e-02 -9.49775726e-02 +5.70912734e-02 +5.71719669e-02 -9.82954279e-02 +6.83601573e-02 -1.95333697e-02 -3.91688533e-02 -5.87858595e-02 +2.02687010e-02 +9.03905369e-03 -8.63469988e-02 +3.49718854e-02 +9.11852345e-02 -6.12554559e-03 -9.76628289e-02 -6.03031218e-02 -7.83252567e-02 -4.24030470e-03 +9.00503695e-02 +1.35538829e-02 +6.90696314e-02 +5.19304015e-02 -4.25646342e-02 +8.98578167e-02 -5.62900603e-02 +8.48169699e-02 -4.76262197e-02 -1.45566054e-02 +2.97000296e-02 -1.81492057e-03 +7.85309747e-02 -2.26439070e-02 -6.01030365e-02 +3.29693593e-02 -2.35326458e-02 -1.63405444e-02 +3.43317017e-02 -1.26561940e-01 -2.00830842e-03 +4.11945954e-02 -1.03812419e-01 -1.02924362e-01 +3.61640099e-03 -6.10780306e-02 -6.45085946e-02 +6.21185685e-03 -2.68586092e-02 -1.18002653e-01 +9.59532708e-02 -2.81872135e-02 -9.35532451e-02 -2.53603607e-02 +1.44969616e-02 -5.40156215e-02 +5.98111190e-03 +1.07145540e-01 +9.28222612e-02 +1.55616077e-02 +7.55652487e-02 -5.80302887e-02 +5.82079440e-02 +1.89758558e-02 +8.59171674e-02 -8.21432844e-02 +3.73682193e-02 +6.32503703e-02 +2.26046853e-02 +5.29127419e-02 +5.20456731e-02 -3.81484218e-02 -4.10597809e-02 -4.90388423e-02 -5.78053668e-02 +1.28054351e-01 -2.47300323e-02 -4.14789505e-02 -3.48887704e-02 +9.43001881e-02 +8.05171877e-02 -9.59760398e-02 -3.75109166e-03 -7.00082034e-02 +1.01404928e-01 -1.03611097e-01 +5.38460491e-03 -2.47271247e-02 -7.01426715e-02 -7.95710906e-02 +5.68713658e-02 +6.98700324e-02 -9.04312730e-02 +2.45824009e-02 +6.77196756e-02 -5.10449288e-03 -5.02047986e-02 -1.67582501e-02 -7.13323578e-02 +9.86767635e-02 +7.93242604e-02 -2.82857427e-03 +2.35387944e-02 -4.81918640e-02 +6.23547807e-02 -8.72620195e-02 +9.48572755e-02 +9.00201127e-03 +1.04570940e-01 +7.01903040e-03 +1.05757266e-01 +7.26756454e-02 -4.82976884e-02 -1.49464775e-02 +8.01749676e-02 +1.01304270e-01 -3.24208476e-02 +1.10547021e-01 -3.40920165e-02 +4.87594604e-02 -7.21785501e-02 +1.49333430e-02 +1.02248356e-01 -1.42212361e-02 -2.04813816e-02 +9.54128951e-02 -1.16916992e-01 -8.95867497e-02 +1.61900874e-02 +2.95112655e-02 +1.13491066e-01 +8.47111940e-02 +1.18750013e-01 +5.29056154e-02 +5.37425280e-02 -8.21560919e-02 +1.50481025e-02 -5.50403520e-02 -8.46186429e-02 +1.53966462e-02 +2.70649604e-02 +6.15053773e-02 -1.14193158e-02 -5.77906258e-02 -7.56180808e-02 +1.36182234e-01 -7.57442787e-02 +4.66512889e-02 -1.07140452e-01 -1.28689721e-01 +9.33810771e-02 -6.48965091e-02 +1.08574331e-02 +2.09986567e-02 -2.77712364e-02 -2.49947747e-03 -1.04553916e-01 +8.88949335e-02 +2.85418537e-02 +1.12943836e-01 +9.27671343e-02 +8.18866938e-02 +9.03365761e-02 -9.64585170e-02 +8.90078321e-02 +1.19144872e-01 -8.40340406e-02 +8.46608877e-02 +8.26209933e-02 -8.05669054e-02 -4.11462858e-02 +7.19492212e-02 -9.10841450e-02 +1.25572493e-03 +6.15384951e-02 +5.93110733e-02 -4.36934792e-02 +3.34031396e-02 +6.41115457e-02 +1.10035501e-01 +8.50358009e-02 +8.48208964e-02 +1.08839266e-01 +6.93674982e-02 -1.00924201e-01 +7.00478479e-02 -9.12365690e-02 +5.82832471e-02 -2.74446048e-02 +5.40480837e-02 +7.68511966e-02 -1.18175924e-01 -8.58692229e-02 +6.18296154e-02 +5.94466366e-02 -1.14247808e-02 -8.00275430e-03 +3.30869146e-02 -8.58209208e-02 +5.56349801e-03 +9.68663692e-02 -7.57793486e-02 -1.03093684e-01 -9.50600207e-03 +2.01490484e-02 -3.55351679e-02 -1.01219960e-01 -7.26478174e-02 +1.11966029e-01 -2.53929216e-02 -8.58505517e-02 +5.54022491e-02 -6.47260575e-03 +2.83633657e-02 -6.56745583e-02 -6.32965937e-02 -4.19883290e-03 -7.06937239e-02 -2.38805264e-02 -3.53306532e-03 -6.39610961e-02 -2.30566971e-02 +2.86759678e-02 +3.52035724e-02 +4.01123315e-02 +4.59717289e-02 +7.04894066e-02 -1.08146422e-01 -7.11347535e-03 +6.84142187e-02 +7.80148581e-02 -3.20543274e-02 +1.19046986e-01 -1.16886385e-02 +7.50915334e-02 -1.92207843e-02 +9.52255428e-02 +1.78299341e-02 -8.18277672e-02 +8.24315324e-02 -6.13207854e-02 +1.22975782e-01 +7.50169531e-02 -8.23941976e-02 +3.36281471e-02 -6.69378322e-03 -6.09229654e-02 -9.87776667e-02 +7.63032362e-02 +9.67899859e-02 -3.81078944e-02 +5.54991141e-02 -8.57133493e-02 +2.64851823e-02 -1.66576579e-02 +1.91708456e-03 +1.13457501e-01 -9.24556628e-02 -1.11442432e-01 +5.69251738e-02 +6.97088465e-02 -3.70818079e-02 +9.59642902e-02 -3.60131897e-02 +7.86663443e-02 -1.00420982e-01 -1.12675101e-01 +4.18879576e-02 +8.27244446e-02 -5.61922863e-02 -6.22015744e-02 -4.57592383e-02 -9.96492505e-02 -7.55631253e-02 +5.41823097e-02 +1.08008124e-01 +9.82374325e-02 +2.93614867e-04 +9.08245370e-02 +5.53072023e-05 -2.72405404e-03 +2.66136862e-02 -8.64906819e-04 -7.28206486e-02 -2.66823955e-02 +1.16120718e-01 -3.05013135e-02 -8.72866139e-02 +9.70093906e-02 +5.76496795e-02 +1.53242666e-02 +3.41581516e-02 -4.60346714e-02 +3.87250856e-02 +9.07374993e-02 +1.04678534e-01 +6.51394650e-02 +8.69094357e-02 -8.37641805e-02 -5.41404784e-02 +1.02127559e-01 -8.72727949e-03 -1.10105751e-02 -4.52680327e-02 -6.25905246e-02 +1.13314413e-01 +3.84558253e-02 -8.90675932e-02 +4.84133177e-02 -1.25485688e-01 +4.77089500e-03 -1.03267901e-01 -1.60999037e-02 -5.31077944e-03 +1.08113952e-01 -8.26566517e-02 -1.21562384e-01 -2.23523602e-02 -5.38932942e-02 -2.52062418e-02 +5.92383333e-02 -1.64565127e-02 +1.21332981e-01 -9.77444127e-02 +1.25788957e-01 -1.65269594e-03 +8.12714770e-02 +2.91550532e-02 +8.22643265e-02 +9.98248458e-02 +7.57494243e-03 +4.14895527e-02 +5.10596484e-02 -4.30187918e-02 +1.03768215e-01 -8.37363526e-02 -7.37303048e-02 +2.32965611e-02 +1.42855197e-02 -7.44530261e-02 +3.18746525e-03 +5.78014068e-02 -1.05955945e-02 +1.05345525e-01 +1.01578459e-01 +9.62363780e-02 -5.97788543e-02 -8.29980746e-02 +4.37143072e-03 -7.28323534e-02 -9.60287377e-02 +1.21661074e-01 +1.37402620e-02 +3.64559144e-02 -1.02644870e-02 +7.37368241e-02 +1.07474066e-01 +6.53919727e-02 +1.74725540e-02 +8.34063143e-02 +2.84245592e-02 -2.98779383e-02 +1.05258226e-02 +5.82265146e-02 +3.67635675e-02 -6.37260675e-02 -2.53033284e-02 +1.08171567e-01 +1.00198694e-01 -1.43055031e-02 -7.01764449e-02 +9.92349535e-02 -1.30584508e-01 +1.99064314e-02 -4.32106517e-02 -6.74747527e-02 +8.05231626e-04 +8.72306377e-02 -1.31082311e-01 +2.72377655e-02 -6.64840043e-02 -1.14134535e-01 -2.79080290e-02 -8.82541612e-02 +5.54141477e-02 -9.88242924e-02 -9.97200329e-03 -5.85438348e-02 -5.88197224e-02 -1.02515720e-01 +7.29797930e-02 +5.76041862e-02 +7.04911649e-02 -4.98872362e-02 -1.12020828e-01 +4.70952429e-02 -5.78003563e-02 -9.81957018e-02 +8.39153901e-02 -5.96542396e-02 +3.48883420e-02 -8.23474824e-02 +3.85698266e-02 -1.07100405e-01 -2.88698282e-02 +1.07620269e-01 -9.32495669e-02 -9.31750312e-02 -1.11738905e-01 +2.02313461e-03 +7.42459446e-02 +6.12463243e-02 -5.13525493e-02 -1.22648008e-01 +2.09051501e-02 -2.96406541e-02 +6.75185844e-02 +1.01656601e-01 +5.56351878e-02 -5.10879196e-02 -1.94228173e-03 -1.38271535e-02 +6.00417936e-03 -1.17228992e-01 +2.56040078e-02 -9.45537761e-02 +8.05281401e-02 -9.10576284e-02 +2.07328461e-02 -9.50489044e-02 -1.23032136e-02 +5.14644124e-02 -6.83639571e-02 -1.02719046e-01 -9.30064023e-02 +8.99653435e-02 +1.17842659e-01 +1.09753557e-01 -1.33136421e-01 -2.48148087e-02 -2.12987959e-02 -5.98262399e-02 -1.06805429e-01 +2.05944143e-02 -7.73567706e-02 -7.71446303e-02 +6.85370788e-02 -6.24885522e-02 +8.90031382e-02 +5.40301763e-03 -8.76112357e-02 -9.41524953e-02 +3.93386148e-02 +8.43957588e-02 -5.83384596e-02 -3.00386874e-03 -2.92216260e-02 +1.01046294e-01 +6.22600876e-03 -9.32772383e-02 +1.99328102e-02 +7.89940581e-02 +7.86399841e-02 +6.79359362e-02 +1.27457660e-02 -2.64262874e-02 +1.27810821e-01 +4.64746170e-02 -8.50206241e-02 +8.19945037e-02 -9.32560638e-02 +5.43470681e-02 +8.98359343e-02 +3.74328382e-02 -7.23808929e-02 -3.00716199e-02 +3.89632732e-02 +2.22892687e-02 -9.28034782e-02 -3.34604196e-02 +8.54814127e-02 -3.91146652e-02 +1.12183794e-01 -4.67958413e-02 +9.60795507e-02 +2.29871441e-02 -9.83595848e-02 -3.45035829e-02 +1.29260682e-02 -1.34451687e-01 +1.01881446e-02 -6.67977706e-02 -6.12787567e-02 +5.77010401e-02 -3.50818671e-02 -7.22803641e-03 -1.78478491e-02 +4.03966680e-02 -4.65546474e-02 -1.09738745e-01 +1.35064974e-01 -1.24941409e-01 -5.29626161e-02 +6.01181239e-02 -3.10460534e-02 +6.93766475e-02 +1.10224290e-02 +1.24226242e-01 -5.63842766e-02 -5.60436882e-02 +2.58626882e-02 -8.31765831e-02 +3.50274257e-02 +9.13479775e-02 -1.21346861e-01 -8.51365626e-02 -8.97843167e-02 +1.87197030e-02 -8.70827213e-03 +7.54578859e-02 +1.05511300e-01 -7.55431503e-02 +1.09714217e-01 -3.34389545e-02 +1.00468479e-01 -1.00729957e-01 +9.28876847e-02 +1.50610479e-02 -7.44370893e-02 -7.15946183e-02 -6.93147331e-02 -1.33976741e-02 -6.83032647e-02 -8.27312246e-02 +4.51097414e-02 -9.61053520e-02 +1.06274433e-01 -1.07168369e-02 +4.15643342e-02 +8.43189098e-03 +2.53061187e-02 -2.11440548e-02 +1.25034302e-02 +2.09911335e-02 +1.05989970e-01 -1.03183242e-03 +4.40998226e-02 -9.08547938e-02 -6.63181692e-02 -1.02902269e-02 -4.35555950e-02 +3.35570350e-02 +1.14005834e-01 +8.42754915e-02 -8.54366794e-02 -2.74754986e-02 -1.09512046e-01 +1.03360936e-01 -4.33153622e-02 -1.15543149e-01 +1.08305216e-01 -3.75118367e-02 -3.45836058e-02 +1.04978740e-01 +6.26424551e-02 +1.00684956e-01 -1.44526213e-02 -7.55686685e-02 -1.05530672e-01 -7.20070004e-02 -2.44893953e-02 +2.68514697e-02 -6.36726022e-02 +3.41044553e-02 -1.08633144e-02 +7.93068111e-03 -9.23255682e-02 -2.85926796e-02 -9.32517499e-02 -4.06466015e-02 -1.40431533e-02 +5.18584847e-02 +1.26063228e-01 +5.89803010e-02 -5.37618920e-02 -9.77340564e-02 -7.32309669e-02 -3.39717828e-02 -1.51035851e-02 +6.77618310e-02 +6.40728027e-02 +9.41933542e-02 +5.58168218e-02 +1.17204860e-01 +8.17403346e-02 -9.03043970e-02 +5.43118939e-02 +8.37563276e-02 +4.13924688e-03 -5.28439730e-02 +9.41763744e-02 -9.69602987e-02 +4.49853241e-02 -3.89896668e-02 +8.14263821e-02 +1.36930808e-01 -8.61169547e-02 +6.73352135e-03 -3.10100324e-04 -8.59498978e-02 -8.92792568e-02 +1.02836095e-01 -2.47105230e-02 -6.23820424e-02 -1.03841290e-01 -1.23458065e-01 +8.79986659e-02 +1.68256636e-03 -5.93375489e-02 +1.37156218e-01 +8.27291161e-02 -2.04671770e-02 -7.25110667e-03 +7.52820671e-02 -9.04549807e-02 +1.89161173e-03 -2.50771288e-02 +3.29933539e-02 -5.81294335e-02 +2.18574814e-02 +4.76565063e-02 -4.43238812e-03 -4.25136946e-02 -1.03542991e-01 +6.72037601e-02 +2.18677912e-02 +7.45192915e-02 +7.78100193e-02 +8.75719450e-03 +4.88744341e-02 -1.14673987e-01 -2.83941869e-02 +1.08662367e-01 -1.19428309e-02 -2.82296930e-02 +5.59997372e-02 +5.70263192e-02 -6.77120611e-02 -2.71677021e-02 -4.95964587e-02 +1.03336364e-01 -5.12747318e-02 +7.74810910e-02 +4.42718714e-02 -7.98126459e-02 +1.82240326e-02 -9.27008223e-03 +4.74600308e-02 -9.00397226e-02 -1.06481928e-03 -6.69453517e-02 +4.07187827e-02 -4.21848893e-02 -4.25685616e-03 +1.58463176e-02 +1.34412989e-01 +1.11370943e-02 -2.31260210e-02 -1.05002806e-01 +5.66834621e-02 -8.73006582e-02 -9.45956782e-02 -1.05742134e-01 -1.56962443e-02 -1.15810893e-02 +1.09098241e-01 -7.45145157e-02 -7.04671070e-02 -6.27251193e-02 +1.14381000e-01 +6.81034252e-02 +5.36185764e-02 -1.68313105e-02 +4.57555391e-02 -3.44672799e-02 +1.26746625e-01 -9.47646424e-02 -6.10113777e-02 +3.58320214e-02 +8.46834108e-02 +1.03805497e-01 -1.02346897e-01 -4.00052872e-03 -5.12595885e-02 +3.08539215e-02 -2.51288451e-02 +5.68680093e-03 -2.86820866e-02 +1.11481458e-01 +1.19143110e-02 -8.96334723e-02 -6.66613206e-02 -8.48699510e-02 +9.20321122e-02 +4.96610217e-02 +7.76226893e-02 +9.98640805e-02 +6.00933563e-03 -1.02867737e-01 +1.11325562e-01 +1.98712014e-02 +9.58589762e-02 -8.08532983e-02 +6.46950752e-02 -1.08165480e-01 +4.51681251e-03 +1.07015602e-01 +7.39163458e-02 +2.26768907e-02 -4.04038578e-02 +4.28560711e-02 +1.07990578e-01 -9.63898599e-02 +8.07778910e-02 -3.19783166e-02 +9.14867446e-02 -1.28312856e-01 -9.22634304e-02 +1.04876913e-01 -8.69819075e-02 -2.27960050e-02 +4.13333587e-02 +2.87950262e-02 -3.73948961e-02 -9.17225480e-02 +1.87207907e-02 -8.11721906e-02 -6.56639040e-02 -1.41560845e-02 +1.93695314e-02 -7.24543035e-02 +1.09050326e-01 -1.68189742e-02 +1.15820900e-01 +3.59534025e-02 +2.20828615e-02 +4.44594547e-02 +6.99421391e-02 +3.72689143e-02 -9.18826461e-02 -6.83708936e-02 -4.55099009e-02 +5.71639463e-02 -7.26976842e-02 +6.82429448e-02 -3.28568593e-02 +6.60517858e-03 -8.29051901e-03 -4.11219336e-03 +9.39201750e-03 +1.30071007e-02 +6.50439411e-02 +1.44816553e-02 +1.04973868e-01 +9.84583572e-02 +1.08701095e-01 -7.48815611e-02 -2.59953607e-02 +1.31417066e-01 -7.39191994e-02 -3.19533832e-02 +3.16485995e-03 +4.91664074e-02 +9.06563015e-04 -2.78788749e-02 +5.19660711e-02 +1.15783036e-01 -8.79606046e-03 -6.00952469e-03 +3.25127505e-04 -1.29067704e-01 -7.95149282e-02 +7.10925236e-02 +7.91323632e-02 -6.81134835e-02 +1.12224653e-01 -7.89816976e-02 +1.09812088e-01 +7.12427795e-02 +3.97396013e-02 -3.31993122e-03 +2.79442538e-02 -1.10604130e-01 -2.14003911e-03 -1.06629446e-01 -6.65781274e-02 -5.62684536e-02 -2.66773961e-02 +1.19348660e-01 +5.95563557e-03 -1.06590241e-01 -1.96756255e-02 -3.49659622e-02 +8.12971313e-03 -1.09172001e-01 +9.81338546e-02 +7.17934147e-02 -2.72063985e-02 +2.57123448e-02 +6.52142912e-02 +1.07879952e-01 -1.81826539e-02 -4.23696786e-02 -1.92597862e-02 -6.20209910e-02 -7.48076886e-02 +8.98251235e-02 +1.33332714e-01 +8.68030787e-02 +7.02167526e-02 +7.72206262e-02 -2.70730518e-02 -5.62385172e-02 -8.61762837e-02 +5.83363101e-02 +8.96622613e-02 -3.42666544e-02 -6.79061562e-02 -1.21062705e-02 -9.50238630e-02 +2.37849336e-02 +9.44420397e-02 -2.55296454e-02 +5.29997125e-02 +3.16858105e-02 -1.22826703e-01 -5.56610227e-02 +9.30651724e-02 -1.05384953e-01 +1.36811296e-02 -8.99179876e-02 -7.45026022e-02 +6.83714822e-02 +7.80106336e-02 +3.12071666e-02 -3.76587212e-02 +1.18163325e-01 -8.51188973e-02 -8.20851699e-02 +1.03141563e-02 -9.73354056e-02 -7.40003632e-03 -8.90432820e-02 +9.57264900e-02 +6.28658608e-02 +2.51311045e-02 +2.86904983e-02 -9.79440659e-03 +7.65161365e-02 +3.92207913e-02 -1.83681287e-02 +7.37492889e-02 +5.42850196e-02 -6.99156448e-02 +9.83659104e-02 -5.59462868e-02 +1.00725882e-01 -4.50591231e-03 +3.17150950e-02 +1.13027811e-01 -7.98719877e-04 +7.51035213e-02 -5.22972643e-02 -1.16532676e-01 +8.73025414e-03 +3.16703692e-02 -1.02743424e-01 +5.65024205e-02 +1.19592078e-01 -3.59936394e-02 -2.88711824e-02 +1.07508317e-01 -8.90933126e-02 -3.96075211e-02 -7.11311027e-02 +1.73683595e-02 -7.59992376e-02 +4.11782637e-02 +1.75788850e-02 +7.76680037e-02 +6.30378351e-02 +8.65675956e-02 -1.28058409e-02 -4.13389839e-02 +3.52857187e-02 -6.40407577e-02 -1.01661243e-01 +3.91388871e-02 +1.04132138e-01 +2.96367127e-02 -2.24333853e-02 -4.87616509e-02 +4.95270779e-03 -3.43833528e-02 -5.23507521e-02 -7.83759877e-02 -3.68706090e-03 +8.61427784e-02 -9.77170169e-02 -6.36853650e-02 +7.17814118e-02 -7.90618360e-02 -1.95487291e-02 +8.07478093e-03 -1.20333070e-02 +4.09194529e-02 -4.76760790e-03 +8.81760642e-02 +5.77183105e-02 -7.27237612e-02 -6.07017800e-03 -4.17337306e-02 -1.04618892e-01 -1.15188435e-01 -6.86126426e-02 +1.14456885e-01 -2.12656558e-02 -9.39408168e-02 +2.25305241e-02 +6.97402582e-02 -5.84628321e-02 +7.64649510e-02 -2.52626631e-02 -3.15235928e-02 -5.71132079e-02 +1.76785570e-02 +1.44035667e-02 -1.69532374e-02 +7.50508308e-02 -3.67751680e-02 -9.96502936e-02 +8.60476494e-02 -6.32735668e-04 -5.76717742e-02 +8.30343645e-03 -1.54518224e-02 -9.88777503e-02 +8.42102915e-02 +1.06708109e-01 +1.14951566e-01 -7.41784945e-02 -9.79610756e-02 +8.48167464e-02 +8.39560702e-02 +4.21432145e-02 -2.89325919e-02 +2.50258408e-02 -4.06224187e-03 -8.56011510e-02 +1.13122433e-01 +8.46766755e-02 -3.40409763e-02 -5.31149916e-02 +9.86100957e-02 -8.80605802e-02 +1.24883898e-01 -2.15992592e-02 +1.08686097e-01 +3.29045728e-02 +9.41860601e-02 +1.55030675e-02 +9.47429985e-02 +8.71615335e-02 +3.38162072e-02 +4.79503050e-02 -1.47697944e-02 +7.90256336e-02 -9.98247266e-02 -9.64620113e-02 -3.33109275e-02 +1.03882186e-01 -1.00641614e-02 +9.25124288e-02 +3.31317261e-02 -2.23938972e-02 -9.20212567e-02 +6.81161508e-02 -5.90595305e-02 -1.29944889e-03 -4.77404818e-02 +9.77994278e-02 +4.92870621e-02 -2.28201579e-02 +5.03200181e-02 -1.99071621e-03 -6.81529045e-02 -8.29172134e-02 +1.01006858e-01 -5.83988577e-02 -4.91583683e-02 -3.44027653e-02 +5.86652383e-03 +9.16664079e-02 +1.43249379e-02 -5.17380796e-02 -9.66862366e-02 -8.75937939e-03 +1.31586343e-01 -1.13978699e-01 -5.95673732e-02 -5.07618152e-02 -3.03432494e-02 +1.69257633e-02 +1.35676805e-02 +7.08173215e-02 +9.42525715e-02 +4.57743518e-02 -2.46067997e-02 +5.42839356e-02 +3.07651740e-02 -4.44839410e-02 +1.21461548e-01 -4.20087427e-02 -1.71440654e-02 +7.54921883e-02 -1.07227840e-01 -4.28831689e-02 -1.75817311e-02 +9.97299775e-02 +5.43564707e-02 +7.57879466e-02 -7.10498989e-02 -3.47425975e-02 +5.86959459e-02 +2.15911046e-02 -9.86630544e-02 -1.11010559e-01 -2.48226319e-02 +1.17262155e-01 -4.95883822e-02 +3.99619853e-03 -1.94690339e-02 -5.91878705e-02 -8.19890480e-03 -1.09500915e-01 +1.17588326e-01 -2.80829147e-02 +1.03101373e-01 +7.55843520e-02 -5.87444156e-02 +7.77699277e-02 -3.59682590e-02 -6.55992404e-02 -4.45475765e-02 -3.27741355e-02 +1.02285594e-02 -1.08302180e-02 -9.10572037e-02 -1.12995006e-01 +7.96267539e-02 -9.99403745e-02 +6.18318766e-02 +3.55834812e-02 +5.63482642e-02 -6.93581328e-02 +3.63692939e-02 -3.82272303e-02 -1.42808435e-02 -5.34692667e-02 -1.09551869e-01 -8.04659799e-02 +1.08769916e-01 +3.49310376e-02 -2.54615415e-02 -6.28489777e-02 -2.27670185e-02 +4.27261554e-02 +9.31914598e-02 +4.71522287e-02 +1.25090241e-01 +1.12183057e-01 -7.97011927e-02 +7.94254541e-02 +1.05104543e-01 +7.23566394e-03 +8.65570381e-02 +2.38648746e-02 +6.81316555e-02 -5.71453646e-02 +3.90902124e-02 -6.91387206e-02 +5.35744168e-02 +2.96469852e-02 +7.81491399e-02 +1.18832648e-01 +5.87261096e-02 -2.73755267e-02 +1.55845203e-03 -8.23123753e-02 +4.94130664e-02 +3.15500759e-02 +1.12746455e-01 -2.82938275e-02 -2.12140884e-02 -9.67398379e-03 -6.62301376e-04 -9.13598612e-02 +5.71034364e-02 +9.15807188e-02 +8.33356678e-02 -7.65032843e-02 +7.59064853e-02 +2.75037028e-02 -1.12283535e-01 -8.76029860e-03 -9.15609009e-04 -1.11980990e-01 +5.94178587e-02 +1.09453037e-01 -1.30678266e-02 -1.02957860e-01 -6.94979653e-02 +5.15127890e-02 -9.67058614e-02 +2.43044775e-02 +2.24951301e-02 +9.44070965e-02 +8.33294913e-03 +1.10921957e-01 -1.28096327e-01 +4.49029356e-02 +6.26121163e-02 +8.29833448e-02 -1.04992785e-01 +9.50222090e-03 -6.04739860e-02 -4.97238971e-02 -1.93857625e-02 +5.13064303e-02 +6.55662715e-02 +4.83309701e-02 +7.02695996e-02 +1.83611885e-02 +1.09704204e-01 +1.04631081e-01 +3.41849253e-02 +6.57500401e-02 +6.64061755e-02 +5.40399067e-02 -5.31402938e-02 -3.11941635e-02 -7.21211284e-02 -8.88713896e-02 -3.67012806e-02 -3.51776630e-02 +4.59896959e-02 +1.15363084e-01 +6.92496970e-02 +3.96855660e-02 +6.86839074e-02 +2.60724146e-02 -6.12220727e-02 -6.34136274e-02 -5.34169264e-02 +1.52075430e-02 -2.09443364e-02 +7.20204264e-02 +1.84721854e-02 +1.61970574e-02 +2.07483359e-02 +6.14447985e-03 -6.30169213e-02 -7.71848019e-04 -8.59246310e-03 +2.11144751e-03 -4.27745208e-02 +1.10818528e-01 +1.01893611e-01 -4.48077433e-02 +4.03993912e-02 -1.29150316e-01 +1.15027353e-01 +3.50417048e-02 +1.71084329e-02 +1.42009864e-02 -5.86169697e-02 -5.98508194e-02 -1.13139935e-02 +4.44459915e-02 -9.66975987e-02 -1.02423474e-01 +5.75056858e-02 -9.41932723e-02 +1.17135132e-02 -2.02792566e-02 -2.61063762e-02 -8.64837915e-02 +2.06360240e-02 -9.39848423e-02 +1.06025770e-01 -4.84215692e-02 -8.86377618e-02 -3.00027076e-02 -1.20230235e-01 +8.73705819e-02 -2.60091629e-02 +2.18828786e-02 +2.95778941e-02 -8.82824138e-02 +3.22853290e-02 +9.04174298e-02 +7.50278980e-02 -8.92032906e-02 +9.89252403e-02 -2.81638522e-02 +1.64519623e-02 -8.38364139e-02 -3.25314514e-02 -7.92478621e-02 -5.35851009e-02 -1.04356334e-01 -5.73856160e-02 -1.17445104e-01 -3.98153365e-02 +8.52309689e-02 -1.22988887e-01 -7.20176026e-02 +3.68565433e-02 -3.19881625e-02 -5.69634326e-02 +4.67257872e-02 +6.01916853e-03 +2.55489722e-02 +7.82093331e-02 -6.99117035e-02 -6.94085285e-02 -4.85131256e-02 +5.09074256e-02 -6.73019737e-02 +8.57019890e-03 -9.91367549e-02 -6.56501800e-02 +3.00436020e-02 -6.30072653e-02 -7.58224055e-02 -4.07124199e-02 -6.26533702e-02 -2.11209636e-02 +5.12576997e-02 +5.45075946e-02 -8.69065598e-02 +5.06673977e-02 +1.03800772e-02 -1.13615446e-01 -4.08955365e-02 +8.15886110e-02 -1.11599406e-02 +1.41607765e-02 -1.09736219e-01 +9.92762595e-02 -8.64520222e-02 +7.45600238e-02 -6.66668937e-02 -7.54645541e-02 +1.11575752e-01 +1.82468444e-02 -5.90794347e-02 -3.71417403e-02 +8.80741328e-02 +6.18324094e-02 +2.87810713e-02 +1.06640399e-01 +1.49933454e-02 -4.59659807e-02 -4.88587655e-02 +3.63026820e-02 -1.06470212e-01 +4.54641804e-02 -5.44738546e-02 -9.92425755e-02 -8.86877030e-02 -8.81513208e-02 -2.24166829e-02 +1.15929572e-02 +8.47994387e-02 -6.54751956e-02 -2.00163685e-02 -1.15401156e-01 -1.02907553e-01 +6.79674596e-02 -4.54794727e-02 +4.29836148e-03 +1.07524917e-01 +4.41495031e-02 +1.06522717e-01 +7.98463523e-02 +8.67215768e-02 -6.76017329e-02 -2.23885160e-02 +1.18245324e-03 +5.99854030e-02 +5.87901361e-02 +3.43871079e-02 +9.03871357e-02 +4.92876172e-02 +1.26111656e-01 +8.93947557e-02 +6.72355741e-02 +1.10609211e-01 -1.06540449e-01 -1.14532560e-03 -2.83594225e-02 -5.32660186e-02 +8.89371186e-02 +1.03084408e-01 +8.53001699e-02 +1.03757977e-01 -6.46434501e-02 +9.64702666e-02 -7.44028017e-02 +1.18833117e-01 +6.50805235e-02 -1.96979586e-02 +1.87090226e-02 +2.24792995e-02 -7.12949364e-03 -2.06058268e-02 +1.15706036e-02 -6.49767146e-02 -8.26356784e-02 -6.85987025e-02 -4.19708006e-02 -1.87855167e-03 +2.03520712e-02 -3.99255157e-02 -1.24742121e-01 -6.67179599e-02 -1.88583264e-03 +2.04555262e-02 -7.38023520e-02 +8.35455302e-03 -1.14286751e-01 +1.63423307e-02 +9.59181935e-02 +1.01918921e-01 -9.38213170e-02 -8.83597881e-02 -3.30266096e-02 -6.75484985e-02 +1.02420032e-01 +2.12633163e-02 +6.16928097e-03 +5.92452884e-02 -1.00357018e-01 +7.53156617e-02 -2.31469292e-02 -7.37636983e-02 -1.30887507e-02 +2.79373210e-02 -1.23990122e-02 -1.13543868e-01 +5.94163947e-02 -4.26629968e-02 -4.54053991e-02 +4.55522835e-02 -6.24463111e-02 +4.09944244e-02 +1.87294129e-02 +1.50333969e-02 -3.42346169e-02 +6.89565167e-02 +1.90051668e-03 -1.68797988e-02 -3.60072479e-02 -8.17366391e-02 -9.10342764e-03 -5.53693697e-02 -4.15911935e-02 -2.45742314e-02 -1.41964247e-02 -7.15581030e-02 -8.35187212e-02 -8.80297944e-02 +6.22750781e-02 -1.09263115e-01 +6.65155649e-02 -4.99144718e-02 +5.98235764e-02 +6.12585479e-03 +9.94235054e-02 -1.00611858e-01 -7.58222044e-02 +1.02879010e-01 +7.87445996e-03 -8.32463242e-03 +1.34417089e-02 -2.25335080e-02 -9.39413011e-02 -7.59227620e-03 -3.80656980e-02 +4.48768213e-03 +3.00955866e-02 -6.98625371e-02 +1.06971078e-01 -8.86732712e-02 +5.59870005e-02 +4.72226404e-02 -3.86905782e-02 +6.87044859e-02 -1.06328920e-01 -7.51092285e-02 -8.32530484e-03 +9.10398923e-03 -4.41980064e-02 +4.76855524e-02 -7.12066218e-02 +6.38168827e-02 -6.57488257e-02 -5.45809977e-02 -1.12371333e-01 +1.23015665e-01 +5.30494750e-02 -8.05280507e-02 +1.97366960e-02 +5.62512092e-02 -9.77669805e-02 -9.81510803e-02 +8.27665627e-02 -9.79411975e-02 +1.16534956e-01 +1.09726511e-01 +4.82245050e-02 -7.24322796e-02 +1.06010705e-01 -4.38953415e-02 +1.23845764e-01 +4.97998744e-02 -1.12105601e-01 +1.90040860e-02 +5.32730436e-03 +3.47588770e-02 +8.13439041e-02 -3.55723538e-02 +3.80762555e-02 +1.15325935e-02 -4.91197631e-02 -1.33006880e-03 +8.30272362e-02 +1.22352459e-01 +9.23622325e-02 +3.10912430e-02 +3.61028947e-02 +7.09298812e-03 +7.01182336e-02 -4.44367304e-02 +7.60331750e-02 +1.49606261e-02 +3.36570218e-02 +1.03810318e-01 +1.18516572e-01 -8.40600953e-02 +6.85346425e-02 +7.15584829e-02 -1.05227642e-01 +2.84320600e-02 +4.47229436e-03 +5.92862256e-02 -1.23093754e-01 -2.76546497e-02 +3.45169790e-02 +5.63377477e-02 -3.87911126e-02 -1.07436493e-01 +4.43096086e-02 -1.09933250e-01 -5.21613657e-02 -4.39738110e-02 +3.45172435e-02 -2.10804343e-02 +7.33761415e-02 -1.75607409e-02 -3.26000489e-02 -3.46883088e-02 +7.04502165e-02 +2.86667678e-03 +1.08299432e-02 -1.19498335e-01 +7.79745281e-02 -1.07410662e-01 -1.94969848e-02 -1.22155445e-02 -1.04356214e-01 -6.34464398e-02 -2.05115825e-02 -9.87228304e-02 +1.92416795e-02 -1.70294866e-02 +7.72087723e-02 -1.85519885e-02 -9.00828540e-02 +6.04646578e-02 +1.02071822e-01 +9.69232619e-02 +7.47214481e-02 +9.29851681e-02 -4.85224798e-02 -5.13805710e-02 +4.28121351e-02 -6.34642616e-02 -1.44334547e-02 +1.04295686e-01 -6.11137748e-02 -3.20563875e-02 -2.56002527e-02 -3.20533253e-02 -5.39485849e-02 -8.53840858e-02 -4.25791629e-02 -1.13888286e-01 +2.69007087e-02 +1.22257993e-01 -4.20743860e-02 -7.61480182e-02 +1.04014471e-01 +1.19169220e-01 -2.81910803e-02 +3.48637998e-02 +2.93352781e-03 -9.71943289e-02 -1.02149144e-01 +7.25744152e-03 +4.97379992e-03 -3.60341743e-02 -5.68819679e-02 +2.52205208e-02 +7.11378129e-03 -6.29049027e-03 +9.80335101e-02 +1.20960519e-01 -8.72661471e-02 +2.14819051e-02 +4.12589535e-02 -1.11143574e-01 +1.26203030e-01 -1.08063154e-01 -1.02001369e-01 +8.56114775e-02 -2.86355913e-02 -7.75170699e-02 -5.72939999e-02 -2.94454694e-02 +1.01488702e-01 +2.70933378e-02 +8.38117078e-02 -8.11533555e-02 +7.43847862e-02 -5.97267896e-02 -1.29407093e-01 +8.25279057e-02 -9.90403891e-02 +1.38352988e-02 +3.48091871e-02 +7.15050995e-02 +1.79294907e-02 +2.96695959e-02 +5.99373356e-02 +1.06990524e-01 +2.26548593e-02 -6.05416782e-02 +3.14464569e-02 +5.81298303e-03 -1.16371125e-01 -8.81457478e-02 +1.09751604e-01 +5.09233810e-02 +1.01388514e-01 +2.89460812e-02 -7.59233721e-04 +1.30519168e-02 +1.19320899e-01 -7.86865577e-02 +1.57291181e-02 -8.33581835e-02 +4.73503694e-02 +9.84932557e-02 -7.95582905e-02 -8.45712668e-04 +6.19874708e-02 -4.93526785e-03 -1.06969409e-01 +1.01244293e-01 +9.99349505e-02 +1.82196647e-02 +2.74482612e-02 -4.92648147e-02 -9.04020518e-02 -2.60511730e-02 -3.55837867e-02 +5.33106960e-02 +1.50423190e-02 +1.46253556e-02 -1.16481125e-01 -6.35653511e-02 +5.58785349e-02 +7.47226253e-02 -6.06528670e-02 +4.68323044e-02 -7.56967533e-03 -6.37550801e-02 -9.36883837e-02 -8.55775625e-02 -1.16088785e-01 +1.05282757e-02 +1.02502499e-02 -6.09911457e-02 +8.93601179e-02 +5.66736795e-02 +1.14028387e-01 +2.85175703e-02 +4.69263010e-02 +1.15495585e-01 -9.78938043e-02 -2.10408457e-02 -8.69332477e-02 -2.77994480e-02 +9.09798965e-02 -8.66512209e-02 +1.01015761e-01 -8.98931473e-02 +2.98641454e-02 +3.08955945e-02 -5.65824360e-02 +8.21100101e-02 -1.00737348e-01 +7.78971091e-02 +7.63006583e-02 +1.22395113e-01 +6.87160492e-02 +5.48392199e-02 +9.91665348e-02 -1.23851486e-01 -3.89101123e-03 -4.86606620e-02 +3.82044613e-02 +8.68613794e-02 -6.32003099e-02 +1.13152280e-01 +1.11459039e-01 -1.10844485e-02 +5.37329726e-02 -8.25645924e-02 +2.38546580e-02 -1.77964568e-04 +1.23352863e-01 -5.61936758e-02 -7.20103607e-02 +8.60328153e-02 +5.92903495e-02 +4.88326773e-02 -7.43519813e-02 -3.25426906e-02 +7.60487393e-02 +5.34548201e-02 -8.22933465e-02 -9.71343815e-02 +7.86292180e-02 +1.17909864e-01 +1.12321176e-01 -1.01800831e-02 +7.75437653e-02 -3.95174623e-02 +5.40187098e-02 +7.04820231e-02 -1.35809509e-02 +6.36907369e-02 +1.82645712e-02 -7.93838948e-02 +6.76387995e-02 +1.73210818e-02 -1.16348512e-01 +3.21502574e-02 -5.70040476e-03 +9.48624834e-02 -6.49329796e-02 -1.99694857e-02 +2.43602358e-02 -1.05429679e-01 +7.91849196e-02 -7.61697814e-02 +6.97495341e-02 +1.13728508e-01 -9.22090709e-02 -1.18040867e-01 +6.11497574e-02 +3.19962241e-02 +8.55165869e-02 -8.64604935e-02 -4.23994102e-02 -5.02656624e-02 +8.17222819e-02 +6.28647059e-02 -1.16894662e-01 -6.23970777e-02 -5.79561777e-02 +8.49363729e-02 +6.50927946e-02 -5.85093461e-02 -6.39219880e-02 -8.10764804e-02 -1.85726415e-02 +7.65193487e-03 +8.73885304e-02 +1.26121476e-01 +1.21199131e-01 +9.72751454e-02 -2.94725429e-02 -1.59914419e-02 -3.50828283e-02 +6.60350472e-02 +7.94878323e-03 +1.12433143e-01 -7.66553879e-02 -1.12537965e-01 +4.07984965e-02 -5.61272204e-02 -4.41295095e-02 +4.96136732e-02 +4.52712737e-02 +2.08572596e-02 +6.25322834e-02 +1.23671610e-02 +6.74874112e-02 -7.43922815e-02 +1.11867532e-01 -3.43360342e-02 -6.90503046e-02 +3.31800729e-02 +3.42754461e-02 -2.48561762e-02 +1.00134939e-01 +1.11334525e-01 +7.84143656e-02 -2.36673057e-02 -6.89464137e-02 +1.99382962e-03 +5.57389036e-02 +7.69479796e-02 -9.16262046e-02 -1.07360920e-02 -9.18203779e-03 -8.36740583e-02 +8.93601254e-02 -6.89442158e-02 +9.72051695e-02 -8.58292729e-02 -2.22911481e-02 +4.37053367e-02 +8.43974799e-02 +3.18698073e-03 -6.38083518e-02 -1.21556839e-03 -9.81940925e-02 -6.87860847e-02 -6.22710139e-02 -4.38454747e-02 -6.21645562e-02 +1.00044487e-02 +4.27310243e-02 +4.36283229e-03 -8.49784985e-02 -9.54875574e-02 -9.32132378e-02 +6.38160557e-02 +6.48729578e-02 -6.59493208e-02 -5.50802648e-02 -1.00952454e-01 +5.91009259e-02 +4.39817645e-02 -9.76801217e-02 +1.14666045e-01 +1.20610319e-01 -1.02722393e-02 +1.23428769e-01 -7.03168288e-02 +1.37723591e-02 +5.08116893e-02 +1.16726682e-01 +7.32506514e-02 -6.94454089e-02 -1.16934501e-01 +1.70241594e-02 -6.92319945e-02 -4.75324765e-02 +1.00941941e-01 +5.96978106e-02 +1.16987042e-01 -9.32096168e-02 +3.93868759e-02 -2.79530678e-02 +1.31411105e-01 -3.57972421e-02 -7.73470774e-02 +8.74441564e-02 -2.04203315e-02 +8.25089440e-02 +4.10776213e-02 +8.41891393e-02 +9.74372178e-02 +1.08953202e-02 -1.23507967e-02 +3.09548788e-02 -3.80129181e-02 +6.49515241e-02 -1.04022078e-01 -3.40061225e-02 -9.76719484e-02 +6.68473244e-02 -1.00072347e-01 -8.05978999e-02 +1.04541138e-01 -7.93006048e-02 +1.29380956e-01 +8.81783664e-02 +9.68521014e-02 -9.43419486e-02 -3.55079845e-02 -5.22985868e-02 +2.40307916e-02 +8.60678703e-02 +7.90387765e-03 +8.86384621e-02 +7.43469372e-02 +5.88654652e-02 +5.62736094e-02 -2.52964664e-02 -1.53934704e-02 +4.62996736e-02 -6.04739599e-02 -1.12686209e-01 -5.28054871e-02 +9.13525075e-02 -9.19150412e-02 -2.57571246e-02 -9.07050911e-03 -7.84240216e-02 +4.34530973e-02 +1.07621495e-02 +1.06711306e-01 +2.06383299e-02 -2.49729902e-02 +1.11037984e-01 +7.66056255e-02 +5.62417433e-02 +1.16120525e-01 -4.36033309e-02 -1.08649284e-01 -2.99811307e-02 -1.62542646e-03 -1.94765255e-02 +3.23164277e-02 +6.68721367e-03 +3.08456663e-02 -1.24346517e-01 +1.12318367e-01 +6.01777658e-02 +9.59023684e-02 +3.98953930e-02 +2.67321691e-02 -6.20196834e-02 +3.59438796e-04 -2.41104215e-02 +8.68451595e-02 +2.31482610e-02 -1.08417720e-01 +9.67221484e-02 -6.97633028e-02 -7.34650791e-02 +2.08504368e-02 +6.61695451e-02 +1.28295437e-01 -2.35131271e-02 +7.78153539e-02 +2.25168616e-02 -6.92620352e-02 -7.17837512e-02 -6.21191747e-02 -5.46126701e-02 +1.00870870e-01 -1.04107283e-01 -6.60474077e-02 +1.08273879e-01 +2.63748057e-02 -8.86049271e-02 +4.18393649e-02 +5.11192833e-04 +6.30953684e-02 +1.41810067e-03 +1.09110750e-01 -5.07310256e-02 +1.20497331e-01 -4.74846549e-02 +1.19578391e-01 +6.61069155e-02 +5.64960130e-02 +2.66845562e-02 +6.38574734e-02 +4.60638851e-02 -6.55081421e-02 -2.83727348e-02 -9.35087519e-06 +4.52787266e-04 +5.02159372e-02 +7.28470683e-02 +3.55630629e-02 -7.23390207e-02 +6.55917302e-02 -4.69049886e-02 -4.33265790e-02 +6.72091544e-02 +8.23153034e-02 +7.41920471e-02 -1.09469339e-01 -4.08150703e-02 +1.85425428e-03 -2.61765253e-02 -1.24351770e-01 +1.13106474e-01 -1.06484599e-01 -9.48962271e-02 -1.29814679e-02 +8.08091387e-02 +8.46892744e-02 +1.19389199e-01 -6.34216368e-02 -2.27675140e-02 +1.24570504e-01 -1.10607864e-02 -3.28682773e-02 +2.00684108e-02 +8.67569596e-02 -2.46745665e-02 +1.82357747e-02 +6.35999069e-02 +1.20441750e-01 -4.56443727e-02 +1.14305861e-01 +1.11372143e-01 -4.43714671e-02 +1.02472052e-01 +7.64196962e-02 +5.41351885e-02 +6.02803426e-04 -6.36563078e-02 +6.19482845e-02 -5.86630180e-02 +2.02984875e-03 +4.83279489e-02 +5.19856587e-02 -7.20266923e-02 +6.75393865e-02 -5.18883429e-02 +2.89219245e-02 -1.15667887e-01 -7.21409544e-02 -6.90432191e-02 -4.53486629e-02 -1.20989807e-01 +6.21789768e-02 -1.20733999e-01 -3.18687670e-02 -1.16484940e-01 -1.08013591e-02 +1.03665397e-01 -1.68088283e-02 +4.88327667e-02 -1.00500107e-01 -1.16041787e-01 +6.11678213e-02 -6.94949552e-02 +7.49492049e-02 -6.71119764e-02 +7.89307952e-02 +1.25196546e-01 +1.17468990e-01 +3.52817252e-02 +7.87636712e-02 +6.17857650e-02 -9.79718640e-02 +2.53831409e-02 +6.91345781e-02 -9.67631713e-02 -3.74220833e-02 +1.12197958e-01 -5.80266304e-02 -5.51291257e-02 +7.29504228e-02 -5.35937585e-02 +3.84008922e-02 -5.80938458e-02 -8.70426074e-02 +6.19407743e-02 -9.96131375e-02 -1.17935687e-01 -8.37778449e-02 +6.78230599e-02 +6.21530600e-02 -9.44785774e-02 -5.10148646e-04 +4.51634489e-02 +3.53202038e-02 -5.14582098e-02 -6.51264787e-02 -5.44022210e-02 +1.27218753e-01 +1.09898008e-01 -3.82308513e-02 -7.36445859e-02 +4.31346409e-02 -3.54832001e-02 +2.97953803e-02 -6.48139045e-02 +8.86548162e-02 -8.10042173e-02 -7.26139173e-02 -6.95517361e-02 -9.92342457e-02 +2.78085414e-02 +1.11520551e-01 +5.12327030e-02 +6.99509606e-02 -1.95342209e-03 -1.23200528e-01 -7.70881698e-02 -5.80593869e-02 -1.27102792e-01 +7.74178207e-02 +9.04014558e-02 -4.82520126e-02 -1.92111041e-02 -4.57607694e-02 -3.09844501e-02 +1.33728221e-01 +1.15115106e-01 -8.02016556e-02 -1.16874054e-01 +5.86644299e-02 +4.20819409e-02 +9.91046727e-02 +7.76186725e-03 +1.18022285e-01 -6.06084168e-02 -1.13253653e-01 +8.56781378e-02 +1.21541262e-01 +1.04910746e-01 +1.68940108e-02 +1.92451347e-02 -3.99950333e-02 +7.08487630e-02 -3.37898023e-02 +4.77961497e-03 -3.25203352e-02 +4.66815569e-02 -8.93207639e-02 +1.18885785e-02 -5.92991598e-02 -1.07618995e-01 -5.90403229e-02 +7.08796382e-02 -9.56915095e-02 +2.24770699e-02 -7.20388675e-03 +3.07290815e-02 +8.62892419e-02 +6.19100891e-02 -4.16317657e-02 -2.40402482e-02 +1.11640751e-01 +1.74601544e-02 +7.98030198e-02 -4.75741290e-02 -8.31691325e-02 -3.73857468e-02 +1.01982243e-01 -9.19225514e-02 -4.81476821e-02 -7.87065774e-02 -9.33710188e-02 -5.54451421e-02 -7.55768791e-02 +4.98270579e-02 -6.86364844e-02 +2.43344828e-02 -2.74240077e-02 +7.06973299e-02 -3.26629425e-03 -1.53428977e-02 +8.26152787e-02 +3.27106416e-02 +2.64494997e-02 -7.56296739e-02 +1.66431200e-02 +6.25173151e-02 -6.37847334e-02 -5.21248356e-02 -4.72281687e-02 -6.96720332e-02 -2.52109822e-02 +1.01240501e-01 +7.85828754e-02 -1.08046606e-01 -3.69750038e-02 -7.71718770e-02 -1.87648628e-02 -6.51646312e-03 +4.86238487e-02 +8.60312581e-02 -1.06012240e-01 +1.46715036e-02 -9.28995386e-02 -2.09233630e-02 +7.54766390e-02 -9.20689031e-02 -6.34616762e-02 +1.14292987e-01 -7.49463290e-02 +2.22944394e-02 -9.27444324e-02 -1.95546206e-02 +3.26153599e-02 +5.53339981e-02 +3.46796848e-02 +1.02427796e-01 +9.25496146e-02 -2.93197092e-02 -1.90835316e-02 -8.70434791e-02 -1.49034653e-02 +6.28792271e-02 +6.99803829e-02 +7.97434151e-03 +1.28904292e-02 -4.76898924e-02 +5.04531572e-03 -1.11191720e-01 -1.15904167e-01 -6.64417595e-02 +1.14988171e-01 +7.66077787e-02 -1.93504915e-02 +6.43301457e-02 +6.99736401e-02 +5.26453890e-02 +4.01406586e-02 -4.40716632e-02 -6.83639850e-03 -1.04558598e-02 +1.80271044e-02 +5.55801950e-02 -1.87556501e-02 -3.61375399e-02 -3.46729681e-02 +1.09836213e-01 -1.46677913e-02 +3.26006226e-02 -2.28986945e-02 -4.20759022e-02 -5.92442183e-03 -1.68864504e-02 +5.73450141e-02 -1.02899767e-01 -1.07477359e-01 -1.10955954e-01 -8.20434913e-02 -3.45625840e-02 +8.30535069e-02 +1.26490280e-01 -9.10693221e-03 +7.64638186e-02 -5.64719886e-02 +9.70671978e-03 +2.27068011e-02 +1.30191401e-01 +1.09140843e-01 +7.40561336e-02 -4.14908044e-02 +1.25466615e-01 -6.01978451e-02 +1.46560529e-02 -1.17613472e-01 +1.00455076e-01 +2.52124574e-02 -5.30710034e-02 -9.28529724e-02 -7.30944648e-02 +1.72310807e-02 +2.96581183e-02 -6.63330266e-03 -1.12603076e-01 -5.89255095e-02 -9.84833464e-02 -9.44611728e-02 +9.96542647e-02 -2.80533265e-03 -3.81214954e-02 +5.58313094e-02 +1.59839261e-02 +9.94267166e-02 +5.41375801e-02 +3.16595063e-02 -7.53820091e-02 -8.89039934e-02 +1.09431773e-01 -1.04118800e-02 +4.32052873e-02 +1.09523132e-01 +6.50767684e-02 -3.52268592e-02 +1.06114425e-01 -8.41728449e-02 +8.49757751e-04 +1.15586467e-01 -5.28774001e-02 -4.15888093e-02 +8.95982087e-02 +8.99455026e-02 +9.70539153e-02 +8.07411820e-02 -6.05036318e-02 +1.17587164e-01 -1.42516047e-02 +9.31183994e-02 +5.63980192e-02 -1.94633491e-02 +7.02585801e-02 -5.35189360e-02 +7.24218935e-02 -7.40159303e-02 +1.10140689e-01 +8.37062001e-02 +1.18039325e-01 -2.48125661e-03 +3.68725993e-02 +1.18811101e-01 -1.02526747e-01 -6.98160976e-02 +9.09465104e-02 +1.28013983e-01 +1.00686647e-01 +7.34101981e-02 -4.54246663e-02 +1.05543777e-01 -7.74650946e-02 +5.01430556e-02 -8.52963254e-02 +7.36347288e-02 -6.73685521e-02 +1.12126134e-01 -7.27323815e-02 +9.45297629e-02 -1.08124420e-01 -8.97595063e-02 +6.35154024e-02 -1.12270020e-01 -2.79907510e-02 +4.18590233e-02 +1.02582797e-01 +2.05556564e-02 -9.51536670e-02 -8.05712938e-02 +6.08157218e-02 -1.19392844e-02 +6.16245493e-02 -1.06086880e-01 +6.21030815e-02 -2.12901160e-02 +6.37776703e-02 -2.47894749e-02 -8.00739527e-02 -8.52739066e-02 -4.30082381e-02 -3.06123123e-02 +3.69742252e-02 -1.52825741e-02 -2.74512433e-02 -2.00568736e-02 -7.45103285e-02 +3.08084115e-03 -6.57282993e-02 -5.36146341e-04 -5.64503595e-02 -1.27489567e-01 +6.77225515e-02 +1.05215207e-01 -1.89955104e-02 +6.72342430e-04 -1.08319640e-01 