#Parameter# /vanilla-lstm-builder/_0 {400,21} 134401 ZERO_GRAD
+2.91410293e-02 +2.24395469e-02 +1.97218433e-02 -1.46026641e-01 +6.45561367e-02 -2.91507063e-03 -3.89745645e-02 +4.18279581e-02 +1.36757806e-01 +2.19323356e-02 +1.54103622e-01 +1.45907588e-02 +1.13150515e-01 +1.55500665e-01 -1.20726734e-01 +9.85336229e-02 +1.22270241e-01 +2.00759143e-01 -4.30709869e-02 -5.77539159e-03 -5.68375885e-02 -3.39554772e-02 +1.54660136e-01 -2.38972884e-02 +8.81651565e-02 +1.42543703e-01 -2.73811333e-02 -1.02759302e-01 +1.93298042e-01 -2.08561979e-02 -5.69886388e-03 +1.97805911e-01 +2.37264156e-01 -8.84248037e-03 +1.92424595e-01 +5.32660298e-02 +4.02272716e-02 +1.94154578e-04 +2.55834132e-01 +1.80371106e-01 +8.27757195e-02 +5.74174291e-03 -1.32537723e-01 -2.78487131e-02 +5.12183551e-03 -5.67589216e-02 -8.90693888e-02 -3.05505730e-02 +3.17684151e-02 +2.45783880e-01 -1.68755546e-01 +5.57959788e-02 +2.55412817e-01 -6.88860640e-02 -2.36520320e-01 -6.13373565e-03 -3.68697606e-02 -1.51822254e-01 +2.17958301e-01 +1.21937118e-01 -1.61079511e-01 +1.38254553e-01 +1.46848276e-01 +1.82807207e-01 +1.77621737e-01 +1.39039889e-01 +1.40445814e-01 +7.53523037e-02 +4.37264107e-02 +9.78654549e-02 -1.45606339e-01 +1.13685317e-01 -1.15541808e-01 -5.22150025e-02 -7.14092236e-03 +3.54866982e-02 -1.06828891e-01 -1.65835261e-01 -6.83545470e-02 +1.74616486e-01 -1.79680325e-02 +3.03352863e-01 -1.26856584e-02 +5.24600819e-02 -2.33240783e-01 -5.90106845e-02 +3.42230499e-02 -8.90563801e-02 +7.97746927e-02 -1.50411516e-01 +9.76217464e-02 +8.23832080e-02 +1.03540719e-01 -9.80961230e-03 -2.16065962e-02 -1.18158132e-01 +1.30621135e-01 +1.77724555e-01 +1.23086497e-01 +2.00737864e-02 +2.12690711e-01 +4.82865945e-02 +4.22410890e-02 -1.29657984e-01 -1.25301749e-01 +6.68821335e-02 +9.11217406e-02 -1.55647531e-01 +1.75240934e-02 -1.10533200e-01 -8.68629962e-02 +2.30741039e-01 +8.18112716e-02 +2.28436425e-01 -1.61849722e-01 +1.20454080e-01 +9.49574560e-02 +1.08839951e-01 +3.10944896e-02 -4.53388840e-02 -1.78172048e-02 -4.06557582e-02 +2.46407002e-01 +3.65562439e-02 +8.45381320e-02 +2.16940314e-01 -1.29333973e-01 -1.44102275e-01 +6.04493134e-02 -1.68688059e-01 +1.03144079e-01 +7.00333938e-02 +6.60058558e-02 +4.46576439e-02 +5.69833741e-02 -3.03885937e-02 -8.13381746e-02 +2.36183982e-02 +1.13093272e-01 -9.87716485e-04 -1.01108499e-01 +4.86941971e-02 +1.04931861e-01 -7.74387941e-02 -1.49285700e-02 -6.76956773e-02 +5.84627949e-02 +7.82950222e-02 -1.37419775e-01 +3.76597010e-02 -8.17511529e-02 -1.35276094e-01 -8.12526643e-02 +2.98498515e-02 -2.40009502e-01 -5.97423427e-02 -2.43824851e-02 +2.50023138e-02 -1.04753502e-01 -1.52265474e-01 -3.15073058e-02 +1.46822259e-01 -1.47585973e-01 +3.19624543e-02 +1.22723505e-01 +1.64548293e-01 +8.24470967e-02 +1.13079064e-01 +7.23744482e-02 -8.36768448e-02 -1.69711471e-01 +1.07268170e-01 +3.21635976e-02 -2.03511700e-01 -2.46011522e-02 +5.42314723e-02 -5.72846383e-02 -2.93033004e-01 +5.45907691e-02 -1.43593490e-01 -8.14073086e-02 -5.27205430e-02 -9.92902145e-02 -1.05207689e-01 -1.47867482e-03 -5.37686981e-02 +3.14849913e-02 -1.09526098e-01 +1.16590485e-01 +6.46598190e-02 +1.41595379e-02 +7.80269429e-02 -4.73026484e-02 -5.76368384e-02 +8.41975883e-02 -1.83596045e-01 +1.16251752e-01 +6.41542822e-02 -7.35145956e-02 +1.41213208e-01 +1.08420379e-01 +7.48635083e-02 +2.94641070e-02 -2.30150625e-01 -7.50190346e-03 +6.98177442e-02 +1.77867115e-02 -1.85354903e-01 +1.14428066e-01 +5.99312931e-02 -1.33229986e-01 +2.11267754e-01 -1.11429870e-01 -1.41358301e-01 -1.75540835e-01 +6.77814055e-03 -1.16265947e-02 +1.01042935e-03 +1.44835368e-01 -9.99131128e-02 +2.05776785e-02 -3.16136447e-03 +8.70565884e-04 +8.41462389e-02 +1.55028805e-01 +1.73316315e-01 -9.77488309e-02 -2.34611303e-01 +1.90235198e-01 -2.07024768e-01 -4.36210632e-02 +1.48462877e-01 -1.28326386e-01 -3.21258791e-04 +9.83638465e-02 -1.09771758e-01 -6.38027713e-02 +2.73983553e-03 +1.57658681e-01 -9.30460617e-02 -1.89718738e-01 +1.49646001e-02 -1.35422247e-02 -1.19974017e-01 +2.68238634e-02 +6.06371872e-02 +3.47447135e-02 -2.36481614e-02 +2.23587360e-02 -5.40883802e-02 -9.76361409e-02 -7.19522163e-02 -8.00386295e-02 -1.00155599e-01 -2.74762005e-01 -7.69670457e-02 -1.40678838e-01 +1.19233899e-01 -4.14177328e-02 +5.22944797e-03 +3.81951556e-02 +1.34983391e-01 -8.96976590e-02 +5.10354377e-02 +3.94983366e-02 +2.14552909e-01 +8.96395594e-02 +2.07891092e-01 +9.78326499e-02 -6.08093888e-02 -1.06244586e-01 -1.40779287e-01 -1.54300258e-01 -2.28470005e-02 -2.45241448e-01 +1.16566375e-01 -9.58482772e-02 -1.27405927e-01 -8.92199278e-02 +5.55969775e-02 -1.36860892e-01 -4.20316458e-02 -6.73077721e-03 +3.66463922e-02 -2.13637263e-01 +8.22886378e-02 -3.51915741e-03 -1.07472599e-01 +9.69769508e-02 +8.26217234e-02 -4.88056354e-02 -2.26268489e-02 +5.14865443e-02 -1.47510976e-01 -9.44002420e-02 -1.20846070e-01 +1.22835655e-02 +1.02987416e-01 -2.03971984e-03 -3.40175293e-02 -4.53955121e-02 +2.17834607e-01 -3.05126030e-02 -1.24462824e-02 +6.20976761e-02 +2.11524174e-01 -3.69761847e-02 +1.27066448e-01 -1.48224965e-01 +7.42200539e-02 +2.00975955e-01 +2.28098501e-02 +1.35584131e-01 +1.36266977e-01 +3.48130683e-03 -4.61288318e-02 -1.27414554e-01 +8.60357806e-02 -9.86042619e-03 +1.80623099e-01 +1.24095187e-01 +8.96215513e-02 -2.17946284e-02 +9.92108583e-02 +2.91289575e-02 +9.41714644e-02 +4.82915863e-02 +3.55469957e-02 +4.66017462e-02 -9.12346318e-02 +1.07612927e-02 -8.24342072e-02 -1.81170911e-01 -1.46755666e-01 +5.98655306e-02 +6.46143332e-02 +1.27766743e-01 +6.29470125e-02 +2.22056895e-01 +1.79683879e-01 +1.19513579e-01 +4.65217307e-02 -5.36985993e-02 -7.74224102e-03 -1.69622954e-02 +1.20916262e-01 +9.44818277e-03 -4.99534868e-02 -2.29581147e-01 +5.64726293e-02 +1.06038265e-02 +1.12199463e-01 -2.69273639e-01 -2.46484708e-02 -1.22119170e-02 +7.27570802e-02 +1.22073963e-01 +1.58621997e-01 -2.00280592e-01 +1.74953207e-01 +6.47491869e-03 -1.35122284e-01 -2.01825663e-01 -2.41799712e-01 +1.63222492e-01 +8.19249302e-02 +5.71261570e-02 -1.03529215e-01 +1.20401561e-01 +1.67166620e-01 -1.33629397e-01 +6.93719313e-02 -5.70017286e-02 +1.22125395e-01 +1.41700236e-02 +4.17286679e-02 +1.11070737e-01 -5.66991139e-03 -8.38532969e-02 +3.08241665e-01 +1.27109811e-02 -3.01845640e-01 -3.96581106e-02 +4.02616821e-02 +9.68285650e-02 +1.01192236e-01 +7.50015629e-03 -6.11254983e-02 -1.09633058e-01 +4.78302166e-02 -6.71097636e-02 +2.17619240e-01 -1.04351893e-01 -2.37995878e-01 +5.94200045e-02 -1.11840606e-01 -5.16523868e-02 -1.08872868e-01 +1.79241061e-01 +3.28819118e-02 +2.33847927e-02 +1.65182590e-01 +3.46918926e-02 -6.11005649e-02 +2.88775954e-02 -2.65569482e-02 +8.63209963e-02 +8.54196399e-02 -3.15137245e-02 -8.15795138e-02 +7.74998814e-02 +5.61746322e-02 -4.97562550e-02 -1.20049872e-01 -4.47035469e-02 -1.55888796e-01 +1.81510486e-02 +2.65541710e-02 +1.16314866e-01 -3.77343409e-02 +1.16725333e-01 +9.24951211e-03 -1.15561942e-02 -1.11880433e-02 +6.51559532e-02 +1.52352735e-01 +3.24278250e-02 +1.85901061e-01 +1.37187615e-01 +9.68284346e-03 -1.91065758e-01 -3.52447592e-02 +1.89313278e-01 +2.97418777e-02 -1.56013519e-01 -2.63484031e-01 +1.36871070e-01 +7.49898329e-02 -5.23377284e-02 -6.56938329e-02 +3.38140465e-02 +4.34776992e-02 -5.27828885e-03 +1.33508770e-02 -6.45163879e-02 +3.53160091e-02 +6.04730286e-02 +7.74527192e-02 +1.89675346e-01 +4.92948443e-02 -1.11856312e-01 -8.87478143e-02 +1.85392484e-01 +3.77305709e-02 +6.67072535e-02 -5.00379205e-02 +1.12785958e-01 -7.07304254e-02 +1.19287737e-01 +1.83003947e-01 +1.53371301e-02 -5.35967294e-03 +1.65416926e-01 +4.96879453e-03 -2.69429684e-02 +1.99138671e-01 -5.78909367e-02 +6.64711222e-02 +1.07864060e-01 +7.04606250e-02 +4.61731106e-02 -2.65289824e-02 -1.39663756e-01 +5.29531948e-02 +3.87147963e-02 +1.99906185e-01 +3.33939828e-02 +1.61007509e-01 +1.00122824e-01 -6.29905984e-02 +3.91055569e-02 -2.74453014e-02 +7.91950673e-02 -1.40210763e-01 -1.43989678e-02 -5.30643910e-02 +9.02714059e-02 +7.28928521e-02 +1.27262827e-02 -2.61571765e-01 -1.33470390e-02 +6.85891807e-02 +1.06308252e-01 -1.02148488e-01 +3.98646221e-02 -1.18917571e-02 -1.36688519e-02 +1.71436802e-01 -2.43331790e-02 -1.13453686e-01 -2.69645434e-02 -4.27635200e-02 -1.01228291e-02 +1.89022571e-02 -1.05587080e-01 -2.84533128e-02 +5.40105300e-03 +1.07524812e-01 +1.11317234e-02 -5.71165010e-02 +1.18340023e-01 +1.79341763e-01 -1.03486776e-01 +1.51499240e-02 +9.17297751e-02 -2.49205381e-02 +5.21180183e-02 +9.80455056e-02 -4.24638242e-02 -1.50488541e-01 +8.87457654e-02 -6.27669096e-02 +1.26507223e-01 -9.49131623e-02 +3.47351655e-02 +1.05571546e-01 +4.21942808e-02 +1.38059184e-01 +6.37206994e-03 +6.47691190e-02 -5.40830418e-02 -1.01233600e-04 +1.23697892e-01 -5.88548295e-02 -8.81690532e-02 -1.36133835e-01 -6.71920255e-02 +1.59880698e-01 -4.66084629e-02 +1.26648366e-01 -1.81009054e-01 +4.67994362e-02 +5.02283946e-02 +1.52556179e-03 +4.22270596e-02 -2.75598764e-02 -1.23174965e-01 -1.22612134e-01 +9.28759277e-02 -8.34466144e-02 +9.68925133e-02 -9.39749256e-02 -4.01602797e-02 +9.20604467e-02 +2.47313343e-02 +1.52456135e-01 +2.27729753e-02 -3.75992097e-02 +5.93967661e-02 +1.72386482e-01 +1.02950007e-01 -1.95494831e-01 -5.75606711e-02 +5.27593074e-03 +5.93333580e-02 +1.26820087e-01 -2.17457581e-02 +9.68035404e-03 -8.63787718e-03 -4.45177499e-03 -2.18134537e-01 +1.00274488e-01 -1.47405341e-01 -7.22088665e-02 +2.95997057e-02 +1.75804384e-02 -6.81670234e-02 -1.28903845e-02 +1.08069137e-01 +9.95425358e-02 -7.18437210e-02 +1.24563456e-01 +1.05828322e-01 -1.78521469e-01 -7.36247376e-02 +6.87728971e-02 +7.44871190e-03 +5.30383848e-02 -6.59575462e-02 +3.91051779e-03 +8.78740195e-03 +4.29842286e-02 +1.30987823e-01 +1.09300986e-01 +7.52451718e-02 -3.09161581e-02 -6.71539903e-02 -1.76971793e-01 -1.06636146e-02 +2.85318438e-02 +4.56309207e-02 +1.73509195e-01 -7.68019632e-02 -2.91754585e-02 -1.84691042e-01 +1.71852916e-01 +1.40269488e-01 -1.17561303e-01 +1.19290546e-01 -3.01769096e-02 +4.34159786e-02 +5.07919677e-02 -4.09486331e-02 -2.26259567e-02 -1.14114106e-01 +3.83979129e-03 +1.28057584e-01 -6.57506287e-02 -2.95319837e-02 +3.25484872e-02 +8.81399289e-02 -1.87337577e-01 +6.39636293e-02 -5.09890839e-02 +4.20534663e-04 +1.75617486e-01 +3.12115885e-02 +9.82298329e-02 +1.50654688e-01 -1.27082556e-01 -1.00013003e-01 +3.87874693e-02 +1.67251691e-01 -9.85317230e-02 -2.01257676e-01 +7.90917955e-04 +2.33548619e-02 +8.47992897e-02 -1.69506297e-01 +8.97891447e-02 -1.71415985e-01 +1.13522246e-01 +1.19280957e-01 -2.40415037e-02 +9.56618786e-02 -2.31948067e-02 -3.78273167e-02 -7.84507096e-02 +1.88191429e-01 +9.43943411e-02 +2.25620121e-02 +1.64115075e-02 -5.84387556e-02 +4.81631458e-02 +9.26581249e-02 +1.16666555e-01 -4.09585461e-02 -1.78406999e-01 +9.24393684e-02 +8.46207421e-03 -1.78519841e-02 -6.55509979e-02 +8.09806734e-02 -1.42387263e-02 -3.56863663e-02 -7.02361912e-02 -1.10857300e-01 +1.42221116e-02 +1.68342561e-01 -2.40276679e-02 -1.68791994e-01 +1.19808443e-01 -9.79485214e-02 -7.05178976e-02 +1.96127892e-02 +1.29500255e-01 +2.39199027e-03 -1.43522829e-01 +5.57338521e-02 +1.01101339e-01 -3.96596827e-02 -1.42811239e-02 -9.94340926e-02 -3.18977721e-02 -1.06662558e-02 +2.13649888e-02 -3.60683016e-02 -2.29871236e-02 -5.63799776e-02 -6.78857788e-02 -1.07265756e-01 +1.24793015e-01 +7.75864273e-02 -3.39090563e-02 +1.14201523e-01 +2.28852183e-02 +6.25252128e-02 -5.43493368e-02 -7.07685798e-02 +1.14956997e-01 -8.24920088e-02 -2.68913090e-01 -4.83122133e-02 +6.19779974e-02 -4.14130278e-02 -9.54854786e-02 +2.09317520e-01 +1.39523335e-02 -3.73250507e-02 -5.17976843e-02 -2.78149266e-03 -6.36850968e-02 -6.95922449e-02 -3.01957708e-02 +8.26424360e-02 +2.60915775e-02 +1.89689115e-01 +1.36464626e-01 -2.25611091e-01 -6.56739846e-02 +1.83999985e-01 +1.00777872e-01 -1.66415144e-02 -9.14497524e-02 -1.39162736e-02 -1.28476188e-01 -4.72725406e-02 +3.17707518e-03 -8.60885084e-02 -9.63374227e-02 +5.81085682e-02 +1.37343094e-01 +8.71854424e-02 +1.05209805e-01 +2.79478007e-03 -7.64934020e-03 -1.02722555e-01 +4.64823171e-02 -1.16125658e-01 -1.43801451e-01 +1.29689261e-01 -9.29268524e-02 +6.33864254e-02 -6.56443015e-02 -4.11906242e-02 +1.18717551e-01 +4.31822613e-02 +9.30780768e-02 +1.55387327e-01 +4.75826897e-02 +5.75915165e-03 -5.18241413e-02 +1.66335031e-01 -1.40770981e-02 +6.79307384e-03 +3.26764844e-02 -2.54742876e-02 +2.22789347e-02 +6.67067617e-02 -3.15324329e-02 -1.40428394e-01 +2.26941839e-01 +2.18823299e-01 +4.54117693e-02 -1.18189156e-01 -1.27305582e-01 -5.77906035e-02 +2.22881436e-01 -2.26501524e-01 +6.22857697e-02 +1.56098098e-01 +8.82308334e-02 +4.36930023e-02 +2.18804806e-01 -2.88201533e-02 +2.10509509e-01 +1.38134837e-01 -4.23541013e-03 -4.99087051e-02 -1.94215518e-03 +1.33378375e-02 +9.85627621e-03 -5.16005009e-02 -3.08064222e-02 -9.50934812e-02 +9.50767174e-02 +5.76643348e-02 +8.29426274e-02 +3.77455242e-02 -4.36716601e-02 -6.99612359e-03 +1.19582587e-03 +1.13137513e-01 +3.30273770e-02 +9.64373648e-02 +7.06975311e-02 +7.48812705e-02 +1.16184056e-01 -1.29087195e-01 -1.01224594e-01 -1.19579481e-02 +4.44492102e-02 -1.49041088e-02 -1.02179632e-01 -1.26577601e-01 -8.17767978e-02 +1.53993368e-01 -5.06424196e-02 +5.89768365e-02 -4.26045917e-02 -6.56694397e-02 +1.06839068e-01 +1.57764062e-01 -4.11044769e-02 -1.58621013e-01 -2.23486479e-02 +1.29874170e-01 -4.92300764e-02 -5.51269166e-02 +1.68836623e-01 +3.46198827e-02 +2.16915637e-01 -1.06052659e-01 +4.47269231e-02 +4.97109140e-04 +9.54610109e-02 -7.85147324e-02 +5.99342622e-02 -5.80550097e-02 -2.05377400e-01 +2.07641926e-02 +1.00761972e-01 +4.75036688e-02 +5.99533916e-02 -1.44707799e-01 +1.08861968e-01 -2.03585953e-01 +1.45900324e-01 +7.38678798e-02 +5.13015501e-02 -4.47877571e-02 +5.10609485e-02 +2.12050248e-02 +1.25168309e-01 -1.69518873e-01 -1.50319305e-03 +1.36265069e-01 +1.36122182e-01 -1.25532225e-01 -1.71514079e-01 +2.06374168e-01 -1.01840392e-01 -1.08243987e-01 -1.51105344e-01 -1.06569175e-02 -1.58474650e-02 +1.35616377e-01 -5.38511835e-02 -4.15488370e-02 -1.43119171e-01 -1.77693961e-04 -1.41087815e-01 -1.05453007e-01 -9.71916765e-02 -1.03985764e-01 +6.41359203e-03 -1.61757007e-01 -2.20865402e-02 +7.19864145e-02 -1.29764751e-01 +2.49155656e-01 -7.06788674e-02 -1.46974802e-01 +5.21385372e-02 +3.51883918e-02 -1.18663087e-01 -1.81125272e-02 +1.40127793e-01 +1.58639401e-01 +1.48501843e-01 +6.47127405e-02 -7.92082772e-02 +2.33602133e-02 +9.38422680e-02 +1.28202409e-01 +1.70807689e-02 +1.59270734e-01 +9.92880464e-02 +2.63897087e-02 -1.21248424e-01 -1.29775494e-01 -1.89736579e-02 -1.10479984e-02 -9.06199366e-02 +1.73759684e-01 -1.31589413e-01 -2.00247187e-02 -7.39575550e-02 -1.41957551e-01 -9.57939923e-02 +9.27843377e-02 -1.73766375e-01 +6.28018901e-02 -7.15202466e-02 +1.08440764e-01 -1.36249930e-01 -3.01116370e-02 +1.24028109e-01 +8.96753445e-02 -1.12651676e-01 +3.08030155e-02 -1.18640102e-01 -9.30213630e-02 -7.36061186e-02 +2.81307530e-02 -1.89968734e-03 +1.09764002e-01 +1.04463041e-01 -4.86075431e-02 +4.46700200e-04 +4.46893051e-02 +3.73803750e-02 +6.03159405e-02 -3.81287038e-02 +1.05263084e-01 -9.56384093e-02 +2.28981618e-02 -4.31859344e-02 +1.21954712e-03 +1.83326021e-01 +1.82653330e-02 +1.25781655e-01 +2.80950665e-02 +5.23655638e-02 -1.27138644e-01 +2.45069563e-02 -8.44757557e-02 +2.49386318e-02 -3.22395526e-02 -2.67248061e-02 +6.33694604e-02 +9.41074342e-02 +6.78376108e-02 -3.80143709e-02 +6.02883026e-02 +1.43399194e-01 -5.24321832e-02 +1.06904939e-01 -1.04444914e-01 +5.68395592e-02 -3.40317003e-02 +1.11183003e-01 -8.62446129e-02 -2.70732865e-02 +2.96030194e-02 -4.44568731e-02 +9.57820788e-02 -1.09724611e-01 +7.01628178e-02 +1.08126827e-01 +5.73240360e-03 -1.00600585e-01 +2.41804570e-02 +2.85637453e-02 -9.29112285e-02 +1.20582379e-04 -1.77133590e-01 -1.66813046e-01 +8.56643394e-02 -7.36546814e-02 +1.39413759e-01 +4.02153246e-02 -1.76005930e-01 -7.00650141e-02 -1.18852884e-01 +1.30656272e-01 +9.84123349e-02 +4.04282548e-02 -4.77102585e-02 +1.47818476e-01 -7.12870732e-02 +9.66378301e-02 +1.52043656e-01 -5.11106253e-02 -6.01037256e-02 +1.69516996e-01 +1.63336948e-01 -7.41066933e-02 -2.10233089e-02 +4.86756228e-02 +5.58577739e-02 +4.82849479e-02 +1.13481842e-01 -2.66366377e-02 +1.17818519e-01 -2.81243753e-02 +6.35897741e-03 +8.96338448e-02 -4.48316634e-02 -2.94983983e-02 -1.64431214e-01 -9.77032557e-02 -1.34788258e-02 +2.51761712e-02 +7.03216195e-02 -2.16559350e-01 +1.17685504e-01 +1.13944761e-01 +1.30232722e-02 +7.51936659e-02 -2.69943941e-02 -1.35091975e-01 -6.24794438e-02 +3.77450958e-02 +7.64163807e-02 +9.98392701e-02 +1.61579605e-02 -9.12633985e-02 +3.76094170e-02 +9.81231630e-02 -4.56590317e-02 +3.79476100e-02 -8.92244205e-02 +1.81004032e-02 -4.19839323e-02 +1.44014051e-02 -9.76502076e-02 +1.28686398e-01 +3.06648873e-02 +1.27915993e-01 -1.89334333e-01 -5.27034551e-02 +5.06527387e-02 +7.65167102e-02 -2.55029872e-02 +4.65884991e-02 -1.70289092e-02 +2.67908759e-02 -6.35069096e-04 +5.69508597e-03 -7.89041296e-02 -1.62081674e-01 -1.07089818e-01 +9.65562537e-02 +5.64925279e-03 -1.16569407e-01 -5.19752037e-03 +1.85179412e-01 -1.36523411e-01 -1.38883695e-01 -2.13582944e-02 +4.63454127e-02 -3.56063806e-02 +1.98534690e-06 -5.35437800e-02 -3.77311967e-02 -1.80168096e-02 -1.61942780e-01 -5.09486608e-02 +1.35771260e-01 -1.95537470e-02 -1.96716502e-01 -1.53696477e-01 +6.55683652e-02 -1.76116541e-01 -1.34087324e-01 -1.93037614e-02 -4.53122221e-02 +3.72103862e-02 -1.43512920e-01 +7.65102059e-02 +1.09649509e-01 +4.17881273e-03 -2.19409838e-01 -7.87990242e-02 -4.55661304e-02 +7.28221536e-02 -1.27315894e-01 +4.77270484e-02 +1.20559447e-02 +1.52700990e-01 -1.12235643e-01 +2.40546688e-02 +8.54471512e-03 -9.75826308e-02 +1.33260384e-01 +9.96727720e-02 -3.54172327e-02 +3.54551971e-02 -6.33656234e-02 -2.26210635e-02 -1.31752804e-01 -5.56659549e-02 -2.21230045e-01 +1.09897301e-01 +2.43753884e-02 +8.43156576e-02 -4.97410521e-02 -1.89887404e-01 -9.79987681e-02 +3.50247473e-02 +1.56493112e-01 +7.03530982e-02 +1.35458251e-02 -2.17660088e-02 +5.35837710e-02 -7.95684159e-02 -7.12224543e-02 +7.23293051e-02 -5.19410074e-02 -7.30732754e-02 +7.09751174e-02 -9.17667523e-02 -1.23460330e-01 +1.77768655e-02 -7.78377652e-02 +1.30400553e-01 -3.31075862e-02 -1.69498891e-01 -1.63873792e-01 -7.32509643e-02 +1.12304725e-01 -3.85756493e-02 +1.38814762e-01 +6.95303604e-02 +1.19582854e-01 +5.78236245e-02 -1.27534837e-01 -4.64194305e-02 -1.81590859e-02 -9.30822790e-02 -2.03800313e-02 +1.38716966e-01 -1.73934981e-01 -1.26254946e-01 -4.97905985e-02 +6.73861578e-02 +1.01018533e-01 +3.46340984e-02 +1.16559185e-01 -6.54026195e-02 +5.66826127e-02 +8.90096873e-02 +1.04201242e-01 +4.65298817e-02 +1.30496137e-02 +1.34434819e-01 -4.48421612e-02 +7.68500492e-02 -2.90432535e-02 +2.37158135e-01 -1.06840439e-01 +7.21621886e-02 -7.28652021e-03 -1.32351980e-01 +3.37327365e-03 +1.58962443e-01 +1.51978120e-01 +1.41930684e-01 -4.90096211e-02 +3.93206347e-03 +3.92794460e-02 +7.72331608e-03 +1.03188321e-01 +2.14721113e-02 -1.20374083e-03 -1.00373499e-01 -6.98331967e-02 -1.66741516e-02 -2.32641096e-03 -2.27892801e-01 -1.21001732e-02 +4.30285744e-03 +1.12868637e-01 -1.01095662e-01 +9.46559757e-02 +1.58642516e-01 +1.48556316e-02 -1.53410077e-01 -1.27762035e-01 -2.21666887e-01 -1.77586347e-01 +1.87507123e-02 +1.16512030e-01 +9.90084186e-02 +2.11296305e-02 -1.04508094e-01 +1.16026267e-01 -5.32437861e-02 +4.11625840e-02 +2.28718016e-02 +1.43624485e-01 +8.72005075e-02 -8.26914981e-02 +1.87274724e-01 -3.84124555e-02 -1.20362025e-02 -4.32157256e-02 -5.62030412e-02 -4.34336178e-02 -4.25483733e-02 -1.49635747e-01 -2.33541541e-02 +1.14070430e-01 -2.17098687e-02 -2.06556376e-02 -3.28097865e-02 +1.42643392e-01 -5.57955466e-02 -1.29918918e-01 -2.00679712e-03 -4.29951586e-02 +3.86462845e-02 -3.78935672e-02 +1.47054926e-01 -1.99282303e-01 -1.31685629e-01 -9.26101580e-02 -1.26952752e-01 +8.36064201e-03 +8.64864141e-02 -3.17165583e-01 +1.16332762e-01 -2.10836351e-01 +1.49665684e-01 -1.06882811e-01 +3.01858950e-02 +2.40534753e-01 -1.54393643e-01 -4.86699454e-02 -2.81168073e-01 -5.95928207e-02 +6.01566285e-02 +4.29448448e-02 -1.19740084e-01 -1.80723704e-02 +9.78500545e-02 -1.01400241e-01 -3.65936220e-01 +1.96827902e-03 -5.65023683e-02 +4.20726500e-02 -1.19296834e-02 -1.48450449e-01 -1.22480340e-01 -1.07348748e-01 -2.41516069e-01 -2.02935413e-02 -9.47492719e-02 -4.98205349e-02 -2.08455056e-01 -1.27258837e-01 +7.72360489e-02 +8.98202416e-03 +4.09922563e-02 +2.63950437e-01 -1.45944163e-01 -1.80455208e-01 +6.24468103e-02 +4.30991836e-02 -5.77450804e-02 -1.12333357e-01 -1.70655921e-01 +1.03990600e-01 -2.67935008e-01 +1.72062367e-02 -7.41352215e-02 +1.25827342e-01 +4.20112312e-02 -7.36032501e-02 -1.28728688e-01 +7.62717519e-03 -1.19767658e-01 +1.07244186e-01 -6.14866428e-02 +8.11427534e-02 -6.70866072e-02 +2.42476299e-01 -1.12261474e-01 +2.15161905e-01 +6.40886277e-02 -4.54500951e-02 +5.94867095e-02 -8.18529278e-02 +1.27409389e-02 -1.04142301e-01 -7.15502426e-02 +1.07467757e-03 -1.68811589e-01 -2.56152719e-01 +4.07169536e-02 -1.55591831e-01 -1.10344835e-01 -1.63509995e-01 -1.06027737e-01 +2.49660820e-01 +2.08772495e-02 -7.68020190e-03 -9.52555463e-02 -6.52048141e-02 -1.47894934e-01 +9.27520916e-03 +1.76754501e-02 -7.72653073e-02 +9.71283689e-02 -2.30378136e-01 +1.93488970e-01 -9.99774411e-03 +1.25929594e-01 +2.98778480e-03 -8.28629434e-02 +3.97185422e-02 -7.15370253e-02 +1.58423446e-02 +1.90213352e-01 -9.99367610e-02 +5.60745709e-02 -3.89833609e-03 -7.96515569e-02 -4.00487594e-02 +6.90123588e-02 -2.10534573e-01 +7.25577846e-02 -1.95581958e-01 +9.56219658e-02 -8.03359821e-02 -5.93804754e-02 +1.30421771e-02 +5.64279668e-02 +2.20668968e-02 -3.44268888e-01 -9.80056748e-02 +1.29239559e-01 +1.90787110e-02 +1.71508249e-02 -9.82154626e-03 +7.03256652e-02 +1.13858879e-01 -2.43319049e-01 -1.22843184e-01 +1.26853406e-01 +1.45831183e-01 +2.16603369e-01 -2.22219750e-01 -1.12712838e-01 +4.80668480e-03 +5.39708398e-02 -9.71651003e-02 +6.61515445e-02 -4.66069095e-02 -1.76917672e-01 +1.31718427e-01 +1.42024174e-01 -5.98165672e-03 +1.38999939e-01 +3.19517046e-01 -3.38930115e-02 -2.99779296e-01 +2.17832610e-01 +2.61723340e-01 +1.74357221e-01 -8.30186605e-02 -1.58311993e-01 +1.39126403e-03 -1.17864877e-01 -1.52285367e-01 +1.42757922e-01 +2.36714378e-01 +4.20121755e-03 +1.20124735e-01 -2.17837498e-01 +5.37771964e-03 -9.86697823e-02 +1.54461078e-02 +1.36499286e-01 -5.58901066e-03 +7.78094679e-02 +1.43255055e-01 -1.11468211e-01 +1.01736374e-01 +2.97030881e-02 -3.89042944e-02 -1.08166412e-01 -1.80868909e-01 -2.32448325e-01 +4.62242700e-02 -2.84056272e-02 -1.34929165e-01 -1.08432531e-01 -3.50606412e-01 +2.03340814e-01 -1.04128003e-01 -3.66389006e-02 -1.53692290e-01 +4.69373614e-02 -1.45669486e-02 +5.06290644e-02 +4.40130429e-03 +1.62426084e-01 -1.11216523e-01 -6.72890022e-02 -2.49186113e-01 +1.55092487e-02 +3.21965804e-03 +7.13289231e-02 +4.68059257e-02 +3.68442982e-02 +4.11349237e-02 +5.92481829e-02 +8.28945041e-02 -6.72633201e-02 -2.52650678e-01 -1.11977734e-01 -1.30322024e-01 +1.28927484e-01 -2.72578806e-01 -8.87404457e-02 +7.29895085e-02 +7.58813601e-03 +1.36044919e-01 -4.04619575e-02 -2.48785093e-01 -1.13899656e-01 -3.54681998e-01 +1.34712651e-01 -1.51425049e-01 -8.72293487e-03 +8.21642652e-02 +1.10427476e-02 -1.28142759e-01 -1.51419878e-01 +8.70060101e-02 +1.30295251e-02 -2.54550856e-02 -6.66370913e-02 +1.92370787e-01 +1.67603970e-01 -1.22908793e-01 -5.46272062e-02 -1.26185179e-01 +3.32972640e-03 +1.01293758e-01 +4.62365039e-02 -8.52348208e-02 -4.65615839e-02 -1.03346899e-01 -2.56697387e-02 +3.07805061e-01 -2.68336795e-02 +9.77473930e-02 -1.41921774e-01 +1.26388848e-01 +1.65436193e-01 -2.34409556e-01 +1.64844230e-01 +2.14848906e-01 -4.59338799e-02 -1.97058603e-01 -2.33931486e-02 +1.04947910e-01 +1.05087042e-01 -3.14513035e-02 -1.35819286e-01 +4.19229595e-03 -2.06919894e-01 -8.63597468e-02 +7.96592385e-02 -7.31242895e-02 -1.77437767e-01 +1.80802524e-01 -2.95479566e-01 -2.19680946e-02 -1.25911906e-01 -1.30296737e-01 -1.33144215e-01 +9.76746902e-02 +1.25596032e-01 +3.91799621e-02 -1.51511386e-01 +9.73314196e-02 -9.08859000e-02 -8.58337432e-02 -2.04903185e-02 +1.49158360e-02 -1.71324566e-01 +3.38896886e-02 +9.63204801e-02 +9.97182447e-03 -1.56764686e-01 -2.92616785e-01 +3.37417945e-02 +5.82490824e-02 +2.28113756e-02 -2.45639116e-01 -1.91540539e-01 -4.14856635e-02 -2.06979811e-01 +1.10358290e-01 +2.62116432e-01 -1.26395196e-01 +1.79182291e-02 -1.44002542e-01 -1.90796554e-02 +1.46151423e-01 -1.82173699e-01 -1.91370755e-01 -2.76276637e-02 -6.09876476e-02 +6.74016727e-03 -6.72901571e-02 +9.02457386e-02 -1.45282179e-01 -1.25390917e-01 +1.16947882e-01 -1.04470439e-02 +7.66444430e-02 +7.62522295e-02 -1.01151869e-01 -6.50610030e-02 -6.29723668e-02 +1.04225539e-01 -8.43896791e-02 +6.66709384e-03 +1.10250272e-01 -1.02967978e-01 +3.23505662e-02 -9.15496200e-02 -5.88114373e-02 +5.96252419e-02 -4.46317792e-02 -4.91016591e-03 +8.75548050e-02 +5.22140115e-02 +8.52011740e-02 +3.44139384e-03 -1.59918696e-01 -1.44369334e-01 -1.33248106e-01 -6.14074804e-02 -1.32682920e-01 -9.61953104e-02 +3.80976163e-02 +1.52060270e-01 -1.21586516e-01 -3.48323840e-03 +3.03062163e-02 -1.15161315e-01 -3.18235755e-02 -4.53800857e-02 -1.78023010e-01 -4.61554676e-02 -7.92551041e-03 +1.87367916e-01 -4.53799106e-02 +1.02226526e-01 -1.74612086e-02 -5.80055751e-02 -8.91610980e-02 -3.49191227e-03 -3.18524949e-02 -1.05227746e-01 +8.78913105e-02 +8.68448168e-02 +1.77804023e-01 +3.85377323e-03 +5.94069026e-02 -7.39101619e-02 +1.03759781e-01 -1.82437338e-02 -1.49850130e-01 -8.50496292e-02 +5.44259474e-02 +3.92981619e-02 +1.43601224e-01 +2.97256093e-02 -6.89730048e-02 -1.57237276e-01 -1.19494125e-01 -6.49170876e-02 -2.02836633e-01 -2.11371798e-02 +1.87264547e-01 -2.34033857e-02 -1.55037642e-01 +7.07924441e-02 +2.76050274e-03 -4.08305302e-02 -1.49798140e-01 -7.74246901e-02 +6.24704063e-02 +1.22908972e-01 -9.61861983e-02 +1.33324757e-01 +1.21681541e-01 -9.92657021e-02 +1.67381261e-02 +2.00872915e-03 +9.34845954e-02 -3.89194116e-02 +6.65246323e-02 -1.05502225e-01 +2.25469470e-02 -8.24107304e-02 -1.38266057e-01 -1.16969058e-02 -1.49838114e-02 +6.48183599e-02 -1.71504885e-01 +1.54199734e-01 -8.37928709e-03 +1.10377923e-01 +1.29910290e-01 -9.68382955e-02 +1.92870907e-02 +9.05698910e-02 -7.99195915e-02 +5.17420284e-02 +2.81386524e-02 +5.19792959e-02 +4.42992225e-02 +1.69257313e-01 -1.12844985e-02 +8.04709792e-02 -1.36955513e-03 -1.72784515e-02 +1.36652356e-02 -1.12831987e-01 +9.96107534e-02 +1.33742273e-01 +1.64644226e-01 +1.98212013e-01 -2.26344336e-02 +7.34624490e-02 -4.52539437e-02 +5.78163527e-02 -2.36466322e-02 +1.61066353e-02 -7.60112423e-03 +4.15998511e-02 -1.48145944e-01 -9.88384057e-03 +1.39931604e-01 +8.99811685e-02 -7.54681677e-02 +1.54344723e-01 +4.53539491e-02 +9.63378772e-02 -4.69022505e-02 +1.80705726e-01 +3.39928307e-02 -1.11925751e-01 +9.21632275e-02 -1.90312251e-01 -1.03184424e-01 +1.44567220e-02 -1.70302629e-01 -1.53940067e-01 +5.22632860e-02 -3.68845314e-02 +1.48321182e-01 +5.76779880e-02 +6.87922239e-02 -8.60685781e-02 -5.50425835e-02 +7.09874481e-02 -3.68100852e-02 +4.59341519e-02 -1.51753992e-01 +2.01372057e-01 +2.74140816e-02 +3.04288212e-02 -2.04899795e-02 +9.37367231e-02 -5.95583655e-02 -1.13560064e-02 -7.79912174e-02 +1.35459080e-01 -1.99760541e-01 -1.40684685e-02 -2.43507281e-01 -8.60277936e-02 +6.44928264e-03 -4.31539975e-02 -1.25332743e-01 +2.30837539e-02 +1.01537719e-01 -3.58908400e-02 -9.99777764e-02 -4.46460862e-03 +1.97665080e-01 +4.43149582e-02 -5.90387359e-02 -1.68023724e-02 -5.42296916e-02 +1.85167827e-02 +1.43104792e-01 +1.43849269e-01 +1.85517371e-01 +1.50843069e-01 -5.27106114e-02 +2.19537802e-02 +1.64889678e-01 -1.59207299e-01 -1.06984608e-01 -1.63984612e-01 +7.04990178e-02 +2.62690615e-02 -1.05651356e-01 +1.45835564e-01 -1.47512006e-02 +3.55855674e-02 +1.55066684e-01 -4.86639477e-02 -2.45999079e-02 -1.48969591e-01 +1.69533864e-02 +9.59049910e-03 +1.71189427e-01 +1.27327695e-01 -1.14735477e-01 -1.52879357e-02 +6.17022067e-02 +4.99493033e-02 +7.24413171e-02 +6.25699759e-02 -2.29454767e-02 +5.99735864e-02 -2.42235810e-02 +4.51169237e-02 -1.15640871e-01 +3.39967757e-01 -1.91299617e-02 -4.61877882e-02 +1.75591744e-02 +8.98120776e-02 +1.50578916e-01 -2.04917192e-01 +8.58601928e-03 +1.54023960e-01 +2.48738565e-02 +1.51774678e-02 +8.24840516e-02 +1.14052556e-01 +1.11188635e-01 -6.67750165e-02 +4.37652320e-02 +1.41163632e-01 -6.51736557e-02 -1.87197293e-03 -4.43377793e-02 +1.21491782e-01 -4.54064533e-02 -2.32866377e-01 +9.04456973e-02 +4.41984609e-02 -3.34211737e-01 +2.44520735e-02 +3.19842815e-01 -5.76551259e-02 -1.68723278e-02 -3.15994211e-02 -1.69221461e-02 +1.68016441e-02 +1.43190116e-01 +3.20496023e-01 +1.07706398e-01 -6.19035773e-02 +1.14448532e-01 +1.13098241e-01 -2.24105015e-01 +8.33578184e-02 +4.91203740e-02 +4.50417586e-02 -1.72216803e-01 +1.59531608e-01 -5.77429943e-02 -8.11044425e-02 -9.75401849e-02 +9.91081223e-02 -2.44665399e-01 -2.59484909e-02 -7.17651471e-02 -1.65141746e-02 +4.58122417e-02 +2.51706421e-01 +2.84690857e-02 +1.03158534e-01 -1.76901698e-01 +1.39896646e-01 +5.63953578e-01 +1.39423430e-01 +9.30443630e-02 -1.03513367e-01 -1.07944630e-01 -6.51444644e-02 -2.14138076e-01 +2.20901519e-01 +6.64363131e-02 -3.20974886e-02 +4.38307226e-02 +2.46626705e-01 +3.18986148e-01 -5.99555559e-02 -2.07493044e-02 -2.15632841e-01 -3.47096175e-02 +3.43331605e-01 -2.08485387e-02 -6.56569600e-02 -7.28704184e-02 +4.72151712e-02 +3.44788194e-01 -5.50636835e-02 +1.94351062e-01 +4.79963832e-02 +2.02530652e-01 +1.02936916e-01 -5.53590991e-02 -4.03972343e-02 -1.17139265e-01 +2.23115727e-01 +6.35401998e-03 +1.79253146e-01 +1.38059575e-02 +1.95053175e-01 +1.56026825e-01 +8.11591148e-02 -2.70898305e-02 +1.67679876e-01 +6.96631670e-02 +6.97135478e-02 -3.73276472e-02 +9.42444801e-02 +1.80493131e-01 +5.05451076e-02 -1.94956705e-01 -3.47432822e-01 +2.56981790e-01 +5.10119945e-02 -6.71644211e-02 -2.70560049e-02 +1.43165097e-01 +1.41422063e-01 -5.14591411e-02 +7.84835443e-02 +1.40721485e-01 +1.89977378e-01 -3.04655999e-01 +1.74230799e-01 -1.11575641e-01 +2.25022674e-01 -3.68903339e-01 -2.72647828e-01 -1.20901503e-02 -1.95457488e-01 -6.75351247e-02 -9.58925337e-02 +1.77716225e-01 +9.64795947e-02 +1.48449942e-01 -2.00411696e-02 +5.60664665e-03 -6.39321655e-02 +1.23733804e-01 +1.40007362e-01 +6.28693104e-02 -1.45974318e-02 +2.06211582e-01 +2.41736501e-01 -1.49656415e-01 +8.99775103e-02 +7.88527133e-04 +4.66878749e-02 +3.51459458e-02 +1.52665541e-01 +1.23714633e-01 +9.38968807e-02 -8.16326439e-02 +2.67166257e-01 -1.16397783e-01 -1.34833932e-01 +2.85719298e-02 +3.35384160e-02 +7.74312615e-02 +2.42743134e-01 +6.48106337e-02 +1.46185353e-01 -4.79552969e-02 +3.04466695e-01 +3.76779467e-01 -2.29268689e-02 -7.83252269e-02 -9.33264196e-02 +3.04693989e-02 +2.34349772e-01 +3.03255091e-03 +3.61995339e-01 +1.60411790e-01 -5.76415658e-02 -1.56511720e-02 +1.04499824e-01 -8.73512328e-02 +6.37049451e-02 -1.17190614e-01 +8.15992281e-02 +1.12631395e-01 +1.63888261e-01 +2.85030762e-03 -9.79241878e-02 +1.36270612e-01 +1.32164061e-01 +6.93946844e-04 +1.13147371e-01 +9.67995375e-02 -2.13481858e-01 -1.45227715e-01 +6.40123934e-02 -3.86320241e-02 +1.09370667e-02 +1.58861488e-01 +2.14431241e-01 -1.08357318e-01 +5.46197109e-02 +1.18977323e-01 +3.46804522e-02 +2.02489868e-01 +1.56634320e-02 +1.84603661e-01 +1.79447699e-02 +1.95407555e-01 +1.91812739e-01 -7.35423341e-03 +9.44148451e-02 +5.74321002e-02 +2.75814626e-03 +1.87769681e-02 +1.29919425e-01 -6.49779513e-02 +4.09084931e-02 +1.05951712e-01 +1.04448482e-01 +1.40556723e-01 +9.17845517e-02 -2.36421395e-02 -2.08790272e-01 +1.86121613e-01 +1.55655995e-01 -4.56073396e-02 -5.78733766e-03 +1.04876943e-01 -2.94137765e-02 -1.10936746e-01 +1.59866214e-02 -2.10253801e-03 +2.75414269e-02 +8.51765350e-02 -1.67050958e-02 +1.69480480e-02 -4.90301028e-02 +1.97644919e-01 -3.90850417e-02 -5.18813059e-02 -4.86678965e-02 -7.90832788e-02 -1.23622268e-01 -7.72734312e-03 +1.70810521e-01 +1.06794322e-02 +2.54913662e-02 -1.31308079e-01 +1.27542838e-01 +6.58033118e-02 -1.86345965e-01 +1.51662216e-01 +5.34722470e-02 +1.37536153e-01 +1.88641205e-01 -7.90573359e-02 -1.70315932e-02 -1.06778800e-01 +8.83485004e-02 +7.78969601e-02 +4.31952551e-02 +3.92991193e-02 -2.48271331e-01 +1.01122893e-01 +2.12684367e-02 -1.15622304e-01 +2.63118017e-02 -8.16756673e-03 -8.40240121e-02 -6.34992048e-02 -3.81254144e-02 +1.74150124e-01 -5.60791232e-02 -2.52424747e-01 -7.74487574e-03 +1.78212956e-01 +2.26164922e-01 +4.42031398e-02 +1.01573698e-01 +7.61107206e-02 -9.73036289e-02 -5.45733050e-02 +3.80109735e-02 -8.53677541e-02 -1.42870739e-01 -7.65513163e-03 -1.32495642e-01 -6.19230866e-02 -1.28931269e-01 +8.29235688e-02 -1.33865923e-01 -6.88950941e-02 -1.16595857e-01 -8.86584520e-02 -4.60929237e-02 +7.31185898e-02 -1.08580396e-01 +6.01556227e-02 -9.06337425e-02 -6.48154318e-02 +2.38111429e-02 -9.36244205e-02 -1.94257833e-02 -1.02005675e-01 -9.49260518e-02 -1.44013558e-02 +1.03093319e-01 +1.00828402e-01 -8.29621181e-02 +3.33989300e-02 +8.60078409e-02 -1.05926991e-01 -8.82464424e-02 +6.86422829e-03 -9.88299325e-02 -1.04791373e-01 -9.43808109e-02 -6.10987134e-02 +1.66048179e-03 -7.96064287e-02 -7.19316304e-02 -2.09869053e-02 -4.08482626e-02 -3.27225029e-02 +1.29564861e-02 +1.63676292e-02 -5.06276116e-02 +7.11782603e-04 +8.80250998e-04 -2.22101197e-01 -1.07134871e-01 -1.91908821e-01 -1.11422151e-01 +5.64046204e-02 -1.51878536e-01 -1.27540752e-01 -1.44577518e-01 -5.61161190e-02 +2.93240286e-02 -5.43873906e-02 +4.32464220e-02 -1.43546671e-01 +1.39603138e-01 -4.91573215e-02 -4.97030467e-02 -1.74276214e-02 +1.08199669e-02 +3.53496112e-02 -4.47569080e-02 +4.07864675e-02 +2.51736417e-02 -7.15941861e-02 -1.35348737e-03 +3.12662050e-02 +8.41095746e-02 +3.70107070e-02 -3.23719382e-02 +1.12974569e-02 -1.25950307e-01 -7.61055499e-02 -9.52731594e-02 -1.19962193e-01 -3.73182772e-03 +8.28197226e-02 -4.68718186e-02 -2.65488547e-04 -1.28143067e-02 -3.21625993e-02 -8.09194148e-02 -4.10023220e-02 -3.87602928e-03 -2.93907225e-02 +4.43626717e-02 -5.08685410e-02 -4.66521941e-02 +1.03614502e-01 -3.30991484e-02 -3.40854898e-02 +1.00898609e-01 +1.12250231e-01 +3.87889557e-02 +8.57120827e-02 -6.92255888e-03 +7.76584521e-02 -1.03825261e-03 +1.50011763e-01 -8.59683659e-03 -3.45793404e-02 +6.55670539e-02 +2.16785930e-02 -1.29348457e-01 +1.19710468e-01 -5.59658632e-02 +5.46896979e-02 +4.56472822e-02 -6.20457456e-02 +2.33271234e-02 -6.30756095e-02 -3.65626067e-02 +1.07116915e-01 -2.89172474e-02 -7.51892701e-02 +8.51980969e-02 +1.05059631e-01 +6.84230328e-02 +1.62326887e-01 +8.69825855e-02 +4.27878648e-02 +9.05248150e-02 +1.03159510e-01 -7.30335787e-02 +1.10844493e-01 +6.19799457e-02 -2.31593382e-02 -2.29748096e-02 -2.24736966e-02 -5.86654879e-02 -4.32749512e-03 +7.14605749e-02 +1.25648037e-01 -6.23241030e-02 +4.99425083e-03 -3.96670923e-02 -3.53675820e-02 +1.10983551e-01 -1.06711209e-01 -2.86134277e-02 +7.17102410e-03 +2.08954051e-01 +1.69034749e-01 -1.18945623e-02 +1.60411894e-02 +2.17070580e-02 +9.03089717e-02 -1.11678064e-01 +8.49018097e-02 +1.21330738e-01 +1.06757104e-01 +1.13781333e-01 +4.78846580e-02 -8.41232389e-02 -6.38576150e-02 -7.15272650e-02 +6.05549887e-02 -1.27595410e-01 -1.84611659e-02 +6.10753931e-02 -1.22260824e-01 +4.69572609e-03 +8.02160203e-02 -6.89875707e-02 +1.66275471e-01 +9.94613045e-04 +1.16006710e-01 +1.00842237e-01 +9.26140100e-02 -9.13989022e-02 -2.73953248e-02 +1.20716922e-01 -9.59811658e-02 -1.17186978e-01 +4.82450090e-02 +8.32775235e-02 +4.59518395e-02 +1.51572395e-02 +6.46897852e-02 -8.49844962e-02 +4.52256203e-02 +3.14154066e-02 +5.52519001e-02 +4.54755388e-02 -1.18361868e-01 -1.76825561e-02 -7.75193274e-02 +3.56968343e-02 +1.66010588e-01 +3.69670950e-02 +6.10591173e-02 -5.56625240e-03 +1.32735935e-03 +4.84373495e-02 -5.05783856e-02 -1.58555001e-01 -1.32720083e-01 +9.13984254e-02 +3.05180680e-02 +7.09431479e-03 -1.53152093e-01 -9.72545668e-02 -5.78048592e-03 +1.83873530e-02 +5.72991185e-03 +6.01054132e-02 +2.53939591e-02 +4.09063976e-03 +8.06058198e-02 +1.00985341e-01 +4.24601175e-02 +2.40385486e-03 -4.16412838e-02 +1.03508554e-01 +1.15535639e-01 +5.76537736e-02 +4.54016998e-02 +1.02053732e-02 +1.06602527e-01 +1.46278581e-02 +8.58010426e-02 +1.96366198e-02 -5.03237993e-02 +3.77807133e-02 -1.21608473e-01 -1.70895085e-01 -9.53404605e-02 -1.76125661e-01 -2.43168455e-02 -4.37046960e-02 -9.22050178e-02 -7.11665377e-02 +6.97926506e-02 -1.17854431e-01 +4.76039723e-02 +3.68692167e-02 +8.34127367e-02 -7.47275352e-02 -4.86671478e-02 -6.84291199e-02 -6.66375011e-02 -6.21662140e-02 +1.94689687e-02 -4.46506068e-02 +5.13967834e-02 +1.23988979e-01 -5.31344451e-02 -1.36635736e-01 -8.38362649e-02 -3.64870355e-02 -1.09985910e-01 +1.30487913e-02 -1.43462986e-01 -1.46374956e-01 -7.76325017e-02 +3.00314315e-02 -8.37336257e-02 -9.98861268e-02 +1.79341868e-01 -1.40076369e-01 -1.72858462e-01 +1.01798572e-01 -1.02589794e-01 +3.03652976e-02 -3.96919437e-02 -8.11433867e-02 +2.88690813e-02 +4.24769148e-02 -9.22455732e-03 -1.12933241e-01 +8.64734575e-02 +2.45441496e-02 +9.89834145e-02 +3.29576470e-02 -1.25667974e-01 +1.23361647e-01 -4.95945476e-02 +5.34110740e-02 +6.80260966e-03 -2.72479560e-02 -1.58091322e-01 -1.07459933e-01 -9.33307260e-02 -5.15294038e-02 -1.64536014e-01 +3.46630625e-02 +1.99862197e-02 -3.34330834e-02 +1.96770266e-01 -1.75774246e-01 -1.13821425e-01 -9.05062258e-02 -1.11568183e-01 -1.40573252e-02 +7.14780111e-03 +5.68164736e-02 +9.93325189e-02 +8.00539106e-02 -9.54578370e-02 +1.12443969e-01 -1.03576601e-01 -5.72397411e-02 -1.26325116e-01 -2.78309733e-02 +4.03884910e-02 +4.08006348e-02 -5.98867089e-02 +6.41891211e-02 +7.20760599e-02 +3.21423672e-02 +4.15757159e-03 -1.18526429e-01 -1.19976075e-02 -8.33892450e-02 -1.07398778e-02 -1.05477773e-01 -1.33740846e-02 -5.00283800e-02 +1.75793655e-02 -1.07434034e-01 +1.46026891e-02 -4.55414467e-02 -2.78779771e-02 +2.31515169e-02 -8.40122253e-02 -8.52824152e-02 -8.02585334e-02 -9.75994691e-02 +7.62511268e-02 -1.15318142e-01 +4.95310351e-02 +7.73440301e-02 +1.35566918e-02 -3.42807211e-02 -5.35657592e-02 +1.01618446e-01 -7.94268474e-02 -8.42578039e-02 +2.90443171e-02 +1.21034957e-01 +1.26061842e-01 +5.84722683e-03 -5.04494496e-02 +9.38814953e-02 +2.11015958e-02 -7.97953829e-02 +6.71189651e-02 +1.03361055e-01 -4.42998223e-02 -8.89735743e-02 -6.49805516e-02 +2.22775526e-03 +2.32597589e-02 -4.84664105e-02 -1.53514510e-02 +4.81574088e-02 +1.04595661e-01 +3.29161808e-02 +1.63877662e-02 +2.03017220e-02 +9.11045969e-02 -5.44711538e-02 -2.91441213e-02 +1.05265118e-01 -1.21754352e-02 -8.38531181e-02 +9.74887088e-02 +1.02734469e-01 -4.13209479e-03 -5.24521247e-02 +7.12621585e-02 -7.46208504e-02 -2.77308784e-02 -3.71277370e-02 -9.07180011e-02 +3.65759358e-02 +8.00326765e-02 +7.86821172e-02 -2.33449079e-02 +4.70613874e-02 +4.10009315e-03 -6.33158460e-02 +1.11631781e-01 +1.80384256e-02 +3.23273279e-02 +1.25646489e-02 +9.31573808e-02 -6.25759959e-02 +6.11733757e-02 +6.66129738e-02 -7.00674281e-02 +2.92567722e-03 +3.84223424e-02 -1.02259211e-01 -5.63752167e-02 +1.70373470e-02 +1.10393636e-01 +6.91729933e-02 -2.17028514e-01 -1.50174081e-01 -6.13530017e-02 -1.44528076e-01 +1.01271063e-01 -9.82615575e-02 +1.06284179e-01 -2.04752833e-01 -1.07906526e-02 -6.60868436e-02 -7.76968151e-02 -1.29075497e-01 -1.66911319e-01 +5.57423085e-02 -1.09305069e-01 +3.04822214e-02 -9.76760127e-03 -7.98868462e-02 -8.25140625e-02 +1.50517657e-01 -2.14781508e-01 +4.03295532e-02 -1.94308177e-01 +4.07222733e-02 +5.49535118e-02 +1.51838809e-01 -9.84427333e-02 +2.00099781e-01 -2.08050415e-01 -1.92586817e-02 +1.01873362e-02 -1.06989875e-01 +9.33817476e-02 +6.14895225e-02 -1.25531942e-01 +5.64509444e-02 -1.65858030e-01 -1.98651522e-01 -1.40331611e-01 -2.21385345e-01 -3.35795134e-02 +1.04802690e-01 -1.00653484e-01 -5.29955700e-02 -1.94010615e-01 +4.36413169e-01 -1.15137384e-03 -1.52935078e-02 -2.19329163e-01 +6.10069484e-02 +1.39432016e-03 -1.09953381e-01 -1.87846482e-01 -1.25313243e-02 -2.04280224e-02 -1.46417648e-01 -4.01086695e-02 +7.80224428e-02 +1.39480591e-01 -1.14003174e-01 +2.46881589e-01 +3.47229719e-01 +3.35254036e-02 -8.51596519e-02 -1.22892231e-01 +1.67568382e-02 -2.47632116e-01 -1.05867587e-01 +5.01738153e-02 +1.54550433e-01 +1.31991476e-01 -9.53738168e-02 +3.43982160e-01 -6.50062189e-02 +2.09382534e-01 -7.68128633e-02 +1.34505749e-01 -2.81847324e-02 -1.05810873e-01 +9.09119323e-02 -1.74608946e-01 +4.68520150e-02 -7.68965706e-02 +6.45755744e-03 +3.18260230e-02 -1.30899221e-01 +1.55635044e-01 -9.92245674e-02 -2.38051400e-01 -2.48327300e-01 -3.21514085e-02 -1.02748774e-01 +7.35939434e-03 -1.70421228e-01 +5.00298254e-02 +1.69822164e-02 -5.77859320e-02 -3.53906825e-02 +2.09229663e-01 +1.15214080e-01 +8.79315361e-02 -4.82189991e-02 +2.66324375e-02 -2.44176202e-02 +1.83555573e-01 -3.93824615e-02 -5.84850498e-02 -1.64982840e-01 -6.27857819e-02 -4.03061882e-02 -1.83828652e-01 -1.16929367e-01 -2.79628575e-01 +1.14492662e-01 -3.86809260e-02 +3.40391546e-02 +1.25090843e-02 +6.66104117e-03 -1.55025292e-02 -1.94760397e-01 -5.25172129e-02 +4.87714224e-02 -4.44203876e-02 +6.70801476e-03 +1.58068284e-01 +1.84759811e-01 -1.25235185e-01 -1.75058395e-02 +8.17147866e-02 -5.82753345e-02 -1.20742597e-01 +6.39403192e-03 +3.53185348e-02 -2.33212799e-01 -5.47523052e-02 -2.30061516e-01 +6.93200668e-03 -1.42007828e-01 -2.75089711e-01 -8.16347152e-02 +1.36487586e-02 -7.42732659e-02 -4.79091480e-02 +1.42433643e-02 -7.84254521e-02 +1.05755962e-01 -1.41652584e-01 -3.26102413e-02 -1.50726184e-01 +1.33371428e-01 +2.50018746e-01 -5.77148534e-02 +3.68238054e-02 -2.09134538e-02 -1.41006440e-01 +1.38485357e-01 +6.50974968e-03 +8.98858905e-02 +4.33853380e-02 -7.17252940e-02 +1.51742399e-01 +2.41959602e-01 +1.09482594e-01 +5.14534563e-02 -1.81157321e-01 -6.55161217e-02 -3.55775058e-01 +5.29608205e-02 -8.96150246e-03 +7.32891215e-03 +1.43410772e-01 -4.49323952e-02 +3.16555291e-01 -2.71090548e-02 +2.84563422e-01 +7.73767158e-02 +1.33599773e-01 +6.23774752e-02 -1.82206407e-01 -2.51024608e-02 -1.11686513e-01 -6.92232922e-02 -6.45049065e-02 -9.92702469e-02 -3.90486829e-02 +1.70187652e-02 +1.18952401e-01 -8.25328529e-02 -8.16369280e-02 -2.94942111e-01 +9.16720405e-02 -6.12615645e-02 -9.15499777e-02 -6.21093512e-02 +2.37837002e-01 -4.35063615e-02 -6.68502587e-04 +6.34774938e-02 +1.01563029e-01 -7.33707771e-02 -1.45792872e-01 -6.23179786e-03 -1.75314575e-01 -1.59957975e-01 -6.15842454e-03 -1.33833319e-01 -2.48707876e-01 -1.49861798e-01 -1.24740422e-01 -1.37501776e-01 +8.26582611e-02 -2.55095482e-01 -1.63746312e-01 +1.09935202e-01 +5.18260859e-02 -4.87541333e-02 +6.00516908e-02 -7.96734616e-02 -9.88028944e-03 -1.02848947e-01 -2.18465164e-01 -5.49522461e-03 -8.53984132e-02 +1.07473992e-02 +2.28711739e-02 -8.30803737e-02 -1.46246314e-01 -6.06639944e-02 +1.53097883e-01 -5.37376441e-02 -1.50731906e-01 -7.05845580e-02 +5.42134158e-02 +4.61806171e-02 -6.87318146e-02 -6.23256117e-02 +4.48494703e-02 -1.19544379e-01 -1.84137329e-01 -2.41080806e-01 +1.44014925e-01 +2.01692292e-03 +2.03149423e-01 -1.33340256e-02 +5.32925427e-02 +3.90895009e-02 +5.75546511e-02 +2.59758439e-04 -1.96960121e-01 +1.21551966e-02 +1.67303875e-01 -1.85976654e-01 -1.15948141e-01 -4.24005538e-02 -3.66507769e-02 +6.61881343e-02 -7.20596686e-02 +2.09193528e-01 -6.55803233e-02 -1.56660080e-02 +2.04492316e-01 +8.19493830e-02 +1.15801029e-01 -2.57694698e-03 -1.15703352e-01 -1.23240128e-01 -1.02837056e-01 +1.35406092e-01 -6.89957812e-02 -1.20018438e-01 +2.68502444e-01 -2.36215696e-01 +5.62406369e-02 -2.52990588e-03 +3.47917318e-01 +5.34990467e-02 +7.95079097e-02 +2.40323335e-01 -2.60643512e-02 -1.20117322e-01 -1.03558868e-01 -3.07219595e-01 -9.28995758e-02 -1.31435409e-01 +4.30954956e-02 -1.51950777e-01 +2.64959306e-01 -1.31674245e-01 -3.66941802e-02 -2.42658183e-01 +1.13166682e-02 -2.38541618e-01 -1.26231775e-01 +1.36278704e-01 +3.92078869e-02 +1.17293201e-01 -7.24439621e-02 +1.43180564e-01 +1.23684660e-01 -5.40718362e-02 +2.90829893e-02 -3.36708277e-02 -1.91796888e-02 -2.56702863e-02 -8.51646289e-02 -1.36532798e-01 +5.66960946e-02 +1.33254752e-03 +1.15898326e-01 -1.46531418e-01 -1.38492838e-01 +1.75947081e-02 +5.39914984e-03 -2.20334753e-01 +6.36595264e-02 -5.10622859e-02 -2.44185627e-02 +8.39821398e-02 -2.76728272e-02 +1.85263559e-01 -6.00003265e-03 -1.51605820e-02 +6.50607049e-02 -1.80419296e-01 -1.98473707e-01 +4.71026748e-02 +1.01105519e-01 +2.15812430e-01 +3.13652121e-02 +1.12331085e-01 -1.14859737e-01 +2.64740530e-02 +1.43749461e-01 -2.04610780e-01 +4.57434990e-02 -2.16402337e-01 +8.26096162e-02 +5.25921285e-02 -1.10132486e-01 -2.86993459e-02 -2.00583577e-01 +7.81565160e-03 +5.56851784e-03 +3.30236158e-03 +6.19525500e-02 -1.32954702e-01 +7.77005926e-02 +4.79110368e-02 -2.93427520e-02 +5.14088087e-02 +9.74490717e-02 +1.27744690e-01 +4.03012559e-02 -4.55845846e-03 +3.61893252e-02 +3.13036479e-02 +1.00707352e-01 -8.93293042e-03 +2.08227411e-01 +5.82120158e-02 -2.12236509e-01 +1.53562501e-01 -6.47410452e-02 -3.25951576e-02 -4.80366778e-03 +1.19464040e-01 -3.11840065e-02 -1.45534396e-01 -1.40304565e-01 -1.89451963e-01 -2.19221443e-01 +6.93321601e-02 +2.89182186e-01 +3.68169546e-02 -7.23248497e-02 +9.69630480e-03 +1.78801492e-01 +1.13224715e-01 -6.47479966e-02 -1.99655131e-01 +9.07004476e-02 +1.09630682e-01 -1.17378971e-02 -4.78637107e-02 +2.51441337e-02 +5.82826510e-02 -4.66594361e-02 +8.88627470e-02 +6.30476698e-02 -4.39505130e-02 -6.37062266e-02 +9.57721174e-02 +2.11260244e-02 +4.39089350e-03 -5.71862459e-02 -8.50097984e-02 -7.35421777e-02 +6.49056956e-02 +3.02210525e-02 -9.29598734e-02 -1.21304214e-01 +7.80975595e-02 -2.94481255e-02 +4.53818291e-02 -5.22450656e-02 -9.39932317e-02 +3.84294204e-02 -1.02325842e-01 +1.39608636e-01 -3.98517400e-02 -8.53901953e-02 +4.53293789e-03 -1.28222287e-01 -1.30182713e-01 -1.38079925e-02 -2.65266537e-03 -3.61031815e-02 -1.12998277e-01 +7.95865953e-02 +5.29415905e-03 -1.20883860e-01 +5.54415472e-02 -1.87529281e-01 +5.71507812e-02 +4.55950685e-02 -4.80527245e-02 -1.08199470e-01 -9.34196413e-02 -5.01632541e-02 -6.79367781e-02 +5.80442324e-02 +9.82694551e-02 +2.42922679e-02 -3.04665975e-02 +6.34143278e-02 -9.55642983e-02 +6.66296855e-02 +1.10982299e-01 +8.72070044e-02 -1.02637477e-01 +1.10626273e-01 +6.62640259e-02 +1.06034465e-02 +1.03042029e-01 -2.73400873e-01 -6.70830999e-03 -2.13890538e-01 -1.34560242e-01 -3.03581934e-02 -2.77503040e-02 +8.94443095e-02 -8.65222886e-02 -5.82451560e-02 -3.93228307e-02 +1.31930485e-01 -1.46434665e-01 +9.99644622e-02 +2.49642693e-02 -5.59361950e-02 +9.43294093e-02 -1.61117882e-01 +9.91568640e-02 -9.61940810e-02 -1.60122290e-01 +7.42211044e-02 -1.28199020e-02 +7.35742450e-02 -2.84298565e-02 +8.03903153e-04 -9.00139585e-02 -9.17918012e-02 +2.63756737e-02 -1.64603919e-01 -2.16675878e-01 +2.79256254e-02 +1.23994611e-02 +5.22828288e-03 +6.60902336e-02 -2.34051943e-02 +7.79598802e-02 -4.28498238e-02 -9.64677334e-02 -2.83815879e-02 -1.16017766e-01 -6.10629795e-03 +3.48424539e-02 +1.17463864e-01 +3.30713689e-02 -7.69547895e-02 +7.56777152e-02 -6.25605648e-03 +1.91817269e-01 -2.09708456e-02 +5.65787591e-02 +2.16498777e-01 +1.78189408e-02 -9.66027100e-03 +9.89841372e-02 +1.63985014e-01 -2.17049401e-02 +6.98324442e-02 -6.37300462e-02 -7.15178326e-02 +6.90191016e-02 +6.39733719e-03 -3.91766541e-02 +1.06252626e-01 +7.23648742e-02 -1.72640546e-03 -9.29249302e-02 -9.69163030e-02 -8.09199139e-02 +9.79055092e-02 -2.88994070e-02 +2.14245588e-01 +9.50095579e-02 +1.19164437e-01 -3.22759598e-02 -3.30973305e-02 +7.79124349e-02 -3.75391655e-02 +9.65113416e-02 +1.26640648e-01 +1.26742885e-01 +4.91160788e-02 +7.79071450e-02 +7.44755045e-02 +1.13584563e-01 +5.09136058e-02 -9.50785875e-02 -1.12061486e-01 +8.42173770e-02 -1.14727668e-01 -1.46439210e-01 -2.26330739e-02 +5.31651601e-02 -7.19216838e-02 +2.57369429e-02 +8.89434293e-02 +8.40252489e-02 -3.02156787e-02 +1.56841099e-01 +4.07339483e-02 +1.20087691e-01 -7.52254874e-02 +4.53275368e-02 -3.45929042e-02 -1.77477561e-02 -1.22148827e-01 +6.44543543e-02 +1.19194984e-01 -8.42622817e-02 -4.78954092e-02 -1.00265443e-01 +1.59201190e-01 +2.53640860e-01 -1.44558325e-02 +2.29303315e-01 -9.00090858e-02 +9.31650624e-02 +9.49736312e-02 +1.17822304e-01 -7.66359791e-02 +2.55460352e-01 -4.22339141e-02 +2.24612042e-01 +2.06557631e-01 -7.61899501e-02 +5.83292432e-02 +1.69293165e-01 +2.11908445e-01 -8.04712549e-02 +2.18848586e-01 +5.59326336e-02 +1.70764953e-01 +1.11326717e-01 +1.30822182e-01 +2.75654346e-01 +2.85508716e-03 +4.10884209e-02 +6.30387142e-02 +1.22528285e-01 +9.86141488e-02 +4.46191095e-02 +2.67432984e-02 +1.45320997e-01 +1.10288166e-01 +3.55222188e-02 +1.65237010e-01 +8.56897458e-02 +1.51278004e-01 +1.54081620e-02 +8.06350168e-03 -8.02386627e-02 +2.58078009e-01 -9.08148009e-03 +6.39597550e-02 -3.98527160e-02 -2.42197942e-02 +8.39630589e-02 -3.49144414e-02 -7.08343536e-02 +1.21064456e-02 +4.26492393e-02 +1.18699865e-02 -1.06520846e-01 +3.24674919e-02 -1.33325174e-01 -1.84793770e-02 -2.27168277e-02 -9.30424780e-02 +1.87177565e-02 -6.58228993e-02 -3.21212858e-02 +1.09431945e-01 +5.04930653e-02 +1.16922706e-01 -1.35275349e-01 +1.40211865e-01 +1.82767343e-02 -1.83904603e-01 +8.50035250e-02 +6.83097914e-02 +1.66681617e-01 -2.43008113e-03 +1.18031122e-01 +1.00488216e-01 +9.03129354e-02 +1.38819024e-01 -1.00557372e-01 -1.09487325e-02 +2.60743231e-01 -2.63691954e-02 -1.73262641e-01 +1.24854436e-02 +5.23481220e-02 +8.93259495e-02 -6.88562319e-02 +6.76065087e-02 -3.57807949e-02 -1.18727177e-01 +1.81669042e-01 -1.12068124e-01 +1.08007677e-01 +8.16299245e-02 +1.73476785e-01 -3.96633632e-02 -8.87177438e-02 -2.03269958e-01 +1.43991426e-01 +2.14028940e-01 -6.47284463e-02 +3.45912129e-02 -6.53013885e-02 +7.55485147e-02 +1.56929582e-01 -3.86985317e-02 +1.84024170e-01 -3.39520574e-02 -9.39648077e-02 +1.44454956e-01 +9.80802327e-02 -8.22665766e-02 -5.30536734e-02 -6.95509240e-02 +4.85028997e-02 +1.45506468e-02 +2.27365047e-02 +6.16563819e-02 +8.97461548e-02 +4.20428887e-02 -4.81483079e-02 +1.51635259e-01 +2.93026213e-02 +9.18171704e-02 +1.04046829e-01 -5.03947304e-05 +2.10560814e-01 -8.97050202e-02 +1.18062578e-01 -2.18342934e-02 -9.25560892e-02 +2.98860312e-01 -1.25797674e-01 +1.67399913e-01 +5.78399301e-02 +2.60601372e-01 -9.28114653e-02 -3.18495445e-02 +4.46816161e-02 +1.57011911e-01 +1.08162854e-02 -2.64208615e-01 -4.94179465e-02 -9.23927426e-02 -6.94541037e-02 -1.78663343e-01 +9.52372327e-03 -5.08016869e-02 +3.00637446e-02 -7.34205395e-02 -8.54960456e-02 -1.24636777e-01 -7.65104033e-03 +2.40525100e-02 -1.25824064e-01 -1.21529706e-01 +9.25726444e-02 -4.07883339e-02 -8.21920112e-02 -4.18901332e-02 +8.66086483e-02 +1.23960696e-01 +4.23829816e-02 +1.36595204e-01 -3.57447006e-02 +1.24465546e-03 +8.94408964e-04 +8.58687386e-02 +4.37189499e-03 +7.07099289e-02 -8.36365670e-02 -9.02031269e-03 -1.22848965e-01 -1.06065117e-01 +1.28642753e-01 -6.18807264e-02 +3.37073915e-02 -1.06038831e-01 -2.65542567e-02 -5.59929870e-02 +1.16223112e-01 -7.40953162e-02 +1.55623658e-02 +5.75303845e-02 -3.28174233e-02 +1.92326698e-02 -1.63058359e-02 -3.10451500e-02 +5.61314970e-02 +1.37174889e-01 -2.86147348e-03 -9.63552371e-02 +1.27070561e-01 -5.49104027e-02 -3.11472150e-03 +1.22354537e-01 -7.44511709e-02 -5.72811589e-02 -1.10222504e-01 -8.64421353e-02 -1.15880676e-01 +7.41931275e-02 -8.70726109e-02 -1.32250730e-02 -2.80242343e-03 -1.31684735e-01 +1.69550255e-02 +7.68741146e-02 +1.00269452e-01 +1.39092179e-02 -1.56692527e-02 +7.70415813e-02 -1.40596544e-02 -8.98312032e-02 +1.27762109e-01 -2.03376394e-02 +9.97515097e-02 +9.28010866e-02 -2.77238782e-03 +3.38236280e-02 +1.19744629e-01 +8.45599845e-02 -3.37718017e-02 -5.32753654e-02 +3.87308560e-02 -3.40450034e-02 -2.25291029e-02 -9.86828730e-02 +9.59797353e-02 -4.46017198e-02 -1.07337214e-01 +6.29175678e-02 +1.02675244e-01 -4.20161113e-02 +1.14164189e-01 -5.25635183e-02 +1.45865634e-01 -6.41944855e-02 -1.11251377e-01 -4.16745618e-02 -1.91643853e-02 -4.50969450e-02 -7.16259181e-02 +2.95962032e-04 -3.94563638e-02 +1.35863736e-01 +1.41743466e-01 -8.33088160e-02 +1.02585264e-01 +1.53689906e-01 +6.23566657e-03 -5.18267937e-02 -9.60795879e-02 -6.92228824e-02 +3.45756835e-03 -1.99698061e-02 +1.68319881e-01 -6.98316097e-02 +7.49619007e-02 +2.83249021e-02 +5.63542731e-02 -7.26030171e-02 -3.68536115e-02 -1.04037799e-01 +1.26808777e-01 -1.84950769e-01 -1.56020122e-02 -5.10010831e-02 -5.54318838e-02 +3.17182466e-02 +1.00657299e-01 +2.44764000e-01 +1.33792624e-01 +2.65685879e-02 -2.91785169e-02 +9.69773829e-02 +9.67249870e-02 +9.78707150e-02 +5.69438189e-02 -1.53031275e-01 -1.71132907e-02 -1.63924724e-01 +8.73661935e-02 -4.07899730e-02 +2.33869571e-02 +4.46564145e-03 -2.89711244e-02 -7.18901008e-02 +9.37207893e-04 -9.02178884e-02 +1.03337993e-03 -7.80696943e-02 -1.76540971e-01 +2.14724839e-01 -8.36129040e-02 +4.41236282e-03 -1.27597107e-03 +2.10428655e-01 -1.02950975e-01 +3.81671526e-02 +1.96419626e-01 +7.13456571e-02 -1.37002226e-02 +2.53751457e-01 -1.07754275e-01 -3.24390978e-02 -9.18646231e-02 +7.37566501e-03 +3.25130932e-02 -9.63303968e-02 -7.29132965e-02 +1.57057904e-02 -2.37873066e-02 -2.11106297e-02 -1.66007787e-01 +1.80611685e-02 -8.76420736e-02 +7.24160373e-02 -9.63519439e-02 -1.05368197e-01 -1.61064267e-01 -1.87372610e-01 +2.44894743e-01 +8.75976533e-02 -4.56972793e-02 +8.43982473e-02 +1.08836271e-01 -7.61756599e-02 +2.96523143e-02 -1.13133721e-01 +7.92766362e-02 -7.73876533e-02 +3.74355428e-02 -6.04036599e-02 +1.24842115e-01 -1.74430817e-01 +6.18039295e-02 +1.90249071e-01 +9.52436998e-02 +1.88530907e-01 -1.12224430e-01 +1.87822729e-01 +1.19745083e-01 -3.05965275e-01 -1.82036489e-01 -1.61877245e-01 +2.09168926e-01 -7.64371902e-02 +6.04513213e-02 +2.53476743e-02 +3.89999226e-02 +1.11124236e-02 -4.34686169e-02 -9.96334851e-02 +7.68846348e-02 +1.34961486e-01 +7.06586614e-02 -1.41967628e-02 +6.42004535e-02 -1.36348335e-02 +6.82429522e-02 +1.22793749e-01 +1.78058073e-01 -4.89905253e-02 +1.62638679e-01 -1.38941482e-01 -1.15637809e-01 +8.07336718e-02 +5.09217232e-02 +2.82089468e-02 +4.57245559e-02 +9.70932022e-02 +4.97337952e-02 -1.58985317e-01 -5.16957939e-02 +5.38388975e-02 +8.34589675e-02 -1.93268046e-01 +2.55910248e-01 -1.46662816e-01 +1.16496719e-01 -8.35531428e-02 -2.10659578e-02 -7.83954859e-02 -3.10978461e-02 -1.04695586e-02 +5.74317016e-03 -1.11891240e-01 +2.95914169e-02 -6.23974465e-02 -2.29513999e-02 -2.57809877e-01 -3.17208618e-01 -8.04230198e-02 +4.12186719e-02 -1.08491562e-01 +1.55108824e-01 +5.92422783e-02 -1.72846820e-02 -1.58749387e-01 +2.87018478e-01 +2.93337554e-02 +1.84508309e-01 +1.99426278e-01 -1.93202555e-01 +4.43935841e-02 -1.23795062e-01 +8.13276246e-02 +1.85232237e-01 +1.96651742e-01 -8.47217143e-02 +5.79927713e-02 -1.33589968e-01 +1.69159710e-01 +5.69935814e-02 +1.74753308e-01 +9.62671414e-02 +8.27624500e-02 +1.85976461e-01 -3.96810323e-02 -9.77381617e-02 +2.92416010e-02 +1.06365189e-01 -2.78438814e-02 +2.78865565e-02 +1.65169686e-01 +7.37851039e-02 -3.86966998e-03 +6.21108629e-04 -7.13346004e-02 -2.77497824e-02 -2.44930863e-01 +1.08157426e-01 +2.05021668e-02 +1.53411344e-01 -9.27272439e-02 +1.05798095e-01 +1.76697653e-02 +1.02930911e-01 +1.85559720e-01 +8.79839584e-02 +1.32179469e-01 +9.10752341e-02 -2.04096511e-01 +3.06746569e-02 -1.50124319e-02 +3.77863273e-02 -1.10547468e-02 -7.32509769e-04 +8.68139267e-02 +3.07942592e-02 -1.65518150e-02 -1.74070776e-01 +6.68247864e-02 -9.20245796e-02 +3.16347592e-02 +7.87050426e-02 +3.92244942e-02 +1.22374319e-03 +3.58439907e-02 +4.05525379e-02 -9.50695053e-02 +2.52712607e-01 -2.40507945e-01 +9.41008702e-02 -1.84640154e-01 -3.58928889e-02 +1.37701154e-01 -3.34823877e-02 +5.95454425e-02 -7.14021176e-02 +1.60513803e-01 +1.03123777e-01 -9.37774405e-02 +1.02558635e-01 -2.02582031e-02 +9.53789651e-02 -7.78747797e-02 +1.80008024e-01 -8.22331011e-02 +3.38559486e-02 -1.23543680e-01 +8.03537294e-02 -5.54501750e-02 +5.08623309e-02 +1.51098063e-02 +7.73553327e-02 -1.34357912e-02 +7.57223889e-02 -1.65645137e-01 -2.15082198e-01 -1.44864544e-01 -2.13662907e-01 -3.14232931e-02 +1.60848245e-01 -3.10683753e-02 +2.04357430e-02 -7.61943683e-02 -7.58019164e-02 +7.76662305e-02 +1.69335946e-01 +1.83867082e-01 -8.83888528e-02 +2.82177716e-01 -3.16838652e-01 +3.22080851e-02 -1.38388976e-01 +3.39384153e-02 +2.24546529e-02 +2.00136319e-01 -2.87834890e-02 +4.92765531e-02 -5.32835722e-03 +8.26350823e-02 -8.40825960e-02 -3.34956124e-02 +2.45334692e-02 +4.78525795e-02 +2.58961860e-02 +4.62003872e-02 -1.10009596e-01 +8.74998569e-02 -6.55315667e-02 +6.03776425e-02 -1.14992179e-01 -9.44621209e-03 +3.10558975e-02 -1.39601871e-01 -7.34318793e-02 -1.28616869e-01 -9.70691964e-02 -7.36217499e-02 -1.67554673e-02 +7.48838335e-02 +1.68602690e-01 -2.22664222e-01 -7.95427859e-02 +8.50742310e-02 +6.55035824e-02 +3.69606376e-01 +2.28516296e-01 +1.14286095e-01 +6.11112155e-02 +2.48787284e-01 +1.32302895e-01 +3.44542377e-02 -2.43478045e-02 +1.34793624e-01 -2.03474879e-01 -9.17872563e-02 -1.14094624e-02 -5.75395897e-02 -4.39818874e-02 +1.75537035e-01 +6.65851012e-02 +7.35847503e-02 +4.12661396e-02 -1.48150072e-01 +9.98775512e-02 +3.38079259e-02 +7.41018206e-02 +9.27700028e-02 -1.03612415e-01 +1.11473814e-01 -2.12744102e-02 +1.30182058e-01 +1.09491199e-01 +4.44968008e-02 +9.37487409e-02 +1.28511740e-02 +1.39323607e-01 -2.12636366e-01 -2.44244367e-01 +1.67593323e-02 -1.56323701e-01 -1.08900025e-01 +7.41076544e-02 +6.27434477e-02 +1.06724828e-01 -2.48594265e-02 +1.52707428e-01 +9.04786587e-02 +1.41331265e-02 -8.24810043e-02 -1.65930495e-01 +1.14544384e-01 +8.61884207e-02 -8.05428624e-02 -9.52919386e-03 -4.38022614e-02 -2.05615774e-01 +7.60629550e-02 -5.34256268e-03 +2.51690984e-01 -1.37987614e-01 +1.59975454e-01 -5.19837104e-02 +7.94638228e-03 +2.38373801e-02 +2.35845238e-01 -4.07705717e-02 -2.78644953e-02 -3.29528749e-02 -1.74405232e-01 -3.66638191e-02 -3.42704467e-02 +2.65886128e-01 -1.09028921e-01 -1.16308015e-02 -3.09639759e-02 +1.08704507e-01 +1.62327603e-01 -1.69019878e-01 -7.49874562e-02 -2.54298486e-02 +4.35917638e-02 +4.94467691e-02 -7.11059496e-02 +2.87300982e-02 +1.94445446e-01 -5.18805571e-02 +3.96887213e-02 -9.45052877e-02 -2.31390521e-01 -1.24533646e-01 +1.59453824e-01 +1.63388014e-01 -2.11260095e-02 +3.30543220e-02 -6.42457828e-02 -1.09585010e-01 +1.41545638e-01 -2.16419585e-02 +1.76660299e-01 -1.08555175e-01 -6.48306832e-02 +9.46794227e-02 +1.30610898e-01 +7.65444636e-02 -8.18034112e-02 +5.63708274e-03 -2.28549279e-02 +1.07148536e-01 -1.17523093e-02 -9.60175171e-02 +1.66168168e-01 -8.35732967e-02 +1.26045607e-02 +1.36545762e-01 +3.83021031e-03 +1.00078635e-01 +1.47654945e-02 -5.76511063e-02 +2.86249630e-02 -3.14608142e-02 +7.54138082e-02 +2.48753160e-01 +2.34494880e-01 +2.78893579e-02 +6.54907674e-02 +1.50482789e-01 +6.92726597e-02 +8.92770663e-03 +8.39246660e-02 +3.99968633e-03 +1.00576647e-01 -1.79818019e-01 +4.20796685e-03 -5.27199917e-02 +8.50311667e-02 +1.70600921e-01 +1.29332319e-01 +2.80274391e-01 +1.05533056e-01 +6.35533482e-02 +1.80207819e-01 -4.58955467e-02 +2.03539893e-01 +1.39769733e-01 +6.36861101e-02 +8.39079916e-02 -8.17562863e-02 +5.31282239e-02 +1.69772640e-01 +1.31273627e-01 +9.72621962e-02 +1.11704037e-01 +1.07479535e-01 -1.92651767e-02 +1.04447873e-02 +6.33356422e-02 +2.88165156e-02 +1.08410649e-01 +3.96156684e-02 -4.87217605e-02 +1.31398216e-01 -1.46525875e-01 +9.93440077e-02 +2.09717840e-01 +7.40692019e-02 +2.26131111e-01 +1.64202660e-01 +1.84275154e-02 -7.50408992e-02 -7.22395703e-02 +1.18490368e-01 +1.02217831e-01 +7.50700431e-03 +1.45400271e-01 +3.36725488e-02 -8.97021592e-02 +1.19567692e-01 +6.16053492e-02 +1.32470280e-01 -7.25437775e-02 -5.40556088e-02 +3.77705246e-02 -6.46646991e-02 -6.89017102e-02 -2.12363541e-01 +8.65518078e-02 -2.67773122e-01 +1.95119292e-01 -2.00546786e-01 +5.32530062e-02 -9.13557187e-02 +2.54166096e-01 -4.27066311e-02 +5.00064790e-02 +3.22288238e-02 -2.43043657e-02 +3.15455168e-01 +3.77428271e-02 +1.66232601e-01 +5.72328456e-02 +1.03780045e-03 +1.83285028e-01 +1.25073209e-01 +1.31152049e-01 -2.74905004e-02 -1.05522797e-01 +5.74823283e-03 +1.66907072e-01 -9.53648426e-03 -8.82946104e-02 +1.10108294e-01 -2.18787119e-01 -9.58252549e-02 +7.53735367e-04 -9.36610848e-02 -5.64815477e-02 -9.60534066e-03 +5.06951101e-02 +5.49806887e-03 +7.36254593e-03 -1.12793647e-01 -1.97615743e-01 +1.46963879e-01 -2.72419043e-02 -1.68135073e-02 +5.32160290e-02 +3.75758521e-02 -1.31467283e-01 -5.49944676e-03 +9.61512551e-02 +4.06665839e-02 -1.07017234e-01 +1.16558120e-01 -6.88700303e-02 +2.89610010e-02 -7.29798451e-02 +2.78912969e-02 +7.19036758e-02 -1.35179181e-02 +7.59635866e-02 -8.01459514e-03 +2.22096294e-02 -5.79855293e-02 -1.44147381e-01 -7.36600384e-02 +1.15854800e-01 -1.00185484e-01 -1.43855408e-01 +1.69902332e-02 -9.46021006e-02 +1.10288717e-01 -8.50498527e-02 +1.31830886e-01 -2.83095846e-03 -1.49238288e-01 +1.63289905e-01 +1.55056283e-01 +2.12963104e-01 -1.43677980e-01 -6.09404631e-02 -8.59945938e-02 -4.69906181e-02 +7.67083094e-02 -1.35845691e-01 -2.45136023e-02 +1.50273040e-01 +4.47035208e-02 -1.43695157e-02 -1.73625022e-01 -1.22673392e-01 -4.61503118e-02 -1.39910844e-03 +7.45102987e-02 +8.89485404e-02 -6.91691115e-02 -5.86765725e-03 -8.68126377e-02 +1.66776497e-02 +6.72451630e-02 +1.30752951e-01 +1.26874506e-01 -9.37701389e-02 -7.20422864e-02 -4.51902784e-02 -1.15557931e-01 -3.41375023e-02 -2.17833370e-01 -7.07340762e-02 -2.03858048e-01 -4.19092700e-02 -1.30796790e-01 -1.57514453e-01 +9.23985094e-02 +9.40831676e-02 +6.36878610e-02 -2.10562367e-02 +3.02439153e-01 +7.97718540e-02 -1.86001454e-02 -4.61313613e-02 -2.24237502e-01 +9.67473984e-02 -2.17681140e-01 +2.02189013e-01 +4.67293300e-02 +3.28275897e-02 +1.11049019e-01 -5.15391864e-02 +5.04739843e-02 -1.09198242e-01 +5.28668836e-02 -1.99202262e-02 -3.39282602e-02 -1.02883145e-01 -1.17515549e-02 -3.50672044e-02 -3.95649634e-02 -1.43635303e-01 +1.15942150e-01 -6.12439662e-02 -2.18353450e-01 +1.41406488e-02 +1.98241249e-01 +6.69513345e-02 +5.41998856e-02 +5.08894920e-02 +3.67836468e-02 -1.20222576e-01 -4.04706784e-02 -2.49810307e-03 +1.95537671e-01 -1.04289331e-01 +4.38194163e-02 -2.71347836e-02 +1.26798064e-01 +1.17660183e-02 +1.22618295e-01 -6.35816902e-02 +1.28561771e-02 -3.02509428e-03 +1.30943984e-01 -2.20587581e-01 -2.90497914e-02 +2.17552693e-03 +1.02978516e-02 +1.15501828e-01 -7.80805126e-02 +5.66797741e-02 -1.28463015e-01 +1.04169436e-01 +9.70236734e-02 +2.34227721e-02 +1.86898127e-01 +1.12261854e-01 -2.03672647e-01 +1.35417834e-01 +2.83053964e-02 +8.22707117e-02 +5.68266287e-02 -1.68358788e-01 -3.62816863e-02 -1.26367733e-02 +1.73179992e-02 -1.41265308e-02 -1.41763091e-02 +2.13715419e-01 -6.99731801e-03 -6.25070930e-02 -7.90888667e-02 -6.59757853e-02 +2.69992743e-03 +4.78688292e-02 -1.22740120e-01 +1.00547038e-02 -1.31930277e-01 +5.10689942e-03 -1.18604332e-01 +1.23014830e-01 -1.54143395e-02 +1.17221572e-01 +1.34699658e-01 -5.13435714e-02 +1.28811598e-01 +5.49776182e-02 -5.96171021e-02 -6.59202635e-02 -5.41070290e-02 +9.63814110e-02 -1.87561721e-01 -1.16295494e-01 -1.49386585e-01 -3.56085449e-02 -1.72695387e-02 +2.61810198e-02 +1.50977941e-02 +2.00891625e-02 +1.57009795e-01 -6.38653487e-02 +3.96716185e-02 -2.30116062e-02 -1.14808977e-01 +2.46895656e-01 +4.15227190e-02 +1.01782344e-01 -1.56004831e-01 -1.49376646e-01 +4.39703390e-02 +9.98183489e-02 -8.69329348e-02 +4.23467495e-02 -2.44534880e-01 -5.34857325e-02 -1.49532646e-01 +1.69356555e-01 +1.17287613e-01 -1.30851969e-01 +7.65709355e-02 +1.03408515e-01 +4.94394526e-02 +2.03066528e-01 -4.86296043e-02 -2.94427663e-01 +1.19358808e-01 +2.73020975e-02 +3.92718911e-02 +9.63082612e-02 +1.08129956e-01 +5.55560589e-02 -8.99304748e-02 +5.64651601e-02 -1.20257974e-01 -2.57708076e-02 +1.78947285e-01 +4.05846387e-02 +1.15539759e-01 -1.44871116e-01 +2.68725157e-01 +2.52438545e-01 -6.36539087e-02 -1.06579168e-02 -3.47140688e-03 +7.87736103e-03 +2.23632202e-01 +1.80683628e-01 +1.75148491e-02 -3.79320160e-02 -1.24163501e-01 +2.00135708e-01 +1.93486497e-01 +1.28961951e-01 -1.48054928e-01 -1.98652908e-01 -1.16862074e-01 -5.64814806e-02 +1.04751699e-01 +1.07169203e-01 +5.04989065e-02 -1.64658889e-01 -2.40634918e-01 +3.46217155e-02 -2.25477532e-01 -3.15305521e-03 +2.15536788e-01 -2.45891124e-01 -7.45895058e-02 -2.67933249e-01 +2.12214261e-01 -5.71640171e-02 +2.20012128e-01 -1.34359719e-03 -1.32630736e-01 -1.56800687e-01 -9.20492113e-02 +1.32457733e-01 +2.45512411e-01 -3.04409228e-02 -9.39668790e-02 +6.36062538e-03 +2.73270123e-02 +1.16495170e-01 -1.13552049e-01 +6.19573630e-02 +1.13934875e-01 -1.39701832e-02 +3.57870534e-02 +1.29895017e-01 -5.40952496e-02 +1.63888887e-01 -1.62779614e-02 +2.42116135e-02 -2.23998036e-02 -3.31859618e-01 -3.60554159e-02 +8.81744027e-02 -1.31765917e-01 -4.96047772e-02 -1.63033813e-01 -1.43919006e-01 -1.51312009e-01 -7.36837834e-02 +1.94150120e-01 -1.47495955e-01 -2.26275638e-01 -2.93516298e-03 +1.04710862e-01 -4.65530120e-02 +8.39250386e-02 +4.86922078e-02 +3.40522900e-02 -3.85005325e-02 +1.68800522e-02 -6.18965328e-02 +9.69516486e-02 -8.20473656e-02 +2.02015013e-01 -1.39515549e-01 +3.50312609e-03 -1.40060022e-01 +3.42105217e-02 +3.48196737e-03 -1.39626004e-02 -4.55043763e-02 -1.35318756e-01 -1.51243106e-01 -2.02912670e-02 +2.45384187e-01 +5.11141978e-02 -9.70244117e-04 +1.41128227e-01 -8.88041966e-03 +3.37456446e-03 +9.22766849e-02 -5.02053350e-02 +2.80653257e-02 +3.06341238e-02 -1.03658058e-01 +8.39451095e-05 +1.43232763e-01 -1.44066274e-01 +1.08189188e-01 +1.34443313e-01 +1.64034322e-01 +1.45854622e-01 -8.58160853e-03 -2.65327897e-02 +4.71467599e-02 -5.14088273e-02 +1.06511516e-02 -1.30759880e-01 -1.76857769e-01 -1.00958711e-02 -1.30616993e-01 -1.06570050e-01 -4.07948345e-02 -3.05987261e-02 -1.47156408e-02 -1.70330971e-01 +1.15579210e-01 +4.65759933e-02 -6.76186979e-02 -3.31128314e-02 +3.77409607e-02 -5.03765270e-02 -1.43583953e-01 +1.48231804e-01 +7.70897195e-02 -5.91208301e-02 +1.45213669e-02 -6.42177239e-02 +4.64010052e-02 +5.99392578e-02 +7.00821877e-02 -9.05058607e-02 +4.94257137e-02 +1.10516734e-01 -1.23154990e-01 -1.78354204e-01 +8.21376219e-02 +1.16850972e-01 +6.32100105e-02 +1.41029134e-01 +5.44547215e-02 -1.84276968e-01 +7.61679653e-03 +3.69511507e-02 +1.46368250e-01 -3.67312729e-01 +1.07122451e-01 -1.02273658e-01 -1.09769188e-01 -9.50487778e-02 +1.99888915e-01 -7.98736513e-02 -2.26372361e-01 +7.96172768e-02 -5.10417484e-02 +2.93384474e-02 +1.07624203e-01 +9.20706689e-02 -1.56602010e-01 +9.09079909e-02 -3.38699743e-02 +7.33950511e-02 -5.66639192e-02 +7.25402161e-02 +9.74932685e-02 +4.22977544e-02 -1.75190583e-01 -8.70642290e-02 -9.92928743e-02 -6.05436526e-02 +7.97163472e-02 -2.60361545e-02 +5.92939220e-02 +7.62248412e-02 +2.23494973e-02 -7.62121677e-02 +2.10434999e-02 -1.29882306e-01 +2.68526319e-02 -3.03610023e-02 +4.64928597e-02 -9.10888612e-02 -9.62655321e-02 -1.62317410e-01 +2.98525412e-02 -9.19095706e-03 +1.28945112e-01 -6.15294874e-02 -8.60938281e-02 -9.26094577e-02 -2.17260271e-02 -9.37963650e-02 +8.44224468e-02 +7.51014724e-02 -3.67751233e-02 +6.98451921e-02 +9.42038074e-02 +4.56733517e-02 +1.37583110e-02 -9.55510065e-02 +1.50813073e-01 -1.22902088e-03 +1.65881470e-01 -1.78700909e-01 +6.35127071e-03 -1.03772439e-01 +4.07576859e-02 +3.55065651e-02 +1.18251458e-01 -1.50336817e-01 +4.08510529e-02 +5.78954369e-02 +1.19913265e-01 -1.15299247e-01 -9.01386514e-02 +3.64563763e-02 -1.14431180e-01 +1.62495971e-01 +5.02876081e-02 -7.76051134e-02 +1.76855072e-01 +1.14113741e-01 -4.06875312e-02 -5.26763722e-02 +1.30204141e-01 +1.53483510e-01 -1.01311700e-02 -9.69430283e-02 -1.49191059e-02 -1.46741062e-01 +6.04436994e-02 -1.69368042e-03 +1.52277514e-01 +1.19354937e-03 -8.45806599e-02 -3.73391174e-02 +2.80256495e-02 -1.78437438e-02 +2.12749317e-01 +8.55909139e-02 +1.18868276e-01 +2.55951174e-02 +1.29996330e-01 -7.39421770e-02 -6.99357837e-02 +6.06822744e-02 +1.42745569e-01 +8.01697895e-02 -1.08922506e-02 +4.66072038e-02 +1.32700220e-01 +9.15757846e-03 -2.23326281e-01 +2.65858192e-02 -1.71188992e-02 +3.34707648e-02 +2.89014261e-03 -1.14861295e-01 +8.66940618e-03 +1.15137517e-01 -3.20391506e-02 +8.87936950e-02 -9.48849842e-02 +1.29057139e-01 +1.85882255e-01 +2.03745272e-02 -4.85171527e-02 +3.85362864e-03 +4.59222235e-02 +2.07795296e-02 +2.63905097e-02 -3.51253003e-02 +1.52688092e-02 +7.00369552e-02 -7.75227994e-02 +3.66485603e-02 -1.79070100e-01 -1.28483400e-01 -1.23953022e-01 -1.72756732e-01 +2.33411063e-02 -1.79492217e-02 -8.57642740e-02 -5.12302108e-02 +1.89432502e-01 +4.32409830e-02 +1.56370804e-01 -4.09413613e-02 +1.19788229e-01 -1.41563034e-02 -3.83733734e-02 -1.07620649e-01 -5.03402837e-02 -6.76294714e-02 +2.39412617e-02 +1.61793202e-01 +1.51156306e-01 -2.39633426e-01 -1.74878448e-01 -1.46561176e-01 +2.02687874e-01 -1.77621961e-01 +9.19194333e-03 -1.58214003e-01 +3.84458303e-02 -1.19529955e-01 +6.84720203e-02 -1.50061265e-01 -4.82163019e-02 -5.02172820e-02 -4.10804003e-02 -1.06796078e-01 -2.67554019e-02 -4.50647660e-02 +4.99429787e-03 -5.68440109e-02 -3.63612771e-02 -6.51469082e-02 +1.35026975e-02 +8.98515433e-03 +1.10890055e-02 -2.45344602e-02 +3.41732241e-02 -1.00869507e-01 -3.26713873e-03 -5.66612221e-02 +1.76549368e-02 -1.08234368e-01 -2.90387571e-02 -3.76455523e-02 -2.52784640e-02 -2.10084379e-01 +1.30602747e-01 +9.64309126e-02 -1.95750058e-01 -1.45600945e-01 +1.11764953e-01 -5.53859621e-02 +1.49870083e-01 +1.83061868e-01 -1.12635590e-01 -6.71003610e-02 +1.37220517e-01 -3.45041193e-02 +6.90943822e-02 +9.78788063e-02 +7.72147849e-02 -1.11247584e-01 +3.02519072e-02 +1.18563436e-02 +1.82883725e-01 -9.87525508e-02 +7.24411511e-04 +7.87691176e-02 +1.20054753e-02 -9.12985280e-02 +9.57323238e-02 -7.35045895e-02 +9.14654694e-03 -8.48865360e-02 +1.40776381e-01 +1.24272563e-01 -7.87733197e-02 +2.32341677e-01 -7.17884228e-02 -1.28013894e-01 +4.04492095e-02 -9.36491862e-02 +1.02512509e-01 -5.52309602e-02 +1.35548376e-02 -8.16447809e-02 -7.04038814e-02 +1.17627740e-01 -3.95909734e-02 +7.36525133e-02 -1.77814923e-02 +5.17954007e-02 +3.64722833e-02 -5.60712442e-02 -1.13162629e-01 +8.95190835e-02 -8.15697908e-02 -1.09484576e-01 +2.42228344e-01 +1.10984139e-01 -1.10771075e-01 -2.29425848e-01 +1.58931747e-01 -1.58121735e-01 +1.68697253e-01 -4.40359786e-02 +1.31876796e-01 +5.30406348e-02 +5.06728254e-02 +2.86739133e-02 -2.25986857e-02 +8.67282450e-02 -1.63095117e-01 +1.80342659e-01 +1.48655027e-01 +1.15868963e-01 +4.26321886e-02 -5.86031750e-03 -1.16810992e-01 -1.76007543e-02 -1.76919833e-01 +6.85292408e-02 -5.11507988e-02 -1.39218062e-01 +6.70668483e-02 -9.48190987e-02 -1.72549635e-01 +3.67788188e-02 -7.42921093e-03 -5.80272377e-02 -2.09562600e-01 +5.69152273e-02 -1.34722009e-01 -1.24687411e-01 +1.89320743e-01 +1.71822101e-01 -3.87123413e-02 -1.76569954e-01 -9.76419002e-02 -1.21326014e-01 +2.03228846e-01 -9.43257064e-02 +1.57519877e-01 -8.08048844e-02 -4.74413037e-02 -6.48899451e-02 +5.83660677e-02 -1.21497534e-01 -4.28236760e-02 +1.25937918e-02 +8.68149474e-02 +1.43773898e-01 -4.11182195e-02 -1.40215531e-01 -2.53890194e-02 -3.80314998e-02 -6.08186424e-02 -1.65785432e-01 +1.31528124e-01 +3.55510041e-02 +2.69680381e-01 -2.06425693e-02 -1.14075243e-02 +6.90427348e-02 -8.97929445e-02 -1.44214854e-01 +1.18170190e-03 -5.68963438e-02 +4.53228392e-02 -1.27284601e-01 +4.12360542e-02 -7.95914456e-02 -8.99157673e-02 +6.21201620e-02 -1.92929387e-01 +1.46044791e-02 -5.28365709e-02 -2.10246563e-01 +6.43901825e-02 +1.25014350e-01 +8.36758316e-02 -1.85135439e-01 +8.30672607e-02 -8.31369907e-02 +1.73460282e-02 +5.38674249e-05 -8.45255181e-02 +1.47404596e-01 +1.43041480e-02 +1.21122878e-02 +6.92368224e-02 -1.24650039e-01 +1.25353083e-01 -7.94841424e-02 -1.46399140e-01 +4.65888977e-02 -9.80889574e-02 -9.23419222e-02 -6.86831400e-02 +4.69332598e-02 -1.17466198e-02 +1.80051714e-01 -3.55202071e-02 +1.73887432e-01 -8.08536112e-02 +6.11417070e-02 -1.00305080e-01 -5.16132526e-02 +2.49459990e-04 +6.39089271e-02 -5.56389540e-02 -3.20614390e-02 -2.14127243e-01 -8.66188258e-02 +8.30703601e-02 -5.40499389e-02 +4.53440994e-02 -1.20461974e-02 -4.15117033e-02 +7.97156990e-02 -8.41323137e-02 -8.00566450e-02 -8.07114244e-02 -4.60646413e-02 +3.52090225e-02 +6.24046922e-02 -1.01836294e-01 -9.67148244e-02 +1.09335899e-01 -9.71948355e-02 -8.08886439e-03 +1.41837165e-01 +3.56154412e-01 -1.37163848e-01 +4.52301465e-02 +7.90223628e-02 +4.88327406e-02 +8.63874406e-02 +1.03064477e-01 -7.40602612e-02 -2.20997143e-03 +1.13847353e-01 +9.72258020e-03 +3.17030475e-02 +6.50651976e-02 -1.19673871e-01 -1.02562830e-01 +6.47675917e-02 -2.06974640e-01 +1.75825320e-02 -1.21954000e-02 +6.93069920e-02 +2.96128821e-02 +1.18019216e-01 +4.40924838e-02 +1.10506834e-02 -6.50169253e-02 +3.18616688e-01 +6.09929003e-02 +1.86832920e-01 +1.13176383e-01 +3.37073617e-02 +1.47116750e-01 +5.68859689e-02 +8.69235396e-02 +2.88752355e-02 +4.47995253e-02 +1.28982693e-01 -9.23554227e-02 +2.73094475e-02 +1.07356384e-01 +2.80860290e-02 -4.53221314e-02 +2.44141266e-01 -7.21487254e-02 -1.20268911e-01 -7.26945400e-02 +8.14294145e-02 -1.10994861e-01 -4.74732406e-02 +5.24109639e-02 -1.65407673e-01 -1.02820724e-01 -1.02338634e-01 +4.95434590e-02 -8.18408430e-02 -2.93955475e-01 +1.24413662e-01 -4.03981805e-02 -3.25499997e-02 +9.38653871e-02 -2.69073159e-01 +1.03248820e-01 +6.59647956e-02 +8.64764526e-02 -3.13177193e-03 -2.67895684e-02 -1.79094434e-01 -1.77044217e-02 +9.15697291e-02 +5.29119000e-02 +9.09262076e-02 -1.05532773e-01 +1.04099922e-01 +2.23261751e-02 -9.69193410e-03 -1.08387701e-01 +2.18954999e-02 -1.62077531e-01 -1.88327730e-02 -5.87794557e-03 +2.90047750e-02 -2.18245342e-01 -3.00585339e-03 -7.77867138e-02 -1.06148444e-01 +1.47072092e-01 +1.90726630e-02 -6.27572238e-02 +1.15692452e-01 +5.45365438e-02 -9.41991284e-02 -2.43346572e-01 +6.96840957e-02 +5.85796311e-02 -8.38223472e-02 -1.68152004e-01 -6.96612298e-02 -2.08299696e-01 -2.81447638e-03 -4.85492609e-02 +5.93572669e-02 +2.38726586e-01 -1.17414892e-01 -1.41857892e-01 -1.31750794e-03 -9.13392007e-02 +8.14573690e-02 +8.68126974e-02 +2.65992302e-02 +3.97583954e-02 +1.41610461e-03 +1.57391597e-02 -1.04275579e-02 -1.91710681e-01 -7.29059875e-02 -1.22436896e-01 +4.05777432e-02 -1.35135680e-01 +2.31669798e-01 +5.93939349e-02 +1.17009670e-01 +1.83659643e-01 +1.95019603e-01 -7.96595216e-02 -4.03047949e-02 -1.70319842e-03 +3.86470973e-01 -1.61198596e-03 +1.66458011e-01 +1.46559656e-01 +2.67945260e-01 +2.24723164e-02 -6.79636933e-03 +2.11166255e-02 -1.10306554e-01 -1.04295602e-02 +1.25470385e-01 -9.28949714e-02 -2.33808801e-01 -1.76912118e-02 -7.58127123e-02 -9.46798027e-02 +8.36044848e-02 +1.54147804e-01 -1.87902804e-02 -9.40137655e-02 -8.57724901e-03 -6.18167520e-02 +8.96659568e-02 -9.74814966e-02 -7.58125186e-02 -9.01858658e-02 +6.61795726e-03 +2.14533344e-01 -4.80402708e-02 -1.25799149e-01 +1.23262957e-01 -1.41553119e-01 -8.73971805e-02 -3.08405627e-02 -9.93270725e-02 -1.03363380e-01 +6.79133460e-02 -6.76700566e-03 -4.49515833e-03 +5.56448698e-02 +3.97747057e-03 +4.19293083e-02 -1.91764219e-03 +1.03031337e-01 +2.08499715e-01 -1.13786668e-01 -2.54924241e-02 -2.31804758e-01 -1.09896228e-01 -4.86418884e-03 -1.54801041e-01 -1.49783045e-01 +2.28829592e-01 +1.77302495e-01 +1.18683845e-01 -2.02229604e-01 -7.13961720e-02 +6.63717464e-02 +1.86050355e-01 +2.41420995e-02 -5.98807447e-02 -3.36365914e-03 -3.24091725e-02 -3.67601998e-02 -2.18896344e-01 -2.59965241e-01 +2.43456531e-02 -1.37814671e-01 -1.29071936e-01 -9.47408900e-02 -6.36447570e-04 -1.17921300e-01 -1.03893821e-04 -1.21870190e-01 +8.16197097e-02 +2.78012753e-01 +8.74480680e-02 +4.95192483e-02 -7.87138641e-02 +1.14831030e-01 +1.49319679e-01 -2.99445167e-03 -6.97142631e-02 +8.01281352e-03 +2.08922386e-01 +1.07265681e-01 +8.05545226e-02 -1.82821974e-01 -1.70360282e-01 -7.71682784e-02 -8.76796916e-02 +5.40597662e-02 +1.96557596e-01 -3.09092589e-02 +1.33076206e-01 +6.66419640e-02 +5.06110899e-02 -1.09573139e-03 -2.71734092e-02 -3.55340242e-02 +2.03931630e-01 -1.80571482e-01 +5.50401546e-02 +1.82741150e-01 +2.04361230e-01 +2.77345888e-02 +1.37671903e-01 +7.98569713e-03 +3.54847983e-02 -2.79584471e-02 +1.11523032e-01 -1.49747983e-01 -1.77305147e-01 -1.44539580e-01 +1.12641186e-01 -4.88581844e-02 +2.61302292e-01 -1.92938317e-02 -1.73131958e-01 +3.80465835e-02 +5.01464531e-02 -2.80195564e-01 +8.84657204e-02 +3.60962786e-02 +1.94366202e-02 +3.93644311e-02 -4.91112135e-02 +3.68665345e-02 +1.47705838e-01 -1.44298345e-01 -1.56973764e-01 -5.86863570e-02 -1.18295923e-01 -5.86464182e-02 -2.99072973e-02 +1.18011884e-01 -1.20329671e-01 +3.33466046e-02 +1.24770850e-01 +2.81507429e-02 +7.12954029e-02 +1.70744658e-01 +4.71349135e-02 -2.09651262e-01 +1.27771914e-01 -4.65542264e-02 +1.20555647e-02 +7.75633827e-02 +2.55737323e-02 +3.38041931e-02 -5.27675934e-02 +8.27396885e-02 -1.94458276e-01 -1.35435089e-01 -1.25930294e-01 +2.30357554e-02 -3.11252195e-02 +9.14419740e-02 +1.02062419e-01 +2.12701976e-01 +1.66993700e-02 +7.42674395e-02 +6.50947616e-02 -1.18393861e-01 +2.01257225e-02 -1.65258780e-01 +3.81820537e-02 -4.46004234e-02 -4.01200876e-02 -8.29654038e-02 +1.29033566e-01 -2.42843986e-01 +5.86865246e-02 -2.16569863e-02 +2.74499118e-01 -2.65322924e-01 +3.79531346e-02 -8.15080330e-02 -8.72633904e-02 +1.78577289e-01 +4.51565546e-04 +1.38508499e-01 -1.62672445e-01 +1.68330684e-01 -2.31166542e-01 -1.60965353e-01 +1.33633420e-01 +2.99704121e-03 +5.79908043e-02 -1.48834407e-01 -2.54146457e-01 -4.58769277e-02 +5.89156561e-02 +1.83602851e-02 -7.95757622e-02 +4.10802513e-02 -2.04879031e-01 -1.60258114e-01 -1.29307821e-01 -1.29963934e-01 +2.50597179e-01 +1.13462657e-01 +1.83934540e-01 -6.19090460e-02 -1.92978963e-01 -2.41347738e-02 +1.69889972e-01 +1.28047243e-01 +1.15432702e-01 -4.71859761e-02 +2.47492399e-02 -3.14841345e-02 +1.13319315e-01 +8.21066201e-02 +1.03413090e-01 -7.68907890e-02 -1.81542262e-01 -7.44429380e-02 +8.41258317e-02 +1.04463562e-01 -2.66218543e-01 -7.55820144e-03 -2.77143437e-02 -1.07777581e-01 -6.24656677e-02 +4.51056324e-02 -2.93800775e-02 +3.67795564e-02 +1.11856889e-02 -5.48031442e-02 +4.80565652e-02 -8.85155872e-02 -6.09793589e-02 +2.09552526e-01 -4.02982049e-02 -3.65247056e-02 +1.59514975e-02 -5.45680150e-02 -4.22181152e-02 -1.55333161e-01 -1.01790525e-01 -6.75645769e-02 -8.28859881e-02 -1.41135799e-02 +3.98630351e-02 +4.00167033e-02 -4.55566077e-03 -1.38118371e-01 +1.06980652e-01 -9.34864767e-03 +3.14739831e-02 +4.99686226e-02 +1.43998340e-01 -1.33198500e-01 -2.77922928e-01 -3.59632261e-02 -1.21994182e-01 +2.91978121e-02 -1.44962013e-01 +1.71581656e-01 -4.71575819e-02 -5.34295142e-02 -1.52460173e-01 -6.05066866e-02 +1.27311900e-01 +2.42749392e-03 -7.87999630e-02 -1.02077320e-01 +3.18360366e-02 +1.30648822e-01 -3.07672415e-02 +4.45017684e-03 -8.58820677e-02 -2.34643347e-03 -2.24630818e-01 +9.06472802e-02 +1.64156497e-01 -5.47016189e-02 -9.15618092e-02 -2.60382630e-02 +1.01655699e-01 +1.29966378e-01 -9.01461858e-03 -2.07134876e-02 -1.25045553e-01 +1.72054291e-01 -4.36359495e-02 +9.52925831e-02 +1.23312190e-01 +1.74789038e-02 +5.05708642e-02 +3.02580837e-02 -6.19530231e-02 -9.43429917e-02 -1.69916406e-01 +1.39050364e-01 +1.30188629e-01 -5.60717098e-02 +1.02968886e-01 -5.16288280e-02 +2.61026453e-02 -8.76714215e-02 +1.15424849e-01 -2.05195725e-01 +9.47123319e-02 +8.74933898e-02 +7.65440008e-03 +5.24376780e-02 +5.57208285e-02 +1.81964040e-02 +1.24306930e-02 -5.50448941e-03 +1.13731787e-01 -4.55519669e-02 +1.06414713e-01 +1.05956532e-02 -4.11658622e-02 +3.88996415e-02 +8.70262161e-02 -2.44439841e-04 -1.02815256e-01 +2.20269989e-02 +2.13220366e-03 -1.21784382e-01 +5.30851632e-02 -1.53251484e-01 -6.95839673e-02 -1.73479058e-02 -1.58797592e-01 +1.78034738e-01 +4.89975549e-02 +4.63276580e-02 -7.50565901e-02 +1.58372223e-01 -7.16438666e-02 +1.90487634e-02 +6.76599741e-02 +1.23674072e-01 +5.61040603e-02 -7.87738487e-02 -2.02880293e-01 -2.67338715e-02 -3.35428794e-03 +1.68669492e-01 -1.27794087e-01 -5.83554246e-03 -6.08339757e-02 -1.64463744e-01 -1.60296187e-02 +9.85940099e-02 +4.80096228e-03 +9.85517055e-02 +1.26151681e-01 -4.48046923e-02 -9.05895606e-02 +5.00720292e-02 -9.34304669e-02 +2.67902724e-02 -1.59806341e-01 -8.64239410e-03 +1.42752437e-03 +3.52755971e-02 -4.88565452e-02 +5.42311184e-02 +5.30903377e-02 +1.07446127e-01 -9.06887874e-02 -9.56688542e-03 +3.30079421e-02 +8.01391155e-02 -9.84855667e-02 +4.73686568e-02 -5.39428852e-02 -5.36620878e-02 +1.32189855e-01 +1.56529367e-01 +1.14900410e-01 -1.50928982e-02 +4.23347838e-02 -1.66095775e-02 -9.76386890e-02 +6.75315335e-02 +6.11172915e-02 +1.55248329e-01 -4.24222834e-02 -6.38800785e-02 -2.43127152e-01 -1.01437181e-01 -6.02272898e-02 -5.22314161e-02 +1.70501053e-01 +8.22763816e-02 +1.08993374e-01 -1.50251791e-01 -1.57142118e-01 +1.57105982e-01 +1.12262689e-01 -6.00225001e-04 -7.65209347e-02 +1.33532509e-01 -9.42911953e-02 +3.70506607e-02 +1.07931994e-01 -1.07105017e-01 +3.06302104e-02 +3.98600847e-02 -2.94876937e-02 +7.29162097e-02 -1.31655142e-01 -9.43904892e-02 -5.15515804e-02 -2.93258596e-02 +3.44515890e-02 +9.00791287e-02 -4.49441485e-02 -1.21400565e-01 -4.55138348e-02 +1.44905243e-02 +1.56102687e-01 -1.78018272e-01 -5.04864007e-02 -2.67581027e-02 -1.84956178e-01 +4.79305312e-02 +1.00252226e-01 -1.68667778e-01 -1.50902033e-01 -1.38685286e-01 +2.25043949e-02 +1.34474123e-02 -1.10816218e-01 -7.45039433e-02 -1.25602670e-02 +5.42615205e-02 +4.44091931e-02 -6.95297793e-02 +6.45112321e-02 -4.06049080e-02 -6.66028634e-02 -1.44536216e-02 -3.06546036e-02 +9.14979912e-03 -1.32308364e-01 +1.45705894e-01 -7.05989748e-02 -3.38164344e-02 -6.03373572e-02 -4.53959890e-02 -8.80514234e-02 +4.27143276e-02 +4.06759493e-02 +4.58460003e-02 -1.45133277e-02 +4.92297411e-02 +6.11314029e-02 -1.40619762e-02 -4.80536819e-02 -5.20420782e-02 -4.34711687e-02 -7.21118003e-02 +4.25037779e-02 -1.52137154e-03 -8.00204203e-02 -1.23702392e-01 +1.86201468e-01 +1.26864081e-02 -5.49680777e-02 +1.29892677e-01 +1.08009920e-01 +6.18504956e-02 -1.18987344e-01 -4.26461920e-02 +6.69514909e-02 -1.00588270e-01 +4.48956415e-02 +1.27484441e-01 -2.98595298e-02 -1.01410632e-03 -5.06922975e-02 +7.89819136e-02 +2.22040880e-02 -1.53603265e-02 -1.99906062e-02 -7.69033376e-03 -1.59131199e-01 +3.19038630e-02 -1.33694649e-01 -4.47366759e-02 -3.47262211e-02 -1.65268987e-01 +1.01317644e-01 +5.81402369e-02 +3.27433459e-02 -6.57154759e-03 -1.80004284e-01 +5.15761748e-02 +6.40490279e-02 +2.46517714e-02 +9.04496312e-02 -2.14572344e-02 -2.23481357e-01 -3.02879587e-02 +1.02675043e-01 -5.77128120e-02 +3.56486775e-02 +1.57659706e-02 -9.16688070e-02 +7.70921540e-03 +1.41740656e-02 -6.17734306e-02 -6.06551804e-02 -1.63624883e-01 +3.38434353e-02 +1.30424902e-01 +4.34402516e-03 -1.53179228e-01 +4.54436690e-02 +2.31416933e-02 -1.27270985e-02 +1.70862265e-02 -3.57158519e-02 -1.38330059e-02 -1.28111597e-02 +1.04638040e-01 -1.55065367e-02 -1.59063652e-01 +1.35680601e-01 -1.33996293e-01 +4.41322029e-02 +3.17604020e-02 -1.32671535e-01 -3.45007740e-02 +1.24035531e-03 -1.07961774e-01 +1.22364899e-02 +2.52476372e-02 +7.85861444e-03 +4.43274416e-02 -5.28264195e-02 -8.08966458e-02 -6.43298030e-02 -5.09666167e-02 -4.56922017e-02 -9.90939811e-02 +4.37105298e-02 -1.12094693e-01 -8.05288926e-02 -4.76997234e-02 -9.83372182e-02 +1.48739144e-01 -1.51198134e-01 -1.14935137e-01 -1.29428118e-01 +5.51355556e-02 +5.55811040e-02 +2.04001054e-01 -2.98269689e-02 -1.46577060e-01 -1.51369676e-01 -2.25257233e-01 +1.00546246e-02 -2.01624945e-01 +2.70405225e-02 -6.07839102e-05 -8.38931575e-02 +9.93970502e-03 +1.22716412e-01 +4.65254858e-02 +1.17005577e-04 -1.70365036e-01 +9.76136774e-02 +1.55310541e-01 +4.86216173e-02 +8.05875808e-02 +1.42233729e-01 -6.76719844e-02 +1.95660695e-01 +1.61582907e-03 -1.15845084e-01 -1.39742224e-02 -1.49981275e-01 +2.63368607e-01 -1.25052705e-01 -9.76596773e-02 +7.32768923e-02 +9.23181474e-02 +2.19804958e-01 -1.81531861e-01 -1.29177243e-01 -5.99087887e-02 -1.32366613e-01 -1.12858787e-01 +9.32384655e-02 +3.10208350e-02 -6.25202358e-02 +5.34437550e-03 +7.13133514e-02 -4.82919887e-02 -1.42238475e-02 -8.02324861e-02 +7.66397640e-02 +5.48747666e-02 -7.10719973e-02 -3.22864912e-02 +1.53471783e-01 -6.94469064e-02 -9.18757692e-02 +1.44249648e-01 -4.06615585e-02 +4.12161574e-02 +1.03909224e-01 +7.57166594e-02 -1.01637900e-01 +5.73961809e-02 -1.40981764e-01 +5.64658716e-02 +1.60405878e-02 +7.89187700e-02 -1.95786525e-02 -5.21545447e-02 -5.67545816e-02 -2.62237787e-01 -1.22304887e-01 -1.92510951e-02 +6.97118463e-04 -4.12035882e-02 +3.06721721e-02 -2.11790904e-01 +6.50282949e-02 +1.77162662e-02 +1.84733178e-02 +5.60912453e-02 -1.66088752e-02 +5.57892658e-02 +2.82042231e-02 +9.91134420e-02 +1.72327384e-01 +1.64852485e-01 +1.41542375e-01 -5.52053265e-02 +3.22118849e-02 -7.48195723e-02 -4.98614721e-02 +2.37311199e-02 +2.07658753e-01 -6.98261037e-02 +1.37025058e-01 +4.46390435e-02 +1.07718715e-02 +1.32400379e-01 -5.76113444e-03 -2.84734052e-02 -6.98198825e-02 +8.22665915e-02 +9.86993837e-05 -2.49657154e-01 +9.05878097e-03 +1.30851820e-01 -1.05786979e-01 -1.23398289e-01 +7.61575475e-02 -1.20272957e-01 -2.83446293e-02 -7.67646581e-02 +4.20436487e-02 +1.75481647e-01 +6.76468089e-02 +1.08434491e-01 +3.55173573e-02 +2.52849646e-02 +2.42966428e-01 -1.90302223e-01 -1.08941533e-01 +2.66481310e-01 +1.51771113e-01 -1.65747792e-01 -9.00159627e-02 -8.82834420e-02 -9.06992704e-02 +1.02586560e-01 +3.49155962e-02 -1.74463183e-01 +1.01468548e-01 +6.94408864e-02 -9.46823657e-02 +5.74566498e-02 -2.49618851e-02 -1.04123823e-01 -3.99811082e-02 -3.66939441e-03 +6.85180211e-03 -8.52718055e-02 +6.53941706e-02 +5.82664013e-02 +1.49011850e-01 -3.12814228e-02 -3.23455334e-02 +5.70071824e-02 -4.56422642e-02 +1.11817308e-01 -4.67850640e-02 +5.47968820e-02 -1.35258855e-02 -1.37190238e-01 +3.53186205e-02 -1.04325861e-02 +6.13777302e-02 +3.43099311e-02 +9.10513625e-02 +7.46531226e-03 -2.49420516e-02 +1.32407531e-01 +5.70064150e-02 +1.44094512e-01 +3.73841189e-02 +2.59207673e-02 -1.01478457e-01 -1.02220625e-02 +1.16734229e-01 +1.09064437e-01 -3.59762274e-02 -1.23263393e-02 -2.20099948e-02 +1.70792919e-03 -4.69058231e-02 +2.38951873e-02 +6.74369186e-02 -2.27751210e-02 +7.01181171e-03 +6.64235726e-02 +6.90345690e-02 +1.04670279e-01 -1.48689538e-01 -4.99880966e-03 -1.16093643e-01 -4.25581746e-02 -9.12133828e-02 +1.24420561e-01 +1.43665209e-01 +1.08545110e-01 +1.04265533e-01 -1.55662149e-02 -3.14351320e-02 +8.85213539e-02 +3.12360227e-01 -3.04300134e-04 +1.97227642e-01 +8.55598748e-02 -9.06638429e-02 -6.66383505e-02 -5.20341806e-02 -7.47211352e-02 -5.98295629e-02 -1.11436108e-02 +3.54920998e-02 -1.73079193e-01 +3.73963080e-02 +9.46183428e-02 -2.44398545e-02 -1.64718926e-01 +1.09903164e-01 -8.73384774e-02 +7.02337176e-02 +1.22333437e-01 +1.23152241e-01 +1.29843354e-01 +7.89705962e-02 -2.10777055e-02 +2.37932384e-01 +2.17190638e-01 +4.75347750e-02 -1.69576798e-02 +7.33346418e-02 +2.75561959e-01 +2.18681157e-01 -1.26881599e-02 +3.31664248e-03 +1.25581652e-01 +1.83567032e-01 -4.33607325e-02 +1.01606555e-01 +2.39900276e-02 +6.79791719e-02 +2.21705232e-02 -2.17294917e-02 +2.89688017e-02 -9.75849628e-02 -2.29191840e-01 -8.25179517e-02 -5.97353168e-02 -6.22032508e-02 -1.44379616e-01 -7.38608092e-02 +6.11362830e-02 +6.50884863e-03 -1.52900126e-02 -3.70263644e-02 -3.73050794e-02 -3.39691341e-02 +1.44047722e-01 -8.79849046e-02 +1.21066488e-01 +1.56839535e-01 +8.83756354e-02 -2.96481699e-02 +3.06739882e-02 -6.44916762e-03 -9.90449786e-02 -3.42334155e-03 +7.35737905e-02 +7.89528117e-02 -5.00918590e-02 +2.14405544e-02 +5.76423779e-02 +8.83404389e-02 +3.89226042e-02 -2.91684084e-02 +1.96952358e-01 -5.64734749e-02 +8.86589959e-02 -6.57375678e-02 -1.94099635e-01 +4.31241794e-03 +9.16603655e-02 +7.62167647e-02 +2.63628177e-02 -4.32304330e-02 -1.01395264e-01 +3.47643271e-02 +7.18854591e-02 +1.22523107e-01 +6.81469589e-02 +3.48303914e-02 -9.51052085e-02 -1.02798134e-01 +7.83978552e-02 -5.96599914e-02 +8.71337205e-02 +1.44042775e-01 +3.13807204e-02 +6.34253100e-02 +6.24315441e-02 +1.31066859e-01 +2.33998448e-02 +1.79646075e-01 -1.27086649e-02 +8.60088319e-03 -2.47955881e-02 +4.01803255e-02 +9.86596867e-02 +1.60815701e-01 -1.21232852e-01 -1.15543768e-01 -8.63448605e-02 -3.94880176e-02 -7.08577409e-02 +4.16286401e-02 -5.67620154e-03 -1.16994716e-01 -3.16578932e-02 +2.05710698e-02 -1.10394567e-01 -6.71642497e-02 +6.41679317e-02 +8.91862065e-02 +1.83761716e-01 +1.67913288e-01 +8.69715363e-02 +1.43360093e-01 +2.02220067e-01 +5.68026602e-02 -1.60797969e-01 -1.15439633e-03 +1.60040677e-01 +8.45039114e-02 -1.66345447e-01 -8.42847526e-02 +5.21971583e-02 +5.26287630e-02 -1.41594142e-01 -9.56910849e-02 -9.76556838e-02 -5.90690412e-02 -4.85674106e-02 -2.03345194e-01 -1.74229607e-01 +6.10417612e-02 -2.42589176e-01 -4.42609303e-02 -6.81393668e-02 -1.93095915e-02 -1.25494629e-01 -9.98628214e-02 -2.77611576e-02 +2.37313792e-01 -7.61239529e-02 -8.47642347e-02 -8.34997669e-02 +9.02495533e-03 +7.41116405e-02 -1.22874547e-02 +1.52915537e-01 -7.29679409e-03 +2.24268049e-01 -2.63828710e-02 -7.49980211e-02 +1.83769409e-02 -1.45122752e-01 -5.38660996e-02 +1.50944903e-01 +6.09088652e-02 +7.22169802e-02 +7.37725943e-02 +8.83143116e-03 -1.10849105e-02 +7.04871898e-04 -9.67203528e-02 +1.55688524e-01 +9.64311287e-02 +3.78959347e-03 +2.38085072e-02 -1.50182605e-01 -1.05937481e-01 -1.63882002e-02 -1.43539011e-01 -5.27093560e-02 +5.88094145e-02 -2.09632982e-02 -8.07987973e-02 +2.30169877e-01 +1.31212249e-01 -1.00666448e-01 -7.32364804e-02 -3.81748155e-02 +7.77314305e-02 +1.41491011e-01 -1.76027894e-01 -1.72733918e-01 -1.53520837e-01 +7.97900409e-02 +6.70033768e-02 -1.60603270e-01 +2.25731544e-02 +9.78178382e-02 +7.39880502e-02 -1.53586447e-01 -1.53514385e-01 -1.21204853e-01 -4.87995185e-02 -1.88683718e-01 +4.49691452e-02 +3.03416755e-02 +1.46913260e-01 +2.03869236e-03 +1.59057170e-01 -3.25944759e-02 -4.28929925e-02 -1.68069720e-01 +4.09888662e-03 +3.49270292e-02 +9.66892950e-03 +6.08540252e-02 -6.00827634e-02 +7.80539289e-02 +2.73960214e-02 +1.34047225e-01 -6.42047971e-02 -1.32522926e-01 +1.86749130e-01 +1.85208216e-01 +2.14711979e-01 -3.43315564e-02 -8.60501081e-02 +8.24982822e-02 -1.79381311e-01 +1.53853491e-01 +2.47243941e-02 -1.16406292e-01 +2.41940431e-02 -9.97020751e-02 -8.12215209e-02 -5.14828563e-02 +1.72136351e-01 +1.98572446e-02 +1.24758355e-01 +9.55258030e-03 +9.74837393e-02 +5.59658632e-02 -6.87547699e-02 +1.32325694e-01 +1.71590790e-01 -2.03780662e-02 -3.29453759e-02 -6.26127701e-03 +1.40197590e-01 -6.61739409e-02 -1.80603925e-03 -6.26063254e-03 +6.59209713e-02 +1.20219909e-01 +9.29471105e-02 +3.13844159e-02 -1.70813397e-01 -1.53613267e-02 +1.22196995e-01 +4.33420278e-02 +5.10628447e-02 -1.31389767e-01 +8.94271284e-02 +3.77847515e-02 +1.64061457e-01 -1.64318413e-01 +1.30358428e-01 -1.09636575e-01 -8.02625716e-02 +4.37242761e-02 +3.95047739e-02 -4.31075282e-02 -6.14765882e-02 +1.70512144e-02 +7.40900040e-02 -2.61257440e-02 +2.94531509e-02 +4.18765545e-02 +9.06712115e-02 +1.03499338e-01 +4.94210087e-02 +1.26558080e-01 -1.89947039e-01 -7.97488242e-02 -7.40803257e-02 +1.27594233e-01 -8.97193551e-02 +5.62265739e-02 -5.04275337e-02 +1.36090955e-02 -4.57702130e-02 -6.71538487e-02 +8.09278339e-02 +1.36919484e-01 -1.24774076e-01 +1.59266442e-01 +1.50213856e-02 -6.77917525e-02 +3.25668752e-02 +1.54172340e-02 -1.64540902e-01 -6.16875179e-02 +8.21189955e-02 +7.15250745e-02 -8.47843960e-02 -4.78418805e-02 -1.98892564e-01 +7.41053224e-02 -1.49790227e-01 +5.84963113e-02 -9.08269137e-02 -1.86244666e-03 -2.35930264e-01 +1.35050952e-01 +9.07743126e-02 +1.17399506e-01 +2.88574062e-02 -5.19600511e-02 +1.37922261e-02 +4.17194925e-02 +8.60398710e-02 +1.01261042e-01 +6.54066876e-02 +5.68079948e-02 +9.29358229e-02 +1.15350097e-01 -1.65003091e-02 +8.46720636e-02 -2.36384884e-01 -4.66615781e-02 -1.31779715e-01 -1.27347693e-01 -2.94266809e-02 -1.11943960e-01 +1.10016584e-01 -1.23829767e-01 +8.50352459e-03 -1.53140768e-01 +2.51468290e-02 +4.23045047e-02 +9.83328819e-02 +3.71899195e-02 -4.61313240e-02 +5.49156144e-02 -1.71695843e-01 -6.45361096e-02 -1.15882695e-01 -1.12912998e-01 -1.83650870e-02 +6.30304068e-02 +1.66375324e-01 -3.66781023e-06 -5.69552463e-03 -2.61808094e-02 +3.49719450e-02 -2.00438709e-03 -1.56155124e-01 -5.70543036e-02 +6.14186078e-02 -4.01003137e-02 +1.70263171e-01 -1.21782117e-01 +1.28528342e-01 +1.40867546e-01 +8.20450932e-02 +3.57562453e-02 +1.24176010e-01 -1.61003873e-01 -9.68222320e-03 +7.27334917e-02 -5.28850965e-02 -8.02583322e-02 -1.71201319e-01 +3.55698317e-02 +5.78864105e-02 +1.60494447e-02 -1.31127581e-01 -7.41990954e-02 +2.61119723e-01 -2.42155548e-02 +1.48612648e-01 +1.13280170e-01 +8.95914361e-02 +7.92464335e-03 -8.00108630e-03 +6.03938401e-02 -9.31694359e-03 -1.84309669e-02 +7.68089667e-02 +7.37461895e-02 +1.22613356e-01 -2.21143775e-02 +1.07106477e-01 -7.20049292e-02 -9.57009718e-02 +1.00625023e-01 +1.11057842e-02 -9.07214545e-03 +1.15217708e-01 +1.20436542e-01 +6.88379183e-02 +8.80412981e-02 -7.17422180e-03 +9.39380452e-02 -1.33323923e-01 +1.70620546e-01 +5.65901212e-02 +1.40770674e-01 +9.81866941e-03 +2.88659837e-02 -1.04944538e-02 -5.33233816e-03 +1.29662737e-01 -7.17808232e-02 -2.58390363e-02 +9.48341936e-02 +2.68085189e-02 +4.45107520e-02 +6.37763366e-02 +9.20496136e-02 -8.47643539e-02 +5.47939464e-02 +1.31033942e-01 -1.02409266e-01 -9.57768932e-02 +1.34201989e-01 -3.30968983e-02 +1.68765172e-01 +2.96126325e-02 +1.41026564e-02 -1.03004940e-01 -1.35419697e-01 +9.46185887e-02 +4.70105410e-02 +2.39567369e-01 +2.81425621e-02 +9.50509757e-02 -9.52269956e-02 +2.22187012e-01 +1.32982820e-01 +1.15697615e-01 +1.09950989e-01 -6.52943999e-02 +1.20764002e-01 -6.57940730e-02 +1.30653754e-01 -1.45961381e-02 -3.13424505e-02 +9.99810174e-02 +2.27723762e-01 +2.33788610e-01 +8.69691521e-02 +5.80066722e-03 +1.91027120e-01 +1.84889182e-01 -1.14771143e-01 +1.17036521e-01 -8.10990017e-03 +1.58579618e-01 -5.51733449e-02 +2.52407640e-02 +2.17561498e-01 +3.93520407e-02 +6.63433131e-03 -6.19468391e-02 +5.78032322e-02 +1.39913067e-01 -1.20438933e-01 +1.75127834e-01 +1.28867149e-01 +4.42778915e-02 -4.82791439e-02 +9.66962427e-02 +1.17785349e-01 +2.06230730e-01 +1.75169185e-01 -1.06099285e-01 -4.13279645e-02 +1.78328246e-01 +6.99845478e-02 +1.28713340e-01 +7.38403499e-02 -1.32648006e-01 -9.77645293e-02 +1.21348323e-02 +2.59302519e-02 +1.04748327e-02 +7.44865760e-02 +7.51438960e-02 +7.24977925e-02 +1.12719283e-01 -3.95141914e-02 -5.27903140e-02 -5.36808223e-02 -4.52341652e-03 +6.59564696e-03 +1.07262686e-01 -3.42640989e-02 +1.27698272e-01 +8.65432844e-02 +2.10634843e-01 -1.01390012e-01 -6.99642748e-02 -2.96855867e-02 -1.99803501e-01 +2.09539682e-01 -7.03528523e-02 +2.12681741e-01 +2.86521818e-02 +1.18807770e-01 -1.07557200e-01 +4.92506362e-02 +6.46705702e-02 +6.41937181e-02 +3.27878743e-02 +1.07023567e-01 -9.60026160e-02 -1.60951272e-01 +8.56413320e-02 +2.70027611e-02 -2.65200865e-02 -9.02400613e-02 +9.79116112e-02 +2.49628555e-02 -1.19907953e-01 +1.04940705e-01 -4.18845192e-02 +1.18287820e-02 -9.09805596e-02 +3.75245959e-02 -1.64395109e-01 +8.61168932e-03 -1.48265705e-01 +6.60917535e-02 +3.10885072e-01 -9.82460624e-05 -3.78828235e-02 -5.85100316e-02 +1.34761304e-01 -7.39268661e-02 +1.33857161e-01 +8.24855939e-02 +7.28028491e-02 -1.09221670e-03 +4.90031093e-02 +1.25339255e-01 -1.42653227e-01 -5.96830621e-02 -3.17580439e-02 +1.71167076e-01 +5.07973582e-02 -2.11437885e-02 -6.44242615e-02 +9.95409042e-02 +1.14291847e-01 -4.84392792e-02 +8.62148255e-02 -9.90864262e-02 +6.85374215e-02 -6.30712733e-02 -1.09126382e-02 +1.62814409e-01 -7.68719167e-02 +1.86977517e-02 -2.36516185e-02 -6.90147430e-02 +1.29100874e-01 -1.17884956e-01 +1.20102689e-01 -2.53038928e-02 +2.44902775e-01 -5.96262962e-02 -3.92063856e-02 -6.37479872e-02 +4.47898284e-02 +6.91106543e-02 -3.85040939e-02 -6.80137724e-02 -1.20661609e-01 +1.18270643e-01 -1.72929958e-01 +1.58016741e-01 -5.02105206e-02 +2.51120236e-02 +3.90531383e-02 -5.10472432e-02 +5.12558548e-03 -2.69793184e-03 -2.22311132e-02 -3.44421603e-02 +4.31435974e-03 +1.38555735e-01 -2.36611275e-04 +9.26264450e-02 -1.08613126e-01 -4.54998538e-02 +8.41614138e-03 +4.66598338e-03 +1.08571298e-01 -1.29576191e-01 +8.32936019e-02 -1.14424780e-01 +6.88788220e-02 +1.60292894e-01 -1.70581918e-02 -7.66160563e-02 -4.72888313e-02 -9.68052745e-02 +8.89288709e-02 +9.03943554e-02 -3.30188125e-02 +4.26613055e-02 -6.66591153e-02 +1.44189805e-01 -1.34731948e-01 +1.18450254e-01 +7.34252259e-02 -6.28757849e-02 +9.70281288e-02 +2.20138896e-02 +4.23374660e-02 -1.15256391e-01 +3.75581570e-02 -9.76631939e-02 +3.61039005e-02 +1.45324459e-02 -1.71701640e-01 -8.17699637e-03 -3.94127667e-02 +1.36571422e-01 +5.62569089e-02 -1.46147693e-02 -7.83951860e-03 -1.05812803e-01 +5.09542450e-02 -1.06044590e-01 +7.75665715e-02 +7.30539784e-02 +2.19974406e-02 -1.78467911e-02 -1.31007344e-01 -1.14051566e-01 +9.37252566e-02 -8.32958799e-03 +4.34345305e-02 +9.80051011e-02 +1.28290042e-01 +4.17177863e-02 -6.68820590e-02 +1.46826571e-02 -2.05259830e-01 +6.23548925e-02 -1.37461275e-01 +5.07720895e-02 +1.23150431e-01 -5.10679446e-02 +8.36054459e-02 +4.27908674e-02 -1.27539277e-01 -3.92332524e-02 +1.82420775e-01 -8.17877706e-03 -6.98068812e-02 +5.63722216e-02 +7.25533292e-02 -6.66712672e-02 -1.10020101e-01 -3.84143852e-02 +4.03849967e-02 +6.42646998e-02 -3.83554809e-02 +5.41652739e-02 +8.29912871e-02 -1.10515118e-01 +1.71709177e-03 -1.66757554e-02 -3.95635106e-02 +8.92900378e-02 +7.86256418e-02 -5.72507270e-03 -1.29044220e-01 +3.49278152e-02 -5.16556911e-02 +6.62580645e-03 -4.91678156e-02 +4.36349697e-02 -2.46255528e-02 -5.72868548e-02 -1.21962547e-01 -7.69053102e-02 +5.68557903e-02 +7.16611594e-02 +1.71667770e-01 +5.58024235e-02 -5.93602471e-02 -5.14192460e-03 +7.31846169e-02 +1.34519162e-02 +1.32046685e-01 -3.47110070e-02 +9.31110755e-02 -8.18987042e-02 -5.98967588e-03 -5.71287833e-02 +8.38186294e-02 +1.06162101e-01 +8.26659650e-02 -4.03055809e-02 +8.71638358e-02 -1.08077958e-01 +4.51654121e-02 +6.71083899e-03 +1.82403296e-01 +6.32656664e-02 +5.97689184e-04 +2.60139763e-01 +2.40819007e-01 +1.29676551e-01 -6.96596354e-02 -6.09779395e-02 +1.03593543e-01 +7.22558051e-02 -3.32479477e-02 -1.22023029e-02 +1.30032122e-01 +1.46775782e-01 -3.52593837e-03 +1.59578159e-01 +3.09715630e-03 +4.90693599e-02 +6.30282760e-02 +6.24336004e-02 +1.39195338e-01 +3.81395966e-02 +8.71805698e-02 +4.78164628e-02 +7.81318098e-02 +6.41386211e-02 -8.42354372e-02 -1.14467151e-01 +5.04437573e-02 -8.12884942e-02 -6.50633574e-02 +1.29455198e-02 -1.06017463e-01 -1.02520369e-01 +1.82550550e-02 -2.26248754e-03 -6.77928925e-02 +1.25299349e-01 -2.51948200e-02 -3.37251388e-02 -1.58891290e-01 +7.23863319e-02 -9.86038595e-02 +1.98528413e-02 -1.20933721e-04 +1.03645414e-01 +1.01077454e-02 +2.12056506e-02 +5.96545301e-02 -5.12692407e-02 -1.43379020e-02 -7.93457031e-02 +1.47428483e-01 -7.22127855e-02 -2.01711785e-02 +3.86080667e-02 +2.74206042e-01 +1.56242102e-01 -7.25051388e-02 -7.67025724e-02 +8.67513269e-02 +6.67523518e-02 -8.87741446e-02 +2.13939324e-02 +1.18883908e-01 +4.53193523e-02 +2.26735994e-01 -5.30913956e-02 +1.25408843e-01 -4.41214740e-02 -1.10748084e-02 -2.26661235e-01 -4.37916666e-02 +1.13442183e-01 -1.42767141e-02 -8.20313022e-02 -2.31998451e-02 +4.87436540e-02 -4.14620750e-02 -1.31715685e-01 +2.38190815e-01 -1.85650401e-02 +5.84613830e-02 +1.25219747e-02 +9.67284143e-02 -1.65472537e-01 +6.71753138e-02 -9.25145745e-02 +2.00312376e-01 +1.23018408e-02 +1.66649465e-02 -1.30342664e-02 +2.66908370e-02 -5.97924404e-02 -3.93197387e-02 -3.30989808e-02 +1.10009000e-01 +6.83956295e-02 +1.33798316e-01 +1.42556699e-02 +1.71530470e-01 +8.50804076e-02 -6.42118603e-02 +1.69900149e-01 -5.61462194e-02 -8.54297727e-03 -3.32818702e-02 -1.87454224e-01 +1.01158045e-01 -5.13745286e-02 +1.16822414e-01 +1.64482951e-01 +1.25220623e-02 +1.27740726e-01 -7.23263174e-02 +2.46483162e-01 -1.97328284e-01 -1.76810279e-01 +1.25405520e-01 +6.99566230e-02 +1.23633131e-01 +1.53738990e-01 +9.28212181e-02 +9.72054675e-02 -2.15235934e-01 -1.10740565e-01 -1.23705618e-01 +7.63460249e-02 +4.65843119e-02 +4.67349254e-02 -6.11044951e-02 -1.53003028e-02 -1.71929121e-01 -2.75419392e-02 -2.90308483e-02 +4.44915220e-02 -6.72877440e-03 +3.88793126e-02 +1.53722584e-01 -1.13102615e-01 -3.81283797e-02 -2.53458284e-02 +2.41976567e-02 -6.32790942e-03 -1.74907193e-01 +1.90030664e-01 +1.03650518e-01 +4.64961398e-03 +3.96165550e-02 -4.71534254e-03 -6.43286332e-02 -7.82654285e-02 +1.53380498e-01 +1.08253054e-01 +2.10587263e-01 -1.19862640e-02 +6.73678666e-02 +1.89232469e-01 +4.13433276e-02 +8.25704858e-02 -1.13008745e-01 +7.99221098e-02 -2.32638597e-01 +3.78326476e-02 +1.16381356e-02 +2.29195263e-02 +1.64296106e-01 -7.03781024e-02 -1.44947395e-02 +6.65052980e-02 -1.73531733e-02 -1.54687300e-01 -1.46979615e-02 +1.44276455e-01 +4.30258773e-02 -1.72273785e-01 -9.38199684e-02 -1.55841960e-02 -2.08824217e-01 -1.56766325e-01 +1.31119505e-01 -6.66698366e-02 -1.11027449e-01 -7.24083930e-02 +3.80289108e-02 -9.58610699e-02 +1.29930511e-01 -6.74523562e-02 +9.58824307e-02 -8.23691636e-02 +1.17612667e-01 +1.36894092e-03 +5.08021563e-02 +1.37558520e-01 -1.56594485e-01 -1.34611025e-01 +4.94094985e-03 -8.57681483e-02 -1.53868109e-01 -4.92483415e-02 -8.09287727e-02 +6.84870631e-02 -4.43734378e-02 +1.83882281e-01 +1.70751855e-01 -1.87854301e-02 -1.28797755e-01 -2.58730978e-01 -3.87549847e-02 +3.21279354e-02 -1.47749066e-01 