#Parameter# /vanilla-lstm-builder/_0 {400,21} 134401 ZERO_GRAD
-1.40439260e+00 +1.21266305e+00 +5.65223336e-01 +1.63007867e+00 -1.26213031e-02 +8.15351963e-01 +8.24959815e-01 +2.87724674e-01 -1.84681225e+00 +1.63850725e+00 -6.69539869e-02 -2.91523263e-02 +1.05394888e+00 +1.15188196e-01 +1.54759693e+00 +9.14538205e-01 +1.57857731e-01 +1.88115180e-01 +1.04744577e+00 +4.25903320e-01 +1.90122619e-01 -4.48369712e-01 -2.29629174e-01 +1.10378015e+00 -2.02096011e-02 +2.21763238e-01 +1.05565035e+00 +6.97171211e-01 +1.14655685e+00 -4.21052098e-01 -1.99155137e-01 +7.96198308e-01 -2.15875190e-02 -1.36070445e-01 +6.48358345e-01 +2.66014248e-01 -9.32264626e-01 +2.92305499e-01 +1.52945650e+00 +3.78815532e-01 +4.43972796e-01 +3.25684637e-01 +1.65641576e-01 -1.03281724e+00 +2.51171023e-01 +3.28460246e-01 -1.94973671e+00 +9.42647636e-01 +8.91686261e-01 -3.02140880e-02 -4.85742956e-01 -1.04724489e-01 +4.42898124e-01 +3.90887484e-02 -1.50863063e+00 -1.81770653e-01 +8.54898840e-02 -3.61356199e-01 +2.25070074e-01 +2.57869095e-01 +1.62518322e+00 -1.51510584e+00 +2.38715962e-01 -1.36977458e+00 -2.40203947e-01 +8.77903700e-01 +1.84083128e+00 -4.17634875e-01 +1.83470929e+00 +5.30954838e-01 +1.32321692e+00 -5.18971324e-01 +1.35706329e+00 -6.46384120e-01 -2.05349013e-01 -6.17623091e-01 +1.08109534e+00 +4.65006977e-01 -1.37900531e-01 -9.03459609e-01 -3.47185493e-01 +8.05212796e-01 +5.88342488e-01 +5.81666827e-01 -2.64946491e-01 +6.11162633e-02 -6.36721849e-01 +1.43970549e+00 +1.12890565e+00 +8.70696723e-01 +6.31094217e-01 +4.00877982e-01 +7.86869228e-01 -5.23267090e-01 +8.59473884e-01 +6.32967532e-01 +7.26962388e-01 -4.16906238e-01 +1.99995935e-01 -7.28829145e-01 -6.51492178e-01 -8.15827549e-01 -1.80903330e-01 -3.36152852e-01 -7.25456595e-01 -1.09794110e-01 -6.93482995e-01 -5.77370226e-01 -3.61872941e-01 -7.56581724e-01 +2.07051650e-01 +1.07559882e-01 -8.09467554e-01 -4.72106546e-01 -7.46577144e-01 -1.28712702e+00 -7.44160950e-01 -1.14581192e+00 +9.49583054e-01 -4.49076891e-01 -5.29414117e-01 -2.97836095e-01 -6.16530359e-01 -1.87743917e-01 -4.23431277e-01 -2.16783643e+00 -1.79159391e+00 -5.20509064e-01 -3.16761225e-01 +7.91243017e-01 -3.31120789e-01 -6.13751113e-01 +3.92259032e-01 -9.20939386e-01 -6.04353189e-01 -2.90404648e-01 -5.15215456e-01 -8.59475017e-01 -8.79967809e-01 -4.41105813e-01 -5.45677781e-01 -3.40888828e-01 +4.29468215e-01 -8.00729513e-01 -9.40123618e-01 +6.71903431e-01 -7.14668751e-01 -5.60488820e-01 -8.62382114e-01 -2.78423756e-01 -9.43287015e-01 -9.42859128e-02 -9.32945073e-01 -1.30262911e-01 -3.65414441e-01 -9.94000316e-01 -6.49279416e-01 -7.01552510e-01 +2.98097461e-01 +2.49708798e-02 +4.34273630e-01 -3.25117826e-01 -2.11229026e-01 -5.84596097e-01 +5.55726230e-01 -1.69897366e+00 -4.01143581e-01 -8.48522857e-02 +3.86967927e-01 -1.10479140e+00 -6.93821609e-01 +2.30057254e-01 -1.87051082e+00 -1.61459446e+00 -3.96185338e-01 -1.25869989e-01 -1.70999229e+00 -7.18392670e-01 -4.33105379e-01 -2.05222353e-01 +1.16346940e-01 -8.72742891e-01 -1.95474848e-01 +3.96836596e-03 -4.63323414e-01 +4.76638675e-01 +9.47462320e-01 -6.83443248e-01 +2.11128846e-01 -4.05266911e-01 +2.98613906e-01 +4.08292204e-01 -4.15267110e-01 -3.36455345e-01 -7.59408295e-01 +1.17121613e+00 -1.13214147e+00 -4.42818701e-01 +2.21051276e-03 +3.90277624e-01 -1.61352742e+00 +1.01794362e+00 +3.79878223e-01 +8.06832075e-01 -1.30377002e-02 +5.30596554e-01 +3.71949494e-01 +1.29666373e-01 -3.46009195e-01 +1.19010150e+00 +2.09506869e-01 +1.48217276e-01 +6.99766695e-01 -3.59315276e-01 +1.03936088e+00 +8.52506995e-01 -7.82918707e-02 -3.63411695e-01 +7.15681016e-01 -1.59344241e-01 -2.18088925e-01 -3.42270583e-01 -4.42706734e-01 +1.40118992e+00 -3.43791753e-01 -3.26761067e-01 +4.11233693e-01 +3.66878688e-01 -2.44115125e-02 -3.75194609e-01 -2.07323879e-01 -4.03110176e-01 -4.00293589e-01 -3.79451841e-01 +5.51488400e-01 +7.18337059e-01 -3.96912009e-01 -7.07039118e-01 +3.03449780e-02 -9.92124677e-02 -1.89353049e-01 -4.57746983e-01 +2.67899752e-01 -8.15128207e-01 +4.95165102e-02 +6.98379695e-01 -1.07721996e+00 +8.92471075e-01 +6.81696057e-01 -1.94427669e-01 -7.09202170e-01 -1.08515513e+00 +5.16387448e-02 +2.60311455e-01 +8.87021944e-02 -6.41714871e-01 +4.80169058e-01 -1.14247108e+00 +4.40503001e-01 +2.23331764e-01 +1.13318217e+00 -6.67712212e-01 +7.82658309e-02 -1.30909967e+00 +5.50302505e-01 +7.10812330e-01 +1.03756440e+00 -4.85043615e-01 +1.09504914e+00 +1.96437135e-01 +4.13283646e-01 -7.59131849e-01 +2.76277721e-01 -8.85918021e-01 -9.26079571e-01 -9.37079132e-01 +6.18766010e-01 +6.09228872e-02 -6.27468705e-01 -1.03744018e+00 -2.67852843e-01 +1.24070659e-01 +5.27741790e-01 +1.17474723e+00 +6.94699064e-02 -1.54927284e-01 +1.48024082e-01 +6.95431054e-01 +6.18997812e-01 +1.72381476e-01 +2.07806155e-01 +3.60251427e-01 +3.67992908e-01 -6.24624908e-01 +3.70048851e-01 +4.94326323e-01 +4.75253671e-01 -2.96165377e-01 -2.36351907e-01 -1.80049390e-01 -1.67952046e-01 +5.24176300e-01 +5.23966312e-01 +9.15936589e-01 -4.18424338e-01 -1.01951551e+00 +1.18410504e+00 +8.73658717e-01 -4.59452510e-01 +1.54736137e+00 -1.29877239e-01 -8.84901643e-01 +9.07692313e-01 +1.02374113e+00 -1.56159353e+00 +1.01062989e+00 +2.74263263e-01 +9.07732785e-01 -1.09582150e+00 +1.22309363e+00 +1.35358667e+00 -3.33589524e-01 +5.27591646e-01 -8.97108674e-01 +9.99427021e-01 -4.27495599e-01 -1.39037287e+00 +1.27539945e+00 +1.43273938e+00 +1.25006273e-01 -2.91393816e-01 +1.58640003e+00 -6.77815795e-01 -3.74571174e-01 -1.01724398e+00 +3.32293868e-01 +1.35509282e-01 -9.20198500e-01 +1.45863593e+00 -1.00730622e+00 -9.50650990e-01 -5.36537051e-01 -1.95136860e-01 +8.98916945e-02 +4.61924195e-01 -1.96592307e+00 -7.44141499e-03 +1.17297018e+00 -1.36922336e+00 +9.41106603e-02 +4.64005888e-01 -1.46479994e-01 -8.64067912e-01 -1.16890274e-01 -2.94551790e-01 -9.68488038e-01 +2.34697744e-01 -1.72611028e-01 -3.31984609e-01 +9.74950731e-01 +1.61915529e+00 +9.61200073e-02 +5.20291865e-01 +1.66637361e-01 -4.90939664e-03 -1.78418362e+00 -9.61346090e-01 -3.96625876e-01 -1.39666927e+00 +9.90136623e-01 -1.15033376e+00 -3.53091776e-01 +1.39482951e+00 +1.02078363e-01 +5.34087002e-01 +3.36820960e-01 +1.57274663e+00 -1.16555750e+00 +6.47297561e-01 +5.87021887e-01 +3.19826424e-01 -8.70601296e-01 -7.43127346e-01 -7.41933107e-01 +3.71383667e-01 -1.14126003e+00 -3.74469790e-03 +1.56371987e+00 -2.11703324e+00 -1.25292158e+00 +6.62239909e-01 +6.34464622e-01 -6.99985325e-01 +3.68959814e-01 -1.12423825e+00 +6.57035649e-01 -1.65824383e-01 +6.30705893e-01 -1.30663827e-01 -1.85256675e-01 +2.45748669e-01 +1.07793398e-01 +7.24572301e-01 -4.71204184e-02 -2.07203165e-01 -1.65485576e-01 +6.19494379e-01 +1.19181621e+00 +1.42824948e-01 -1.89996138e-01 +1.55209780e-01 +6.71787858e-01 +1.50668240e+00 -1.20827876e-01 +8.69836032e-01 -1.10332334e+00 -9.26801562e-01 +1.09425735e+00 -1.17679095e+00 -9.68889743e-02 +1.19161963e+00 +2.14760788e-02 +1.20456707e+00 +9.69455779e-01 +8.83315861e-01 +6.33610964e-01 +5.74110270e-01 +6.98520541e-01 -9.33003545e-01 +2.92934686e-01 +5.23538291e-01 -2.28971004e-01 -1.74002624e+00 +5.69429100e-01 +6.41452789e-01 +3.00050378e-01 -6.07305586e-01 +8.15157235e-01 -7.22738266e-01 -2.17704594e-01 +2.47576475e-01 -5.18392384e-01 +7.51758933e-01 -3.42276879e-02 +3.02430063e-01 +1.23145282e+00 +8.75469267e-01 +3.48799020e-01 +7.50743225e-02 -3.53293389e-01 +2.98670292e-01 +1.77392457e-02 -1.70416951e-01 -1.46643385e-01 -7.51138628e-01 +4.61452872e-01 -9.11555648e-01 +1.23019946e+00 -4.16372091e-01 +1.13236380e+00 -5.70648909e-01 -1.24173939e+00 -5.97209513e-01 +3.66491258e-01 -1.43476456e-01 +4.54546720e-01 +3.64506930e-01 +1.31404650e+00 -1.16150045e+00 +2.65424997e-01 +3.22934598e-01 +1.32802010e+00 +1.09338772e+00 +1.46952343e+00 +4.56207573e-01 -2.31201768e-01 -8.71321261e-01 -5.14860332e-01 +6.47159696e-01 +7.53623903e-01 -6.60807639e-02 +9.84494090e-01 +1.22522402e+00 -2.35775143e-01 +7.71095812e-01 -5.36972308e-04 +7.26834893e-01 -1.66517591e+00 +4.58131909e-01 -1.98637557e+00 +6.30677462e-01 -6.80503964e-01 +5.33535071e-02 -6.91414595e-01 +1.47233999e+00 +4.40878928e-01 +3.57280999e-01 +1.51670384e+00 +3.23168069e-01 +1.51021518e-02 -5.33033311e-01 +7.38273025e-01 +9.43586111e-01 +1.74492687e-01 -9.55696464e-01 +7.23538220e-01 -6.62395895e-01 -1.35119706e-01 -3.53082605e-02 -3.29671621e-01 -1.69379294e-01 -6.15018129e-01 +3.93544614e-01 +4.01624173e-01 -1.20877433e+00 -1.32238105e-01 -6.31345689e-01 +2.36776352e-01 -6.48041964e-01 +3.63582313e-01 +4.43752974e-01 -1.56673443e+00 -4.23997134e-01 +5.80723211e-02 -1.06307223e-01 -1.47883904e+00 -2.62138873e-01 -7.55165994e-01 -6.80885971e-01 -3.29334140e-01 -2.52546936e-01 +6.81466162e-02 -1.11574829e+00 -5.78924835e-01 -3.26945662e-01 +3.08208942e-01 -2.95037955e-01 +4.35980737e-01 +1.83264129e-02 -2.05129653e-01 +4.85761017e-01 -5.36801994e-01 -3.62937480e-01 +8.44918370e-01 -9.04234171e-01 -7.92144656e-01 +3.68146032e-01 -4.63685840e-01 -1.70594382e+00 +1.84031740e-01 -1.63660973e-01 +3.47193986e-01 -4.37865257e-01 -2.40676254e-01 +7.26141214e-01 +6.04026794e-01 -6.82755768e-01 -6.06988549e-01 +3.91932279e-01 -1.73711758e-02 -5.62304437e-01 -3.78084123e-01 +8.85738432e-02 -3.42223719e-02 -3.21372837e-01 -4.96763527e-01 -3.65650922e-01 +1.22145519e-01 -4.07354608e-02 -1.54071336e-03 +3.62225212e-02 -4.92569745e-01 -2.22077703e+00 -7.14444160e-01 +3.79281133e-01 -5.36235459e-02 -4.53321993e-01 -6.44005418e-01 -1.36273384e+00 +3.57005522e-02 +7.35455394e-01 +1.84539333e-03 -9.21763301e-01 -5.95817007e-02 +1.46004722e-01 -2.64137655e-01 -8.62021893e-02 -7.13619232e-01 -3.02024156e-01 -2.45958418e-01 -3.42146784e-01 -3.87347452e-02 -3.81044298e-01 +1.51561841e-01 -5.02388999e-02 +6.12849355e-01 -2.46124968e-01 -9.20095667e-02 -1.89892754e-01 -4.88634221e-02 -1.64181143e-01 -2.00528920e-01 +7.35906482e-01 -3.32960963e-01 -6.92984164e-01 -4.88991708e-01 -2.20977813e-01 +6.86507642e-01 -8.59584659e-02 -6.55426621e-01 -2.41406620e-01 +1.16174936e-01 +1.03432822e+00 -2.25859672e-01 +6.57798707e-01 -1.04233213e-01 -1.64580166e+00 +3.13411564e-01 -5.58858216e-01 +5.62093314e-03 +4.86303091e-01 -1.98459789e-01 +1.66036165e+00 +6.78592682e-01 +9.27013695e-01 +1.63427323e-01 +4.12188619e-02 +9.73965228e-01 -4.14729953e-01 -6.73414692e-02 -5.65596700e-01 +1.53190558e-04 -1.70685756e+00 -1.07934214e-01 -2.84554332e-01 +5.40073693e-01 -1.84613764e-01 +1.31510943e-01 +2.05899194e-01 +2.31931895e-01 -3.13219756e-01 -9.81930971e-01 +6.53523028e-01 +6.50195479e-01 -1.07986247e-02 -5.56825399e-01 -2.82301426e-01 +5.77768385e-02 -8.72389555e-01 -8.38658631e-01 +2.01612607e-01 -4.07477885e-01 -2.57479906e-01 -1.34218276e+00 +7.53538013e-01 +1.36860326e-01 -1.19694865e+00 +1.08181036e+00 +4.81819749e-01 -2.95050722e-02 -7.43922770e-01 +1.79216992e-02 -5.50435424e-01 +3.64455223e-01 +5.39875031e-01 -2.57424433e-02 +4.98866253e-02 +1.29875588e+00 -3.69005531e-01 +8.41887742e-02 +6.61746264e-01 +8.72798264e-01 +1.55592465e+00 +1.02987373e+00 -1.37810349e-01 -1.57092428e+00 -1.39617574e+00 -8.31899762e-01 -2.65720904e-01 +4.04776663e-01 +3.40184242e-01 +9.14113522e-01 +9.62552607e-01 +5.84814437e-02 +5.64156353e-01 -5.01352191e-01 +6.17238820e-01 -1.44402564e+00 +3.48320842e-01 -9.19770956e-01 +4.82097678e-02 -3.39943677e-01 -2.14453459e-01 -2.32892618e-01 +5.79508960e-01 +1.70058042e-01 -4.76600170e-01 +1.43762958e+00 +3.11900944e-01 -3.78062397e-01 +5.94802558e-01 +7.59210624e-03 -2.13740975e-01 -9.08183157e-02 +4.83504891e-01 +8.34977776e-02 -1.26700068e+00 -1.06640494e+00 -1.06859803e+00 -6.10012352e-01 -9.03799653e-01 +5.24560548e-02 -1.62850523e+00 +7.40200222e-01 -8.01527679e-01 +2.05566660e-01 -9.88172088e-03 -7.16549456e-01 -5.70757240e-02 -9.03172195e-01 -1.42615128e+00 -6.24715924e-01 +1.36033344e+00 -1.13030624e+00 -6.10083163e-01 +6.75945058e-02 -1.08387530e+00 +1.69896913e+00 -5.22508740e-01 +6.30361199e-01 -8.06576133e-01 +8.66793036e-01 -7.02191591e-01 +5.00526845e-01 +8.50896716e-01 +8.90579402e-01 -2.23260298e-01 -9.74885881e-01 -3.15597504e-01 -6.70785680e-02 -5.91890931e-01 +1.97197258e-01 -5.88802218e-01 +9.57774103e-01 -1.07941198e+00 +2.66799241e-01 +1.02589655e+00 -9.30421591e-01 +4.92036551e-01 -2.59938896e-01 -5.08866847e-01 +3.61842185e-01 -7.06192613e-01 -1.70980349e-01 +5.52060176e-03 -4.56706464e-01 -4.73027267e-02 -1.22099113e+00 +4.17486817e-01 -1.55409360e+00 +1.44888401e-01 -6.34738207e-01 +8.09243992e-02 +9.44436073e-01 -9.47414458e-01 -7.65017867e-01 +5.46062410e-01 -1.39512563e+00 -3.62825155e-01 -6.21996820e-01 +8.79235327e-01 +8.79093826e-01 +2.22905540e+00 +1.70976734e+00 -1.73908699e+00 +2.40285635e-01 +1.13691367e-01 +7.41562918e-02 -1.41338348e+00 +9.75757480e-01 -3.28866243e-01 -7.96070218e-01 -1.39934313e+00 +5.24330176e-02 +4.89681900e-01 +3.56114544e-02 -8.09774756e-01 +3.03325742e-01 +1.30881381e+00 +7.63564184e-02 -6.41050279e-01 -6.63489550e-02 +2.17023969e-01 +3.44398290e-01 +6.48286998e-01 -1.08977365e+00 +3.12158912e-01 -5.60671628e-01 +7.91891158e-01 +5.37895739e-01 -1.46828488e-01 -5.47043443e-01 -7.48068035e-01 -1.14686465e+00 -1.64315045e+00 -5.11741817e-01 -4.31592107e-01 -7.95938611e-01 -5.36543071e-01 -5.36738098e-01 -7.34112561e-01 -1.10238588e+00 -5.58312356e-01 -8.54531884e-01 -1.33268893e+00 -1.20731688e+00 +4.08571661e-01 -8.45233560e-01 +2.99802478e-02 -2.16305390e-01 +4.03074801e-01 -7.12687194e-01 -1.15878083e-01 -2.66614348e-01 -3.48074466e-01 -2.04831576e+00 -1.98336333e-01 +2.24212945e-01 -3.86305153e-01 +7.93866161e-03 -8.37377965e-01 +1.09523809e+00 -9.90320921e-01 -8.85924578e-01 -1.08569160e-01 -2.64596015e-01 -8.81901905e-02 -7.86800981e-01 -5.51145852e-01 -1.72688305e+00 -1.64858055e+00 -8.09932590e-01 -6.11994267e-01 +7.68343583e-02 -4.57392991e-01 +6.42978922e-02 -9.19106007e-02 -3.40232313e-01 +5.28511778e-02 -1.86549827e-01 -2.14153990e-01 -3.83365095e-01 -8.23354721e-02 -1.24958706e+00 +1.84693843e-01 +3.04374576e-01 -2.12915599e-01 -2.34424714e-02 -1.70124459e+00 -6.52906418e-01 -8.63693953e-01 -2.96506017e-01 -1.86743259e+00 -8.29941869e-01 +7.26447821e-01 -3.46999466e-01 -5.34913182e-01 +2.59540737e-01 +3.53773475e-01 +1.14119276e-01 +9.03976858e-02 -1.02618504e+00 -4.09506738e-01 -4.55793262e-01 +1.25911221e-01 +8.34239066e-01 -2.74993896e-01 -1.23735964e+00 -1.02015769e+00 -1.62269664e+00 -6.56113744e-01 -8.56332302e-01 +1.06148822e-02 -4.75595772e-01 -1.26628518e+00 +7.46380091e-02 +1.10646570e+00 -3.97711545e-01 -8.04415643e-01 -2.62859225e-01 -1.11901867e+00 -3.69894534e-01 -5.80985606e-01 -1.40582621e+00 -1.96268246e-01 -1.08456087e+00 +7.13543534e-01 +4.00636941e-01 -8.94022703e-01 +1.77734748e-01 -3.34973156e-01 +1.28348804e+00 +1.50677359e+00 +2.38309097e+00 +4.54997212e-01 +5.25288522e-01 +2.74890214e-01 +1.01621771e+00 +2.08332926e-01 +7.61121035e-01 +2.38988698e-01 +5.27989447e-01 +3.47582132e-01 -1.04451597e+00 +1.67252827e+00 -3.04207038e-02 -3.93015712e-01 -8.39768723e-02 +2.29470062e+00 +1.43608287e-01 +9.27941084e-01 -2.96619356e-01 +1.03814769e+00 +6.69980645e-01 +6.18497074e-01 +8.98460090e-01 +2.48020187e-01 +1.87697446e+00 +6.83284879e-01 +3.17803085e-01 +8.45771015e-01 +9.16762829e-01 -6.40053600e-02 +8.75361681e-01 +1.47067392e+00 -3.72537881e-01 -1.65899828e-01 +6.85448945e-01 +4.86605555e-01 -1.75114796e-01 +9.15457547e-01 -5.06109931e-02 -2.14414850e-01 +1.00184083e+00 +1.40660071e+00 +2.36010766e+00 +4.42471988e-02 -5.22446772e-03 +4.96380806e-01 +5.05903959e-01 +8.55321944e-01 +8.89294744e-01 +8.74185145e-01 +1.41296613e+00 +1.09660351e+00 +9.37690318e-01 +1.53367686e+00 -2.37071261e-01 +1.37489653e+00 +5.19283302e-02 +1.39921880e+00 -1.39352366e-01 -7.45693207e-01 -1.05629273e-01 +1.54606652e+00 +3.10621291e-01 +1.66449800e-01 +1.34128714e+00 +3.95735919e-01 -4.60990705e-02 +1.43650842e+00 +1.08665729e+00 +6.53055012e-02 +1.51400864e+00 +6.90368533e-01 +4.11757290e-01 -5.65447450e-01 +3.93849969e-01 +2.00268054e+00 +1.56458700e+00 +1.65507281e+00 +1.65659577e-01 -5.37404656e-01 -7.12884307e-01 +1.15008962e+00 -2.54932959e-02 -1.04089797e+00 +5.84539950e-01 +1.18500865e+00 +6.80083692e-01 +7.08988070e-01 +4.17792976e-01 -6.42237186e-01 -4.03600454e-01 +1.37454331e+00 +8.00233364e-01 +2.08880901e+00 +1.15471922e-01 +2.97342420e-01 +5.42497158e-01 -1.19104600e+00 +1.47390568e+00 +1.13022292e+00 +8.68230402e-01 -3.33410084e-01 -8.13605726e-01 +3.59323025e-01 -1.05776608e-01 -5.80676079e-01 -5.93622804e-01 +9.10568297e-01 +8.48049462e-01 +9.10486639e-01 -7.62736022e-01 +1.22734344e+00 -6.33381724e-01 -6.25777781e-01 -6.45437419e-01 +1.00322831e+00 -7.97187150e-01 +7.36502782e-02 -5.51190317e-01 +4.61610049e-01 -9.09087807e-02 -3.41075361e-01 +1.00163651e+00 -4.13564026e-01 -5.32206446e-02 +8.63582075e-01 +4.52239633e-01 -3.29661518e-01 -1.41165584e-01 -1.44440398e-01 +4.09039259e-02 +8.33431840e-01 -1.02406837e-01 -1.42989650e-01 -2.60724515e-01 -1.45780994e-02 +1.22345999e-01 +3.93892437e-01 -2.68558949e-01 -4.80045289e-01 +1.14671314e+00 +1.02055967e+00 +5.88273823e-01 +2.41896972e-01 +8.84740651e-02 +3.41114610e-01 +2.61181802e-01 +2.90209651e-01 +3.88718694e-01 +9.35712993e-01 -1.47113955e+00 -4.33029056e-01 +1.79267555e-01 +2.67997570e-02 -3.22546899e-01 +6.37660921e-01 -9.45301116e-01 -4.55912411e-01 -9.18126464e-01 -1.04568231e+00 -7.07631826e-01 -5.13938069e-01 -1.13531280e+00 -7.17042834e-02 -4.30970341e-01 -3.38239074e-01 +1.61738798e-01 -5.68940282e-01 -2.28904843e-01 +3.01619202e-01 +2.48338357e-01 -3.16033423e-01 +5.47417045e-01 -1.77826023e+00 -1.38722610e+00 +1.22309399e+00 +1.10381436e+00 -3.55636597e-01 -8.50020289e-01 -7.05407202e-01 +1.71761468e-01 -3.54269296e-01 -6.08710498e-02 -3.98658395e-01 -1.00488949e+00 -8.29418778e-01 -3.23657751e-01 +1.40257940e-01 +3.52150470e-01 -9.05837595e-01 -1.25056446e+00 -1.56844229e-01 +2.08906710e-01 +1.07228518e+00 +2.59462088e-01 -2.86768526e-01 +1.51883081e-01 -1.74281955e-01 +8.23223948e-01 -1.06415069e+00 +2.42070913e-01 +8.53939354e-01 +2.00542018e-01 +2.04160452e-01 +9.28827107e-01 -7.00464606e-01 +2.16719896e-01 +8.00979376e-01 +7.33550131e-01 -2.21264660e-01 -1.32958615e+00 -6.94753587e-01 +8.43436360e-01 -1.03051257e+00 +1.17981863e+00 +1.36166072e+00 +8.33315194e-01 -7.50586748e-01 -1.16085553e+00 -8.17057848e-01 +6.24876678e-01 +6.96674347e-01 -1.11364722e+00 +1.26591101e-01 -7.81750023e-01 +5.44538677e-01 -2.71293223e-01 +2.70017624e-01 +5.88547111e-01 +1.42914623e-01 -2.53293872e-01 +1.27897402e-02 +2.13138252e-01 +7.43063152e-01 +7.10295856e-01 -5.23412339e-02 +3.31408717e-02 -3.42934042e-01 +4.00272220e-01 +4.10284370e-01 -1.97433412e+00 +1.53067183e+00 +1.56254661e+00 -2.27360100e-01 +8.31611633e-01 +9.69715416e-01 +1.63751081e-01 +4.91304174e-02 -3.28270495e-01 -8.88597667e-01 -1.00983655e+00 +6.22367859e-01 +4.54045594e-01 -3.30007970e-01 +1.12359560e+00 -7.07989037e-01 -5.60987771e-01 +5.25557578e-01 +6.67594969e-01 +5.72841346e-01 -7.51284897e-01 +1.88687488e-01 -3.22309673e-01 -5.85699975e-01 +9.48878229e-01 +4.43095297e-01 +7.73224592e-01 -1.21166849e+00 -1.16260326e+00 -9.09768566e-02 +3.55942547e-01 +4.24561828e-01 -7.20657587e-01 -1.10674000e+00 -1.79084599e-01 -1.04129505e+00 -6.81092143e-01 +3.41598332e-01 +4.13311422e-01 +2.72473931e-01 +3.70920151e-01 +3.09867352e-01 -1.09553307e-01 +1.17158771e+00 -4.86575902e-01 +3.28971408e-02 +1.92047507e-02 +1.15368098e-01 +1.28580105e+00 +1.35992482e-01 -2.55109131e-01 -3.09209108e-01 +4.77849245e-01 +1.06531620e+00 +1.40256643e+00 -5.12609184e-01 -1.20605379e-01 +5.17096579e-01 +3.45721245e-01 +8.09202552e-01 -9.06732559e-01 -1.01787102e+00 -1.16406298e+00 -1.64917839e+00 -1.30392778e+00 -1.05509031e+00 -9.13075626e-01 -6.41591072e-01 -2.22614455e+00 -1.19878685e+00 +3.15084279e-01 -1.71295249e+00 +2.95803368e-01 +1.17297053e+00 -1.10671282e+00 -1.25409710e+00 -1.14497089e+00 -1.14862072e+00 -2.24749351e+00 -2.08741140e+00 -1.13100255e+00 +4.19845104e-01 +1.86655354e+00 -1.06335044e-01 -1.76434588e+00 +8.20581764e-02 -4.29837525e-01 +1.17368209e+00 -5.59755303e-02 -1.04485464e+00 -1.02142227e+00 -2.57102132e+00 +6.22118354e-01 -2.95956451e-02 -6.99398577e-01 -1.99154329e+00 -5.51994741e-01 -2.80501544e-01 -1.51992202e+00 -1.17212522e+00 -1.24412906e+00 -1.70660281e+00 +8.06234628e-02 +2.31213599e-01 -3.22676277e+00 -5.26733160e-01 -2.00530589e-01 -9.38731968e-01 +2.95891225e-01 -1.18170846e+00 -7.46992111e-01 +1.12236428e+00 +4.56687003e-01 -2.05073524e+00 -3.17371339e-01 -6.47247672e-01 -8.47308040e-01 -1.72616053e+00 -1.32327712e+00 -1.98606443e+00 -4.14173126e-01 -5.56089520e-01 -7.99788013e-02 -4.98911291e-01 -5.91700673e-01 +3.60939592e-01 -8.16540241e-01 -5.02125502e-01 -2.65475333e-01 -8.36897373e-01 -6.55835688e-01 +6.44441664e-01 -7.60961398e-02 -2.44047904e+00 +8.45321357e-01 -3.95094663e-01 -4.60991442e-01 +2.67913431e-01 -1.26656711e+00 -1.09881699e-01 +3.21785951e+00 -7.59027675e-02 -8.58336926e-01 -1.25928187e+00 -1.52166843e-01 -8.42494011e-01 -1.17563367e+00 -2.24542570e+00 -1.42443419e+00 -1.52296412e+00 -6.55138791e-01 -4.54900712e-01 -5.56665480e-01 +1.29188001e+00 -9.18144703e-01 +1.68878853e-01 +1.61788002e-01 +3.72957349e-01 -3.92871499e-01 -1.46632159e+00 +6.59255862e-01 +1.70234072e+00 -2.69891899e-02 +2.87026405e-01 +2.20925498e+00 +5.84624887e-01 +1.16309786e+00 -1.19750476e+00 +2.00205183e+00 +9.72949445e-01 +1.35623729e+00 +2.97396064e+00 -1.21314609e+00 -3.89550495e+00 +1.10570920e+00 +1.52274704e+00 +1.18585870e-01 -2.50839461e-02 -1.04724014e+00 -6.46317601e-02 +7.85118699e-01 -3.31002057e-01 -2.36723685e+00 +1.42075443e+00 +3.55081296e+00 +1.20806420e+00 +6.22885525e-01 +8.56807828e-01 +1.57952070e+00 +4.70946282e-02 -1.19829206e-02 +1.32683247e-01 -2.23938799e+00 -2.18931103e+00 +6.23382963e-02 +7.44757831e-01 -1.75132012e+00 -1.01643622e+00 -2.34078169e-02 -4.06432569e-01 +1.34734082e+00 -1.88540769e+00 +9.93395567e-01 +3.66048068e-01 -5.51228285e-01 +1.18850976e-01 -6.52720749e-01 +1.05497372e+00 +1.53623164e+00 +1.93708563e+00 +1.33938932e+00 +1.43324959e+00 +3.09701711e-01 +1.23187983e+00 +1.11313331e+00 -1.82580411e+00 +6.17087424e-01 +2.11546278e+00 -1.63561893e+00 -1.04153192e+00 -1.23611784e+00 -5.27081847e-01 -1.77885920e-01 +9.10943270e-01 +8.91479194e-01 +7.40468264e-01 +4.06445302e-02 -1.54702115e+00 +5.42861164e-01 +4.16699737e-01 +1.30083263e+00 +1.05328453e+00 -4.63279605e-01 -2.37248635e+00 -5.80962837e-01 +1.61299694e+00 -9.40999329e-01 +4.53503057e-02 -1.43910795e-01 +4.10676032e-01 -3.76197410e+00 +1.38551521e+00 -1.72715247e-01 -4.51756746e-01 +1.06968880e+00 -4.25386250e-01 +1.24822211e+00 -3.89825761e-01 +1.62287402e+00 -1.51541042e+00 -1.15177488e+00 +1.69227183e+00 +4.97180343e-01 -2.37008739e+00 -1.07514584e+00 +8.27366710e-01 +1.57772732e+00 +1.12085491e-01 +5.20001650e-01 +8.81317183e-02 -2.55685544e+00 +5.89556038e-01 -5.70069075e-01 -1.04589313e-01 +6.73215330e-01 +9.73292291e-01 -2.36347020e-01 -1.47608280e+00 +6.49780989e-01 +1.01252663e+00 +6.18510604e-01 +2.10555530e+00 -6.91774666e-01 +9.44813967e-01 -4.86396790e-01 +2.45752358e+00 +8.84007275e-01 +4.50128943e-01 -1.58773291e+00 +2.55203217e-01 +1.44949913e+00 +1.03804374e+00 -1.26194671e-01 -3.59888881e-01 +1.82642317e+00 +8.02430063e-02 -5.09020388e-01 +1.05854666e+00 -1.05817664e+00 -4.51157868e-01 -9.86106157e-01 -8.15762639e-01 -5.60338832e-02 +1.67940319e-01 -3.33709046e-02 +7.23279655e-01 -1.06293654e+00 -1.30112815e+00 -6.70167729e-02 -7.25999832e-01 +1.49803686e+00 -2.69060493e+00 +1.91387880e+00 -1.03915536e+00 -1.09618425e+00 +1.91995740e-01 +1.28910244e-01 +5.96160233e-01 -1.35238338e+00 -7.71481991e-01 +3.61434519e-01 +1.29897439e+00 +4.06361334e-02 -4.39702794e-02 -4.29329276e-01 -1.13686216e+00 +1.79023886e+00 +1.37461916e-01 -1.51665950e+00 -1.38978672e+00 -6.49055123e-01 +2.20365465e-01 -2.37428164e+00 +3.64508569e-01 +1.76672250e-01 +1.64263654e+00 -9.88712907e-01 -2.09634885e-01 +1.30710006e+00 -1.23059332e+00 +1.39979470e+00 +1.90318382e+00 -4.98924762e-01 -7.25481689e-01 +2.94707537e-01 +1.30368114e+00 -5.16335011e-01 +1.24302077e+00 +2.91170061e-01 +1.07092237e+00 +4.26216453e-01 +2.16210008e+00 -1.04530096e+00 -2.41467047e+00 +4.65666682e-01 -2.21620247e-01 +1.13418365e+00 -9.60055292e-01 +9.46954548e-01 -2.50183463e+00 -7.74938762e-01 +1.75497782e+00 -1.76196945e+00 -1.03044951e+00 -1.13159692e+00 -1.78109860e+00 -2.99028605e-01 +6.47540808e-01 -8.43131244e-01 +1.69702485e-01 +1.60153955e-01 -1.83149576e-01 +1.46903038e+00 -3.36884946e-01 +2.37680480e-01 +3.79322052e-01 +3.40831071e-01 -1.98557168e-01 +3.70090097e-01 +3.89924288e-01 +9.22592729e-02 -3.09895456e-01 -1.12946284e+00 +2.65354466e+00 +9.97822940e-01 +1.60186216e-01 +6.49397075e-01 -7.73649588e-02 +5.75229645e-01 -1.63642153e-01 -6.58222437e-02 +1.82886314e+00 +2.71936131e+00 +2.75550157e-01 +1.18887305e-01 -8.45817253e-02 +8.32689479e-02 +5.87236024e-02 +2.68831730e-01 -1.01154864e+00 -2.61495709e-01 +2.36723542e-01 +3.43948126e+00 -1.67278421e+00 -8.85202765e-01 +6.13456905e-01 -2.91585088e-01 -5.03579199e-01 -2.44065478e-01 -1.95223406e-01 -1.25138295e+00 -6.80841148e-01 -3.74698103e-03 +1.19864367e-01 +1.73876658e-01 -4.24071252e-01 +1.13775626e-01 +2.44471937e-01 +2.04958588e-01 -1.68932450e+00 -5.98267674e-01 -3.18469763e-01 -7.96059906e-01 +6.48555830e-02 +1.30886719e-01 +3.37091126e-02 +3.65608990e-01 +1.82673350e-01 -1.00002158e+00 +5.61930537e-02 +8.13369453e-01 -1.75782889e-01 +9.88955870e-02 -4.84403163e-01 +2.45676637e-01 -2.47879595e-01 +8.75250757e-01 -4.59059894e-01 +2.92022169e-01 +2.46218115e-01 +4.71401691e-01 -1.66912854e-01 +4.24803883e-01 +2.19998598e-01 -2.06532645e+00 +1.70815121e-02 -1.03802502e+00 -4.47127789e-01 +4.27210450e-01 -4.71478403e-01 -4.29643250e+00 -6.25001132e-01 +1.79848328e-01 -1.85500073e+00 +1.73642325e+00 -4.66155857e-01 +3.91095132e-02 +4.24005054e-02 +2.06501514e-01 -4.67013091e-01 -2.98133349e+00 +3.60422552e-01 -4.58043724e-01 -1.52516568e+00 -7.98660576e-01 -1.61922574e+00 +2.56105065e-01 -5.13075531e-01 -3.49276215e-02 -4.64544117e-01 +1.60962090e-01 +5.43310642e-01 -1.95119902e-01 +1.10524821e+00 +5.45061171e-01 +3.58201340e-02 -2.43288755e-01 +1.10090971e+00 +9.63578939e-01 +5.06413639e-01 +1.07343519e+00 +1.19562709e+00 +1.00032926e+00 -1.44944632e+00 +8.23275268e-01 -6.86432362e-01 +1.02265668e+00 +7.36542046e-01 +1.59074640e+00 +1.11609840e+00 +6.67964101e-01 -5.14401674e-01 +1.03032255e+00 -3.90867382e-01 +8.55134606e-01 -5.91383874e-01 -2.17551515e-01 +1.20612063e-01 -1.13184977e+00 -2.32489154e-01 +1.38635111e+00 +6.15744412e-01 -9.61907566e-01 -7.46807232e-02 +1.47718608e+00 -9.82289433e-01 +1.55362880e+00 +1.46285594e+00 +3.61378521e-01 +5.68862677e-01 -9.01711047e-01 +1.78567803e+00 +1.32798862e+00 +5.04626751e-01 -7.25543141e-01 -5.48587859e-01 -1.39049113e-01 -5.22060581e-02 -6.70021474e-01 +7.02445030e-01 +1.49828076e-01 +1.76317796e-01 -3.36713135e-01 -4.58768159e-02 -9.42847013e-01 -3.34193051e-01 +8.17501903e-01 -3.87882531e-01 +9.57590863e-02 +7.69076765e-01 +7.79606342e-01 +1.88537821e-01 -4.22235578e-01 -3.26482087e-01 -1.44136465e+00 +1.01659060e+00 +6.46543086e-01 -1.13358581e+00 -1.28401905e-01 -6.13886476e-01 +5.47003932e-02 +3.52718592e-01 -4.84387696e-01 -1.82751298e-01 +7.92229533e-01 +5.68031311e-01 -3.71311516e-01 +1.00986838e+00 +2.18548961e-02 -2.05694158e-02 +3.92880172e-01 +1.87683535e+00 -3.67670208e-01 +1.30403221e-01 +5.12454808e-01 -5.36206901e-01 -1.37680018e+00 +2.49751359e-01 -3.35549742e-01 +1.20020080e+00 -2.73434997e-01 -1.65033787e-01 +7.08984315e-01 +1.38701236e+00 +1.21958745e+00 +1.09868121e+00 +1.19728923e+00 -1.39180458e+00 +5.30903101e-01 -1.15286574e-01 +3.51196766e-01 -1.08439721e-01 -2.84800857e-01 -1.39544761e+00 -5.49195528e-01 -3.66688579e-01 +1.90653130e-01 -6.19120955e-01 -1.55782688e+00 -7.33423396e-04 -2.53431410e-01 -1.38966775e+00 -1.36324453e+00 -2.49061584e-01 -1.22658181e+00 +8.38328153e-02 -1.09737790e+00 -9.96507645e-01 +7.15465367e-01 -1.14883602e+00 -5.26009679e-01 +5.36243081e-01 -1.45848382e+00 -2.80212998e-01 -4.60098624e-01 -1.45387304e+00 -7.98126161e-01 -6.24133825e-01 -2.53016353e-01 +4.66118753e-01 -7.57827640e-01 +1.82068333e-01 -4.67411608e-01 -2.09173888e-01 +3.55199039e-01 -6.10083044e-01 -1.38265312e+00 -8.32005024e-01 -2.77518127e-02 -9.32206154e-01 -2.81384468e-01 -8.10439289e-01 -4.17590082e-01 -8.17883074e-01 -2.04573467e-01 -4.96286422e-01 +3.34660783e-02 -2.02843428e-01 +1.98247328e-01 +6.98102117e-02 -1.23372018e+00 -7.32192338e-01 -3.88972044e-01 -6.24502242e-01 -9.39821184e-01 -5.40401161e-01 -4.65157211e-01 +3.58157337e-01 -1.17709517e+00 -2.60251075e-01 -1.36370659e+00 +3.62581939e-01 -4.11182016e-01 -1.41803443e-01 -5.00264883e-01 +5.45182467e-01 -3.00562948e-01 +6.35870874e-01 +2.77738094e-01 -7.88673818e-01 +1.70152530e-01 -6.39917314e-01 -3.29605013e-01 -8.89461994e-01 +7.01308548e-01 -6.50717199e-01 +7.66661346e-01 -1.02264011e+00 +1.88824415e-01 -1.63593471e-01 -4.16195065e-01 -4.06507790e-01 -6.07305408e-01 +2.21050635e-01 -1.20975411e+00 -1.22078605e-01 -3.77260387e-01 -2.53838181e-01 +5.07678449e-01 -7.64146328e-01 -2.00494274e-01 -1.55617416e-01 -6.21456385e-01 -8.15117478e-01 -7.11030066e-01 -1.94903865e-01 -4.47477885e-02 -1.11579037e+00 +4.32936065e-02 -5.35464466e-01 +6.40392840e-01 +2.14863420e-01 -4.68597949e-01 +6.15237057e-01 +5.27662873e-01 -3.16558868e-01 -3.36680979e-01 +9.00678933e-01 +4.42723602e-01 +1.16565607e-01 +1.06188011e+00 +6.21164799e-01 +4.29143250e-01 -5.48738241e-01 -2.18772441e-01 -3.47436994e-01 +2.17486367e-01 -1.07629441e-01 +1.35484409e+00 +7.79041171e-01 +3.11510980e-01 -3.82119626e-01 +1.00197160e+00 -5.96749425e-01 -2.49763533e-01 -6.96257830e-01 -3.85003150e-01 +1.33514870e-02 -6.20061159e-02 -2.25630715e-01 +3.91123772e-01 +4.11143839e-01 -4.15157318e-01 -6.81097329e-01 +5.20660877e-01 -1.22299933e+00 +1.79700434e+00 +1.10486996e+00 +1.60481080e-01 +3.77540499e-01 -4.50463183e-02 +1.45191848e+00 +2.59667516e-01 +8.30058679e-02 -1.08958304e+00 -4.57439065e-01 +4.69732106e-01 -1.29528657e-01 -1.46490736e-02 +1.23618476e-01 -6.98726833e-01 -3.46678138e-01 -3.16767961e-01 -1.22733402e+00 -5.53774059e-01 -8.54826391e-01 -5.77621281e-01 -8.81201982e-01 -5.43247879e-01 +6.54892623e-01 +4.67662215e-01 -8.12012494e-01 -9.46191072e-01 -4.01015520e-01 -7.04167187e-01 +4.66663927e-01 +5.13865054e-01 -1.95043474e-01 +8.24274495e-02 -7.15134740e-01 +1.29947230e-01 -4.22161490e-01 -1.66684568e+00 -4.38043267e-01 +6.48245335e-01 -1.09496728e-01 +6.79605603e-02 -2.75245935e-01 +8.87134552e-01 -1.39599182e-02 +1.18919623e+00 +8.20695236e-03 -1.13234580e+00 +8.92828554e-02 +1.43685684e-01 +5.56617975e-01 -6.87501729e-01 +3.41405392e-01 -4.59501356e-01 +6.60715520e-01 -5.11093259e-01 -3.91554922e-01 +1.70366734e-01 +1.23844743e+00 +9.42766905e-01 +1.21013343e+00 +6.18393600e-01 -6.17060602e-01 -6.71595395e-01 +1.33468974e-02 -7.33420134e-01 +1.05343580e+00 -4.55293626e-01 -1.30398333e+00 -1.28224969e+00 -7.42959261e-01 +2.55247623e-01 +1.03126049e+00 +7.59067833e-01 +7.66050875e-01 +8.48500967e-01 +1.37131381e+00 +9.58047509e-01 -1.10781327e-01 +1.16233766e+00 +1.26210198e-01 -1.27348053e+00 +1.21480560e+00 +1.78118539e+00 -1.29258966e+00 +9.62243319e-01 +1.35967359e-01 -1.02277350e+00 +9.34786052e-02 -1.23193538e+00 -9.01172385e-02 -1.90687448e-01 -1.10606384e+00 -3.86087298e-02 -3.46706122e-01 -1.23703015e+00 +1.05032718e+00 -7.80276597e-01 +2.05118880e-01 +1.69733536e+00 +1.68437734e-01 -1.65556896e+00 +1.69872510e+00 -1.18593466e+00 +7.36836255e-01 +3.12770039e-01 +1.40446377e+00 +7.36660123e-01 +9.87668157e-01 +9.80141833e-02 +2.88795866e-02 +1.92439839e-01 +3.45597357e-01 +3.57460797e-01 +1.29009676e+00 -2.58013636e-01 +8.52843165e-01 +4.91744161e-01 -5.52972734e-01 +1.34294610e-02 +6.22112334e-01 -1.16885126e+00 -4.87096757e-01 -1.01731229e+00 -1.35738432e+00 -1.33488536e+00 -6.34811640e-01 +1.12391926e-01 +5.01322806e-01 +4.13758099e-01 +1.35237741e+00 +3.30934733e-01 -6.28305674e-02 -1.26039350e+00 +1.73816085e-01 -1.57386512e-01 +1.17339134e+00 -3.65590267e-02 +4.61323112e-01 +7.96329618e-01 -5.70015073e-01 +2.43744683e-02 +1.66268194e+00 +1.13033116e+00 -8.09378028e-01 +6.54753149e-01 -8.31619978e-01 +5.83879016e-02 +7.16188729e-01 -1.13454056e+00 +4.44492131e-01 +2.85339117e-01 +3.27624530e-01 -4.08410281e-02 -1.12203264e+00 +2.67467886e-01 -3.79432648e-01 -1.45482278e+00 +1.21690333e+00 +9.90720987e-01 -1.15490675e+00 +7.95089066e-01 -1.43813297e-01 -6.50698841e-01 +1.28909394e-01 -8.68116319e-01 -5.72512388e-01 +3.89949113e-01 -1.52229857e+00 -5.47900796e-01 -1.20210207e+00 -3.45899403e-01 +3.30356598e-01 -8.54040205e-01 -1.05729312e-01 -3.65435243e-01 -1.59985423e+00 +1.06956410e+00 +8.80311370e-01 -1.93916652e-02 -3.70841056e-01 -1.51831377e+00 -3.76370907e-01 -3.26129794e-01 -1.12412199e-01 -1.55323160e+00 -7.78511286e-01 -1.05537653e+00 -7.81695783e-01 -1.66567039e+00 +2.94016480e-01 -1.53392002e-01 -8.74691248e-01 -1.29838336e+00 +6.04832709e-01 -7.30406225e-01 -1.13981068e+00 +1.89524263e-01 +1.39084601e+00 -7.04368651e-01 -1.63418785e-01 -1.79943275e+00 -8.35121572e-01 -9.37047780e-01 +6.90729590e-03 +6.84245825e-01 -1.39596474e+00 +4.84540015e-01 -1.80906582e+00 -5.11430442e-01 +8.21197703e-02 -9.59368110e-01 -1.19386077e+00 -8.20561051e-01 +1.81908440e-02 -1.98582554e+00 +6.27183914e-02 -3.72712165e-01 +2.52754807e-01 -7.19496548e-01 -1.20336056e+00 +9.55402926e-02 -1.48175085e+00 +1.79746777e-01 +1.54113173e+00 -5.73639989e-01 +1.00603306e+00 -3.41893464e-01 -7.32944548e-01 -9.58957434e-01 -9.69526649e-01 -3.46221685e-01 +3.98904920e-01 +9.26541090e-01 +1.25602528e-01 -6.63169444e-01 +4.01196361e-01 +2.19958472e+00 +2.98333853e-01 -6.35687351e-01 -6.16315246e-01 -3.14658880e-01 -1.21943498e+00 -3.53385508e-01 -2.99846768e-01 +2.27912831e+00 +5.50520122e-01 -1.15094435e+00 +5.82876205e-01 -6.73736274e-01 -3.66312832e-01 -1.56398952e+00 -6.57871366e-01 -7.86437094e-02 -4.29593772e-01 +4.59861636e-01 +2.37773191e-02 -7.23789275e-01 -3.37271094e-01 -1.66803992e+00 -1.34546924e+00 -1.90065670e+00 +6.93488300e-01 +3.80893826e-01 +5.14099300e-01 +2.66138053e+00 -7.76591957e-01 -5.36511481e-01 +2.24228919e-01 -8.22789729e-01 -2.76256382e-01 -1.44712901e+00 -5.33165753e-01 -4.52567548e-01 -6.25443757e-01 +7.12077498e-01 -2.07303897e-01 +7.54614949e-01 +1.74015582e+00 -1.11257410e+00 -1.64869297e+00 +1.83010310e-01 -5.28714895e-01 -4.26295489e-01 +1.29584348e+00 -7.21523762e-01 -1.81535614e+00 +2.39177817e-03 +1.11925840e+00 -2.05742550e+00 -3.07210475e-01 -6.10168099e-01 +6.39821053e-01 -9.90986601e-02 -4.63413149e-01 -5.51775038e-01 +1.49776787e-01 -3.23848188e-01 +1.93691874e+00 +2.73076862e-01 +6.09234333e-01 +3.19973417e-02 +6.50213301e-01 +8.77756476e-01 -6.06223106e-01 -1.29536057e+00 -6.29335642e-01 +1.51066160e+00 -9.49374020e-01 -1.29888082e+00 +1.34774947e+00 +1.74745595e+00 -2.88763463e-01 -9.12666082e-01 +1.41844988e+00 +1.61359504e-01 +2.39635691e-01 -5.99897623e-01 +1.77574933e+00 -2.23994374e-01 +8.45796883e-01 +5.12269855e-01 -1.58753598e+00 -4.16338965e-02 +2.88130432e-01 -7.15783775e-01 -3.40735048e-01 +3.18416268e-01 -5.67061067e-01 +2.94703066e-01 -8.16625655e-01 -1.19114316e+00 -7.97573864e-01 +1.24221051e+00 +6.43366516e-01 +3.67559791e-01 +6.98526978e-01 +2.16957927e+00 +4.65338141e-01 -4.58435476e-01 -1.29635286e+00 +2.10403785e-01 +8.67830396e-01 +2.61378706e-01 -4.21182454e-01 -1.94627717e-01 +3.65307838e-01 -3.47397849e-02 -8.14565659e-01 -3.70703965e-01 -1.24810112e+00 -9.46598887e-01 -1.66331244e+00 -3.82017970e-01 +2.84972578e-01 -7.91850269e-01 -1.41030359e+00 -1.34604955e+00 +1.20907116e+00 -1.03633475e+00 -3.21575999e-01 -4.34840620e-02 +2.60098398e-01 -7.84072161e-01 +1.42763421e-01 +2.61751151e+00 -2.10257009e-01 +1.87020731e+00 -3.37130547e-01 -1.19070578e+00 -1.41351295e+00 -1.25456071e+00 +1.65620372e-01 +5.21977767e-02 -1.64486277e+00 +2.44017974e-01 -4.16216195e-01 +1.91664600e+00 +7.99707472e-01 +1.07799411e+00 -2.65399277e-01 -5.77826679e-01 -2.20442995e-01 -5.00815809e-01 -2.63051629e-01 +1.44527510e-01 -1.09709716e+00 -9.66406763e-01 +1.81247294e+00 -6.44847155e-01 +4.77396280e-01 -5.53690255e-01 +1.08817291e+00 -6.34977147e-02 +7.54840821e-02 -9.00114000e-01 -1.38344452e-01 -2.82521188e-01 +1.51853013e+00 +7.24607050e-01 +1.10957015e+00 -5.45879960e-01 +4.58988726e-01 +7.80602217e-01 -6.47503138e-01 +4.41603810e-01 -1.07017112e+00 -2.26306275e-01 -1.03494978e+00 -1.11958885e+00 -4.16178972e-01 -1.26979256e+00 -5.64776242e-01 -5.66731989e-01 +1.78962755e+00 -3.47111046e-01 -2.68918395e-01 -6.19432107e-02 +3.00848556e+00 -6.68785349e-02 +1.08971214e+00 -1.66639435e+00 -9.30661142e-01 +1.02234983e+00 +1.86155343e+00 +1.88091919e-01 -4.21455979e-01 +3.71353030e-01 -7.78044820e-01 -4.96995181e-01 -8.47888172e-01 -3.61296624e-01 -8.56349647e-01 +1.36465776e+00 +1.46575093e+00 -4.82795149e-01 -8.66912305e-01 +1.54711640e+00 +3.16446185e-01 +1.56599239e-01 -1.45711315e+00 -2.68498182e-01 -2.26438895e-01 -1.17686999e+00 -5.22723012e-02 -3.46763849e-01 +2.56102592e-01 -1.04775786e+00 +9.33173060e-01 -8.89175907e-02 -1.29583466e+00 -1.53262272e-01 -1.27529824e+00 +8.33737910e-01 -3.35228629e-02 +5.95940053e-01 -6.77433610e-01 -9.06949937e-01 +1.15595818e+00 -2.05013013e+00 -1.01478708e+00 -1.57469845e+00 -6.56366408e-01 -1.60672590e-01 -1.81659174e+00 +1.97547734e-01 -1.64148256e-01 -6.37486517e-01 +2.46010855e-01 +4.57080841e-01 -2.68872052e-01 -3.37473959e-01 +8.37241650e-01 +2.89127767e-01 +7.29860604e-01 +1.11760341e-01 +2.30044797e-02 +1.79116035e+00 -1.94487584e+00 -7.15977728e-01 -4.22122985e-01 +8.09112936e-02 +2.64358789e-01 +8.51478100e-01 -7.85081983e-01 +6.45966411e-01 -1.03288984e+00 -2.55421996e-01 -5.66340029e-01 -4.39228982e-01 +3.49633336e-01 -4.01650488e-01 -2.10192412e-01 +3.69281381e-01 +2.25113958e-01 -1.32732056e-02 -4.09248263e-01 -6.59941792e-01 +2.00777912e+00 +3.64749074e-01 +2.35599160e-01 +2.94996947e-01 +4.19949919e-01 +7.15821683e-01 +7.52149343e-01 +1.41086376e+00 +2.23942757e-01 +1.29158533e+00 -6.15082495e-02 -4.15987492e-01 +1.37331784e+00 -6.27301753e-01 -2.38214880e-01 -2.75577962e-01 -7.67799497e-01 -5.18032014e-01 +9.17431712e-01 +5.27074516e-01 +3.78987551e-01 +1.11322677e+00 -1.81294191e+00 +3.79947335e-01 +2.84989566e-01 +4.85829711e-01 +5.81335843e-01 -3.29194248e-01 -5.20053923e-01 -5.07985234e-01 -2.29730666e-01 +8.22905719e-01 -3.66674334e-01 +1.81969907e-03 -1.05132550e-01 -1.33881062e-01 +7.59393275e-01 -4.68246341e-02 +3.92817318e-01 -2.78466606e+00 -8.53094935e-01 -5.36896467e-01 -2.07418762e-02 -3.77519995e-01 -3.07151586e-01 -5.92858531e-02 +3.85012388e-01 +2.58815861e+00 -9.24224973e-01 +2.37905219e-01 +3.87003511e-01 -2.58529335e-01 -4.32651758e-01 -1.42473942e-02 +7.94259384e-02 +3.49271864e-01 +7.38093676e-03 +8.89240682e-01 -8.14336002e-01 +6.56671286e-01 +5.31267464e-01 +8.49398315e-01 -1.98057994e-01 -1.88912436e-01 -1.32108903e+00 +7.23218024e-01 +1.91562265e-01 +1.41653389e-01 -2.64720529e-01 +7.95915961e-01 +9.38166901e-02 -5.29533327e-01 +8.03363230e-03 +1.24327672e+00 +3.57991248e-01 +1.97221637e-01 +5.10460258e-01 +1.06298022e-01 -1.40435266e+00 -4.07479644e-01 -7.30414912e-02 -1.22673166e+00 -5.28014660e-01 +1.24986136e+00 -1.46929264e+00 -4.39017326e-01 +1.47424519e+00 +1.40216604e-01 +9.37908828e-01 +2.20096394e-01 +2.33072072e-01 +9.52575624e-01 -7.19821930e-01 -6.66550845e-02 +1.28442332e-01 +9.00828004e-01 +1.68617022e+00 +6.02956414e-01 -2.07952470e-01 +3.57066363e-01 +7.77207196e-01 +9.21297312e-01 +3.67332071e-01 +3.66782457e-01 +6.11138999e-01 +1.69583559e+00 +6.01510525e-01 +1.09795773e+00 +5.51940620e-01 -7.64311850e-01 +3.91654968e-01 +7.04137743e-01 +1.58421457e+00 +4.88318235e-01 -9.56665754e-01 -2.99771339e-01 -2.50285387e-01 -1.67480662e-01 +4.97966409e-01 +7.09867597e-01 -3.60191107e-01 +9.50515449e-01 +3.15066993e-01 +5.67467809e-01 +3.56810004e-01 +1.00095153e+00 -6.75248444e-01 -9.67231765e-02 +9.39771473e-01 +9.89948064e-02 +1.34376824e-01 +1.13184857e+00 -1.22633564e+00 +8.60938966e-01 +2.62296885e-01 -4.88169611e-01 -1.67785287e-02 +2.94214815e-01 -1.44478536e+00 -2.23440453e-02 +3.20769280e-01 +3.00911367e-01 +4.29119021e-01 +5.16463697e-01 +3.24796170e-01 +1.23994792e+00 +3.77114683e-01 +6.66007400e-02 +3.09744000e-01 -6.83141947e-01 +1.04546976e+00 +7.66077816e-01 -7.06915498e-01 -1.09286499e+00 +3.39989483e-01 +5.39962202e-02 +7.57222056e-01 +1.14225614e+00 -3.66472870e-01 -4.67821926e-01 -4.59445477e-01 -1.93529166e-02 -4.10799921e-01 +4.22398418e-01 -3.92111063e-01 -4.92356747e-01 +3.57781127e-02 +8.59799534e-02 -1.26644015e+00 +4.61374409e-02 -1.28930342e+00 -6.77918345e-02 -3.46613735e-01 -6.18516624e-01 +3.69604528e-01 -1.01891890e-01 -3.00466102e-02 -3.31810638e-02 -9.17299926e-01 -4.28259969e-01 -5.19264629e-03 -1.12698615e+00 -6.41705990e-01 +9.48035568e-02 +1.86641023e-01 -9.50113595e-01 -6.58841848e-01 -2.95965463e-01 -1.22637570e+00 -8.69615316e-01 -2.63844579e-01 -2.03253537e-01 +4.47897613e-02 +1.04429555e+00 -2.41691768e-01 -4.29357827e-01 -1.50818777e+00 -3.14444602e-01 -9.36790287e-01 -1.60515332e+00 -8.73008311e-01 -4.61752027e-01 -4.03107964e-02 -1.64375871e-01 -7.72371352e-01 -7.74930656e-01 -1.46135226e-01 -4.86395091e-01 -1.87921282e-02 +1.99045110e-02 +6.01705611e-02 -6.33883595e-01 -7.41253018e-01 -4.37059850e-01 -8.30653727e-01 -1.93266198e-03 -3.38672608e-01 -3.08917731e-01 +2.53767908e-01 +9.07779634e-01 -2.74940312e-01 -6.28699243e-01 +3.74353416e-02 -4.01793212e-01 -6.50984526e-01 -8.71437907e-01 -5.73107958e-01 +7.55936354e-02 -1.12089805e-01 +2.38614932e-01 -1.05469179e+00 -4.00308847e-01 -1.61569446e-01 +3.99956852e-01 +6.58253372e-01 -7.32515216e-01 +3.21972340e-01 -1.30342770e+00 +6.06954813e-01 -3.45858455e-01 +5.22935763e-02 -7.14795291e-03 -8.42865050e-01 -7.97875464e-01 +4.73930091e-01 -7.07563162e-01 -9.73831952e-01 -4.33188826e-02 -1.05289668e-01 -6.94593966e-01 +1.68654412e-01 -1.02646267e+00 -2.11115092e-01 -8.96465313e-03 -6.74758106e-02 -1.88135371e-01 -6.64632857e-01 -6.35964334e-01 -6.72032654e-01 +1.18121356e-01 -1.63771242e-01 +1.71279058e-01 -5.15539706e-01 -2.93459177e-01 -1.11690652e+00 +4.12099883e-02 -7.47133270e-02 -7.09852099e-01 -9.02917624e-01 +1.31439507e+00 -5.66018224e-01 -5.57024240e-01 -1.97589695e-02 +1.22308195e+00 -4.04005907e-02 +3.52372676e-01 -4.76162545e-02 +3.96517366e-01 -1.70308983e+00 -5.53425133e-01 +3.26763153e-01 -1.11403537e+00 -1.75832212e-01 +3.15766223e-02 +1.31793290e-01 -7.27774203e-01 +1.57730114e+00 +1.33002698e-01 +5.79908490e-01 -1.74855784e-01 +3.91997665e-01 +5.20894587e-01 -2.24776298e-01 +3.00888449e-01 +1.07873373e-01 +1.10393322e+00 +2.41598487e+00 -2.23769039e-01 -1.00197077e+00 +3.21270287e-01 +3.14920425e-01 +2.74696410e-01 -5.81213981e-02 -2.42145464e-01 +1.26185551e-01 +7.59446859e-01 +6.82037890e-01 -1.10981151e-01 +5.98094285e-01 -1.58025265e+00 +7.29844451e-01 +9.97367203e-01 +2.07994819e+00 +2.03016680e-02 -1.18959177e+00 -6.22545362e-01 -9.68244910e-01 -1.45156786e-01 +3.74346487e-02 +7.08327055e-01 +4.18395668e-01 +2.48687789e-01 +2.15536639e-01 +8.25606883e-02 +1.74711905e-02 +9.63425264e-02 -9.98098254e-01 -6.67811483e-02 +1.43201292e+00 +1.88679993e-01 +4.31193769e-01 +1.01907039e+00 -2.80632198e-01 +9.40072775e-01 +8.12952667e-02 -1.08021462e+00 +3.26540202e-01 -3.20645601e-01 +6.05018675e-01 -9.79116261e-01 -1.23957373e-01 -2.34403297e-01 -1.48357257e-01 +5.86092174e-01 +5.02671711e-02 +1.57445335e+00 -2.34105494e-02 -5.14642075e-02 +4.82206911e-01 -1.09211433e+00 +1.28814995e+00 +6.63808703e-01 +2.26095334e-01 -8.65900517e-01 -1.70692932e-02 -1.43768400e-01 +1.30047575e-01 +1.56370819e+00 -6.01894379e-01 -1.12962282e+00 +4.68128137e-02 +3.01594138e-01 -2.72058863e-02 -5.88297784e-01 -3.56796421e-02 +8.12041879e-01 -8.31189692e-01 +1.24366939e-01 +6.41553819e-01 +9.58213210e-01 +6.82376742e-01 +5.54098606e-01 -3.75681430e-01 -1.26465547e+00 -7.46082783e-01 +2.91796207e-01 -3.89257997e-01 -2.05560490e-01 +8.39399397e-02 -7.50202984e-02 +6.30587101e-01 +1.80866033e-01 -1.26513839e-01 +1.40004635e+00 -6.38766348e-01 -2.40507692e-01 +1.48729265e+00 +1.15082800e+00 -1.43678761e+00 -4.53797996e-01 +7.48402655e-01 -1.25244462e+00 +3.17290932e-01 +2.49943078e-01 -5.44137418e-01 -1.56833589e+00 +1.56811035e+00 +1.08081877e+00 -2.89404839e-01 +7.60255098e-01 +1.45984912e+00 -2.50685781e-01 +4.58767295e-01 +1.07942283e+00 -3.32911074e-01 +2.21994257e+00 +1.27696562e+00 -7.35636175e-01 +6.92599297e-01 +1.58960432e-01 -1.40150201e+00 -1.28433478e+00 +1.69730949e+00 -1.03590143e+00 -2.83056736e-01 +1.35790735e-01 +6.85818493e-03 +1.09763362e-01 +1.11821556e+00 +9.11338925e-02 -6.78646266e-01 +1.40063882e+00 -6.95353508e-01 +1.56417739e+00 -3.70059490e-01 +1.09733236e+00 +3.17734361e-01 -6.13700449e-01 -1.42578506e+00 -5.89224517e-01 -1.35890651e+00 +1.63475537e+00 -7.25892112e-02 -6.85998797e-01 +5.78507856e-02 +1.14756264e-01 -1.25595295e+00 +5.86360991e-01 +4.11803603e-01 -6.90153539e-01 -1.05736785e-01 -2.19978869e-01 -6.71822071e-01 -1.30712104e+00 -4.50871557e-01 -1.71370983e+00 -8.23722363e-01 +3.61681491e-01 +1.88731834e-01 -3.09715211e-01 -7.39493370e-01 +1.71601808e+00 +7.97566116e-01 +8.57544303e-01 +5.42518795e-01 +1.53096247e+00 +1.39001822e+00 -9.78295088e-01 -6.97143197e-01 +4.18285221e-01 +1.36023670e-01 +4.90865827e-01 +4.15448874e-01 +2.27259144e-01 +4.93921906e-01 -6.60700679e-01 -1.54199493e+00 -1.22079980e+00 -6.71917617e-01 -4.25541401e-01 -1.27164304e+00 -6.42699957e-01 -1.03373277e+00 +2.28485435e-01 -1.32094967e+00 -1.12298794e-01 -3.65346044e-01 -8.24871734e-02 -1.02498496e+00 -3.07513118e-01 +1.15575874e+00 +6.97332561e-01 -1.00040030e+00 -8.31381321e-01 -1.69279560e-01 -9.31794107e-01 -2.21285924e-01 +8.67671549e-01 -7.11008191e-01 -1.11947787e+00 -7.46438980e-01 +3.96007925e-01 -1.22663148e-01 +3.10385346e-01 -4.70009923e-01 +3.55792671e-01 -3.78208816e-01 -1.10501993e+00 -6.36901706e-02 +7.73179382e-02 -1.03497648e+00 -6.04686081e-01 -8.42358887e-01 -5.75204372e-01 +4.82952930e-02 -1.44450891e+00 -7.92127907e-01 -2.36739412e-01 -1.58049798e+00 +1.86035901e-01 -1.45791268e+00 +7.09235817e-02 +7.08657801e-02 -2.58521706e-01 +1.17145514e+00 -5.88545263e-01 -1.66311240e+00 -1.70814836e+00 -5.66536307e-01 +4.95747954e-01 -2.58189321e-01 +5.51833272e-01 -5.36249936e-01 -9.04800475e-01 -5.06517589e-01 -1.29082114e-01 -1.00828707e+00 -7.10828006e-01 -6.25810623e-02 +2.13243142e-01 +1.16740637e-01 -2.16007918e-01 +2.59315241e-02 -2.62866527e-01 -7.30680823e-01 -1.43842626e+00 +3.01002204e-01 -8.16303194e-01 +1.39398232e-01 +8.43927562e-01 +3.77503335e-01 -1.62956178e+00 -1.54932809e+00 -1.11149347e+00 -3.43160659e-01 -1.25595748e-01 -1.97683666e-02 -1.21440983e+00 -1.10896456e+00 -3.09675962e-01 +1.12701869e+00 -8.56343031e-01 -9.95055318e-01 -5.63124359e-01 -4.31863219e-01 -4.60247695e-01 -2.34930422e-02 -3.76681626e-01 +2.11628467e-01 -1.51415870e-01 +5.81718326e-01 -1.64870512e+00 -3.61831337e-01 +4.50143546e-01 +5.48740804e-01 -1.08899939e+00 +1.02440429e+00 +2.12020946e+00 +5.72182477e-01 +9.14352179e-01 +1.52981311e-01 +1.25478101e+00 +3.17210436e-01 +7.51458347e-01 -2.41106138e-01 -4.91855025e-01 +4.60445195e-01 -6.96806550e-01 +1.33063781e+00 -8.07289541e-01 +7.65450001e-01 +1.71599552e-01 +1.61135817e+00 +2.70975661e-02 +2.17292115e-01 -2.33180895e-01 +8.31592798e-01 +6.73633456e-01 -1.37234485e+00 +9.76803526e-02 +9.72063005e-01 +2.09004164e+00 +5.70653737e-01 +6.01427794e-01 +6.70017183e-01 +8.81331921e-01 -3.23155284e-01 +7.00093031e-01 +6.81477547e-01 -1.02987790e+00 +2.73300618e-01 +9.34035659e-01 +7.82346249e-01 -3.61353040e-01 +6.64518893e-01 +9.21342298e-02 -6.33457899e-01 +3.75072807e-01 +1.16618729e+00 +2.42818022e+00 -5.17428279e-01 -1.70453548e-01 +1.02273655e+00 +2.62203962e-01 -1.11965072e+00 +1.05563354e+00 +8.55782568e-01 +8.75464261e-01 +7.68418908e-01 +6.18591607e-01 +1.52656376e+00 +1.04640909e-01 +4.60100561e-01 +1.79790676e-01 +1.04556131e+00 +7.94518292e-01 -5.82470953e-01 -2.28008509e-01 +1.41187012e+00 +3.64327878e-01 +2.35976309e-01 +1.37450695e+00 +6.96948528e-01 -2.66723871e-01 +1.17178404e+00 +1.61765254e+00 -5.47725260e-01 +7.13189840e-01 +1.18712950e+00 +8.30509245e-01 -6.63667768e-02 -3.49212736e-01 +1.53097975e+00 +1.53717971e+00 +1.73105001e+00 -7.03659236e-01 +3.36617529e-02 -1.16599798e+00 +9.96585727e-01 +2.81573206e-01 +7.53532231e-01 +3.41133654e-01 +8.57162833e-01 +1.16943371e+00 -3.75854164e-01 +2.90246308e-01 -8.91707301e-01 -1.10899854e+00 +1.28766787e+00 +6.19034469e-01 +2.16414690e+00 -9.69543397e-01 -1.38929039e-01 +1.04153156e+00 +8.99732709e-01 -5.68020761e-01 +3.88631016e-01 +7.50022521e-03 +4.50090654e-02 -3.20999801e-01 -2.03324407e-01 +3.35421879e-03 -7.40213752e-01 +2.60208070e-01 -1.43453971e-01 -1.25881743e+00 -2.98873097e-01 -7.94175208e-01 -3.79650056e-01 +1.88623741e-01 +4.88555461e-01 +7.43212640e-01 -3.91028151e-02 -2.01325342e-01 +1.58142239e-01 -7.67417490e-01 -4.30392213e-02 -3.02984029e-01 -7.48705804e-01 +1.15496397e-01 +1.89034924e-01 -1.09919291e-02 +1.12568522e-02 +2.29431778e-01 -5.60373664e-01 +5.60965598e-01 -5.92720866e-01 +1.61499500e-01 -1.69852257e-01 +1.29730344e-01 -8.87648165e-01 +2.87715375e-01 +3.45802277e-01 -2.76334941e-01 -5.12059510e-01 -4.63324815e-01 -8.55472624e-01 +1.70632541e-01 +6.41218871e-02 -6.49830652e-03 -9.84587520e-03 -4.82450336e-01 +2.28747100e-01 -3.17359298e-01 +5.85077941e-01 +7.27145314e-01 +3.26189846e-01 -2.74092495e-01 -5.98342240e-01 +5.17452478e-01 +1.45565107e-01 +2.30770901e-01 +9.12597179e-01 -3.87005329e-01 +5.89127362e-01 -2.87598759e-01 -8.52828860e-01 -7.63045132e-01 -1.04210496e-01 -9.45128143e-01 -4.25098836e-01 +2.49805152e-01 +3.05378199e-01 -1.07820249e+00 -1.11075544e+00 +7.19645321e-01 -1.02306116e+00 +1.48893967e-01 +2.98257382e-03 +1.00077963e+00 -4.17685479e-01 -4.06129628e-01 +7.01845467e-01 +1.10486758e+00 +7.70478785e-01 -7.34005511e-01 -2.05067679e-01 -1.42488599e+00 -5.42015254e-01 -7.86132753e-01 +9.68141794e-01 -8.90492573e-02 -5.23844779e-01 +4.38766569e-01 -2.72555649e-01 +2.79982418e-01 -7.10174084e-01 -6.11514032e-01 +4.52953726e-02 -6.62661254e-01 +1.00900126e+00 -1.78474367e+00 -1.50256073e+00 +2.27362323e+00 -7.47901142e-01 -7.03168929e-01 -5.94774544e-01 -2.50204891e-01 -1.26781845e+00 +4.68278676e-01 -2.07579564e-02 +3.97737801e-01 -3.56988549e-01 -7.81400025e-01 -5.43882072e-01 -7.91420639e-01 -1.19710423e-01 -9.45886016e-01 -5.74279785e-01 -6.63410187e-01 -1.57805729e+00 +1.59074235e+00 +6.45489097e-01 +1.14928651e+00 -1.22370966e-01 -5.26128888e-01 -8.21499228e-01 +1.22735202e+00 +3.35627019e-01 -1.01542807e+00 +4.72085148e-01 -9.12624419e-01 +9.27419364e-01 +1.42973810e-01 +6.78229868e-01 +7.70246029e-01 +3.46815258e-01 -5.25629103e-01 -5.72354257e-01 -5.31712770e-01 +5.96881568e-01 +5.42098343e-01 +3.28635842e-01 +3.36471409e-01 +1.19907403e+00 +8.49662483e-01 -3.27075422e-01 -1.53812182e+00 +1.10768950e+00 +8.89183104e-01 -7.63326645e-01 +1.16573715e+00 +1.52954018e+00 +2.57677495e-01 +3.95719916e-01 -3.57412338e-01 -3.48279566e-01 -1.38564205e+00 +6.41208768e-01 +5.19439995e-01 -1.30127713e-01 +1.37259090e+00 +7.43021250e-01 +5.77503368e-02 +1.13341320e+00 +9.31980669e-01 +2.32344031e-01 -7.70057023e-01 +1.30064413e-01 +5.68773091e-01 -1.05855441e+00 +7.56936848e-01 +4.15835828e-01 +8.68632317e-01 -4.94859785e-01 -9.53315794e-01 +1.87407553e-01 -1.47883058e-01 +2.27370095e-02 -2.07036495e+00 -6.87956750e-01 -1.29922509e-01 -3.25515300e-01 -3.01979750e-01 +6.08037293e-01 -4.19434458e-02 +2.85288632e-01 +1.78126276e-01 +3.31901107e-03 +1.83841027e-02 +1.10790884e+00 -3.51061523e-01 -7.89860725e-01 -2.96670347e-01 +6.38937503e-02 +5.71195543e-01 +5.38280487e-01 -7.79479802e-01 -4.47785258e-01 -5.63638568e-01 +1.87700021e+00 +6.23411238e-01 -8.63899767e-01 -5.12517691e-01 -1.02068794e+00 -3.95637751e-01 -1.09963894e+00 -6.70162380e-01 -4.65292603e-01 -8.64148915e-01 +1.68835893e-01 +1.10133421e+00 -5.21096528e-01 -1.07262659e+00 -8.05073202e-01 -2.65199780e-01 -8.77769291e-01 +7.36947000e-01 -2.19342202e-01 +5.55697083e-01 +4.91484463e-01 -1.15725839e+00 -4.85804021e-01 -1.09135389e+00 -1.18890643e-01 +6.45308554e-01 -8.42312515e-01 -3.47444266e-01 -1.48906589e+00 +2.11949423e-01 -8.95118892e-01 -8.82929265e-01 +2.61553079e-01 -3.88460606e-01 -2.12867841e-01 +8.21080804e-01 +3.26439917e-01 +2.45613635e-01 -6.19554035e-02 -5.80078304e-01 +3.31017017e-01 -1.26396382e+00 +6.27132595e-01 +1.00260639e+00 -4.80919272e-01 -1.57518893e-01 +1.12558138e+00 -1.67509651e+00 +6.94263458e-01 -1.88727200e+00 -3.69746357e-01 -1.38293654e-01 +9.20845717e-02 +5.43343611e-02 -9.05099332e-01 +5.72761476e-01 -1.47957385e+00 +8.62870812e-01 -8.67542684e-01 -3.58281508e-02 -7.32111633e-01 +1.03020035e-01 +9.62787926e-01 -4.49493766e-01 -6.42998517e-02 -7.56189823e-01 -1.32580483e+00 +2.15824917e-01 -9.54486072e-01 +6.61998808e-01 +5.29732220e-02 -2.57329494e-01 -1.00009584e+00 -2.23995268e-01 -6.70234859e-01 -1.23524106e+00 -1.21552181e+00 -4.89149809e-01 -1.10803401e+00 -1.85308740e-01 -5.68878710e-01 -6.82229817e-01 -1.64926922e+00 -9.64438558e-01 -6.59091294e-01 -9.67539907e-01 -9.31310773e-01 -4.46600527e-01 +7.29374945e-01 -4.97000724e-01 -6.74604177e-01 -1.20004809e+00 -3.60360891e-01 -1.10935700e+00 -3.55300486e-01 -9.43526983e-01 -1.12017179e+00 -3.12471747e-01 +1.69632941e-01 -1.75780582e+00 +2.89383054e-01 +1.06458044e+00 -6.51414543e-02 +5.10651052e-01 +1.78818047e-01 -2.81199187e-01 -8.53556097e-01 -5.77759743e-01 +1.31004095e-01 -5.31481445e-01 -2.04971647e+00 -7.11002886e-01 -4.52551752e-01 -1.37774694e+00 -7.62694240e-01 +5.92929497e-02 +9.90030646e-01 -1.45495579e-01 -6.51531458e-01 -8.71859908e-01 -1.53611076e+00 -6.87954903e-01 -7.09600747e-01 -9.68543530e-01 -9.18259323e-01 -1.06363058e+00 -1.49700284e+00 -1.39090195e-01 -4.21289474e-01 -2.21339390e-01 -9.56335306e-01 +7.77474642e-01 -1.21284556e+00 +2.13972077e-01 +9.15389881e-02 -4.76753503e-01 -7.26891220e-01 -1.35932356e-01 -3.51220071e-01 -3.55992973e-01 +4.18300927e-01 -9.02182937e-01 -6.79639399e-01 -1.23249984e+00 -1.56988692e+00 -4.20583189e-01 +1.83583871e-01 +8.59817922e-01 -1.11411846e+00 -1.56466210e+00 -6.46424949e-01 -5.06722629e-01 -6.80854797e-01 -7.49290347e-01 +6.21446788e-01 +6.24322832e-01 +6.72065437e-01 +8.54187012e-02 -8.91530037e-01 -1.26756954e+00 -9.22286093e-01 +3.61467481e-01 -5.55422902e-01 -1.32861960e+00 -3.08661997e-01 -1.36853606e-01 -5.53460956e-01 -5.43912016e-02 -4.81040657e-01 -4.34341431e-02 -8.56136739e-01 +1.11961627e+00 +2.22072855e-01 -8.22932243e-01 -3.65238935e-02 -1.31585628e-01 -5.42693399e-03 +1.25921369e+00 -1.50147414e+00 +1.08763978e-01 +5.54334998e-01 -7.03337967e-01 -7.24530816e-01 -4.26583230e-01 -4.19858158e-01 -1.70810962e+00 -1.12659268e-01 +8.26616406e-01 -4.02185231e-01 +9.51599777e-01 +8.50100815e-02 -1.38050187e+00 +5.50519116e-03 -9.72296119e-01 -1.27568495e+00 +5.54357708e-01 -1.14860094e+00 -3.71251166e-01 -7.98724115e-01 +2.72671431e-01 -6.98099792e-01 +7.34847128e-01 +8.91900539e-01 +7.03080535e-01 +1.71791911e-01 -2.96707302e-01 -1.66018057e+00 -1.30893552e+00 -2.45654806e-01 -3.99400115e-01 -1.30743873e+00 +8.63728106e-01 -1.67504270e-02 -1.29944420e+00 -1.21726465e+00 +8.82573903e-01 -3.52177694e-02 +2.02162206e-01 -1.76631540e-01 +1.18729293e+00 -1.74867734e-01 +1.82433993e-01 +5.19733131e-01 -8.23672891e-01 -1.20557857e+00 +7.47992516e-01 -1.75527883e+00 +6.61659613e-02 -1.10312939e+00 -3.58441472e-01 -7.87278175e-01 -1.19887128e-01 -7.77756888e-03 +2.39416081e-02 +1.17514633e-01 -2.36689728e-02 -2.47821823e-01 -4.48277563e-01 -3.99233967e-01 -1.23755908e+00 +6.47375166e-01 -9.21100378e-01 +7.66415119e-01 -8.07484984e-01 -1.70329285e+00 -2.66380638e-01 +3.13656002e-01 -8.20628881e-01 -9.10347283e-01 -1.16132414e+00 -1.63917041e+00 -3.27543080e-01 -5.64179480e-01 -1.07389283e+00 -5.48666537e-01 +6.53302252e-01 +5.20432629e-02 -5.00473678e-01 -1.11794698e+00 -2.43506342e-01 -4.68296021e-01 +3.32044601e-01 -7.90698707e-01 -1.19423699e+00 +3.98159504e-01 -2.46093407e-01 -5.52212119e-01 -8.28658044e-01 +5.58305860e-01 +4.42269862e-01 +2.91049331e-01 +3.59682858e-01 -3.66854101e-01 -7.97905549e-02 -1.63274109e-01 +1.62662268e-01 -1.11745737e-01 +1.57450044e+00 -1.09994256e+00 +1.69084430e-01 +1.13375351e-01 -2.09438801e+00 -4.90676500e-02 -1.73886448e-01 -3.26747656e-01 -1.46590400e+00 -4.02751505e-01 +2.31111348e-01 -4.96739894e-01 +7.86806643e-01 -8.32168579e-01 -1.75566649e+00 -7.91342914e-01 +2.48614118e-01 -8.58145416e-01 +5.07502556e-01 -6.60857022e-01 -1.60676748e-01 -4.31158274e-01 -1.80875850e+00 -7.49813616e-01 +7.76650310e-01 +6.91676259e-01 -4.12419796e-01 +4.65568155e-01 -6.44544438e-02 -4.14427459e-01 +7.61349499e-01 +4.87185344e-02 -5.37585139e-01 +4.43060130e-01 -6.21777736e-02 -1.17102273e-01 +7.83180296e-01 +5.20473063e-01 -7.89033413e-01 +1.45059562e+00 -3.45050871e-01 +1.68371089e-02 +4.28564817e-01 +8.80376846e-02 -1.11324060e+00 -8.31003964e-01 +8.35033178e-01 +6.92547023e-01 +1.39734876e+00 +5.56218803e-01 -5.83837271e-01 -4.09204960e-01 +8.85447323e-01 -5.50097823e-01 +2.66086668e-01 -4.31455001e-02 -3.49326551e-01 +6.36820674e-01 +4.65253741e-03 +5.63148677e-01 -6.26039088e-01 -1.02322698e+00 +1.68170273e-01 +4.08243448e-01 -6.77798450e-01 -6.92308620e-02 +6.83206558e-01 +1.34250775e-01 +1.04575813e+00 -8.95353556e-01 -5.19883037e-01 -5.76833367e-01 -3.40682715e-01 +3.95175427e-01 +6.70747817e-01 -6.03270352e-01 +8.38723242e-01 +3.15054119e-01 +4.05121334e-02 -1.84685141e-02 +1.39451718e+00 -6.89670920e-01 +9.76029336e-02 -5.59017397e-02 +3.61058176e-01 -2.35276833e-01 +7.54743889e-02 +3.99200559e-01 +3.45701158e-01 -7.75845110e-01 -8.59583318e-01 +1.16929799e-01 +7.39406884e-01 -8.63185823e-02 +1.18067312e+00 -2.66484469e-01 +7.70223320e-01 -5.29695272e-01 -1.67665109e-01 -2.34802276e-01 +1.81922331e-01 +5.11495054e-01 -5.75952888e-01 +1.05039990e+00 -1.32881391e+00 +8.12287092e-01 -4.50861454e-01 +2.08028123e-01 -7.93359697e-01 +2.93374807e-01 -5.85562468e-01 -3.04023236e-01 -6.32788390e-02 -7.61561215e-01 +1.07991946e+00 -7.35684276e-01 +3.88189889e-02 -1.10543974e-01 -3.56363785e-03 +1.46890536e-01 +8.20392430e-01 +5.61839044e-01 +4.32959348e-02 +2.77090780e-02 -1.67084479e+00 -3.93793315e-01 +8.27459574e-01 -1.10753417e+00 -8.49705100e-01 -8.63178313e-01 -1.36075604e+00 -1.41530848e+00 -4.64273334e-01 -1.45471501e+00 -2.01282024e+00 -1.67340076e+00 -1.26783657e+00 -1.00494933e+00 -1.18633890e+00 -1.06528366e+00 -1.29515016e+00 -2.01014280e+00 -7.34480679e-01 -1.93863142e+00 -1.86087704e+00 -3.72621119e-01 -9.78446603e-01 -8.84506524e-01 -1.61952865e+00 -1.20751846e+00 -1.48796439e+00 -5.43725908e-01 -1.80548310e+00 -6.96419537e-01 -2.04009485e+00 -1.81962287e+00 -1.38932490e+00 -9.95271623e-01 -1.70802808e+00 -1.56466591e+00 -1.42417264e+00 -7.94288635e-01 -1.29158318e-01 -1.16739881e+00 -1.70006347e+00 -9.72836435e-01 -2.27904409e-01 -1.01134706e+00 -5.42984664e-01 -1.69576538e+00 -1.18162894e+00 -3.44781399e-01 -1.57138622e+00 -1.62957883e+00 -1.81346238e+00 -1.35964048e+00 -6.49494648e-01 -1.13936412e+00 -6.85862124e-01 -1.40192187e+00 -2.27929831e+00 -2.11020637e+00 -7.61550188e-01 -1.00550854e+00 -1.39409244e+00 +1.46842706e+00 -7.80803919e-01 -1.29548192e+00 -9.19761121e-01 -6.75968111e-01 -1.37281990e+00 -1.14970040e+00 -6.25155330e-01 -9.51055050e-01 -2.16090298e+00 -1.88693440e+00 -3.85422558e-01 -1.15389061e+00 -1.29147172e+00 -1.25535762e+00 -1.11009872e+00 -2.27859592e+00 -1.40863156e+00 -2.20061135e+00 -1.38891828e+00 -8.24251115e-01 -1.27910340e+00 -1.68780339e+00 -5.00760794e-01 -1.22342443e+00 -3.50139141e+00 -9.40371394e-01 -8.46009731e-01 -9.17092860e-01 -2.19615102e+00 -1.84201300e+00 -2.45802832e+00 -1.30088830e+00 -1.11027265e+00 -1.98257959e+00 -1.45769799e+00 -7.01313198e-01 -2.78346241e-01 -1.37030637e+00 -1.48200738e+00 -8.77281487e-01 -1.54452884e+00 -7.34124720e-01 -9.59103942e-01 -7.70435035e-01 +1.96348846e-01 -6.99383616e-01 -3.83223087e-01 -1.18380201e+00 -1.78779960e+00 -1.17711835e-01 -1.03398001e+00 -1.78913951e+00 -6.55437231e-01 -3.47334236e-01 -5.52895926e-02 -1.66639173e+00 +3.58234882e-01 -7.29651988e-01 -8.86145115e-01 -3.66328746e-01 -1.81930482e-01 +2.15734527e-01 -6.05831265e-01 -1.18209517e+00 -3.92574281e-01 -1.67906904e+00 +2.49034882e-01 -1.77327275e+00 -8.62523258e-01 +3.70308787e-01 -1.37929487e+00 -1.97195148e+00 -1.78476889e-02 -1.23696232e+00 -4.07346368e-01 -9.51960564e-01 -3.89803015e-02 +4.31570828e-01 -9.86344218e-02 -4.79976553e-03 -9.07842040e-01 -1.27519798e+00 +1.68092906e-01 +2.82142982e-02 -3.59980464e-01 -1.31233001e+00 -7.78548717e-01 -8.42722803e-02 -8.81466210e-01 -1.67309761e+00 -7.51814544e-01 -1.59817410e+00 -2.85774320e-01 -1.38157701e+00 +4.47394758e-01 -8.27030614e-02 -1.32744014e+00 -3.30475032e-01 -8.26882958e-01 -4.54325169e-01 -2.48226538e-01 -5.83823979e-01 +1.38345316e-01 -6.34232938e-01 -3.04224163e-01 -3.04150403e-01 -1.12084806e+00 -1.06761491e+00 -1.63900241e-01 -5.94891049e-02 -9.50017869e-01 +3.86992067e-01 -3.51760304e-04 -7.29405880e-01 -8.75958622e-01 -1.94384977e-02 -8.29886377e-01 -1.26625884e+00 +6.76035555e-03 -1.36887014e+00 -4.14316893e-01 +6.98169291e-01 -9.94182408e-01 +1.25835583e-01 +3.02126944e-01 -1.82941884e-01 -1.41707230e+00 -9.42670465e-01 -2.03954354e-01 +7.13065088e-01 -5.33442318e-01 -1.65242541e+00 -4.83391047e-01 -7.63988435e-01 -1.02689528e+00 -1.36668742e-01 +3.00077736e-01 -1.96177709e+00 -2.44229529e-02 -7.89699733e-01 -2.59592980e-01 -8.70109260e-01 -1.54992819e+00 -1.26885283e+00 -1.40390837e+00 -1.30760860e+00 -1.24234140e+00 -1.35512435e+00 -2.02175045e+00 -6.89082503e-01 -1.36008525e+00 -1.92892778e+00 -2.68304396e+00 -9.72792566e-01 -4.09729153e-01 -1.12922585e+00 +1.40884805e+00 -6.16226256e-01 -6.76409423e-01 -1.26017857e+00 -7.30611086e-01 -4.30382818e-01 -8.26490998e-01 -1.15650368e+00 -1.00576901e+00 -6.92012310e-01 -3.14348310e-01 -1.75145793e+00 -1.01402676e+00 -3.79556626e-01 -7.79822648e-01 -1.56279099e+00 -4.24584866e-01 -2.02242064e+00 -2.06638619e-01 -5.62220991e-01 +3.80692184e-01 +8.56862903e-01 -8.21831405e-01 -2.51291513e-01 -1.11039627e+00 -9.91793394e-01 -1.82655722e-01 -8.47322583e-01 -4.59585041e-01 -1.16188121e+00 -1.49405646e+00 +5.21966629e-02 -1.69047308e+00 -1.91153264e+00 -1.02975929e+00 -1.56766582e+00 -6.37001455e-01 -2.19366765e+00 -9.32329953e-01 -1.20027220e+00 -9.26670849e-01 -1.25199115e+00 -1.16444421e+00 -1.53840768e+00 +1.14424847e-01 -9.29440260e-01 +1.18045703e-01 -9.70344841e-01 -6.46854222e-01 +4.24721569e-01 -5.74545801e-01 -1.07840836e+00 -8.83636117e-01 -5.21284103e-01 -5.23300290e-01 +6.17660359e-02 -1.01928329e+00 -1.90720296e+00 -9.06257093e-01 -1.06785595e+00 +1.00957966e+00 -1.85055983e+00 -7.27095068e-01 -2.04599428e+00 -4.00517970e-01 -3.88502926e-01 -2.56454200e-01 +3.25577557e-02 -4.68914837e-01 -9.16756213e-01 -1.68230760e+00 -1.19651508e+00 -9.18002844e-01 -1.42840400e-01 -1.09573615e+00 -1.85578454e+00 -1.13698709e+00 -6.73563659e-01 -1.09206271e+00 -1.08743107e+00 -7.48808742e-01 -2.96047115e+00 -8.21475267e-01 -8.68299961e-01 -1.15037954e+00 -2.47915387e-01 +1.02287209e+00 -3.34529728e-01 +2.15953290e-01 +1.54540345e-01 +3.50193158e-02 +1.13809869e-01 +1.90586492e-01 +5.66549897e-02 +9.21814144e-01 +7.04275966e-01 -1.91467509e-01 +7.71812677e-01 +2.01522067e-01 +4.71868366e-01 +1.26121342e+00 -3.40836912e-01 +2.99395472e-01 +5.96161969e-02 -1.01992726e+00 +1.34489381e+00 +1.66296288e-01 +5.63328743e-01 -1.77539047e-02 +2.61539787e-01 -1.49010811e-02 -5.94470799e-01 +1.07884355e-01 +1.90964267e-01 -1.03096402e+00 +3.28897148e-01 +1.94997340e-01 +3.60476315e-01 +8.48850727e-01 +8.81005645e-01 -1.39033151e+00 +9.53469932e-01 -3.71007353e-01 -1.72001183e-01 -1.12855124e+00 +5.19615829e-01 -1.23967099e+00 -2.58848250e-01 +4.41206485e-01 +7.29717389e-02 -8.72735679e-01 -4.53427248e-02 +2.02927977e-01 -8.83219063e-01 -4.97924805e-01 +1.67057604e-01 +3.11361462e-01 +2.55058616e-01 -5.00299752e-01 +9.61615071e-02 +5.72954178e-01 +1.73384935e-01 -7.30911911e-01 -1.98628247e-01 -3.76208633e-01 +1.17510622e-02 -7.04123735e-01 -3.61977786e-01 +1.29390669e+00 +1.09804042e-01 -1.36954212e+00 -2.05704466e-01 -2.02125430e-01 -2.79743701e-01 +8.52839351e-01 +2.14435011e-01 -1.71938375e-01 -1.24341846e-01 +1.19791262e-01 +3.65792572e-01 -8.92791510e-01 +5.56934774e-01 +6.02835491e-02 +1.75532103e-01 -2.18205214e-01 -5.19461036e-01 +2.27123007e-01 -6.84809446e-01 +1.22727029e-01 -4.09450799e-01 +5.29597044e-01 -2.50999510e-01 -9.29445848e-02 +5.64029276e-01 -1.26742616e-01 -3.92449260e-01 -8.03544104e-01 -8.87888968e-01 -5.83562255e-01 -1.36024043e-01 -2.64006346e-01 -2.76871949e-01 +2.06084624e-01 +2.98647612e-01 +3.28733683e-01 -8.98846865e-01 +7.81864077e-02 +6.38953969e-02 -1.46942043e+00 +4.31288570e-01 +1.46410421e-01 -6.80818200e-01 -7.43817031e-01 -3.35381068e-02 -3.10376495e-01 -3.26624364e-01 +1.43766809e+00 -8.77490461e-01 -3.26259106e-01 -1.48574710e+00 -6.62475348e-01 +4.93157595e-01 +1.03938654e-01 -6.25602663e-01 +9.44900036e-01 -1.00487900e+00 +1.02208294e-01 -6.52522862e-01 -6.33352578e-01 -2.31725395e-01 +3.11958838e+00 -1.10126927e-01 -9.63403761e-01 -9.03939724e-01 +1.33607090e-01 -2.30175805e+00 +4.44109917e-01 -1.44617820e+00 -8.37151587e-01 -2.55689025e+00 +1.29390538e+00 +6.49303019e-01 +5.14176548e-01 -1.78404069e+00 +7.24855483e-01 +4.85412359e-01 +3.11047547e-02 -1.61223435e+00 +6.37452379e-02 -1.69828743e-01 -1.08733141e+00 -7.69059777e-01 -1.25869513e+00 -5.40017672e-02 +4.64841276e-01 -4.15189922e-01 -8.75362396e-01 -1.05557477e+00 +3.90106845e+00 -2.35879630e-01 -5.70393085e-01 -1.66407621e+00 -1.17147183e+00 -1.34611475e+00 -3.01405251e-01 -1.07483864e+00 -3.08646142e-01 -2.33099079e+00 -7.28780031e-01 -1.60782337e-01 +2.01316261e+00 +1.89369425e-01 +4.21713330e-02 -1.33938146e+00 -5.21037698e-01 -5.76546550e-01 -5.02338633e-02 -7.49740958e-01 -1.22505522e+00 -2.05745727e-01 -3.96017283e-01 +1.16849840e+00 -1.93791032e-01 -8.41218054e-01 +1.17532539e+00 -2.52588809e-01 +2.68892854e-01 +2.92293131e-01 +2.13954782e+00 -1.00149691e+00 -1.29831779e+00 -1.14502144e+00 +2.01482117e-01 -1.98071790e+00 -2.19236925e-01 -1.02953708e+00 -3.32665324e-01 -1.15557849e-01 +2.39182115e+00 -1.05628479e+00 -1.50443673e+00 -6.37584999e-02 +1.92594147e+00 -1.48461080e+00 -1.23159385e+00 -9.79997337e-01 -1.30872691e+00 -1.86870730e+00 -1.47189498e+00 -1.15163708e+00 -1.06662846e+00 +1.32066500e+00 -1.38816428e+00 +1.06755614e+00 +1.33303270e-01 +5.99399507e-01 -5.73654845e-02 +1.32561535e-01 -3.83193530e-02 -6.85602129e-01 -1.79628134e-01 +4.23634958e+00 -1.13661468e+00 -3.18311036e-01 +1.13218153e+00 +2.49622896e-01 +8.94383490e-01 +7.97052681e-01 +7.63954222e-01 +3.70590717e-01 +2.78437805e+00 -1.17887557e+00 +3.13744098e-01 -2.16304708e+00 -2.13273215e+00 +3.59992869e-02 -7.28066087e-01 +3.99470925e-02 +1.43165195e+00 +4.09599006e-01 +3.59268725e-01 +1.31141019e+00 +1.10937905e+00 -5.49329281e-01 +8.72513652e-01 +7.55810797e-01 +4.70819533e-01 -1.41247138e-01 +1.41176653e+00 +1.88638413e+00 -7.79657304e-01 +4.43940833e-02 +1.75911736e+00 +6.23489857e-01 -6.75703228e-01 +8.77065957e-02 -1.87959778e+00 -8.00724030e-01 -3.74340630e+00 +5.57873324e-02 -2.29765236e-01 -1.40573287e+00 +4.40811187e-01 -1.22871542e+00 +4.18888986e-01 -1.29849780e+00 +6.38835251e-01 -1.06858206e+00 +5.88699341e-01 +2.44644433e-01 +5.46528816e-01 -8.22139680e-01 +7.19059706e-01 -1.65359521e+00 -1.19655979e+00 +3.50029558e-01 +3.94544713e-02 -9.32012677e-01 -9.61904645e-01 -7.69096613e-02 +7.23997176e-01 -1.57469749e+00 +1.44839600e-01 -6.45446301e-01 -1.34429741e+00 +8.78387928e-01 -1.37839639e+00 +1.50804675e+00 +1.17647612e+00 -6.75251305e-01 -1.08723223e+00 +1.65086043e+00 +5.13818443e-01 +9.01655197e-01 -5.65422356e-01 +1.86301664e-01 -6.47693992e-01 +1.16607475e+00 -1.76250744e+00 +2.70936102e-01 -1.42076775e-01 +3.30442429e+00 -6.09987795e-01 +2.15570390e-01 +1.51432550e+00 -6.59186125e-01 +9.78850052e-02 -1.12024808e+00 -1.82279277e+00 -1.98504567e-01 -7.71883965e-01 +1.18282831e+00 +1.29428878e-01 +9.59165037e-01 +3.74625832e-01 -3.97410393e-01 +1.47536063e+00 -3.10547501e-01 -2.17795834e-01 -7.68079519e-01 +2.32949391e-01 +3.36563349e-01 -1.07652700e+00 -9.08367157e-01 +4.05055135e-01 +3.28928381e-02 +1.21918035e+00 +9.58665490e-01 +6.32238030e-01 +2.98410535e-01 +2.41579342e+00 -1.39900982e+00 +2.35457838e-01 -1.21804452e+00 -5.80077350e-01 +5.24887264e-01 -2.11757994e+00 -4.49904799e-01 +1.20078504e+00 +2.58207589e-01 +2.64131725e-01 +5.33227861e-01 +4.81763870e-01 -1.23599386e+00 +1.21064854e+00 +6.61703497e-02 +5.81067801e-01 -3.94575417e-01 +4.23126556e-02 +1.97677839e+00 -2.95906568e+00 -5.50147116e-01 +9.24163759e-01 +1.63112509e+00 +1.06181490e+00 +2.49439389e-01 -6.65502131e-01 -3.67838770e-01 +1.74813855e+00 +1.12280798e+00 +2.87573338e-01 -2.33612537e-01 -2.87131190e-01 -2.42775297e+00 -1.77923083e-01 -3.64102840e-01 +1.69703984e+00 -2.06403542e+00 -5.19921601e-01 +8.87307465e-01 +2.38196731e+00 -5.36227882e-01 +3.61741573e-01 -1.54997861e+00 -7.30394006e-01 -2.52846666e-02 -7.10013926e-01 -4.28806663e-01 -4.95997488e-01 +2.98647374e-01 +1.18849266e+00 +3.43590140e-01 +9.87807691e-01 -1.06000996e+00 -4.37478662e-01 +8.52370858e-01 -1.57175207e+00 +3.88572514e-01 +1.89950109e+00 -1.01447523e+00 -1.74014783e+00 +1.28773189e+00 -1.19034898e+00 +8.47383082e-01 -2.05668643e-01 -5.22920668e-01 +3.46873760e-01 +1.10859382e+00 +1.77628386e+00 +2.38382131e-01 -1.02109385e+00 +1.15529263e+00 +2.29651213e+00 -4.47432399e-01 +4.91928846e-01 +4.38951522e-01 +1.90721381e+00 +1.22221673e+00 +3.88471544e-01 +2.09569120e+00 +2.16235235e-01 -4.41930175e-01 -5.56859374e-01 +2.64914274e-01 +3.09486359e-01 -3.43389958e-01 +2.98691726e+00 +1.47315800e-01 +4.47833329e-01 -3.42469476e-02 -6.41771317e-01 -2.90263867e+00 -1.88289702e+00 -9.25697386e-01 -7.37897992e-01 -1.75474033e-01 +2.38152534e-01 -3.23634773e-01 +1.08722836e-01 -7.32615590e-01 -4.34366989e+00 -5.46075761e-01 -3.00794452e-01 -5.10301888e-01 +9.21979010e-01 -2.60437071e-01 -5.05651057e-01 +1.33805305e-01 -4.89019990e-01 +5.91716953e-02 -3.29981494e+00 +3.47579408e+00 +5.55133700e-01 +4.29168403e-01 -1.15500164e+00 +8.83369505e-01 +2.33368918e-01 +4.03746784e-01 -1.10239851e+00 +1.43353200e+00 +4.87464368e-01 +2.97287643e-01 +5.98498106e-01 -6.72246099e-01 -8.02247107e-01 +1.12445138e-01 +4.26393360e-01 +1.61916152e-01 +3.10769105e+00 -2.03586102e-01 -2.89708644e-01 +5.34986198e-01 +4.41084355e-02 +1.34888661e+00 -1.11803357e-02 -4.00037199e-01 +3.03228676e-01 -2.92079985e-01 -2.46440113e-01 +2.26852939e-01 +6.35426402e-01 -6.19595766e-01 +1.54358238e-01 -1.16199963e-01 +4.04847711e-01 -2.10711002e-01 +4.31126416e-01 +7.85737932e-02 +1.71400644e-02 -5.05300343e-01 -2.42753148e+00 -1.45008254e+00 +1.04379451e+00 -3.18561822e-01 +1.09164214e+00 +3.95514756e-01 +1.44662499e-01 -8.27261135e-02 +3.24921513e+00 -4.90584493e-01 -2.98673213e-01 +8.90115857e-01 -2.84982055e-01 -1.69291109e-01 -5.06165028e-01 +2.83850074e-01 -1.21101129e+00 -8.33513379e-01 +2.74678349e+00 +1.14915200e-01 +3.20479184e-01 +2.85349751e+00 +2.45313072e+00 -6.29236877e-01 +2.67675400e-01 +9.35462236e-01 +5.45670331e-01 +7.12513506e-01 -8.57246280e-01 -5.00713766e-01 +7.90953457e-01 +1.46379876e+00 -2.52504498e-01 +1.73269534e+00 -5.26448250e-01 +1.30240023e-01 +1.00504518e+00 -1.58240318e+00 +3.18000555e-01 +1.14991570e+00 -6.56866074e-01 +5.36306858e-01 -4.63039458e-01 -1.54721665e+00 +6.64349616e-01 -1.41330093e-01 -1.27168632e+00 +3.58348846e-01 +1.21454492e-01 -5.00810385e-01 +1.59199417e-01 +9.73375142e-01 +1.09571803e+00 +8.58674288e-01 +2.43099630e-01 +1.53129101e+00 -1.72614083e-02 +8.86567116e-01 +2.69135535e-01 +1.74775403e-02 +3.11073422e-01 -5.14044225e-01 -1.37152898e+00 -1.47649539e+00 -3.46846730e-01 -3.29928428e-01 -4.28286999e-01 +1.22865283e+00 +1.05162072e+00 -7.49470711e-01 +6.24266505e-01 -1.52535036e-01 +5.71710050e-01 +7.83248007e-01 +9.21404302e-01 -1.55270565e+00 -2.74780631e-01 +9.20302689e-01 +1.97962716e-01 +1.28915799e+00 +7.64860272e-01 +1.44481814e+00 -6.19650304e-01 +3.75818074e-01 -1.32704711e+00 +5.78823924e-01 -6.25347197e-01 +8.06718946e-01 +1.54024053e+00 +1.14755809e+00 +5.10046110e-02 -7.27963865e-01 -1.60396862e+00 +7.69451201e-01 +3.99362743e-01 +2.04594359e-01 +2.75791466e-01 -2.87958354e-01 -2.71548301e-01 +1.32889700e+00 -1.21470150e-02 -2.69098759e-01 +2.40652606e-01 +5.00907004e-01 +5.51101267e-01 +1.64887619e+00 -6.20632231e-01 +6.17891490e-01 -5.21920502e-01 -4.77215469e-01 +1.17328024e+00 -1.18281150e+00 -5.80345511e-01 +1.89120043e-02 +1.29207134e+00 +1.76110363e+00 +1.23321676e+00 +4.69108850e-01 +3.46585602e-01 +1.26795483e+00 +4.88593161e-01 -1.35280222e-01 -1.49028137e-01 +3.70222181e-01 +7.32176721e-01 -7.84505546e-01 -1.77934736e-01 -5.45122743e-01 +3.77206713e-01 -4.78043646e-01 -4.38103199e-01 -7.14855075e-01 -7.08332300e-01 +4.58178334e-02 -1.15700650e+00 -1.37881303e+00 -1.32972479e+00 -2.35781550e-01 -8.31299901e-01 -1.40182316e+00 -3.00245136e-01 +2.60733247e-01 -1.68274298e-01 -4.39131260e-01 +3.50578636e-01 -9.65449736e-02 -8.98260772e-01 -7.66758263e-01 -4.01419193e-01 -6.31832361e-01 -1.90940157e-01 +1.23666979e-01 -4.56707507e-01 +9.60888982e-01 -5.01447737e-01 -1.83162451e-01 +2.17740193e-01 -7.87996352e-01 -6.59381509e-01 +1.26991287e-01 -6.48468018e-01 +3.28265131e-02 -9.93261576e-01 -1.42938554e-01 -2.87908375e-01 -7.99558461e-01 -3.05761229e-02 +3.42561841e-01 -5.63427843e-02 +8.79609287e-02 -4.98706788e-01 +6.01263344e-02 -8.77886534e-01 -7.47464001e-01 -5.17483056e-01 -6.98523343e-01 +9.44774374e-02 -1.61820662e+00 -8.65309179e-01 -3.55949581e-01 +1.21325403e-01 -4.26468909e-01 +3.92351523e-02 +1.45607904e-01 -6.56691074e-01 -4.94651318e-01 -1.26846150e-01 +1.01115954e+00 -1.29248357e+00 -3.69906247e-01 +2.72166640e-01 -6.15536273e-01 -6.26863897e-01 -1.64611652e-01 -1.85307980e-01 -1.63489684e-01 -1.15042746e+00 -7.80121028e-01 +1.15025900e-01 -6.45791113e-01 -2.31827274e-01 +4.07683626e-02 -5.43112993e-01 -1.15619528e+00 +3.96077991e-01 -5.25265574e-01 -3.39336134e-02 +5.07688463e-01 -3.99493694e-01 -2.62980551e-01 -1.21114731e+00 -1.47212195e+00 -2.91983068e-01 -1.31156683e-01 +6.80149138e-01 -1.09613121e+00 -6.72907710e-01 -4.00357097e-01 -1.90617651e-01 +4.33325678e-01 -3.94731313e-01 -6.34897888e-01 -4.70191777e-01 +1.28092051e-01 +3.39292288e-01 +4.44083065e-01 +7.52532661e-01 +8.53165865e-01 -4.81209964e-01 -9.47486699e-01 +3.22752148e-01 +1.92420319e-01 -2.85845637e-01 +7.92070329e-01 -4.96500164e-01 -5.36279492e-02 +1.17923760e+00 -8.25983644e-01 +2.72386044e-01 +1.27701068e+00 -1.37340546e+00 +2.02519625e-01 -7.42362082e-01 -1.26220644e+00 +5.01683593e-01 -3.35887849e-01 -1.46276093e+00 +3.83661687e-01 -4.01224673e-01 -4.66318280e-01 +3.96942824e-01 +1.18198025e+00 +4.12393153e-01 +4.62544829e-01 +1.18224308e-01 +1.63199151e+00 -3.98214966e-01 +3.16670507e-01 +4.27380711e-01 +1.69524968e-01 -1.42199755e-01 -6.68010533e-01 -1.23568130e+00 -3.82045776e-01 -9.99739841e-02 -7.73121238e-01 -9.25133049e-01 +1.58270657e+00 -3.19479018e-01 -7.93833733e-01 -6.90209568e-01 -2.95505822e-01 +2.52262264e-01 +9.88812089e-01 +6.10387802e-01 -1.76745474e+00 +2.44804025e-01 +1.81226924e-01 -1.52986026e+00 +8.87250423e-01 +5.01742184e-01 +9.06661153e-01 -8.09027374e-01 +9.45881546e-01 -1.36499405e+00 -1.71082933e-02 +2.01337382e-01 +8.29375088e-01 +1.52567005e+00 +4.02175575e-01 +3.16829979e-01 -1.20512211e+00 -8.94641519e-01 +3.15009117e-01 +4.73880410e-01 -7.58454382e-01 -2.99785227e-01 -7.18143344e-01 -5.36079109e-01 +6.87721252e-01 -7.74386168e-01 -4.22008038e-01 -9.83652696e-02 +2.07028449e-01 -4.31654841e-01 +7.58226931e-01 -5.43137193e-01 +1.08199015e-01 +7.90341914e-01 -3.16857725e-01 +8.08527648e-01 -1.49502540e+00 +1.14647374e-01 -8.85454237e-01 +8.92099500e-01 +1.24405861e+00 +1.80441511e+00 +2.23179817e-01 +4.75931704e-01 +7.40460396e-01 -2.20555887e-01 +2.89592966e-02 -1.43433094e-01 +1.67825177e-01 -9.11088064e-02 +9.43761706e-01 +9.01408195e-02 +1.39673519e+00 -6.48461819e-01 +3.04222375e-01 -8.37001503e-01 +1.11520565e+00 +8.65420222e-01 +1.77901137e+00 +2.52005041e-01 +1.26872972e-01 +8.15730929e-01 +2.26921961e-01 -1.04015219e+00 +1.27198946e+00 -6.66324854e-01 +1.56165552e+00 -5.78093171e-01 -2.64997989e-01 -1.09319794e+00 +5.73820889e-01 -3.15441370e-01 -1.15923882e+00 +6.38116241e-01 -1.82302654e-01 +2.49942362e-01 -4.70842779e-01 -1.18674803e+00 +1.06800520e+00 -8.36171865e-01 +1.39512539e+00 -6.24844253e-01 +1.03986168e+00 +8.45951438e-01 -4.89277452e-01 +9.85709727e-01 +6.29528565e-03 -1.86118484e-01 -8.42795491e-01 +3.89709204e-01 -4.31928724e-01 -5.21042705e-01 -1.25183392e+00 -5.20935953e-01 -5.04531026e-01 +1.46221995e-01 -2.65428163e-02 -7.48123944e-01 -1.33645797e+00 +2.00703359e+00 +2.62119770e-01 -2.59968549e-01 -9.67525065e-01 +4.67073947e-01 -1.34001660e+00 +5.39579034e-01 +1.46855164e+00 +1.77093819e-01 +1.11576080e+00 +1.70269758e-01 -1.37084031e+00 +2.19188273e-01 -2.29215667e-01 +1.59000075e+00 +1.54915762e+00 +1.74868137e-01 -1.92599460e-01 -3.85563999e-01 +1.46298349e+00 +5.23349762e-01 -2.28099540e-01 +5.51909804e-01 -9.56838429e-02 +5.54723591e-02 -2.14666319e+00 +1.32965997e-01 -6.17719553e-02 -1.36353508e-01 -8.25451076e-01 -8.64029862e-03 -1.10301781e+00 +2.44992137e-01 +1.45693600e+00 +1.73783273e-01 -3.48614752e-01 +1.47434878e+00 +3.59240383e-01 -4.30861324e-01 +1.14844739e+00 -1.98599911e+00 -1.99565959e+00 -1.87240601e+00 +8.34122658e-01 +1.04746747e+00 +1.41924417e+00 +1.32595122e+00 -6.61651492e-01 +5.46844184e-01 +7.17741489e-01 +5.11659622e-01 +1.38619828e+00 +7.65600145e-01 +8.16163242e-01 -5.00939488e-01 +1.12824571e+00 +1.08612381e-01 -1.73343509e-01 +2.66232509e-02 +9.92937207e-01 +1.09707654e+00 +6.59191310e-02 -2.46535808e-01 -1.40491083e-01 +1.35953164e+00 -1.63291544e-01 -7.20978558e-01 -2.51314402e-01 -1.11483745e-02 +9.26698029e-01 +5.58191277e-02 +2.35145301e-01 +2.19752893e-01 -5.96316457e-01 -7.65374899e-01 -7.97733307e-01 -2.80539952e-02 +2.58940667e-01 +2.07411122e+00 +1.43115377e+00 +9.95272040e-01 -2.48501122e-01 +7.79162765e-01 -7.89224327e-01 -2.90753752e-01 +2.56947428e-01 +3.21468592e-01 +6.74038112e-01 -1.28076446e+00 +1.22227788e+00 -2.73322687e-02 +7.76287258e-01 -9.83458236e-02 -3.83627534e-01 -6.80402339e-01 -3.29141587e-01 -1.65884912e-01 +4.33479160e-01 -3.97366434e-01 -1.86535090e-01 +7.94139028e-01 +1.57082784e+00 +2.00517082e+00 +1.24676001e+00 +1.51902035e-01 -5.42538725e-02 +4.41434085e-01 +1.44239652e+00 +7.53316224e-01 +9.82586443e-02 +1.82078993e+00 -1.35805249e-01 +6.39216065e-01 -2.81325728e-01 -2.56372303e-01 -1.24993598e+00 +4.14499640e-01 +6.92798853e-01 +2.19334260e-01 -2.86899298e-01 -2.98122793e-01 -1.23916343e-01 +7.22900093e-01 -1.97099835e-01 +1.33752155e+00 +7.37715125e-01 +2.50137210e-01 -4.93913591e-01 +3.97263467e-01 +1.57280314e+00 +3.85624439e-01 +8.52061808e-01 +3.83610368e-01 +2.76760101e-01 -4.96142328e-01 +8.22988749e-01 +1.08096933e+00 -3.28464091e-01 +3.15505862e-02 -1.32848904e-03 +1.57149148e+00 +1.30773172e-01 -1.24163938e+00 -6.97003603e-01 +5.91265500e-01 +1.71326911e+00 +7.87909269e-01 +3.37370992e-01 -1.14133203e+00 -4.88856494e-01 -2.74586976e-01 -6.19860351e-01 -2.44953424e-01 -4.09365326e-01 -4.59200472e-01 -7.29966819e-01 -5.44893324e-01 -2.10262388e-01 -8.60660851e-01 -9.26744401e-01 -8.71171951e-01 -1.25110638e+00 -4.94406909e-01 -1.13364291e+00 -3.41098644e-02 -2.14541721e+00 -3.54354858e-01 -4.35895950e-01 -5.58219731e-01 +5.86183369e-01 +9.04233828e-02 +3.67008388e-01 -7.42089152e-01 -1.17394313e-01 -1.52174216e-02 -1.61449003e+00 -3.29996288e-01 +1.12839704e-02 -1.26766157e+00 -1.09310973e+00 +6.27628043e-02 -6.63275063e-01 -2.46965289e-01 -2.39718616e-01 -7.71476686e-01 -2.60718435e-01 -6.78092062e-01 -3.05730283e-01 -1.12576507e-01 -4.39690113e-01 +2.27286920e-01 -7.53236592e-01 -7.88508296e-01 -7.68191278e-01 -6.84734702e-01 +4.81398553e-01 +5.08293986e-01 -6.52830720e-01 -4.16648239e-01 -3.66602808e-01 -2.64309675e-01 -9.49491560e-01 -1.85914445e+00 -1.25234258e+00 -1.84546196e+00 -1.60145387e-01 -5.66706598e-01 -1.15132797e+00 -9.45502400e-01 -6.51141256e-02 -7.57738888e-01 -4.03318673e-01 -5.17426670e-01 -7.09506750e-01 +6.36069715e-01 +1.10240526e-01 +3.59571964e-01 -1.14148116e+00 +1.09340698e-02 -7.94347823e-01 -6.13991678e-01 -3.64764154e-01 +5.99251270e-01 -1.00298953e+00 -4.87535238e-01 +6.16020560e-01 -7.21673369e-01 -1.12208128e+00 -8.16058755e-01 -5.51594496e-02 -5.32435834e-01 +1.83775783e-01 +4.56499219e-01 -3.49518359e-01 -6.24263465e-01 -5.94514757e-02 -1.03000963e+00 -8.28357279e-01 +1.17711619e-01 +1.06845558e+00 -1.00762606e+00 -4.58064437e-01 -1.21138060e+00 -1.21081793e+00 +5.12284972e-02 -4.41377491e-01 -4.06632394e-01 -9.44459677e-01 -5.66303909e-01 +1.13228783e-01 -4.88546014e-01 +9.14067686e-01 +5.32151103e-01 +7.07204282e-01 +1.39127657e-01 +1.29727399e+00 -5.03297567e-01 -7.77160451e-02 -5.64243734e-01 -2.63878554e-01 +1.16929638e+00 -3.36706549e-01 -3.36333781e-01 -6.04345679e-01 +2.39786983e-01 -8.64017785e-01 -6.46279633e-01 -3.39379221e-01 -7.12416887e-01 +1.65919363e-01 -2.77694762e-01 -3.38285327e-01 +1.55297786e-01 -8.61209333e-01 -9.92963970e-01 -8.50845277e-01 +3.44944477e-01 -1.13983499e-02 +1.29825115e+00 +2.10554689e-01 +1.17059255e+00 -5.29056013e-01 +1.50481433e-01 -2.73670077e-01 -5.75778484e-01 -1.43283650e-01 +4.86475676e-02 -1.37987912e+00 -4.34349835e-01 +1.16555679e+00 +1.62026197e-01 -1.21953122e-01 -1.78833723e-01 -7.11558759e-01 -8.28920960e-01 -3.44878763e-01 -4.97922488e-03 -5.25832772e-01 -2.61526406e-01 -2.56656796e-01 +6.44966304e-01 +1.53692770e+00 +3.44148934e-01 +1.48848757e-01 +2.24448979e-01 -4.65592533e-01 +1.87559023e-01 +7.88240790e-01 +3.37127477e-01 -3.14943463e-01 +1.52979183e+00 -1.26716390e-01 +9.25500914e-02 -4.63171661e-01 -8.55578983e-04 -8.78119707e-01 +4.35567498e-01 +4.26476896e-01 -5.89559227e-02 -2.47528195e-01 -6.94782555e-01 -1.70584187e-01 +7.46416807e-01 -8.16270649e-01 +1.06832337e+00 +3.69875461e-01 -6.99898601e-01 -7.92410076e-01 -1.82394698e-01 +1.01875329e+00 -5.13694763e-01 +2.02512220e-01 +3.54245096e-01 -6.27780259e-01 -1.21267088e-01 +1.11111200e+00 +7.77750015e-01 -8.79717767e-01 +1.06361493e-01 +4.23980325e-01 +4.75397527e-01 -6.07273519e-01 -2.74919987e+00 -6.89318478e-01 +9.10238564e-01 +8.51316452e-01 +8.65469635e-01 +1.38236433e-01 -9.72783923e-01 +2.85473078e-01 +6.64427280e-01 -1.39351511e+00 +6.78558528e-01 -6.84831917e-01 +3.96810651e-01 -1.61700082e+00 +7.04062462e-01 +5.93587816e-01 +2.17257902e-01 -1.11236215e+00 +1.09678173e+00 +1.27168739e+00 +9.24297497e-02 -7.53015131e-02 -9.81251657e-01 +5.76754332e-01 +2.49771506e-01 +3.27573508e-01 -7.59904236e-02 +7.72455633e-01 +3.76868173e-02 +4.04278517e-01 -4.89226550e-01 +6.08285785e-01 +4.23607141e-01 +1.04698181e+00 -6.42922044e-01 +7.66917408e-01 +1.71383536e+00 -1.79666734e+00 -1.22098196e+00 +2.12295517e-01 +1.30489814e+00 -1.62389264e-01 +2.79904127e-01 +1.55243665e-01 +1.28824413e+00 +1.51235119e-01 +3.45332026e-01 -1.22405386e+00 -1.05933897e-01 -1.06103075e+00 +7.94090688e-01 +1.31845683e-01 +1.84088405e-02 +1.07278496e-01 -7.97605336e-01 -1.58417082e+00 +4.32489961e-01 +1.13036461e-01 -4.74370599e-01 -1.24178994e+00 -1.96354663e+00 -1.74850523e+00 -7.39707887e-01 +1.21636367e+00 +9.78214741e-01 -6.35556757e-01 -1.34354413e+00 +6.26933396e-01 +1.09077311e+00 -2.89966434e-01 +1.35926768e-01 +7.94713974e-01 +3.11069041e-01 +1.75294787e-01 +3.24049383e-01 +9.60336208e-01 -2.46913254e-01 -5.43886065e-01 +4.52381462e-01 +7.29248405e-01 -5.78625023e-01 +5.39795995e-01 -1.64701986e+00 +1.33290970e+00 -1.21281676e-01 +1.80043370e-01 -9.39783394e-01 +1.46038079e+00 +2.61656553e-01 -9.11049545e-01 +3.93150793e-03 -7.80442894e-01 -2.53296077e-01 +8.22747469e-01 +1.35904491e+00 +1.13926627e-01 -6.61484420e-01 -9.92442608e-01 +1.60315502e+00 +5.30613363e-01 -1.95200711e-01 +9.15387094e-01 -9.25836146e-01 -1.41571426e+00 +7.61398137e-01 -3.32097501e-01 +3.83533090e-01 +1.97113708e-01 -9.60776567e-01 -2.69620270e-01 +2.32210532e-01 -6.17511094e-01 +1.95558643e+00 -1.11007941e+00 +5.49338423e-02 -1.62795997e+00 -1.60940039e+00 -4.53685075e-01 -6.76654160e-01 -1.09028518e+00 -8.32959950e-01 -1.29840922e+00 -1.41252506e+00 -1.16425514e+00 -2.95354147e-02 -1.80245161e+00 -2.31418228e+00 -1.09018230e+00 -3.77227098e-01 -9.17709410e-01 -5.85648417e-01 -1.39117754e+00 -1.32768798e+00 +4.35395807e-01 -1.01389802e+00 -2.67364029e-02 -9.52933908e-01 -5.21021560e-02 -5.24823368e-01 -1.58218741e+00 -1.56436551e+00 -2.16124845e+00 -1.09743059e-01 -9.24557567e-01 -4.41965610e-02 +1.60158426e-01 +6.49264514e-01 -1.39228606e+00 -7.18719959e-01 -9.34087396e-01 -8.96547139e-01 +2.61623710e-01 -2.31438413e-01 -6.18819356e-01 -1.21688277e-01 -2.09246844e-01 -7.34804928e-01 -4.37354922e-01 -1.51070082e+00 -6.44782603e-01 -1.06594473e-01 -4.94927555e-01 -9.43043590e-01 +2.98154652e-01 +5.58204889e-01 -1.91430256e-01 -8.33944976e-01 +2.43409410e-01 -5.24350762e-01 -2.88541436e-01 -1.14447609e-01 -5.61420083e-01 +6.41945004e-01 +4.47840631e-01 -1.33617115e+00 -9.40055013e-01 -2.53120780e-01 -2.95329899e-01 -5.42812943e-01 -6.35845140e-02 -1.24669313e-01 +5.11677980e-01 +1.57278225e-01 +3.61121982e-01 +7.50194013e-01 -1.45229173e+00 +1.05367333e-01 +3.29774827e-01 -7.72921801e-01 +4.33358341e-01 -9.62079763e-01 -8.03402424e-01 -8.80032241e-01 -2.26662099e-01 -1.57324255e+00 -9.62623358e-01 -6.12418830e-01 -1.32130727e-01 -3.31843734e-01 +8.19875672e-02 -6.81530654e-01 +5.42344451e-01 -6.36546195e-01 -6.20728552e-01 +3.43007684e-01 +5.00045300e-01 -3.83684695e-01 +1.03202917e-01 -7.52523065e-01 -3.68628740e-01 +5.77506602e-01 +1.33467302e-01 +2.68418230e-02 -8.34003448e-01 -4.02708828e-01 +1.16403961e+00 -3.96637499e-01 -4.64625865e-01 +4.38321650e-01 +2.93224007e-01 +2.48284519e-01 +2.20204902e+00 -1.57877541e+00 -1.15878046e+00 +1.75998062e-01 -6.06836855e-01 +4.83466685e-01 +1.96849629e-01 +1.29581261e+00 +1.83150041e+00 -3.35362583e-01 -7.25610927e-02 +2.79086769e-01 +1.73156872e-01 +1.40357912e+00 -4.78554629e-02 +6.12974465e-01 -4.56325322e-01 -1.09240377e+00 -7.35150874e-01 +4.18003425e-02 +5.38953662e-01 +7.23329067e-01 +2.83929020e-01 +3.34286720e-01 -5.95478117e-01 +1.69398463e+00 -1.30672359e+00 +7.78238952e-01 -5.29823482e-01 +1.12112582e+00 +6.77278817e-01 -1.56393185e-01 -1.49808395e+00 -1.16163835e-01 +1.52453959e+00 +3.39478046e-01 +1.58081591e-01 -6.73869193e-01 -6.26043618e-01 -6.54171169e-01 +7.37950027e-01 -3.78979057e-01 +8.23525786e-01 -1.15015566e-01 +5.45310616e-01 +1.42846751e+00 +5.32118797e-01 +1.99306265e-01 -1.13622224e+00 +1.32265234e+00 +4.00949836e-01 +4.17171985e-01 +2.65667766e-01 -6.46621168e-01 -3.28786254e-01 +5.69070637e-01 -1.41380441e+00 +2.87872195e-01 +2.21301600e-01 +1.20089400e+00 +1.26917064e-01 -1.25101641e-01 +1.09553671e+00 -3.93933579e-02 -8.82679224e-02 +1.22020960e+00 +2.10892960e-01 -4.45350140e-01 +1.44881248e+00 -7.82659590e-01 -4.35181826e-01 +1.50907266e+00 +3.06042820e-01 -1.38505650e+00 -6.87514246e-02 +6.70663714e-01 -2.79541939e-01 +2.59194165e-01 -5.18977225e-01 -7.01992631e-01 +5.79191267e-01 -5.70389152e-01 -1.05570303e-02 +1.46014106e+00 -1.29113948e+00 +3.65183324e-01 +1.91679165e-01 -8.18137228e-01 -6.35621667e-01 +4.18551296e-01 -7.37805367e-01 +7.06803873e-02 -1.52228570e+00 +6.83939397e-01 +7.73155987e-01 -1.90800074e-02 -2.48059914e-01 -5.76110967e-02 -1.76337603e-02 +4.73933250e-01 +4.95624095e-01 -5.76613784e-01 -1.27029717e+00 -3.38298529e-01 -1.76388752e+00 -5.21759033e-01 -6.59570396e-01 +1.11515391e+00 +1.75669205e+00 -3.46522421e-01 -5.03574967e-01 +1.89776435e-01 +1.13367999e+00 +7.46121705e-01 -4.49117005e-01 +4.58168268e-01 -2.26137906e-01 -9.55040932e-01 -1.10117364e+00 +7.65800238e-01 -1.84783727e-01 +1.51757133e+00 -2.59830561e-02 -4.26267952e-01 -1.12498887e-01 +1.59670043e+00 -2.08396292e+00 +6.97011173e-01 +1.79547314e-02 +1.05344307e+00 +7.72559106e-01 +2.19829023e-01 -1.08410752e+00 -5.35659611e-01 +1.00312388e+00 +2.76999027e-01 +2.95181543e-01 -1.11408937e+00 -6.89969957e-01 -1.25655317e+00 +7.88652182e-01 -9.59388554e-01 +1.99035466e-01 +6.31132483e-01 -2.27537185e-01 +5.95557570e-01 +7.70301418e-03 +1.06141293e+00 -1.06689608e+00 -4.18500066e-01 -7.37983882e-01 +1.43644118e+00 +8.18560004e-01 -6.74813151e-01 -6.51168048e-01 +5.07920980e-01 -4.38113153e-01 -7.82529533e-01 +6.68846965e-02 +5.15763521e-01 +4.26151305e-01 -9.74637389e-01 +9.29509699e-01 +4.02937442e-01 -1.10142732e+00 +6.55385196e-01 -5.35629332e-01 -5.52656591e-01 -2.70039767e-01 +1.55989051e-01 -1.35553730e+00 +8.67902935e-01 -1.03991553e-01 -1.34726882e+00 -1.35459471e+00 -1.57903165e-01 -9.20606256e-01 -6.19621336e-01 -4.95589674e-01 -1.34263754e-01 +1.37158501e+00 -6.03813052e-01 +2.30309770e-01 +1.14596236e+00 -2.12724194e-01 -8.76427293e-02 -1.16641521e+00 -1.04783845e+00 -3.11810672e-01 +6.75923169e-01 -3.47343624e-01 +6.50875151e-01 +5.90120792e-01 +5.18940747e-01 -9.89733517e-01 -3.58518064e-01 +1.43614233e-01 +6.37959599e-01 +2.86532402e-01 +7.41373420e-01 +4.77892190e-01 +4.66351002e-01 -4.92799312e-01 +6.53383017e-01 +4.86096144e-01 +2.18374610e-01 -8.67054015e-02 -9.21049833e-01 -7.82299712e-02 +2.56157547e-01 -3.71257663e-01 +3.16162080e-01 +7.20316231e-01 +5.33575177e-01 +5.98798811e-01 +7.83793390e-01 -2.77043343e-01 +7.27886736e-01 -2.84982651e-01 -1.89197719e-01 -5.53894520e-01 -1.02087808e+00 +2.18457267e-01 +1.06394678e-01 -5.44668853e-01 +9.99181941e-02 +5.21215141e-01 -8.64700198e-01 -1.89681709e-01 -1.08273065e+00 +2.40414873e-01 +6.89933077e-02 -1.09959682e-02 -3.93954277e-01 +3.79325300e-01 -2.51572341e-01 -1.44303605e-01 +4.88751411e-01 -3.90526563e-01 -1.04130566e+00 -5.51022053e-01 -6.76361740e-01 -7.26517200e-01 -1.48413551e+00 -3.60743254e-01 +8.11054885e-01 -6.77833036e-02 -6.52620733e-01 +2.24833146e-01 -4.14358705e-01 -2.58458555e-01 +2.97026094e-02 +2.78163821e-01 -4.97625142e-01 -1.21383794e-01 -4.63622808e-02 +7.00148165e-01 -1.15890753e+00 +2.17099383e-01 +3.08221523e-02 +6.53992951e-01 -2.51621664e-01 +1.57432575e-02 -7.19128668e-01 +1.23723364e+00 +7.54059434e-01 -6.30089700e-01 -6.47948861e-01 +5.49582019e-02 -1.04425758e-01 -1.19683184e-01 +3.89238209e-01 -1.63115934e-01 -2.05742434e-01 -7.44258285e-01 -4.47599202e-01 -7.07080215e-02 -6.44948781e-02 +9.22171295e-01 -3.22363675e-01 -1.22803259e+00 -1.03479767e+00 +2.98748374e-01 -8.18743706e-01 -4.87186074e-01 -3.58779490e-01 +2.84776151e-01 -5.91114163e-01 -5.73011279e-01 -1.78352094e+00 -6.52466342e-02 -1.07068145e+00 -9.81615186e-01 +1.42366266e+00 -1.49480104e+00 -3.30314726e-01 -2.25091502e-01 -4.20976311e-01 -8.07195127e-01 -1.03163576e+00 -3.14889252e-01 -4.19857174e-01 -4.97516543e-01 +1.13179934e+00 -3.97513151e-01 +5.05845070e-01 +9.20150995e-01 -1.86005664e+00 -6.02003098e-01 -7.18620420e-02 -9.83677745e-01 +2.62289852e-01 -1.66145778e+00 -6.31840289e-01 -6.87253356e-01 +4.98680025e-02 -5.65873563e-01 -1.52404630e+00 +2.09152117e-01 -6.95702851e-01 -1.64122176e+00 -9.72257674e-01 -3.71713430e-01 -8.31398070e-01 -7.71207511e-01 -4.00325596e-01 -1.28019854e-01 -1.49158013e+00 -1.54574752e+00 -1.59751928e+00 -3.61980885e-01 +5.66278875e-01 -5.95682323e-01 -3.90840434e-02 -4.92091030e-01 -5.47618985e-01 -1.61057219e-01 -5.93545377e-01 -1.20849299e+00 -8.62127960e-01 -2.39261344e-01 -1.03451562e+00 -1.06181107e-01 +8.95739734e-01 -1.29980183e+00 -2.81395465e-01 -6.66912675e-01 -9.57750529e-02 -2.21394300e-01 -1.62941658e+00 -8.68532717e-01 -1.22582281e+00 +2.44488329e-01 -2.05757475e+00 -9.99979377e-01 +1.03987622e+00 -1.66181505e+00 -4.99913275e-01 -7.99595475e-01 +2.91202992e-01 -6.30676568e-01 -9.16518033e-01 -7.45513260e-01 -8.25621903e-01 -2.47526750e-01 -5.89124084e-01 -9.59098756e-01 +4.54734683e-01 -7.70710051e-01 +7.82561898e-01 -1.37416732e+00 -9.22370553e-01 -2.88797796e-01 -1.38357460e-01 -1.24943793e+00 -1.50539899e+00 -2.80807674e-01 -9.13751900e-01 -1.23634720e+00 -2.60316432e-01 -1.38798738e+00 +1.91510752e-01 -9.21347022e-01 -1.95062131e-01 -2.06197882e+00 -7.53617167e-01 -1.49807918e+00 -5.56644678e-01 +3.02566886e-01 +4.20189977e-01 -1.44126189e+00 +6.76487863e-01 -2.09918544e-02 -1.32571983e+00 +4.52936232e-01 -4.74305719e-01 +1.50648698e-01 -3.73776585e-01 +7.67639399e-01 +1.04742014e+00 -6.28889441e-01 +8.51819515e-01 -3.09373617e-01 +9.28970098e-01 -2.93937236e-01 +1.19912783e-02 +4.17049110e-01 -5.42505026e-01 +1.85640693e-01 +2.46204823e-01 +5.38283348e-01 +2.62837857e-01 -4.23229277e-01 +4.49990422e-01 +7.62393832e-01 -1.86057711e+00 +1.50578725e+00 -4.78040516e-01 -4.83190149e-01 -1.11211288e+00 +1.72803237e-03 +3.06607842e-01 -6.83441699e-01 +1.42388716e-02 -2.65020162e-01 -1.97872818e-01 -2.95707732e-01 +3.42207670e-01 +1.04342423e-01 +4.93704110e-01 -1.99198246e+00 -6.81678236e-01 +1.22998826e-01 -4.60464597e-01 +1.93946630e-01 -6.64286315e-02 -3.46111506e-01 -6.77015007e-01 -8.98594186e-02 -4.12046075e-01 +6.50499523e-01 +1.65087789e-01 -4.53810185e-01 +8.14417839e-01 -1.30426013e+00 -1.01298845e+00 +4.21165116e-02 +1.18746173e+00 -9.88916039e-01 -1.11685729e+00 -1.14192939e+00 -8.34328353e-01 +1.43521409e-02 -2.59993076e+00 -3.66490513e-01 -8.46887469e-01 -1.39666155e-01 -1.04542947e+00 -8.48891973e-01 +1.31583858e+00 +3.43772292e-01 -8.71543765e-01 +7.51395762e-01 +2.50988781e-01 -1.15772069e+00 +8.58727157e-01 -1.80746520e+00 -1.55099380e+00 -6.12477362e-01 +4.67159986e-01 -4.77294438e-02 +9.32895362e-01 -6.81708694e-01 +7.22944289e-02 -3.47307265e-01 +3.45606238e-01 +6.51394188e-01 -4.79027331e-01 +1.23394787e-01 -3.15077633e-01 +8.89117360e-01 -1.00230739e-01 +2.89793890e-02 -1.35828805e+00 -1.51265204e-01 -4.42455769e-01 -1.31599939e+00 +3.79137605e-01 +1.63686890e-02 -9.81755614e-01 -1.14786065e+00 +1.80248797e-01 +1.17617033e-01 -1.15051889e+00 -2.45389163e-01 -1.91013888e-01 -3.39038730e-01 -5.67548811e-01 +3.19316596e-01 +3.07434410e-01 -9.60571885e-01 +2.74707317e-01 -7.96664879e-02 +1.70118737e+00 -3.76825035e-01 +8.19396853e-01 +3.20419014e-01 +6.15987837e-01 -2.66721249e-01 -1.01302505e-01 -8.66554864e-03 -2.57704318e-01 -1.47180939e+00 +8.50262195e-02 -8.58706295e-01 -6.96027219e-01 +5.01720607e-01 -9.60924447e-01 +2.74829745e-01 -1.46716639e-01 -4.29707736e-01 +6.01580203e-01 -1.44382989e+00 -7.48877227e-01 -2.05017373e-01 +6.15319908e-01 -4.90742922e-01 -1.94366083e-01 +1.78229362e-01 +4.66930978e-02 -9.24851894e-01 +5.26613891e-01 +2.45438382e-01 +5.67453265e-01 -7.89764896e-02 -4.15390611e-01 +5.60057424e-02 -1.40726542e+00 -7.88182795e-01 -6.61601201e-02 +1.27971375e+00 -2.81991720e-01 -8.07578385e-01 +6.17777288e-01 -9.34679985e-01 -7.37684369e-01 -2.73037940e-01 +6.04105055e-01 -6.36116564e-01 +3.28670263e-01 -5.32262743e-01 -9.66552973e-01 -3.46225619e-01 -1.14513147e+00 -1.41745317e+00 +3.42507094e-01 -1.14169109e+00 -7.32580900e-01 -5.40871918e-01 -3.65013093e-01 +1.29754162e+00 -4.64583069e-01 -6.97734654e-01 +4.97991830e-01 -8.95586967e-01 +4.40253913e-01 -2.33819294e+00 -4.66990858e-01 -6.23379230e-01 -3.01212817e-01 -1.61409393e-01 +8.00489962e-01 -6.19759977e-01 +1.45571446e-03 -8.14827263e-01 +5.81725597e-01 +3.59916717e-01 -8.12585235e-01 -6.02181017e-01 -5.91473401e-01 +9.88556802e-01 +3.73290777e-01 -1.90881893e-01 -8.55747759e-01 -7.34725118e-01 -2.86466837e-01 -7.22163498e-01 +5.07030666e-01 +6.63414821e-02 -6.18383169e-01 -5.68717048e-02 -6.39448091e-02 -4.78579849e-01 -5.33452034e-01 -6.08039856e-01 -8.65062416e-01 -1.66302299e+00 -4.20083970e-01 +1.66904166e-01 +4.34086651e-01 -7.76689887e-01 +5.63694537e-01 +7.77561441e-02 +2.23446870e+00 -5.08423388e-01 +2.36490145e-01 -1.06940997e+00 +9.19467032e-01 +5.00801563e-01 +1.65212348e-01 +2.16086671e-01 -9.45502400e-01 -2.12976068e-01 +9.30952668e-01 +6.09132610e-02 +2.26588145e-01 -2.62020111e-01 -5.47553897e-01 +3.30954105e-01 +5.16990781e-01 +4.16385680e-02 +1.61353052e-01 +8.88783455e-01 -2.36339152e-01 -3.88317332e-02 -4.53119606e-01 -7.55512893e-01 +3.89917865e-02 -7.64341116e-01 -3.96688700e-01 +1.55344260e+00 +1.12278748e+00 -1.00451970e+00 -2.26987451e-01 -3.37208658e-01 +8.84742856e-01 -2.34066173e-01 -2.45200038e-01 +6.36731684e-02 -9.99167040e-02 +2.54387707e-02 -5.43146074e-01 +2.81432718e-01 +8.35165560e-01 -4.80796285e-02 -8.64743769e-01 -4.76067327e-02 -4.62968230e-01 -4.32481289e-01 -7.95888186e-01 -8.43507409e-01 +3.80369127e-01 -1.22642219e+00 -3.78425032e-01 +2.09581569e-01 -8.12338591e-01 -4.94633853e-01 -2.84060836e-01 +5.11718869e-01 -9.22809616e-02 +3.18212241e-01 -3.79806519e-01 +8.04607272e-01 -7.58551776e-01 -9.82742608e-02 +2.51954466e-01 +5.07232964e-01 -2.70287339e-02 -6.63998574e-02 +1.20246339e+00 -1.04381931e+00 +3.32954258e-01 +3.08276415e-01 +1.79430589e-01 +5.10889351e-01 +1.06903017e+00 -7.93778896e-02 +2.23619968e-01 +3.13258111e-01 +2.70057440e-01 -8.06345820e-01 +1.10793924e+00 -7.46242642e-01 -8.74524891e-01 +2.43931070e-01 -4.95648414e-01 +2.71394372e-01 +1.91645175e-01 -1.37527823e-01 +5.16128004e-01 +2.74859935e-01 -5.11510298e-02 -1.73704177e-01 +2.40589052e-01 -8.19284916e-02 +1.65897691e+00 +8.59240532e-01 -9.82388735e-01 -7.16262236e-02 +2.04383492e+00 -1.31182694e+00 -3.29689056e-01 -2.73955435e-01 +1.21264987e-01 +2.68162161e-01 +1.30010641e+00 +6.79152131e-01 -8.05246830e-01 -2.46158436e-01 +8.68101239e-01 -2.11406156e-01 +1.39714181e-01 -9.66796279e-01 +6.91775262e-01 -1.73545495e-01 -1.24495327e+00 +3.18699181e-01 -5.58453441e-01 -3.97715777e-01 +2.11566702e-01 +1.76330119e-01 -1.67929810e-02 -1.15770459e+00 +1.53713334e+00 +1.43317595e-01 -3.21639806e-01 -4.60478216e-01 +3.22624713e-01 +7.99751356e-02 -4.47005123e-01 -1.18543351e+00 +1.10809696e+00 -6.72054529e-01 -5.74454665e-01 -7.63072431e-01 +6.45387888e-01 -7.06996560e-01 +5.91220796e-01 -2.50878185e-01 +9.03536230e-02 +1.09933043e+00 +1.70287836e+00 -4.38430667e-01 +1.44849166e-01 -2.87271917e-01 -6.64631963e-01 +6.63276911e-01 +2.07614496e-01 -4.91491944e-01 -7.84744978e-01 -6.29308105e-01 +1.27899647e-02 -7.98896790e-01 -2.91002154e-01 -7.66572118e-01 -3.82438868e-01 +1.30787647e+00 +1.50641277e-01 -8.91179442e-01 -5.85122287e-01 -2.93260545e-01 -6.95590734e-01 -7.99323201e-01 -9.45932195e-02 +5.34179270e-01 +4.59595710e-01 +1.24908316e+00 -1.22404051e+00 -9.95269120e-01 -8.99252713e-01 -3.06247294e-01 +3.04456294e-01 -8.55066329e-02 +6.99825585e-02 -9.17973638e-01 +2.04925418e-01 -9.21070695e-01 -7.35832080e-02 -3.51801038e-01 -1.11473203e+00 -1.05283773e+00 -2.02564240e+00 -2.65086740e-01 -2.70345300e-01 -6.51811838e-01 -1.16295719e+00 +6.26153424e-02 -7.21395791e-01 +7.64962658e-02 -7.93526351e-01 -1.09001267e+00 -1.66015387e+00 -8.11182618e-01 +2.36784250e-01 +3.86549234e-01 +3.48306745e-02 +4.63708967e-01 -3.47212970e-01 -7.66682565e-01 -2.45927167e+00 -3.26774865e-01 -9.11931634e-01 -2.87218451e-01 -1.37862659e+00 +1.54882944e+00 -8.09059918e-01 -3.21217719e-03 +1.62187800e-01 +2.67217070e-01 +2.93036342e-01 -2.90924758e-02 +7.75425315e-01 -4.68180813e-02 +1.16928446e+00 -3.47254366e-01 +9.79423106e-01 -4.60979119e-02 -2.89147228e-01 +2.24048138e-01 +6.59629166e-01 -7.35466897e-01 -1.71621799e+00 +3.28959346e-01 +1.05003631e+00 -4.85581666e-01 -8.56478631e-01 +3.63785416e-01 -7.28767276e-01 -6.69705272e-01 -2.31385112e-01 -1.27130091e-01 -1.08876988e-01 -2.20092878e-01 +1.35238364e-01 -9.92021322e-01 -7.44849145e-01 -1.51310587e+00 -4.82595086e-01 +2.08335727e-01 -6.88368142e-01 -9.22460914e-01 +1.26490247e+00 -1.96633309e-01 -6.06908321e-01 +1.07448864e+00 -5.89628220e-01 -4.10990119e-01 -6.35684967e-01 -5.33176064e-01 -7.57526994e-01 -2.92850375e-01 -2.34154508e-01 +4.47175443e-01 -4.39311862e-02 +1.80240534e-02 +3.97541374e-01 +7.73965240e-01 -2.63820499e-01 -4.19219613e-01 +1.25639284e+00 -6.24245644e-01 +4.99161869e-01 +6.97084725e-01 -7.85023034e-01 +4.46704447e-01 -5.55289865e-01 -5.90352535e-01 +9.93803859e-01 +2.17692780e+00 +9.97659788e-02 +2.84407943e-01 +2.41709948e+00 -6.92542911e-01 +2.61906624e-01 -7.89901853e-01 -6.85408533e-01 +4.56650913e-01 +7.34892309e-01 -1.30113173e+00 -7.56746158e-02 -1.47448444e+00 +2.79081017e-01 +3.12732495e-02 +5.44773638e-01 +1.08006060e+00 -3.76967639e-01 +1.44411579e-01 +3.81557703e-01 -3.92439276e-01 +4.00654674e-01 -1.67358518e-01 -4.62789983e-01 -5.14501967e-02 +4.65038300e-01 -4.57341701e-01 +1.44607735e+00 +9.18095231e-01 -1.03744698e+00 -2.44742870e-01 +1.47326618e-01 -3.77355933e-01 -2.01091155e-01 -3.49988610e-01 -6.20352864e-01 +1.51794720e+00 +2.04689398e-01 -2.53281265e-01 +8.35929453e-01 +3.36444259e-01 +4.51156855e-01 -7.11608052e-01 +5.73034644e-01 -5.64818025e-01 +4.58853751e-01 -5.34827352e-01 -4.06506836e-01 -6.80028081e-01 -3.71534050e-01 +1.87011704e-01 +4.39564586e-01 +7.57151186e-01 -1.98754299e+00 -4.23366070e-01 +1.55134869e+00 -1.51632745e-02 -6.26950204e-01 +1.77235439e-01 -1.29332930e-01 -5.56490049e-02 -4.35328841e-01 -9.17350233e-01 +5.90432048e-01 -1.74179912e-01 -3.36160511e-01 