#Parameter# /vanilla-lstm-builder/_0 {400,21} 134401 ZERO_GRAD
-3.27283703e-02 -9.49503295e-03 -6.01949841e-02 +1.67921837e-02 +9.40595046e-02 -1.43670058e-02 +8.59770775e-02 -3.01611628e-02 +8.42691660e-02 +4.08005901e-02 +1.30388197e-02 +3.24957147e-02 -1.16950925e-02 -3.07881441e-02 +4.14137766e-02 +7.52239376e-02 +1.01716787e-01 +1.43918609e-02 -4.80034947e-02 -5.18863127e-02 +1.13097049e-01 -8.31726119e-02 -3.88937891e-02 -1.72030833e-02 +3.44451480e-02 -5.05396836e-02 +2.45111287e-02 +8.54839236e-02 +9.06024426e-02 -9.56268758e-02 -8.90651643e-02 -3.91057692e-03 -5.78439869e-02 -1.13297731e-01 -1.07710578e-01 -2.80763824e-02 -8.61493051e-02 +5.87037131e-02 -1.11232094e-01 -5.27708828e-02 +4.28327806e-02 +6.66045472e-02 +8.34433138e-02 +5.26525490e-02 -1.19211830e-01 +9.33546480e-03 +1.02265431e-02 -9.97052900e-03 -2.15909798e-02 -6.76857606e-02 +7.72311492e-03 +1.53836119e-03 +1.53789865e-02 +8.56987610e-02 +8.06680247e-02 +3.62841859e-02 +2.46592909e-02 -1.15275048e-02 -2.12406404e-02 -5.39249144e-02 -8.21347609e-02 +4.01248736e-03 -9.29021016e-02 -9.02783945e-02 -1.12619869e-01 -6.89693689e-02 -4.06289473e-02 -2.22178679e-02 +5.51645011e-02 -4.87828739e-02 -4.07728255e-02 -1.70438718e-02 +9.30176303e-02 -7.69288745e-03 +1.49284238e-02 +5.96735328e-02 -9.32934806e-02 -1.09134838e-01 +3.65179521e-03 -1.27270473e-02 +9.95045006e-02 -1.00168340e-01 +7.13176578e-02 +1.18393980e-01 -9.05139819e-02 -6.73221350e-02 +8.16370323e-02 +5.70244193e-02 +1.15924992e-01 +8.98633823e-02 -2.58146450e-02 +3.55264843e-02 +7.05140308e-02 +2.08225306e-02 -6.88359812e-02 -3.08496580e-02 -9.04405341e-02 -1.18941642e-01 +4.68030721e-02 -3.54712382e-02 +1.12778567e-01 -1.60051137e-02 -1.06515020e-01 +7.50590637e-02 +2.40042098e-02 +9.53102708e-02 +6.51662750e-03 -5.97812384e-02 -2.25432310e-02 +5.31709231e-02 -1.33945597e-02 -6.15355633e-02 +9.66417044e-02 +1.15346633e-01 -7.00305998e-02 -7.27806613e-02 +1.68613046e-02 +1.15236267e-02 +1.40614389e-02 +4.19823453e-02 -1.62633136e-02 +6.93202093e-02 +4.37537879e-02 -3.53706218e-02 +1.10026605e-01 +2.32045818e-02 -4.23766151e-02 +8.44086930e-02 +7.42417648e-02 -9.05579850e-02 -6.59387512e-03 +3.09026353e-02 +8.68677497e-02 -1.41740721e-02 +1.80106536e-02 -3.09573896e-02 +3.66370529e-02 -7.55823702e-02 -7.28856325e-02 +9.22137201e-02 -4.66258749e-02 -8.19451883e-02 -1.08366095e-01 -8.41043517e-02 -6.11050203e-02 -2.94963606e-02 +7.03464001e-02 +7.77113289e-02 +4.00858223e-02 -6.97146654e-02 +1.15692258e-01 +1.35977967e-02 +7.03974590e-02 +3.30398642e-02 -2.80056037e-02 -1.06706023e-02 -9.42798406e-02 -6.77440837e-02 -7.81061575e-02 +2.12044287e-02 -7.70706832e-02 +1.95960347e-02 +1.86690651e-02 -4.89177145e-02 -1.19376682e-01 -6.99709356e-02 -1.11424088e-01 -9.62075442e-02 -6.44383952e-02 -8.18101689e-02 -8.61420482e-02 -1.30918594e-02 -1.18418626e-01 -6.55245110e-02 +7.79404938e-02 +4.87104505e-02 -9.75731909e-02 +6.98475912e-02 +7.61826709e-02 +5.62362745e-03 +1.71931647e-02 -1.13253646e-01 -4.23419848e-02 +7.67232180e-02 -5.39237522e-02 -5.64510282e-03 -9.79140550e-02 -7.63150677e-02 +8.02981183e-02 +8.87432471e-02 -1.04461133e-01 -1.11232325e-01 +1.19626345e-02 +4.40530851e-02 +8.61417800e-02 +3.40732113e-02 -6.52985554e-03 +1.65165085e-02 +4.74457396e-03 -1.25750853e-02 +8.08175504e-02 -8.16991702e-02 -1.87382437e-02 +4.71097827e-02 +9.95884389e-02 +6.90137371e-02 +1.05379953e-03 -1.84145309e-02 -3.97268459e-02 -1.03907481e-01 -1.90317631e-02 +2.70618629e-02 +2.79027037e-02 -5.04900254e-02 -1.04666255e-01 +1.04187541e-01 -8.59757885e-03 -1.02154776e-01 -1.82166025e-02 -8.59199315e-02 +6.35162666e-02 -3.84170040e-02 +6.59824163e-02 +7.00308084e-02 +8.67427960e-02 -6.89423233e-02 +1.07495591e-01 +9.27855521e-02 -9.94935408e-02 -9.85785797e-02 +1.02137439e-01 -1.14699662e-01 -1.08215539e-02 +8.07677805e-02 -6.62139431e-02 +1.06587648e-01 +4.93285023e-02 +5.03721945e-02 +4.41518798e-02 +6.99893907e-02 -1.17688306e-01 -1.10398345e-01 +1.07536308e-01 -2.50324351e-03 +3.68991941e-02 -3.14458162e-02 +9.05593634e-02 +1.32210087e-02 -7.63324872e-02 -1.00304678e-01 +8.19242094e-03 -7.33582396e-03 +8.05488527e-02 +2.59931199e-02 +2.88868416e-03 +1.17893396e-02 +1.32382857e-02 +5.01544438e-02 +7.34221563e-02 -1.07337959e-01 +9.80010778e-02 -9.15902928e-02 +4.55211997e-02 -7.30131939e-02 -7.62608601e-03 -7.20852017e-02 +3.09229288e-02 -5.63906357e-02 -7.18289912e-02 +5.01811411e-03 -5.34798801e-02 +2.49758810e-02 -9.30564106e-02 -5.87530807e-02 +9.14141759e-02 -3.89087684e-02 +2.21581395e-05 +4.32668887e-02 +3.94232422e-02 -4.51478437e-02 +4.60400730e-02 -3.42761651e-02 -8.73111784e-02 -3.18834223e-02 -8.77774954e-02 +3.83891985e-02 +8.59572962e-02 +7.46496469e-02 -1.15543135e-01 +1.03248335e-01 +1.18337482e-01 -7.46549070e-02 -9.49481968e-03 +7.85844326e-02 +3.59221138e-02 -1.05321482e-01 +8.56657028e-02 +9.34325159e-02 -3.56853493e-02 +9.81332436e-02 +3.75869349e-02 -1.69296432e-02 -2.74903029e-02 -8.29008818e-02 -5.45472391e-02 -8.67129043e-02 -9.27935466e-02 +2.60223653e-02 +7.91561007e-02 -2.02180576e-02 +9.21595693e-02 +7.62088671e-02 +1.49412891e-02 +5.29509075e-02 -1.13487810e-01 -6.78267851e-02 -7.45639876e-02 -6.43901080e-02 +2.82991324e-02 -1.08081125e-01 -3.32779810e-03 -9.35177207e-02 +1.16013557e-01 +3.69737372e-02 -5.67078739e-02 -6.79531768e-02 +2.80629490e-02 +1.34790652e-02 +1.08780794e-01 +1.04575701e-01 +7.45989243e-03 +8.30287263e-02 -4.10718694e-02 +5.69524951e-02 -1.00769423e-01 +2.61616185e-02 +3.73911820e-02 +1.18709035e-01 +3.86006162e-02 -9.58434120e-03 -9.72645283e-02 +1.08963095e-01 -8.89634117e-02 +1.12698644e-01 -1.54999103e-02 -1.11694738e-01 -9.45291445e-02 -8.78563374e-02 -3.40971574e-02 +8.89097527e-02 -5.51484190e-02 +6.20265380e-02 -1.03218153e-01 -1.76210646e-02 -7.09224269e-02 +1.93859097e-02 -5.61281741e-02 +7.67058134e-02 +1.28832143e-02 +1.39073562e-02 +8.02898780e-03 -3.20998505e-02 +8.12210329e-03 +4.69941534e-02 -4.75911200e-02 -2.10071467e-02 -1.16799176e-01 +1.04890339e-01 -8.34381324e-04 +1.51297254e-02 -2.25592628e-02 +9.64688808e-02 -7.18650147e-02 +6.77390397e-02 +3.48731950e-02 -7.13754743e-02 -5.25226668e-02 +5.86659163e-02 +3.61475796e-02 -4.63260859e-02 +7.75554478e-02 +9.72141773e-02 +3.46788391e-03 +9.13124532e-03 -1.69483926e-02 -1.00823753e-01 +2.62928028e-02 +1.88627951e-02 +9.67617184e-02 +1.75641607e-02 +2.51061539e-03 -2.16579735e-02 -3.55864540e-02 -8.75170007e-02 -1.70511510e-02 +1.17763638e-01 +8.56309012e-02 -3.42379548e-02 -1.75269023e-02 +6.77033439e-02 -7.35603720e-02 -5.85364252e-02 -3.97915989e-02 -9.22903344e-02 +1.00908324e-01 -7.43276477e-02 -1.26541266e-02 +6.22090399e-02 -3.49509008e-02 +4.57168370e-02 -5.02878539e-02 +9.10270736e-02 +6.83604032e-02 +7.48762786e-02 -7.01930374e-02 -1.84071939e-02 +6.99991584e-02 +5.04003875e-02 +7.54090026e-02 -1.16384432e-01 -5.98187223e-02 +5.25705749e-03 +7.76257515e-02 -1.14537217e-01 -7.27530867e-02 -7.69074634e-02 -1.19014382e-01 +8.93700942e-02 -8.40612501e-02 +8.99230093e-02 -8.29937309e-02 -5.18822446e-02 +9.88879502e-02 +2.71000024e-02 +7.43154660e-02 +3.48234735e-02 +7.61040300e-03 +1.02771156e-01 -4.48034070e-02 -3.43530849e-02 +6.74258620e-02 +7.55753666e-02 -5.10785244e-02 -4.16326448e-02 +9.03215855e-02 +1.02444381e-01 -2.49631070e-02 -6.15574382e-02 -4.29667793e-02 -2.76771816e-03 -3.03674098e-02 -1.15987040e-01 -9.18072015e-02 -8.79113823e-02 +4.62423004e-02 +1.54267327e-05 +8.47729146e-02 -1.10774636e-01 -5.19018918e-02 -8.99620578e-02 -1.09849632e-01 +9.98073146e-02 -1.05522126e-01 -9.84975919e-02 +5.40941656e-02 +1.20119320e-03 -9.43921953e-02 +8.80815089e-02 +3.22417729e-02 -1.12026870e-01 +2.21987702e-02 +3.52404937e-02 +3.64881791e-02 +5.31609058e-02 -6.71477914e-02 +8.29394683e-02 -7.14598745e-02 +2.68041901e-02 +1.36751151e-02 +1.15951933e-01 +1.77140441e-02 -7.48975277e-02 +8.15816894e-02 +6.07066415e-02 -5.32043613e-02 +4.38640490e-02 +1.06807351e-01 -6.68471828e-02 -5.89286387e-02 -3.36986668e-02 -2.57359520e-02 -1.14238605e-01 +9.16710272e-02 +2.80136080e-03 -1.00249983e-01 -6.78301677e-02 +3.67169902e-02 +1.16502911e-01 +7.77406320e-02 -3.18663642e-02 -8.36399291e-03 -3.37547027e-02 +5.79137318e-02 -2.67376658e-02 -5.99197224e-02 +5.50104044e-02 +1.69587191e-02 -1.14491701e-01 -5.16248867e-02 +7.14774355e-02 -5.11618704e-02 -1.02454513e-01 -1.15662068e-03 +9.20532942e-02 +5.38335890e-02 -4.54031639e-02 +1.05124786e-02 +8.67299587e-02 -1.16451547e-01 +2.30773538e-02 -8.40289071e-02 -2.63926778e-02 -1.18666910e-01 +3.72278243e-02 +7.18107745e-02 -5.32412641e-02 -1.05412871e-01 -9.70793962e-02 -1.21014323e-02 -1.04312748e-02 -7.67943114e-02 +5.47099821e-02 -5.96744148e-03 -1.18659921e-01 -5.50419986e-02 +9.19638202e-02 +4.15233299e-02 +1.20110922e-02 +1.15684174e-01 -1.26263257e-02 +2.05366109e-02 +1.06180765e-01 +7.29632825e-02 +2.28546336e-02 -8.56674835e-02 -9.63547081e-02 -4.08645384e-02 +1.17467657e-01 -6.24125414e-02 +1.66437794e-02 +4.52128501e-04 +3.77720706e-02 +1.02483489e-01 -8.49703625e-02 -7.26963440e-03 -1.01798184e-01 -6.03416516e-03 +2.86853267e-03 +4.68268245e-03 +5.69287129e-02 -1.07745305e-01 -1.15601905e-01 +9.04405564e-02 +8.60448107e-02 -1.17575869e-01 +7.18124062e-02 +3.98033895e-02 +7.95773342e-02 +6.83591142e-02 -1.15128607e-01 +1.73382815e-02 -8.84591639e-02 -2.10050549e-02 -5.04150242e-02 -3.49829756e-02 -9.22411382e-02 -2.98827123e-02 -1.09084904e-01 -2.32297629e-02 -4.19620574e-02 -1.16417430e-01 -9.81086567e-02 +5.87169752e-02 +3.69656682e-02 -5.96540654e-03 -4.47986461e-03 -5.44932112e-02 -2.85976902e-02 +7.47388899e-02 -7.20609054e-02 -1.21601289e-02 +8.67572278e-02 -5.91435656e-02 +6.11950867e-02 -1.05753811e-02 +9.15187374e-02 -8.69415179e-02 -1.60280690e-02 +6.12125359e-02 +3.61285396e-02 -6.10404201e-02 -1.09298900e-01 -4.24206676e-03 -9.19364691e-02 -5.01059294e-02 -1.21062919e-02 -3.55321430e-02 -7.80946985e-02 +8.63751862e-03 +7.61450604e-02 -3.02784275e-02 -7.39468336e-02 -1.83928926e-02 +2.54871547e-02 -7.46841058e-02 -1.06540874e-01 +4.43854406e-02 +9.47189853e-02 +1.14269681e-01 -8.09481442e-02 +8.51392299e-02 +3.86692248e-02 +7.73376673e-02 +8.76721442e-02 -3.36305201e-02 -1.18203804e-01 +1.18459873e-01 +2.38688122e-02 +7.32289180e-02 +1.88373365e-02 -1.05587363e-01 +1.38500463e-02 +2.34423000e-02 -1.18771628e-01 +6.39793426e-02 -8.70517790e-02 +1.06402732e-01 -1.13073252e-01 -5.09192906e-02 +9.11554843e-02 -9.19167399e-02 -9.37401876e-02 +4.27344106e-02 +6.20729327e-02 -4.91080992e-02 +3.24846730e-02 +2.93353274e-02 +4.86136749e-02 +9.18563735e-03 +8.45815763e-02 +1.13182366e-01 -5.35359560e-03 -4.74765375e-02 +2.66452413e-02 +6.83722645e-02 +4.63584289e-02 +7.50809396e-03 +2.58972999e-02 +1.16243348e-01 -5.57976663e-02 +5.99337667e-02 -1.10634789e-01 +9.38023776e-02 -1.06832929e-01 -5.61958738e-02 -2.89964937e-02 -7.59558231e-02 -1.07343026e-01 -6.87476173e-02 +7.69006982e-02 +6.75315782e-02 -1.59972310e-02 +6.51819333e-02 +1.33274160e-02 +1.18878759e-01 -4.53855246e-02 -8.56648982e-02 +9.33551416e-02 -3.57708298e-02 +3.21074426e-02 +1.41415037e-02 -1.03348933e-01 -7.83899650e-02 -7.56685138e-02 +1.01917535e-01 +1.66193163e-03 +9.82317142e-03 -1.63705461e-02 -5.42508736e-02 -7.57754818e-02 -6.29463941e-02 -1.00852184e-01 -1.12631001e-01 +6.54445961e-02 +3.12919319e-02 -1.05729081e-01 +1.01786651e-01 +1.11680895e-01 +7.41014406e-02 -2.60507558e-02 +1.30085777e-02 -1.25887692e-02 +6.33221418e-02 +5.35303652e-02 -3.86218019e-02 -8.18407983e-02 +1.38841737e-02 -1.12137534e-01 +1.21398708e-02 -4.74878661e-02 -2.17987634e-02 -1.15458749e-01 +5.19776996e-03 -3.19529548e-02 -2.39537749e-03 +9.71677825e-02 -9.06894505e-02 +6.82023540e-02 -2.15120520e-02 -4.38494124e-02 +2.89843976e-02 -2.74652056e-03 -4.44252826e-02 -1.05345376e-01 +4.32814918e-02 +9.20425206e-02 -7.86289722e-02 +1.00901902e-01 -8.09579715e-03 -9.73869786e-02 +2.13482212e-02 +2.49292590e-02 -5.26462719e-02 -1.14813641e-01 -8.71246979e-02 -4.24760990e-02 -6.55211061e-02 -8.76856595e-02 -7.81802461e-02 +7.96489865e-02 -4.10579517e-02 +6.27231300e-02 -2.43118554e-02 -6.47519603e-02 +8.91264379e-02 +3.56034748e-02 -6.74054027e-02 -8.33656788e-02 +1.43906651e-02 +6.24872744e-02 -6.98809326e-02 -7.14271516e-02 +3.01868860e-02 -3.41378450e-02 +2.01305058e-02 +3.51545773e-02 +1.62483193e-02 +9.06252638e-02 +9.72258486e-03 +2.18275171e-02 -4.32841256e-02 -7.88169950e-02 -4.31737378e-02 +3.96962985e-02 +5.04294187e-02 -5.71724549e-02 +1.14431947e-01 +2.90567637e-03 -4.46183234e-02 +8.72045010e-02 +7.23627582e-02 +2.58396771e-02 +9.51054916e-02 +2.42655110e-02 +1.16759330e-01 +9.06212851e-02 +6.74760714e-02 +9.40620825e-02 +1.09218977e-01 -1.87329203e-02 -5.53520117e-03 -6.96069747e-02 +4.46271189e-02 -4.04257886e-02 +9.94808972e-02 +9.47438180e-02 +9.29637551e-02 -8.89537483e-02 +8.93504843e-02 +8.89015123e-02 +6.05363362e-02 -9.63811353e-02 -9.93777215e-02 -5.99021874e-02 -1.08018965e-01 -8.12719315e-02 -1.08025245e-01 +1.07956022e-01 +3.74517515e-02 +1.16018765e-01 -9.42390785e-02 +9.11246315e-02 -1.15111932e-01 +7.39572942e-02 +1.74995940e-02 +9.95139256e-02 -1.51719498e-02 +7.57495165e-02 -1.08107075e-01 -1.09301032e-02 +5.04279844e-02 -4.37875055e-02 -4.26689424e-02 +5.90744391e-02 +1.04575604e-02 -3.99742424e-02 +7.42711201e-02 -2.11028457e-02 +2.33861022e-02 -7.44164661e-02 +3.95428278e-02 -5.88433854e-02 +7.41266012e-02 -4.85781915e-02 -4.65299562e-03 +5.15503772e-02 +8.19324479e-02 -4.29226197e-02 -1.13591246e-01 -2.51996536e-02 -1.25456695e-02 +3.50644216e-02 -1.01433329e-01 +3.80554162e-02 -7.67032504e-02 -1.10097796e-01 -1.05881721e-01 -8.20391178e-02 -9.68446583e-03 -5.70346527e-02 -4.33384664e-02 -1.11277975e-01 +4.51250710e-02 +9.17188600e-02 -2.61840187e-02 -3.26227434e-02 +2.59022377e-02 +3.77014130e-02 -5.65313622e-02 -5.32353260e-02 -6.03853725e-02 +2.06939522e-02 -1.08202115e-01 +1.03586242e-02 -3.76435965e-02 -3.85794826e-02 -1.07671954e-01 -3.13439704e-02 -4.16518860e-02 -1.17468517e-02 +8.66995156e-02 +2.66956203e-02 -3.89564410e-02 +5.50835393e-02 +1.35751972e-02 -2.47692913e-02 -8.76572207e-02 +9.70355719e-02 +5.25445044e-02 -8.52926150e-02 +1.15884751e-01 +1.35608092e-02 -8.71368572e-02 -1.05781451e-01 -4.76762950e-02 -5.98914437e-02 -1.09364353e-01 +4.09601107e-02 -1.67045537e-02 +2.06196494e-02 +5.23465201e-02 -5.43810204e-02 -4.14425507e-03 -4.50086445e-02 -5.16682677e-02 -1.08753577e-01 -8.82723927e-02 +8.86002630e-02 -8.66460204e-02 -5.32544553e-02 +7.98688754e-02 +8.00113752e-03 -2.52297390e-02 +3.38339992e-02 -1.87214576e-02 +9.50499326e-02 +4.00658995e-02 -3.52212153e-02 -6.90067410e-02 +2.04271711e-02 +7.88997684e-04 +1.00338005e-01 +2.95292288e-02 -5.82377575e-02 +8.56489241e-02 +7.12172091e-02 -3.20510566e-02 +2.39921547e-02 -6.29487187e-02 -5.21416105e-02 +5.67164980e-02 +3.12159229e-02 +2.54644696e-02 +6.04262576e-02 +2.28744298e-02 +5.87681234e-02 -7.38328174e-02 -9.70288590e-02 +6.17924891e-02 -5.58446161e-02 +8.11844766e-02 +6.65263459e-02 -4.76870351e-02 +7.49796852e-02 -4.74364916e-03 +1.12109765e-01 +1.64326727e-02 +6.58515841e-02 -4.58473973e-02 +2.22571753e-02 +7.00096134e-03 -5.00099882e-02 +8.82866681e-02 +1.95404757e-02 -7.05918819e-02 -3.15845683e-02 +9.39008445e-02 -5.58872521e-03 -9.96226817e-03 +9.21676531e-02 +4.11540270e-02 +1.21962409e-02 +9.32816565e-02 +2.95751095e-02 -2.27703266e-02 -4.47107702e-02 +1.00408904e-01 -7.58499578e-02 -6.50507957e-02 -2.79154275e-02 +5.04490733e-02 +6.23908602e-02 -7.34332055e-02 -9.32386890e-02 +9.51643139e-02 -1.73936263e-02 -1.73250679e-02 -1.09331705e-01 -1.08571947e-01 -7.87804499e-02 +6.71301261e-02 -9.10194814e-02 +8.51534307e-03 +6.65257052e-02 +6.51301304e-03 -4.15796787e-02 +1.06562518e-01 -4.72162701e-02 +1.03959076e-01 +6.98237540e-03 -4.84050587e-02 -1.08973525e-01 +3.10741216e-02 +1.06342874e-01 -8.82358029e-02 +8.17350969e-02 -8.60818326e-02 +1.07866421e-01 -1.19345628e-01 +9.31107774e-02 +4.49688137e-02 +1.07355177e-01 -7.21612498e-02 +6.67841211e-02 -1.15731269e-01 +9.21247806e-03 +1.10609919e-01 +1.05752259e-01 -4.89820689e-02 +2.20230706e-02 +6.54911762e-03 -1.01886287e-01 +2.19659731e-02 +8.34759884e-03 -3.14430259e-02 +4.45467830e-02 +6.71442822e-02 -9.25001223e-03 +7.47436583e-02 -1.02549955e-01 +9.53529626e-02 -4.77941595e-02 -3.31722572e-02 -6.84959756e-04 -2.17304528e-02 -6.58268909e-05 +5.60567044e-02 +7.39121251e-03 +3.86230610e-02 +5.93524463e-02 -1.10090308e-01 +8.60342458e-02 +2.63688397e-02 -4.12439406e-02 +2.40470450e-02 -9.53947902e-02 +3.97493243e-02 +1.05457626e-01 +4.92782369e-02 -8.24655443e-02 +1.05305925e-01 -3.38364094e-02 -1.00763783e-01 -8.43886361e-02 -1.03704378e-01 -4.72905003e-02 +9.95270312e-02 -8.31921026e-02 -1.05595522e-01 -6.67078421e-02 +3.07109524e-02 -4.79053706e-02 -8.34464207e-02 +1.13582678e-01 -9.38684717e-02 -9.46689695e-02 +7.33645633e-02 +7.06483573e-02 +8.04355964e-02 +6.35670796e-02 -2.93916482e-02 -2.78384220e-02 +3.09402756e-02 -2.23652963e-02 +5.91541752e-02 +1.09469064e-01 -9.53423530e-02 +2.65042367e-03 -1.19838957e-03 -5.58717921e-02 -3.10615562e-02 +1.16576463e-01 -4.33118828e-02 +7.69990608e-02 -2.33913250e-02 -1.52735682e-02 +1.06854178e-02 -5.39454855e-02 +1.06345564e-01 +4.01353762e-02 +1.10211194e-01 -3.73385986e-03 +1.10428510e-02 +1.06546782e-01 +1.11849844e-01 -1.49608990e-02 +7.55253136e-02 +4.88136262e-02 +1.10912517e-01 -9.06277001e-02 +4.81269248e-02 -6.09523989e-02 +5.64049743e-02 +3.89286764e-02 +7.96545371e-02 +1.01131424e-01 +3.92388329e-02 +1.27477329e-02 -3.75266001e-02 +8.86460319e-02 +2.06743833e-03 +3.98954526e-02 +2.88680699e-02 -2.59287152e-02 -9.54821706e-02 -7.68247992e-02 -1.17583582e-02 +3.34996618e-02 -3.04146856e-02 +6.01304173e-02 +4.97092716e-02 -1.09098114e-01 -1.78344697e-02 -7.48384744e-02 +1.82255171e-02 -1.14519941e-02 -1.72397234e-02 +1.10627592e-01 -9.90011841e-02 +9.13332626e-02 -9.25619900e-02 +4.58121300e-02 +8.41676965e-02 +6.29083216e-02 -3.18717435e-02 +3.23178666e-03 +8.64433572e-02 +5.58684804e-02 +3.03362571e-02 -1.03162499e-02 -1.11704059e-01 +5.43413758e-02 -1.07525274e-01 -7.99229220e-02 +3.19766141e-02 -8.86232555e-02 -1.83013417e-02 -8.64488333e-02 -3.27077918e-02 +3.39848660e-02 -1.00515328e-01 -9.35307294e-02 +6.19201586e-02 +2.27973945e-02 +5.81790209e-02 +7.95558169e-02 -1.16131328e-01 -4.11147401e-02 +1.17870942e-01 +2.80944421e-03 -7.77003467e-02 +9.35407057e-02 +3.67124081e-02 +9.42056775e-02 +3.80421393e-02 +1.16514184e-01 -5.22990003e-02 +3.24941911e-02 -1.11341074e-01 +8.01550522e-02 +8.83387104e-02 +2.20385678e-02 +1.10873692e-01 +6.45959601e-02 +1.96339898e-02 -9.76867080e-02 -4.84196246e-02 +6.50260970e-03 -1.16090514e-01 -3.79740484e-02 -5.47626726e-02 -7.47784525e-02 -1.15071185e-01 -4.81311642e-02 -1.04788437e-01 +5.26559353e-02 -2.32577138e-02 +1.02293737e-01 +1.00710563e-01 +1.11576959e-01 +8.11433345e-02 -1.04220845e-01 -6.90443218e-02 -2.67270990e-02 -2.25662496e-02 +1.40943266e-02 +1.13518678e-01 +6.71642087e-03 -4.92452923e-03 -2.42043864e-02 -5.47564961e-02 +1.80623140e-02 -4.92155477e-02 -1.13606639e-02 +5.80421835e-02 +3.24722603e-02 -1.09329768e-01 -7.00262561e-02 +1.07955255e-01 +1.17520720e-01 -1.08884439e-01 -1.09057426e-01 -8.77482258e-03 +1.17238000e-01 -8.46645683e-02 -1.08331986e-01 +6.57741949e-02 +5.40943630e-02 -2.30588391e-02 +3.03552989e-02 -3.41278035e-03 +5.59877269e-02 +6.88951612e-02 -3.50882523e-02 +7.07876384e-02 -7.69403949e-02 +4.32298593e-02 -7.64404312e-02 +9.15861353e-02 +1.25327974e-03 +7.71543160e-02 +4.35393900e-02 -6.71317726e-02 -6.94882199e-02 +7.79424831e-02 +6.64368495e-02 -9.89527032e-02 -2.32326593e-02 +5.10264523e-02 -9.17706043e-02 +4.57865857e-02 -5.68648018e-02 -7.64233917e-02 +1.16462866e-02 -1.04729176e-01 +3.45264077e-02 +3.57246981e-03 -1.23775406e-02 +4.89519387e-02 +1.08160555e-01 +9.65773221e-03 +2.65570208e-02 -9.35232863e-02 -5.58471829e-02 +1.17514506e-01 +2.71870829e-02 -1.00245036e-01 +7.34420940e-02 +2.64408644e-02 -2.79095843e-02 -8.50309953e-02 +9.68951210e-02 +4.48364615e-02 -8.79527703e-02 +4.19985391e-02 +4.39302400e-02 +1.01162888e-01 +1.41184486e-03 +1.59878023e-02 -6.95772171e-02 -3.62480916e-02 +6.47904426e-02 -4.13325801e-02 -8.18430260e-02 +9.63719115e-02 +7.47074708e-02 +1.09569974e-01 +7.85033107e-02 -1.03624411e-01 +5.19980937e-02 +3.64119280e-03 -8.17887932e-02 -7.13882595e-02 +7.34533519e-02 +7.37227034e-03 +2.59966496e-02 -1.81347784e-02 -4.91341241e-02 -1.12489061e-02 +7.05360319e-04 -2.24050527e-04 -2.54151151e-02 +4.21090759e-02 -2.93567814e-02 +1.07341513e-01 +4.35864106e-02 -1.02507204e-01 +6.40498288e-03 -1.15502447e-01 -7.32503012e-02 +7.95389414e-02 +4.38186824e-02 +3.65165286e-02 -9.68380719e-02 -5.11898696e-02 +4.06575948e-02 -8.00356269e-02 -1.12490088e-01 -6.27108365e-02 +3.62432864e-03 +4.96480092e-02 -1.11021303e-01 +1.06833056e-01 -2.71247495e-02 -7.40124062e-02 +4.48820591e-02 +5.81596345e-02 -8.76728371e-02 +3.42502929e-02 +7.09284618e-02 +7.14707421e-03 -1.00283191e-01 -9.96835902e-02 +2.80372333e-03 +1.08917430e-02 +1.11445718e-01 -5.64986281e-02 -6.25926778e-02 -5.75620867e-02 -6.50323331e-02 +6.34148419e-02 +8.81070942e-02 -9.81463715e-02 +3.33338380e-02 +1.27902133e-02 -7.95315672e-03 -1.05364375e-01 -6.89835176e-02 -1.23027768e-02 +5.73520102e-02 +5.66926301e-02 +4.23903279e-02 -6.15336932e-02 -9.75970402e-02 +5.79864392e-03 -7.67344460e-02 -8.13478082e-02 +3.22308280e-02 -7.34354109e-02 +1.72686763e-02 +9.21260715e-02 -5.39572835e-02 +5.98141551e-02 +3.01078297e-02 +6.71416521e-02 +8.82298127e-03 -8.48618075e-02 +1.08437195e-01 +9.98332500e-02 -7.94346929e-02 -6.59949258e-02 -1.06485702e-01 +7.89299086e-02 -9.78793483e-04 +5.04955687e-02 +2.21608710e-02 -3.32735404e-02 -3.61327864e-02 -1.84589401e-02 +2.38232296e-02 -8.29620287e-02 +1.47571359e-02 +5.02225831e-02 -6.33053202e-03 -7.33515769e-02 -8.01055506e-02 +5.40665425e-02 -9.02048051e-02 -1.09075800e-01 +1.05773576e-01 +2.50210781e-02 +7.54248574e-02 -8.29842240e-02 +1.13110766e-01 +5.21383025e-02 +8.43463466e-02 -8.06125775e-02 +6.39610291e-02 +2.01595239e-02 +7.48216882e-02 +1.15959950e-01 +4.44745570e-02 -4.69639264e-02 +2.07707435e-02 +1.02155112e-01 -8.21851045e-02 -8.85838177e-03 -1.13517910e-01 -4.64402214e-02 +5.46839684e-02 -1.25673581e-02 +2.86859665e-02 +9.67945531e-02 +4.15401347e-02 +8.24869797e-02 -5.07066958e-02 -4.25819084e-02 -7.49289468e-02 +2.64804699e-02 +1.02042727e-01 +8.61624032e-02 -2.31127106e-02 +6.10524341e-02 +1.74985677e-02 -8.61955285e-02 +1.12148635e-01 +1.15313321e-01 -2.80449889e-03 +1.46670230e-02 +2.05727722e-02 +2.87315212e-02 -1.08670659e-01 -1.13320604e-01 +3.53927799e-02 +1.13765635e-01 +9.55628306e-02 +1.89812277e-02 -1.74915523e-03 +7.80538917e-02 -1.17896952e-01 +4.08749506e-02 -4.90850955e-02 +1.03543721e-01 +1.06498529e-03 +4.58185337e-02 -8.89095441e-02 +2.01314446e-02 -2.10507438e-02 -8.66071731e-02 -1.02820426e-01 +5.82263395e-02 -1.09177776e-01 +1.16995789e-01 +8.48052353e-02 -1.13966756e-01 -1.17342047e-01 -8.26319158e-02 +5.04167117e-02 +1.10849060e-01 +1.00363987e-02 +9.44769681e-02 +6.83543310e-02 +9.63167921e-02 -2.41597649e-02 -2.82894038e-02 +4.15078178e-02 -4.83493358e-02 +3.90222482e-02 -1.01160645e-01 -1.50417471e-02 -3.95220369e-02 +8.71160105e-02 -8.06163028e-02 +8.11758935e-02 +4.84908037e-02 +4.88230325e-02 -3.60261872e-02 +7.09366873e-02 -8.89205635e-02 +5.04997075e-02 -1.02739837e-02 -7.38209113e-02 +4.73019220e-02 +9.69538018e-02 +1.37151619e-02 +6.01066761e-02 -4.47615124e-02 +3.39898877e-02 +5.84733076e-02 +5.27733453e-02 -1.09873585e-01 +5.95743544e-02 -1.64692607e-02 +5.17365225e-02 -6.50222450e-02 +4.16617282e-02 -8.10706094e-02 -9.60326269e-02 +1.15053110e-01 +7.01903924e-02 -1.73850022e-02 +2.50042714e-02 +1.02673106e-01 +4.13931385e-02 -2.54156836e-03 +2.74511874e-02 -5.92781380e-02 +8.52914304e-02 -3.42280343e-02 +5.02688065e-02 +8.83170664e-02 +7.78189600e-02 +7.28131533e-02 +7.69697726e-02 -6.04384877e-02 +4.44277097e-03 +5.41946255e-02 -3.04639265e-02 -1.01780206e-01 +8.59750286e-02 -1.13310274e-02 +5.49542494e-02 +7.84659833e-02 -5.41252382e-02 +1.08388454e-01 +1.11418754e-01 -3.63774374e-02 -2.34582052e-02 -6.98731244e-02 -1.13482460e-01 -8.58864412e-02 -4.66648899e-02 +8.03736299e-02 +3.52488160e-02 -6.11059852e-02 -1.66393816e-03 -1.85537916e-02 -8.99250060e-02 +7.18489662e-02 -2.24086102e-02 -4.09540124e-02 +9.54799801e-02 -2.63197925e-02 +1.22408560e-02 -7.18135983e-02 -9.46856663e-02 -9.60158035e-02 -4.36954722e-02 -1.01717159e-01 +5.07756807e-02 -3.96957994e-02 -8.68802592e-02 -6.05911314e-02 -3.59850116e-02 -3.94052686e-03 -7.04030395e-02 -1.01165667e-01 +2.91649364e-02 -9.76641700e-02 +9.37722176e-02 -4.29736748e-02 +8.78301114e-02 -6.60235733e-02 -5.47193252e-02 +8.94968212e-02 -1.06268391e-01 +1.60481278e-02 -1.08593009e-01 +7.82558043e-03 +7.47148544e-02 +6.43494874e-02 -2.54837535e-02 +8.50790963e-02 +9.92130637e-02 +9.84295309e-02 -4.96676899e-02 +8.72420296e-02 +2.71624350e-03 +7.37213492e-02 +2.70685367e-02 -1.07082106e-01 -1.18441656e-02 +6.92808852e-02 -6.25034347e-02 -1.82211976e-02 +1.06369644e-01 -7.43578672e-02 -2.34310012e-02 -1.07739009e-02 +4.67706509e-02 -8.19349065e-02 -5.05999736e-02 +1.12388590e-02 +6.58815131e-02 -1.16351098e-01 +9.44809988e-02 +4.41056560e-04 -1.51178278e-02 +4.93463166e-02 +5.94035648e-02 +5.95150255e-02 +2.17147637e-02 -2.27830578e-02 -9.58574042e-02 +8.62637013e-02 +1.53688826e-02 +3.32122743e-02 +7.54273981e-02 +9.83357280e-02 -3.10661886e-02 +3.16623598e-02 -4.61125514e-03 -9.09305066e-02 -9.22041088e-02 +5.62984794e-02 -1.03181623e-01 -8.85836929e-02 -2.47839075e-02 -5.21043092e-02 -5.94689809e-02 -7.95066133e-02 -1.19010769e-01 +2.15679817e-02 +4.95322645e-02 -1.03311256e-01 -4.36133146e-02 +3.43640298e-02 -1.01906002e-01 +6.21757656e-02 -1.14081278e-01 +5.77277578e-02 +3.57889682e-02 -9.12094936e-02 +9.36580151e-02 -7.54328743e-02 +4.99236546e-02 +1.04662273e-02 +1.07395545e-01 -1.02105476e-01 +7.40339309e-02 -9.41471532e-02 +7.32614547e-02 +3.86526473e-02 -1.46766789e-02 +1.41676888e-03 -6.41801907e-03 -1.17876813e-01 -1.01458497e-01 -7.63212442e-02 -4.13057022e-02 +3.04012094e-02 -8.66952240e-02 +4.57120836e-02 -3.94169539e-02 -1.12303376e-01 +5.30002043e-02 -3.38145010e-02 +1.03168368e-01 +5.89909703e-02 +7.87023231e-02 -5.54938987e-03 +1.09271787e-01 +1.12102553e-01 -8.10888708e-02 +2.07018498e-02 +8.34910423e-02 -6.54520467e-02 +5.46490997e-02 +1.07411802e-01 -2.12940723e-02 +2.66939681e-02 +1.15642533e-01 -1.17290758e-01 +4.65823291e-03 +4.32317965e-02 +1.17270291e-01 -3.35641741e-03 +6.48137648e-03 -9.84476581e-02 -2.12918874e-02 -4.49575782e-02 -1.33201722e-02 +4.86227572e-02 +4.53845225e-02 +7.47228414e-02 -3.49518657e-02 +8.54994506e-02 -5.57305366e-02 +9.28884000e-02 -2.16021226e-03 -3.57441008e-02 -6.90772384e-02 -1.38577027e-02 +4.57633324e-02 +8.43208730e-02 -5.86386472e-02 +1.06780544e-01 +1.11268580e-01 -3.14476229e-02 -1.03295378e-01 -9.30224732e-02 -6.82729706e-02 -1.08741999e-01 +6.85786977e-02 +6.22551069e-02 -1.43322954e-02 +1.07298374e-01 +1.02418423e-01 +3.16403434e-02 -8.53076279e-02 +7.69826546e-02 +7.11868284e-03 +3.40106525e-02 -1.14958070e-01 -1.02830701e-01 -5.41122407e-02 +1.59578733e-02 +8.90101716e-02 +4.45624366e-02 +8.39504972e-02 -4.48037088e-02 +7.31156841e-02 -4.67111217e-03 +1.88155752e-02 -9.25450325e-02 +1.89446826e-02 +4.68353629e-02 -8.10917839e-02 -5.70290722e-02 -8.11698064e-02 +5.54289334e-02 +2.10453514e-02 +1.16042428e-01 +2.83851307e-02 +9.76061299e-02 -2.84659513e-03 +1.12361744e-01 -1.99489426e-02 -6.73247427e-02 +1.03733532e-01 +1.97425466e-02 +7.73266703e-02 +8.74071270e-02 +5.15285600e-03 -2.70372629e-02 -5.73661216e-02 -8.97197127e-02 -8.36716071e-02 +6.77117333e-02 +3.03260814e-02 +3.58158797e-02 +4.79822606e-03 -8.20645541e-02 -6.23124801e-02 -2.11465433e-02 +7.11123971e-03 +5.75080998e-02 -1.05621584e-01 -5.93176782e-02 +9.37212035e-02 +8.20005164e-02 +7.01185837e-02 -1.08637474e-01 -1.15465783e-01 -7.26179853e-02 +2.64929086e-02 +4.57420684e-02 +4.06309962e-02 +8.91813189e-02 +1.71782076e-02 +4.73086648e-02 -3.73126492e-02 -9.90935117e-02 +2.12980285e-02 +3.70473005e-02 +2.16059219e-02 +4.67348583e-02 +9.37408656e-02 -4.91630323e-02 -5.27117513e-02 -1.07516058e-01 +4.11428809e-02 -1.14815883e-01 -2.45550964e-02 +1.02136359e-02 +3.95791195e-02 +1.07068285e-01 +8.31981748e-02 -1.85433589e-02 -3.09028123e-02 -2.58922260e-02 -4.80633602e-02 -7.67514110e-03 -4.14157622e-02 -7.74980709e-02 -1.01993583e-01 -1.00476995e-01 -1.16402417e-01 +1.83783192e-02 -8.50521103e-02 +1.16567910e-01 +1.20833013e-02 -3.56879234e-02 +9.53859389e-02 +6.51212782e-02 -1.05559260e-01 -3.26502393e-03 -1.01503931e-01 +8.78299400e-02 -1.04642317e-01 +1.69023760e-02 +8.22913740e-03 +7.72286579e-02 +8.51670802e-02 -6.30258396e-02 -6.80069402e-02 -9.84439105e-02 +7.55007192e-02 +1.17517263e-02 -1.29776681e-03 -9.64709818e-02 +6.98166387e-03 +9.01688561e-02 -1.16408132e-01 +6.58242181e-02 +4.83719595e-02 -1.49554135e-02 -2.35716924e-02 +1.11252405e-01 +1.75242554e-02 +6.67751506e-02 +4.75287111e-03 -2.36525834e-02 +1.15291290e-01 -6.63148686e-02 +3.08965724e-02 -5.95798492e-02 +7.77512863e-02 -1.26897898e-02 +1.07210882e-01 -7.40319043e-02 -5.19773960e-02 +1.85515713e-02 +3.78633216e-02 +8.89128298e-02 -8.61406028e-02 -1.04056336e-01 -1.05807967e-01 +5.21874428e-02 +4.53225039e-02 +4.77263257e-02 -6.01086859e-03 -8.26258808e-02 -8.14144383e-04 +8.10891110e-03 -5.18624485e-02 +9.81859416e-02 +5.23673110e-02 +1.16773449e-01 +1.12817831e-01 -8.77697915e-02 +5.63659240e-03 +5.75396940e-02 -4.02431525e-02 +5.02303801e-02 -7.10055009e-02 -1.13627054e-01 +1.11554801e-01 -6.96535856e-02 -9.80053321e-02 +1.18976258e-01 -6.45275936e-02 -4.93823513e-02 -5.76663725e-02 -8.09691381e-03 +3.86772081e-02 -2.95294565e-03 +3.85856163e-03 +3.63334119e-02 +2.55013146e-02 +1.03486806e-01 +8.73519704e-02 +1.09543495e-01 -7.28721097e-02 -1.61565915e-02 +1.06649101e-02 +2.49390919e-02 +1.14648163e-01 -1.07815802e-01 +8.88699070e-02 -6.08003139e-02 +1.19244233e-02 +6.17784709e-02 -8.46387297e-02 -4.63010035e-02 +9.63681284e-03 -1.30914608e-02 +1.38971524e-03 -2.33682338e-02 +4.82909232e-02 -2.21923795e-02 -4.42277864e-02 -1.17408730e-01 +2.08237972e-02 +2.38657240e-02 +6.73883781e-02 -4.25129309e-02 -1.10344782e-01 -3.25567089e-02 +2.83172186e-02 +9.44354683e-02 +9.83741134e-02 -5.95410280e-02 +4.63295821e-03 -1.07263751e-01 -5.97656891e-02 +8.26417729e-02 -6.88167810e-02 +8.53032991e-02 -1.36637306e-02 +8.56543705e-03 +2.30021984e-03 -1.98863465e-02 +1.02940470e-01 +5.65970950e-02 +5.83714545e-02 +1.97052881e-02 +3.80782560e-02 +2.36536358e-02 -1.09903507e-01 +1.90772046e-03 +2.34122016e-02 +1.62156876e-02 +1.86428649e-03 +2.46053822e-02 +1.06635258e-01 +3.03297099e-02 -4.90897559e-02 +4.68767323e-02 -4.41893563e-02 +7.01443851e-03 -8.43944848e-02 -1.26612494e-02 +4.25096564e-02 +5.11790812e-02 -8.87612477e-02 -9.15546864e-02 -2.37209424e-02 -1.04696751e-01 -9.17003453e-02 -1.87087916e-02 +1.12953030e-01 -4.14159382e-03 +2.21332349e-03 +8.25610012e-02 -9.68487933e-02 -1.49255563e-02 +6.59271926e-02 -5.62376641e-02 +1.24859903e-02 -8.41219872e-02 +6.89664036e-02 +1.96391977e-02 +7.99720511e-02 -2.95689330e-02 -1.05588019e-01 -3.24566662e-02 +1.18553728e-01 +7.93411657e-02 +9.87935662e-02 -4.39888313e-02 +5.82469292e-02 -3.12174950e-02 -3.06813940e-02 +3.64766233e-02 +1.14130601e-01 -6.67656437e-02 -5.82024455e-02 -4.83984547e-03 +1.35719245e-02 +9.48843509e-02 -4.65081111e-02 +9.32745636e-02 -9.38692614e-02 +2.37306990e-02 -3.53830680e-02 +9.99106616e-02 -1.15690485e-01 +5.52107804e-02 +2.38402374e-02 +2.09003482e-02 -1.00190729e-01 -1.19317070e-01 -7.67747834e-02 -2.06182408e-03 +5.29341139e-02 +4.33039069e-02 -8.39324966e-02 -1.01373807e-01 -4.83099669e-02 -9.58702862e-02 +8.53727236e-02 +2.25586370e-02 +8.96133631e-02 -3.52591202e-02 +3.27267461e-02 +8.75875950e-02 -7.24764988e-02 -2.58080121e-02 +1.01493299e-01 -1.95567217e-02 -8.29544216e-02 +9.73922908e-02 -2.92729866e-02 +6.14189617e-02 +8.02089944e-02 +2.36123800e-02 +7.18328282e-02 -7.62628242e-02 -6.23216406e-02 -1.66945569e-02 +4.17080522e-02 -7.38981813e-02 -1.23325838e-02 +8.95061195e-02 -3.97457592e-02 +9.90611389e-02 +5.97946271e-02 +7.89730474e-02 -3.27180028e-02 -1.05972975e-01 -1.16371080e-01 +1.09270349e-01 -5.95473722e-02 -1.22561902e-02 -2.16193069e-02 -2.75855381e-02 -3.03895399e-02 +2.13230457e-02 -9.59862024e-02 -9.37514231e-02 -2.92849205e-02 +5.84423840e-02 -4.77342820e-03 +1.01696111e-01 +2.65554693e-02 +3.04129068e-02 -6.23592176e-02 -4.80305851e-02 +1.10845730e-01 +8.24302714e-03 -1.04560524e-01 +9.27563906e-02 -1.98398307e-02 +7.26358593e-02 -2.72608008e-02 -9.71409902e-02 -8.98098797e-02 -4.06682957e-03 -8.22008476e-02 -4.56402600e-02 -1.02328345e-01 +1.11186327e-02 -7.43961260e-02 +7.92141557e-02 +9.98547524e-02 +4.12618555e-02 -5.27619012e-02 +4.38575037e-02 +2.17751320e-02 -9.04164538e-02 +1.88787635e-02 -1.23333950e-02 -6.30106926e-02 -7.19621629e-02 -5.47931939e-02 -1.06104285e-01 +4.62268293e-03 -8.20491314e-02 -8.86781067e-02 +4.85657156e-02 +6.36569336e-02 +9.66930538e-02 -1.00399807e-01 +3.54691893e-02 +9.58372131e-02 +1.01509422e-01 -9.79870036e-02 -5.14348634e-02 -9.43042245e-03 -9.86175165e-02 -1.14877045e-01 +6.61771968e-02 +3.34270969e-02 -1.15764895e-02 -1.16198383e-01 +3.34193110e-02 +5.37435636e-02 -6.27695173e-02 -1.12315774e-01 -4.87916395e-02 +2.38267165e-02 -1.30716227e-02 +1.13377772e-01 -2.55062664e-03 +2.23510880e-02 -1.14185728e-01 -7.50678256e-02 -6.86901063e-02 +6.28677756e-02 -1.04799576e-01 -4.86843288e-02 +1.13794200e-01 -1.00366704e-01 -2.75615864e-02 +1.16941661e-01 -4.27912660e-02 +1.07023567e-01 +5.38988262e-02 -2.56189369e-02 -1.16508126e-01 -5.32336831e-02 +6.30819574e-02 +9.65686142e-02 -1.03693910e-01 +7.96764567e-02 +3.63476314e-02 +7.38279298e-02 +1.14576509e-02 +7.70445773e-03 +1.85501203e-02 +1.15568072e-01 +6.18784763e-02 -3.62738930e-02 -1.16641466e-02 -9.78413597e-02 -3.57958558e-03 +5.39271049e-02 +9.53108519e-02 +4.96502146e-02 -8.76357220e-03 -2.51010293e-03 -6.16220795e-02 -7.77509958e-02 -1.04880460e-01 -6.28380030e-02 -2.52852682e-02 -7.18497187e-02 -2.28643958e-02 -6.59770146e-02 +1.03092559e-01 +1.50177255e-02 -8.24831501e-02 +2.54797116e-02 +4.38323729e-02 +1.02391310e-01 +6.14549220e-02 +5.25201410e-02 -2.61781830e-02 +1.01249032e-02 -4.11478765e-02 -9.73609909e-02 -8.82501826e-02 -1.47076752e-02 +2.33477056e-02 +1.02227949e-01 +8.09230581e-02 +8.87278318e-02 +5.25315814e-02 +5.48268631e-02 -1.00861818e-01 -4.41211164e-02 -6.47284165e-02 +5.78359887e-02 +3.64607424e-02 +1.06515497e-01 -4.91088890e-02 -1.01857044e-01 +3.66614461e-02 +4.74356394e-03 -3.09045557e-02 -7.90920556e-02 -9.00051072e-02 +1.91585217e-02 +7.03591481e-02 -2.47335844e-02 -1.13921724e-01 +2.95984070e-03 -7.30305761e-02 -4.72258739e-02 -4.91022505e-02 +7.01431045e-03 -1.13568716e-02 -8.90237615e-02 +2.16159271e-03 +2.74966005e-02 -1.01831242e-01 +1.94202643e-02 +7.48712271e-02 -8.35287422e-02 -3.19361538e-02 -5.11772893e-02 +4.74464111e-02 +1.18282951e-01 +2.30467413e-02 -6.59153536e-02 -2.25357171e-02 +1.70410462e-02 +6.95596039e-02 +6.00385815e-02 +1.80022139e-02 +4.25447933e-02 +5.28992638e-02 +1.04278810e-01 +4.32224609e-02 +6.12707548e-02 -2.91613713e-02 -1.60209613e-03 -6.40120506e-02 +1.02649078e-01 -2.15243269e-02 +2.14455789e-03 +6.29341230e-02 -4.67381477e-02 -1.23106036e-02 -3.79994027e-02 -8.54123663e-03 -2.33660210e-02 +1.78434921e-03 -3.02427150e-02 +1.18975841e-01 +4.54926398e-03 -1.14811517e-01 +7.72149637e-02 -1.14526898e-01 -8.39614570e-02 -2.82389689e-02 +6.35600016e-02 +2.79836804e-02 -4.21032682e-02 -4.35336865e-02 +4.44528996e-04 +1.10353708e-01 -8.02536383e-02 +7.12831616e-02 +6.18866161e-02 +4.94572781e-02 +1.92182083e-02 -1.12980381e-01 -2.07841787e-02 +6.54515401e-02 +3.82791758e-02 -9.14352462e-02 -7.44435713e-02 +2.33697351e-02 -1.12596683e-01 +5.73497899e-02 +2.71026627e-03 -3.75065915e-02 +9.53072682e-02 -1.18686281e-01 -6.01946041e-02 -5.72353005e-02 +4.66554053e-02 +4.16474119e-02 -6.33768663e-02 +3.09459679e-03 +9.83207896e-02 +3.39406766e-02 -8.56669620e-03 -1.45039605e-02 -4.32954170e-02 +5.43462597e-02 -2.40413826e-02 -5.21242842e-02 -9.99413133e-02 -7.28184497e-03 -8.10612440e-02 +8.85106251e-02 -1.93075445e-02 +2.71241516e-02 -1.18395351e-01 -7.79347643e-02 -6.13199323e-02 -4.40029055e-03 -3.75501625e-02 -4.07162588e-03 -1.02783859e-01 -8.97229090e-02 -6.01567840e-03 -8.16570073e-02 -2.74671689e-02 +3.10057402e-02 +1.14505924e-02 -1.19254149e-01 -8.69535469e-03 +1.05632700e-01 +7.26898983e-02 -1.05174810e-01 -2.96938624e-02 -1.05890438e-01 +1.06863938e-01 -6.63380399e-02 -3.74044180e-02 +5.86706251e-02 -3.02435681e-02 +5.15086949e-02 -1.04302643e-02 +4.98067439e-02 +4.34467047e-02 +4.13219705e-02 +2.26572603e-02 -3.80616002e-02 +7.20620379e-02 -8.82047862e-02 +7.50657991e-02 +8.83835480e-02 +5.25913127e-02 -5.91711886e-02 -2.42032558e-02 +9.07553583e-02 -1.13371471e-02 -1.05829775e-01 +9.07392874e-02 +1.33868179e-03 +3.17175202e-02 -1.10737970e-02 +1.17793478e-01 +1.06821246e-01 +7.31025636e-02 -5.19475155e-02 -6.37150370e-03 +1.16825037e-01 +1.18409649e-01 -9.65117738e-02 +7.35868514e-02 -1.00729614e-01 -1.17378868e-01 +1.11898631e-01 +1.10636175e-01 -6.75508454e-02 +1.28999930e-02 -1.08388826e-01 +6.39550481e-03 -5.50124459e-02 +4.15649265e-02 -5.28900996e-02 -4.15388197e-02 +1.03007495e-01 -6.82820054e-03 -4.67548118e-04 +8.18709806e-02 -6.30583167e-02 +4.38366681e-02 -9.22137648e-02 +1.03310794e-01 +2.32952069e-02 +1.03049025e-01 -5.16333096e-02 -1.09943859e-01 -7.25134984e-02 -5.36323190e-02 +3.28367129e-02 -1.09021433e-01 -1.08087100e-01 +5.84669597e-02 -1.72978155e-02 +8.71470049e-02 +5.21605574e-02 +1.16316438e-01 -2.49058194e-02 +6.21559434e-02 -7.11616948e-02 -7.74609447e-02 +8.25779736e-02 +4.92869727e-02 +4.80845422e-02 +6.10572705e-03 +1.18548594e-01 +8.90547968e-03 +8.79031867e-02 +1.66592356e-02 +1.57238245e-02 -1.07969232e-01 -4.68754284e-02 +2.61716228e-02 +1.17588878e-01 -8.99002254e-02 -1.18596584e-01 +1.10113852e-01 -6.87433109e-02 +9.87176374e-02 +8.37848783e-02 +1.18784420e-03 +3.04099042e-02 -3.35443541e-02 +4.83228900e-02 -4.42249775e-02 -8.58454183e-02 +8.00017416e-02 -3.28297094e-02 +4.82925624e-02 +6.38303235e-02 -5.26324101e-03 +1.13497756e-01 +1.48111433e-02 -1.87510308e-02 +4.62737940e-02 +5.90012185e-02 -2.69845072e-02 +1.05234422e-01 -8.09450895e-02 +7.35908374e-02 +9.54242647e-02 +8.23336393e-02 -1.06558748e-01 -6.73981085e-02 +4.08831760e-02 -3.74589264e-02 -5.00210896e-02 -6.90385923e-02 +1.09928481e-01 -2.56561786e-02 -2.07613651e-02 +7.32242092e-02 +9.30506364e-02 -3.09836045e-02 -7.27331489e-02 +8.03243183e-03 +3.63943800e-02 +1.85351335e-02 -2.45313793e-02 -5.17094322e-02 -1.01563364e-01 -9.25665647e-02 -2.40390897e-02 +3.33499052e-02 -7.30332360e-02 +3.92784812e-02 -7.99374431e-02 -1.10811390e-01 +1.12262085e-01 -6.42222837e-02 -6.18265010e-02 -7.48116001e-02 +9.69195291e-02 -1.96914990e-02 +5.35235479e-02 +8.66832957e-02 -1.32482192e-02 +4.76142131e-02 +8.44048783e-02 +2.72088144e-02 -1.92524623e-02 +8.15581158e-02 -4.72218990e-02 -9.32480097e-02 -7.71539137e-02 +3.86120868e-03 -3.87986302e-02 -7.07490295e-02 -3.46909240e-02 +6.60455972e-02 +1.04248837e-01 +2.61793789e-02 -4.65978421e-02 +1.61741748e-02 -4.39685360e-02 +1.02660820e-01 +9.87411942e-03 +1.06669456e-01 +1.08764529e-01 -7.48678818e-02 +5.00543974e-02 +7.68134743e-02 +9.39165652e-02 +1.98966563e-02 -2.03992352e-02 -1.12689517e-01 -3.54929343e-02 -8.50805491e-02 +8.35893229e-02 +3.37543041e-02 +1.11590825e-01 -8.28538761e-02 -8.25968385e-02 -6.30839020e-02 +7.01924339e-02 +3.78676914e-02 -3.49348672e-02 +9.31870118e-02 +6.02435954e-02 -6.23162873e-02 +3.55308391e-02 -6.77583665e-02 -2.74006240e-02 -1.34808579e-02 -6.05758838e-02 -2.05333587e-02 -9.68930423e-02 -1.00842016e-02 +5.56808859e-02 -5.61124273e-02 +7.94328153e-02 +2.03631725e-02 -5.34671210e-02 -1.86347179e-02 -3.34601551e-02 +1.99278798e-02 -1.12217113e-01 +1.09240450e-01 -1.06719092e-01 -7.18652457e-02 +9.98163149e-02 -1.36149880e-02 +4.90453988e-02 -4.78240103e-03 +2.38710195e-02 +7.56544918e-02 -5.94945550e-02 -5.65864369e-02 -1.05711959e-01 -6.13322556e-02 -6.37198538e-02 -1.59419626e-02 +1.03426278e-02 -1.32892048e-02 +4.88879979e-02 -4.11675014e-02 +8.03147182e-02 -9.55956280e-02 -3.74458395e-02 -3.38278078e-05 +1.37243699e-02 +8.86487067e-02 -1.26386210e-02 -6.74934089e-02 -1.18409202e-01 +3.93210351e-02 -1.04182437e-01 +5.89778498e-02 -5.98851480e-02 +7.41536990e-02 -1.31093070e-03 +5.76057807e-02 -4.12958190e-02 +1.23567274e-02 -4.68702577e-02 -6.55268654e-02 +1.36419851e-02 +3.91482525e-02 -7.11287186e-02 -1.07413918e-01 +9.95602086e-03 +1.09080665e-01 +1.07650660e-01 +1.17756780e-02 -2.24006474e-02 -7.74177089e-02 -8.64307508e-02 -8.74684367e-04 -5.62846325e-02 +5.32500632e-02 -4.60926592e-02 -9.37682092e-02 -6.31411448e-02 -7.80464560e-02 +5.82534224e-02 +1.77390352e-02 +1.16759829e-01 +1.06093295e-01 -2.31196769e-02 +3.85859311e-02 +5.44968396e-02 -3.71069908e-02 +6.61308467e-02 -3.60700153e-02 +2.34196298e-02 +1.17138429e-02 -3.43087548e-03 +2.73247287e-02 -8.84606019e-02 +6.86013252e-02 +4.65319939e-02 +9.62077677e-02 -9.04831365e-02 +1.04899488e-01 -9.01290402e-02 +4.73063737e-02 +4.56072837e-02 -8.12253729e-02 +9.27953571e-02 +4.04757187e-02 +8.70835930e-02 -1.01270191e-01 +1.26934405e-02 -2.17369571e-02 +8.82189348e-02 -1.04465313e-01 +3.20098288e-02 +8.62292871e-02 -7.58979172e-02 +1.10103242e-01 +6.33080527e-02 -2.93301474e-02 -1.01197198e-01 -1.16477907e-01 -1.19338125e-01 +6.35741204e-02 +3.78719755e-02 +1.16456509e-01 +6.07355572e-02 -1.26411617e-02 -1.12403221e-01 -7.25577325e-02 -5.41597139e-03 -1.15781620e-01 +5.54252192e-02 +6.47815466e-02 +4.64629866e-02 -6.28946023e-03 +1.08989395e-01 -1.15003586e-02 -1.23513478e-03 -3.70944738e-02 -1.17317483e-01 +8.74763802e-02 +9.05613378e-02 -6.27356321e-02 -7.56923184e-02 -1.28641874e-02 -5.49555644e-02 -6.75312653e-02 -1.03668973e-01 -2.71264073e-02 +7.71532059e-02 -1.16446182e-01 -1.07645497e-01 +7.49195740e-02 +8.21430236e-02 +3.02415341e-02 +6.29604980e-02 +9.13294852e-02 +8.96974429e-02 -8.10794607e-02 +1.12587370e-01 +8.43751207e-02 -1.06520921e-01 -7.63521194e-02 +1.18319869e-01 -2.35009119e-02 -5.82740828e-02 +7.47014508e-02 -1.17790505e-01 +1.12787858e-01 -9.57698077e-02 -7.42457509e-02 -1.12230353e-01 -1.16701879e-01 -3.02940123e-02 +1.05013758e-01 +7.75634944e-02 -1.99605487e-02 +5.60255684e-02 -3.77240106e-02 +4.19023074e-02 +5.03006838e-02 +7.52166063e-02 -3.64465103e-03 -9.03509259e-02 +1.34571208e-04 +9.22282115e-02 +4.49518636e-02 +5.85935898e-02 +1.15769260e-01 +9.75382626e-02 +5.81123047e-02 +1.18122637e-01 +4.95553352e-02 +3.98021378e-02 -3.48592699e-02 -1.03350997e-01 -5.55792674e-02 -3.45919095e-02 -7.39737600e-02 +3.80821712e-02 -1.17633387e-01 +2.23174300e-02 -4.86180969e-02 +2.48891544e-02 -1.08828261e-01 -3.37671526e-02 +8.60799998e-02 -4.04391810e-02 +9.86031368e-02 +1.10049188e-01 +9.26979110e-02 -9.88571066e-03 -8.71822163e-02 -5.93961887e-02 +6.13778755e-02 +6.82415441e-02 +9.30378959e-02 -1.14023678e-01 -1.09233730e-01 +6.81246072e-02 +7.54879266e-02 +1.15477934e-01 +2.84848083e-03 -6.21193983e-02 +5.00825457e-02 +2.16466524e-02 +7.82739446e-02 +3.76002267e-02 +4.90499362e-02 -1.14031337e-01 +2.98029240e-02 -1.25645120e-02 -6.62738979e-02 +7.97111243e-02 +1.65821873e-02 +1.05626754e-01 +1.92403942e-02 +8.20464790e-02 +1.50728570e-02 +1.27888182e-02 -1.06586523e-01 -8.81365389e-02 +4.91618812e-02 -1.00256629e-01 -8.71723220e-02 -7.64397439e-03 -2.19040606e-02 -8.63092951e-04 -6.11619987e-02 -9.47509110e-02 +8.52144659e-02 +6.40323237e-02 -3.73821892e-02 -7.62699246e-02 +5.21568991e-02 +7.05514327e-02 +8.60984176e-02 +3.72756533e-02 +4.17918004e-02 +6.26590028e-02 -7.94497728e-02 +7.74245523e-03 -5.76454736e-02 +4.17606346e-02 -9.97341275e-02 +5.61665557e-02 +4.19476628e-02 +3.58026698e-02 +6.56940565e-02 +3.50168324e-03 +2.72651557e-02 +4.99435477e-02 +2.04715878e-03 +9.36305448e-02 -1.07738800e-01 -7.54942447e-02 +3.14588808e-02 +1.72866210e-02 +8.76043141e-02 -9.70467031e-02 -3.51162395e-03 +6.41243607e-02 -2.47307308e-03 -1.12756513e-01 +7.01674400e-03 -1.13863230e-01 -6.25271350e-02 -4.69289608e-02 -4.70868573e-02 -6.11595996e-02 +2.19216440e-02 -6.22625016e-02 +3.38286199e-02 +4.43496071e-02 +9.67340544e-02 +4.33589965e-02 +1.01481147e-01 +1.88380610e-02 +6.32560104e-02 +2.85283402e-02 +1.05841249e-01 +6.64168075e-02 +1.10685185e-01 -4.79826964e-02 -7.74203092e-02 -3.24315391e-02 +9.63894129e-02 -2.30760593e-03 -6.71183765e-02 -5.24725951e-02 -5.82622457e-03 +6.94756284e-02 -1.12391718e-01 -4.59515266e-02 +6.15062825e-02 -8.28615353e-02 -5.38200624e-02 -2.81354357e-02 -9.47854146e-02 +8.58460665e-02 -3.14523764e-02 -7.42970854e-02 +9.31984708e-02 -8.77007246e-02 +4.42582294e-02 +2.13808119e-02 +2.67175492e-02 -8.03590119e-02 -9.57319364e-02 +2.33531408e-02 -1.04157537e-01 +5.24879768e-02 +4.28574272e-02 +7.19395503e-02 +3.71384770e-02 -5.86315803e-02 +1.07027188e-01 -1.14117518e-01 +9.01237577e-02 +6.62248135e-02 -4.37226035e-02 +3.33382515e-04 +1.05124675e-01 +9.90699381e-02 +9.03371423e-02 -8.00487101e-02 -1.11082904e-01 +1.07985035e-01 +3.97768356e-02 -1.06487632e-01 +5.97376749e-02 -4.37156670e-02 +3.90232578e-02 -2.55440660e-02 +9.67877358e-02 -8.30108300e-02 +9.77497995e-02 +8.94357730e-03 +1.80246849e-02 -7.22978860e-02 +5.44449948e-02 +1.14579469e-01 +3.03505175e-02 +8.24339241e-02 +1.03260383e-01 -7.87820369e-02 -6.96649700e-02 +9.10773128e-02 -3.60657386e-02 +4.19170223e-02 +1.56236654e-02 -7.21692219e-02 +1.07862391e-01 +1.16125047e-01 -5.33936881e-02 -5.62048592e-02 -7.43518174e-02 -2.92279795e-02 +3.45079489e-02 +1.15647130e-01 -9.58186516e-04 +1.01567872e-01 +7.45480955e-02 +4.26800922e-02 +7.72041082e-03 -8.67178291e-02 +9.48313847e-02 -1.06720746e-01 +9.61606428e-02 -5.16238734e-02 -7.90704489e-02 -2.14457121e-02 +1.05449788e-01 +2.75301724e-03 +2.54781451e-02 -1.01104952e-01 -8.96810442e-02 -5.80916405e-02 +2.63528861e-02 +1.04753934e-01 +1.13551967e-01 -2.53016781e-02 -9.13214982e-02 -5.67217544e-02 +4.46450785e-02 -3.06618474e-02 -2.64522638e-02 +9.55965593e-02 -2.15527471e-02 +1.11121885e-01 -5.53538650e-03 +5.01202010e-02 -5.74402362e-02 -2.45742239e-02 -9.36023891e-02 -9.18062776e-03 +8.87909681e-02 -2.41401959e-02 +6.99689388e-02 +2.05311310e-02 +3.98621224e-02 +9.39445868e-02 -8.54079053e-02 -4.49910574e-02 -1.18100986e-01 +6.13431772e-03 -5.94100682e-03 +7.98022747e-02 -9.52046514e-02 +3.21770199e-02 +6.03476427e-02 -3.89937704e-05 -6.01992719e-02 +8.39949176e-02 -4.02833261e-02 -2.46888343e-02 -7.61079490e-02 +2.63270140e-02 +6.87002912e-02 -3.33971456e-02 -4.88987230e-02 -2.33262442e-02 -1.96337756e-02 -7.69563243e-02 -6.83397800e-02 -1.88614372e-02 +7.66335353e-02 -2.78400220e-02 +3.00606675e-02 -4.93823662e-02 -2.97762491e-02 -7.64438882e-02 +6.60821050e-02 -8.42654705e-02 -8.78734291e-02 -2.26179175e-02 +4.96554784e-02 +3.73667479e-02 +8.98022726e-02 -4.72280756e-03 -2.44732155e-03 +9.75700170e-02 +6.18803538e-02 +1.17558137e-01 -6.68136030e-02 +2.45744712e-03 +8.69860351e-02 +7.28812516e-02 +4.73866686e-02 -8.63265898e-03 -2.42536124e-02 -9.57293212e-02 +8.35327283e-02 -9.56421196e-02 -1.07598029e-01 +4.83162440e-02 +4.27076556e-02 -7.87365437e-02 +2.54642423e-02 -4.30805534e-02 +1.10974349e-01 -8.05406272e-02 +4.50689569e-02 -7.77080357e-02 -9.20233205e-02 +9.66648478e-03 -3.27967368e-02 +8.40454400e-02 -1.15124002e-01 -5.72180375e-02 +1.07692316e-01 -1.06508927e-02 -8.38300586e-03 +8.55650455e-02 +3.39218192e-02 +7.06685930e-02 -2.44388059e-02 +2.93780211e-02 -9.10808817e-02 +1.10925749e-01 +9.04844627e-02 +2.41232403e-02 -2.77502947e-02 +2.90287286e-03 -7.84556791e-02 +6.20689876e-02 -1.08045526e-01 +5.65577745e-02 -8.57795775e-02 -1.03467286e-01 -1.04207143e-01 -5.18843494e-02 -2.39848550e-02 -5.33958482e-05 -1.10244669e-01 -2.08919160e-02 -1.17778555e-01 -7.26532117e-02 -6.04300722e-02 +1.03978127e-01 -1.61175411e-02 +5.91442846e-02 -6.25700355e-02 +2.38666348e-02 -1.28357811e-03 +2.06211731e-02 +7.18196109e-02 -5.15087799e-04 +1.81494374e-02 +8.73842686e-02 +1.16898343e-02 +1.90080963e-02 -1.82077363e-02 +1.10355020e-01 -3.41134928e-02 +1.05634108e-01 +4.73030005e-03 -6.93777949e-02 +6.95485100e-02 -4.82101329e-02 -1.02567710e-02 +4.38186675e-02 -2.75900848e-02 -9.25497264e-02 -9.75227281e-02 +1.18184853e-02 -4.83157597e-02 +5.39630651e-02 +4.85201478e-02 +4.67846133e-02 -1.12219937e-01 +3.79658863e-02 -7.65807752e-04 +2.03001853e-02 +1.09256662e-01 -2.12355442e-02 +1.05016157e-01 +1.11465059e-01 -8.05260539e-02 +2.32993327e-02 +9.22228321e-02 -1.58791952e-02 -2.18307842e-02 +7.60077834e-02 +2.38804258e-02 -1.09960221e-01 +1.39462505e-03 +9.97176617e-02 -8.29490423e-02 +1.23200817e-02 -9.08342674e-02 +1.35903535e-02 +8.42677131e-02 +8.40757936e-02 +1.18179984e-01 -4.86005619e-02 -7.23695904e-02 +6.11144118e-02 +1.91548076e-02 -1.97295249e-02 -9.53623056e-02 +5.91297708e-02 -1.59943048e-02 -6.49753958e-02 -4.81273569e-02 -5.08496910e-02 -1.11578017e-01 -3.51448357e-02 -1.05048947e-01 -5.75961843e-02 +6.23955689e-02 -1.45734809e-02 -4.63923626e-02 -1.18902229e-01 -1.03751123e-01 +4.39322032e-02 +5.93199842e-02 +7.34006539e-02 +8.98012146e-02 +7.97550678e-02 -7.12922513e-02 +2.89271735e-02 -2.75050178e-02 +1.87645422e-03 +3.60647142e-02 +6.94167390e-02 +2.51234025e-02 -3.98546718e-02 -1.17777415e-01 +1.04523256e-01 -3.43387835e-02 +1.67759750e-02 -1.09693706e-01 +1.81448404e-02 -1.12796485e-01 -7.99477547e-02 +9.09575522e-02 +1.34294834e-02 +1.00653328e-01 -6.88076317e-02 +4.51702140e-02 -1.45069137e-02 +3.52259763e-02 -5.51166758e-02 -9.72708985e-02 -3.07524521e-02 -2.91527528e-02 -8.53969380e-02 +4.82912511e-02 -8.77371505e-02 -1.94592997e-02 +4.68474738e-02 -1.13034457e-01 +2.53024325e-02 +3.09682544e-02 +3.96663137e-02 +4.45815623e-02 -4.96325679e-02 +4.32706326e-02 -1.14912882e-01 -1.15709752e-01 +6.38146326e-02 +1.62524469e-02 +2.89212670e-02 -5.93088008e-02 -5.25915734e-02 -8.48386660e-02 +5.94458915e-02 +4.23892029e-02 -7.77754486e-02 +1.11656442e-01 +8.49068612e-02 -5.26611023e-02 +4.40963209e-02 -3.55504863e-02 +8.12957063e-02 +8.38628784e-02 -2.23799404e-02 +5.70262410e-02 -9.74514559e-02 +7.61751309e-02 -4.79420237e-02 -3.22978497e-02 +5.69804292e-03 +3.04513462e-02 -1.18082203e-01 -7.91650712e-02 +7.83178210e-02 -6.43849447e-02 +9.70416218e-02 +3.09944968e-03 +5.18916138e-02 +1.05104364e-01 +5.52673079e-02 +8.63911305e-03 +5.72913140e-02 -1.07268788e-01 -3.25625725e-02 +1.10591784e-01 +4.26621735e-02 -8.54390711e-02 -8.30766112e-02 +4.02162404e-04 -2.44468451e-02 -6.39978722e-02 -6.08310848e-02 -3.68573517e-02 -3.19590233e-02 -8.30986574e-02 +4.76172864e-02 -1.13632843e-01 -1.00521207e-01 +1.06254540e-01 -1.01989806e-01 -8.56768042e-02 +1.12671189e-01 +7.55756199e-02 +1.65057497e-03 +4.88362983e-02 +1.15129553e-01 -8.43317360e-02 -5.39901853e-02 -2.16238257e-02 -5.36275357e-02 -1.62891001e-02 +5.11229970e-02 -2.35213917e-02 -2.47387718e-02 +1.13502614e-01 +1.13934293e-01 +4.02736478e-02 +8.14327970e-03 +9.75678191e-02 -3.01328134e-02 +1.12003230e-01 +1.16631221e-02 +2.05729995e-02 -1.13920294e-01 -1.48550468e-02 +4.47150394e-02 +1.11089982e-01 +1.10193178e-01 +6.12259144e-04 -4.06368263e-02 +4.79033478e-02 +8.78692493e-02 -9.77497399e-02 -1.23705463e-02 +8.84694234e-02 +7.38851428e-02 +5.15245050e-02 -1.17002586e-02 +2.25111898e-02 +1.01478599e-01 +8.30630660e-02 -5.78832775e-02 +4.11907844e-02 -9.38289389e-02 -2.81420257e-02 +6.20296970e-03 +2.01169010e-02 +7.99665600e-02 -4.19265144e-02 -9.91495997e-02 +1.10878460e-01 +2.01898646e-02 +1.19058840e-01 +8.34899470e-02 +4.77370992e-02 +5.62801361e-02 -1.06672004e-01 +4.51389886e-03 -1.46251116e-02 -2.79076714e-02 -3.29077244e-02 -7.80246928e-02 -5.30713536e-02 -1.01872697e-01 -1.04927145e-01 +5.25334738e-02 +9.13499966e-02 -8.62719044e-02 -6.80103227e-02 -1.10994592e-01 +3.00687365e-02 -1.07584028e-02 +1.72006935e-02 -6.11639470e-02 -2.80253496e-03 +4.20245267e-02 +6.04516305e-02 +6.04262985e-02 +2.56482810e-02 +6.38904572e-02 -8.60918015e-02 +9.59229097e-02 -1.46454480e-02 +3.33312782e-03 +6.55785426e-02 +2.88135502e-02 -8.70325491e-02 +9.41542462e-02 -5.68077751e-02 -8.96618292e-02 -6.75090356e-04 -9.05540958e-02 -6.94098622e-02 -1.15582272e-01 +4.36342843e-02 -2.73543801e-02 -2.70094555e-02 +3.09301578e-02 -6.96349666e-02 +6.09019510e-02 -1.02703080e-01 +9.23481509e-02 +1.17154464e-01 -1.08417626e-02 +8.05299636e-03 +6.55919462e-02 +9.51250792e-02 -7.67040178e-02 +1.06489338e-01 +3.81304435e-02 +1.21274469e-02 +1.61255747e-02 +4.46733274e-02 +7.00607449e-02 +5.67534678e-02 -7.79949427e-02 -6.86668931e-03 -8.72037634e-02 -4.07618620e-02 -4.46132198e-02 +9.45475698e-02 +6.86066374e-02 -6.28613904e-02 +9.02236030e-02 -7.69130588e-02 -8.12995657e-02 -5.99642433e-02 +1.14663847e-01 +1.31013372e-03 +9.84164625e-02 -1.01957418e-01 -1.07982792e-02 -7.38282502e-02 -3.96489576e-02 -8.66702124e-02 +8.20283666e-02 +1.33935353e-02 +2.65570059e-02 -1.06813170e-01 +3.27217206e-02 +1.14602618e-01 -8.59340578e-02 +3.71731594e-02 +8.93200412e-02 -1.13080382e-01 -1.13465495e-01 -2.38295924e-02 -1.04738194e-02 +8.82478729e-02 +3.80431637e-02 +7.98522532e-02 -2.78252866e-02 -2.81730071e-02 -2.00321395e-02 +1.97137985e-02 +1.07997350e-01 -1.86884124e-02 +4.28211950e-02 -1.64118726e-02 -5.68877906e-02 -1.04660913e-02 +9.95774791e-02 -2.56709792e-02 -2.69736983e-02 -9.07612741e-02 -9.66864079e-03 +4.49157879e-02 +9.18486714e-02 +7.71844536e-02 -6.18648306e-02 -4.35307547e-02 +6.11853823e-02 -6.29798472e-02 +9.72598866e-02 -1.16418868e-01 +2.86309477e-02 +1.11687563e-01 +3.14609297e-02 -9.46904048e-02 -5.97282760e-02 -9.74989682e-02 -2.63249222e-02 -3.39364558e-02 +1.07915262e-02 -2.95855552e-02 +3.51315364e-02 +2.93061808e-02 -7.61244446e-02 +1.13202803e-01 +7.80699104e-02 +1.08832614e-02 +5.29024489e-02 +2.89682727e-02 -8.24334547e-02 +2.63720285e-04 -5.69626428e-02 +3.44862193e-02 +5.80223044e-03 -4.12092805e-02 -7.93278441e-02 +1.42544294e-02 +1.00885086e-01 -1.03299662e-01 +2.84475926e-02 +2.19507460e-02 +2.57518571e-02 -1.16953440e-01 -1.33132990e-02 -1.07374027e-01 -1.13993384e-01 +1.59491077e-02 -2.80928425e-02 -2.31537689e-02 -1.47549435e-03 -6.24664547e-03 +5.25229722e-02 +8.89493302e-02 -2.15861183e-02 +9.58650466e-03 -3.51994224e-02 -6.13808557e-02 -1.17411435e-01 -9.79735404e-02 -7.11119324e-02 -1.06985725e-01 +3.46800797e-02 -1.05234504e-01 -7.44307265e-02 +1.51499622e-02 +6.34720409e-03 -1.07937634e-01 -7.60757783e-03 +8.83040950e-03 +8.29692781e-02 +7.00183660e-02 -7.73842856e-02 -1.50996763e-02 -2.17194948e-02 +5.44208586e-02 +1.00410953e-02 -8.16334710e-02 +4.95701469e-02 +1.06409006e-01 -3.49353217e-02 -5.27014136e-02 +1.86900981e-02 +8.74366984e-03 +1.02650762e-01 -9.88832861e-02 +1.09436307e-02 -6.78847060e-02 +3.94848511e-02 +9.26211178e-02 -8.54301751e-02 +1.14099734e-01 +6.02725595e-02 +1.13749743e-01 +1.06505654e-03 +4.35412116e-02 -1.12888590e-01 +6.35947287e-02 +1.06729351e-01 -5.79824783e-02 -5.78407105e-03 +5.31667247e-02 -6.44266754e-02 -4.98808883e-02 -1.94114614e-02 +5.11629172e-02 -9.91145074e-02 -4.56135049e-02 -1.21248709e-02 -7.96988383e-02 -9.23745781e-02 -2.34537143e-02 +1.72636248e-02 +7.40499943e-02 -4.54771258e-02 +7.19685853e-02 -8.13359022e-02 -5.36765270e-02 -5.97885251e-02 -7.24853873e-02 -1.15107046e-03 +1.06284969e-01 -1.08777948e-01 -6.38924465e-02 +5.58269843e-02 +4.88160737e-03 -4.79361452e-02 +2.40863804e-02 +6.33483231e-02 +3.09565570e-02 +5.37311248e-02 +4.97671366e-02 +5.80198988e-02 -1.01065665e-01 +3.89914215e-02 -4.43687998e-02 +8.64091888e-02 +9.35042873e-02 -3.18020955e-02 +4.32959236e-02 +2.18666680e-02 -5.83863556e-02 +8.64294767e-02 +1.11819260e-01 +7.68826529e-02 +3.66997421e-02 -2.95499992e-02 +6.43972903e-02 -7.39000887e-02 +5.95300980e-02 -1.02926500e-01 +9.37898234e-02 -1.04685120e-01 -4.12007533e-02 +5.84641285e-02 +6.15329109e-02 +8.99963677e-02 +5.09628244e-02 -1.49055468e-02 +3.97724807e-02 -1.61945764e-02 +3.43330055e-02 +1.08791767e-02 +1.14192791e-01 +9.82419625e-02 -7.96642825e-02 +8.96364152e-02 -4.20873500e-02 +6.81318641e-02 +3.10639031e-02 +6.05623648e-02 -2.19121506e-03 -7.99955800e-03 -5.91205768e-02 +7.20067397e-02 +4.11691815e-02 -8.30467492e-02 +5.97503819e-02 +6.42087683e-02 -4.16716971e-02 -1.05476178e-01 -1.06403165e-01 +8.52369815e-02 -3.54466699e-02 +1.30361579e-02 +8.97677764e-02 -1.04711451e-01 +8.89954565e-04 +9.17230397e-02 -1.11842066e-01 +7.53601566e-02 +7.79296234e-02 -1.95652526e-02 +2.45247614e-02 -4.40696217e-02 +8.29152837e-02 -6.12544492e-02 +2.13779788e-02 -1.97072588e-02 -7.46991113e-02 +1.09396964e-01 +4.02100049e-02 +4.02905717e-02 +2.89394986e-03 -4.97359373e-02 +5.88231981e-02 -2.84546092e-02 -8.24047104e-02 +6.39337022e-03 +9.31701660e-02 -5.25275990e-02 +3.87318432e-02 -4.11155866e-03 +4.39190818e-03 +6.44327775e-02 -5.91447502e-02 +3.37758362e-02 +1.46984886e-02 -4.04787920e-02 +1.93940066e-02 +4.31439020e-02 -1.13599166e-01 -6.91926107e-02 -5.32504357e-02 +1.14385165e-01 +2.19176449e-02 -2.61629485e-02 -5.20314928e-03 -1.22117605e-02 -1.12542570e-01 -8.74957070e-02 +1.95239671e-02 -7.88017437e-02 -6.66633919e-02 +4.23991773e-03 +8.91515613e-02 -9.13741291e-02 +1.41010722e-02 +8.02554712e-02 +7.33026788e-02 +1.09791942e-02 +9.60463136e-02 -6.19464740e-02 -8.89812782e-02 -8.92945305e-02 +6.66447682e-03 -2.49345452e-02 +9.59133059e-02 -1.06474780e-01 +7.16433674e-02 -6.43453002e-02 +3.76185700e-02 +1.75871719e-02 -1.02302358e-01 +8.30615535e-02 +7.07439780e-02 +7.84160197e-02 -8.41715783e-02 -5.45621254e-02 +3.83127183e-02 -8.64546224e-02 -3.34854163e-02 +3.05668470e-02 -9.27916914e-02 -5.29727116e-02 +1.15350574e-01 -8.55839625e-02 +5.07774167e-02 -9.25289318e-02 -9.04730186e-02 -4.21033949e-02 +1.11238584e-01 -2.68890448e-02 +4.16620821e-02 -1.40962414e-02 +9.31680575e-02 +5.20990929e-03 +9.86000597e-02 +7.31376112e-02 +1.12402007e-01 -5.02582677e-02 -1.18400350e-01 -8.64356160e-02 +3.94736230e-02 +5.67735508e-02 -4.87463847e-02 +2.87876632e-02 +7.74368346e-02 +1.09686844e-01 -4.81080823e-02 -1.16393557e-02 -4.18153964e-02 -1.16890021e-01 -1.73534025e-02 +7.72554846e-03 +8.34982470e-02 -1.14796817e-01 -6.76168948e-02 -1.81287378e-02 +9.10853222e-03 +9.33942795e-02 +2.02071690e-03 +2.46352963e-02 +1.29326684e-02 +8.97016004e-02 -7.75678754e-02 +1.06135055e-01 -1.10800028e-01 +7.52377585e-02 +4.25845981e-02 -3.47070186e-03 -1.27412435e-02 +8.95722657e-02 +9.10850335e-03 +8.57788846e-02 -8.32818747e-02 +7.35759214e-02 +1.40218614e-02 +8.59042481e-02 +1.96645292e-03 -1.13348477e-01 +5.24036996e-02 -1.04959451e-01 +9.86208841e-02 +9.09475237e-02 +3.26136202e-02 -1.13581456e-01 +3.05218622e-02 +4.87877242e-02 -7.37314820e-02 +5.59506826e-02 -9.69806463e-02 +1.01982959e-01 +6.97357655e-02 +1.02202460e-01 -6.09490573e-02 +7.44568706e-02 +8.91283713e-03 +2.59644017e-02 -4.16461639e-02 +4.00951728e-02 +4.54422869e-02 +1.69396622e-03 +1.15572155e-01 +6.61126971e-02 +1.00860760e-01 -6.87228935e-03 +3.11739836e-02 -6.73303083e-02 +3.98643725e-02 +7.34360144e-02 -6.03164993e-02 -7.40668550e-02 -3.67254093e-02 +6.35619834e-02 -7.08555579e-02 -2.37169862e-02 +5.82998730e-02 +8.61792341e-02 +2.03824285e-02 +5.89527469e-03 +6.17595427e-02 +6.81086555e-02 +1.09246813e-01 -1.14842698e-01 -1.08128324e-01 -4.88643683e-02 -9.79689732e-02 -1.15753494e-01 -7.38478303e-02 -2.31855046e-02 +6.54480010e-02 +1.19496984e-02 -6.45788684e-02 +6.54300824e-02 -7.66312480e-02 +1.96080897e-02 +7.41032511e-02 +9.71095189e-02 -1.10901985e-02 -1.17340095e-01 -8.18174407e-02 +8.78321603e-02 -1.34714516e-02 +4.42376919e-02 +1.58894770e-02 +7.10051507e-02 -4.69637066e-02 +1.02367796e-01 +7.69753829e-02 -3.00938487e-02 -8.66628140e-02 -6.40116259e-02 -6.20027408e-02 +1.38515122e-02 +7.31645972e-02 +1.15647115e-01 -6.65695667e-02 +1.00921141e-02 +7.83317536e-02 -1.45286731e-02 +1.13965981e-01 -7.96536133e-02 +7.89276510e-02 -2.25546937e-02 +1.70467682e-02 +8.47436115e-02 +9.93441697e-03 -5.27806655e-02 +2.15574075e-02 -1.14441209e-01 -8.39727595e-02 -9.76347700e-02 +1.12980850e-01 -5.85592352e-02 +2.46911403e-02 +8.20177868e-02 -5.01198471e-02 +1.05091771e-02 +7.63348341e-02 +1.13915719e-01 -1.19821737e-02 -9.08169895e-03 +2.36817002e-02 -1.14953429e-01 +6.60313144e-02 -8.35663825e-02 +4.64839898e-02 +9.35495868e-02 +9.31050405e-02 -6.27650619e-02 -3.87409739e-02 -1.13552570e-01 +1.00412704e-01 -8.46582055e-02 -1.15101054e-01 +1.18345298e-01 +3.73517051e-02 +8.54645669e-02 +3.46234664e-02 +7.12813959e-02 -2.28272602e-02 +4.83015850e-02 -7.20838755e-02 -2.34034136e-02 +7.82649964e-02 -5.84380515e-02 -3.38783078e-02 +9.92237329e-02 -1.02944262e-01 -5.64079769e-02 +4.88397963e-02 -3.65616903e-02 -3.93561982e-02 +3.04813739e-02 -1.12908728e-01 +2.68014576e-02 -1.06635867e-02 +7.91842639e-02 -1.15989223e-01 -5.15387282e-02 +1.17030792e-01 -4.80762795e-02 +7.72857945e-03 +7.45083168e-02 +7.95749016e-03 -9.62107554e-02 -1.09987736e-01 +1.01605773e-01 +2.55612284e-02 -7.52553195e-02 -5.31948097e-02 -4.28059474e-02 -1.18837163e-01 -2.99219191e-02 -1.17553316e-01 +7.90099204e-02 -4.02552970e-02 -7.67878741e-02 -1.42549695e-02 +4.67179231e-02 -3.78187783e-02 +8.34982991e-02 +8.97681117e-02 -5.88607118e-02 -5.25628328e-02 +5.28387651e-02 -8.42863321e-02 -3.73601019e-02 +7.03700930e-02 -8.72794911e-02 -3.10155526e-02 -5.99607825e-02 -4.83104363e-02 +5.07349074e-02 -5.54186366e-02 +3.52284387e-02 -8.19531307e-02 -4.21222970e-02 +5.41150719e-02 +7.29646310e-02 +3.75491083e-02 +6.53931648e-02 -1.04185127e-01 -2.13409495e-02 -1.17118753e-01 +1.15849011e-01 -9.83306207e-03 +7.37406760e-02 +5.41414432e-02 +1.98094044e-02 -4.99090254e-02 +3.47841643e-02 -2.05568392e-02 -7.14513361e-02 +1.39428917e-02 +3.99309024e-02 -1.08339354e-01 -6.73338324e-02 -1.05127752e-01 +1.15900502e-01 -8.28004330e-02 -6.02932684e-02 +9.92270336e-02 -1.08372256e-01 -1.15005605e-01 -2.13576071e-02 -5.03100567e-02 -5.81473410e-02 +1.24276849e-02 -1.50460172e-02 -5.27405627e-02 +5.15071265e-02 +4.74566147e-02 -1.15087748e-01 +3.91666256e-02 -2.92272754e-02 -5.23819551e-02 -1.03097945e-01 +3.45785096e-02 +6.78224638e-02 +7.91829734e-05 +4.40620929e-02 -8.47777054e-02 -1.52051514e-02 +1.02039739e-01 -1.02824576e-01 -1.43716382e-02 -7.43826181e-02 +1.26491236e-02 +8.16055834e-02 -4.14197370e-02 -1.02992915e-01 -4.88787256e-02 -7.15000406e-02 +9.02277417e-03 +5.37470207e-02 +1.02084570e-01 -9.87553969e-02 +1.02925323e-01 -6.79023415e-02 +1.82021931e-02 +2.91747265e-02 +8.72037634e-02 +1.13502853e-01 +3.09097227e-02 -1.87574904e-02 -6.71376511e-02 +1.50372358e-02 -1.17018290e-01 +7.59962574e-02 -8.04618225e-02 -1.14024252e-01 +1.19201397e-03 -1.03390604e-01 -2.75749583e-02 -8.20763409e-02 -5.48395365e-02 -1.72341503e-02 +1.53119285e-02 +7.48191848e-02 -6.48140684e-02 -7.50457942e-02 -1.80300437e-02 -9.91799012e-02 -7.99228698e-02 +4.88763563e-02 -5.75012602e-02 -1.00258887e-01 +5.87407574e-02 +5.34526305e-03 +5.61639667e-02 -7.66662136e-02 +3.73327769e-02 -4.93109114e-02 -1.04853816e-01 -5.18438332e-02 -5.39846420e-02 -3.94350849e-02 +6.12189956e-02 +6.53101280e-02 +5.60939908e-02 -5.56016676e-02 -1.29012810e-02 +9.10521373e-02 +1.61549484e-03 -1.27596939e-02 +5.54192290e-02 +9.23964530e-02 -4.76412103e-02 +1.69475470e-02 -6.94573522e-02 +9.85509232e-02 -1.04813404e-01 -7.86838233e-02 -5.33417054e-02 +4.04023565e-02 +1.18090816e-01 +8.68815370e-03 -8.71854797e-02 -1.09364450e-01 -1.02001518e-01 +4.95768804e-03 +2.43264623e-02 +1.15111649e-01 +7.39461482e-02 -1.14011191e-01 -1.71702809e-03 -2.05380470e-02 +7.15110898e-02 -1.19142950e-01 +8.65997747e-02 -9.58910882e-02 +5.17981034e-03 +5.81204146e-02 -7.59336129e-02 +1.10527955e-01 -7.73739442e-02 +4.77260277e-02 -7.41868317e-02 -1.02461658e-01 +9.86611694e-02 +5.53492941e-02 +3.31974886e-02 -3.62800397e-02 +5.03726229e-02 +4.91340309e-02 -1.63314734e-02 +1.16950631e-01 -9.34177935e-02 +4.96671349e-02 -5.83538525e-02 -8.12416673e-02 -8.73260796e-02 -1.03187598e-01 +1.11091733e-01 +6.15160316e-02 -4.08604182e-02 +7.83416331e-02 -1.18751787e-01 +8.16231593e-02 -1.30109331e-02 -8.44814032e-02 -5.98551407e-02 -9.93376318e-03 -7.68299177e-02 -6.83082864e-02 -8.90477560e-03 -5.30972751e-03 -1.18773021e-01 -7.62311444e-02 +1.19230315e-01 -8.73748884e-02 +8.09093118e-02 -1.12886168e-01 -6.70661777e-02 -5.91023453e-02 -7.15358406e-02 -4.77174968e-02 +2.48050485e-02 -9.95548069e-02 +6.09988384e-02 +7.95777366e-02 +6.79657161e-02 +6.16496801e-02 +7.17532039e-02 +1.09915085e-01 -1.08187273e-01 -1.94864608e-02 -2.05277302e-03 +4.25707661e-02 -5.66633558e-03 +1.11013234e-01 +1.09078087e-01 -1.46987448e-02 -8.02171975e-02 +4.96230014e-02 -8.75012875e-02 +1.10454336e-01 -2.83856858e-02 +9.16501880e-02 +1.05961345e-01 +2.88827717e-02 -1.70536134e-02 +2.58517172e-02 +8.76518041e-02 +3.09280939e-02 +2.39962824e-02 +5.38892783e-02 -1.12243466e-01 -3.05963550e-02 -1.73178595e-02 -1.18995242e-01 +2.64830329e-03 +6.28780946e-02 +2.87460089e-02 +2.82172449e-02 +2.91884169e-02 -3.49679068e-02 -2.89698746e-02 +8.85815248e-02 +6.02058284e-02 +5.61082810e-02 -1.04807734e-01 -8.21111351e-02 +4.01174761e-02 +1.02534266e-02 +5.05324826e-02 -8.41465294e-02 -6.32120967e-02 -6.65378198e-02 -4.78659868e-02 -8.96722451e-02 -1.42145818e-02 -1.00424200e-01 -9.34050307e-02 -3.06687355e-02 +2.56975070e-02 +6.00862429e-02 +8.89095142e-02 +4.07557487e-02 -1.14419997e-01 +1.01735264e-01 +7.51354918e-02 +2.78010927e-02 -9.96569823e-03 +2.82146968e-03 -4.22373638e-02 -1.09500559e-02 -3.25767286e-02 +5.07957749e-02 -7.22933412e-02 -1.99083332e-02 +7.22318739e-02 -7.43965358e-02 +2.62702741e-02 -1.16573371e-01 -3.54544036e-02 -9.70641058e-03 +1.11337900e-01 +1.09070502e-01 +6.13933578e-02 +1.18066594e-02 -9.12613869e-02 +5.83178736e-02 +9.38782319e-02 -1.82567700e-03 -1.16626953e-03 -8.15993100e-02 -2.37285625e-03 -4.18095067e-02 -2.20000301e-03 +2.65920293e-02 +6.37608618e-02 +1.11044154e-01 +8.38143378e-02 -8.62554014e-02 +9.47586372e-02 -2.68095266e-02 -8.84710178e-02 +4.27343547e-02 +4.46366407e-02 +1.58561766e-02 -3.35396379e-02 -1.17945537e-01 +7.06740618e-02 -2.80943718e-02 +2.44880747e-02 -6.84459955e-02 +1.55703269e-03 +7.70119429e-02 -4.67143469e-02 +5.15312068e-02 -5.98286055e-02 +2.96049677e-02 +9.70766544e-02 +9.41306949e-02 +8.37399811e-03 +5.22658564e-02 +6.35350822e-03 +8.85434728e-03 +7.55374786e-03 -6.39734091e-03 +1.36051830e-02 +3.93253611e-03 +1.03864290e-01 +5.13070934e-02 -9.21529084e-02 +8.36663619e-02 -9.80166811e-03 +1.16324753e-01 -8.90628099e-02 -8.07287078e-03 -1.04091736e-02 +8.97318572e-02 +4.56016511e-02 +4.42419350e-02 -2.92061064e-02 +6.60381392e-02 -9.55758709e-03 -1.00743718e-01 +6.40359297e-02 -2.61030775e-02 +6.27116635e-02 -2.63544302e-02 +6.12686351e-02 +1.83751602e-02 -2.18913592e-02 -3.88046429e-02 +2.48318166e-02 -7.15165511e-02 -5.85271232e-02 +3.40186059e-02 -9.70986038e-02 -5.55798784e-02 +1.05956562e-01 +1.19354881e-01 -1.47705269e-03 +7.63544440e-02 -1.47041380e-02 -7.14385957e-02 -3.75868008e-02 +2.36306526e-03 +5.30995689e-02 +9.25288424e-02 -3.17470282e-02 +2.08464544e-02 -2.35058367e-02 -1.07943565e-01 +5.57418652e-02 +7.56519437e-02 -4.61882204e-02 -1.14283547e-01 -8.28377083e-02 -7.09959865e-02 -6.23022281e-02 +6.24200180e-02 -7.87813365e-02 +1.01519927e-01 -4.69717532e-02 -4.23789285e-02 +5.65628558e-02 +2.19488814e-02 +5.94624393e-02 +7.88702965e-02 +1.05309762e-01 -2.19432246e-02 -1.35241784e-02 -8.37341398e-02 +8.74705836e-02 +9.95308906e-02 -9.86997932e-02 -1.16066791e-01 -9.23054665e-02 -1.02502532e-01 -6.86531290e-02 +9.98924896e-02 -1.72020886e-02 +9.00911689e-02 +7.04661310e-02 -9.07996595e-02 -1.08806610e-01 -3.57227847e-02 +9.21482295e-02 +1.74952243e-02 -3.56855281e-02 +9.57956091e-02 -1.06035657e-01 +1.15762018e-01 +1.19745741e-02 +8.19407851e-02 -1.06498286e-01 +9.55839753e-02 +1.09619826e-01 -9.66184959e-02 +9.65339765e-02 -1.01781497e-02 -8.83466601e-02 -9.05902013e-02 -5.66250980e-02 -1.13100238e-01 +4.12673652e-02 +1.10083982e-01 -1.19271703e-01 -1.01116315e-01 -4.48835008e-02 +3.47804241e-02 +1.23611530e-02 -6.06087670e-02 +9.88497511e-02 +8.12074021e-02 -1.11492567e-01 +1.07868522e-01 +8.42946991e-02 -1.18860848e-01 +2.56280005e-02 -4.36061025e-02 +5.75144179e-02 +4.27366031e-04 -9.74963233e-02 -3.11645195e-02 +1.23873679e-02 +4.39761914e-02 +4.62334491e-02 -9.12958235e-02 -9.55654606e-02 -1.18759483e-01 +4.77842763e-02 +4.42371368e-02 +1.05158769e-01 +4.13272763e-03 +1.60628726e-04 +1.36878099e-02 -6.30513579e-02 -5.19646630e-02 +4.37198021e-02 -4.88933660e-02 -1.05631351e-02 +4.76272777e-02 -7.77997971e-02 -1.17821313e-01 +1.06893010e-01 -3.26046273e-02 -7.19513372e-02 +8.88614208e-02 +8.94551650e-02 +1.00884087e-01 +1.07251801e-01 -1.12467244e-01 +9.55270231e-02 +4.86842915e-02 +9.65553522e-02 -1.07124910e-01 +1.00262232e-01 -1.04949869e-01 +5.39037213e-02 +8.61508027e-02 -3.14561389e-02 +9.34324637e-02 -4.10349034e-02 -9.97596532e-02 +1.03927575e-01 +5.32403290e-02 +1.23483455e-02 +5.49341552e-02 -1.83681864e-02 -8.80894437e-02 -7.88473040e-02 +1.12079084e-01 +5.18161617e-02 +2.33494136e-02 +1.13482162e-01 +1.80535894e-02 +7.50734806e-02 -4.01585735e-02 +8.13346729e-02 -9.13167223e-02 +6.46644533e-02 -2.18920559e-02 +9.04481411e-02 +4.62550931e-02 -4.18788847e-03 -4.76956703e-02 +1.41689135e-02 -9.74779353e-02 -4.16892283e-02 +8.15617368e-02 -3.32232565e-02 +1.01559430e-01 +8.58178362e-02 +6.58820421e-02 +7.10327062e-04 +8.68605748e-02 -5.38353771e-02 +1.07377216e-01 +9.02206302e-02 +4.11291495e-02 -1.04560636e-01 -3.68992984e-02 +7.26495385e-02 +1.14435032e-01 +4.36409451e-02 -3.65827754e-02 -3.94340605e-02 -1.76592395e-02 -9.13420618e-02 +8.76849070e-02 -2.87492969e-03 +1.06335573e-01 -7.89641067e-02 +1.10908233e-01 -3.56352031e-02 +8.87747258e-02 +4.89979200e-02 +7.08840117e-02 -8.20401758e-02 -7.97548443e-02 +8.85369778e-02 -4.50438540e-03 +4.38592397e-02 -7.01562166e-02 +5.15162237e-02 +8.65253732e-02 +1.95286218e-02 +1.00828797e-01 -6.69031665e-02 +4.99148713e-03 +7.32674748e-02 +1.14128053e-01 -5.93359880e-02 -5.37550896e-02 +2.45218314e-02 +3.22584808e-02 +1.08215168e-01 +5.90007193e-02 -2.51419954e-02 +6.06637746e-02 -4.31317203e-02 +5.76037914e-02 -2.00780556e-02 +9.74629223e-02 -1.11772083e-01 +5.22578135e-02 -8.37883502e-02 +9.09134820e-02 -9.12860334e-02 -4.69526974e-03 -7.61343762e-02 -7.57354647e-02 +7.28079164e-03 +1.11093968e-02 -1.26931129e-03 +1.00384228e-01 +1.17658794e-01 -9.29411948e-02 +4.87496704e-02 -2.02956032e-02 +4.09396589e-02 +7.41542801e-02 -2.56604422e-02 +2.77285706e-02 +2.63238121e-02 -7.83813298e-02 +3.82413622e-03 -9.11925547e-03 -4.24013995e-02 -1.13463461e-01 -9.13776532e-02 -2.51648501e-02 +8.41754377e-02 +9.17177051e-02 +1.15636967e-01 -1.76771563e-02 -4.27151509e-02 -3.42492685e-02 -8.37927759e-02 -2.02714391e-02 +1.14180580e-01 +2.29618512e-02 -6.95191994e-02 +2.68991701e-02 +7.26241916e-02 +6.64966926e-02 -8.07072595e-02 -3.62023562e-02 +1.53077878e-02 +9.18652564e-02 +7.49116614e-02 +1.26119377e-02 -2.96554249e-02 +8.39167833e-02 -4.70252931e-02 -7.54307956e-02 +1.17263123e-01 +5.98952286e-02 +1.04521522e-02 -8.32659304e-02 -5.51331080e-02 -2.58097555e-02 -9.99148414e-02 +1.86577216e-02 -8.12191963e-02 -1.14539661e-01 -6.96113631e-02 +1.40932165e-02 +1.01175174e-01 +1.14133628e-03 -3.63295292e-03 -4.62882407e-02 -6.97806627e-02 -3.43949534e-02 +5.38983010e-02 +2.28796657e-02 +1.09183028e-01 -4.29709442e-02 -6.34595230e-02 -1.01533802e-02 -5.93151487e-02 -8.88385549e-02 +8.68841559e-02 -8.57108235e-02 +6.58602118e-02 -8.22672099e-02 -9.20055732e-02 +1.35249896e-02 -7.09039271e-02 -6.18710667e-02 +7.57395774e-02 -6.15545027e-02 -8.46006647e-02 +3.06997392e-02 +7.62486011e-02 -7.45564848e-02 -7.93595761e-02 -3.12775373e-02 +4.91710156e-02 +1.01832613e-01 -2.78720222e-02 -3.02039627e-02 -6.16423488e-02 -2.92702764e-02 +7.75611028e-02 +1.09426096e-01 -4.06044833e-02 -1.47586940e-02 -9.82006192e-02 +1.40334887e-04 +9.13563818e-02 -1.10065632e-01 +4.74202409e-02 +6.49387464e-02 -7.25248903e-02 +4.28484902e-02 -9.10717323e-02 -4.81191315e-02 -1.03536598e-01 -7.90382996e-02 +6.47646710e-02 +6.36115372e-02 +9.86172929e-02 +5.07427230e-02 +3.69760841e-02 -1.04355715e-01 +3.40356566e-02 -1.13436781e-01 +9.96396989e-02 +2.30444502e-02 -1.00861423e-01 -7.95108005e-02 +6.67750686e-02 +8.56829509e-02 -2.27442347e-02 +8.21017250e-02 +4.26386781e-02 +1.13536373e-01 -4.79806960e-02 +4.58762012e-02 -1.42024709e-02 +5.98174818e-02 -2.73853317e-02 -8.83000121e-02 +8.68926793e-02 +6.80469349e-02 +4.78422120e-02 +9.53941792e-02 +4.48199660e-02 +7.92198703e-02 +1.47591420e-02 -8.07412788e-02 -9.70346332e-02 +5.39954714e-02 +5.38409762e-02 +4.36553471e-02 +1.02415001e-02 +6.03982210e-02 -6.51736781e-02 +3.10456734e-02 +5.44673242e-02 +2.95932125e-02 +5.94288707e-02 -7.60930330e-02 -1.96497012e-02 +1.17694726e-02 +9.70205441e-02 -7.74785429e-02 -9.14324969e-02 +9.13029760e-02 -9.17444304e-02 -5.20492569e-02 -9.11978856e-02 +9.44190472e-02 -9.29612294e-02 +4.90076132e-02 +9.76748019e-02 +7.38915578e-02 +1.05325036e-01 +6.51196092e-02 +1.17237009e-01 +2.55454741e-02 +3.76177169e-02 -6.59323633e-02 -1.13295361e-01 -1.12490244e-01 -1.13490097e-01 +7.90089667e-02 +7.90744573e-02 +3.45011055e-02 +1.03418410e-01 -7.89750293e-02 -5.37823588e-02 +1.00842873e-02 +6.19047321e-02 +3.00320354e-03 -8.57787505e-02 +1.06504880e-01 +6.20002933e-02 -4.38493714e-02 +6.76520988e-02 +1.23997061e-02 +1.02580242e-01 +7.46907070e-02 +7.49830306e-02 -1.27476901e-02 -7.43830875e-02 +3.03668976e-02 +8.81347433e-03 -3.02830171e-02 +3.63775454e-02 +4.75234017e-02 -4.07188199e-02 +6.60564974e-02 -5.02817929e-02 -3.03173792e-02 +9.02725756e-02 -1.04845427e-02 +1.06526911e-01 -1.83604732e-02 +8.03032611e-03 -4.38434295e-02 +3.68190147e-02 -3.56292771e-03 +5.20432219e-02 -1.03212468e-01 -2.67071538e-02 +7.20961392e-02 -6.61156997e-02 +5.87627031e-02 +7.65063167e-02 +3.85543928e-02 +2.57637966e-02 +2.55287942e-02 +6.02415763e-02 -8.21425840e-02 +1.15409262e-01 +2.66410429e-02 -5.56012467e-02 -9.25415233e-02 -6.68915436e-02 -6.99533373e-02 +8.40463191e-02 +7.65734315e-02 +5.64557649e-02 -3.71536762e-02 +1.11113705e-01 +9.35194865e-02 +4.95203398e-02 -2.88508013e-02 +8.35186802e-03 -8.68359357e-02 +5.39863072e-02 +1.16727911e-01 +5.12446612e-02 +8.88793021e-02 -8.75569806e-02 +1.32298749e-02 -1.18322499e-01 +1.02359757e-01 +3.43518052e-03 -5.53475805e-02 +3.93616632e-02 +1.17494710e-01 -4.60709706e-02 +5.53811863e-02 +9.30413008e-02 +7.35804364e-02 -8.06954131e-02 +3.28919142e-02 +2.59427689e-02 +9.44963545e-02 -4.08424903e-03 +8.49976987e-02 +7.91320950e-02 -6.05489388e-02 +2.54218467e-02 -6.10838048e-02 +2.90754642e-02 +6.80633401e-03 +1.14041768e-01 -1.44289760e-03 -3.03205044e-04 -8.14907700e-02 -9.49542373e-02 +7.85450116e-02 -1.06231220e-01 -2.53414605e-02 +3.74666080e-02 +3.77296880e-02 +4.82325628e-02 -1.07326187e-01 -8.53090808e-02 -6.49307296e-02 +1.10838883e-01 +5.88023774e-02 +7.27110580e-02 -1.54290451e-02 -1.04524300e-01 -2.53309291e-02 +5.43362536e-02 -6.41743243e-02 -4.15248722e-02 -7.00748339e-02 +1.26989046e-02 -4.68140841e-03 -7.41235241e-02 +9.22316089e-02 +5.98210394e-02 -1.59997772e-02 +9.41407681e-02 +4.85298410e-02 +1.15619265e-01 +3.88816409e-02 -5.12755988e-03 +3.87732014e-02 +1.06961653e-01 +5.40925302e-02 -4.41939756e-02 -6.77295495e-03 +2.18241867e-02 -2.84628551e-02 -1.22697027e-02 -9.74339321e-02 -4.31528352e-02 +3.66213545e-02 -6.19072951e-02 -3.50271575e-02 -1.14500545e-01 -9.20505822e-02 +7.83964097e-02 -4.08016145e-02 -4.87921424e-02 +5.88488579e-03 -6.96282238e-02 -4.59049270e-02 +9.30277929e-02 -7.16655180e-02 +5.62661029e-02 -9.44499299e-02 +1.74131673e-02 -8.30093324e-02 -7.69031197e-02 -8.62974375e-02 -3.58960517e-02 +1.18023470e-01 -5.63416928e-02 -9.94374305e-02 -1.01473995e-01 +7.51049910e-03 +8.41817707e-02 +9.60242935e-03 -6.15760125e-02 -4.17313129e-02 +5.00902459e-02 -5.31579182e-02 -7.16750622e-02 +1.51524814e-02 +3.46401744e-02 -9.86407474e-02 +1.01632297e-01 +5.10161892e-02 +9.69894454e-02 -9.97938141e-02 -1.11561276e-01 +7.03071952e-02 +4.89296392e-02 +1.09379821e-01 +9.15949270e-02 +1.01022966e-01 -6.81907609e-02 +4.73450981e-02 +2.36482988e-03 -9.49806124e-02 -1.07896188e-02 -1.69091369e-03 -9.80228782e-02 -7.81109259e-02 -5.06422706e-02 -1.09122731e-01 -3.63220572e-02 -1.07520208e-01 +2.29924489e-02 -3.54464049e-03 +9.55695882e-02 -7.32990056e-02 -8.63386095e-02 +8.58396739e-02 -2.13020556e-02 +8.49097446e-02 -2.27728039e-02 -2.21016631e-02 +1.18272036e-01 +1.50953708e-02 -5.99242635e-02 -8.77027810e-02 +1.71166863e-02 -5.75597994e-02 +3.37536894e-02 +1.14930429e-01 +8.72958824e-02 +7.56298425e-03 +1.11360647e-01 -1.16128907e-01 +7.95860589e-02 +1.01625182e-01 +7.76020288e-02 -5.67122214e-02 -4.04795408e-02 -7.23861903e-02 +1.60467345e-02 +3.01948842e-02 +5.35437427e-02 -1.17631927e-01 -1.16649014e-03 -5.74410483e-02 +1.21057155e-02 -5.96961528e-02 -2.60945316e-02 +1.38820673e-03 -4.12488636e-03 -5.41431643e-02 +8.57699886e-02 -8.46846029e-02 +8.66398439e-02 -6.58382778e-04 -1.05548881e-01 +3.93740162e-02 -1.12988904e-01 +3.34609374e-02 -3.21156904e-02 -1.03512160e-01 -7.59622753e-02 +1.35478163e-02 -3.60975005e-02 +1.15948223e-01 +1.01273671e-01 -1.17090903e-01 +1.41618121e-02 +1.08196355e-01 -6.68626353e-02 +1.12534598e-01 -1.02433816e-01 +2.74326862e-03 +6.87203482e-02 -3.27515649e-03 -3.55058210e-03 -6.53645694e-02 +2.57804468e-02 -8.75968933e-02 -2.93112695e-02 -2.92604696e-02 +3.51975150e-02 +7.83369914e-02 +6.58938810e-02 -5.13297766e-02 -7.58922696e-02 -1.06025361e-01 +8.98668915e-02 -2.59631760e-02 +8.01609159e-02 +6.73862174e-03 +1.17350901e-02 +9.85843688e-03 +8.03520456e-02 +9.67079401e-02 +1.16375759e-01 -4.88241166e-02 +1.65637005e-02 -3.88125367e-02 -9.08835009e-02 +4.91488576e-02 -9.57217366e-02 -5.99333420e-02 -3.34906168e-02 -1.09167948e-01 +9.25054625e-02 -2.31258673e-05 -1.16808079e-01 -1.28190881e-02 -9.80378091e-02 -4.39145714e-02 -8.19031000e-02 -1.07178673e-01 +6.60115033e-02 -8.31819922e-02 +5.95500357e-02 +1.36436354e-02 -3.48244198e-02 -5.11379242e-02 -5.29443920e-02 +6.34400770e-02 +8.63205567e-02 +8.63575265e-02 -4.03655320e-02 +6.31118342e-02 +9.10191447e-04 +1.60768051e-02 -1.09388411e-01 -3.26366350e-02 -6.56525940e-02 -3.70154902e-02 +1.19074166e-01 +3.21508609e-02 +5.49287759e-02 +1.00033924e-01 -4.36873101e-02 -7.77436420e-02 +1.14945911e-01 +7.56263956e-02 +1.72726605e-02 -1.21255973e-02 +1.00140415e-01 -2.94562224e-02 -8.22490081e-02 +7.54737779e-02 +1.52577786e-02 +3.48678902e-02 +1.15483485e-01 +8.92985389e-02 -4.90051992e-02 +5.58543066e-03 -3.21177468e-02 -6.19653687e-02 +1.10708393e-01 +5.86050898e-02 -4.66447473e-02 +8.64602178e-02 +6.03448506e-03 -1.18200509e-02 +1.02587812e-01 +5.24598584e-02 +5.41279502e-02 -9.06041712e-02 -9.93479267e-02 -7.97163323e-02 +8.42694491e-02 +4.93372530e-02 +3.72361764e-02 +1.05587147e-01 +7.89418519e-02 -3.97522338e-02 -6.70222566e-02 +6.11256808e-02 +9.52858329e-02 +4.41865735e-02 -9.04218573e-03 +7.08376244e-02 -1.18446790e-01 +8.90820250e-02 +7.23564848e-02 -1.17383569e-01 -4.12308909e-02 -5.41216545e-02 +7.18828216e-02 -4.74384278e-02 -9.77601334e-02 +3.61737795e-02 -7.56336674e-02 -1.02754720e-01 +4.19203676e-02 +4.38631810e-02 -7.01073557e-02 +1.99438613e-02 +2.85504274e-02 -9.21748206e-02 -1.08361356e-01 +7.16797858e-02 -3.42395753e-02 -1.79817490e-02 -3.06670424e-02 +8.09058398e-02 -3.73869725e-02 -2.49816645e-02 +2.94113643e-02 +9.98218060e-02 -1.49437506e-02 -1.05057426e-01 -8.14898238e-02 +3.98280956e-02 -1.51309352e-02 -1.32149467e-02 -4.74178568e-02 +5.63772209e-02 -7.05972090e-02 +2.28177309e-02 -6.43485859e-02 -3.94313708e-02 +3.52501273e-02 +8.73472989e-02 -1.05631851e-04 +1.44025767e-02 +5.21658957e-02 +1.27993068e-02 +4.07715887e-02 +3.95155475e-02 -7.78024644e-03 -8.55628997e-02 +1.53682139e-02 +5.10806441e-02 -1.36498762e-02 -4.24816199e-02 +3.05304155e-02 -5.26303202e-02 +4.43608221e-03 -4.93603423e-02 +9.24627408e-02 -1.11926302e-01 +1.12228401e-01 +7.54039921e-03 +3.73219214e-02 +5.26336357e-02 +1.14564568e-01 -8.67918786e-03 -3.39076109e-02 -1.12610534e-01 +1.47698298e-02 +1.66376736e-02 +3.77885513e-02 -7.86030665e-02 -6.75635785e-02 -4.41939458e-02 -1.06283322e-01 -8.79630521e-02 +6.16659857e-02 -2.24481225e-02 -4.21537608e-02 -6.52538985e-02 -9.34007913e-02 -4.75475043e-02 -1.04777351e-01 +5.67821302e-02 -7.46602789e-02 -1.03808500e-01 +1.00573815e-01 +2.34058686e-02 +2.85790185e-03 +1.10064812e-01 +9.91202891e-02 -5.45652136e-02 +9.57446545e-03 -6.70019984e-02 -7.55101293e-02 +1.46560650e-02 +1.68824382e-02 +3.70583124e-02 -6.89698830e-02 -5.89101240e-02 -3.19445357e-02 -7.90309161e-02 -1.12517089e-01 +2.27961279e-02 -1.09823897e-01 +1.04512841e-01 -7.06786439e-02 -5.68236597e-02 +1.00248577e-02 -6.49624839e-02 -8.20037499e-02 +2.42145616e-03 -1.17158748e-01 +4.42638062e-02 +3.61530744e-02 +7.16787055e-02 -1.75413545e-02 +1.36501398e-02 +1.16641127e-01 -3.64688821e-02 -3.39784734e-02 -9.98982489e-02 +2.29057800e-02 +1.00230753e-01 +7.90053234e-02 +1.04589052e-01 -9.55158621e-02 +2.59293914e-02 +4.03819196e-02 +1.13897614e-01 -2.70286817e-02 +5.14373519e-02 -6.73950911e-02 -9.95483901e-03 -4.71573956e-02 +6.36423007e-02 +4.63272743e-02 +1.10312656e-01 -6.05566241e-02 -4.69315425e-02 +8.47183913e-02 -1.13023892e-01 -6.30947128e-02 +6.93447739e-02 +9.04379711e-02 +9.79595706e-02 +2.75427513e-02 -3.86523618e-03 -9.90304202e-02 -2.44114306e-02 -1.36693092e-02 -7.38876453e-03 -1.06581122e-01 +1.11797959e-01 +8.61675367e-02 -6.79301471e-02 -2.98152287e-02 +1.12395205e-01 -8.29969719e-02 -3.24705839e-02 +2.85180379e-02 +2.69530788e-02 -5.86395785e-02 -7.31213540e-02 +1.18068971e-01 -1.08925253e-01 +1.81044377e-02 -5.45016378e-02 +1.13905542e-01 +7.40197301e-02 +7.92390108e-02 -6.96407631e-02 +4.24353555e-02 +6.29631290e-03 -1.02727994e-01 +6.56103045e-02 +8.28879029e-02 +8.34248215e-02 -3.09060924e-02 +3.40721719e-02 +4.35321330e-04 +1.69938263e-02 -7.82275647e-02 -2.58578938e-02 -1.05299801e-01 -1.18276328e-01 -8.17033798e-02 +8.27060416e-02 -2.22201310e-02 +5.65606356e-02 +2.76952256e-02 +1.08565263e-01 +8.92963782e-02 -9.68820974e-02 +4.32037301e-02 +4.41344604e-02 +1.07050367e-01 -8.61375481e-02 -8.81094113e-03 -5.41150793e-02 -8.01293030e-02 -3.59758437e-02 +3.51269990e-02 -8.17210376e-02 +1.09728217e-01 +1.01040257e-02 +9.79071259e-02 +1.61207076e-02 -9.84762013e-02 +4.02112715e-02 +2.87724212e-02 -1.00803994e-01 +5.88625073e-02 -3.79862078e-02 -1.06448203e-01 -2.76764692e-03 +9.75823551e-02 -9.18508396e-02 -1.02246217e-01 +4.64085639e-02 +1.15387574e-01 +2.89243553e-02 -5.62964454e-02 +1.08900324e-01 +3.94241251e-02 +7.73836672e-02 +1.09537043e-01 -1.01510108e-01 -1.44531839e-02 -2.41142319e-04 -4.66081090e-02 +8.57603922e-02 -7.92519972e-02 +2.59499699e-02 +9.38358065e-03 +1.89850852e-02 +2.67275125e-02 +5.25999926e-02 -8.24378878e-02 -6.50057122e-02 +2.87112277e-02 +8.49259719e-02 -9.74192768e-02 -9.02150273e-02 -4.69778739e-02 +2.49225982e-02 +5.76118156e-02 -8.44044536e-02 -5.61025590e-02 -8.68615732e-02 +4.31240648e-02 -1.08044848e-01 -7.29611591e-02 +5.44451224e-03 +9.26002711e-02 +9.72489715e-02 -4.11688834e-02 -4.76433374e-02 +1.14935338e-01 -3.98584791e-02 -2.77841724e-02 -8.87843221e-02 -8.39703307e-02 -1.13470651e-01 -7.39383548e-02 -1.42144389e-03 +1.04779536e-02 -7.42285699e-02 -8.64718333e-02 -8.88941884e-02 -5.33209927e-02 +1.10697992e-01 +6.66125640e-02 +4.56487685e-02 +8.59484076e-02 +3.75441685e-02 +8.83309394e-02 +8.17282405e-03 +3.69394235e-02 +5.88775910e-02 +5.19460626e-02 +1.48222726e-02 -4.01776321e-02 +8.13848078e-02 +5.16779609e-02 +6.02500439e-02 -9.19419527e-02 -3.36250477e-02 -9.24744979e-02 +7.49726407e-03 -4.44572382e-02 -4.52371426e-02 +1.06560074e-01 -1.02845177e-01 -1.07201435e-01 -9.61181670e-02 -8.41209367e-02 +5.67439906e-02 +6.55595288e-02 -2.02683937e-02 -2.34451834e-02 +4.88343462e-02 +1.87042877e-02 -1.05575472e-01 +2.33841520e-02 +4.31988090e-02 +5.74977957e-02 -9.13524851e-02 -6.63960576e-02 -1.01293273e-01 +7.18305260e-02 +3.88660431e-02 +7.59703517e-02 -1.73033644e-02 -1.35178380e-02 +4.34698425e-02 +7.16662556e-02 +4.95227017e-02 -8.07676290e-04 -8.16102847e-02 -1.04075827e-01 -3.63842137e-02 -2.86006778e-02 -7.67817646e-02 -4.24485989e-02 +1.17966786e-01 +1.16034448e-01 +1.08194761e-02 +3.15550677e-02 +5.06488793e-02 +9.61667486e-03 +1.26988050e-02 -8.21935013e-02 -9.54591632e-02 +4.80150208e-02 +1.39525970e-02 -1.11098802e-02 +1.10898927e-01 -7.30660558e-02 -1.62748469e-03 -1.66251361e-02 +8.52873176e-02 -1.77320614e-02 +4.30520251e-02 +9.19418782e-02 -7.38722235e-02 -4.46222519e-04 +9.93237793e-02 +2.50535253e-02 +1.16250534e-02 -5.78166768e-02 +1.01341836e-01 +4.03638594e-02 -1.02207437e-01 +3.22018377e-02 -5.93005866e-02 -3.66464444e-02 +9.11428705e-02 -9.63540971e-02 -3.59197445e-02 -1.00085638e-01 -1.80325489e-02 +2.87753250e-02 -4.34313761e-03 -1.08776905e-01 +1.19239122e-01 -1.08171344e-01 -5.17946072e-02 +7.11106509e-02 -4.79111187e-02 +9.76135023e-03 +8.57460052e-02 -6.59944043e-02 +1.00634955e-02 +9.86046866e-02 -9.04883668e-02 -9.52043384e-02 -1.01846680e-02 +1.01143211e-01 +8.35319012e-02 +6.63141161e-02 -4.91891475e-03 -1.81903094e-02 +1.10379167e-01 +1.01741582e-01 -6.22159429e-02 -6.02610260e-02 +9.16842297e-02 +1.90212752e-03 +3.02793887e-02 -6.30395040e-02 +3.07367127e-02 -9.95530114e-02 +5.56545556e-02 -3.99749912e-02 +1.19070210e-01 -2.23491155e-02 -5.68660684e-02 +5.89196160e-02 -4.43981811e-02 +8.72075930e-02 -2.21069058e-04 -4.22364287e-02 +6.88447133e-02 -6.67374954e-02 +4.81136329e-02 -1.02389619e-01 -9.95991156e-02 -4.67169136e-02 +1.10778473e-01 +8.90609156e-03 -6.86150491e-02 +1.06989473e-01 +1.06457934e-01 -8.70725513e-02 -1.03354342e-02 +6.72363862e-02 +5.65762892e-02 +1.10194817e-01 -1.13946408e-01 -1.16332255e-01 -1.78050119e-02 +5.23464754e-02 +4.52808626e-02 -1.15487784e-01 -4.84527647e-02 +6.89157099e-02 +1.04855075e-01 -2.02488881e-02 -2.86664981e-02 +3.82363684e-02 -6.96758702e-02 +3.14270146e-02 -1.04494132e-01 -5.27182631e-02 -2.55010091e-02 -3.20656598e-02 +2.76374747e-03 -5.82343377e-02 +2.69654598e-02 +7.29448646e-02 -5.94324060e-02 -7.38305375e-02 +1.04321547e-01 -5.83864339e-02 +1.32099940e-02 +4.66614962e-02 -1.11775182e-01 +1.17675148e-01 -7.01858178e-02 -2.83170994e-02 -8.89721140e-03 -1.14195973e-01 -8.33382271e-03 +9.32135731e-02 -6.54666945e-02 +2.14472562e-02 -9.61390510e-02 +1.51816839e-02 +8.04956406e-02 -3.34899649e-02 -8.44471455e-02 -4.85128611e-02 +9.56738219e-02 +6.93990942e-03 -2.42663436e-02 +3.98869552e-02 +6.92141429e-02 -5.79595231e-02 -1.01063199e-01 -7.22945780e-02 -4.20542993e-02 -6.79894760e-02 -9.30045694e-02 +1.13519177e-01 +3.85099910e-02 -2.82221194e-02 +2.71298457e-02 +9.09093395e-02 -9.82156098e-02 -1.06253535e-01 +9.63804349e-02 +3.66631374e-02 +1.02836780e-01 +6.80024624e-02 -6.73170462e-02 +4.27135080e-02 +1.43948635e-02 +8.54550600e-02 -4.36772220e-02 +4.44108881e-02 -1.87559891e-02 -2.08233856e-03 +3.24285440e-02 +3.74907330e-02 +8.08633491e-02 +6.32115379e-02 +7.33384192e-02 -2.34823693e-02 -1.10560738e-01 +7.49623626e-02 +4.91937995e-02 +2.22956128e-02 +6.26574978e-02 +9.16820094e-02 +3.48005593e-02 -5.85556142e-02 -7.41344877e-03 +1.93691589e-02 -7.35686123e-02 -1.86411720e-02 -3.83015089e-02 -1.04082048e-01 -1.45924231e-03 +6.10424019e-02 +9.31388959e-02 -7.75530189e-02 +1.06425755e-01 +5.98707236e-02 -8.04953277e-02 -2.21034475e-02 +8.03358629e-02 +7.64398277e-02 -6.72080368e-02 -7.06019551e-02 -1.16450228e-01 -7.80558505e-04 -1.01633340e-01 +5.00533730e-02 -1.73202939e-02 -8.18366334e-02 -3.95601615e-02 -7.29620159e-02 -7.17668235e-03 +1.02196172e-01 -4.54247333e-02 -1.07140392e-01 +4.58444357e-02 -1.08173877e-01 +4.19339314e-02 +1.54469553e-02 +8.81040767e-02 -7.34906942e-02 -6.22956827e-02 +8.96541774e-02 +4.36472222e-02 +9.42961201e-02 +5.45561723e-02 +3.81458402e-02 -6.42307103e-02 +3.29346806e-02 -3.69402650e-03 +6.57967478e-02 +8.11472908e-02 +7.01155961e-02 -5.53888865e-02 +9.59884077e-02 +4.00197916e-02 -7.24255368e-02 -4.08696830e-02 -6.89491406e-02 +2.73315031e-02 -3.76651511e-02 -1.80596374e-02 +5.30135818e-02 +5.42426705e-02 -1.03459153e-02 -5.22200167e-02 +6.61325678e-02 -9.45346355e-02 +5.22871725e-02 -6.47013336e-02 +1.14442505e-01 +2.10032682e-03 -9.28003043e-02 +3.51392925e-02 -7.22228959e-02 +9.87093598e-02 +7.29307011e-02 +8.87194648e-02 +1.15391620e-01 -5.82923293e-02 +1.14775471e-01 -3.91002074e-02 -1.32091045e-02 -9.85727906e-02 -7.11360723e-02 -5.03102392e-02 +5.25944270e-02 -6.95888475e-02 +9.72796381e-02 -1.18321128e-01 +7.62525722e-02 +3.60036045e-02 -2.16381419e-02 -7.22125024e-02 +9.49800760e-02 -5.68352714e-02 -9.66847092e-02 +2.80849505e-02 -3.26581523e-02 +8.60970542e-02 -8.70468840e-02 -4.54360619e-02 +9.00576934e-02 -4.92076837e-02 +9.45663005e-02 -1.00817770e-01 +7.51910906e-04 -3.12655382e-02 -1.16029933e-01 -8.29890445e-02 +8.69787112e-02 -7.51168048e-03 +8.83959159e-02 -2.63674166e-02 -4.07100730e-02 +1.35057908e-03 -1.13652043e-01 -7.41510913e-02 -8.61490220e-02 -1.49825457e-02 -3.39388624e-02 +1.08030833e-01 -7.61263072e-02 -3.12784612e-02 +5.67720830e-03 -1.06995925e-01 +5.10705672e-02 -9.74124819e-02 +3.58619168e-02 -8.69512409e-02 -7.18224794e-02 +1.91675592e-02 +8.41888338e-02 -4.19890955e-02 -3.70988734e-02 +2.52885558e-02 +1.17010474e-01 -9.28819403e-02 -5.49015217e-03 +3.45174298e-02 +3.04447133e-02 -1.14169046e-01 +8.77341032e-02 +4.81505170e-02 -6.15752526e-02 +9.64637175e-02 -6.41404139e-03 -4.77730632e-02 -1.14803262e-01 +4.47096042e-02 +1.35140028e-02 +2.31164750e-02 +6.38989210e-02 -6.12089187e-02 +1.74501110e-02 -5.21693453e-02 +8.53193924e-02 -1.16409875e-01 -3.35933976e-02 +1.17686234e-01 -7.61092305e-02 +3.26602273e-02 +1.74264293e-02 +9.04249921e-02 +1.17851958e-01 +1.09380431e-01 +6.36316836e-02 +9.30785835e-02 +8.44920278e-02 -7.71037042e-02 -8.85152146e-02 +5.59114888e-02 +8.10157061e-02 -8.43258128e-02 -5.27288429e-02 +7.41836131e-02 +8.52416642e-03 +1.00785993e-01 -6.13287948e-02 +8.53461921e-02 +1.14631439e-02 -9.65509042e-02 -3.06392051e-02 +4.16635498e-02 -1.14920951e-01 +1.13846943e-01 -2.46363431e-02 -7.62654766e-02 +3.36574875e-02 +1.43682230e-02 +9.60104093e-02 +8.46071169e-02 +6.95797130e-02 +2.81720739e-02 -2.14216692e-04 +9.80478302e-02 -9.45008099e-02 -1.00041076e-03 +2.42423415e-02 +9.21717379e-03 +3.37587558e-02 +1.04817949e-01 +9.60246623e-02 +9.78029668e-02 -1.05534539e-01 +1.74079444e-02 +1.08957492e-01 -8.02074093e-03 +7.26891160e-02 -7.57972710e-03 +8.66110399e-02 -6.04011863e-02 -9.31616053e-02 -1.44544858e-02 +6.84625208e-02 +5.30137904e-02 -2.92977486e-02 +1.56934913e-02 +8.09244066e-02 +7.54594617e-03 -4.07429296e-04 +1.14364997e-01 +5.24108894e-02 +7.38549754e-02 -4.61370274e-02 +1.08223058e-01 +1.09645315e-01 -3.57720070e-02 +2.62477081e-02 -1.05859220e-01 -3.19019556e-02 -1.88129339e-02 -9.41470414e-02 -5.06438985e-02 +2.15128995e-02 -1.32112261e-02 -4.06262390e-02 -6.51356131e-02 +3.66255865e-02 -2.84234192e-02 -7.62626007e-02 -8.23647529e-02 -8.62303078e-02 +9.49288011e-02 -4.87807579e-02 -9.47764888e-02 -1.03682317e-02 -7.63151273e-02 +4.37168330e-02 +2.65495516e-02 -6.22810014e-02 +1.06237717e-01 -7.95930028e-02 -4.05420288e-02 -2.32419148e-02 +2.89635938e-02 -9.32963789e-02 -4.17962559e-02 -7.15662353e-03 -4.82513849e-03 -1.04718737e-01 +6.19319594e-03 -3.67184309e-03 +9.48626101e-02 +7.51103042e-03 -1.30032405e-01 -7.23999292e-02 +2.84676272e-02 +5.78231737e-02 +9.38024968e-02 -1.03967628e-02 -1.83680486e-02 +1.15774997e-01 -1.04075097e-01 +1.45700499e-02 -3.36525328e-02 -8.54177997e-02 +8.59965608e-02 -1.31769881e-01 -8.64299461e-02 -9.91036221e-02 +9.13616493e-02 +1.13585837e-01 +3.17231528e-02 -8.42494294e-02 +5.99404611e-02 +9.19764861e-02 +9.69572663e-02 +8.40731338e-02 +1.17574900e-01 +3.54010835e-02 +9.66744721e-02 +5.39271310e-02 -6.49146661e-02 +1.59656361e-03 -3.63949500e-02 +2.07112711e-02 -3.93802375e-02 -1.98991559e-02 -5.69554791e-02 -2.18075104e-02 +6.34031892e-02 -2.06633974e-02 -8.96416977e-02 +7.57168457e-02 +6.37330562e-02 +1.47228716e-02 +1.20503537e-01 +4.26522791e-02 -4.78045344e-02 -1.21399283e-01 +5.33600822e-02 -6.20386116e-02 -8.84009898e-02 +6.17832989e-02 +9.36337784e-02 -1.67046580e-02 +5.73022105e-02 +3.25703211e-02 -5.38189635e-02 +3.44475247e-02 +2.68807225e-02 +1.21146955e-01 -5.41410893e-02 +5.95181026e-02 +1.13991136e-03 -4.05546986e-02 -8.61980766e-02 +5.85022233e-02 +1.69516429e-02 -7.54046217e-02 -1.10695608e-01 +5.47328591e-03 -9.68819410e-02 +7.98241869e-02 +7.45960176e-02 +2.27181874e-02 +8.32235068e-02 -3.65040973e-02 +1.04118936e-01 -9.51217301e-03 -8.70888755e-02 -1.68162100e-02 -6.18646108e-03 +7.26998895e-02 -1.00755274e-01 -6.00536652e-02 +1.10185184e-02 +6.82419315e-02 -2.90467422e-02 +3.92018072e-02 +3.94726247e-02 +1.15831234e-01 -5.67535684e-02 -3.91546823e-02 +1.89957190e-02 -1.33702559e-02 -1.23609319e-01 -5.50149456e-02 -1.37506306e-01 +6.34473339e-02 -1.24138832e-01 +3.87934223e-02 +6.12211712e-02 +1.19557261e-01 -5.04531600e-02 +2.13308638e-04 -1.03576474e-01 -1.06419265e-01 -3.33904214e-02 -8.67620707e-02 -2.49276794e-02 +5.89219071e-02 -1.96561087e-02 -6.92984983e-02 -4.68761747e-04 -3.51633318e-02 -1.08372839e-02 +3.38189751e-02 +4.69021276e-02 -2.29423512e-02 -7.51327127e-02 +1.24522872e-01 -6.82394207e-02 +2.12102085e-02 -6.49853945e-02 +8.80279094e-02 +3.50777358e-02 -7.16490448e-02 +6.06421679e-02 +1.09075055e-01 -3.63552794e-02 -9.97549668e-02 +1.01183675e-01 -4.60442863e-02 -3.65166925e-02 -3.19938958e-02 -1.89215653e-02 +2.84850411e-02 +5.88990860e-02 -1.15230016e-01 -1.08487554e-01 +9.57850367e-02 +2.89135892e-02 -2.43079290e-02 +5.91594391e-02 -9.28719565e-02 -3.71326506e-02 +3.22937556e-02 -1.23919889e-01 +4.64899698e-03 -4.87971641e-02 -8.58609974e-02 -7.66344275e-03 -7.60110989e-02 -8.55487958e-02 +8.18536729e-02 -4.07802165e-02 -3.90918516e-02 +9.45574939e-02 +8.11673328e-02 +2.63847969e-02 +7.14347661e-02 -9.34450924e-02 -1.27975464e-01 -1.47230020e-02 +4.29333262e-02 -8.39563385e-02 -6.10102154e-02 -2.17361413e-02 -3.36335860e-02 +1.14690334e-01 -4.90948334e-02 +8.86332393e-02 -8.89606774e-02 -8.90501738e-02 +6.97197169e-02 +1.51845152e-02 -1.60061959e-02 -4.04511355e-02 +2.46148761e-02 -4.73916158e-02 +4.63751443e-02 -1.09149992e-01 -5.28711192e-02 -7.43660182e-02 -1.00154197e-02 +4.73338701e-02 -8.37503225e-02 +6.63529485e-02 -6.57289103e-02 +4.40209582e-02 -7.41675720e-02 +3.19522545e-02 -1.73020235e-03 +9.13726687e-02 -4.72197607e-02 -3.40584517e-02 +2.63208672e-02 +1.42838500e-04 -1.57478880e-02 +9.03143883e-02 +9.39428434e-03 -1.04718991e-01 -4.78619188e-02 -4.70041372e-02 +5.28668333e-03 -9.52449217e-02 -1.13082446e-01 -1.20608173e-01 +7.23157600e-02 -9.71597359e-02 -1.33399284e-02 +2.92456876e-02 -9.10859630e-02 -8.82141590e-02 -5.54386191e-02 +6.29790477e-04 +8.85504037e-02 +5.17008118e-02 -1.84279308e-02 +8.13701004e-02 +8.63970518e-02 +8.08596984e-02 +7.87722412e-03 +7.42128119e-02 +7.59858787e-02 +5.95127530e-02 +8.25144649e-02 -7.52160475e-02 -4.27926891e-02 -7.87293240e-02 -2.64371652e-02 +7.97166117e-03 +2.60610133e-02 +9.97117609e-02 -9.67253521e-02 -7.29082897e-02 +1.17595896e-01 +1.04667634e-01 -1.25008315e-01 +9.30922851e-02 +6.65228292e-02 +3.86018790e-02 +6.73468933e-02 -6.43629059e-02 -9.75989476e-02 -9.07890126e-02 +1.04348928e-01 -1.01432815e-01 -8.72228388e-03 -3.62903699e-02 -5.80294579e-02 +1.12558134e-01 +4.60233018e-02 -1.14755116e-01 -7.80350901e-03 -8.39553848e-02 -1.04305185e-01 -1.78419072e-02 -1.14009656e-01 -4.97955941e-02 +1.15538677e-02 -1.84628274e-02 +8.41819271e-02 +8.92731100e-02 -1.23475026e-02 +8.02656189e-02 +6.90560862e-02 +1.00008339e-01 -5.90037135e-03 +9.40313041e-02 +3.36876724e-06 -9.32134241e-02 -1.35028986e-02 +4.11474593e-02 -2.98208557e-02 -5.31275608e-02 -5.93125038e-02 +1.12067806e-02 +2.99106464e-02 +9.01013836e-02 +1.17264595e-02 -6.92829192e-02 -9.45965275e-02 +2.05679070e-02 +2.69239856e-04 +1.08623967e-01 -6.74241111e-02 +9.22794733e-03 -5.16472608e-02 +2.40912717e-02 +1.16617950e-02 +8.04286152e-02 +1.92909800e-02 -1.17011054e-03 -2.33404767e-02 -6.42113462e-02 +7.51009509e-02 -2.57889591e-02 -6.17618971e-02 +1.57041587e-02 -9.15904269e-02 -7.83750340e-02 +7.60050640e-02 +1.07907042e-01 +8.06246921e-02 +5.87966572e-03 -7.17834383e-02 +2.39700004e-02 -4.24791425e-02 +3.57593112e-02 +1.84834599e-02 -5.45285605e-02 +6.78929090e-02 -1.25242965e-02 -5.03384992e-02 -3.38739119e-02 +8.65604877e-02 -3.78005509e-03 -1.22807473e-01 +4.13648859e-02 -1.25487894e-01 +3.89087349e-02 +6.87666684e-02 -1.27613798e-01 +1.05739444e-01 +4.91643921e-02 +5.72896190e-02 -9.37973112e-02 -8.49968642e-02 +3.16044465e-02 -8.73832256e-02 +1.02203712e-01 +7.87836611e-02 -1.10375330e-01 -1.11160967e-02 -1.12545639e-01 +8.63370225e-02 -9.52166766e-02 -6.13001660e-02 +9.71955806e-03 -3.78209651e-02 +1.26215443e-01 -2.87261754e-02 -4.96792723e-04 +1.90468915e-02 -1.34687349e-02 -1.25766739e-01 -1.11001600e-02 -4.01256159e-02 -7.39674829e-03 +8.70754793e-02 -8.48404542e-02 -7.49634281e-02 +1.02792278e-01 +9.34462100e-02 +2.10473295e-02 -9.22657326e-02 -4.60170172e-02 -7.69219995e-02 +6.36487380e-02 +1.08004503e-01 +3.62198204e-02 +9.24452674e-03 -1.80185661e-02 +5.53094633e-02 -7.22113177e-02 -2.36627571e-02 +2.25125421e-02 -9.36763138e-02 -6.76386729e-02 -6.14094622e-02 +2.61226669e-02 +1.15235560e-01 -1.04890153e-01 -1.05187729e-01 +1.96344871e-02 -5.31140044e-02 +1.00453161e-01 +7.13958740e-02 -7.31133670e-02 -1.18668333e-01 +1.11036018e-01 -1.76647194e-02 -2.93951333e-02 +6.99564368e-02 -1.35720382e-02 +1.03981160e-01 -9.51943919e-02 -8.97301659e-02 +3.59642110e-03 -4.94292788e-02 -9.34433043e-02 +1.15283377e-01 +5.94910458e-02 +1.10588230e-01 -1.03589550e-01 -8.28818679e-02 -4.79278006e-02 -5.56216284e-04 -4.16372344e-02 -4.85037342e-02 +1.14044227e-01 +8.18042755e-02 -5.35447858e-02 +3.84655036e-02 -8.24365616e-02 +4.99142334e-02 +8.00900459e-02 -2.29253415e-02 +2.36269236e-02 -7.60683194e-02 -9.34976712e-02 +6.90827444e-02 +6.43254898e-04 -5.93543835e-02 +1.14203237e-01 -9.91356373e-02 -5.46856262e-02 +5.59662506e-02 -4.66190726e-02 +9.06747654e-02 -3.70846502e-02 +8.97886828e-02 -7.45909959e-02 +8.39675069e-02 +4.20907438e-02 +3.75587568e-02 -8.19501579e-02 -1.02266215e-01 -4.64879610e-02 -4.24567470e-03 -3.29500926e-03 +1.17467485e-01 +8.54624733e-02 -4.18591499e-02 +2.41041854e-02 +7.67904893e-02 -2.63541248e-02 -1.16415620e-01 +6.61666393e-02 -2.40696166e-02 -8.81752595e-02 +6.01531863e-02 +3.76476906e-02 -6.00408576e-02 +7.93328434e-02 +7.30470009e-03 +4.83444184e-02 -1.16865791e-01 +7.62305334e-02 -9.27983001e-02 -1.83340106e-02 -7.17411712e-02 -5.50226867e-02 +7.02659786e-02 -1.12866983e-01 -4.51528244e-02 +1.15241364e-01 +7.39134625e-02 -7.62334466e-02 -9.44178998e-02 +3.48193310e-02 +1.04612149e-01 -1.18146747e-01 +1.01966634e-01 -2.77988017e-02 -5.49678095e-02 -1.13652654e-01 +4.10575531e-02 +5.23293279e-02 -1.07235268e-01 +6.42570779e-02 -5.52512566e-03 +8.78759921e-02 -7.12805763e-02 +6.63407892e-02 +4.74636722e-03 +1.03260927e-01 +1.02200724e-01 +7.38582164e-02 -1.02991849e-01 +2.67229713e-02 +5.48669416e-03 -2.10004449e-02 -9.26139057e-02 -1.02474861e-01 -6.50530532e-02 +5.07269241e-02 +2.32918188e-02 +5.36240898e-02 -3.38111147e-02 -1.11151852e-01 -1.15215918e-03 +5.01274727e-02 +2.48569641e-02 -7.07885846e-02 +7.08473399e-02 -4.90916632e-02 -6.85894117e-02 +5.54381274e-02 -1.13257468e-01 +7.10873539e-03 -4.95165884e-02 +4.45278138e-02 +7.05795782e-03 -1.87148675e-02 -2.04247870e-02 +8.22852924e-02 -2.30329726e-02 -9.00268648e-03 -9.72477198e-02 -9.81630385e-02 -1.12800792e-01 -9.81202349e-02 +1.04856808e-02 -9.16590989e-02 +1.10381044e-01 -4.32256199e-02 -4.30601798e-02 +1.93388332e-02 -5.58106676e-02 +1.10051766e-01 -2.55268104e-02 -4.74910401e-02 -1.12170065e-02 +6.24447688e-02 -9.02990252e-02 +1.09722495e-01 +5.95618039e-02 +8.21557790e-02 +3.52672487e-02 -1.02671400e-01 +1.05402298e-01 +7.46455044e-02 -7.67888203e-02 +1.88017152e-02 -1.01388961e-01 +8.99570622e-03 -5.81186861e-02 -9.89783406e-02 -6.97914958e-02 -1.07922748e-01 +5.21072047e-03 -2.31052823e-02 -4.71194237e-02 +3.57204154e-02 +1.13797858e-01 +9.37596560e-02 +4.31565680e-02 +2.08378863e-02 -9.09737423e-02 +1.16229616e-01 +3.21294437e-03 -3.22363563e-02 -1.98987853e-02 +6.29366413e-02 -2.93161012e-02 +1.08435996e-01 -8.80876929e-02 -4.41433687e-04 +8.37927759e-02 -1.13839023e-01 +9.13398489e-02 +4.90208492e-02 +3.04936562e-02 -7.67187402e-02 -1.16498537e-01 -4.29690294e-02 +8.83384272e-02 -3.70557867e-02 +9.00335982e-02 -9.36504304e-02 -6.44706488e-02 -5.54872267e-02 +1.61362067e-02 -7.08099678e-02 -1.13611393e-01 -1.73421239e-03 +4.26687188e-02 +8.10791925e-02 +5.65872341e-02 +1.06163874e-01 -2.46867649e-02 -7.07349703e-02 -7.32356012e-02 +1.06053226e-01 +6.66670650e-02 -1.25285489e-02 +6.77507222e-02 -1.97678059e-02 -9.24129114e-02 -4.73646075e-02 +4.58369516e-02 +8.18634480e-02 