#Parameter# /vanilla-lstm-builder/_0 {400,21} 134401 ZERO_GRAD
-1.44143593e+00 +1.21317172e+00 +5.73095977e-01 +1.76919150e+00 -6.31869659e-02 +6.54557705e-01 +6.81778193e-01 +9.87152904e-02 -1.73226690e+00 +1.69281328e+00 -6.16372526e-02 +5.29176779e-02 +1.00107300e+00 +1.52271166e-01 +1.56890464e+00 +1.04312813e+00 +1.68403223e-01 +2.91157126e-01 +1.06433105e+00 +3.02955031e-01 +2.40396589e-01 -5.12144685e-01 -2.40783289e-01 +1.11320198e+00 -9.85843837e-02 +2.93773592e-01 +9.76694047e-01 +7.27208734e-01 +1.22157490e+00 -6.06948555e-01 -1.18809655e-01 +8.33170712e-01 -4.46875654e-02 -2.46380702e-01 +7.18410850e-01 +2.63980150e-01 -8.40839922e-01 +2.28129119e-01 +1.52092934e+00 +2.77846307e-01 +3.84420812e-01 +4.10468072e-01 +2.02728435e-01 -1.02629972e+00 +4.28903222e-01 +2.82494724e-01 -1.97281218e+00 +1.01186669e+00 +8.92759144e-01 +6.66788146e-02 -4.67562735e-01 -2.40911886e-01 +3.74659777e-01 -6.41599949e-03 -1.50416219e+00 -2.64629573e-01 +1.08165018e-01 -4.59179550e-01 +3.20392013e-01 +2.64260352e-01 +1.64483774e+00 -1.50956941e+00 +3.39123338e-01 -1.46362400e+00 -1.58077031e-01 +8.03347409e-01 +1.90721178e+00 -4.73688513e-01 +1.93223929e+00 +3.56501669e-01 +1.26283169e+00 -4.11528856e-01 +1.32849324e+00 -7.69996405e-01 -1.76739424e-01 -6.78970993e-01 +1.10993743e+00 +4.47079748e-01 -2.41225600e-01 -9.20283735e-01 -3.30383778e-01 +8.67336810e-01 +7.49184191e-01 +5.70471346e-01 -3.48403603e-01 +2.22251967e-01 -5.84433079e-01 +1.56984425e+00 +1.10761201e+00 +7.16242492e-01 +5.82403958e-01 +4.97034281e-01 +6.06516242e-01 -4.01731551e-01 +7.35774815e-01 +5.77327371e-01 +9.07783091e-01 -2.93672562e-01 +2.82457732e-02 -6.66739821e-01 -6.82800949e-01 -8.55424404e-01 -1.36443123e-01 -4.67944950e-01 -7.03554630e-01 -3.89160700e-02 -7.28253126e-01 -6.21653199e-01 -4.92413044e-01 -7.42483318e-01 +9.54380259e-03 +6.78470433e-02 -8.80326629e-01 -3.81191730e-01 -8.03088427e-01 -1.48921943e+00 -8.17612886e-01 -1.14272249e+00 +9.89911795e-01 -4.57212210e-01 -2.93608099e-01 -3.92815351e-01 -5.87349951e-01 -1.54954642e-01 -4.69429076e-01 -2.20148349e+00 -1.69391096e+00 -4.44523662e-01 -2.40951419e-01 +4.98688459e-01 -2.51089483e-01 -5.38855910e-01 +5.46310067e-01 -9.44246352e-01 -6.23261988e-01 -2.48025462e-01 -6.10724092e-01 -9.43929017e-01 -8.42809975e-01 -4.46189940e-01 -5.91876626e-01 -2.51282662e-01 +2.93297946e-01 -8.37766409e-01 -8.14770699e-01 +6.38759017e-01 -6.30711555e-01 -3.17650110e-01 -8.20688844e-01 -1.54222190e-01 -9.68940258e-01 -1.78061962e-01 -9.34297144e-01 -8.58171582e-02 -3.88957173e-01 -9.84372437e-01 -6.33288860e-01 -6.52623534e-01 +3.39031786e-01 +1.39335021e-02 +3.89327466e-01 -2.00452849e-01 +1.52218146e-02 -6.20970488e-01 +5.28806984e-01 -1.79965043e+00 -3.77536118e-01 +2.61251312e-02 +3.57530713e-01 -1.10122657e+00 -7.10820913e-01 +6.73517063e-02 -1.82537591e+00 -1.43353295e+00 -3.83096814e-01 -1.08142599e-01 -1.87026191e+00 -7.47773886e-01 -5.05974650e-01 -2.16381982e-01 +1.71862319e-02 -9.81981397e-01 -3.06621462e-01 -3.44775878e-02 -5.62678158e-01 +3.98141116e-01 +8.04152608e-01 -6.29204690e-01 +3.03113788e-01 -2.47754768e-01 +3.42114329e-01 +4.39231992e-01 -3.81975621e-01 -3.06769580e-01 -5.39230168e-01 +1.13106155e+00 -9.75024104e-01 -4.89679694e-01 -6.50535524e-02 +4.05621409e-01 -1.62511230e+00 +1.02977407e+00 +5.11926353e-01 +8.47810268e-01 -1.35781735e-01 +4.28998768e-01 +2.40954190e-01 +1.48458853e-01 -3.03027153e-01 +1.27091312e+00 +2.24769577e-01 +3.26130837e-01 +6.43240094e-01 -2.29239374e-01 +9.55864429e-01 +8.30256820e-01 -1.47070602e-01 -3.37863564e-01 +7.59129643e-01 -1.93914622e-02 -2.03497648e-01 -4.20626760e-01 -5.01552165e-01 +1.31148291e+00 -4.15830761e-01 -3.28595608e-01 +4.02171135e-01 +3.70274872e-01 +1.20752878e-01 -6.03267670e-01 -2.35406369e-01 -2.68712312e-01 -3.82168770e-01 -3.35036814e-01 +6.66866839e-01 +7.35434294e-01 -3.89567465e-01 -7.49139309e-01 +6.97041303e-02 -1.34537309e-01 -1.53974056e-01 -4.89221483e-01 +2.69192874e-01 -8.33694339e-01 +1.54821008e-01 +8.24986577e-01 -1.00646663e+00 +1.01928294e+00 +6.97286785e-01 -1.52634040e-01 -7.03718245e-01 -1.02810371e+00 -2.55531985e-02 +3.70793849e-01 +3.60123767e-03 -6.67590559e-01 +5.71037054e-01 -1.13250089e+00 +4.19824153e-01 +3.80350679e-01 +1.13837779e+00 -5.29306471e-01 +2.14658797e-01 -1.47026861e+00 +6.15446210e-01 +6.57401562e-01 +1.00128710e+00 -4.39193666e-01 +1.08394265e+00 -5.10636121e-02 +3.05668920e-01 -8.20130706e-01 +2.01832026e-01 -9.80733156e-01 -1.06334090e+00 -1.13387430e+00 +6.66979432e-01 +7.18627349e-02 -7.08049595e-01 -8.96152258e-01 -4.51691955e-01 +1.96175009e-01 +5.41822135e-01 +1.21953142e+00 +7.27439374e-02 -8.99691060e-02 +1.23151146e-01 +8.02727699e-01 +6.14793181e-01 +1.84118554e-01 +1.13061689e-01 +2.92820781e-01 +2.88206279e-01 -5.16720951e-01 +2.76397169e-01 +5.68844974e-01 +7.12205470e-01 -2.62837261e-01 -2.13761315e-01 -2.35701606e-01 -1.46798342e-01 +5.54109216e-01 +5.56851208e-01 +1.05987215e+00 -4.16991293e-01 -8.88006449e-01 +1.14031875e+00 +8.36538494e-01 -6.98527634e-01 +1.60222304e+00 +4.10206690e-02 -9.25514162e-01 +1.01183081e+00 +9.82206285e-01 -1.63737214e+00 +1.04335189e+00 +2.35112906e-01 +9.70686257e-01 -1.18311226e+00 +1.25474179e+00 +1.27915835e+00 -3.42311412e-01 +5.72982311e-01 -9.19722557e-01 +1.17220962e+00 -2.98287719e-01 -1.33567834e+00 +1.16359246e+00 +1.45169985e+00 +1.97115809e-01 -2.55809665e-01 +1.60515988e+00 -7.55160630e-01 -1.91258982e-01 -1.06801903e+00 +4.25480098e-01 +2.05820620e-01 -1.09528565e+00 +1.40442657e+00 -8.59361172e-01 -9.43008542e-01 -5.38239717e-01 -3.68613899e-02 +1.51388094e-01 +3.51951510e-01 -1.94946992e+00 -1.46098435e-01 +1.04392350e+00 -1.32279313e+00 +6.93149194e-02 +5.56164145e-01 -5.86799346e-02 -8.44470859e-01 -6.18758090e-02 -4.03211504e-01 -9.72915411e-01 +2.86183506e-01 -6.83408156e-02 -3.57672453e-01 +1.02687109e+00 +1.63387430e+00 +9.88558158e-02 +5.83294511e-01 +6.40490428e-02 +5.99394552e-02 -1.84178734e+00 -1.07195461e+00 -4.04211223e-01 -1.40381861e+00 +1.10284543e+00 -1.16994917e+00 -4.77730691e-01 +1.41099632e+00 +1.99751362e-01 +4.79060292e-01 +3.91171247e-01 +1.66282344e+00 -1.21353197e+00 +5.74664891e-01 +6.70901358e-01 +3.52784306e-01 -9.66855764e-01 -8.64168108e-01 -7.26158440e-01 +4.15954947e-01 -1.13045764e+00 -1.38865247e-01 +1.60357761e+00 -1.99348938e+00 -1.12291253e+00 +6.98507011e-01 +7.59792745e-01 -5.67493975e-01 +3.95106345e-01 -1.12400472e+00 +6.15350783e-01 -1.83357179e-01 +5.44317424e-01 -1.71478391e-01 -7.13855401e-02 +2.09726110e-01 +1.45137921e-01 +6.30577147e-01 -3.77911255e-02 -1.47418320e-01 -2.68276960e-01 +6.31137133e-01 +1.22006118e+00 +1.14809141e-01 -1.72414511e-01 +1.65586680e-01 +6.68844700e-01 +1.63620079e+00 -1.16208076e-01 +8.08281720e-01 -1.17004716e+00 -9.32998896e-01 +1.15495813e+00 -1.28851593e+00 -1.41820356e-01 +1.19737303e+00 +9.63338744e-03 +1.31913090e+00 +1.00869894e+00 +9.39075530e-01 +5.74178696e-01 +5.36608040e-01 +6.95008159e-01 -8.83338690e-01 +4.14478540e-01 +6.64449751e-01 -3.50152016e-01 -1.73909187e+00 +5.80399394e-01 +7.71123648e-01 +3.44181180e-01 -6.51214898e-01 +7.33777165e-01 -7.15454817e-01 -6.65059090e-02 +3.31645995e-01 -5.06872892e-01 +7.10900307e-01 +3.73570845e-02 +3.07350576e-01 +1.19758356e+00 +7.97549427e-01 +3.18674922e-01 +1.88471586e-01 -4.03240830e-01 +3.28164309e-01 -1.22435562e-01 -2.18074724e-01 -1.46166578e-01 -7.61350214e-01 +4.09669667e-01 -8.00766766e-01 +1.22873092e+00 -4.70121056e-01 +1.18537331e+00 -6.21654451e-01 -1.27101791e+00 -6.26485407e-01 +3.69282633e-01 -2.11529434e-01 +5.33301413e-01 +4.52544600e-01 +1.31118107e+00 -1.19019401e+00 +2.54491329e-01 +3.56352895e-01 +1.22031879e+00 +1.12023747e+00 +1.51787007e+00 +3.89802724e-01 -2.04902336e-01 -9.17110562e-01 -5.37672997e-01 +8.55931163e-01 +7.27131665e-01 -1.64391294e-01 +1.13269496e+00 +1.21010613e+00 -1.92421749e-01 +7.96514153e-01 -8.18954557e-02 +6.07782841e-01 -1.74843776e+00 +5.29497564e-01 -2.09526229e+00 +6.46141648e-01 -6.57123208e-01 +5.96873946e-02 -7.77782619e-01 +1.53512883e+00 +4.23914105e-01 +3.02434951e-01 +1.54844236e+00 +5.45731664e-01 +1.37782812e-01 -6.45010412e-01 +7.22655058e-01 +9.55481172e-01 +2.67880768e-01 -9.33579087e-01 +5.88878393e-01 -6.43869340e-01 -1.02043018e-01 -1.33691043e-01 -2.41147205e-01 -1.03614829e-01 -5.91894925e-01 +2.52910495e-01 +3.30748975e-01 -1.17411566e+00 +1.84908533e-03 -5.45457542e-01 +1.42638788e-01 -8.13661933e-01 +2.57302105e-01 +4.18736994e-01 -1.60609794e+00 -5.04040956e-01 +1.42944142e-01 -1.95570886e-01 -1.41873455e+00 -1.83502138e-01 -7.51266003e-01 -6.44209206e-01 -3.22950423e-01 -2.97637939e-01 +4.04674448e-02 -1.09986377e+00 -6.45051956e-01 -2.71524966e-01 +2.82792807e-01 -2.21861348e-01 +5.90268672e-01 +1.11869857e-01 +4.46904525e-02 +6.10953569e-01 -5.25136411e-01 -4.09832329e-01 +7.88713932e-01 -9.46299732e-01 -7.83200562e-01 +4.02554840e-01 -5.99463999e-01 -1.80631542e+00 +1.32238001e-01 -3.58581364e-01 +3.02955210e-01 -3.80252481e-01 -2.68146724e-01 +7.94687510e-01 +7.44247973e-01 -6.33546889e-01 -4.58980680e-01 +4.94605184e-01 +6.78677782e-02 -5.91963708e-01 -4.50137645e-01 +1.68837473e-01 +5.91650568e-02 -2.00731620e-01 -4.63324934e-01 -5.04076600e-01 +9.09675583e-02 -9.43181440e-02 +8.35472718e-02 -6.66666478e-02 -3.66253465e-01 -2.27669430e+00 -6.73402846e-01 +3.61954302e-01 -3.43317278e-02 -4.46789891e-01 -5.64706862e-01 -1.38285387e+00 +7.08640069e-02 +8.26787949e-01 -5.89533225e-02 -1.00284755e+00 +1.89538356e-02 +1.07464455e-01 -1.79405153e-01 +4.74520028e-02 -7.25646973e-01 -4.81203407e-01 -1.72535494e-01 -4.66987103e-01 -2.06397697e-02 -3.43823045e-01 -3.68346763e-03 -5.62728196e-02 +5.60800612e-01 -1.07093990e-01 +1.07783549e-01 -1.01321407e-01 -6.96194172e-02 -2.14760765e-01 -2.47319698e-01 +6.79144263e-01 -4.76823300e-01 -5.21430910e-01 -4.31579649e-01 -1.47823513e-01 +7.07601070e-01 -1.99280918e-01 -5.76397181e-01 -2.26748794e-01 +1.09223612e-01 +1.10438991e+00 -2.00409949e-01 +6.33671403e-01 -6.07369579e-02 -1.54982817e+00 +1.61774337e-01 -6.63368762e-01 -1.04388557e-01 +3.81369889e-01 -2.04739258e-01 +1.75523424e+00 +7.23754823e-01 +9.90901947e-01 +1.00764237e-01 -1.02747127e-01 +9.65206146e-01 -3.53057027e-01 -5.21342084e-02 -4.63950306e-01 -7.64585510e-02 -1.74051630e+00 -1.99063644e-01 -1.34552404e-01 +5.17165780e-01 -3.13898772e-01 -2.67513636e-02 +2.55818635e-01 +1.81669459e-01 -2.54083455e-01 -9.51938450e-01 +6.68579042e-01 +6.55832648e-01 +9.66939889e-03 -5.88973582e-01 -3.03522527e-01 +4.17817645e-02 -8.83121431e-01 -7.87999868e-01 +1.75136164e-01 -4.62836802e-01 -3.06642771e-01 -1.46482253e+00 +8.36442530e-01 +1.93951502e-01 -1.14383996e+00 +1.07402837e+00 +5.67951202e-01 +4.50992621e-02 -7.88544059e-01 -1.43705025e-01 -5.07086277e-01 +3.69095296e-01 +5.33888102e-01 +5.99764027e-02 +6.45888597e-02 +1.26465285e+00 -4.64322180e-01 +7.41750896e-02 +7.35938787e-01 +8.44603598e-01 +1.58804119e+00 +9.91338432e-01 -1.68864027e-01 -1.43304718e+00 -1.42198384e+00 -7.31814563e-01 -2.07965031e-01 +3.04152727e-01 +4.17961508e-01 +1.01380432e+00 +9.60960388e-01 +6.21991940e-02 +5.17403483e-01 -4.68370736e-01 +6.23223424e-01 -1.50958502e+00 +4.09466535e-01 -1.05630088e+00 +1.32034704e-01 -4.21655297e-01 -1.34187803e-01 -3.38189870e-01 +5.33438623e-01 +2.65716136e-01 -4.19741392e-01 +1.55868006e+00 +5.14806390e-01 -3.68516654e-01 +6.78598762e-01 -5.28231449e-02 -2.93608397e-01 -7.28489235e-02 +5.83566606e-01 +4.20253202e-02 -1.20220590e+00 -9.76199090e-01 -1.05146229e+00 -7.32194483e-01 -9.88621533e-01 +9.84432921e-02 -1.74793506e+00 +6.77168071e-01 -7.96478450e-01 +2.54926234e-01 +7.76322559e-02 -6.25951827e-01 -1.66876037e-02 -8.25691521e-01 -1.51804435e+00 -6.67283952e-01 +1.52009380e+00 -1.16726708e+00 -7.30932415e-01 +2.36143377e-02 -1.03009331e+00 +1.69737196e+00 -5.05934358e-01 +6.71735644e-01 -8.60461175e-01 +6.65598512e-01 -6.65667772e-01 +5.23544967e-01 +8.87067735e-01 +1.01379585e+00 -3.10559601e-01 -9.15502489e-01 -2.99152166e-01 +4.93344776e-02 -5.85859179e-01 +1.23732001e-01 -6.33104563e-01 +9.41137850e-01 -1.18505013e+00 +2.38516197e-01 +1.16144240e+00 -1.00066972e+00 +5.03543735e-01 -3.86272877e-01 -6.17704809e-01 +3.45661789e-01 -7.50138044e-01 -1.57506064e-01 +2.57190373e-02 -4.22544271e-01 -4.94367257e-02 -1.21145856e+00 +3.85079890e-01 -1.56576395e+00 +2.39576846e-01 -6.22450650e-01 +1.14922121e-01 +9.47984934e-01 -9.24358487e-01 -8.27884972e-01 +5.81544995e-01 -1.49681365e+00 -3.93801481e-01 -6.81972980e-01 +9.34224665e-01 +9.05357420e-01 +2.32922196e+00 +1.77620661e+00 -1.67957973e+00 +3.08791518e-01 +1.46276847e-01 +4.87544574e-02 -1.46185195e+00 +1.03876042e+00 -2.55412072e-01 -8.45105112e-01 -1.38739979e+00 +1.49472803e-01 +5.08803785e-01 -3.19239460e-02 -6.91338897e-01 +2.51308918e-01 +1.30242991e+00 +1.06941871e-01 -6.47113144e-01 -1.37025043e-01 +2.01601774e-01 +2.78348476e-01 +7.24656999e-01 -1.18267131e+00 +2.53891766e-01 -6.00225747e-01 +8.15939069e-01 +5.83691776e-01 -7.32595176e-02 -6.15398645e-01 -8.30284417e-01 -1.15405750e+00 -1.70672846e+00 -4.79249150e-01 -5.53950846e-01 -8.12941670e-01 -6.90277874e-01 -5.58746338e-01 -8.20726693e-01 -1.29074800e+00 -5.73217154e-01 -7.31776893e-01 -1.41848803e+00 -1.30954528e+00 +3.79430115e-01 -7.56413817e-01 +6.37278408e-02 -1.79001957e-01 +4.02921468e-01 -7.23260760e-01 -8.10319409e-02 -3.41100574e-01 -4.40729409e-01 -2.03011417e+00 -1.99312434e-01 +1.49887264e-01 -4.71773684e-01 +3.54705267e-02 -8.43546212e-01 +1.22471416e+00 -9.98048365e-01 -8.11765611e-01 -1.99223850e-02 -3.85347962e-01 -1.54436797e-01 -7.34647453e-01 -5.79807460e-01 -1.90063083e+00 -1.76933444e+00 -7.64085472e-01 -6.91603124e-01 +5.92713542e-02 -4.03936297e-01 +1.80578396e-01 -1.57619029e-01 -3.37648779e-01 -5.26409112e-02 -2.36984357e-01 -2.56994039e-01 -1.57170609e-01 -1.82542950e-01 -1.36339712e+00 +2.09115729e-01 +2.87551492e-01 -2.06302106e-01 -5.40955253e-02 -1.68357646e+00 -6.17788792e-01 -7.71374047e-01 -2.32580543e-01 -1.98157752e+00 -7.96277702e-01 +8.32587004e-01 -2.21225560e-01 -5.13050914e-01 +2.38786891e-01 +4.38688099e-01 +1.35485545e-01 +9.31557715e-02 -1.08565044e+00 -4.73892778e-01 -4.74341840e-01 -2.27719955e-02 +8.06018293e-01 -3.73335987e-01 -1.24094903e+00 -9.12468553e-01 -1.76676714e+00 -7.35167444e-01 -8.98396969e-01 -1.69506937e-01 -4.67978060e-01 -1.31923401e+00 +7.33248591e-02 +1.01220918e+00 -3.82868081e-01 -8.18411946e-01 -4.29355830e-01 -1.20647883e+00 -4.64456052e-01 -5.76908529e-01 -1.45322263e+00 -3.06902200e-01 -1.09610438e+00 +6.94702029e-01 +2.43171185e-01 -9.64071095e-01 +8.08319524e-02 -4.42275703e-01 +1.17632997e+00 +1.51364946e+00 +2.53176498e+00 +5.35487115e-01 +4.93605405e-01 +1.53737202e-01 +9.49862242e-01 +2.00848535e-01 +8.29478443e-01 +1.63341269e-01 +5.20439982e-01 +4.88408744e-01 -1.05557394e+00 +1.78915060e+00 +4.50327508e-02 -5.06923199e-01 -2.20558897e-01 +2.46176600e+00 +1.96174517e-01 +9.10960674e-01 -3.87155652e-01 +1.03948712e+00 +6.17630184e-01 +5.09994209e-01 +1.02670217e+00 +2.90574968e-01 +1.83268225e+00 +7.52782941e-01 +1.58449471e-01 +8.02910984e-01 +1.01680648e+00 +4.55104783e-02 +8.98429096e-01 +1.37587559e+00 -3.71106774e-01 -1.77887425e-01 +7.60555446e-01 +5.72285771e-01 -2.80737907e-01 +8.24558973e-01 -9.67943072e-02 -2.05822289e-01 +1.04680002e+00 +1.30999160e+00 +2.39365268e+00 +2.34055668e-02 +9.87991393e-02 +5.25757015e-01 +6.03303552e-01 +8.48038197e-01 +8.81164789e-01 +8.09074938e-01 +1.34931850e+00 +1.18993998e+00 +8.94933760e-01 +1.60337162e+00 -1.95500523e-01 +1.38747740e+00 +3.66041181e-03 +1.48397744e+00 -9.94977877e-02 -6.53483272e-01 -8.74588266e-02 +1.57172382e+00 +2.23437995e-01 +1.81495696e-01 +1.37713277e+00 +4.41546321e-01 +6.64413199e-02 +1.47411740e+00 +1.05794990e+00 +1.77500769e-01 +1.60218704e+00 +6.96924508e-01 +2.55139351e-01 -4.96214122e-01 +2.93170035e-01 +1.85937762e+00 +1.38808811e+00 +1.64240730e+00 +1.48611784e-01 -3.88622016e-01 -7.59970129e-01 +1.20642519e+00 -4.84574353e-03 -1.14323831e+00 +7.10465729e-01 +1.10872209e+00 +7.10161746e-01 +6.85915232e-01 +5.35425663e-01 -7.60993421e-01 -3.08567077e-01 +1.40333724e+00 +9.12163734e-01 +2.08415246e+00 +2.74644315e-01 +3.27272356e-01 +6.56682670e-01 -1.15505552e+00 +1.48188591e+00 +1.25012803e+00 +9.72531140e-01 -2.25019276e-01 -8.85872483e-01 +3.43237489e-01 -1.88350126e-01 -5.16309977e-01 -5.88078141e-01 +8.98624361e-01 +7.12941527e-01 +1.00661099e+00 -7.53847897e-01 +1.22868657e+00 -5.83685875e-01 -6.11031115e-01 -6.75146043e-01 +1.12685871e+00 -7.94858634e-01 +4.07868996e-02 -5.08651316e-01 +4.29477841e-01 -1.78428724e-01 -4.25604433e-01 +9.28731501e-01 -3.89064193e-01 -1.69511512e-01 +9.42520797e-01 +3.24335933e-01 -4.60933298e-01 +3.79765034e-02 -1.30670488e-01 +5.41041642e-02 +8.75998020e-01 -1.33355722e-01 -2.75794834e-01 -2.62557983e-01 +1.02507427e-01 +6.01783991e-02 +2.89240956e-01 -3.22543859e-01 -5.68177581e-01 +1.26245999e+00 +9.91420209e-01 +5.92438519e-01 +3.93886983e-01 +1.90746814e-01 +1.99540973e-01 +5.07887959e-01 +3.09516460e-01 +3.30479234e-01 +1.03016031e+00 -1.50766528e+00 -2.48084903e-01 +9.76474658e-02 +2.23161966e-01 -4.40982044e-01 +6.85878515e-01 -9.37717438e-01 -4.40948904e-01 -8.55948985e-01 -1.08142269e+00 -7.41466165e-01 -4.48306918e-01 -1.24856508e+00 -5.94782643e-03 -5.23157299e-01 -1.27419367e-01 +2.35381410e-01 -6.23918593e-01 -3.89339805e-01 +3.61158580e-01 +2.25316063e-01 -3.03808689e-01 +5.58551788e-01 -1.77511072e+00 -1.47682989e+00 +1.09619284e+00 +1.09636021e+00 -2.23781854e-01 -7.41173208e-01 -6.64376378e-01 +1.98051050e-01 -3.10186923e-01 +9.03418064e-02 -5.00151396e-01 -1.05955994e+00 -7.89838076e-01 -3.65593433e-01 +9.24715102e-02 +4.34638381e-01 -1.03202796e+00 -1.29864919e+00 -2.90773541e-01 +1.17322758e-01 +1.01825213e+00 +1.72964036e-01 -2.95297623e-01 +1.83950976e-01 -3.39935243e-01 +7.51636028e-01 -9.06784952e-01 +2.07309127e-01 +8.21583986e-01 +1.30375370e-01 +7.80990496e-02 +9.68182385e-01 -6.34741783e-01 +1.14875428e-01 +7.24537373e-01 +6.74481213e-01 -1.07614860e-01 -1.28599906e+00 -6.50653183e-01 +9.98115659e-01 -1.02341604e+00 +1.15105414e+00 +1.46357918e+00 +7.01330721e-01 -7.88356662e-01 -1.24554718e+00 -8.83847475e-01 +6.04280591e-01 +6.42569482e-01 -1.16570914e+00 +1.37388974e-01 -7.58526385e-01 +4.40403640e-01 -3.16972464e-01 +2.85839498e-01 +5.06057262e-01 +7.61580691e-02 -2.55166084e-01 +6.70186803e-02 +2.27673367e-01 +7.34773576e-01 +6.49212599e-01 -6.84703737e-02 +1.59009203e-01 -3.93187344e-01 +2.52187639e-01 +4.26126361e-01 -1.94470131e+00 +1.60395229e+00 +1.54798734e+00 -3.23551923e-01 +8.30613732e-01 +1.08823657e+00 +9.08990130e-02 +1.37000903e-01 -4.17786837e-01 -8.70543957e-01 -9.63095605e-01 +5.88190436e-01 +3.65591019e-01 -3.03871453e-01 +1.24525440e+00 -6.91257656e-01 -6.45042062e-01 +5.64626098e-01 +6.75244451e-01 +6.93798482e-01 -8.27184677e-01 +2.05026627e-01 -3.84653687e-01 -4.88243610e-01 +1.00563717e+00 +3.78711760e-01 +9.06294465e-01 -1.21721792e+00 -1.12298644e+00 -1.30369207e-02 +3.72227788e-01 +5.36833942e-01 -8.34508359e-01 -1.07078087e+00 -1.53517246e-01 -8.76443565e-01 -6.17038786e-01 +2.26716459e-01 +2.18264967e-01 +2.65716255e-01 +3.18691939e-01 +1.56190515e-01 -9.87902805e-02 +1.21162057e+00 -4.55310792e-01 +5.63608259e-02 -2.06729677e-02 +2.22423449e-01 +1.26001978e+00 +1.72374964e-01 -2.74789840e-01 -3.38052362e-01 +5.62852859e-01 +1.08385444e+00 +1.44855392e+00 -5.28455257e-01 -7.02219307e-02 +5.76264262e-01 +3.90150875e-01 +9.15483236e-01 -1.00135863e+00 -1.16259766e+00 -1.16762269e+00 -1.72401345e+00 -1.35690880e+00 -1.05612135e+00 -8.38879108e-01 -7.43972838e-01 -2.20696521e+00 -1.23624539e+00 +2.69774616e-01 -1.64392364e+00 +2.54216015e-01 +1.30394542e+00 -1.16205668e+00 -1.27038264e+00 -1.00814354e+00 -1.21820426e+00 -2.29972339e+00 -2.03295016e+00 -1.12585521e+00 +3.47579867e-01 +1.92262661e+00 -8.93268958e-02 -1.79392254e+00 +1.96568631e-02 -3.39502752e-01 +1.18156958e+00 +3.61209325e-02 -8.29939663e-01 -1.17437804e+00 -2.54555178e+00 +6.66343987e-01 +5.63053787e-02 -5.96607268e-01 -2.00975084e+00 -4.66873825e-01 -2.11220652e-01 -1.37855756e+00 -1.13459945e+00 -1.16827750e+00 -1.79804206e+00 +1.67909652e-01 +2.70259798e-01 -3.26535535e+00 -6.18641019e-01 -4.31751832e-02 -9.76147592e-01 +1.34812519e-01 -1.19954538e+00 -9.25682425e-01 +1.15765679e+00 +5.95817387e-01 -2.07185769e+00 -3.01950216e-01 -6.34931564e-01 -6.84495509e-01 -1.71025169e+00 -1.44785345e+00 -1.90232146e+00 -3.88020664e-01 -6.23983145e-01 +9.54694301e-03 -4.32725817e-01 -5.28303921e-01 +4.45334762e-01 -8.95246923e-01 -5.61832488e-01 -2.42292851e-01 -8.16576660e-01 -6.25067234e-01 +4.74598914e-01 -2.35914379e-01 -2.48132324e+00 +7.91987777e-01 -3.60553950e-01 -4.44890290e-01 +3.78880948e-01 -1.32962847e+00 -1.43540800e-01 +3.24315357e+00 +1.58455428e-02 -8.71019840e-01 -1.20375276e+00 -1.00187130e-01 -8.73501480e-01 -1.27531052e+00 -2.33277321e+00 -1.53028512e+00 -1.56654263e+00 -4.92597908e-01 -4.33401883e-01 -5.86084723e-01 +1.28701317e+00 -8.79491150e-01 +1.54145032e-01 +7.77507275e-02 +3.94862413e-01 -6.00577474e-01 -1.45314634e+00 +7.88039148e-01 +1.69204092e+00 +1.10011980e-01 +2.54994452e-01 +2.11886787e+00 +5.77769578e-01 +1.31115234e+00 -1.30380571e+00 +2.00608993e+00 +8.17629516e-01 +1.51169240e+00 +3.13702178e+00 -1.25343204e+00 -3.93114161e+00 +9.25366044e-01 +1.59201920e+00 +1.06107943e-01 +1.88322589e-01 -1.07472599e+00 +1.30654365e-01 +8.77384782e-01 -3.78279209e-01 -2.37655878e+00 +1.42942977e+00 +3.52024865e+00 +1.24860740e+00 +7.14155018e-01 +8.50559592e-01 +1.57475674e+00 +1.52065903e-01 -1.32993860e-02 +1.47929788e-01 -2.19236684e+00 -2.20462584e+00 +7.14701414e-02 +7.84701645e-01 -1.80751705e+00 -1.06658435e+00 +1.66553482e-01 -3.88396502e-01 +1.30401647e+00 -2.02455282e+00 +9.10172045e-01 +3.37859094e-01 -5.17723382e-01 +1.28046975e-01 -6.77814484e-01 +1.01164234e+00 +1.63374937e+00 +2.01094866e+00 +1.14693642e+00 +1.28091252e+00 +4.05559868e-01 +1.21924615e+00 +1.06923079e+00 -1.79927981e+00 +5.21153808e-01 +2.16015911e+00 -1.58911860e+00 -1.23784649e+00 -1.28763020e+00 -4.55125481e-01 -1.41027242e-01 +8.40514719e-01 +1.00661111e+00 +7.94940233e-01 +4.39762697e-02 -1.64606047e+00 +3.91055882e-01 +5.00020564e-01 +1.23932528e+00 +1.14845276e+00 -4.52874601e-01 -2.33552623e+00 -7.21286058e-01 +1.70208418e+00 -9.26434338e-01 +1.24426400e-02 -1.09034352e-01 +3.27853173e-01 -3.72731018e+00 +1.53383195e+00 -2.93128043e-01 -5.61919034e-01 +1.09069979e+00 -5.00212133e-01 +1.47531962e+00 -3.26160252e-01 +1.53553843e+00 -1.39595962e+00 -1.08501077e+00 +1.84972775e+00 +5.47938228e-01 -2.35104203e+00 -9.00438130e-01 +8.60429943e-01 +1.53926289e+00 +9.06827897e-02 +3.21810663e-01 +2.67650396e-01 -2.52408910e+00 +5.26514709e-01 -4.62557018e-01 -9.99064595e-02 +5.70318162e-01 +9.55833972e-01 -2.44518474e-01 -1.55691183e+00 +5.37514210e-01 +9.94382620e-01 +5.90969622e-01 +2.15267658e+00 -6.93353176e-01 +1.05701673e+00 -6.35324359e-01 +2.53771019e+00 +9.23425674e-01 +4.40756679e-01 -1.63142121e+00 +3.82303506e-01 +1.55715966e+00 +9.36547816e-01 -7.79627189e-02 -4.98351574e-01 +1.91865313e+00 +1.17701150e-01 -4.22787100e-01 +1.10446417e+00 -1.13367534e+00 -2.86761194e-01 -1.16087699e+00 -8.62115324e-01 -7.57159069e-02 +1.64418504e-01 +5.69976345e-02 +7.90040374e-01 -1.06181347e+00 -1.20130348e+00 +1.18637376e-01 -7.83356547e-01 +1.55982804e+00 -2.79999208e+00 +2.06229687e+00 -9.62001383e-01 -1.12421012e+00 +2.36233801e-01 +2.85134196e-01 +5.36937118e-01 -1.54340577e+00 -6.73164427e-01 +1.18756428e-01 +1.28538799e+00 +2.49125019e-01 +1.33559600e-01 -3.95662814e-01 -1.09988821e+00 +1.81671000e+00 +6.20326810e-02 -1.54212213e+00 -1.30405343e+00 -6.46654308e-01 +2.29215056e-01 -2.49899268e+00 +3.72594982e-01 +1.95680037e-01 +1.89009047e+00 -1.04165828e+00 -8.42640549e-02 +1.30143809e+00 -1.09401250e+00 +1.36132467e+00 +1.87397420e+00 -6.11714542e-01 -6.61152124e-01 +2.25234926e-01 +1.38812757e+00 -4.63594824e-01 +1.27557874e+00 +3.82839173e-01 +1.08626211e+00 +4.01306361e-01 +2.35867643e+00 -1.25959885e+00 -2.45860386e+00 +5.36834478e-01 -2.81495929e-01 +1.11389434e+00 -1.15999579e+00 +9.04566050e-01 -2.50296831e+00 -5.77384889e-01 +1.80284846e+00 -1.75415301e+00 -1.02532327e+00 -9.61046755e-01 -1.81017327e+00 -4.96152729e-01 +7.82166183e-01 -8.79809439e-01 -2.34275348e-02 +1.16809927e-01 -5.62875792e-02 +1.44319081e+00 -2.41401255e-01 +1.74878106e-01 +3.41636032e-01 +3.52157086e-01 -2.74342656e-01 +4.55684781e-01 +4.33662653e-01 +5.37313521e-02 -3.32420588e-01 -1.33513677e+00 +2.66197968e+00 +9.59845603e-01 +1.77410915e-01 +6.86337590e-01 -1.24590725e-01 +5.51690161e-01 -1.76399156e-01 -3.68367173e-02 +1.88318324e+00 +2.80096912e+00 +3.01814616e-01 +1.88866377e-01 -2.68946774e-02 +2.35167369e-02 -1.06264101e-02 +2.00242400e-01 -1.20414484e+00 -2.00025573e-01 +2.17758268e-01 +3.40802383e+00 -1.75149381e+00 -9.56231654e-01 +5.39526105e-01 -2.45644584e-01 -6.55631900e-01 -2.80621707e-01 -1.49625883e-01 -1.29327166e+00 -6.49306118e-01 -1.83231533e-01 +1.45852029e-01 +1.96706995e-01 -4.20437247e-01 +1.70402855e-01 +2.34787524e-01 +2.24195212e-01 -1.90887320e+00 -5.30086815e-01 -3.35223258e-01 -8.24972808e-01 +7.04737753e-02 +1.95566803e-01 +2.94898474e-03 +4.70485032e-01 +1.66229025e-01 -9.62903917e-01 +7.40101486e-02 +8.82607818e-01 -2.43308708e-01 -2.33352054e-02 -5.26921034e-01 +2.02592850e-01 -2.54222274e-01 +8.72443378e-01 -6.65223002e-01 +4.26554173e-01 +3.73421460e-01 +4.85905617e-01 -2.46440917e-01 +4.62994963e-01 +1.19911417e-01 -2.16196799e+00 +3.57630998e-02 -1.01732206e+00 -5.29219031e-01 +3.61603379e-01 -4.17232543e-01 -4.31887388e+00 -8.08622539e-01 +1.51148915e-01 -2.12072396e+00 +1.70209444e+00 -4.25330371e-01 +2.64550876e-02 +3.07925455e-02 +1.60972670e-01 -4.93073344e-01 -3.11163354e+00 +3.66405487e-01 -5.82860112e-01 -1.56228745e+00 -8.77023399e-01 -1.63941383e+00 +2.39619017e-01 -6.30616724e-01 +8.64977911e-02 -3.43838036e-01 -1.02428123e-01 +5.06233692e-01 -9.45691466e-02 +1.17849135e+00 +5.53053439e-01 +2.20277142e-02 -1.75347805e-01 +1.09994662e+00 +1.00878096e+00 +4.05797929e-01 +1.26757634e+00 +1.16610944e+00 +8.90800774e-01 -1.18711758e+00 +8.94128740e-01 -5.29614806e-01 +9.64546382e-01 +7.71633089e-01 +1.61208165e+00 +1.14881885e+00 +6.59804344e-01 -4.84580755e-01 +1.10898077e+00 -3.25814307e-01 +9.35444713e-01 -5.50782204e-01 -3.58619124e-01 +5.75495288e-02 -1.30753338e+00 -7.52679259e-02 +1.41102302e+00 +5.67412436e-01 -9.26592112e-01 -8.15787241e-02 +1.41746211e+00 -9.79524910e-01 +1.55299759e+00 +1.40669036e+00 +4.39040363e-01 +4.55637753e-01 -8.87283087e-01 +1.62226880e+00 +1.19100046e+00 +4.74299580e-01 -6.50342643e-01 -5.80821812e-01 -1.24740735e-01 +1.85599588e-02 -6.52129829e-01 +6.80473387e-01 +6.50675818e-02 +1.04637787e-01 -4.07323420e-01 +2.24525575e-02 -9.39231753e-01 -3.00862581e-01 +8.01631451e-01 -5.11742771e-01 +1.63127527e-01 +7.49570787e-01 +6.52500272e-01 +1.12176217e-01 -4.38115180e-01 -3.35316569e-01 -1.52248347e+00 +1.10718405e+00 +5.52894413e-01 -1.12985301e+00 -1.76331595e-01 -6.42762303e-01 -3.94374654e-02 +1.27597898e-01 -5.03616571e-01 -1.09636955e-01 +8.17587554e-01 +6.83073580e-01 -4.32748020e-01 +1.03358281e+00 +2.56216358e-02 +1.78237054e-02 +4.04221743e-01 +1.81872094e+00 -4.51556116e-01 +1.21019386e-01 +4.65068728e-01 -7.19779074e-01 -1.49016726e+00 +2.82736063e-01 -2.54148424e-01 +1.22374189e+00 -3.42071056e-01 -1.11699969e-01 +6.33229136e-01 +1.52198935e+00 +1.25313759e+00 +1.08613563e+00 +1.17722213e+00 -1.44333303e+00 +6.81511760e-01 -4.91021313e-02 +4.34997052e-01 -2.15706691e-01 -3.21363688e-01 -1.44163311e+00 -6.53543472e-01 -2.38073379e-01 +2.04351127e-01 -5.76944292e-01 -1.63846886e+00 -8.67471937e-03 -2.30868995e-01 -1.54325378e+00 -1.34135902e+00 -3.21886241e-01 -1.20711875e+00 +5.48735932e-02 -1.11090899e+00 -9.86838460e-01 +8.20436180e-01 -1.09684849e+00 -5.26370823e-01 +4.87594485e-01 -1.47143185e+00 -2.12050930e-01 -6.09312773e-01 -1.41287458e+00 -8.18819106e-01 -6.28134072e-01 -2.26303264e-01 +4.76756096e-01 -9.04829144e-01 +1.18415229e-01 -3.39124471e-01 -1.26336038e-01 +2.82639563e-01 -4.30062443e-01 -1.49429846e+00 -7.06000924e-01 +9.41693261e-02 -8.52774560e-01 -2.31344149e-01 -6.32641435e-01 -4.76579547e-01 -9.56748664e-01 -2.20971122e-01 -6.24530375e-01 +1.21585988e-01 -3.27812403e-01 +2.36164346e-01 +5.73867522e-02 -1.11560810e+00 -7.04314768e-01 -1.48863405e-01 -5.01607776e-01 -1.07249463e+00 -4.81775224e-01 -4.24472362e-01 +2.97869623e-01 -1.24079537e+00 -1.84512421e-01 -1.48081744e+00 +3.90154034e-01 -4.68065202e-01 -3.44803706e-02 -4.64895666e-01 +4.55423206e-01 -4.16455299e-01 +7.24621475e-01 +3.22736174e-01 -8.82214844e-01 +1.88358799e-01 -6.86397910e-01 -2.90106237e-01 -9.27589059e-01 +5.93923986e-01 -7.41785169e-01 +7.38377094e-01 -1.10661757e+00 +3.55919033e-01 -1.04669914e-01 -3.38375390e-01 -4.16090757e-01 -6.29037142e-01 +3.03344995e-01 -1.24047744e+00 -2.68233895e-01 -1.01058967e-01 -1.19056806e-01 +4.73831177e-01 -7.63128996e-01 -1.26646370e-01 -9.69769284e-02 -6.94825113e-01 -6.06946051e-01 -4.99446332e-01 -1.44732863e-01 +1.42494114e-02 -1.21528208e+00 +2.00031117e-01 -5.66503704e-01 +6.35450304e-01 +1.74242601e-01 -4.71387416e-01 +6.66873991e-01 +5.78268528e-01 -2.39369094e-01 -3.64584893e-01 +8.64232957e-01 +4.86028701e-01 -6.37606755e-02 +1.21222985e+00 +6.33040369e-01 +4.37341720e-01 -6.45417631e-01 -1.89330965e-01 -3.75914723e-01 +2.13754699e-01 -2.37070888e-01 +1.40638244e+00 +7.94136941e-01 +8.73957947e-02 -3.73682916e-01 +9.61221576e-01 -6.94295585e-01 -2.63174593e-01 -4.65471894e-01 -5.08336008e-01 -6.61211684e-02 -3.14632095e-02 -8.88529643e-02 +3.35538059e-01 +3.54756385e-01 -2.23698586e-01 -5.72706223e-01 +4.39471006e-01 -1.20620656e+00 +1.75139546e+00 +1.12825096e+00 +2.46460482e-01 +2.53790498e-01 +1.71011999e-01 +1.33423281e+00 +1.17340215e-01 -5.47644757e-02 -9.70421016e-01 -5.37598968e-01 +6.10765159e-01 -4.29024547e-02 -5.77365570e-02 +1.02669559e-01 -6.59182250e-01 -3.32919449e-01 -4.04555738e-01 -1.30568624e+00 -5.04471898e-01 -9.07835126e-01 -4.63859141e-01 -9.91621494e-01 -5.07140815e-01 +6.60412490e-01 +3.97181928e-01 -7.56860077e-01 -9.68967080e-01 -3.54038775e-01 -7.59157062e-01 +5.07347822e-01 +3.90285552e-01 -3.27503495e-02 +2.24947095e-01 -8.08273494e-01 +1.06552050e-01 -4.14350182e-01 -1.87173867e+00 -2.83773154e-01 +5.70161581e-01 -1.01814516e-01 +1.55244142e-01 -3.57278019e-01 +9.51792538e-01 -1.03521615e-01 +1.34817147e+00 -8.20470601e-03 -1.18071663e+00 +1.16302334e-01 +1.60388485e-01 +3.85517091e-01 -7.35139728e-01 +3.88248146e-01 -3.55576873e-01 +6.21767640e-01 -5.67957759e-01 -3.63352239e-01 +6.73602894e-02 +1.16435683e+00 +1.00241923e+00 +1.10779834e+00 +7.81079412e-01 -5.24327457e-01 -6.66597486e-01 -4.17968482e-02 -6.94534659e-01 +1.09239233e+00 -6.23498380e-01 -1.34368479e+00 -1.34184885e+00 -8.05745184e-01 +2.30709359e-01 +1.02779412e+00 +7.98760831e-01 +6.46911561e-01 +8.31687272e-01 +1.39462531e+00 +7.79252112e-01 -2.68939734e-01 +1.24315596e+00 +1.36633694e-01 -1.24810278e+00 +1.10752678e+00 +1.70125186e+00 -1.39442027e+00 +9.79370952e-01 +4.38576005e-02 -1.04923952e+00 +2.70613451e-02 -1.26055765e+00 -1.14211947e-01 -2.24462271e-01 -1.09442568e+00 -1.01713710e-01 -3.76010537e-01 -1.09948361e+00 +1.05193353e+00 -9.58128035e-01 +1.86062604e-01 +1.81641722e+00 +1.46530136e-01 -1.78480363e+00 +1.66619372e+00 -1.22169459e+00 +6.39994979e-01 +4.63632345e-01 +1.23858130e+00 +7.96694040e-01 +9.86803114e-01 +8.62490907e-02 -8.74236673e-02 +1.17087126e-01 +2.56572068e-01 +3.13342661e-01 +1.29730964e+00 -1.33331060e-01 +7.80565143e-01 +4.13366914e-01 -5.10472119e-01 +7.69890025e-02 +5.56428671e-01 -1.15465713e+00 -5.20096838e-01 -1.09760571e+00 -1.33525026e+00 -1.35609603e+00 -5.95970929e-01 -3.85682750e-03 +5.28907657e-01 +3.85855019e-01 +1.49109900e+00 +5.08685410e-01 -9.95153040e-02 -1.40749431e+00 +3.52905154e-01 -7.83880055e-02 +1.10780132e+00 +1.87306758e-02 +4.94712442e-01 +8.67080748e-01 -6.32134497e-01 -2.51564700e-02 +1.66207337e+00 +1.15938675e+00 -8.75972092e-01 +6.23346865e-01 -8.35069180e-01 +3.51493992e-02 +7.89357483e-01 -1.19965219e+00 +4.83591259e-01 +1.95677742e-01 +2.06427395e-01 -1.06060505e-01 -1.16332710e+00 +2.37252921e-01 -3.45276237e-01 -1.50692689e+00 +1.20337629e+00 +7.92341769e-01 -9.86774683e-01 +8.87807369e-01 +4.50731106e-02 -7.49360323e-01 +2.09519386e-01 -8.34562242e-01 -3.92907172e-01 +4.18010712e-01 -1.55588901e+00 -5.79337656e-01 -1.20682192e+00 -4.15476769e-01 +4.07359242e-01 -7.61442959e-01 -1.22819655e-01 -2.70780027e-01 -1.61311531e+00 +1.25663877e+00 +9.52176154e-01 +1.62267257e-02 -3.95559192e-01 -1.60121012e+00 -2.71186560e-01 -3.83307308e-01 -1.70183629e-01 -1.52450514e+00 -8.37220311e-01 -1.16658163e+00 -7.22843707e-01 -1.75037026e+00 +2.39931688e-01 -1.15465872e-01 -8.27609897e-01 -1.25604165e+00 +6.05059385e-01 -7.32031584e-01 -1.07670569e+00 +1.28747731e-01 +1.39062023e+00 -5.28907061e-01 -2.31057405e-01 -1.90981925e+00 -8.77409697e-01 -9.98780787e-01 +3.62641960e-02 +6.77791595e-01 -1.35830438e+00 +4.78351325e-01 -1.68994343e+00 -4.54983771e-01 +7.28912354e-02 -1.01151419e+00 -1.11798882e+00 -8.22723627e-01 +2.01037481e-01 -2.09822607e+00 -1.74114272e-01 -4.08214718e-01 +1.87649474e-01 -6.64889574e-01 -1.13078070e+00 +1.63644910e-01 -1.45930624e+00 +9.67068300e-02 +1.43928027e+00 -7.01086283e-01 +8.74968469e-01 -2.15575606e-01 -6.64614022e-01 -9.71323073e-01 -9.15784836e-01 -2.33671099e-01 +3.74039561e-01 +8.98957193e-01 +1.32448867e-01 -5.75112998e-01 +4.41515744e-01 +2.28021979e+00 +3.30345899e-01 -5.99689007e-01 -6.50433004e-01 -2.69178450e-01 -1.16647422e+00 -3.67225498e-01 -3.32354397e-01 +2.27529478e+00 +4.16179836e-01 -1.20034122e+00 +5.73282540e-01 -5.99482179e-01 -3.83552581e-01 -1.53689122e+00 -5.78051805e-01 -1.45873070e-01 -4.65901047e-01 +3.63264084e-01 -5.16264997e-02 -6.46741271e-01 -2.59981811e-01 -1.46620643e+00 -1.29874456e+00 -1.86859345e+00 +6.66163027e-01 +3.98648232e-01 +5.21921515e-01 +2.72990179e+00 -8.07907999e-01 -6.44749463e-01 +2.03592792e-01 -8.38747561e-01 -2.27021590e-01 -1.58200026e+00 -5.28708279e-01 -3.69523376e-01 -7.07498431e-01 +6.14347994e-01 +6.74775541e-02 +7.63061583e-01 +1.77335417e+00 -1.10298204e+00 -1.49506199e+00 +2.67372370e-01 -4.44451988e-01 -4.16613370e-01 +1.22856784e+00 -7.25123703e-01 -1.93468797e+00 -2.58692950e-02 +1.03616095e+00 -2.18666792e+00 -3.42698872e-01 -7.19384551e-01 +6.45156920e-01 +7.48312548e-02 -4.11547512e-01 -6.86309755e-01 +5.64525425e-02 -3.60520095e-01 +2.04118681e+00 +1.69633925e-01 +5.63793242e-01 +6.64024949e-02 +8.59671474e-01 +1.06896734e+00 -4.66498464e-01 -1.20865774e+00 -7.76030362e-01 +1.50199783e+00 -1.02515101e+00 -1.39411294e+00 +1.45143723e+00 +1.72714984e+00 -1.66968688e-01 -9.02511656e-01 +1.31271255e+00 +1.86330900e-01 +5.06096669e-02 -6.58404350e-01 +1.89277983e+00 -1.95055678e-01 +8.01867723e-01 +4.48766768e-01 -1.62990904e+00 -2.39748776e-01 +3.61375481e-01 -8.31200540e-01 -4.14566517e-01 +3.52104634e-01 -4.78356689e-01 +2.93332756e-01 -6.93328559e-01 -1.02725351e+00 -6.31557643e-01 +1.16927278e+00 +6.39777780e-01 +2.85215318e-01 +5.77479303e-01 +2.10172296e+00 +4.60166126e-01 -7.19446599e-01 -1.34997869e+00 +1.06342413e-01 +9.43752468e-01 +1.86974406e-01 -5.28221965e-01 -1.69496089e-01 +2.69590735e-01 -1.87999066e-02 -8.07776093e-01 -3.34649742e-01 -1.16483712e+00 -8.28543365e-01 -1.76430726e+00 -3.95587713e-01 +1.62582502e-01 -8.60929728e-01 -1.44850576e+00 -1.30337667e+00 +1.22281313e+00 -9.90402699e-01 -3.87655526e-01 -6.07074611e-02 +3.95252347e-01 -7.64249623e-01 +1.77424207e-01 +2.77484751e+00 -1.46475032e-01 +1.95265508e+00 -2.54155189e-01 -1.22876096e+00 -1.35230863e+00 -1.22612095e+00 +2.21178889e-01 +1.18545555e-01 -1.83583581e+00 +1.88109830e-01 -2.73755521e-01 +1.96705759e+00 +7.85277486e-01 +1.06073594e+00 -2.31438264e-01 -5.49891114e-01 -1.95459470e-01 -4.85188186e-01 -2.47217491e-01 +1.73623502e-01 -1.12443388e+00 -1.01279283e+00 +1.85525942e+00 -7.06242323e-01 +5.10386765e-01 -5.52246571e-01 +1.10842001e+00 +1.04548790e-01 +1.07215308e-01 -1.03895962e+00 -8.15506056e-02 -2.16404095e-01 +1.52117491e+00 +7.36523509e-01 +1.07253504e+00 -4.99082506e-01 +4.37324136e-01 +9.89743769e-01 -6.72739446e-01 +2.87720799e-01 -1.19557118e+00 -2.52593517e-01 -9.77685213e-01 -1.11858058e+00 -3.69456142e-01 -1.28665566e+00 -4.73286688e-01 -6.39737129e-01 +1.77142048e+00 -3.43580216e-01 -3.86709124e-01 -1.01307571e-01 +3.21535969e+00 +3.12169474e-02 +1.12105799e+00 -1.79956877e+00 -8.70492876e-01 +7.76293039e-01 +1.77423680e+00 +1.42513141e-01 -2.63921469e-01 +4.06970263e-01 -6.93830013e-01 -6.23805821e-01 -7.52873719e-01 -2.36970142e-01 -8.92396092e-01 +1.35083950e+00 +1.34130883e+00 -4.86618012e-01 -1.01516008e+00 +1.58823562e+00 +3.69411200e-01 +4.03895751e-02 -1.47870672e+00 -2.14545175e-01 -2.83515632e-01 -1.11644506e+00 +7.72374645e-02 -3.13627094e-01 +1.31829262e-01 -1.04844606e+00 +8.89486551e-01 -9.54382196e-02 -1.20107698e+00 -1.22300372e-01 -1.42127109e+00 +8.89129519e-01 -1.89361870e-01 +4.71375614e-01 -6.86811745e-01 -6.90327168e-01 +1.25380003e+00 -2.07899261e+00 -1.00760913e+00 -1.60908377e+00 -7.59427011e-01 -1.05614305e-01 -1.79859018e+00 +2.45738819e-01 -1.59057543e-01 -5.79251528e-01 +3.12437236e-01 +4.18624520e-01 -2.39850327e-01 -3.05406064e-01 +8.99857581e-01 +3.52280170e-01 +7.03989804e-01 +9.38537791e-02 +6.22727722e-02 +1.79240978e+00 -1.90935814e+00 -8.19685280e-01 -4.14727092e-01 +7.62629956e-02 +3.54761600e-01 +8.76249373e-01 -8.00042391e-01 +6.60949051e-01 -9.26056266e-01 -2.48312131e-01 -5.57987690e-01 -4.09730315e-01 +2.36733183e-01 -4.78379250e-01 -2.44618699e-01 +4.58986223e-01 +1.47473171e-01 -4.53598164e-02 -3.68837416e-01 -6.97135389e-01 +2.08484244e+00 +4.86656845e-01 +1.74558908e-01 +2.54695803e-01 +4.05738980e-01 +7.15887904e-01 +6.79627955e-01 +1.48138845e+00 +3.31732452e-01 +1.30319190e+00 -2.94065615e-03 -4.70949829e-01 +1.36219430e+00 -6.68591142e-01 -3.69042516e-01 -3.20703894e-01 -7.31927395e-01 -4.39159274e-01 +9.62826192e-01 +5.04118085e-01 +4.09867495e-01 +1.05071425e+00 -1.81608474e+00 +4.50294346e-01 +1.55639485e-01 +4.76023614e-01 +5.74850500e-01 -2.92018712e-01 -4.68667656e-01 -6.06634676e-01 -2.60500878e-01 +8.20160806e-01 -3.74946564e-01 +1.42807528e-01 -1.46734640e-01 -1.99910432e-01 +7.96505213e-01 -8.12680498e-02 +4.74111468e-01 -2.67121077e+00 -8.60088944e-01 -4.74615961e-01 +3.98854688e-02 -3.74640554e-01 -2.92977273e-01 -7.34888539e-02 +3.77812237e-01 +2.61137795e+00 -1.00677133e+00 +3.33424151e-01 +3.18078339e-01 -2.23799154e-01 -5.09928405e-01 -7.43431300e-02 -4.74815592e-02 +2.96387196e-01 +3.08403149e-02 +9.38437104e-01 -8.15333426e-01 +7.64984965e-01 +4.66181993e-01 +9.02639568e-01 -3.15386564e-01 -2.91350722e-01 -1.25366247e+00 +6.81968689e-01 +2.29418218e-01 +1.63259536e-01 -2.85985708e-01 +9.26009059e-01 +1.64639547e-01 -5.12881041e-01 +1.58021655e-02 +1.18227637e+00 +2.57342100e-01 +1.91445619e-01 +5.88679790e-01 +2.67496169e-01 -1.41734695e+00 -4.72560942e-01 -5.93237504e-02 -1.30440736e+00 -4.93500233e-01 +1.22572649e+00 -1.43308878e+00 -5.46839058e-01 +1.54195428e+00 +1.08223505e-01 +9.37514365e-01 +2.80050933e-01 +2.83211559e-01 +9.12685096e-01 -7.07329690e-01 +7.86413625e-02 +2.52004772e-01 +9.02955234e-01 +1.69336951e+00 +5.66494167e-01 -1.24275215e-01 +4.30159390e-01 +8.77461731e-01 +9.55390036e-01 +2.48474017e-01 +3.21601748e-01 +5.01834691e-01 +1.77241993e+00 +7.04786360e-01 +1.06945503e+00 +6.11896217e-01 -7.28520751e-01 +3.71131688e-01 +7.00173616e-01 +1.55344570e+00 +4.84118700e-01 -1.06598985e+00 -2.31920078e-01 -3.54068220e-01 -1.62181318e-01 +7.07548141e-01 +8.93127918e-01 -4.37113166e-01 +8.89117956e-01 +2.86019683e-01 +6.12736166e-01 +2.64816850e-01 +9.66129482e-01 -6.62339330e-01 +1.33312326e-02 +9.90247846e-01 -7.76809379e-02 +3.42848152e-01 +1.05401111e+00 -1.19346356e+00 +8.20348382e-01 +2.09510475e-01 -4.97317612e-01 -2.56983712e-02 +2.19557285e-01 -1.39089167e+00 -1.87101051e-01 +3.08515131e-01 +2.50392199e-01 +4.26289052e-01 +5.14416933e-01 +3.43518347e-01 +1.16559386e+00 +4.06425208e-01 +9.11728740e-02 +3.06655645e-01 -6.88922048e-01 +9.78005350e-01 +6.78872943e-01 -7.67804205e-01 -1.00204229e+00 +3.50593597e-01 +5.23363315e-02 +8.26190948e-01 +1.10721207e+00 -2.35656843e-01 -5.58042765e-01 -5.11576116e-01 +8.99682716e-02 -4.16608214e-01 +2.80266911e-01 -2.45706975e-01 -3.43077689e-01 +5.26330397e-02 -2.21367199e-02 -1.23757207e+00 +1.98847011e-01 -1.19929361e+00 -9.24362764e-02 -4.36611712e-01 -7.56974518e-01 +3.32674593e-01 -1.37015969e-01 -1.09753840e-01 -3.05996686e-01 -8.93708229e-01 -3.63899261e-01 -1.94679722e-02 -1.15208375e+00 -6.49412692e-01 +1.23809099e-01 +2.86252975e-01 -1.02177286e+00 -6.07748032e-01 -3.23904872e-01 -1.17654788e+00 -1.00316679e+00 -1.80750951e-01 -2.33463004e-01 -9.61994566e-03 +1.08493614e+00 -1.33248359e-01 -4.52833921e-01 -1.52325833e+00 -3.41478944e-01 -1.02686274e+00 -1.68911576e+00 -9.52153683e-01 -5.17382801e-01 -1.55992314e-01 -1.63839936e-01 -9.89273250e-01 -6.47304475e-01 -2.51385868e-01 -5.29486835e-01 +8.68070871e-02 -7.28651043e-03 +6.21841550e-02 -5.68992734e-01 -6.50220811e-01 -5.13430238e-01 -8.07781756e-01 +2.10684657e-01 -1.69384360e-01 -3.42818618e-01 +2.10678041e-01 +9.94180679e-01 -3.99684757e-01 -5.93207061e-01 +4.04723324e-02 -3.62236649e-01 -7.99383402e-01 -7.77476072e-01 -5.45835614e-01 +3.15855831e-01 -2.24021122e-01 +2.76947141e-01 -9.64004278e-01 -4.86592859e-01 -7.61431083e-02 +3.94508988e-01 +6.94199622e-01 -5.41843891e-01 +3.03761005e-01 -1.27434587e+00 +7.12646723e-01 -2.49911115e-01 +1.27068937e-01 +3.31895351e-02 -8.54627073e-01 -8.61971736e-01 +5.56189239e-01 -6.79328620e-01 -1.06710768e+00 -1.28838271e-01 -2.22745568e-01 -6.97412312e-01 +1.59067586e-01 -1.11965692e+00 -1.56894282e-01 -2.17266399e-02 +1.77817103e-02 -3.31373096e-01 -5.75931370e-01 -6.06980383e-01 -7.57323623e-01 +1.85514703e-01 -3.21873158e-01 +3.36567909e-01 -4.10643756e-01 -2.04473153e-01 -1.02631617e+00 +6.61743730e-02 +1.80272874e-03 -9.66484547e-01 -8.32001150e-01 +1.38754594e+00 -5.91246128e-01 -5.81232250e-01 -7.76121914e-02 +1.16269588e+00 -1.78982496e-01 +3.58220965e-01 -1.83524221e-01 +4.39694136e-01 -1.57326829e+00 -5.93747437e-01 +3.53056043e-01 -1.17950928e+00 -1.13931052e-01 +5.55787496e-02 +2.90436238e-01 -8.32590163e-01 +1.56720889e+00 +1.96989521e-01 +6.08601630e-01 -6.95539936e-02 +4.32570547e-01 +4.15238321e-01 -2.30601624e-01 +3.74434948e-01 +2.69790828e-01 +1.22835886e+00 +2.42550111e+00 -9.02664810e-02 -1.05490077e+00 +3.93720329e-01 +4.25246835e-01 +1.62320748e-01 -1.02776520e-01 -1.72565296e-01 -5.80855459e-02 +8.07019532e-01 +7.89304316e-01 -1.01699956e-01 +6.43900692e-01 -1.75870240e+00 +8.12740326e-01 +1.00431919e+00 +2.13994551e+00 +1.26585409e-01 -1.15161741e+00 -5.81306696e-01 -1.05747676e+00 -3.12045902e-01 +6.10440560e-02 +8.61609638e-01 +1.69063956e-01 +2.96006948e-01 +2.24429473e-01 +1.45236373e-01 -2.06808329e-01 +1.18027963e-01 -9.35274422e-01 +1.49106875e-01 +1.24552631e+00 +7.14675188e-02 +5.91093183e-01 +1.12597978e+00 -4.90986794e-01 +8.90509963e-01 +5.76872118e-02 -9.70391572e-01 +3.30515504e-01 -3.10453743e-01 +7.61028826e-01 -1.05496526e+00 -1.20331846e-01 -3.08968723e-01 -1.23882256e-01 +4.18846697e-01 +2.56912559e-01 +1.54590285e+00 -1.20320946e-01 -9.82533470e-02 +4.04817879e-01 -1.09827793e+00 +1.25280368e+00 +6.49625957e-01 +1.40195087e-01 -8.65779996e-01 +5.64872436e-02 -5.11872768e-02 +1.83511078e-01 +1.50722587e+00 -6.56355977e-01 -1.22386396e+00 -3.86881121e-02 +4.07368958e-01 +1.29036009e-01 -7.86386490e-01 -2.27516387e-02 +6.29603744e-01 -7.84353852e-01 +2.13803783e-01 +7.40813196e-01 +1.00745595e+00 +5.27598917e-01 +5.85474610e-01 -4.61777985e-01 -1.13564169e+00 -8.20052147e-01 +3.30653220e-01 -3.11144322e-01 -4.00815941e-02 +5.51849082e-02 -1.19878471e-01 +7.55195260e-01 +1.60868093e-01 -7.88154453e-03 +1.44351804e+00 -5.71497619e-01 -1.16752185e-01 +1.39948153e+00 +1.41376376e+00 -1.45170271e+00 -4.06291008e-01 +8.47447336e-01 -1.29248333e+00 +3.86226892e-01 +2.96795845e-01 -5.97573400e-01 -1.49728751e+00 +1.60028064e+00 +1.05466878e+00 -3.18136960e-01 +9.73799884e-01 +1.56826830e+00 -3.23371142e-01 +5.93960047e-01 +1.04235709e+00 -3.15177947e-01 +2.29444623e+00 +1.36838770e+00 -7.13327289e-01 +5.86923718e-01 +1.44361317e-01 -1.45367897e+00 -1.23943901e+00 +1.70363247e+00 -1.08038020e+00 -1.82655856e-01 +9.92390886e-02 +1.37950271e-01 +6.92626759e-02 +1.16958308e+00 +2.37986565e-01 -6.20472431e-01 +1.47831392e+00 -6.87876165e-01 +1.64055884e+00 -4.17073846e-01 +1.05643022e+00 +1.79985717e-01 -6.78312957e-01 -1.61305428e+00 -5.03446698e-01 -1.24246681e+00 +1.67033267e+00 -2.49616504e-01 -7.09162831e-01 +5.42978980e-02 +4.83914831e-04 -1.14340675e+00 +5.86412430e-01 +5.26980519e-01 -6.14212096e-01 -1.91612616e-01 -2.30517611e-01 -6.24953568e-01 -1.40936911e+00 -5.43673217e-01 -1.63632154e+00 -9.22908008e-01 +3.17346245e-01 +8.05063546e-02 -3.72154921e-01 -7.12730289e-01 +1.77961600e+00 +7.56859720e-01 +9.63106513e-01 +4.85712409e-01 +1.47023165e+00 +1.34595335e+00 -9.76566494e-01 -6.38365448e-01 +4.66242045e-01 +2.65182883e-01 +4.05198663e-01 +4.54900384e-01 +1.30015925e-01 +4.27628636e-01 -7.09554255e-01 -1.44329727e+00 -1.17509496e+00 -6.61560893e-01 -3.96104932e-01 -1.26749206e+00 -6.36111677e-01 -1.11668849e+00 +2.62612879e-01 -1.26164043e+00 +5.45563623e-02 -4.00385678e-01 +5.94818033e-02 -9.33852434e-01 -3.03412318e-01 +1.21894801e+00 +7.44225144e-01 -9.69519854e-01 -8.96030366e-01 -2.27771387e-01 -9.31840301e-01 -1.86667979e-01 +7.62364388e-01 -7.94230223e-01 -1.16145837e+00 -7.54520178e-01 +3.97975892e-01 -8.27115476e-02 +4.00108099e-01 -4.22600985e-01 +2.66002357e-01 -2.36103922e-01 -1.04000020e+00 +1.02058940e-01 +5.28357103e-02 -1.12146103e+00 -5.05359650e-01 -8.40224087e-01 -6.20649695e-01 +5.62578812e-02 -1.47244191e+00 -7.50207722e-01 -2.91321009e-01 -1.61679459e+00 +2.89679527e-01 -1.57706153e+00 +3.47666144e-02 +4.07937504e-02 -2.92993098e-01 +1.24233055e+00 -4.12757725e-01 -1.60794008e+00 -1.81818438e+00 -5.48924148e-01 +5.52548409e-01 -1.75327361e-01 +5.35982668e-01 -5.17434895e-01 -9.19698179e-01 -4.59277809e-01 -1.04683295e-01 -1.00322056e+00 -5.37744224e-01 +3.40178385e-02 +2.31950283e-01 +2.24600732e-01 -1.89990580e-01 +1.26171485e-01 -2.56459594e-01 -7.92938054e-01 -1.42667449e+00 +3.34259003e-01 -8.13988090e-01 -7.22150728e-02 +9.66255367e-01 +3.94706249e-01 -1.57394922e+00 -1.48489940e+00 -1.08827913e+00 -5.01054227e-01 -1.38575464e-01 -9.35954973e-02 -1.13097215e+00 -1.12664533e+00 -3.04268509e-01 +1.07356977e+00 -8.01965475e-01 -1.02067220e+00 -6.46087408e-01 -4.84328449e-01 -5.20615578e-01 +1.03108414e-01 -3.35776746e-01 +2.05048442e-01 -2.14625508e-01 +5.92369974e-01 -1.55899847e+00 -4.45534319e-01 +3.33895415e-01 +4.63564366e-01 -1.14294934e+00 +9.77804422e-01 +2.16083598e+00 +5.75532854e-01 +7.71649301e-01 +1.18273385e-01 +1.30819404e+00 +3.06530416e-01 +8.46116006e-01 -2.57748008e-01 -6.61661267e-01 +5.73081613e-01 -7.20088661e-01 +1.40046299e+00 -6.66615307e-01 +8.15532088e-01 -4.78184782e-03 +1.76944029e+00 +8.28975365e-02 +1.73471823e-01 -3.13057214e-01 +9.15341020e-01 +6.42489076e-01 -1.42149103e+00 +2.03918934e-01 +8.82915914e-01 +2.06479049e+00 +5.69850564e-01 +6.68397844e-01 +5.35315216e-01 +9.55279112e-01 -2.92720646e-01 +7.97091842e-01 +5.76478601e-01 -1.03095961e+00 +3.50459576e-01 +9.56851542e-01 +8.41233909e-01 -4.53159183e-01 +6.61824703e-01 +1.51267171e-01 -5.64958274e-01 +3.67124707e-01 +1.04170823e+00 +2.39338160e+00 -7.09560513e-01 -1.47928178e-01 +1.02038240e+00 +2.31929332e-01 -1.11713171e+00 +1.04350746e+00 +6.71988368e-01 +7.92932034e-01 +8.32091570e-01 +6.81320906e-01 +1.44697165e+00 +1.67838231e-01 +5.26887655e-01 +9.39903632e-02 +1.14277387e+00 +6.54526591e-01 -5.38210273e-01 -1.43863142e-01 +1.50974154e+00 +3.92691016e-01 +2.75795907e-01 +1.46117854e+00 +7.69764304e-01 -2.49714702e-01 +1.24807155e+00 +1.50034285e+00 -5.42777658e-01 +8.02124858e-01 +1.19612122e+00 +7.24541664e-01 -9.30444226e-02 -4.15124208e-01 +1.45069134e+00 +1.37194967e+00 +1.65362585e+00 -7.53675044e-01 +3.15200575e-02 -1.06798136e+00 +1.04441309e+00 +2.89080262e-01 +5.96859038e-01 +4.12289202e-01 +7.87737429e-01 +1.24103963e+00 -3.22531193e-01 +2.53142506e-01 -9.09155786e-01 -1.22159743e+00 +1.39310300e+00 +7.90561318e-01 +2.18028879e+00 -9.79699373e-01 -2.10782096e-01 +1.16033101e+00 +8.26056659e-01 -5.54870963e-01 +4.54047173e-01 -1.04305223e-01 +1.65260583e-03 -2.86021024e-01 -2.87074625e-01 +1.14083511e-03 -8.47672045e-01 +1.95188999e-01 -2.15757057e-01 -1.34140098e+00 -2.70088613e-01 -8.94380629e-01 -5.02836764e-01 +1.44795820e-01 +3.98579627e-01 +8.49990666e-01 -7.58110583e-02 -6.95007667e-02 +1.29653126e-01 -7.93920398e-01 +2.65899263e-02 -2.72981822e-01 -8.16725433e-01 +1.32331550e-01 +2.54440010e-01 -5.82413711e-02 -9.98160522e-03 +2.58649558e-01 -6.82796597e-01 +8.02624404e-01 -5.72608590e-01 +3.02800238e-01 -9.95778963e-02 +1.45927489e-01 -1.05713236e+00 +2.53446102e-01 +3.49775553e-01 -3.90817791e-01 -5.07683456e-01 -4.87343132e-01 -8.11306059e-01 +2.40640894e-01 -2.50086002e-03 -8.55999514e-02 +4.16223556e-02 -5.15817642e-01 +1.94419414e-01 -3.25977981e-01 +6.57211363e-01 +7.60688007e-01 +2.32348487e-01 -2.67302424e-01 -6.54520929e-01 +4.44057137e-01 +2.21849009e-01 +7.25208893e-02 +1.04091287e+00 -3.23681056e-01 +6.53717160e-01 -2.41285577e-01 -8.16855192e-01 -7.61837721e-01 -1.24489583e-01 -8.65368068e-01 -2.60455996e-01 +1.98954940e-01 +3.59031141e-01 -1.15330982e+00 -9.73137558e-01 +6.37489021e-01 -1.07937026e+00 +2.60872632e-01 +4.14306000e-02 +1.12129486e+00 -4.63043928e-01 -3.71126354e-01 +5.70900142e-01 +1.12679935e+00 +8.04564178e-01 -7.04356790e-01 -2.84054905e-01 -1.43383205e+00 -4.44292367e-01 -8.21466327e-01 +8.71606112e-01 -1.18871615e-03 -4.57512558e-01 +4.17441875e-01 -1.86604172e-01 +3.01783890e-01 -7.56997108e-01 -5.25843978e-01 -2.77228169e-02 -7.92117119e-01 +9.64494824e-01 -1.77176487e+00 -1.61746311e+00 +2.42486286e+00 -6.82817757e-01 -5.68731248e-01 -4.83967841e-01 -2.30361700e-01 -1.28854096e+00 +4.53941107e-01 -1.05862364e-01 +4.26776141e-01 -3.04005504e-01 -1.02641594e+00 -6.32306874e-01 -9.54841256e-01 -6.27933023e-03 -1.07677341e+00 -5.49526036e-01 -6.35734916e-01 -1.72092593e+00 +1.61332035e+00 +7.25001276e-01 +1.16071737e+00 -1.52631178e-01 -4.98463064e-01 -7.94527650e-01 +1.25652599e+00 +2.12226421e-01 -1.12747550e+00 +4.90384310e-01 -9.05373871e-01 +8.38082731e-01 +8.63752067e-02 +6.48698270e-01 +6.53259158e-01 +3.38445783e-01 -5.27113378e-01 -4.50398326e-01 -5.57546437e-01 +5.74106514e-01 +4.82328504e-01 +3.74787420e-01 +2.96431005e-01 +1.28121376e+00 +8.49587917e-01 -3.52572471e-01 -1.69242930e+00 +1.11273563e+00 +8.96866858e-01 -7.69742131e-01 +1.10674524e+00 +1.57125521e+00 +2.46590912e-01 +5.62438905e-01 -5.22432148e-01 -3.14352542e-01 -1.29185462e+00 +5.90520203e-01 +3.42451841e-01 -2.56233335e-01 +1.39282274e+00 +7.05143631e-01 -9.50093940e-02 +1.14375246e+00 +9.57716465e-01 +2.62164235e-01 -9.07440305e-01 +2.18081430e-01 +4.40736949e-01 -1.08373797e+00 +8.07892382e-01 +3.40000719e-01 +9.16550756e-01 -5.53095639e-01 -9.48414326e-01 +1.82671979e-01 -2.15698659e-01 +9.72759798e-02 -2.00667644e+00 -7.48118341e-01 -1.45618781e-01 -3.02398741e-01 -1.11288227e-01 +4.55524802e-01 -7.19878897e-02 +2.33411744e-01 +1.92205146e-01 -8.29062760e-02 -1.69270635e-02 +1.21607256e+00 -2.74767131e-01 -7.94748604e-01 -3.33095610e-01 +9.19620171e-02 +5.16483009e-01 +5.79998374e-01 -8.68643522e-01 -5.64325452e-01 -5.10938108e-01 +1.87472355e+00 +5.28083444e-01 -9.69679832e-01 -5.23231208e-01 -1.03820443e+00 -3.03186029e-01 -1.09031296e+00 -6.93628967e-01 -6.57741368e-01 -7.25923717e-01 +2.90375918e-01 +8.64708424e-01 -5.45464754e-01 -9.35146630e-01 -9.64076161e-01 -4.38050956e-01 -9.10126150e-01 +7.56668448e-01 -3.20506662e-01 +4.96454805e-01 +5.37894309e-01 -1.32331181e+00 -3.74730706e-01 -1.01951206e+00 -3.50683779e-01 +5.13279021e-01 -8.51260066e-01 -2.79420674e-01 -1.37050068e+00 +2.89185166e-01 -9.18782175e-01 -9.11821485e-01 +3.13126177e-01 -4.59222555e-01 -2.31721893e-01 +7.54791081e-01 +3.79171580e-01 +1.72581911e-01 -4.95426953e-02 -4.61331695e-01 +2.45338246e-01 -1.31073451e+00 +6.24357045e-01 +1.03238201e+00 -6.12001538e-01 -3.12328964e-01 +1.05179000e+00 -1.82497931e+00 +6.52579904e-01 -1.75476134e+00 -4.33594733e-01 -2.31611818e-01 +9.61121470e-02 -5.92697784e-02 -8.98782432e-01 +5.40222108e-01 -1.55356014e+00 +8.78897727e-01 -9.27173376e-01 -1.28444294e-02 -7.62999296e-01 +2.43914351e-01 +1.08763731e+00 -3.61852050e-01 -1.17472284e-01 -7.18548656e-01 -1.39585578e+00 +3.20261151e-01 -1.06439471e+00 +7.38227427e-01 -1.23048954e-01 -2.50987172e-01 -1.19032991e+00 -2.48672798e-01 -7.40601718e-01 -1.13992119e+00 -1.27251053e+00 -5.80741227e-01 -1.16209507e+00 -5.88657148e-02 -6.30577028e-01 -7.03774154e-01 -1.62383854e+00 -9.33625937e-01 -5.58690906e-01 -8.61412704e-01 -1.03137207e+00 -4.57768977e-01 +6.54750347e-01 -5.71226239e-01 -8.64701509e-01 -1.20641196e+00 -3.57711524e-01 -1.05509996e+00 -3.37572157e-01 -9.88224447e-01 -1.12572050e+00 -3.26962560e-01 +2.77824938e-01 -1.74522305e+00 +2.88755238e-01 +1.28133941e+00 -3.28637995e-02 +5.22117555e-01 +3.47519040e-01 -2.54026711e-01 -8.98000896e-01 -5.43887079e-01 +2.48026371e-01 -4.80530232e-01 -1.90623200e+00 -5.67739546e-01 -5.09992123e-01 -1.50491297e+00 -6.22444451e-01 +8.30748603e-02 +9.42353129e-01 -1.80202276e-02 -5.01035988e-01 -7.72127926e-01 -1.46978474e+00 -6.20009124e-01 -8.21878552e-01 -8.82788539e-01 -9.83215213e-01 -1.05619073e+00 -1.49278975e+00 -2.16005966e-01 -4.91527289e-01 -8.42786059e-02 -1.01130056e+00 +7.35143900e-01 -1.24035847e+00 +2.13905796e-01 +1.33837193e-01 -4.05333191e-01 -7.87577093e-01 -1.25689387e-01 -2.80299097e-01 -4.64015007e-01 +5.03077209e-01 -8.80599737e-01 -8.40467393e-01 -1.08440793e+00 -1.61532605e+00 -3.96434724e-01 +1.65919751e-01 +8.89223278e-01 -1.14996123e+00 -1.54973733e+00 -7.25068867e-01 -4.56158817e-01 -5.85343421e-01 -6.33725107e-01 +7.05765724e-01 +5.72665572e-01 +7.85511374e-01 +7.53377527e-02 -8.27152789e-01 -1.29079366e+00 -9.16705072e-01 +1.96077853e-01 -6.21515930e-01 -1.39859176e+00 -3.77725154e-01 -1.19398504e-01 -5.90260684e-01 -1.64531633e-01 -4.48110700e-01 +2.31339987e-02 -6.47301555e-01 +1.28101063e+00 +2.21078813e-01 -7.48299479e-01 -2.59349011e-02 -2.88441079e-03 -4.89401519e-02 +1.08952224e+00 -1.56392002e+00 +2.25057498e-01 +4.77351546e-01 -6.64256930e-01 -6.44324601e-01 -2.56533623e-01 -4.01712507e-01 -1.79597831e+00 -1.34189069e-01 +8.52325976e-01 -3.67946833e-01 +1.05268514e+00 +3.55069041e-02 -1.23609126e+00 -6.58541992e-02 -8.81551385e-01 -1.31241679e+00 +6.57190859e-01 -1.09706271e+00 -3.22833449e-01 -7.36712277e-01 +2.05197871e-01 -7.56095290e-01 +6.32587194e-01 +7.76053071e-01 +6.84272170e-01 +2.07756072e-01 -1.52070150e-01 -1.72192478e+00 -1.33802354e+00 -2.34808415e-01 -3.97336155e-01 -1.12570894e+00 +7.62120664e-01 -5.51817268e-02 -1.18522167e+00 -1.17981303e+00 +7.30411649e-01 -7.13100061e-02 +2.70600617e-01 -1.20335259e-01 +1.08405602e+00 -1.32180780e-01 +3.32879908e-02 +4.72886711e-01 -8.19061637e-01 -1.02726018e+00 +6.43813610e-01 -1.64719474e+00 -1.41372323e-01 -1.01124096e+00 -4.28982615e-01 -9.83985960e-01 -2.45503411e-01 +5.82765676e-02 -4.37713079e-02 +2.70623147e-01 -2.17101574e-02 -1.47866949e-01 -4.78742331e-01 -2.99363047e-01 -1.26746011e+00 +6.94124877e-01 -8.44347954e-01 +7.06719875e-01 -7.74652064e-01 -1.72472489e+00 -2.54465520e-01 +2.91800141e-01 -8.91091168e-01 -9.60825861e-01 -1.03091693e+00 -1.52292287e+00 -3.66943687e-01 -4.56902236e-01 -1.08514261e+00 -4.20509219e-01 +6.99196577e-01 +1.38399720e-01 -5.89545429e-01 -1.03960764e+00 -1.37798950e-01 -3.73928547e-01 +3.05087894e-01 -8.01567972e-01 -1.38406885e+00 +3.81298095e-01 -2.04840645e-01 -7.01536417e-01 -7.34830499e-01 +4.92451459e-01 +2.80252248e-01 +2.90017545e-01 +2.87769109e-01 -2.90563047e-01 -6.40268251e-02 -1.55186683e-01 +3.49611193e-01 -2.18853384e-01 +1.53038847e+00 -8.67983878e-01 +2.77490228e-01 +9.28525701e-02 -2.02625346e+00 -1.59416453e-03 -8.35001469e-02 -1.35362342e-01 -1.32245553e+00 -3.39841217e-01 +1.10866114e-01 -4.57939982e-01 +8.98038328e-01 -8.72679889e-01 -1.83844590e+00 -7.29487717e-01 +4.64227825e-01 -7.34272540e-01 +5.40370524e-01 -5.51090240e-01 -1.42512858e-01 -4.68486279e-01 -2.07517147e+00 -7.62595773e-01 +8.72440934e-01 +5.37826419e-01 -3.10766101e-01 +4.82988238e-01 -1.96732253e-01 -5.27215123e-01 +7.94946015e-01 +1.17351666e-01 -4.71557945e-01 +5.46606243e-01 +8.91644955e-02 -1.74541101e-01 +7.63910115e-01 +4.64357704e-01 -8.39985728e-01 +1.51828909e+00 -3.70626211e-01 +6.97459513e-03 +5.97496271e-01 +3.42962220e-02 -1.13666964e+00 -8.91320944e-01 +6.91742837e-01 +6.97334170e-01 +1.45181882e+00 +5.39139748e-01 -6.86538935e-01 -4.48814034e-01 +9.49774802e-01 -5.67021370e-01 +2.28613704e-01 -3.72321084e-02 -3.57755572e-01 +5.59953272e-01 +8.03824216e-02 +5.54145217e-01 -5.00332654e-01 -9.50787127e-01 +1.30311430e-01 +4.06927675e-01 -6.21976316e-01 -1.10171281e-01 +6.59707069e-01 +1.38580471e-01 +1.14638543e+00 -8.63063395e-01 -5.81030846e-01 -6.17890358e-01 -4.39961106e-01 +4.27144617e-01 +6.39353931e-01 -6.23090923e-01 +7.27026343e-01 +2.96911418e-01 +9.51373857e-03 -8.29669610e-02 +1.37095523e+00 -5.78882813e-01 +1.21570639e-01 +1.16856107e-02 +3.59717607e-01 -1.19917229e-01 -8.44411626e-02 +4.38818187e-01 +4.36265677e-01 -6.60432994e-01 -8.76232684e-01 +7.76578039e-02 +6.81480229e-01 +2.68715806e-02 +1.23969376e+00 -2.38842353e-01 +9.02994096e-01 -5.69679737e-01 -1.56732649e-01 -3.23112130e-01 +1.97606236e-01 +5.84321380e-01 -7.52956390e-01 +1.05069959e+00 -1.28747189e+00 +7.73873866e-01 -3.62845004e-01 +3.41200739e-01 -7.06577480e-01 +3.60648721e-01 -6.68886065e-01 -3.04977655e-01 -1.98729545e-01 -8.13887954e-01 +9.92531240e-01 -7.82462001e-01 +5.82537428e-02 -1.34574473e-01 +9.91994217e-02 +1.74023315e-01 +7.35334992e-01 +5.94763517e-01 -1.42364232e-02 +8.13837647e-02 -1.53888667e+00 -3.22252810e-01 +8.61245692e-01 -1.02566397e+00 -7.84626663e-01 -8.72197390e-01 -1.35879672e+00 -1.53562117e+00 -3.89580727e-01 -1.45255005e+00 -2.14527082e+00 -1.82941997e+00 -1.30596018e+00 -1.03637958e+00 -1.09916306e+00 -1.12957096e+00 -1.31606162e+00 -2.10404992e+00 -6.87379360e-01 -1.99138725e+00 -1.85778940e+00 -3.53343040e-01 -9.23990846e-01 -9.73867655e-01 -1.59147489e+00 -1.21001554e+00 -1.35708606e+00 -4.46827441e-01 -1.85166168e+00 -6.26428604e-01 -2.04950595e+00 -1.63813555e+00 -1.36884129e+00 -1.08412349e+00 -1.69099045e+00 -1.64876652e+00 -1.36122966e+00 -8.39518309e-01 -1.49973005e-01 -1.35738802e+00 -1.69851398e+00 -1.07103288e+00 -2.28649810e-01 -1.09386051e+00 -6.67815745e-01 -1.85401571e+00 -1.31081867e+00 -3.10542107e-01 -1.56325209e+00 -1.73364520e+00 -1.91113675e+00 -1.25888813e+00 -5.85394382e-01 -1.14624321e+00 -7.94749260e-01 -1.63362706e+00 -2.23909497e+00 -2.35442138e+00 -5.99234700e-01 -1.05240393e+00 -1.35357058e+00 +1.68988800e+00 -7.13420510e-01 -1.54989266e+00 -9.82855260e-01 -6.39042377e-01 -1.39520574e+00 -1.20240200e+00 -7.08509922e-01 -8.06646883e-01 -2.18800735e+00 -2.06773758e+00 -4.19071764e-01 -1.21810389e+00 -1.36923766e+00 -1.31407666e+00 -1.07498896e+00 -2.16897416e+00 -1.34824312e+00 -2.37268686e+00 -1.50467789e+00 -9.79578495e-01 -1.28661704e+00 -1.71991599e+00 -4.39443469e-01 -1.18465137e+00 -3.50815153e+00 -9.12447751e-01 -7.72242486e-01 -9.67820764e-01 -2.08172226e+00 -1.84392166e+00 -2.51088023e+00 -1.25095880e+00 -1.08576548e+00 -1.92224729e+00 -1.54898667e+00 -7.16755509e-01 -2.84414083e-01 -1.18182731e+00 -1.48309183e+00 -6.27334356e-01 -1.49178433e+00 -7.30254769e-01 -8.07009757e-01 -8.13910306e-01 +1.66354612e-01 -7.06938148e-01 -3.15697104e-01 -1.11901999e+00 -1.74894059e+00 -2.22447008e-01 -1.13623846e+00 -1.86431551e+00 -6.71474636e-01 -5.04830599e-01 -1.06497198e-01 -1.58691108e+00 +2.11045682e-01 -8.06775928e-01 -8.44390094e-01 -3.35656077e-01 -1.85105771e-01 +3.10703039e-01 -5.31212270e-01 -1.29675972e+00 -3.69635105e-01 -1.83993959e+00 +2.68236309e-01 -1.78809047e+00 -9.36904371e-01 +3.84277731e-01 -1.41946232e+00 -2.08813429e+00 -1.40045449e-01 -1.21500742e+00 -4.13624942e-01 -9.89740312e-01 +4.23618294e-02 +3.78076583e-01 -1.38748050e-01 -4.67034541e-02 -9.10557926e-01 -1.32283521e+00 +2.04497322e-01 -7.81849399e-02 -3.69075090e-01 -1.40279615e+00 -7.97719359e-01 -1.88776821e-01 -7.81216204e-01 -1.74165702e+00 -6.89314187e-01 -1.69998240e+00 -3.88847947e-01 -1.33429086e+00 +4.24741656e-01 -1.13239937e-01 -1.37644064e+00 -3.71456295e-01 -8.60537827e-01 -4.28228199e-01 -2.43120134e-01 -6.13063395e-01 +1.32329717e-01 -4.95588452e-01 -2.42426783e-01 -3.31169426e-01 -1.09434938e+00 -1.03128850e+00 -1.10209197e-01 -4.61596437e-02 -9.84739661e-01 +4.47197855e-01 +9.01211947e-02 -6.66583598e-01 -1.10010397e+00 -4.88955993e-03 -8.25890958e-01 -1.42153466e+00 -5.22289425e-02 -1.46796596e+00 -4.98090863e-01 +6.23611391e-01 -9.92240667e-01 +2.10686371e-01 +3.86438549e-01 -3.53542745e-01 -1.40198123e+00 -9.15039659e-01 -1.34689838e-01 +6.97909534e-01 -3.56502384e-01 -1.63957202e+00 -5.89042187e-01 -8.14149916e-01 -1.12958539e+00 -9.06003863e-02 +2.34597668e-01 -2.01428795e+00 -5.57575189e-02 -8.70670199e-01 -2.19571143e-01 -7.94631124e-01 -1.61305332e+00 -1.25493467e+00 -1.36151052e+00 -1.31414247e+00 -1.19517684e+00 -1.30926454e+00 -2.12788773e+00 -8.67364228e-01 -1.42865026e+00 -2.05810714e+00 -2.67876506e+00 -9.08899724e-01 -3.69626939e-01 -1.10949028e+00 +1.39298224e+00 -6.70857728e-01 -6.85531139e-01 -1.28295922e+00 -8.65097582e-01 -5.35045564e-01 -8.40385854e-01 -1.24025917e+00 -8.79530668e-01 -6.96890235e-01 -3.40179473e-01 -1.86348879e+00 -1.08878446e+00 -2.48319671e-01 -7.41239727e-01 -1.65187573e+00 -4.53069746e-01 -2.15407372e+00 -1.89040244e-01 -5.81455469e-01 +5.25182962e-01 +7.87076592e-01 -8.46091509e-01 -3.15936506e-01 -1.32371092e+00 -1.16048098e+00 -3.70896876e-01 -9.58050132e-01 -4.78163689e-01 -1.14485943e+00 -1.56363654e+00 -8.01074505e-02 -1.68517041e+00 -1.87740886e+00 -9.78766918e-01 -1.73425794e+00 -7.01889098e-01 -2.41106772e+00 -8.47744048e-01 -1.36119580e+00 -8.16337705e-01 -1.39107358e+00 -1.13961327e+00 -1.45385373e+00 +1.08124919e-01 -1.00227928e+00 +1.20742366e-01 -1.10919940e+00 -7.08351970e-01 +3.32215250e-01 -6.63352907e-01 -1.03679955e+00 -9.19011533e-01 -5.27163208e-01 -5.25066674e-01 -1.53241074e-02 -1.05933380e+00 -1.89274764e+00 -1.03414810e+00 -1.00098133e+00 +1.11764181e+00 -2.01934409e+00 -8.61662686e-01 -2.19266510e+00 -4.86257732e-01 -3.95665556e-01 -5.19760214e-02 +9.33895633e-02 -3.51529300e-01 -1.05763614e+00 -1.62833011e+00 -1.24961662e+00 -9.70715761e-01 -2.81548619e-01 -1.06960344e+00 -1.86177599e+00 -1.21909928e+00 -6.76294148e-01 -1.19718063e+00 -1.18846893e+00 -8.08158100e-01 -3.03515697e+00 -8.78078997e-01 -8.49169612e-01 -1.08833730e+00 -3.25327784e-01 +9.18321669e-01 -3.83337826e-01 +2.05320135e-01 +1.25764415e-01 +4.88826819e-02 +1.23484895e-01 +2.54326016e-01 -6.65137731e-03 +8.59731913e-01 +6.63229406e-01 -8.74830931e-02 +7.26629615e-01 +2.68700153e-01 +4.31925148e-01 +1.25019157e+00 -2.56357372e-01 +3.28279018e-01 +6.88393041e-02 -1.04926300e+00 +1.30736661e+00 +9.59457159e-02 +7.00957358e-01 +1.99712086e-02 +1.05952948e-01 +4.65977658e-03 -7.24111259e-01 +1.80590078e-01 +2.02083424e-01 -9.65996146e-01 +3.08912754e-01 +1.84645772e-01 +2.44053781e-01 +9.05492365e-01 +1.07782686e+00 -1.32631838e+00 +8.82656276e-01 -3.87499452e-01 -2.70534843e-01 -1.23038602e+00 +3.77046615e-01 -1.27014661e+00 -6.18788376e-02 +4.59675252e-01 +2.34603837e-01 -8.43094409e-01 +9.73047987e-02 +1.68575510e-01 -7.96068668e-01 -5.66383779e-01 +1.72917157e-01 +3.49907130e-01 +9.13315713e-02 -6.75987482e-01 +7.04996958e-02 +6.81067050e-01 +2.37785950e-01 -6.76405251e-01 -1.58228457e-01 -4.52460229e-01 -6.79694489e-02 -7.14630306e-01 -4.63960409e-01 +1.32719100e+00 +1.13046385e-01 -1.32958889e+00 -1.84533700e-01 -1.90499440e-01 -2.50480175e-01 +7.75171816e-01 +2.62127906e-01 -2.35589251e-01 -5.31565435e-02 +2.92501658e-01 +3.52965713e-01 -1.02702832e+00 +5.40240526e-01 +1.87874153e-01 +1.36248559e-01 -1.56843007e-01 -4.90253747e-01 -1.29714897e-02 -8.12407672e-01 +1.44467846e-01 -3.51286381e-01 +5.50301731e-01 -2.28817731e-01 -7.64066130e-02 +5.72667599e-01 -2.61619017e-02 -4.49806601e-01 -9.59031343e-01 -8.87557149e-01 -6.60643697e-01 -1.28803685e-01 -3.15508068e-01 -4.21249688e-01 +2.94476151e-01 +3.96890014e-01 +2.34190345e-01 -9.33499932e-01 -6.47587776e-02 +1.19645119e-01 -1.46009612e+00 +3.89560580e-01 +1.52203828e-01 -6.70009017e-01 -6.59203827e-01 -8.17694217e-02 -3.27288806e-01 -1.69715226e-01 +1.32557333e+00 -8.61958563e-01 -4.40534264e-01 -1.33619559e+00 -5.27107894e-01 +5.46134889e-01 +7.00592473e-02 -5.45809805e-01 +9.78061557e-01 -9.16795135e-01 +9.19283181e-02 -7.05333292e-01 -4.04617041e-01 -3.51374745e-01 +3.05196142e+00 +6.88029900e-02 -8.79370153e-01 -8.67901623e-01 +1.82970896e-01 -2.22741270e+00 +4.13902909e-01 -1.51995564e+00 -7.42396951e-01 -2.54429364e+00 +1.38003004e+00 +6.42958105e-01 +4.94539976e-01 -1.78483999e+00 +6.91956103e-01 +5.92386067e-01 -4.10621315e-02 -1.51374173e+00 +2.09093746e-02 -8.99624825e-02 -1.09155035e+00 -9.07831907e-01 -1.25730515e+00 -1.06971264e-01 +4.63665783e-01 -3.46768469e-01 -8.22769403e-01 -9.47837710e-01 +3.90548015e+00 -2.12393254e-02 -6.26974404e-01 -1.81419146e+00 -1.10871792e+00 -1.29127002e+00 -3.85936826e-01 -1.12560689e+00 -3.13965291e-01 -2.29861331e+00 -6.90269232e-01 -1.30519480e-01 +2.11957860e+00 +1.39195353e-01 -6.45081550e-02 -1.37475097e+00 -6.11645341e-01 -5.85224390e-01 -1.77684724e-02 -8.57372880e-01 -1.30851638e+00 -1.73033595e-01 -5.08338571e-01 +1.28299820e+00 -9.13381130e-02 -8.14312041e-01 +1.15189576e+00 -2.92752981e-01 +3.30853999e-01 +5.07732749e-01 +2.18908381e+00 -1.02976608e+00 -1.18330789e+00 -9.65381384e-01 +2.15256900e-01 -2.14616656e+00 -3.59029979e-01 -1.14525783e+00 -4.73900825e-01 -1.39263153e-01 +2.58014274e+00 -1.13943291e+00 -1.63543952e+00 -1.12112366e-01 +2.01446533e+00 -1.51232171e+00 -1.25057387e+00 -9.89415884e-01 -1.31561160e+00 -1.96429121e+00 -1.67794096e+00 -1.33165395e+00 -1.03644729e+00 +1.40389073e+00 -1.57966340e+00 +1.06810534e+00 +1.53264597e-01 +4.71120954e-01 -1.56381160e-01 +7.21579939e-02 -1.58065602e-01 -7.10934639e-01 -2.38541260e-01 +4.27194643e+00 -1.10609257e+00 -4.50735748e-01 +1.22417104e+00 +3.57457697e-01 +8.24627101e-01 +6.00443542e-01 +7.31399834e-01 +3.23181450e-01 +2.68747354e+00 -1.17979419e+00 +2.16275856e-01 -2.20553970e+00 -2.03479648e+00 -2.95631634e-03 -9.47746992e-01 +1.58334479e-01 +1.45522761e+00 +1.98338717e-01 +5.34066796e-01 +1.32409000e+00 +1.05186105e+00 -5.87378025e-01 +7.79564917e-01 +7.54337609e-01 +6.09684229e-01 -2.75563121e-01 +1.56155157e+00 +1.94591749e+00 -7.49096751e-01 +8.47815946e-02 +1.68267298e+00 +6.32594347e-01 -7.74038672e-01 +1.34903975e-02 -1.83979392e+00 -8.99004102e-01 -3.78502202e+00 +1.57310069e-01 -2.67016768e-01 -1.46410012e+00 +5.31735182e-01 -1.28067446e+00 +3.83620203e-01 -1.44497800e+00 +6.05169594e-01 -1.12812281e+00 +6.18436217e-01 +2.79401660e-01 +6.00590348e-01 -7.71486580e-01 +5.74830115e-01 -1.80160046e+00 -1.28539145e+00 +2.54916966e-01 +1.49289072e-01 -1.05873334e+00 -1.01242471e+00 +7.42155984e-02 +7.02179313e-01 -1.60276699e+00 +1.03046291e-01 -6.07220352e-01 -1.43869293e+00 +7.94340551e-01 -1.38087583e+00 +1.52812147e+00 +1.11317217e+00 -9.02814567e-01 -1.24953222e+00 +1.80186212e+00 +6.34701312e-01 +9.23723280e-01 -4.84684229e-01 +5.49630411e-02 -6.80666804e-01 +1.17452586e+00 -1.81844735e+00 +2.07494348e-01 -5.89293875e-02 +3.44836354e+00 -7.46746957e-01 +1.98599383e-01 +1.58647454e+00 -6.94780231e-01 +6.59040287e-02 -1.18772328e+00 -1.72663701e+00 -3.26966345e-01 -7.47913003e-01 +1.19677663e+00 +9.82915685e-02 +1.01588142e+00 +3.86981666e-01 -3.96952540e-01 +1.55282152e+00 -3.02274168e-01 -2.65555739e-01 -8.65203798e-01 +4.28632289e-01 +3.44061941e-01 -1.03893626e+00 -8.90575111e-01 +3.58561844e-01 -1.97708666e-01 +1.19849622e+00 +9.22335565e-01 +6.08670592e-01 +1.62953943e-01 +2.43561125e+00 -1.49069786e+00 +2.15132713e-01 -1.16638279e+00 -5.44267833e-01 +5.64384520e-01 -1.96025372e+00 -3.61961395e-01 +1.09530032e+00 +1.26627713e-01 +5.28123021e-01 +5.49909592e-01 +4.06137645e-01 -1.24186814e+00 +1.22091377e+00 +1.81417823e-01 +7.56202638e-01 -2.86832362e-01 +1.60493366e-02 +1.94688821e+00 -2.92930102e+00 -5.49024642e-01 +7.97900021e-01 +1.64408803e+00 +1.11513186e+00 +1.30010769e-01 -6.34294927e-01 -2.82884240e-01 +1.92394567e+00 +1.18758821e+00 +1.58545047e-01 -3.06382090e-01 -1.65347725e-01 -2.46855164e+00 -1.40636057e-01 -4.97740656e-01 +1.54469299e+00 -2.06128764e+00 -4.24179226e-01 +8.86448205e-01 +2.59481668e+00 -4.95428801e-01 +4.08836126e-01 -1.70125341e+00 -8.46613407e-01 +7.25955144e-02 -7.22617984e-01 -6.00960255e-01 -5.09713531e-01 +3.60709205e-02 +1.06415153e+00 +4.57233757e-01 +9.44293916e-01 -1.11174488e+00 -4.49864805e-01 +9.84559059e-01 -1.59611762e+00 +3.14051390e-01 +2.00600004e+00 -9.78622675e-01 -1.85847032e+00 +1.43932068e+00 -1.13878822e+00 +7.09709644e-01 -1.94388494e-01 -4.74997401e-01 +3.19466412e-01 +1.15520489e+00 +1.98744512e+00 +1.00211471e-01 -1.10187173e+00 +1.13552177e+00 +2.35591483e+00 -4.91919547e-01 +4.93919075e-01 +4.22504842e-01 +1.90137136e+00 +1.33656216e+00 +3.06333005e-01 +2.08762336e+00 +1.98654741e-01 -4.61313099e-01 -7.71516681e-01 +2.47645095e-01 +3.10979337e-01 -2.19778702e-01 +2.95251465e+00 +1.43981636e-01 +3.99005443e-01 -9.95431654e-03 -6.59740508e-01 -2.93921328e+00 -1.89501691e+00 -9.27061200e-01 -8.30325067e-01 -9.92249474e-02 +2.64344364e-01 -3.76419336e-01 +2.34071448e-01 -6.09524488e-01 -4.36842060e+00 -5.51181912e-01 -3.51371199e-01 -4.54397351e-01 +9.76724267e-01 -2.51199633e-01 -5.73642671e-01 +4.01339754e-02 -5.59077084e-01 +7.09840655e-02 -3.40463924e+00 +3.37377954e+00 +5.60516119e-01 +3.78567725e-01 -1.08271885e+00 +8.88553262e-01 +2.55846649e-01 +3.68266344e-01 -1.07679582e+00 +1.35362208e+00 +4.28891391e-01 +2.70554155e-01 +6.31927490e-01 -5.98650694e-01 -7.80276597e-01 +2.55700916e-01 +4.33042735e-01 +1.94876134e-01 +3.09567595e+00 -3.43688756e-01 -4.36863452e-01 +3.91889185e-01 +1.52150720e-01 +1.52934659e+00 -2.87333373e-02 -4.13892061e-01 +4.11843807e-01 -2.53109187e-01 -2.77127475e-01 +2.02772349e-01 +7.07027853e-01 -5.75292289e-01 +1.71816811e-01 -1.57460853e-01 +3.22680235e-01 -1.24683820e-01 +2.93014109e-01 -6.89006597e-02 -8.19388777e-02 -4.25704628e-01 -2.42885756e+00 -1.63103175e+00 +1.09730685e+00 -2.74287790e-01 +1.11018777e+00 +4.68608737e-01 +1.79777190e-01 -6.47263601e-02 +3.32153153e+00 -5.84847093e-01 -4.25864756e-01 +1.01508713e+00 -3.02715182e-01 -1.48104519e-01 -4.83962238e-01 +2.30915084e-01 -1.12991333e+00 -7.96313167e-01 +2.92897725e+00 +7.92416707e-02 +3.18258256e-01 +2.84233046e+00 +2.42275286e+00 -5.36026716e-01 +2.20970809e-01 +1.03410363e+00 +5.49467862e-01 +7.50882387e-01 -8.44223857e-01 -6.47167087e-01 +8.45661640e-01 +1.41284657e+00 -3.06182414e-01 +1.70003235e+00 -3.00201863e-01 +8.49480480e-02 +9.77309167e-01 -1.57811284e+00 +2.17282936e-01 +1.12648857e+00 -5.35753310e-01 +5.90154469e-01 -5.27779639e-01 -1.62867033e+00 +6.44062281e-01 -1.52607903e-01 -1.37987399e+00 +3.67059529e-01 +1.21515132e-01 -3.84903133e-01 +6.21716082e-02 +9.94387567e-01 +1.03910160e+00 +9.34876859e-01 +2.11774275e-01 +1.39825296e+00 -2.45394036e-01 +8.34975719e-01 +3.99458140e-01 -6.45470172e-02 +3.07578027e-01 -3.61584276e-01 -1.46179736e+00 -1.35311174e+00 -1.43345460e-01 -2.37806395e-01 -4.23147053e-01 +1.26988029e+00 +1.24340224e+00 -4.70244318e-01 +7.55742848e-01 -2.45070308e-01 +5.47720671e-01 +7.87512064e-01 +8.42075586e-01 -1.53723490e+00 -3.82505953e-01 +9.70818400e-01 +1.08072229e-01 +1.24345565e+00 +8.14073384e-01 +1.53987241e+00 -7.11380005e-01 +2.17528328e-01 -1.30739379e+00 +4.18671757e-01 -5.71625710e-01 +7.54948914e-01 +1.62954032e+00 +1.14644563e+00 +4.71303388e-02 -7.86327302e-01 -1.78136349e+00 +6.86872959e-01 +4.28580940e-01 +1.73065871e-01 +2.61280596e-01 -1.07536376e-01 -3.28336507e-01 +1.28886640e+00 +1.18465215e-01 -2.48886153e-01 +2.84310400e-01 +5.10998309e-01 +5.86582124e-01 +1.77688313e+00 -6.23203099e-01 +5.74632883e-01 -5.85218966e-01 -3.57756913e-01 +1.18967998e+00 -1.06068838e+00 -7.02535272e-01 -8.99746455e-03 +1.43572259e+00 +1.71979630e+00 +1.19779027e+00 +4.33504641e-01 +4.73155469e-01 +1.23938775e+00 +4.64413136e-01 -6.77196309e-02 -2.09929198e-02 +2.97319233e-01 +7.28832662e-01 -8.13716650e-01 -1.96796164e-01 -5.45146108e-01 +4.86815482e-01 -5.46712756e-01 -6.24086022e-01 -6.21891558e-01 -7.44045019e-01 +1.34226143e-01 -1.18439102e+00 -1.22820425e+00 -1.27785528e+00 -2.61058778e-01 -7.18063772e-01 -1.39312506e+00 -1.33077711e-01 +2.99398571e-01 -2.96171248e-01 -3.71904403e-01 +5.03485382e-01 -5.18597439e-02 -9.01971579e-01 -7.86482632e-01 -2.60496885e-01 -6.83728635e-01 -1.06121883e-01 -4.38190103e-02 -5.82819998e-01 +1.02423429e+00 -5.44513285e-01 -2.05681786e-01 +2.42947817e-01 -8.28042388e-01 -8.75245273e-01 +3.36811095e-01 -5.54519296e-01 -1.83828194e-02 -9.94018257e-01 -3.45646858e-01 -1.37860954e-01 -7.14301467e-01 -2.03551501e-02 +3.51128370e-01 -9.72188860e-02 +1.46274209e-01 -6.15555346e-01 +1.06809149e-02 -9.19026792e-01 -7.92229772e-01 -4.71066326e-01 -7.24454045e-01 -3.10815927e-02 -1.74060929e+00 -8.09640527e-01 -2.73247421e-01 +1.53359011e-01 -4.31193978e-01 -1.19213864e-01 +2.89571792e-01 -6.85363293e-01 -4.83216465e-01 -1.63785830e-01 +8.74013841e-01 -1.35012603e+00 -4.20412570e-01 +5.65173924e-01 -7.11477935e-01 -6.81318879e-01 -2.83515424e-01 -3.75390053e-01 +4.82752137e-02 -1.13366413e+00 -8.64546597e-01 -6.96269274e-02 -4.27093267e-01 -2.64604688e-01 -1.85944930e-01 -5.85191429e-01 -1.19676006e+00 +2.73616940e-01 -6.96408629e-01 -9.38031301e-02 +6.03671372e-01 -4.70674008e-01 -2.71071225e-01 -1.16076064e+00 -1.33799982e+00 -2.52643973e-01 -1.07042462e-01 +6.77560091e-01 -1.10588717e+00 -8.47995460e-01 -2.57757187e-01 -2.17316404e-01 +5.05627453e-01 -4.04117435e-01 -6.45009160e-01 -5.60942531e-01 +1.56762511e-01 +3.47819477e-01 +5.46222031e-01 +8.32548141e-01 +1.02732563e+00 -5.56791246e-01 -1.02094865e+00 +3.66379261e-01 +1.43165991e-01 -2.99664468e-01 +8.95257711e-01 -2.91988671e-01 -5.47464453e-02 +1.16854239e+00 -9.04683948e-01 +2.31204584e-01 +1.21302724e+00 -1.29445446e+00 +2.40257710e-01 -6.77116096e-01 -1.21475983e+00 +4.54486549e-01 -1.80330247e-01 -1.56495690e+00 +2.58749396e-01 -3.79069299e-01 -2.86736548e-01 +6.61674798e-01 +1.26468968e+00 +4.00666356e-01 +4.54219490e-01 +9.14278924e-02 +1.50511503e+00 -3.79237145e-01 +2.62118876e-01 +4.39619839e-01 +2.18171939e-01 -1.62322357e-01 -6.81047320e-01 -1.25730240e+00 -3.85879546e-01 +7.87447020e-02 -7.52069652e-01 -8.85549247e-01 +1.57120192e+00 -2.64199018e-01 -5.97675204e-01 -6.89727247e-01 -2.44116396e-01 +2.26485237e-01 +1.02197993e+00 +5.21139860e-01 -1.75684845e+00 +1.70350268e-01 +1.97275430e-01 -1.59115803e+00 +7.73608387e-01 +5.14156520e-01 +9.13730383e-01 -8.82810295e-01 +9.54397857e-01 -1.38338602e+00 -1.40431508e-01 +1.99644282e-01 +7.11837530e-01 +1.60719192e+00 +3.55552226e-01 +4.50213432e-01 -1.29877853e+00 -9.85608518e-01 +3.29793215e-01 +5.07617891e-01 -7.63832510e-01 -2.67502606e-01 -5.68399310e-01 -6.52121603e-01 +7.35041022e-01 -6.12239242e-01 -5.29074311e-01 -6.89698309e-02 +2.48767331e-01 -4.81614262e-01 +7.26069033e-01 -5.57471693e-01 +2.05932915e-01 +8.37115526e-01 -2.75324255e-01 +7.06581652e-01 -1.15996087e+00 -1.06180936e-01 -7.93189168e-01 +1.02183092e+00 +1.22025561e+00 +1.83757901e+00 +1.04866080e-01 +5.86082816e-01 +7.18095243e-01 -3.20559889e-01 +2.58597471e-02 -5.72230145e-02 +1.12202324e-01 -2.96415865e-01 +1.05245042e+00 +1.01005308e-01 +1.37044668e+00 -6.08795047e-01 +4.45559442e-01 -8.54317427e-01 +1.10868239e+00 +8.55041325e-01 +1.83392012e+00 +3.22998106e-01 +1.16512522e-01 +7.00408578e-01 +2.30614737e-01 -9.73426163e-01 +1.32003653e+00 -6.34494007e-01 +1.63612294e+00 -5.89890718e-01 -2.04082161e-01 -1.16230023e+00 +6.01203859e-01 -2.60881156e-01 -1.15507424e+00 +6.05862796e-01 -2.13396072e-01 +2.97585070e-01 -5.56665063e-01 -1.22869587e+00 +1.19606578e+00 -8.79993081e-01 +1.33505213e+00 -7.47817874e-01 +1.07693088e+00 +8.14480722e-01 -4.64965940e-01 +9.00716305e-01 +2.06884500e-02 -2.63822764e-01 -7.73245871e-01 +3.44329119e-01 -4.38072681e-01 -5.31446218e-01 -1.27206051e+00 -5.90882778e-01 -4.92099285e-01 +1.29494399e-01 +7.26436730e-04 -7.58967400e-01 -1.39549959e+00 +1.92664802e+00 +2.33044595e-01 -2.78234839e-01 -1.04666328e+00 +4.82512742e-01 -1.33445656e+00 +4.43347603e-01 +1.45553768e+00 +1.72003016e-01 +9.13014174e-01 +1.38861254e-01 -1.39087498e+00 +1.78117037e-01 -3.82612407e-01 +1.53364253e+00 +1.58493567e+00 +2.66618341e-01 -1.28354058e-01 -3.48794490e-01 +1.39094853e+00 +6.68521047e-01 -7.84732327e-02 +4.91103679e-01 -6.37020767e-02 +1.23109616e-01 -2.22029734e+00 +1.13475502e-01 +1.82119399e-01 -2.74365664e-01 -8.49869728e-01 +5.55973127e-02 -1.02109694e+00 +1.36977524e-01 +1.45545268e+00 +8.42315182e-02 -4.68693584e-01 +1.47743225e+00 +1.86881527e-01 -2.71440417e-01 +1.12495446e+00 -2.10222673e+00 -2.02846313e+00 -1.95698535e+00 +7.92003691e-01 +1.23276579e+00 +1.50591874e+00 +1.33277822e+00 -6.51884019e-01 +6.54016912e-01 +7.99325526e-01 +6.27239883e-01 +1.52599871e+00 +8.36553514e-01 +8.08583677e-01 -4.78489608e-01 +1.10782146e+00 +4.23326306e-02 -1.85201705e-01 -1.14012852e-01 +9.17633116e-01 +1.23578453e+00 +7.85454735e-02 -1.61267474e-01 -3.69991302e-01 +1.31472909e+00 -1.29319489e-01 -5.98991156e-01 -3.51886630e-01 -8.92886333e-03 +9.08873200e-01 +1.42355442e-01 +1.28842056e-01 +2.10875615e-01 -6.75046384e-01 -7.16814339e-01 -8.84809911e-01 -2.68924478e-02 +2.24653170e-01 +2.02778935e+00 +1.46138835e+00 +1.18890321e+00 -2.18216956e-01 +7.55180478e-01 -4.93212759e-01 -2.48884112e-01 +2.87461907e-01 +3.90278339e-01 +6.86346889e-01 -1.30065536e+00 +1.18781710e+00 -6.64452091e-02 +7.94407785e-01 -4.55254205e-02 -4.08675611e-01 -6.01460636e-01 -3.06822538e-01 -2.10121572e-01 +4.11280930e-01 -3.99314612e-01 -5.95114753e-02 +8.55361402e-01 +1.57658398e+00 +2.04763961e+00 +1.42106915e+00 +3.35776895e-01 -4.36818600e-02 +5.35894513e-01 +1.34300184e+00 +5.80504119e-01 +2.99359877e-02 +1.81559646e+00 -1.86688095e-01 +5.54953754e-01 -2.82853544e-01 -1.58124194e-01 -1.36172938e+00 +3.40273678e-01 +6.97172105e-01 +6.83814511e-02 -3.03824544e-01 -1.30403161e-01 -2.32495725e-01 +8.04829955e-01 -3.10272902e-01 +1.41255569e+00 +7.48208106e-01 +3.20733726e-01 -4.32553858e-01 +4.78567153e-01 +1.51234841e+00 +4.59807903e-01 +9.04268324e-01 +3.95728052e-01 +2.25711763e-01 -4.10239071e-01 +8.06929708e-01 +1.22736037e+00 -4.77880061e-01 +4.97953109e-02 -1.62974089e-01 +1.56696272e+00 +3.31782326e-02 -1.39641583e+00 -5.82638264e-01 +5.09485900e-01 +1.65737128e+00 +8.44741762e-01 +3.00891269e-02 -1.15599370e+00 -5.99532962e-01 -1.89870417e-01 -5.50748169e-01 -3.91601861e-01 -4.78867292e-01 -4.43328887e-01 -8.61767054e-01 -5.20326197e-01 -7.21492246e-02 -9.92910385e-01 -9.50001597e-01 -9.05798018e-01 -1.29779041e+00 -6.02426231e-01 -1.32336402e+00 +3.06936055e-02 -2.06292272e+00 -4.35158551e-01 -4.53126788e-01 -4.95916575e-01 +5.67741692e-01 +1.49885640e-01 +3.55720460e-01 -6.52392924e-01 +2.10848134e-02 +5.11296056e-02 -1.61771357e+00 -4.13834780e-01 +6.20032800e-03 -1.35559714e+00 -1.03027868e+00 +5.73007204e-02 -7.57126510e-01 -2.89511770e-01 -3.31524283e-01 -7.03994274e-01 -2.47905716e-01 -6.16445124e-01 -3.14864457e-01 -1.70466825e-01 -4.66269821e-01 +1.62927657e-01 -7.76943028e-01 -8.81263733e-01 -8.05873394e-01 -6.06082141e-01 +4.51585025e-01 +5.46366215e-01 -7.00641394e-01 -4.14488643e-01 -4.80845451e-01 -2.62921929e-01 -1.03334761e+00 -1.98095584e+00 -1.41224051e+00 -2.06648827e+00 -2.03835398e-01 -4.11410928e-01 -1.26586401e+00 -1.03779089e+00 -9.09044743e-02 -8.68520021e-01 -3.39096457e-01 -5.08196175e-01 -6.46894932e-01 +5.93033969e-01 +3.26708138e-01 +2.68334419e-01 -1.00158763e+00 +5.71725052e-03 -8.94941449e-01 -7.06173658e-01 -4.69480217e-01 +6.82081878e-01 -8.57703328e-01 -5.13137996e-01 +6.17950380e-01 -7.81536758e-01 -1.12391555e+00 -7.51695931e-01 -1.11967959e-01 -6.12156034e-01 +1.87753618e-01 +3.97175431e-01 -4.07209516e-01 -6.85420096e-01 -2.06182137e-01 -1.04405951e+00 -8.01133096e-01 +1.91393524e-01 +1.06962478e+00 -9.27391231e-01 -5.35183251e-01 -1.25718272e+00 -1.26312423e+00 +5.88619895e-02 -3.96955490e-01 -5.20802200e-01 -1.03366566e+00 -6.03591561e-01 +7.31474236e-02 -5.80238819e-01 +1.05865002e+00 +5.74658811e-01 +6.53545737e-01 +1.70801431e-01 +1.28065860e+00 -5.37461996e-01 -1.23376101e-01 -6.46106660e-01 -3.80616874e-01 +1.29043078e+00 -3.06563944e-01 -2.28261113e-01 -8.04282248e-01 +1.79035202e-01 -7.65765011e-01 -6.60137534e-01 -3.97372603e-01 -5.95864058e-01 +1.83952928e-01 -3.42783749e-01 -3.03100735e-01 +1.48354262e-01 -7.65833080e-01 -8.92722487e-01 -8.75478029e-01 +1.99314773e-01 +3.14499531e-03 +1.10928643e+00 +3.41891468e-01 +1.32896054e+00 -3.42694283e-01 +1.42593130e-01 +1.99724007e-02 -5.96239865e-01 -1.14158757e-01 +1.38664022e-01 -1.40455520e+00 -5.17296255e-01 +1.12558496e+00 +1.45685911e-01 -7.51606226e-02 -1.85692742e-01 -7.58215189e-01 -8.90736699e-01 -4.43096668e-01 +9.35565159e-02 -6.19347513e-01 -2.87038893e-01 -1.89943716e-01 +5.95522702e-01 +1.55160940e+00 +4.43098485e-01 +2.72955418e-01 +2.82573819e-01 -5.68900824e-01 +2.73321033e-01 +6.54467404e-01 +1.74407721e-01 -3.77844334e-01 +1.63681746e+00 -3.17974463e-02 -5.12269661e-02 -4.31025535e-01 +1.03962041e-01 -9.32456911e-01 +4.11759943e-01 +4.57071066e-01 -9.10218954e-02 -2.71903962e-01 -5.44876873e-01 -1.68582425e-01 +7.98964560e-01 -9.79691386e-01 +1.03094494e+00 +2.98530459e-01 -5.54807484e-01 -6.74628198e-01 -1.01499058e-01 +8.14418256e-01 -6.63863957e-01 +3.05433869e-01 +3.01403075e-01 -7.20502794e-01 -2.54209906e-01 +8.67312014e-01 +9.33959603e-01 -9.34573352e-01 +6.33164793e-02 +3.95147651e-01 +4.12555426e-01 -7.50256240e-01 -2.59469891e+00 -5.55549324e-01 +8.44327152e-01 +8.81626308e-01 +8.86148870e-01 -8.91790912e-02 -1.03874898e+00 +1.77224293e-01 +4.81484592e-01 -1.40852475e+00 +8.11372399e-01 -6.23429716e-01 +3.14418346e-01 -1.65683448e+00 +7.24116504e-01 +6.71190202e-01 +1.54946789e-01 -9.84587550e-01 +1.08123004e+00 +1.40151155e+00 +2.83080250e-01 -1.35361508e-01 -1.01133597e+00 +7.61968017e-01 +3.51301849e-01 +2.37049893e-01 -1.38600439e-01 +7.63592541e-01 -4.25262973e-02 +5.53193629e-01 -5.40743530e-01 +5.75553834e-01 +4.17891473e-01 +1.08975947e+00 -5.53142488e-01 +7.51292288e-01 +1.81885469e+00 -1.86204171e+00 -1.31793737e+00 +3.06285858e-01 +1.35280538e+00 +1.38464402e-02 +3.55653673e-01 +1.01889238e-01 +1.23277247e+00 +7.56628662e-02 +4.49452519e-01 -1.29298007e+00 -2.19629109e-01 -9.86057460e-01 +8.97257030e-01 +2.48157904e-01 +5.56782708e-02 +1.47281155e-01 -8.34555686e-01 -1.57301950e+00 +3.32063287e-01 +1.41831905e-01 -5.37217021e-01 -1.23356986e+00 -2.02023482e+00 -1.89774561e+00 -8.89587045e-01 +1.26507545e+00 +9.31223929e-01 -6.63370371e-01 -1.25357103e+00 +6.68651819e-01 +1.08509064e+00 -4.09151524e-01 +1.55787066e-01 +7.77117312e-01 +4.20151412e-01 +2.31067598e-01 +4.26746696e-01 +1.02387047e+00 -3.05902809e-01 -3.38412881e-01 +5.28498650e-01 +7.71592140e-01 -5.61229408e-01 +4.74305391e-01 -1.78632665e+00 +1.36743295e+00 -1.46803483e-01 +2.43494570e-01 -8.27045083e-01 +1.53246355e+00 +2.89264530e-01 -9.07294631e-01 +4.50989045e-02 -7.08850622e-01 -3.67368042e-01 +8.13396394e-01 +1.43348885e+00 +2.19544262e-01 -7.99786985e-01 -9.40529048e-01 +1.56581557e+00 +4.91319656e-01 -3.07755738e-01 +9.92961287e-01 -8.64661634e-01 -1.35926688e+00 +8.64092886e-01 -3.22311610e-01 +3.63458484e-01 +2.29000583e-01 -9.84116912e-01 -3.28889042e-01 +2.71371454e-01 -3.94474059e-01 +2.07166457e+00 -1.13568246e+00 -1.41285136e-01 -1.88101661e+00 -1.42410588e+00 -4.09097254e-01 -9.07515645e-01 -1.29256546e+00 -8.59503865e-01 -1.25573134e+00 -1.47179925e+00 -1.17675138e+00 -1.09004206e-03 -2.01452208e+00 -2.33105111e+00 -1.09717131e+00 -2.70688057e-01 -8.78690600e-01 -4.41385478e-01 -1.55429494e+00 -1.37070906e+00 +6.84680760e-01 -1.11792505e+00 -3.05367857e-01 -9.46163297e-01 +1.25950694e-01 -5.25454819e-01 -1.61831558e+00 -1.37038255e+00 -2.20216131e+00 +2.57354863e-02 -8.90360415e-01 +2.17936337e-02 +2.10650504e-01 +7.58943081e-01 -1.54869616e+00 -7.20294774e-01 -9.69669461e-01 -9.13629472e-01 +4.03526455e-01 -3.08496803e-01 -7.28676438e-01 +4.96193320e-02 -3.64719629e-01 -5.50522745e-01 -3.81521910e-01 -1.30246556e+00 -6.05167806e-01 -1.19976871e-01 -5.13363600e-01 -1.00618184e+00 +4.58919704e-01 +5.64157248e-01 -2.37366289e-01 -8.52788568e-01 +3.66976768e-01 -5.23865700e-01 -1.31397516e-01 +2.78083310e-02 -5.22009969e-01 +7.99542785e-01 +4.03311074e-01 -1.39401424e+00 -9.16502655e-01 -3.18830639e-01 -4.04315233e-01 -4.88114893e-01 +7.80179584e-03 -2.32919514e-01 +4.98382092e-01 +3.95891163e-03 +3.24048698e-01 +8.38344812e-01 -1.57214475e+00 +1.09220617e-01 +3.10010195e-01 -8.98658812e-01 +4.03011888e-01 -9.28891778e-01 -9.41601157e-01 -7.99440265e-01 -6.83625862e-02 -1.58550692e+00 -7.38577366e-01 -7.37315893e-01 -1.93941966e-01 -3.44231457e-01 +1.01965025e-01 -6.25502944e-01 +7.14757740e-01 -6.80868864e-01 -5.88209271e-01 +3.27231646e-01 +4.75651354e-01 -4.97167647e-01 +2.92750090e-01 -6.64804101e-01 -2.82790422e-01 +5.06125212e-01 -1.28924891e-01 -1.03513254e-02 -1.02768254e+00 -4.99125183e-01 +1.18451130e+00 -4.02705252e-01 -5.12806475e-01 +3.60024512e-01 +2.93206602e-01 +1.71279520e-01 +2.12765360e+00 -1.45273805e+00 -1.18548346e+00 +1.65713847e-01 -7.89124250e-01 +5.30182898e-01 +6.22939654e-02 +1.18758333e+00 +1.98506069e+00 -1.48909166e-01 -6.19067624e-02 +1.86711267e-01 +1.50112733e-01 +1.30390775e+00 +5.04511036e-02 +6.11338079e-01 -5.48748672e-01 -1.00403202e+00 -7.76985645e-01 +1.77093782e-02 +5.00592172e-01 +8.27479899e-01 +8.35624337e-02 +1.94031745e-01 -6.19003236e-01 +1.70448732e+00 -1.29156649e+00 +7.43686318e-01 -4.59360629e-01 +1.14226568e+00 +6.98952377e-01 -1.49389729e-01 -1.53184783e+00 -2.21056640e-01 +1.62361658e+00 +4.39553440e-01 +2.02942878e-01 -8.23448062e-01 -7.90720761e-01 -7.12711871e-01 +7.49735177e-01 -3.70973498e-01 +9.18106854e-01 -8.56115744e-02 +5.39630115e-01 +1.40518892e+00 +4.43000138e-01 +2.01605588e-01 -1.27849889e+00 +1.26861227e+00 +4.49899882e-01 +4.40896451e-01 +3.67740154e-01 -5.83648741e-01 -3.79845500e-01 +4.73720461e-01 -1.63459885e+00 +4.07553971e-01 +1.91396952e-01 +1.28785288e+00 +1.07274629e-01 -3.24767679e-02 +1.11334097e+00 -9.65088382e-02 -2.52232909e-01 +1.24530923e+00 +1.33576617e-01 -4.86954868e-01 +1.40811908e+00 -7.46950984e-01 -3.61024380e-01 +1.41216362e+00 +2.21850649e-01 -1.42078328e+00 -1.82320014e-01 +7.27620542e-01 -2.98867315e-01 +2.39653587e-01 -5.08613050e-01 -7.97818840e-01 +4.90820825e-01 -5.79065859e-01 +9.22730565e-02 +1.38252246e+00 -1.30165803e+00 +3.34607452e-01 +7.26945698e-02 -6.82211578e-01 -6.89545333e-01 +4.43447739e-01 -7.24411011e-01 +9.88201499e-02 -1.78177643e+00 +6.35062218e-01 +7.83049941e-01 +1.60706893e-01 -1.51077479e-01 -1.53113395e-01 -9.96146724e-02 +2.60400355e-01 +5.34527600e-01 -4.90656734e-01 -1.33762729e+00 -2.24893972e-01 -1.95211792e+00 -5.74796557e-01 -7.55275905e-01 +1.08964086e+00 +1.82529771e+00 -2.16406614e-01 -4.89331514e-01 +3.66562337e-01 +1.32230771e+00 +7.04509079e-01 -4.56175834e-01 +5.20798028e-01 -2.61492074e-01 -9.05007839e-01 -1.11234176e+00 +7.03866065e-01 -1.93894953e-01 +1.67231667e+00 -9.76117402e-02 -4.31931257e-01 -1.52248710e-01 +1.60495222e+00 -2.06315041e+00 +5.34824491e-01 +2.72978027e-03 +1.14466619e+00 +9.38000858e-01 +3.98074239e-01 -1.17367709e+00 -4.23577636e-01 +1.20296812e+00 +5.13830185e-01 +2.89041042e-01 -1.11009622e+00 -8.35106671e-01 -1.21913230e+00 +7.89676249e-01 -1.06163073e+00 +2.18224272e-01 +6.30214751e-01 -4.14013386e-01 +5.87195933e-01 -1.36667937e-01 +1.25885010e+00 -1.03727591e+00 -3.68052721e-01 -7.39947677e-01 +1.52627885e+00 +8.22152913e-01 -6.82186961e-01 -6.66900754e-01 +3.07232857e-01 -6.54404998e-01 -8.83399487e-01 +1.99972466e-01 +4.11389500e-01 +4.96423155e-01 -9.00488555e-01 +9.03775334e-01 +4.27538455e-01 -1.23107386e+00 +6.64736569e-01 -5.47587931e-01 -6.73970044e-01 -1.31195128e-01 +2.90083438e-01 -1.46366084e+00 +7.79198647e-01 +1.46484479e-01 -1.44817746e+00 -1.14748979e+00 -1.57557074e-02 -9.55566585e-01 -6.62526786e-01 -5.03020823e-01 -4.00412589e-01 +1.41968071e+00 -6.80844843e-01 +1.82944268e-01 +1.01693940e+00 -7.84727708e-02 -2.28284508e-01 -1.27053082e+00 -1.10902667e+00 -2.75730908e-01 +6.91615045e-01 -3.14839333e-01 +5.99045098e-01 +7.07283556e-01 +5.84086537e-01 -8.96023035e-01 -3.87746185e-01 +2.28975430e-01 +7.83267975e-01 +3.69551659e-01 +7.13406861e-01 +5.36654770e-01 +6.06503248e-01 -5.84711671e-01 +6.50589705e-01 +5.42025983e-01 +1.28573790e-01 -8.27647969e-02 -9.37556982e-01 +3.10423560e-02 +1.75683647e-01 -2.55205303e-01 +3.64630252e-01 +8.88546944e-01 +4.35569346e-01 +4.36425149e-01 +9.09403563e-01 -3.53193700e-01 +7.01618254e-01 -3.55286419e-01 -5.10468222e-02 -5.30060530e-01 -1.08101976e+00 +1.34623557e-01 -5.82587486e-03 -5.90627730e-01 +2.50518352e-01 +4.36516464e-01 -8.04651260e-01 -3.19942266e-01 -1.05292869e+00 +3.68859559e-01 +1.78108394e-01 +9.34946761e-02 -3.80647063e-01 +4.13649887e-01 -9.56731588e-02 -2.18761578e-01 +6.29026413e-01 -3.89077067e-01 -1.01772773e+00 -6.59289598e-01 -7.83090949e-01 -8.05759192e-01 -1.65043700e+00 -3.53293657e-01 +7.69060016e-01 -6.19523488e-02 -6.35918617e-01 +2.64450669e-01 -3.07102054e-01 -2.13813156e-01 +1.63422078e-01 +2.62889117e-01 -5.02390087e-01 -2.13634402e-01 -1.72167525e-01 +6.54552698e-01 -1.15294278e+00 +5.43339290e-02 +1.05462633e-01 +8.16659570e-01 -2.03659341e-01 -1.73479635e-02 -6.66293323e-01 +1.22808921e+00 +7.48832703e-01 -6.31752908e-01 -7.01420963e-01 +3.33325341e-02 -3.57118249e-01 -2.10170358e-01 +4.48018342e-01 -2.24290028e-01 -9.45263132e-02 -8.97404850e-01 -3.53829384e-01 -8.36526006e-02 -1.37427643e-01 +9.28026557e-01 -4.18236643e-01 -1.31321359e+00 -9.34124947e-01 +2.74577886e-01 -9.09943283e-01 -5.99227071e-01 -3.41112435e-01 +2.92677224e-01 -7.47204661e-01 -6.84908807e-01 -1.65735912e+00 -6.69745058e-02 -1.20123041e+00 -9.98571992e-01 +1.48305941e+00 -1.41023910e+00 -3.12854201e-01 -2.28469759e-01 -3.82850438e-01 -6.91001177e-01 -1.16691315e+00 -2.36207679e-01 -5.03069043e-01 -6.27108932e-01 +1.16772771e+00 -3.80416036e-01 +4.71949011e-01 +8.37151349e-01 -1.96646976e+00 -5.98838508e-01 -5.04755676e-02 -9.34117019e-01 +2.42569059e-01 -1.62918723e+00 -6.54023647e-01 -6.07416332e-01 +5.92873916e-02 -6.06686711e-01 -1.60796928e+00 +2.64948100e-01 -7.99899936e-01 -1.65744770e+00 -1.02616930e+00 -2.38721713e-01 -9.44261193e-01 -6.93341076e-01 -4.81359094e-01 -1.63298056e-01 -1.42179155e+00 -1.54020071e+00 -1.61862409e+00 -6.19448900e-01 +3.89405280e-01 -3.81514728e-01 +3.28538492e-02 -5.57024121e-01 -4.95414019e-01 -2.10468262e-01 -7.24294007e-01 -9.90926921e-01 -9.25413191e-01 -2.83010572e-01 -1.11332214e+00 -1.76236272e-01 +9.22586143e-01 -1.39409065e+00 -3.16958100e-01 -6.51298642e-01 -1.59774646e-01 -3.79315019e-01 -1.59371424e+00 -9.99606311e-01 -1.29121387e+00 +1.53112784e-01 -2.01207185e+00 -1.05411673e+00 +1.01525843e+00 -1.57508814e+00 -4.55589443e-01 -7.96870291e-01 +2.90049106e-01 -5.87608695e-01 -1.00451612e+00 -6.85041010e-01 -8.24588180e-01 -2.09445849e-01 -6.00563705e-01 -9.09549415e-01 +5.42423189e-01 -7.72270679e-01 +6.91773951e-01 -1.44386482e+00 -9.21554983e-01 -2.33822823e-01 -2.28981689e-01 -1.19119692e+00 -1.52434564e+00 -2.81327039e-01 -7.44536757e-01 -1.19150591e+00 -3.67440939e-01 -1.56586695e+00 +1.07759960e-01 -1.03789175e+00 -2.05710426e-01 -2.10819101e+00 -9.64114726e-01 -1.63104713e+00 -6.05516791e-01 +4.05660570e-01 +4.71146494e-01 -1.42195451e+00 +4.85089540e-01 -1.81451902e-01 -1.27486610e+00 +3.55351537e-01 -4.70502317e-01 +3.03884238e-01 -4.72032040e-01 +7.48022735e-01 +1.05857062e+00 -7.38260984e-01 +6.39706671e-01 -3.67403150e-01 +9.69595850e-01 -1.97939262e-01 -1.20768063e-01 +5.12529790e-01 -4.53136981e-01 +2.59590209e-01 +1.22384615e-01 +6.02320373e-01 +4.70007449e-01 -4.80475277e-01 +3.76380861e-01 +8.68374228e-01 -1.90355217e+00 +1.41087246e+00 -4.64454055e-01 -4.15207505e-01 -1.08758914e+00 +7.93410689e-02 +3.35257739e-01 -6.81928873e-01 -5.32906875e-03 -1.04487807e-01 -1.67856887e-01 -3.75698686e-01 +3.01881671e-01 +1.06851459e-01 +4.82542753e-01 -1.92352784e+00 -9.17705059e-01 -4.20615524e-02 -5.70458591e-01 +1.80681527e-01 -9.36831236e-02 -2.00671613e-01 -6.85392618e-01 -2.05184758e-01 -4.24608409e-01 +6.65802956e-01 +5.99071523e-03 -4.86142278e-01 +8.54808092e-01 -1.37495100e+00 -9.42054749e-01 +1.26173973e-01 +1.12142444e+00 -1.14957666e+00 -1.11345375e+00 -1.21734250e+00 -7.66645074e-01 -1.06700599e-01 -2.61711836e+00 -2.34175012e-01 -8.68096828e-01 -5.42300045e-02 -9.29146171e-01 -7.02990532e-01 +1.40407050e+00 +4.28722709e-01 -9.48273897e-01 +9.16035950e-01 +2.16819316e-01 -1.13255858e+00 +9.14303362e-01 -1.82459438e+00 -1.55980551e+00 -5.31293154e-01 +4.16829824e-01 +1.40988022e-01 +8.98909032e-01 -7.83084333e-01 +4.43746485e-02 -2.33641893e-01 +4.90698338e-01 +6.80127084e-01 -4.14214045e-01 +2.19072178e-01 -4.86487329e-01 +8.56811702e-01 +2.70143077e-02 +5.08626141e-02 -1.35122693e+00 -9.94242206e-02 -3.03326219e-01 -1.35871613e+00 +4.90256459e-01 +5.81706092e-02 -9.54172850e-01 -1.05728149e+00 -2.94056535e-03 +3.03384699e-02 -1.18201578e+00 -2.85871565e-01 -1.41194448e-01 -3.76991510e-01 -4.54782784e-01 +3.86538297e-01 +3.41255009e-01 -1.01951933e+00 -2.43925154e-02 -1.28496900e-01 +1.70815396e+00 -3.11273664e-01 +7.74228394e-01 +3.46357495e-01 +5.59061170e-01 -3.79209459e-01 -8.24759826e-02 -1.18968450e-01 +3.01454775e-02 -1.48303509e+00 +2.21679047e-01 -7.18349636e-01 -7.09899783e-01 +4.31072146e-01 -1.04767311e+00 +2.28542909e-01 -1.32219374e-01 -2.19135284e-01 +5.55586874e-01 -1.42481923e+00 -7.37191856e-01 +6.35956153e-02 +6.43653214e-01 -6.18073523e-01 -1.73916921e-01 +2.21541375e-01 +1.49050727e-01 -9.98816252e-01 +5.06448865e-01 +2.01999828e-01 +5.73192060e-01 -5.30678146e-02 -3.81339967e-01 +1.74954891e-01 -1.49878907e+00 -8.31639528e-01 -1.15206353e-01 +1.23924601e+00 -2.25823000e-01 -9.01168942e-01 +6.35382652e-01 -7.99303651e-01 -7.33632147e-01 -1.33295417e-01 +5.56695342e-01 -9.22185123e-01 +2.72264928e-01 -6.48257375e-01 -1.02594471e+00 -4.52977717e-01 -1.03975868e+00 -1.34031570e+00 +4.19183075e-01 -1.13619268e+00 -6.79040372e-01 -5.49003184e-01 -2.98558503e-01 +1.40300310e+00 -7.39067018e-01 -7.33715594e-01 +3.64446074e-01 -7.72788763e-01 +3.86422515e-01 -2.35850573e+00 -4.33567286e-01 -6.36404514e-01 -1.88983202e-01 -1.70713037e-01 +8.04749966e-01 -5.44653416e-01 -7.73783550e-02 -7.72038877e-01 +4.24842000e-01 +3.08275670e-01 -7.42362022e-01 -5.39503753e-01 -6.05270624e-01 +9.72064197e-01 +2.79526114e-01 -2.88278937e-01 -8.38521421e-01 -6.35047734e-01 -2.81866729e-01 -6.80737078e-01 +6.71331108e-01 +9.82265696e-02 -6.23308420e-01 -7.76447356e-02 -1.83736254e-02 -4.00772482e-01 -5.15218854e-01 -6.79074883e-01 -9.73501563e-01 -1.62429118e+00 -3.15426171e-01 +4.58246432e-02 +5.29650092e-01 -9.25991833e-01 +6.58600688e-01 -3.71829085e-02 +2.21783996e+00 -5.28262258e-01 +2.64117926e-01 -1.05391037e+00 +9.10334468e-01 +3.00225019e-01 +2.73223162e-01 +1.72678098e-01 -1.01736701e+00 -3.37290764e-01 +8.68770778e-01 +8.44276920e-02 +3.26134980e-01 -1.88452438e-01 -4.40924317e-01 +2.82369137e-01 +3.73930305e-01 +1.14988629e-02 +3.03617060e-01 +9.44636941e-01 -2.71796167e-01 +1.63931083e-02 -5.28584599e-01 -6.89207315e-01 +1.27724752e-01 -8.05923104e-01 -4.11869317e-01 +1.47821093e+00 +9.20459449e-01 -1.19343555e+00 -1.60960719e-01 -2.12427542e-01 +9.28084016e-01 -2.45636716e-01 -1.89876094e-01 +7.69056007e-02 -1.27837323e-02 -2.61840336e-02 -7.39465535e-01 +2.93368697e-01 +8.89159381e-01 -1.27075389e-01 -8.58041823e-01 -1.30732968e-01 -4.83088911e-01 -2.82792419e-01 -7.85931230e-01 -9.09647644e-01 +4.21585560e-01 -1.15782666e+00 -3.89316231e-01 +2.33041674e-01 -8.47236812e-01 -5.79805911e-01 -1.74825236e-01 +4.58838642e-01 -1.77066520e-01 +2.98629910e-01 -2.77248293e-01 +7.75095522e-01 -6.57419860e-01 -2.02679783e-01 +2.27718145e-01 +4.82379079e-01 -1.00838728e-01 +4.00679670e-02 +1.02549303e+00 -1.09627450e+00 +2.58481115e-01 +3.82624209e-01 +1.45605728e-01 +5.56283176e-01 +9.49700117e-01 -6.15016073e-02 +9.49958116e-02 +3.52408886e-01 +1.51183113e-01 -7.77156651e-01 +9.41126049e-01 -6.69283688e-01 -8.70006561e-01 +1.49544731e-01 -5.17619729e-01 +4.50720102e-01 +2.96419322e-01 -1.47983074e-01 +5.03322542e-01 +3.30368668e-01 +2.77705360e-02 -8.73320848e-02 +1.79431647e-01 -8.49289298e-02 +1.80301595e+00 +8.31157267e-01 -1.18073726e+00 -7.67032430e-02 +2.07869220e+00 -1.26749206e+00 -3.53300482e-01 -2.21437335e-01 +1.59825772e-01 +1.70080662e-01 +1.25336945e+00 +6.12177312e-01 -8.54025364e-01 -2.19689056e-01 +8.90822530e-01 -2.88082242e-01 -3.05402582e-03 -9.77250457e-01 +6.90227747e-01 -2.39107162e-01 -1.16251361e+00 +3.43475282e-01 -5.56013763e-01 -4.36119795e-01 +1.88505962e-01 +1.65933907e-01 +6.49749860e-02 -1.17948437e+00 +1.50428891e+00 +3.16699669e-02 -2.54480511e-01 -4.43731368e-01 +3.10903281e-01 +1.94552511e-01 -3.19609761e-01 -1.18372416e+00 +1.20572639e+00 -8.00222516e-01 -5.90950012e-01 -8.82400692e-01 +6.31246626e-01 -6.71335697e-01 +7.70846307e-01 -2.29797989e-01 +1.72501326e-01 +1.20204246e+00 +1.56550944e+00 -3.49975884e-01 +1.90090090e-01 -2.71443516e-01 -7.59467781e-01 +5.71362495e-01 +1.26755789e-01 -5.03875613e-01 -5.36331594e-01 -6.57425940e-01 -8.54870453e-02 -7.14622796e-01 -2.97543555e-01 -6.73471212e-01 -3.01357210e-01 +1.26194167e+00 +2.55045623e-01 -9.07753289e-01 -5.80163658e-01 -2.40618363e-01 -8.59619796e-01 -8.15329134e-01 -5.25472648e-02 +5.18559873e-01 +4.89330053e-01 +1.37047982e+00 -1.01657367e+00 -1.04198265e+00 -9.85560954e-01 -3.71590257e-01 +3.66209596e-01 -2.33323812e-01 +1.63219213e-01 -9.49318290e-01 +1.58317417e-01 -9.49299872e-01 -1.78611279e-01 -3.50529820e-01 -1.02847433e+00 -9.69122052e-01 -2.02394080e+00 -2.14896291e-01 -3.84241313e-01 -5.96059382e-01 -1.10654807e+00 +1.68305606e-01 -6.94492936e-01 +1.31476328e-01 -7.12564647e-01 -1.12856841e+00 -1.60542202e+00 -7.49502957e-01 +9.58923623e-02 +4.57554638e-01 +3.40716401e-03 +5.02418518e-01 -2.31860429e-01 -1.01432776e+00 -2.59712648e+00 -2.78189391e-01 -9.25538719e-01 -3.63178372e-01 -1.33491945e+00 +1.62995481e+00 -8.10781062e-01 +7.31582865e-02 +1.67612851e-01 +2.67579615e-01 +1.99399352e-01 +1.11647516e-01 +8.86720419e-01 -2.83919517e-02 +1.12008250e+00 -1.17338978e-01 +1.04893982e+00 +1.05335368e-02 -2.57300347e-01 +1.29176661e-01 +6.25111341e-01 -6.83499694e-01 -1.74978340e+00 +2.42273986e-01 +9.14301276e-01 -4.28438067e-01 -8.69241774e-01 +4.22795206e-01 -8.32908332e-01 -6.92469895e-01 -2.65013218e-01 -2.26899356e-01 -2.62681507e-02 -1.67361349e-01 +8.60622525e-02 -1.07225060e+00 -5.63875735e-01 -1.49753940e+00 -4.61039394e-01 +2.81662881e-01 -6.80770993e-01 -1.01459360e+00 +1.25387323e+00 -1.16768673e-01 -6.18335187e-01 +9.96029019e-01 -6.89596295e-01 -2.71205217e-01 -6.16896987e-01 -6.18863523e-01 -6.58258677e-01 -1.92846447e-01 -2.30971098e-01 +4.75575954e-01 +2.64714025e-02 -6.71147928e-03 +3.78009647e-01 +7.85708427e-01 -3.17627907e-01 -4.48291600e-01 +1.25039244e+00 -6.45095170e-01 +5.51390529e-01 +6.83094084e-01 -8.44124198e-01 +5.00923932e-01 -5.36019981e-01 -7.39929318e-01 +9.75742877e-01 +2.03340292e+00 +1.42166644e-01 +3.69869351e-01 +2.39252996e+00 -7.89002717e-01 +2.70237744e-01 -9.90571320e-01 -6.79735005e-01 +4.13298488e-01 +6.95452213e-01 -1.20223475e+00 -4.33148962e-04 -1.37007773e+00 +2.85756975e-01 +1.31459922e-01 +6.94405735e-01 +1.06823146e+00 -5.38741231e-01 +1.67434111e-01 +2.28777498e-01 -4.03817385e-01 +3.72399241e-01 -1.64530665e-01 -4.09725308e-01 +8.66155140e-03 +5.21342039e-01 -3.72261703e-01 +1.52955437e+00 +8.09683979e-01 -1.06275666e+00 -2.81152695e-01 +5.57551496e-02 -4.93716717e-01 -1.18264347e-01 -4.67914313e-01 -5.79584539e-01 +1.53814673e+00 +2.27861643e-01 -2.95289695e-01 +9.95980263e-01 +4.16200519e-01 +5.02742887e-01 -7.34070420e-01 +5.04766524e-01 -4.84727919e-01 +4.88382876e-01 -4.03447926e-01 -3.84975404e-01 -5.16472757e-01 -3.52291197e-01 +2.40250051e-01 +3.82714510e-01 +7.39409029e-01 -1.99514687e+00 -4.13258225e-01 +1.43511891e+00 +2.60499250e-02 -6.27200007e-01 +1.65700257e-01 -1.78804696e-01 -1.63048923e-01 -3.18929017e-01 -9.49355245e-01 +7.23808527e-01 -1.24062799e-01 -3.51637274e-01 