#Parameter# /vanilla-lstm-builder/_0 {400,35} 224001 ZERO_GRAD
-4.10304479e-02 -1.49896974e-02 -7.44903982e-02 -1.03608161e-01 -1.81701437e-01 +2.07209159e-02 +4.38645110e-02 +1.49391647e-02 +5.91488481e-02 -1.75523639e-01 +3.54218371e-02 +7.96672925e-02 +8.01922232e-02 -4.00265269e-02 -1.02324113e-01 -8.97289533e-03 -1.25984728e-01 -2.04850622e-02 -9.46461931e-02 +5.12394905e-02 -1.36197403e-01 +9.24560800e-02 -8.15124810e-02 +2.50804871e-02 -1.65636212e-01 -3.10955476e-02 +9.98664647e-02 -1.48976212e-02 -1.62331939e-01 -1.44901395e-01 +2.11878829e-02 +5.74494451e-02 -1.66961297e-01 +7.72192106e-02 +1.02499379e-02 -9.56461132e-02 -1.54897794e-01 -1.93429604e-01 -6.41522706e-02 -2.22867250e-01 -8.42108205e-02 -1.26591951e-01 -1.07657939e-01 -1.16795555e-01 -1.57885686e-01 -2.03857403e-02 -1.53174222e-01 +6.30684346e-02 -8.99778455e-02 +9.90560353e-02 +1.47948608e-01 +4.11155373e-02 -8.89046565e-02 -3.47242802e-02 -1.47489726e-03 -1.19937748e-01 +1.95852116e-01 -2.62753874e-01 -4.09441739e-02 +3.20335403e-02 +4.20647599e-02 -2.02202246e-01 -5.29464334e-02 -2.95497179e-01 +1.56117484e-01 +3.24483328e-02 -2.80234404e-02 -9.04368311e-02 -1.02878675e-01 -1.62276745e-01 -1.28101110e-01 -7.85611048e-02 -1.22183086e-02 +4.79090624e-02 -1.04161747e-01 +8.28147531e-02 -6.58190027e-02 +1.21007666e-01 +8.65996480e-02 -1.13634847e-01 -1.38438955e-01 +1.00640818e-01 +1.70911148e-01 -1.47712573e-01 -1.86403438e-01 -1.57033280e-01 +8.15044623e-03 -2.18149707e-01 +6.74004480e-02 -6.37128800e-02 -9.25700739e-02 +2.60541856e-01 -4.07682508e-02 -1.57034546e-01 -1.00716248e-01 +1.06276467e-01 -1.09194838e-01 +2.21653879e-02 +9.75831077e-02 -8.91358629e-02 -7.78774172e-03 +1.01457857e-01 -3.60992029e-02 +1.63432471e-02 -2.19221935e-02 -1.43670261e-01 +6.72666207e-02 -2.08824858e-01 +8.15667585e-02 -5.11731319e-02 +2.31894162e-02 +2.06410997e-02 -9.74880233e-02 -6.16343394e-02 +1.86888576e-02 -1.06093874e-02 +1.74082354e-01 -3.56496759e-02 -1.17029240e-02 -2.94922832e-02 +1.20973006e-01 -2.29054868e-01 -1.49405763e-01 -4.69231186e-03 +5.17293476e-02 +7.24051446e-02 +8.73442218e-02 +7.02810511e-02 -1.48531899e-01 -5.85957281e-02 +2.94031128e-02 -1.90572411e-01 -1.31698817e-01 -1.05811462e-01 +1.39550641e-01 +1.08131953e-01 -2.25545205e-02 -3.64214405e-02 -1.30672380e-01 -1.75968423e-01 -7.24652596e-03 -9.97139886e-02 -4.75984551e-02 -1.56201243e-01 -2.47881517e-01 -6.74576834e-02 -6.68726116e-02 +3.33681554e-02 +1.48086414e-01 +8.50986838e-02 +7.71071315e-02 +1.15758153e-02 -1.11043856e-01 -1.83974355e-02 +3.37309241e-02 +2.59362552e-02 +9.20891762e-02 -1.96711540e-01 -1.29532412e-01 -9.85462870e-03 +4.92094569e-02 -2.38468617e-01 +2.85045207e-02 -1.45352840e-01 +3.69915739e-02 -7.83306584e-02 +1.87751558e-02 -1.17164060e-01 +5.44658192e-02 -1.06839366e-01 -1.11540727e-01 -1.35538438e-02 -8.62704441e-02 +2.26341933e-01 -1.81874633e-01 -8.55969712e-02 +6.97021373e-03 -3.48052271e-02 -3.46358120e-02 +6.14430895e-03 +2.60955915e-02 -6.49043024e-02 +9.20688882e-02 -2.08232552e-01 -2.73139328e-01 -1.51189640e-01 +1.94972567e-03 -6.99263737e-02 +3.28328311e-02 +5.94822951e-02 -1.71397813e-02 +9.62022766e-02 +1.05980158e-01 -1.29496723e-01 -1.08341694e-01 -1.25838621e-02 -9.49644670e-02 -2.25940589e-02 +4.07138169e-02 +7.83059821e-02 -1.63355112e-01 +2.96364725e-02 -7.21174628e-02 -1.75790891e-01 +6.62595849e-04 -6.81440756e-02 +3.44034843e-02 -4.50262092e-02 +7.24498555e-02 -1.86276838e-01 +1.59066573e-01 -1.10122964e-01 -6.00563250e-02 +4.11041193e-02 -1.23151973e-01 -2.42316246e-01 -4.98876162e-02 +1.33421153e-01 -3.96017097e-02 -9.40158740e-02 -2.47099072e-01 -1.14748642e-01 +1.13894626e-01 -7.41655752e-02 -1.87878966e-01 -1.82921603e-01 -3.84642248e-04 +6.66343793e-02 -1.13120601e-01 -1.85857117e-01 -6.39506441e-04 -1.60388499e-01 -1.92950845e-01 -6.84394613e-02 -3.81290540e-02 -8.45573843e-02 -1.83608994e-01 -6.37999773e-02 -9.19921026e-02 -2.84848541e-01 +1.83643147e-01 -1.11003317e-01 -2.43667886e-01 -1.34564117e-01 -4.36009951e-02 -7.43199959e-02 -1.70782983e-01 +7.40324035e-02 +9.48681906e-02 +1.20497206e-02 +2.55367130e-01 +3.97141166e-02 -3.90089341e-02 -4.71183062e-02 -7.29122832e-02 -2.75404751e-01 +1.30568385e-01 -1.40168399e-01 -1.69784278e-01 +1.29783064e-01 -1.75906196e-01 -2.19635636e-01 +4.37317267e-02 -3.89339596e-01 -2.31979877e-01 -1.61858186e-01 -8.11518915e-03 -4.70457338e-02 -7.45391622e-02 -3.04935217e-01 -1.02057464e-01 +1.20011652e-02 -2.25922823e-01 +1.61753714e-01 -3.23136359e-01 -1.64542094e-01 -9.75121111e-02 -2.37907693e-02 -1.89138636e-01 +4.39347625e-02 -1.38152570e-01 -1.58636168e-01 +5.10945916e-02 -8.66482481e-02 -5.85019812e-02 -8.10246393e-02 +7.34555125e-02 +2.84359176e-02 +8.12255889e-02 -6.30177483e-02 -1.05015293e-01 -1.06993340e-01 +2.62093306e-01 -2.80313939e-01 -5.96031435e-02 +3.43874358e-02 -5.22821248e-02 -1.11557476e-01 +7.21019134e-02 +1.22833952e-01 -8.25011060e-02 -1.79681659e-01 +2.59319935e-02 -1.60871252e-01 -6.66052401e-02 -1.25202630e-02 +4.74573746e-02 -7.24181309e-02 +1.10923506e-01 -1.39892012e-01 +6.52217567e-02 -4.60031480e-02 -7.06727281e-02 +8.43798555e-03 -1.42817363e-01 -7.95682669e-02 -3.36457193e-02 -2.35434957e-02 -9.72195342e-02 +1.65376425e-01 +2.10183393e-02 +1.16237722e-01 -7.59217069e-02 +1.56819355e-02 -2.54143905e-02 +5.18314391e-02 -1.16735548e-01 +8.84340033e-02 +4.05757129e-03 +8.23063552e-02 -5.27434275e-02 +2.04434857e-01 -3.96473259e-02 -2.18487948e-01 -1.62983194e-01 +9.26406384e-02 -1.30887479e-01 +9.06184986e-02 +8.04978888e-03 -2.57924106e-03 -7.44353309e-02 +3.57566588e-02 -3.03224772e-02 +4.48426865e-02 -1.39013693e-01 +2.86989100e-02 -7.55245462e-02 -1.06645972e-01 -4.92279083e-02 -2.18902472e-02 -2.01624781e-01 -1.67365402e-01 -2.07218841e-01 +7.88697749e-02 -4.19288799e-02 +5.51448651e-02 +1.20738536e-01 -4.01512235e-02 +8.48190021e-03 -8.83593857e-02 -6.30258918e-02 -1.17618538e-01 -6.41458333e-02 +1.80201400e-02 +2.46883079e-01 -1.07213331e-03 -1.65515497e-01 +4.31518815e-02 +6.72785640e-02 -1.13542952e-01 +1.59355342e-01 +9.83748659e-02 +9.10339728e-02 +6.51059151e-02 -7.40437731e-02 +8.45893845e-02 +2.18792763e-02 -1.27967447e-01 -1.54180393e-01 -5.48534468e-02 -1.24221563e-01 -1.50772393e-01 +1.07612282e-01 +1.59986690e-01 -8.81815851e-02 -1.31110847e-01 +6.61774725e-02 +6.13454729e-02 +1.53150931e-01 -6.93037137e-02 +4.15014140e-02 -1.63366303e-01 +7.30075091e-02 -3.20365727e-02 +7.20028430e-02 -1.16324462e-01 -7.41001964e-02 +2.12436616e-02 +7.44412020e-02 +1.28640920e-01 -1.36932358e-01 -1.12447113e-01 +9.78050157e-02 -1.41648367e-01 -2.56399333e-01 +3.51499654e-02 -1.77798748e-01 +1.13190413e-02 -5.47464862e-02 -3.26197706e-02 -5.62550966e-03 -1.25746876e-01 -1.45903036e-01 -2.36627951e-01 -2.41558671e-01 -4.75432537e-02 -1.96339432e-02 -8.14604014e-02 +1.73389092e-02 -3.35386336e-01 -2.29506448e-01 -1.31002098e-01 -1.44474268e-01 -1.80430293e-01 -7.57611245e-02 -7.32662529e-02 -2.30475396e-01 -3.05447847e-01 -1.61425009e-01 -2.07849443e-01 -9.80107635e-02 -4.93598357e-02 -1.80374771e-01 +4.96152937e-02 -4.91021462e-02 -1.68748274e-01 -7.65943006e-02 -9.28616822e-02 -3.42356920e-01 -5.80579713e-02 -2.30501577e-01 -5.47307506e-02 -2.52138287e-01 -8.02584738e-02 -1.47667095e-01 +3.65024060e-02 +4.39820858e-03 -1.95971519e-01 -1.41174436e-01 -1.69598594e-01 +3.18464004e-02 -1.83271706e-01 -2.56637007e-01 +1.28245503e-02 -1.17056079e-01 -5.62732145e-02 -3.16016793e-01 -1.24949932e-01 -1.33193821e-01 -2.44858056e-01 -2.38185227e-01 -7.39042908e-02 -1.13455974e-01 -7.75846913e-02 +2.85222717e-02 -2.74110168e-01 -7.83389956e-02 -1.93144441e-01 +1.29662035e-02 -5.85354380e-02 -2.79991060e-01 -1.16592258e-01 -1.47307411e-01 -5.49776778e-02 -2.24534690e-01 +1.38874501e-01 +1.91734415e-02 +8.76203030e-02 -1.27267376e-01 -9.24917907e-02 -2.03780994e-01 -2.57854730e-01 -1.91021144e-01 +1.95610542e-02 -5.22171482e-02 +6.87170178e-02 -3.52842337e-03 -2.24042028e-01 -1.10386826e-01 -3.64786685e-01 -2.55656064e-01 -1.27849728e-01 -4.89104688e-01 -1.14233479e-01 +2.39574369e-02 -2.64891744e-01 -2.32528895e-01 -1.30275369e-01 +3.23760859e-03 -2.56954879e-01 +2.24361476e-02 -4.76632221e-03 +1.44858837e-01 -1.28948435e-01 -4.10307571e-02 +1.21039741e-01 +1.01233125e-01 +9.68215521e-03 -1.65533870e-01 +1.53549537e-01 +1.39079913e-01 -5.49687131e-04 -2.89472956e-02 +2.42672060e-02 -6.73081130e-02 -2.33734455e-02 +7.72812515e-02 -1.83297709e-01 -1.10263273e-01 -9.15031806e-02 -3.20107080e-02 -1.70121416e-01 -6.62584454e-02 -1.50543436e-01 +1.53818816e-01 +3.93498130e-02 +3.63967605e-02 -1.24826610e-01 -2.53691077e-01 -6.69206008e-02 +4.28320933e-03 +1.20843776e-01 +1.30921632e-01 +4.80701812e-02 +2.22945854e-01 -6.22989200e-02 +1.56347007e-01 -6.80716559e-02 -1.19378567e-02 +3.95726115e-02 +9.61819664e-03 +8.66345987e-02 -6.23050630e-02 -1.15518339e-01 +2.61976831e-02 -7.78531581e-02 +7.90915713e-02 -2.37971961e-01 -6.89892322e-02 -2.28516906e-01 -4.65553859e-03 -1.38726775e-02 -5.38192727e-02 +1.32289678e-01 +1.00001916e-01 +2.22695339e-02 -1.05352834e-01 -7.79892579e-02 -1.38419017e-01 +1.07385412e-01 -1.54440105e-01 -9.94752720e-02 +1.12815790e-01 -3.21019255e-02 -9.91032366e-03 -2.49548510e-01 -1.35941178e-01 -8.78075436e-02 -5.10765589e-04 -1.28000632e-01 -2.37996485e-02 -4.63724658e-02 +1.94246117e-02 -4.95506674e-02 -1.70625485e-02 +6.42948672e-02 +1.02022275e-01 +1.99684128e-02 -1.75568789e-01 -9.54535045e-03 +6.90787882e-02 -3.33781838e-02 +7.35239908e-02 -4.32343706e-02 +9.15905461e-02 +8.70824605e-02 +1.65690660e-01 -5.15776277e-02 +1.01390876e-01 -1.18737556e-01 +3.88803743e-02 +2.85203150e-03 -6.36856928e-02 -1.91952676e-01 +1.85931340e-01 +7.07771629e-02 -1.66742459e-01 -1.26474472e-02 +3.33902054e-02 -2.00414196e-01 -7.99949244e-02 -2.21956745e-01 -8.56410116e-02 -2.07291633e-01 -2.59565115e-02 -1.93741485e-01 -2.15017468e-01 +1.17349759e-01 -1.50630459e-01 -1.24739120e-02 -3.82852368e-02 -1.43149108e-01 -7.47365654e-02 -1.09657869e-01 -2.25132257e-01 -5.31186871e-02 -1.69750497e-01 -7.12137148e-02 -4.15382013e-02 -2.28645369e-01 +4.40516844e-02 -1.85890317e-01 -1.74161568e-01 -1.21760271e-01 +1.51837133e-02 +7.54912868e-02 -1.62076831e-01 -2.17255548e-01 -7.44751692e-02 -2.45100573e-01 -1.14244716e-02 +3.93825062e-02 +1.38891749e-02 -6.06207177e-02 -8.35071951e-02 -1.26244947e-01 -2.09524125e-01 -2.59714812e-01 -2.15136856e-01 -6.07757941e-02 -1.38410494e-01 -1.20819524e-01 -6.33265376e-02 +9.02641863e-02 -1.37538075e-01 -1.50597468e-01 +5.76326400e-02 -2.40481973e-01 -1.68738328e-02 +6.17219135e-02 -8.76265839e-02 +7.25217834e-02 -1.57663360e-01 +1.19219288e-01 -9.01245177e-02 -9.72583890e-02 -2.06962824e-01 +2.92185675e-02 -1.20197885e-01 -9.89552811e-02 -1.36368111e-01 -1.78721562e-01 -7.06381872e-02 -2.46518895e-01 +1.00113705e-01 -2.37022743e-01 -2.46117547e-01 -1.37178808e-01 -1.92292817e-02 -2.03302532e-01 -1.82626158e-01 -1.95703022e-02 -1.25881419e-01 +1.30714938e-01 -7.55452439e-02 -7.60435835e-02 -6.77647674e-03 -7.38927349e-02 -5.66917397e-02 +9.03711542e-02 +1.17536619e-01 -1.76070362e-01 +9.56398398e-02 -8.55129957e-02 -6.27441630e-02 -2.05140531e-01 +4.92289439e-02 -2.03796655e-01 -3.18299025e-01 -1.63106352e-01 +3.30587588e-02 -1.22662984e-01 +1.46373570e-01 -3.09869468e-01 -9.16543454e-02 +3.38717103e-02 -2.41653398e-01 -7.05218390e-02 -1.55129805e-01 -2.21062712e-02 -9.63187888e-02 +9.96647403e-02 -8.42908621e-02 -6.33357018e-02 +2.29452942e-02 -2.00124025e-01 -4.82070521e-02 -1.03356704e-01 +4.43225428e-02 +1.59691334e-01 +1.35449171e-02 +1.84925705e-01 +1.89044341e-01 -8.00126940e-02 -2.86038257e-02 -1.04926974e-01 -1.84654459e-01 -1.19269378e-01 -1.70781761e-02 +2.30006296e-02 -4.20761146e-02 -9.42749381e-02 -6.92008287e-02 -1.15131713e-01 +8.46255496e-02 +2.39543933e-02 -3.59115824e-02 +1.48979165e-02 +1.10199220e-01 -1.29741713e-01 +5.06336540e-02 -1.68781102e-01 -3.79308388e-02 +1.23200789e-01 -9.10801999e-03 -1.67423025e-01 +2.48669516e-02 -5.20941913e-02 -1.49000268e-02 -1.14775941e-01 +3.66533659e-02 -9.93487686e-02 +3.74108665e-02 +1.29072905e-01 +1.61177833e-02 +4.95249555e-02 -1.39778303e-02 -5.39664216e-02 -1.08376473e-01 +2.57593896e-02 +1.90663427e-01 +1.96912244e-01 -4.56089638e-02 -1.24656707e-01 +3.19984704e-02 -3.02021448e-02 +4.07645702e-02 -4.89672134e-03 +3.39433998e-02 +4.32195030e-02 -1.02906808e-01 -6.12513646e-02 -1.87377892e-02 +5.67844659e-02 +1.08170651e-01 +6.80787116e-02 +1.30112410e-01 -1.36672735e-01 -1.67136416e-01 +7.11120963e-02 +2.15631891e-02 -1.56993449e-01 -1.03876419e-01 +1.93338562e-02 -3.76522690e-02 +1.21190317e-01 -1.05246246e-01 +1.94327563e-01 -1.71148092e-01 -1.06534965e-01 +9.63293985e-02 +8.92834589e-02 -9.11661312e-02 -1.48316044e-02 -1.00383691e-01 +1.62318051e-01 -4.76743318e-02 -1.50784045e-01 -1.18382439e-01 +6.63297847e-02 +6.22706152e-02 +4.84388657e-02 +4.55494970e-02 +1.13112223e-03 -2.62181945e-02 +3.97960059e-02 +4.74008285e-02 -1.91813752e-01 -9.14389864e-02 -7.64526725e-02 -1.16242886e-01 +5.30659966e-02 +9.23953652e-02 -1.22101605e-01 -1.19159326e-01 -2.80414540e-02 -2.22045705e-01 -3.12534086e-02 -5.47914207e-01 -1.95097819e-01 -1.65591642e-01 -1.78527668e-01 -2.16510698e-01 -3.04701596e-01 -1.46651044e-02 -9.94871333e-02 -1.46607041e-01 -1.80122256e-01 -2.02499107e-01 -4.06585261e-02 -9.86791681e-04 -1.98996469e-01 -2.07647830e-02 -5.55998385e-02 +1.37037069e-01 -2.98062295e-01 +2.18203105e-02 -2.52690345e-01 -3.06252748e-01 -1.08695187e-01 -1.85415000e-01 -2.21568361e-01 -2.52624997e-03 +7.59688765e-02 +6.37101606e-02 -1.79840297e-01 -1.19146504e-01 -9.86878946e-02 -1.42880797e-01 +2.37535253e-01 -3.16069543e-01 -1.12426721e-01 -2.37102017e-01 -1.10421337e-01 -4.69129421e-02 -1.21000230e-01 -1.09750263e-01 -2.15124696e-01 -1.11832067e-01 -1.50794238e-01 -1.66160539e-01 -7.49365464e-02 -1.83477923e-02 -1.14706330e-01 +1.31510273e-01 +1.15713537e-01 -5.04832640e-02 +5.33655612e-03 +1.30251423e-01 -3.06986958e-01 -3.59988242e-01 -7.17900991e-02 -1.02161296e-01 +1.34859830e-01 -2.52898097e-01 -7.61203393e-02 -2.15146970e-02 +8.17193836e-02 -2.06008554e-02 +3.53181995e-02 -1.54876532e-02 -3.90466362e-01 -8.37812424e-02 -1.29502609e-01 -1.31271243e-01 -1.34323677e-03 -3.08592916e-01 -3.81603800e-02 -1.43953025e-01 -4.04461995e-02 +1.99581951e-01 +4.57331836e-02 -1.00550048e-01 -9.58603323e-02 -1.29486501e-01 +1.88568085e-01 -1.22436255e-01 +2.39571214e-01 -1.37933090e-01 -3.53333741e-01 -2.13334516e-01 -7.67579153e-02 -1.71562791e-01 +4.81986031e-02 +2.12976694e-01 -2.15262845e-01 -3.26116055e-01 -3.16719681e-01 -2.50106096e-01 -9.47069228e-02 +2.59434432e-01 -1.19552076e-01 +2.11766809e-01 -3.66216078e-02 +1.85926318e-01 +9.14489254e-02 -1.78634286e-01 -1.18536584e-01 -2.26616919e-01 -1.09063864e-01 +5.74631616e-02 +4.65909531e-03 -3.08542550e-02 -8.48117247e-02 +2.58774534e-02 +2.53892660e-01 +8.51209164e-02 -1.79180562e-01 -2.01887891e-01 +1.11109339e-01 +2.44687907e-02 -1.20900452e-01 +1.80260479e-01 -1.87481076e-01 +2.14899257e-01 -4.04024310e-02 -2.96251010e-02 -2.47688711e-01 -5.48766628e-02 -1.43050224e-01 -1.91674367e-01 -1.78107262e-01 -9.82629042e-03 +7.18305632e-02 +3.67277712e-01 -2.30797201e-01 +2.97976851e-01 -1.71370357e-01 -1.30371228e-01 +8.43968540e-02 -2.52880841e-01 -2.41106465e-01 -7.29861781e-02 +1.17686922e-02 +2.35738292e-01 -1.94634005e-01 +6.20845519e-03 -8.68631229e-02 -1.30940825e-01 -1.04551993e-01 +1.53322458e-01 -7.13900104e-02 -1.17761962e-01 +1.56238467e-01 +9.62475613e-02 +1.21370733e-01 +2.81492830e-03 +1.43118396e-01 +3.05006415e-01 -1.86984181e-01 -4.02815700e-01 -2.03987285e-01 +3.02808017e-01 +1.03309937e-01 +8.61461461e-02 -1.22940511e-01 +2.03813501e-02 +2.00102910e-01 +6.27471209e-02 -7.12496191e-02 -5.27127124e-02 -3.40023041e-01 +1.57876596e-01 +2.74161901e-03 -2.18899697e-01 +2.68455893e-01 -2.48910785e-01 -5.26853185e-03 -1.19924285e-01 -1.58599913e-01 +1.12287700e-01 +2.91776091e-01 +1.47336453e-01 -1.30089298e-01 +4.64333706e-02 +1.20002851e-01 +1.83347352e-02 -5.57893254e-02 +1.78861052e-01 +5.79433143e-02 -6.63882792e-02 +2.31671229e-01 +6.10531829e-02 -1.03082962e-01 +1.27980867e-02 -3.14460784e-01 -1.47900075e-01 -1.06410787e-01 -8.44384283e-02 +2.06288304e-02 -2.21244603e-01 -2.97177434e-02 -1.29853457e-01 -1.41453192e-01 +3.00492160e-03 +1.39155924e-01 +8.93431827e-02 +1.56726375e-01 -2.76780397e-01 -2.58165151e-01 +2.63933297e-02 +1.07407004e-01 -1.94873631e-01 +1.37635589e-01 +1.74712136e-01 -1.34665864e-02 +4.15523082e-01 -7.55075514e-02 -3.42669263e-02 +1.70138888e-02 -2.98016127e-02 +2.06216887e-01 -3.99122611e-02 -5.74608706e-02 +6.87069669e-02 +9.15303603e-02 -5.07143810e-02 -1.98704645e-01 -2.21222326e-01 -9.01494399e-02 -1.95519164e-01 -9.85835642e-02 -1.90929666e-01 -7.97028169e-02 +1.93604469e-01 -2.54850417e-01 -3.85328010e-02 -7.88304210e-02 -1.15792364e-01 -4.19630520e-02 -1.45526737e-01 -2.32563734e-01 -4.22086477e-01 -6.72799647e-02 +1.46173075e-01 -2.50688475e-02 -4.45535928e-02 +1.19415924e-01 -2.48846948e-01 -4.03063595e-01 +1.62241518e-01 -4.04492673e-03 -7.47948959e-02 +1.26443699e-01 +8.83263648e-02 -2.75431871e-02 +2.33388200e-01 -7.10221678e-02 +1.13183387e-01 -2.54788488e-01 -2.89058864e-01 -1.25651538e-01 +4.85302597e-01 +1.09203637e-01 +4.98364009e-02 -4.83001769e-01 +3.88402909e-01 -9.20326486e-02 +1.60580929e-02 -1.78121909e-01 -2.77228445e-01 -1.76490799e-01 -5.88569604e-02 -1.54805139e-01 +8.12868252e-02 -1.35700196e-01 -7.48178139e-02 -1.33517966e-01 +2.06779931e-02 -2.22207412e-01 -6.51778206e-02 -8.20842311e-02 -2.41338208e-01 -2.93891191e-01 +1.13922648e-01 +1.31964600e-02 -6.01287112e-02 -3.01401108e-03 +4.02649865e-02 -1.15092960e-03 +6.34234995e-02 +3.34676117e-01 -1.80981085e-02 -1.02509789e-01 -1.50741190e-01 +7.59315714e-02 -7.07705244e-02 +7.65414983e-02 -2.15440214e-01 -3.87492664e-02 -1.43883824e-01 -4.16819453e-02 -5.03433906e-02 -1.25499284e-02 +1.13025665e-01 +1.83991287e-02 -2.83327401e-02 -1.13682121e-01 -1.89528450e-01 +6.63087741e-02 -3.35727930e-01 +1.42644837e-01 +8.83238167e-02 -1.37612417e-01 -1.02619333e-02 -1.09174348e-01 -6.82336930e-03 -1.60057411e-01 +7.56761879e-02 -1.64322361e-01 -1.13107435e-01 -5.22453375e-02 +2.22262233e-01 +8.95300508e-02 +5.74217439e-02 -8.12697187e-02 -6.93051377e-03 +3.97776477e-02 -7.08575472e-02 +4.91375513e-02 +7.35962018e-02 -1.22868516e-01 -5.72814867e-02 +1.73950747e-01 +1.26007959e-01 -1.04589187e-01 -1.45790696e-01 -1.11706987e-01 +1.66859403e-02 -1.72084242e-01 +8.18912163e-02 -2.84659378e-02 -3.92172905e-03 +2.70049814e-02 +1.42975643e-01 -1.23459317e-01 +6.91258907e-02 -1.76158212e-02 -1.24957394e-02 +1.59805089e-01 +1.16566122e-01 +8.26030225e-02 +4.85731624e-02 +1.15679987e-01 -1.71143308e-01 +1.71709836e-01 -1.59637421e-01 -2.03032598e-01 -1.42594799e-01 +1.16877906e-01 +6.74984083e-02 +4.37243544e-02 +1.10462286e-01 +1.38073578e-01 +1.42412931e-01 +4.99783829e-02 +1.49053693e-01 +2.62396969e-02 -6.61440790e-02 +2.21184552e-01 -2.07292676e-01 +8.46293196e-02 -2.04194248e-01 +7.45478123e-02 +1.12793684e-01 +6.19935878e-02 +8.59294981e-02 +2.18236633e-02 -1.52089179e-01 -1.63013101e-01 +5.08835614e-02 +9.77824628e-02 -3.81677411e-02 -2.60285378e-01 -1.32000417e-01 +1.68126255e-01 -1.06261618e-01 -1.98470399e-01 -9.63732973e-03 -2.50436038e-01 +1.22852318e-01 +3.00189313e-02 +7.90498685e-03 +1.17238693e-01 -2.72237241e-01 +2.35437617e-01 +1.28980070e-01 -2.01750398e-01 -3.77997197e-02 +1.14063332e-02 +9.83766794e-01 +3.55687410e-01 +2.76824296e-01 -1.03950370e-02 +9.94410589e-02 +5.24819255e-01 +2.48751432e-01 +1.61096215e-01 +5.87191582e-01 +4.71809953e-01 -3.45708251e-01 +5.60592234e-01 +2.46360481e-01 +5.47032177e-01 +6.38548911e-01 +4.53802615e-01 +5.02378941e-01 -2.54439831e-01 +2.23475680e-01 +3.85313064e-01 -8.95818323e-02 -4.26315218e-02 -9.39265192e-02 -1.81228548e-01 +7.14424610e-01 +2.34958678e-01 +4.24642324e-01 -1.78174500e-03 -2.44892631e-02 +3.27344239e-02 +6.50786042e-01 +7.27740824e-01 +1.34368598e-01 -2.70353686e-02 +4.29495335e-01 +3.13556075e-01 +2.28806353e+00 +2.27956563e-01 +3.91541153e-01 +3.92399698e-01 +3.23271245e-01 +5.42609930e-01 -1.22172154e-01 +8.55379179e-02 -1.78519059e-02 +5.82533143e-02 +1.76062202e-03 -3.04449260e-01 +2.30695590e-01 +6.30633682e-02 -2.26173490e-01 +4.43172395e-01 +6.18369818e-01 +4.78229493e-01 -2.29403257e-01 +1.47407472e-01 -4.16026227e-02 +3.49934608e-01 +2.48065852e-02 -4.43666816e-01 -1.46063343e-01 -9.60756689e-02 +6.18459344e-01 +3.32547218e-01 +3.83585572e-01 -7.39177018e-02 -6.20838776e-02 +5.16703427e-02 +4.71930280e-02 +3.00689578e-01 +1.01189278e-01 -1.62939295e-01 +2.32865915e-01 +7.02090636e-02 +2.30319992e-01 -4.93476279e-02 +4.66478646e-01 +5.76787770e-01 +1.72759309e-01 +2.52086312e-01 +3.87795866e-01 +2.69726098e-01 -5.94499446e-02 +3.84194106e-01 +1.38145342e-01 -7.05838390e-03 +4.72308666e-01 -1.20684296e-01 +2.20258877e-01 +5.83542511e-02 +2.64350951e-01 +2.22171143e-01 +9.16065723e-02 +5.41454911e-01 +6.26948178e-01 +3.72675836e-01 +3.85124922e-01 +2.85612345e-01 +1.19985834e-01 +5.63682020e-01 +7.71351159e-01 -1.17894053e-01 +2.60236681e-01 -4.41997975e-01 +6.93181977e-02 +1.06652983e-01 -1.08854450e-01 +2.66051721e-02 -4.29554194e-01 +4.93150026e-01 -1.75643489e-01 +1.28906071e-01 -6.68022409e-03 -2.99509969e-02 -4.59178574e-02 +5.19200802e-01 +2.31644269e-02 -2.23120704e-01 +5.02840325e-04 +6.89766407e-02 -3.13644141e-01 -5.92234991e-02 -1.25586629e-01 -1.47932827e-01 +1.67798534e-01 -2.28393987e-01 -2.02151686e-01 -3.77355665e-02 -1.60411429e-02 +1.16950072e-01 -2.31641084e-01 +2.49118909e-01 +8.52211639e-02 +2.48033732e-01 +4.38032895e-02 +4.11597043e-02 +1.24821794e+00 +1.40333414e-01 +8.05504341e-03 +1.58639133e-01 -3.95567983e-01 -1.29070610e-01 -1.61647201e-01 -3.83392684e-02 +1.74998209e-01 -7.91389495e-02 +1.23534851e-01 -9.99057367e-02 -8.59215856e-02 -9.14598703e-02 -6.11543432e-02 -4.95262258e-02 -1.84640363e-01 -4.71208021e-02 -1.60858214e-01 +7.74848312e-02 -5.65650649e-02 +1.48541987e-01 +7.11950064e-02 -9.02232304e-02 -3.36555481e-01 +4.40390594e-02 +6.50560930e-02 +7.73726702e-02 +1.17167443e-01 +1.39045209e-01 -1.43098012e-02 -9.77687538e-02 +2.04832219e-02 +2.90272441e-02 +1.09093361e-01 -1.70840070e-01 +8.39514136e-02 -2.08413880e-02 +2.85510197e-02 +6.31781891e-02 +2.38488004e-01 +1.99210808e-01 +1.58550978e-01 -3.19161624e-01 +2.60590732e-01 +4.31203544e-02 -1.36070505e-01 +1.91090673e-01 +1.00487716e-01 -3.72224525e-02 +1.53421298e-01 +2.47556418e-02 +5.30484915e-02 -1.69090599e-01 +1.32792398e-01 -2.29351699e-01 -3.85856152e-01 +3.38460863e-01 +1.30532980e-01 -4.39508080e-01 -4.36019078e-02 -1.11240864e-01 -5.28339436e-03 -1.50671780e-01 +1.84416652e-01 -9.58466232e-02 -1.12558410e-01 -2.19561949e-01 +6.11003041e-02 +3.74876887e-01 -2.03959420e-02 +4.91503812e-02 +1.88961402e-01 +5.51185906e-01 -1.91896975e-01 +3.76556426e-01 +1.53674483e-01 +1.18881583e-01 +4.05346692e-01 +2.99316674e-01 +3.18092793e-01 -7.06662089e-02 -2.53374428e-01 +2.36624666e-03 -3.26939255e-01 -2.46493518e-03 -1.50069013e-01 -1.26523137e-01 +1.01628467e-01 +4.25098278e-02 -5.69309816e-02 -1.90505430e-01 -2.08685845e-01 +1.82756618e-01 +1.78721204e-01 +4.99649078e-01 +1.19876727e-01 -1.48989424e-01 +6.66439012e-02 +2.30922192e-01 -1.53539121e-01 -2.06250146e-01 +3.03888261e-01 +1.23633847e-01 -9.60766971e-02 +3.42895925e-01 -3.45339715e-01 -2.89762676e-01 +9.09860060e-03 +7.03365505e-02 +8.57421197e-03 -4.53598082e-01 +3.05583552e-02 -7.35769942e-02 -3.94475341e-01 +3.92585903e-01 +4.96821195e-01 +1.83996931e-01 -1.00693591e-01 -1.27193332e-01 -1.90113366e-01 +1.58167198e-01 -1.25885755e-01 -2.22739592e-01 -4.78070974e-01 -9.34361368e-02 -9.01354626e-02 -2.82770135e-02 +9.72341094e-03 -3.56215745e-01 +2.36100238e-02 -3.87364268e-01 -1.58716843e-01 -1.18913911e-01 +7.20270798e-02 -1.41966745e-01 -1.25979632e-01 -2.04737693e-01 -2.39432976e-02 -3.45991701e-02 +2.12867223e-02 +3.63776147e-01 -1.07713848e-01 -1.38114303e-01 +3.00661355e-01 +2.01859280e-01 +8.05849433e-02 -1.34571627e-01 +1.65789336e-01 -1.77167639e-01 -2.98791379e-01 -1.13528781e-01 +4.45226505e-02 -2.32631281e-01 +7.29631186e-02 -2.81213820e-01 -2.09227115e-01 +1.26110882e-01 +3.24854732e-01 +4.63722259e-01 +1.56681776e-01 -6.30160123e-02 +2.38556311e-01 +4.01262313e-01 +4.48674522e-02 +3.54900211e-01 -9.96129811e-02 +3.91363084e-01 +7.35536665e-02 -4.76933897e-01 -4.82960105e-01 -1.31682277e-01 -6.53723598e-01 +4.58832741e-01 -1.06374227e-01 +4.66451466e-01 +3.46800745e-01 +6.53095961e-01 +5.73413432e-01 -3.62931430e-01 -5.87796688e-01 -3.42877693e-02 +3.79831344e-01 -4.45051044e-01 +2.28546038e-01 -1.84827954e-01 +1.18527122e-01 -3.43232363e-01 +6.49474382e-01 -4.70731646e-01 -3.91716778e-01 -1.81461304e-01 -1.56001627e-01 -1.92922339e-01 +4.73716110e-01 -4.79212254e-01 -6.46433607e-02 +1.42016843e-01 +5.02468944e-01 -4.41463619e-01 -6.57270312e-01 -4.35933173e-02 +3.73677135e-01 -2.35393733e-01 +6.21452868e-01 -4.78138387e-01 +2.04847232e-01 -1.28653780e-01 +9.81331095e-02 +1.83543593e-01 +8.38027596e-02 +1.90406218e-01 +1.65428951e-01 +3.83831829e-01 +1.05097048e-01 +5.93095958e-01 +5.85181117e-01 -6.46611631e-01 +2.18996201e-02 +1.53079689e-01 -4.45037596e-02 -3.88151437e-01 -1.72356233e-01 +1.80392548e-01 -2.68394589e-01 +9.73696336e-02 +5.37906766e-01 +4.12988842e-01 +4.66638803e-01 +1.72719866e-01 +8.64787120e-03 +2.21081916e-02 -2.05650136e-01 -3.79862227e-02 -2.47275457e-01 -1.74304888e-01 -3.90594453e-01 +1.82019338e-01 +1.58579007e-01 +8.14740285e-02 -2.83631265e-01 +4.38093901e-01 -1.06561162e-01 +2.36445904e-01 -4.65720236e-01 -2.70728827e-01 -2.19750494e-01 -3.37074846e-01 -1.03382505e-01 +3.37293968e-02 +4.31257039e-02 -6.44339770e-02 -3.87349188e-01 -4.04942453e-01 +3.27077478e-01 +4.61647600e-01 -3.90995950e-01 -4.09580290e-01 -5.61279118e-01 +7.46169448e-01 +2.58487552e-01 +2.81126976e-01 -3.65027100e-01 -5.68596661e-01 +4.57560420e-01 -4.68432605e-02 +1.01714008e-01 +4.08849269e-02 -5.00367321e-02 +1.56306669e-01 +3.15797806e-01 +4.46989447e-01 +2.13329986e-01 +4.54655141e-01 +1.11549221e-01 +9.41667929e-02 +1.49040982e-01 -1.72006056e-01 +4.17326093e-01 +2.88471133e-01 -4.30921018e-02 -2.68787771e-01 +3.67290884e-01 +2.47760981e-01 -2.21735314e-01 -2.83149611e-02 +2.89502174e-01 -1.57411888e-01 +1.67876944e-01 +9.17514861e-02 +8.19126666e-02 +7.84078464e-02 +2.29695335e-01 -1.56425282e-01 +1.56470582e-01 -1.85468122e-01 -1.87621787e-02 +3.46966624e-01 -2.46840104e-01 +2.45539799e-01 -2.13092547e-02 -3.94804813e-02 +9.26467702e-02 +1.05147325e-01 -2.08858419e-02 +1.70765966e-02 -1.04837865e-01 +4.59029488e-02 -1.37979582e-01 -1.29834294e-01 +1.96613804e-01 +7.34451087e-03 -1.53593570e-01 +5.11865988e-02 +2.14308873e-01 +3.57865512e-01 -1.67179525e-01 -1.24642141e-01 +2.55205631e-01 +1.07240692e-01 +1.23031221e-01 +2.53491491e-01 -2.10307345e-01 -1.14531882e-01 +2.21458271e-01 +4.91837382e-01 +1.61505118e-01 +1.73989534e-01 +2.98513025e-01 -1.11967236e-01 +1.49343565e-01 +9.02035013e-02 -1.06398351e-01 +2.98940301e-01 +4.88579512e-01 +1.31471343e-02 -1.52879596e-01 +1.57480672e-01 +3.88386995e-01 -2.51857966e-01 +1.01919599e-01 +4.69928682e-01 -3.27229291e-01 +1.99809760e-01 +9.22756419e-02 -3.49831358e-02 -7.11086541e-02 +3.25728297e-01 +1.17807306e-01 -7.14105740e-02 -1.81832403e-01 +2.86386371e-01 +2.22212613e-01 +1.04849629e-01 -5.78369126e-02 +1.14640696e-02 -2.54429579e-01 +1.71477780e-01 +3.60943228e-01 +1.83817685e-01 +4.85248029e-01 +9.03882757e-02 -2.97806919e-01 -6.83615357e-02 +4.89765316e-01 -1.83906496e-01 +1.70425400e-01 -1.91263527e-01 +1.58633053e-01 +1.68583035e-01 +6.16815835e-02 +2.04671323e-01 -1.28603190e-01 +3.22426498e-01 +3.72224033e-01 +1.23848915e-01 +5.03057837e-02 +2.08458930e-01 -7.96280131e-02 +1.51418746e-01 -7.88398460e-02 -4.42298278e-02 -9.58124641e-03 +7.42436871e-02 +1.28523991e-01 -6.46763518e-02 +9.08769518e-02 +2.00231358e-01 +3.28357331e-02 +2.37050787e-01 +6.15002774e-02 +1.51669040e-01 +3.46330144e-02 +1.49881154e-01 +1.63855292e-02 +1.08957544e-01 +7.59203061e-02 +4.23271835e-01 +3.19482200e-02 +1.11411139e-01 +1.97367683e-01 +2.38219559e-01 +8.10437873e-02 +2.53784135e-02 +8.39892998e-02 +9.48732272e-02 +1.32812575e-01 +3.35639752e-02 -4.89911884e-02 -9.02167410e-02 -1.09777739e-02 +1.48779079e-01 -4.20784503e-02 -7.14629441e-02 +1.18532829e-01 -1.09722532e-01 -9.68911424e-02 +6.38948660e-03 +2.97240347e-01 +8.28865618e-02 +8.66321847e-02 +3.43436778e-01 +1.77057192e-01 +8.30645487e-02 -1.77472934e-01 +1.23493411e-01 +2.33761817e-01 +1.31853610e-01 -2.17963859e-01 -2.48036176e-01 -1.13336638e-01 +1.80603310e-01 +1.00524373e-01 -1.99218869e-01 +3.32678884e-01 -4.60980646e-03 -1.35586649e-01 -6.08297065e-02 -1.19034247e-02 -4.61256830e-03 +9.18662548e-02 +1.64007485e-01 -1.59383059e-01 +1.36354253e-01 -4.02193516e-02 -1.39969168e-02 +1.87781304e-01 +9.89786312e-02 +5.37992129e-03 +6.38646400e-03 -3.97315711e-01 +1.81597054e-01 +1.18821524e-01 -2.10906908e-01 +1.46693483e-01 +3.41248900e-01 -1.93268768e-02 +2.69843340e-01 +4.87370789e-01 -3.68601270e-02 -7.42030889e-02 -9.54246148e-02 -8.59959275e-02 -2.67811537e-01 +7.93891847e-02 -2.46224195e-01 +9.18948930e-03 -2.11455375e-01 +2.91088670e-02 -2.40875110e-01 +5.58030158e-02 +8.33306387e-02 -1.86298281e-01 +2.87156254e-01 -5.86391129e-02 -2.08803579e-01 +5.86252920e-02 -8.26039165e-03 +2.75152363e-02 -1.90111976e-02 +6.52424693e-02 -6.07838295e-02 +4.33987170e-01 +6.02374934e-02 -3.48443985e-01 -2.35408694e-01 -6.16776124e-02 +2.30997466e-02 -1.68510616e-01 +2.08911508e-01 +5.40379323e-02 +6.12127483e-02 -2.87237838e-02 -6.35579228e-02 +1.75948262e-01 +1.09339915e-01 +2.30128676e-01 +3.61328542e-01 +3.04074120e-02 -1.50122970e-01 +2.04772633e-02 +1.56294927e-01 -6.17642775e-02 -3.26096937e-02 -1.18943229e-01 +3.73114762e-03 +1.13710955e-01 -8.07329565e-02 +2.94915885e-02 -1.52024701e-01 +1.32136241e-01 +1.33131728e-01 -2.90888734e-02 -9.69537944e-02 +1.08209118e-01 +2.29272500e-01 -1.23943575e-01 +5.29518053e-02 -2.09199235e-01 +1.40385419e-01 -4.37239297e-02 +8.62635300e-02 -2.17378303e-01 +9.97934714e-02 +1.35924742e-01 +1.60682991e-01 +2.84949094e-01 -1.85714513e-01 -7.99064245e-03 -3.00778091e-01 -2.60976900e-04 +6.36069402e-02 +3.58234085e-02 +1.33711800e-01 +4.56056118e-01 -4.78083454e-02 -7.20493644e-02 -2.02434044e-03 +9.86222923e-02 -1.20022207e-01 +2.21461564e-01 +4.41578031e-01 -1.84783101e-01 -5.48367128e-02 +9.80841890e-02 -4.83807027e-02 +6.88101798e-02 +3.58597755e-01 +1.65150419e-01 -1.38168752e-01 +1.65576175e-01 +8.26960355e-02 -1.59725398e-01 -2.23606244e-01 +1.00108266e-01 -5.78483753e-02 -2.68621922e-01 +3.42546135e-01 +1.93058819e-01 -7.42784962e-02 +1.26178801e-01 -1.71908900e-01 -9.10751969e-02 -1.53085604e-01 -3.89396586e-02 +1.97017372e-01 +2.11166874e-01 +1.99228868e-01 +1.64408222e-01 -3.94694328e-01 -3.65694135e-01 +3.48806560e-01 -3.42113018e-01 +4.35042948e-01 +2.26850256e-01 +2.24671751e-01 +3.45473349e-01 +6.96021467e-02 +3.09028506e-01 +2.32642423e-02 +2.20358089e-01 +7.18964636e-03 -4.02367860e-01 -3.53451222e-01 -8.49636048e-02 -1.89920008e-01 +2.31290191e-01 +2.29174700e-02 -1.45401716e-01 +1.88344613e-01 -3.55287611e-01 -2.18106642e-01 +3.66507590e-01 -8.99158865e-02 +3.19309443e-01 +9.76309273e-03 +2.51581609e-01 +4.11174715e-01 +1.45823890e-02 +5.08563817e-02 +8.86282325e-02 -6.42556325e-02 +1.30599067e-01 +1.36403888e-01 +2.27713957e-01 -3.41428183e-02 +6.33673603e-03 -1.65639803e-01 -9.05644670e-02 -3.45128864e-01 +3.48094761e-01 -1.15666971e-01 -1.11321352e-01 +2.34325811e-01 +4.07014847e-01 +4.10826802e-01 -4.58239913e-02 -1.70160998e-02 -1.21867351e-01 -8.45836550e-02 +3.57470632e-01 -2.87351578e-01 -1.93070337e-01 -1.35855470e-02 -3.38836789e-01 +2.57616043e-01 -1.46558210e-01 +3.54463793e-02 -3.06338996e-01 +1.85862437e-01 +3.26614827e-01 +7.58728236e-02 +7.31693059e-02 -2.75135607e-01 -3.94056559e-01 +9.93642770e-03 -4.69235405e-02 +2.16567114e-01 +3.67800742e-01 -1.07986324e-01 -7.08639845e-02 +4.94563907e-01 -1.81769747e-02 +1.85316011e-01 +1.87069967e-01 -4.36689705e-02 -2.25581050e-01 -3.71347159e-01 +3.08306426e-01 +9.13071856e-02 +6.33079112e-01 +1.51520759e-01 -2.92199254e-01 -5.11253893e-01 +1.91680744e-01 +1.08627401e-01 -1.94831431e-01 -6.64804727e-02 +1.06006019e-01 +2.80467033e-01 +4.42949712e-01 +1.38989419e-01 +6.78857043e-03 -2.14001387e-01 +6.98230788e-02 -1.97247535e-01 -8.79108310e-02 -2.75297076e-01 -2.86192298e-01 -1.75403014e-01 +4.91853207e-02 -1.88369304e-01 -1.27931625e-01 -7.55375698e-02 +2.82558769e-01 -1.52837411e-01 -1.15166754e-01 -6.77196831e-02 -1.41306564e-01 +1.80023730e-01 +1.07862748e-01 -6.97774366e-02 -1.59413770e-01 +5.73378429e-02 -1.04801441e-02 +9.53019485e-02 +2.31260154e-02 -2.55928576e-01 -1.23299375e-01 +6.96936548e-02 +1.23267934e-01 +1.17663818e-03 -3.03645551e-01 -5.03698252e-02 -1.84095100e-01 +3.61093096e-02 -2.68338937e-02 -1.48426890e-01 -1.88077837e-02 -4.14814979e-01 +1.09435171e-01 -1.97100565e-01 +5.01972251e-03 -2.58053839e-01 -1.53992161e-01 -2.66510218e-01 -1.13570735e-01 -1.28338099e-01 -1.98636606e-01 -4.15487550e-02 -5.01159877e-02 +6.22870075e-03 +5.60652949e-02 -3.00467620e-03 -5.76710794e-03 -2.89189190e-01 -3.04314643e-01 +2.91199312e-02 +1.61208026e-02 +2.65892465e-02 -1.25189628e-02 -1.66548491e-01 -1.06197156e-01 -3.24921496e-02 -2.39306554e-01 -2.46577501e-01 -1.00308150e-01 -9.94269177e-02 +5.65183535e-02 -2.46231511e-01 -1.01584792e-01 +4.76098657e-02 -2.53182501e-01 -1.20298393e-01 -2.02096030e-01 +9.28100422e-02 -2.67209351e-01 +9.06816050e-02 -2.26890534e-01 -9.50188339e-02 +3.34625249e-03 -1.83054820e-01 +2.67376572e-01 -3.59658599e-01 +2.85596311e-01 +3.81983459e-01 +1.17524765e-01 -6.28784671e-02 -8.09449181e-02 -1.49968192e-01 +8.99337903e-02 +7.29202777e-02 +8.29358473e-02 -1.48581594e-01 +1.62434489e-01 +6.10827543e-02 -1.94992825e-01 -2.88899224e-02 +2.13808000e-01 -2.14157730e-01 -1.09230531e-02 -1.80450082e-01 -9.29318368e-02 -2.15559497e-01 +1.32096440e-01 -6.92092925e-02 +5.50225601e-02 -8.79224911e-02 -3.49565111e-02 +6.80032223e-02 +7.85106122e-02 -4.32284921e-02 -3.01672161e-01 -4.00596075e-02 +1.11948870e-01 -8.69434997e-02 +4.18502577e-02 +1.39149353e-01 -4.73888926e-02 +1.79333776e-01 +1.37183100e-01 -3.90716940e-02 +4.01313603e-02 +1.99231133e-02 +8.70055035e-02 -1.56348735e-01 +2.06086323e-01 -1.48292542e-01 -8.39881301e-02 +2.13991120e-01 +4.80002631e-03 -4.28168885e-02 -4.94828261e-02 -1.23881079e-01 +1.24647334e-01 +1.30919904e-01 -1.40639134e-02 -1.76324457e-01 +1.77777335e-01 -3.17531265e-02 +2.43921224e-02 -6.61224723e-02 -8.30100998e-02 -5.88844018e-03 +2.14520246e-01 +3.85325029e-02 +4.49062884e-02 +9.07985214e-03 -7.80040473e-02 +1.11925982e-01 -1.08987935e-01 +1.09249586e-02 -1.80654511e-01 +6.30386779e-03 +1.66129276e-01 -3.40487547e-02 +1.16081014e-02 +1.06693069e-02 +4.77333851e-02 +1.76711366e-01 +5.08589223e-02 +1.48518071e-01 -6.46154657e-02 +1.68787628e-01 -4.86032180e-02 -5.59212789e-02 +1.09296381e-01 +1.26375586e-01 +1.69000953e-01 -1.07398786e-01 -1.06428452e-01 -1.01003125e-01 -9.21157524e-02 -1.37273192e-01 -1.77670479e-01 -2.41498686e-02 -1.15523055e-01 +1.67898819e-01 -8.24993625e-02 -2.89220084e-02 +1.08253155e-02 -5.95962442e-02 +1.09950967e-01 +4.90970872e-02 +2.14626584e-02 +3.60953301e-01 +5.98930642e-02 +8.46761912e-02 -1.26922345e-02 -5.73770329e-02 +1.81206152e-01 +1.87385138e-02 +6.32025450e-02 -2.70496935e-01 +1.50731072e-01 -4.23943289e-02 +1.16701752e-01 +1.09489247e-01 +2.04263464e-01 -8.91090278e-03 -3.73403430e-02 -4.36612032e-02 +8.61747414e-02 +1.58045515e-01 +8.19977559e-03 -1.32491320e-01 -2.48237550e-01 -2.90487170e-01 -1.18948907e-01 -1.36375308e-01 +1.44131936e-03 -2.61827856e-01 -9.14507508e-02 +9.03570056e-02 +1.80198178e-01 -4.09172028e-02 -1.77340820e-01 -6.88857287e-02 -2.39736721e-01 +2.64886022e-01 +1.94794387e-01 -1.32053912e-01 -1.07162759e-01 +6.08766228e-02 -8.33632126e-02 -5.86461276e-02 +5.02954377e-03 -2.67191797e-01 -1.95314333e-01 -4.72434200e-02 -1.10807195e-01 -5.75971454e-02 -2.08288997e-01 -2.29622886e-01 +1.10319339e-01 +9.98364240e-02 -2.02076957e-01 -1.18310161e-01 +7.52732828e-02 -3.74132246e-02 +2.09211111e-01 -8.38713273e-02 +1.03600673e-01 -1.22581817e-01 +7.81957060e-02 +7.83017576e-02 -3.39671001e-02 -1.14981413e-01 -1.71033397e-01 -4.50860187e-02 -1.83266565e-01 -2.02639893e-01 -1.27931029e-01 -6.29412755e-02 +3.64886820e-02 -3.37372720e-02 -5.65098180e-03 -1.41630054e-01 -9.24170166e-02 -7.62868151e-02 -8.15469697e-02 -5.22287600e-02 -3.41126382e-01 -4.85399812e-02 -1.05352119e-01 -1.41293749e-01 -2.88578682e-02 -1.19503029e-01 +1.40822858e-01 -6.46818578e-02 -1.31530240e-01 -2.11788923e-01 -7.39606172e-02 -1.45482555e-01 -2.59019166e-01 +1.42005179e-02 -4.25693579e-02 +6.87922817e-03 -2.32357144e-01 -1.59784779e-01 +2.58105099e-01 -1.33746952e-01 -1.31938696e-01 +1.44469261e-01 +2.24627972e-01 +3.57162237e-01 +1.84206843e-01 -1.06444322e-01 +1.26321450e-01 -1.93110600e-01 +1.19077019e-01 -1.18490681e-01 -9.70777944e-02 -1.64714679e-01 -3.64845805e-02 -1.31711051e-01 -4.65775691e-02 -2.16780920e-02 -7.54174485e-04 -1.35296481e-02 -3.79456244e-02 -2.12502796e-02 -4.01878394e-02 +4.14143577e-02 -1.61178678e-01 -4.21204828e-02 -9.03758034e-02 +1.63722858e-01 +3.27970125e-02 -1.07779317e-01 +1.21220231e-01 -1.13410547e-01 -2.11178422e-01 +1.88987955e-01 +2.24267051e-01 +1.26275539e-01 +3.17866094e-02 -7.73389488e-02 +2.38689706e-01 -3.55867535e-01 -3.80925648e-02 +1.42841280e-01 +3.62030864e-02 -2.76570380e-01 +4.31180075e-02 +1.95762753e-01 -3.82868685e-02 -4.71388027e-02 +1.24761291e-01 -7.69902542e-02 -1.53418586e-01 -2.25794807e-01 +7.79445097e-02 -1.30342498e-01 -6.41616285e-02 -1.80500239e-01 +5.43866679e-02 +1.00868130e-02 -4.32785228e-02 -1.64519489e-01 -1.66467980e-01 +1.05664236e-02 +2.46069282e-01 -3.23322080e-02 +1.23082213e-01 -1.88244268e-01 +1.96622550e-01 +9.64604169e-02 +1.94889054e-01 -1.45292589e-02 +1.11287013e-01 -1.58997461e-01 +1.66815400e-01 +1.96695954e-01 -1.95241198e-02 +1.05511889e-01 +1.79466516e-01 -7.08863139e-02 -4.12483849e-02 +5.71822673e-02 +7.91347325e-02 -2.11658746e-01 +3.11286077e-02 -1.11202128e-01 -7.61172622e-02 +6.38993233e-02 -1.26327313e-02 +4.79497202e-02 +1.54438410e-02 +3.13217007e-02 +2.89597921e-03 +2.06983864e-01 -4.11616229e-02 -3.83018441e-02 -2.14096665e-01 -1.83325037e-01 -5.96520454e-02 +5.27532287e-02 +1.87373817e-01 -1.25343455e-02 -2.36549273e-01 +1.99264646e-01 -3.37108552e-01 +5.46778776e-02 -3.23962182e-01 -3.15618694e-01 +1.12117939e-01 -8.46724361e-02 -2.61051863e-01 -9.11119506e-02 -7.16819540e-02 -2.34410577e-02 +1.44185796e-01 +1.47232981e-02 +1.52218685e-01 -7.88346380e-02 -2.96924617e-02 -1.51813745e-01 -2.05585048e-01 +4.14910205e-02 -2.56113498e-03 -6.63558766e-02 -7.54220039e-02 +7.15603605e-02 +1.16575576e-01 -2.20302269e-02 +1.31499454e-01 -2.30132020e-04 +4.02727686e-02 -1.46221340e-01 +7.17286095e-02 -7.96461105e-02 +4.59982082e-02 -2.36438349e-01 -1.95308719e-02 -8.91309008e-02 +5.23012020e-02 +3.32341418e-02 -7.22184032e-02 +4.51517925e-02 +1.16660215e-01 +2.28556693e-02 +4.37460048e-03 -6.92562163e-02 -1.26949489e-01 +1.20523140e-01 -1.35095986e-02 +7.13453963e-02 -1.70511082e-01 -3.00188921e-02 +1.80808885e-04 -2.75043875e-01 +3.30285309e-03 +1.46006746e-02 -3.55574340e-02 -1.98168591e-01 +1.82599090e-02 -1.10007226e-01 -1.50180966e-01 -1.69959530e-01 -3.02017957e-01 -1.27348840e-01 -2.55494297e-01 -3.75560597e-02 +3.14737707e-02 +1.34385228e-01 -4.21514027e-02 -1.21028990e-01 +1.89958811e-02 +1.25777975e-01 -7.83855543e-02 +1.77191272e-02 -3.46754454e-02 -2.57196631e-02 -4.42410447e-03 -1.63670301e-01 -2.92827278e-01 +4.91476692e-02 +2.21580565e-01 -3.54297496e-02 +1.12767071e-01 +9.00644343e-03 -5.45729026e-02 +7.90787712e-02 -2.03455091e-01 -5.79514094e-02 +1.19765513e-01 -5.61981909e-02 -2.71847069e-01 -7.08212554e-02 -3.04285949e-03 +1.61492079e-02 -3.86439115e-02 -1.54783055e-01 +8.32988694e-02 +1.87295482e-01 -1.74446046e-01 -6.84258267e-02 +3.39063704e-02 -1.61611915e-01 -2.73803324e-02 -1.13835134e-01 -5.88300675e-02 -4.06788811e-02 -1.45928442e-01 +8.00886080e-02 +5.25248684e-02 -3.95255610e-02 -3.03723477e-02 +9.08471644e-02 +8.21634457e-02 +8.77124518e-02 +2.38708388e-02 +1.74730774e-02 -6.96526766e-02 -3.99225913e-02 +3.17970440e-02 -2.64367640e-01 -6.26904517e-02 +4.91112508e-02 +6.29629567e-02 +3.36124487e-02 +6.04986586e-02 -2.40396429e-02 +2.20056728e-01 +4.78614010e-02 +1.24493606e-01 -9.01289433e-02 -4.46615107e-02 -2.04415679e-01 +6.79837614e-02 +8.43844414e-02 -1.62563831e-01 -1.31521970e-01 -1.12935439e-01 -8.77520964e-02 -4.49999236e-02 -1.44683287e-01 +1.73847690e-01 +1.76885668e-02 +1.21869221e-02 +8.32939073e-02 +2.04901084e-01 -1.90724447e-01 +7.62253404e-02 -1.07855149e-01 -9.40339044e-02 -8.14788491e-02 -3.98962907e-02 -9.77762640e-02 +1.02223217e-01 +1.62589788e-01 -4.22869697e-02 -1.51502430e-01 -2.02201873e-01 -1.51530936e-01 +1.29634023e-01 -4.08561639e-02 -9.05601382e-02 -1.05699420e-01 +7.59635679e-03 -1.11565419e-01 -1.50311803e-02 -8.15086216e-02 +1.44292012e-01 +2.26962164e-01 -2.50590205e-01 -6.34803325e-02 +1.12294964e-01 -3.74974459e-02 +7.03266412e-02 -5.88264652e-02 -7.30059594e-02 -1.52125672e-01 -2.52411738e-02 -8.72524455e-02 -9.79882330e-02 +1.20522149e-01 +1.62273213e-01 -9.00530815e-02 +7.22841322e-02 +1.11976601e-01 -2.50329152e-02 +3.06293438e-03 -2.51227170e-01 -6.69884309e-02 +5.64306118e-02 -2.09119305e-01 -6.84656873e-02 -3.07471585e-02 +3.77271809e-02 -1.22752541e-03 -2.04827581e-02 -9.77002233e-02 +1.53824408e-03 -2.76922807e-02 -2.94100940e-01 -1.84917197e-01 +2.45525643e-01 +1.59322948e-03 +1.51038960e-01 +1.14708960e-01 -2.27059629e-02 -1.36327118e-01 +3.87836583e-02 +4.00505811e-02 -2.35848203e-01 -1.54073359e-02 -9.59291011e-02 +7.01857358e-02 -1.24179430e-01 -4.77275141e-02 +2.33913176e-02 -1.92944750e-01 +2.23764200e-02 +6.52012825e-02 +2.03119181e-02 -8.13255534e-02 -9.41359159e-03 +5.94014525e-02 -1.31210625e-01 +7.03451410e-02 -5.80033958e-02 +8.67318064e-02 +1.09043866e-01 +9.56391692e-02 +8.82548019e-02 -1.86803281e-01 +4.07516621e-02 -1.95217565e-01 +1.05275996e-01 +1.49426058e-01 -1.66365132e-01 +3.53965871e-02 -2.07165644e-01 +1.65543128e-02 -7.83974603e-02 -9.42662954e-02 +1.48167312e-01 -2.89973408e-01 +3.16174150e-01 -5.81107996e-02 +2.98581809e-01 -1.32418305e-01 +4.61423397e-02 -1.57000363e-01 -1.01712905e-01 +1.88200511e-02 -2.30069011e-02 +1.06152274e-01 +1.68371931e-01 -4.06925119e-02 -2.61617959e-01 -2.51981288e-01 -2.29445659e-02 -1.47558865e-03 +6.13844302e-03 -4.88649048e-02 +9.01771784e-02 -7.77132483e-03 +7.53950179e-02 -1.07743315e-01 -2.53346004e-02 -7.79013187e-02 -2.18653423e-03 +1.33552089e-01 +6.20932430e-02 +2.10921597e-02 -3.09568979e-02 -5.31255119e-02 -7.90833961e-03 -1.78663418e-01 -1.15636565e-01 -1.64981231e-01 -2.21473292e-01 -1.06114715e-01 -1.08655587e-01 +1.85067728e-01 +8.64443555e-02 -1.56482235e-01 +4.35312763e-02 -9.09583718e-02 +1.96113944e-01 -1.14643268e-01 -1.86660886e-01 +1.04729291e-02 +2.38872960e-01 -7.68378302e-02 -1.36479169e-01 -2.93188822e-02 -9.47474129e-03 -2.21426915e-02 +4.10053991e-02 -2.60683417e-01 +5.67282550e-03 -8.16250741e-02 -1.65050253e-01 -1.08787820e-01 +9.30750594e-02 +1.31703019e-01 +2.08649606e-01 -1.70048788e-01 -1.57730594e-01 -4.42421809e-02 +1.02459714e-02 -1.55669674e-01 -1.41148970e-01 -7.80039951e-02 +1.74147598e-02 -3.40140983e-02 -1.08219579e-01 -1.88091099e-01 -3.00781846e-01 -1.27585381e-01 +7.78406858e-02 -2.00818595e-03 -1.60181522e-01 -1.18483059e-01 -5.05090617e-02 -1.91284285e-03 -4.81578521e-02 +1.16783835e-01 -3.69219519e-02 +5.76196760e-02 -1.51446268e-01 -2.10626666e-02 -4.18860056e-02 -1.01873673e-01 +1.80398181e-01 -1.56171219e-02 -1.25002846e-01 -8.19908231e-02 +1.39130011e-01 -5.31779490e-02 -2.90923081e-02 +3.96161228e-02 -1.19737647e-01 -3.11061349e-02 -1.76905487e-02 +7.58341178e-02 -4.57811095e-02 +1.27210543e-01 +8.14724788e-02 -2.85532884e-03 +7.19161183e-02 +1.42218336e-01 +2.11183161e-01 -2.55078971e-02 +4.82835397e-02 +3.75130698e-02 -9.31717828e-03 +4.23810184e-02 +2.79125363e-01 +5.26366271e-02 -1.71875864e-01 +1.32803753e-01 -7.10273953e-03 +1.30878463e-01 +1.87283978e-01 -1.57872051e-01 -5.08019291e-02 -6.49552122e-02 -1.65512171e-02 +1.18342251e-01 +1.61051229e-01 -1.20106943e-01 +8.24896842e-02 -4.70279269e-02 +1.66744128e-01 -1.35540009e-01 +1.15098767e-02 +1.81000918e-01 -3.49130556e-02 -9.91936326e-02 -1.10631995e-02 +3.00415549e-02 -5.14094345e-02 +1.39639914e-01 +1.23055942e-01 +1.37540460e-01 +1.11375093e-01 +1.11602740e-02 +1.86338611e-02 +7.31013343e-02 -5.50470538e-02 +1.14844285e-01 -4.08377200e-02 -1.43709958e-01 -1.27744824e-01 -2.40675900e-02 -2.04331819e-02 +1.73686355e-01 -4.34063561e-02 +8.96445587e-02 -1.88828260e-01 +2.86805421e-01 -3.59448232e-02 +2.91165680e-01 -1.38785904e-02 -7.44509995e-02 -7.01315105e-02 +6.59590811e-02 -4.21810336e-02 +1.25810117e-01 +5.00778258e-02 +1.36352971e-01 -2.26542294e-01 -7.08332360e-02 +8.02091435e-02 +9.13371667e-02 +9.67553258e-02 +3.61180045e-02 -1.02661505e-01 -4.92991619e-02 -5.14905155e-02 -1.76992733e-02 -2.11184397e-01 +2.94366796e-02 -7.85737019e-03 -9.47293192e-02 -8.01316053e-02 -1.98682640e-02 +4.06222753e-02 -3.23924646e-02 -2.57949531e-01 -3.77664082e-02 +8.69569704e-02 -1.59338978e-03 -1.96838781e-01 -4.13129628e-02 -9.72378533e-03 +1.36023422e-03 -1.65138513e-01 -1.01567805e-02 -2.53809169e-02 -9.72566530e-02 -1.87377315e-02 -1.75125569e-01 -6.49354979e-03 +8.13259631e-02 +3.75737250e-03 -1.88462749e-01 -2.24405348e-01 -2.67495662e-02 -1.91341918e-02 -2.35031858e-01 -1.27204567e-01 -1.73447996e-01 +5.07589139e-04 -1.02873079e-01 -2.14273408e-01 -2.53636539e-01 -9.91184637e-02 -4.36467826e-02 -1.67186782e-02 -2.36504339e-02 +1.66977748e-01 -2.02275589e-02 +9.42294896e-02 -2.18356214e-02 -1.57156765e-01 -8.64757132e-03 -3.96806672e-02 -1.33121297e-01 +3.74549883e-03 -1.71350226e-01 -8.88719186e-02 -1.26107529e-01 -5.53100295e-02 -1.65481985e-01 -6.86773583e-02 -2.44479656e-01 -1.00751631e-02 -1.91832855e-02 -3.05100325e-02 -1.22545056e-01 -1.68468490e-01 +6.29781932e-02 +9.44914669e-02 -1.24870442e-01 -2.28573322e-01 -7.57291690e-02 -3.28484476e-02 -8.19747671e-02 -1.12664372e-01 +1.05524175e-02 -8.35114843e-05 -6.59560859e-02 -2.35601421e-02 -7.00701177e-02 -1.42527670e-01 -3.29528935e-02 -2.14995965e-01 -1.01572111e-01 -1.32194072e-01 -1.20540224e-01 -1.64770752e-01 +1.80884302e-02 -2.07845733e-01 -3.01686174e-04 -2.04017282e-01 -7.89610818e-02 -7.25941779e-03 -2.39927862e-02 +8.30361173e-02 -2.14276433e-01 +4.94274944e-02 -6.31766394e-02 -1.20806709e-01 -3.45160812e-02 +7.19589517e-02 -1.63833126e-01 +3.03083174e-02 -2.01554298e-02 +9.92712453e-02 +1.79840829e-02 +8.27030167e-02 -2.98757374e-01 +1.59512907e-01 -1.05085887e-01 -2.36121446e-01 -1.67730942e-01 -1.33462802e-01 -5.57839461e-02 -2.08458573e-01 +1.95681825e-01 +6.24559522e-02 +2.35217661e-01 -9.50414240e-02 -2.78985419e-04 +2.94230133e-02 +2.23625302e-01 -1.16704985e-01 -2.14186646e-02 +4.41916361e-02 -7.74424151e-03 +1.56316869e-02 -4.94735241e-02 +8.19861814e-02 +6.13346621e-02 -9.13702101e-02 -1.05762407e-01 -1.50088659e-02 +3.31044234e-02 -1.05033964e-01 -1.90878794e-01 +9.41527337e-02 +3.25779654e-02 -8.64015706e-03 -7.38107488e-02 +8.42294991e-02 +2.37540472e-02 -2.31461748e-01 -1.05044402e-01 -8.44652727e-02 +3.96038331e-02 +2.89536685e-01 -2.59062827e-01 +7.67644495e-02 +6.04642220e-02 +3.27170901e-02 -6.64688647e-02 +1.09481461e-01 -6.32958636e-02 +8.72688740e-02 +8.08574781e-02 +4.25066650e-02 -1.04438312e-01 -1.48888350e-01 -2.01878861e-01 +7.29412131e-04 -1.17374569e-01 +8.23434368e-02 +9.70579907e-02 +4.36206162e-02 +1.53159648e-01 +2.92963088e-02 -5.88257313e-02 +3.41787599e-02 +3.32168154e-02 -2.08503008e-01 +2.12839752e-01 -3.07400227e-01 -2.76827719e-02 -7.50968158e-02 -6.96676299e-02 -3.26281823e-02 -8.23156387e-02 +7.68758431e-02 -1.39923811e-01 -3.62192154e-01 -9.11484584e-02 -9.25454721e-02 -7.47006088e-02 -3.85701023e-02 -7.31915425e-05 -5.72119318e-02 +2.46732309e-01 +4.72018868e-02 -2.42658615e-01 +8.61535147e-02 -1.25430450e-01 -1.41427428e-01 -5.81406169e-02 +3.07845086e-01 -7.10768551e-02 +1.29832417e-01 -1.64509732e-02 -5.99669591e-02 -5.59317283e-02 +1.08703122e-01 -2.18497574e-01 -1.16737420e-02 -1.69461563e-01 +5.74863255e-02 -1.26464978e-01 +1.21808611e-01 -2.23313227e-01 +2.45429039e-01 +4.79719825e-02 +2.17881035e-02 -1.42167853e-02 -7.65881911e-02 -3.93430982e-03 -1.72721148e-01 +1.03695303e-01 +5.51064266e-03 -1.33035428e-04 -1.18294924e-01 -4.09616204e-03 -7.42810667e-02 +1.03255339e-01 +7.28793740e-02 -7.63200745e-02 -8.75778794e-02 -1.10628217e-01 -1.14814796e-01 +3.98983620e-03 +4.30154614e-02 +1.29465580e-01 +2.75918823e-02 -1.12688214e-01 -1.69635355e-01 -1.29490808e-01 +9.04204473e-02 -1.19040996e-01 -3.27606983e-02 -5.31506389e-02 -8.77975747e-02 -5.85236959e-02 +6.19702078e-02 -1.21701993e-01 -1.68409616e-01 -1.42677352e-01 -2.02193737e-01 -1.57654554e-01 +1.85098693e-01 -1.44288704e-01 -5.48473559e-03 +2.17947997e-02 -1.95527554e-01 -9.76040680e-03 +1.36250570e-01 -9.81045738e-02 +7.74207413e-02 +6.27727956e-02 +8.08915030e-03 -9.88290459e-02 -8.70776847e-02 -1.64722547e-01 +2.01413780e-03 -2.78632432e-01 -2.63705440e-02 +2.68005580e-01 -3.34940776e-02 +3.17991637e-02 -8.83590023e-04 +8.50756019e-02 -3.07844728e-02 -2.16787308e-01 -1.46804020e-01 +1.11645855e-01 -6.29027933e-02 -1.37749419e-01 +1.47380754e-01 -1.03268087e-01 +1.46828681e-01 -2.89218500e-02 +6.66184351e-02 -2.58512776e-02 -3.90015431e-02 -8.67082365e-03 -5.79406321e-02 -2.13589549e-01 -2.60848641e-01 -1.14687994e-01 -1.08840793e-01 +1.48629323e-01 -9.63912979e-02 -3.38983797e-02 -4.13932428e-02 -1.58847719e-01 -1.29237816e-01 -7.20811859e-02 +3.73243332e-01 +6.15677126e-02 +5.37063777e-02 -4.31627175e-03 +6.01426102e-02 -1.71497583e-01 +1.27176821e-01 -1.49729431e-01 -1.25428706e-01 +6.99045584e-02 +1.13798819e-01 -1.59108248e-02 +5.14673069e-02 -1.30826801e-01 +4.25794423e-02 -1.28861461e-02 -1.44039437e-01 -1.36175662e-01 -8.41631591e-02 +6.30036145e-02 +1.87336523e-02 -1.34922996e-01 +1.12116255e-01 -1.49658546e-01 +6.58213906e-03 -7.62109384e-02 -5.54859042e-02 -1.11557692e-01 +4.44552824e-02 +4.16737907e-02 -2.36436520e-02 +2.83876546e-02 +1.60113245e-01 -1.15489945e-01 -1.42557994e-01 -1.45344362e-01 +5.46912178e-02 -1.04975976e-01 +3.89514938e-02 +4.71209474e-02 -1.16353735e-01 +9.13691819e-02 -1.21007070e-01 +6.53843954e-02 -1.41269818e-01 +4.99732345e-02 +2.87471022e-02 +5.58917634e-02 -1.49595052e-01 +8.11454579e-02 +4.61785309e-02 +1.25320826e-03 -1.53178886e-01 +1.39189467e-01 -1.42772451e-01 +1.76874310e-01 +9.14729908e-02 +6.40159547e-02 -1.67952999e-01 -5.70262820e-02 -2.77593322e-02 -6.55144677e-02 +1.64899591e-03 +8.12832639e-02 +1.13026891e-02 -7.08655417e-02 -3.83157618e-02 -1.11485481e-01 -5.88114969e-02 +1.22471927e-02 -9.65163633e-02 +1.30179171e-02 -8.14178810e-02 +1.22667648e-01 -2.05154210e-01 -8.58545024e-03 -1.46657205e-03 +9.22436863e-02 +1.54795721e-01 -1.47152901e-01 +2.44954657e-02 +1.06025547e-01 +3.15600298e-02 -1.72055230e-01 +9.73077677e-03 -1.39871258e-02 -8.42105895e-02 -2.38656867e-02 +2.27559675e-02 -1.08740069e-02 -1.00904956e-01 -9.92932320e-02 -4.11161259e-02 -7.74373114e-02 +2.84322109e-02 +6.70869127e-02 +7.78373480e-02 +6.29964024e-02 +7.08696097e-02 -1.39150053e-01 -5.54742403e-02 -4.14748564e-02 +1.84770033e-01 -1.48402587e-01 +1.03227638e-01 -3.19160111e-02 +7.16798753e-02 -8.33432749e-03 +9.05879736e-02 +1.06512599e-01 +1.16395205e-01 -9.15859044e-02 +1.60868671e-02 +5.00234067e-02 -1.22596480e-01 -2.70503443e-02 +3.28064524e-02 +7.26541579e-02 +9.52176899e-02 +1.52777433e-01 +7.33427331e-02 -3.30921933e-02 -2.83740729e-01 -1.20346397e-02 -1.32841785e-02 -1.19430289e-01 -2.21971497e-01 -1.18677177e-01 -6.05886243e-02 -8.07775334e-02 +1.07253250e-02 -1.20171662e-02 +8.85746721e-03 -1.58223152e-01 -4.41500060e-02 -3.96541394e-02 +1.19759358e-01 -2.26626605e-01 -1.81654736e-01 +4.83128102e-03 -1.49619028e-01 -8.11928883e-02 +2.63814852e-02 -8.49249959e-02 -6.20361827e-02 -7.64332861e-02 -1.70790032e-01 -5.40859587e-02 -9.80044752e-02 -1.33384034e-01 +8.18457231e-02 +3.41037400e-02 -1.03976727e-01 -4.28641066e-02 -1.05785020e-01 -2.97546566e-01 +9.05600563e-02 -1.44695163e-01 -5.56223653e-02 -6.73030317e-02 -2.26105943e-01 -1.17361628e-01 -6.28882498e-02 -1.68943301e-01 -1.65115744e-01 -1.58825979e-01 -1.70035943e-01 -1.03620611e-01 -9.88476649e-02 -8.01158845e-02 -7.13788625e-03 +8.31805021e-02 -6.46634251e-02 -5.98206073e-02 -8.12472589e-03 -8.55452344e-02 +6.00543991e-02 -2.19592676e-01 +1.02558054e-01 -1.27310798e-01 -2.88179725e-01 -2.00464457e-01 +1.12786993e-01 +3.42675038e-02 +4.98569943e-02 -1.35382965e-01 -2.01657712e-01 -2.00265888e-02 -1.02767356e-01 +5.61467968e-02 +7.95334019e-03 +6.60836175e-02 -1.09260060e-01 -1.17857791e-01 -6.41622469e-02 +4.84857783e-02 +2.22779587e-02 -7.66548654e-03 +2.34868467e-01 -1.18507236e-01 -7.01049939e-02 -4.52750213e-02 -9.91109088e-02 -2.48965006e-02 -8.84334594e-02 -3.38144749e-02 -4.39193994e-02 -2.13460594e-01 -1.20887004e-01 -9.86409187e-02 +2.82045081e-03 +1.32165104e-01 -1.51119158e-01 +1.90848168e-02 -2.56452113e-01 +1.97462328e-02 -1.27862036e-01 +1.93094611e-02 -9.96979699e-02 -2.32552931e-01 +1.34644479e-01 -1.32016525e-01 +8.83954167e-02 -8.94388556e-02 +1.12689167e-01 +1.85723975e-02 +4.04215530e-02 -1.20835379e-01 -1.96399301e-01 +2.01402038e-01 +6.75854832e-02 +3.38343270e-02 +1.09983198e-01 -3.35859098e-02 +1.76082343e-01 +9.21506286e-02 -3.17442864e-02 -1.48922233e-02 -1.35889336e-01 +5.21222502e-02 +3.93317156e-02 -1.14435762e-01 -1.27371103e-01 -3.42708491e-02 +1.38681129e-01 +1.21474318e-01 -1.67947747e-02 +2.67510954e-02 -1.54778108e-01 -8.40254351e-02 -2.40938142e-02 -7.98166320e-02 +1.86361689e-02 -1.20317722e-02 -1.11410365e-01 -1.73566282e-01 +4.02414769e-01 +3.58738005e-02 -7.26775527e-02 -1.21880345e-01 +1.20579176e-01 +8.32093731e-02 -6.74796999e-02 +8.74265749e-03 +7.81314299e-02 +1.57222450e-02 -3.53453383e-02 +3.47118378e-02 +1.51386887e-01 -9.86020342e-02 -6.07058033e-02 +2.72374302e-01 -1.27490878e-01 -4.22875173e-02 +1.62049569e-02 -3.52008976e-02 -9.28609818e-02 -2.63139810e-02 +1.02699347e-01 -1.04462244e-01 +1.08385901e-03 -8.14212486e-02 +1.50156409e-01 -7.20115453e-02 -3.42867374e-02 -4.81191179e-04 -1.63614154e-01 -1.44420773e-01 -2.29791980e-02 +1.28045216e-01 +1.72572478e-03 -1.22035155e-02 -2.85595395e-02 -9.08580944e-02 -9.69170555e-02 +1.75063923e-01 +4.54645306e-02 +3.78822312e-02 +1.32252932e-01 -1.10570639e-01 +6.25322238e-02 -3.83228138e-02 -1.08844019e-01 -7.74394944e-02 +3.33538689e-02 -7.06778392e-02 +6.11339509e-02 -1.17067005e-02 +1.09117635e-01 -1.28257483e-01 +3.89304385e-02 +1.12069033e-01 -9.33361182e-04 +2.45985221e-02 -4.58123609e-02 +1.12332307e-01 +1.01085745e-01 -3.28534916e-02 +5.24808690e-02 -1.21483002e-02 +4.37815720e-03 -1.44100323e-01 -1.24053158e-01 -1.53912632e-02 -1.39759913e-01 -4.78993990e-02 -1.52704194e-01 -4.53437790e-02 -1.84521347e-01 +1.14136018e-01 +7.53698125e-02 -1.23113260e-01 +6.80825636e-02 -9.84882340e-02 -1.08491220e-01 -8.36839080e-02 -6.32055989e-03 -1.80064872e-01 -2.32099574e-02 -1.25004485e-01 +1.82335265e-02 +6.06830493e-02 -1.43691793e-01 +5.88802919e-02 -1.16480561e-02 -2.48609763e-02 -4.27839952e-03 +7.46199563e-02 -3.55238169e-02 -1.20646460e-03 -1.47271706e-02 -1.44982502e-01 +3.79794352e-02 +9.14298669e-02 -2.30989046e-02 -2.11405918e-01 +4.31599915e-02 -1.61100790e-01 -9.00046155e-02 -2.59894997e-01 -4.74175401e-02 +1.14705926e-02 -3.07508763e-02 +2.72394307e-02 -4.48637642e-02 -5.09704091e-02 +1.77044868e-02 -7.47046396e-02 +1.33517385e-01 +4.94014770e-02 +7.39334375e-02 -2.83258669e-02 -2.46835098e-01 -3.03810518e-02 -1.47885233e-01 -1.56235740e-01 +8.72993320e-02 -8.60037580e-02 -1.90667063e-02 -1.12098251e-02 -2.80436635e-01 +4.62914184e-02 +8.98383707e-02 -2.79645044e-02 +4.26165462e-02 -5.33276200e-02 -6.80843741e-02 -1.49482831e-01 -1.72400812e-03 +1.23346239e-01 -4.83281352e-02 -4.68878187e-02 -2.78697699e-01 -1.83267578e-01 -9.09629464e-02 +5.62409610e-02 +8.27701166e-02 -1.19857036e-01 -6.70843720e-02 -2.07228765e-01 +8.14919174e-02 +2.77476106e-02 -1.44290254e-01 +6.34000823e-02 +6.23842366e-02 -3.07507832e-02 +3.75157781e-02 -8.14477820e-03 -1.41233891e-01 -1.50144801e-01 -1.52458157e-02 +6.56703413e-02 -1.55621797e-01 -1.55921787e-01 -1.75284594e-01 -1.10478632e-01 +1.11067481e-01 +9.61617604e-02 -7.64626414e-02 -1.47385210e-01 +1.86706390e-02 +1.62513778e-01 +2.31942888e-02 +2.56426856e-02 +6.07571825e-02 -8.13500956e-02 -1.71890650e-02 +2.40272228e-02 -1.77253354e-02 +7.46337324e-02 -5.55299819e-02 +2.34054714e-01 +9.39010903e-02 -1.29051460e-03 +1.73528150e-01 +1.68123230e-01 -1.80775240e-01 +3.31909247e-02 +9.57275927e-02 +2.14118068e-03 +7.36887753e-02 +1.01937048e-01 +1.68534577e-01 -1.09482028e-01 +1.07708186e-01 -1.71715245e-01 -1.33860782e-01 -6.09319955e-02 +8.68939832e-02 +7.55761117e-02 +2.21175179e-01 -1.34987041e-01 +7.95757994e-02 -9.84201487e-03 +9.37777609e-02 -4.17087339e-02 +2.72774491e-02 +7.94991553e-02 +4.53594439e-02 -2.03599837e-02 +1.22134306e-01 -1.69136435e-01 +1.47530809e-01 -7.92499930e-02 -2.99412645e-02 +4.15786393e-02 +1.81946978e-01 -3.16256061e-02 +1.11881167e-01 -9.40032210e-03 -6.24320935e-04 -2.38803159e-02 -3.70428748e-02 -6.10655695e-02 +2.52097063e-02 +1.38371252e-03 +1.64528310e-01 -2.96938941e-02 -2.04222396e-01 +1.04311757e-01 +4.20584269e-02 -3.19942832e-02 +1.69323072e-01 +1.08165696e-01 +1.42364264e-01 +2.83772759e-02 +7.75890425e-02 +5.05807996e-02 -8.00516754e-02 +3.11239213e-02 +2.39671231e-03 +1.49781913e-01 +3.17115188e-02 +1.73981741e-01 +9.77497622e-02 +1.15535604e-02 -9.21097323e-02 +5.62359653e-02 +1.23417219e-02 +1.76128894e-02 +1.69969071e-03 +1.87965527e-01 -2.32700795e-01 +4.13626805e-02 +2.56961901e-02 +1.37651771e-01 +2.11651072e-01 +9.45360865e-03 -1.01620458e-01 -1.11625709e-01 +1.12771399e-01 +1.19419962e-01 -1.73095196e-01 -7.17959702e-02 -5.05528823e-02 +1.68224484e-01 +7.30602257e-03 +1.50102023e-02 -7.19661713e-02 -4.15543020e-02 -1.00646066e-02 +1.19411342e-01 -1.46271527e-01 +2.33560383e-01 -1.71617270e-01 +8.98469165e-02 -8.85092318e-02 +6.35306686e-02 -1.20361567e-01 +4.43477109e-02 +1.21537158e-02 +2.85287108e-02 +1.14950940e-01 -2.26338491e-01 +6.67775050e-02 +6.52114954e-03 +5.36164781e-03 -2.03216329e-01 -2.12048173e-01 -1.28608167e-01 -1.61059245e-01 -1.24429062e-01 -9.52645764e-02 +2.64334809e-02 -1.53412476e-01 -1.92204446e-01 -1.64352775e-01 +1.08326927e-01 -2.33081598e-02 +1.15824685e-01 -4.44711521e-02 -1.32987648e-02 -7.66065270e-02 +1.80010110e-01 -2.94456095e-01 -5.34948111e-02 -2.29466185e-01 +1.31116599e-01 +1.46645486e-01 -4.86337487e-03 -9.25160125e-02 +1.17272623e-01 -2.83349514e-01 -1.48901716e-01 +2.61649519e-01 +4.35684137e-02 +7.87615478e-02 -2.03375816e-01 +6.82097375e-02 -1.21502168e-01 -5.81650883e-02 +1.48388818e-01 +1.42061770e-01 -2.01375484e-01 -2.59363711e-01 +2.37575039e-01 -1.98705733e-01 +1.68659031e-01 -5.22693321e-02 -1.94896728e-01 +1.25644505e-01 +9.98643860e-02 -1.42109051e-01 -1.34811267e-01 -3.79251987e-02 +3.10159456e-02 -8.32910612e-02 -1.61478326e-01 -1.10279620e-01 +1.22187249e-01 -3.92634468e-03 -7.29752565e-03 +4.69485391e-03 -1.78579256e-01 +1.16609000e-02 -1.68802395e-01 -1.01279147e-01 +4.03536484e-02 +8.30427334e-02 -4.42415848e-03 +2.98661947e-01 +2.83045918e-01 -3.03029478e-01 +1.74880624e-01 +6.55429065e-02 +1.11668659e-02 -2.46586446e-02 +1.60785824e-01 +7.43983686e-02 -1.50563762e-01 -4.94010486e-02 -2.04059944e-01 -4.69581783e-02 +4.85349409e-02 +5.73665020e-04 -6.70512915e-02 -2.20463568e-04 -4.94240830e-03 -1.07636832e-01 -1.70308039e-01 -1.36036068e-01 +9.40218717e-02 -6.20059110e-03 +2.09440477e-02 +5.74812330e-02 +3.65918539e-02 -9.71084014e-02 -1.89922638e-02 +4.20740619e-03 -8.04937109e-02 -1.85469221e-02 -4.16458100e-02 +1.07997485e-01 -9.76762548e-02 -1.16035379e-02 +1.54111907e-01 -9.95658264e-02 -4.59651090e-02 -1.46375954e-01 +3.06880623e-02 +5.80727123e-02 -8.72706100e-02 +7.48209953e-02 -4.33510803e-02 -1.23876613e-02 -2.67638087e-01 -2.16859907e-01 +1.53136685e-01 +4.97440509e-02 -6.38483688e-02 +8.89307335e-02 +6.89855665e-02 -1.09447412e-01 +1.51027918e-01 -1.16591871e-01 -8.28546807e-02 -4.11951020e-02 +1.98287502e-01 +1.68465033e-01 +7.62086585e-02 -1.85035661e-01 +6.84487373e-02 -1.61055610e-01 -8.53354111e-02 +8.21440220e-02 +5.53050674e-02 +3.61159407e-02 -2.32652053e-02 +1.09011188e-01 -1.01598099e-01 -8.14650804e-02 -1.01318955e-01 +7.92287216e-02 -2.47639716e-01 -3.63111118e-04 +4.94912528e-02 -2.43767664e-01 +2.79402673e-01 +3.27041298e-02 +1.55174285e-01 +1.87361285e-01 -9.97683331e-02 -1.32636994e-01 -1.22880802e-01 +4.52065170e-02 +1.78653777e-01 -3.31012100e-01 -6.42788634e-02 +4.95160334e-02 +2.17257030e-02 +1.07046865e-01 +1.00102328e-01 +1.17751367e-01 -1.03541277e-01 -1.58125058e-01 -1.51618442e-03 -1.34541795e-01 +8.42420161e-02 +1.45230219e-01 +1.05642423e-01 +3.27568144e-01 +6.75496012e-02 -9.15839002e-02 +7.08027780e-02 +4.67553474e-02 +1.31843954e-01 +3.32238860e-02 +5.37839308e-02 -5.92746921e-02 +3.05885989e-02 -1.54129058e-01 -1.99648976e-01 -1.39457166e-01 -1.46262450e-02 +1.81594014e-01 -1.69636503e-01 -3.07786278e-02 +9.48832929e-02 +7.42956102e-02 +5.98496534e-02 +8.13056231e-02 -2.18590960e-01 -1.54761449e-01 +6.85923845e-02 -5.88252954e-02 +3.75974439e-02 -8.93186256e-02 -1.22554041e-01 +3.17945331e-02 +3.49379256e-02 -4.14193831e-02 -2.13030443e-01 +7.96101168e-02 +4.08492796e-02 +3.81542407e-02 +2.28001729e-01 -6.77510574e-02 -5.26104309e-02 -3.34930420e-02 +2.35713180e-02 -1.51740402e-01 -8.59693345e-03 +1.08873487e-01 -2.40591392e-02 -2.68715024e-02 -1.02815345e-01 -1.50477186e-01 +4.63684276e-02 -1.44838810e-01 -5.38824089e-02 -3.28690116e-03 +1.21004499e-01 -2.64174789e-02 +1.76758245e-01 -2.85888463e-01 -1.97194114e-01 +6.42128885e-02 +2.25984797e-01 +2.59994995e-02 +4.90946583e-02 -3.45735252e-01 -1.52517676e-01 -4.65329550e-02 -2.14548394e-01 +1.30758628e-01 +1.20796904e-01 +2.78250892e-02 +1.03121728e-01 +1.12093993e-01 -3.73335332e-02 -1.19062893e-01 -1.02401257e-01 +2.28275537e-01 -7.90998340e-02 +2.42390689e-02 +3.30492944e-01 -2.54338443e-01 +1.34155646e-01 -2.35571451e-02 -8.31231996e-02 +2.21493825e-01 -1.19144648e-01 -6.07754961e-02 -4.22751606e-02 -1.20684430e-01 +6.43533096e-02 -3.31261128e-01 -1.56579614e-01 -5.54536730e-02 +9.84616671e-03 +3.74900782e-03 +2.40655497e-01 +8.34918022e-02 -9.83783603e-02 -3.70519049e-02 -1.57250658e-01 -1.40057698e-01 +9.46789607e-03 +1.26552761e-01 +2.13480175e-01 +3.12625766e-01 +3.16373795e-01 -1.74080193e-01 +2.19995409e-01 +8.68101195e-02 -9.61950496e-02 +1.32028952e-01 +2.44891495e-01 -2.11789593e-04 -5.36523573e-02 -1.39978603e-01 -1.44059852e-01 -2.88876027e-01 +7.96206389e-03 +2.11831108e-01 -1.57095551e-01 +1.64523125e-01 -4.40115333e-02 +1.22113973e-02 -2.36829638e-01 -1.00311123e-01 -9.69117731e-02 +1.10265471e-01 -2.52532721e-01 +8.58896077e-02 -4.79441434e-02 +1.34919405e-01 -2.24500507e-01 -1.41109616e-01 -3.49508831e-03 +3.20782932e-03 +2.60797758e-02 +9.53526571e-02 -1.32595330e-01 +1.09155431e-01 -5.28853498e-02 -8.09821859e-02 +8.32818374e-02 -4.12147455e-02 +6.24917559e-02 -1.30832633e-02 +1.60708725e-01 -2.96182148e-02 +1.30149126e-01 -5.50761819e-02 +1.27764329e-01 +7.90063366e-02 -1.11460961e-01 +1.19185746e-01 +3.26683670e-02 -1.72925740e-01 +9.76663381e-02 +1.18388772e-01 +2.13979900e-01 +7.69793317e-02 +2.65723262e-02 -7.27477893e-02 -9.36744437e-02 +1.02975190e-01 -2.75949817e-02 -5.55415228e-02 -6.00114055e-02 +4.16417755e-02 -4.75059897e-02 +2.68788517e-01 -1.94149971e-01 +1.65496051e-01 -1.08976580e-01 -1.80646032e-01 +2.60213912e-02 -8.16256925e-03 +1.14076518e-01 +2.48572268e-02 +9.49583575e-03 -9.28539559e-02 +3.34636152e-01 -4.32928242e-02 -1.67907476e-01 -7.58331120e-02 +3.86700071e-02 +1.42639920e-01 -1.24418907e-01 +1.13825306e-01 +9.53566134e-02 +1.04945693e-02 -1.87912568e-01 +8.72841179e-02 -4.13211249e-02 +7.90379047e-02 +3.06919724e-01 -2.46809702e-02 -1.53107733e-01 +1.88677281e-01 -1.44432321e-01 -6.02044538e-02 -8.20366740e-02 +1.40077516e-01 +9.11584646e-02 -3.75556275e-02 -1.86850220e-01 -5.14089651e-02 -3.22250277e-02 -3.64662521e-02 -2.36548111e-01 -2.72994060e-02 +4.42437679e-02 +1.46753015e-02 -6.19785935e-02 +1.65487990e-01 +8.52958933e-02 +1.20946899e-01 -1.50571033e-01 +8.59412774e-02 +1.00945439e-02 -1.05397314e-01 -1.47607043e-01 +6.83981255e-02 -3.65951657e-02 -5.14840819e-02 +1.45956263e-01 -1.40099032e-02 -2.44842172e-01 +4.48897600e-01 +1.82129860e-01 +5.79678304e-02 +2.27061450e-01 +2.51110438e-02 -2.12885942e-02 +8.61002039e-03 -6.21914081e-02 +2.29366317e-01 -6.76665083e-02 +3.44747072e-03 +2.20240653e-01 -2.84591801e-02 +1.18120752e-01 +3.23079079e-02 -9.69412997e-02 +4.24612276e-02 +3.37953389e-01 +1.19350128e-01 +1.38690993e-01 -9.22182798e-02 -1.03118241e-01 -5.56742959e-02 +5.16653433e-02 +2.26237476e-01 +5.17241051e-03 +6.76629916e-02 +1.41178802e-01 +3.59872207e-02 +1.25638634e-01 -1.13189116e-01 +3.07491809e-01 -1.89244181e-01 -8.20162818e-02 +8.69188666e-01 -5.98668717e-02 -5.39256632e-02 -1.95316628e-01 -1.64681137e-01 +4.50381152e-02 -2.00506523e-01 -1.24502532e-01 -1.10830650e-01 -1.13475062e-01 +8.45030993e-02 -4.59668506e-03 -3.07863373e-02 +2.15522230e-01 +8.35862942e-03 -1.13938317e-01 +6.62425086e-02 +2.19709426e-01 +5.54935187e-02 +1.14100501e-01 -1.78525358e-01 -1.21267840e-01 -5.69535755e-02 +1.38503447e-01 -3.60229239e-02 +1.05608948e-01 -1.31586811e-03 +1.50208175e-01 +5.39826155e-02 -8.88630301e-02 -1.18123278e-01 -2.33828545e-01 +1.31551698e-01 +2.42187958e-02 -1.08349174e-01 +3.10510099e-01 +2.37689123e-01 -1.31702438e-01 -8.31805915e-02 +3.38165700e-01 +1.56247884e-01 +2.72940159e-01 -1.10650815e-01 -8.52357671e-02 -2.64176149e-02 +2.43600160e-01 -8.33295062e-02 -2.35075150e-02 +5.90150990e-02 -1.81870937e-01 +4.33072925e-01 -8.38876367e-02 +2.97984108e-02 -2.85593271e-01 -2.15689361e-01 +1.31278425e-01 -3.31147701e-01 -1.24054402e-01 -8.37069377e-02 +7.23437965e-02 +3.62553783e-02 +3.35858226e-01 -8.69604349e-02 -7.79839829e-02 +5.52268848e-02 -2.72972398e-02 +1.83680683e-01 +1.03151500e-01 -6.19675545e-03 -7.99394175e-02 +1.03052244e-01 -1.32090598e-01 +4.77391109e-02 -5.23715541e-02 +2.70845413e-01 -9.14598554e-02 +2.51137596e-02 +2.85354499e-02 +6.25107903e-03 +7.78638199e-02 -1.43742096e-02 -3.49453278e-02 +2.44988188e-01 -2.31916696e-01 +2.45728076e-01 +8.46314803e-02 -3.02011460e-01 +1.11747295e-01 -2.50939250e-01 +2.16676489e-01 +8.29032212e-02 -1.63778305e-01 -8.88121203e-02 -3.24152410e-02 +1.10259376e-01 -6.48859190e-03 +3.44763063e-02 -5.18397167e-02 -3.30927595e-03 -7.42800236e-02 +8.23950350e-01 -9.97818913e-03 -2.72654533e-01 +1.22019444e-02 -1.44615456e-01 +1.25616536e-01 -1.13005107e-02 -1.57277495e-01 +2.25470494e-02 -2.08530277e-02 +5.93353622e-02 +2.07510814e-01 +5.62277734e-02 -2.05997564e-02 -1.17826618e-01 -1.77366182e-01 -1.87726095e-01 +1.64880045e-02 +6.69423565e-02 +7.82924518e-02 +2.19049659e-02 -3.46119076e-01 -1.92152083e-01 +7.80714080e-02 -3.94237647e-03 -1.79584131e-01 -1.93530142e-01 -2.47221394e-03 -2.86433250e-01 -2.87738770e-01 -1.97779328e-01 -1.22626610e-01 +3.05148177e-02 -1.04805589e-01 +1.29227996e-01 +3.76052735e-03 -2.49815285e-01 +1.24769025e-02 -7.16574788e-02 +1.04230247e-01 +1.09380521e-01 -3.75913493e-02 -8.10323805e-02 +3.16557959e-02 +3.90496999e-02 -1.10968620e-01 -1.61045820e-01 +6.89266771e-02 +5.80221862e-02 +2.52248421e-02 +3.06833953e-01 -1.61414891e-01 -1.78882003e-01 -2.74606436e-01 -6.22042753e-02 +6.87302463e-03 -2.74356753e-01 +5.85346110e-02 +1.56528294e-01 -6.86706677e-02 -2.90675778e-02 +6.73202798e-02 -1.80268347e-01 +8.90486166e-02 -2.02152848e-01 -1.35958329e-01 +1.18857272e-01 +3.45229089e-01 -8.87984931e-02 -2.23297715e-01 +1.33231252e-01 -1.70043588e-01 +6.36364296e-02 -1.96121007e-01 +1.09184392e-01 -3.30143720e-01 -1.89644188e-01 -1.57155663e-01 -7.00691193e-02 -7.54775852e-02 -1.33556247e-01 -1.16021402e-01 +1.07960321e-01 -1.13006875e-01 +3.17183100e-02 -1.19076177e-01 -1.68053493e-01 -6.26144260e-02 -2.38467976e-01 +1.39848873e-01 -2.82943130e-01 -1.26341973e-02 -2.05232836e-02 -8.56045559e-02 +6.61526620e-02 +8.04702044e-02 +5.57123572e-02 +1.45812154e-01 +4.95051779e-02 +7.17020929e-02 -2.44632274e-01 +1.30299255e-02 -8.32554977e-03 -2.22104147e-01 -5.24893478e-02 +9.65104345e-03 -7.65568390e-02 -3.32070179e-02 -6.61218986e-02 -2.22089961e-02 +2.42687464e-01 -2.33979702e-01 +9.27614421e-02 +2.18254730e-01 -2.92054594e-01 +3.83580173e-03 +6.69159219e-02 +1.85021847e-01 +7.85427243e-02 -4.16725166e-02 +1.28549829e-01 -8.52842554e-02 -1.59056529e-01 +6.72081858e-02 -2.93881632e-02 -1.30876347e-01 -1.17738359e-01 -2.11961314e-01 -2.15546742e-01 -1.43989950e-01 -1.36845529e-01 -2.31791988e-01 +5.32949194e-02 -9.08962786e-02 -7.56096616e-02 +1.52445540e-01 +2.13756915e-02 -7.90219232e-02 -1.80763513e-01 -2.34378837e-02 +2.79492401e-02 +1.60812259e-01 +4.13206443e-02 +1.43916637e-01 +2.89665833e-02 -1.40698895e-01 -8.43249038e-02 -4.12058011e-02 +5.32529987e-02 -2.16602355e-01 -3.77917998e-02 -2.73224581e-02 -1.26810104e-01 -1.41249644e-02 -2.86451280e-01 -2.56775152e-02 -7.31225535e-02 +9.76488441e-02 -1.76676348e-01 -5.10402285e-02 -5.58029637e-02 +1.40025482e-01 -4.27164584e-02 +7.71350861e-02 -1.28648430e-02 -1.63911745e-01 +3.24897230e-01 -1.23137020e-01 -4.00365219e-02 +1.93208665e-01 -1.74885452e-01 +1.62038997e-01 +2.22068220e-01 -4.15439084e-02 -3.74426514e-01 +4.97322008e-02 -2.35659376e-01 -2.23510846e-01 +3.79781239e-02 -3.93498875e-02 +1.75102025e-01 -2.41733771e-02 -5.20274751e-02 +2.80979246e-01 +1.16544656e-01 +9.02674869e-02 +2.59974092e-01 -7.06283972e-02 -7.56538212e-02 +3.79326135e-01 +1.42767936e-01 +1.23919278e-01 +1.98951691e-01 +1.33925945e-01 -1.32152468e-01 +3.29293370e-01 -1.56815033e-02 -3.09193701e-01 +1.51557267e-01 +1.52398571e-01 -3.94739896e-01 +2.65930802e-01 -1.38708621e-01 +9.79163721e-02 +1.97099045e-01 +8.23472813e-02 +1.02890059e-01 +1.30181005e-02 -1.93211168e-01 -5.14749996e-03 +1.41842872e-01 +3.56460698e-02 +1.30442336e-01 -2.05738083e-01 +1.57811269e-01 +4.68463562e-02 -4.02767181e-01 +1.38076395e-01 +1.76696107e-01 -2.70217061e-01 +1.61772013e-01 +1.55011758e-01 +1.36685163e-01 +3.89719903e-01 -1.92516595e-01 -5.68525866e-02 -5.41160554e-02 -1.02238797e-01 -1.68654814e-01 +9.96988192e-02 -5.33321649e-02 +5.62258344e-03 -1.91348165e-01 +2.51720250e-01 +6.20587282e-02 +4.43239838e-01 +3.10891926e-01 +1.68112636e-01 +2.29658082e-01 +1.97438493e-01 -3.36849280e-02 -1.14972368e-01 +1.83159620e-01 -9.21344291e-03 -5.69510087e-02 +1.88854188e-01 -2.30321914e-01 -2.10720655e-02 +1.58832848e-01 -8.81213974e-03 +1.49184838e-01 -1.94025077e-02 +1.00494616e-01 +4.05546091e-02 +1.22384774e-02 -1.69668078e-01 -9.52264369e-02 +9.07834843e-02 +1.92113936e-01 -8.80286768e-02 +2.44070306e-01 -3.16337556e-01 +8.56639817e-02 +9.88736525e-02 -9.34752449e-02 -2.81152606e-01 -1.16545737e-01 -2.86433935e-01 -9.55061894e-03 -5.87007143e-02 -1.66750148e-01 -2.27601811e-01 -2.47677907e-01 -2.11086899e-01 -7.37442672e-02 -1.58288822e-01 -2.92545676e-01 -2.03218192e-01 -3.74117941e-01 -5.13504297e-02 +2.09863737e-01 -1.11518249e-01 -2.75556237e-01 -8.66453350e-02 +4.18657921e-02 -1.84428185e-01 -2.73544163e-01 -2.20454633e-01 +1.75888091e-01 +5.88667579e-02 -1.10323146e-01 -3.11045438e-01 -3.19087625e-01 -9.58092064e-02 -1.44698530e-01 +3.68152261e-02 -1.57385152e-02 -1.06678970e-01 +7.99132884e-02 -5.34267306e-01 -1.99963346e-01 -4.02450114e-01 -2.34725326e-01 -1.08458184e-01 -1.27673104e-01 -2.32555538e-01 -2.45248973e-01 -2.62342840e-01 -1.23050168e-01 -2.18588367e-01 +1.62240677e-02 -4.90455292e-02 -1.74467191e-01 -2.27124020e-01 -1.39912352e-01 -4.57384974e-01 -2.84645885e-01 +3.27641815e-01 -4.45645452e-02 +3.38237807e-02 -1.81191862e-01 +9.15063843e-02 -7.87058622e-02 -1.70944229e-01 -5.18018186e-01 -2.03697592e-01 +1.52464285e-01 +1.25956491e-01 +6.31097630e-02 -4.72583979e-01 -4.25271727e-02 -3.31743240e-01 -6.04159385e-02 -4.40521799e-02 -2.43308306e-01 -2.92973578e-01 -1.97574377e-01 -2.83270180e-01 -1.21357545e-01 -7.08503425e-02 -2.29117349e-01 -3.53313714e-01 -2.42566112e-02 -3.63285005e-01 -3.58696096e-02 +9.59751084e-02 -6.75327852e-02 -2.76980996e-01 -1.45732492e-01 -7.69663900e-02 -5.05592786e-02 -5.42644784e-02 +6.92917407e-02 -1.45839959e-01 +1.98133543e-01 +7.10473508e-02 -3.98048520e-01 -2.23795339e-01 -1.34311160e-02 -2.62169868e-01 -2.38553226e-01 -3.89656454e-01 +1.44731728e-02 -1.60894781e-01 +5.97259030e-02 +2.90983260e-01 -2.95638964e-02 +2.31434479e-02 -7.27571398e-02 +9.91444662e-02 +1.21326163e-01 -2.23425142e-02 +3.46765071e-02 +3.30744505e-01 +1.51528195e-01 +1.43869162e-01 -3.16511355e-02 -7.86575601e-02 +2.23264739e-01 +2.03444406e-01 +3.26583475e-01 -4.23340470e-01 -7.97879249e-02 +1.75552696e-01 +1.22774959e-01 -7.44534060e-02 +5.12246639e-02 -1.24168754e-01 -1.84079185e-02 -4.48355749e-02 -5.75147159e-02 -6.34440482e-02 -1.59153208e-01 -1.07304208e-01 -9.81938690e-02 +7.43052810e-02 -3.11670247e-02 -6.21259697e-02 +1.34282649e-01 +2.16913864e-01 +6.07349053e-02 +1.69490688e-02 +1.47443518e-01 -2.68207826e-02 +2.58065686e-02 +3.84948365e-02 -7.90854543e-02 -2.86999345e-01 +5.48471548e-02 -9.49762613e-02 +1.60431549e-01 -2.47975454e-01 -8.27935785e-02 -5.35751507e-02 +3.23569658e-03 +5.83360307e-02 +2.57237643e-01 +1.42363936e-01 +1.27217531e-01 +1.48851812e-01 -2.47662202e-01 +1.85011312e-01 -6.08345643e-02 -1.83624044e-01 -8.06188062e-02 -1.08857015e-02 +5.99522628e-02 +4.13293391e-02 +2.05292881e-01 -3.12778234e-01 -4.94413637e-02 -1.92472160e-01 -3.58446985e-02 +5.46985772e-04 -6.22559823e-02 -1.50596261e-01 -1.49245217e-01 -7.83036277e-02 -1.40333886e-03 -3.04563157e-02 +1.24385148e-01 +2.78782099e-01 -1.01048917e-01 +1.43539552e-02 +3.10836732e-01 +2.53249198e-01 +3.97575535e-02 -1.37468977e-02 +7.33412579e-02 +5.11816936e-03 +2.03702509e-01 +9.66699719e-02 +2.30937600e-01 -1.41649470e-01 +1.73261777e-01 +3.75213549e-02 +1.44232556e-01 +5.97478487e-02 +3.53093326e-01 +3.06789368e-01 -8.46137665e-03 -7.60542005e-02 -1.67397007e-01 +1.45638257e-01 -2.90700160e-02 +4.97749709e-02 -6.67139590e-02 -2.33683839e-01 -8.13454762e-02 -1.16219446e-02 +6.64204434e-02 -4.07554060e-02 -2.12934509e-01 +8.27852413e-02 -2.70382017e-02 -8.65459144e-02 -5.02841733e-02 +1.68643997e-03 +2.45240796e-02 -6.35694265e-02 +2.87186593e-01 -2.85426736e-01 -1.16011329e-01 -2.91408077e-02 -1.61237776e-01 -3.00781310e-01 -2.13176385e-01 -3.27697307e-01 -9.04326364e-02 +2.06119288e-02 -5.48901185e-02 -1.02722831e-01 -2.36226991e-01 -1.30401224e-01 -3.20447646e-02 +9.44555402e-02 -3.36927101e-02 -1.03620119e-01 +4.53355610e-02 +2.40957856e-01 -7.39874914e-02 -1.08325221e-01 +5.95288090e-02 -1.93177670e-01 +1.84418842e-01 +2.74200030e-02 -2.11116478e-01 -3.09622169e-01 +7.28580058e-02 +3.20147499e-02 -2.15401873e-02 -3.22229564e-01 -1.38206065e-01 -2.62959301e-01 -5.01359180e-02 +3.56651992e-02 +1.75670072e-01 +5.64488582e-02 -1.88405216e-01 -1.93211824e-01 -2.16997862e-01 +8.09729844e-02 -2.38963798e-01 -9.03584659e-02 -1.66684106e-01 -7.34242722e-02 +1.54967874e-01 -1.67689085e-01 -5.72293717e-03 -3.35375458e-01 -2.50340790e-01 -3.27828825e-01 -8.37380588e-02 -2.02165201e-01 -9.35242400e-02 -1.42287001e-01 -2.07352087e-01 -2.04311371e-01 +1.01777717e-01 -3.00509185e-01 +1.63806137e-02 +8.35276768e-02 -2.40712106e-01 +1.61382463e-02 +4.21963185e-01 +1.89247653e-02 -1.42342925e-01 -2.22728878e-01 -1.35465741e-01 +6.30270466e-02 +2.46791448e-02 +1.66204244e-01 -1.07323453e-01 -2.48394653e-01 +8.95542353e-02 -1.68229878e-01 -8.14561080e-03 -9.63888615e-02 -8.36258382e-02 +2.86689132e-01 +1.00224838e-01 -6.74309060e-02 -6.42886609e-02 +5.68230785e-02 -1.67189986e-02 -6.28503859e-02 -2.63001607e-03 -3.92392464e-02 -1.48464426e-01 -1.73987851e-01 -4.65519577e-02 -7.84585718e-03 -3.73576730e-02 +1.21088482e-01 +4.65249084e-02 +1.23057097e-01 +1.87801778e-01 +4.51954640e-02 -7.36577483e-03 -1.91718176e-01 -1.64319519e-02 -1.20286971e-01 +6.61773458e-02 -2.95466721e-01 -3.80993113e-02 -4.52016592e-02 +2.94328686e-02 +1.72202084e-02 +5.09283766e-02 -1.23894796e-01 -1.07018754e-01 -1.97813556e-01 +1.00684185e-02 -3.95444930e-02 +1.54664725e-01 -1.39963493e-01 -1.21208290e-02 +4.89870012e-02 +5.92192486e-02 -1.17476255e-01 -1.54971823e-01 -4.66937851e-03 -1.61672104e-02 -1.56103909e-01 +1.69558898e-01 -2.30560213e-01 -7.26358518e-02 +4.29722369e-02 +1.44245669e-01 -2.78838091e-02 +1.48211848e-02 +1.10955246e-01 -1.98816031e-01 +4.78264242e-02 -1.96646433e-02 +1.34000376e-01 +9.29005593e-02 -5.87521084e-02 -7.10032359e-02 +6.28610030e-02 +1.51420116e-01 -2.28195950e-01 -1.12178914e-01 +2.62839943e-02 +1.99408177e-02 +3.58223990e-02 +3.40938643e-02 +2.88446486e-01 +1.10159524e-01 +2.61237714e-02 -4.54878844e-02 +3.13630477e-02 -2.81342044e-02 +1.24351770e-01 -3.39322127e-02 -2.00083271e-01 -2.71360353e-02 +1.46402959e-02 +1.83019847e-01 +8.46724510e-02 -9.92687345e-02 +3.14804055e-02 -1.37565747e-01 +1.74624890e-01 +2.37586219e-02 -2.44647965e-01 +1.93826426e-02 -2.87397970e-02 +6.52855486e-02 +1.35728508e-01 -1.39544830e-02 -8.01493004e-02 -3.90125178e-02 -1.83542490e-01 +3.55542339e-02 +5.25692627e-02 -8.18685219e-02 -1.47393644e-01 -2.26277202e-01 +3.68399173e-02 +5.58226630e-02 +3.31274280e-03 -2.53755033e-01 +6.53879121e-02 +4.56999391e-02 +1.92402765e-01 -3.94130722e-02 -2.36230288e-02 +9.91543382e-02 +1.16964906e-01 -3.67946811e-02 +1.04502663e-01 -3.11011188e-02 +2.38572657e-01 +2.64324963e-01 +6.31590486e-02 +1.32019475e-01 -1.31596208e-01 -5.48517378e-03 -6.99610561e-02 -6.55787513e-02 +2.61130389e-02 +4.22561578e-02 -7.06178099e-02 +5.30543225e-03 +2.02976689e-02 +1.73528776e-01 +1.17657557e-01 -1.49120495e-01 -1.12001948e-01 -1.06506109e-01 +2.78565943e-01 -8.63196999e-02 -7.48135969e-02 -2.69404016e-02 +1.98209379e-02 +8.51147398e-02 -1.37525812e-01 +4.95187901e-02 +1.72440916e-01 +1.48330867e-01 +1.13276690e-01 +1.86042100e-01 -3.82379033e-02 -1.75022423e-01 +4.47444730e-02 +1.68248676e-02 -1.29060879e-01 +2.46290639e-01 -4.79121879e-02 -5.88314049e-02 -1.33172393e-01 +1.01409376e-01 -1.15467764e-01 +6.35629073e-02 +1.46157712e-01 +3.99400949e-01 -1.33443072e-01 +2.27750316e-02 +9.94058102e-02 -3.78805399e-02 +1.65490240e-01 -4.66069356e-02 +4.50523235e-02 -2.22983614e-01 +1.39435316e-02 +2.89097857e-02 -1.48547918e-01 -1.01597056e-01 +6.10797554e-02 -1.85251504e-01 +1.20483272e-01 -1.14173256e-01 +3.81869562e-02 +6.07524961e-02 +5.95470294e-02 -4.46647815e-02 +5.58919571e-02 -1.50738373e-01 +8.35957825e-02 +1.45154208e-01 +3.01578134e-01 +1.72894657e-01 +1.60848256e-02 +2.30693534e-01 +1.91233411e-01 -6.38618022e-02 -1.05579048e-01 +1.46165982e-01 -1.75702393e-01 +6.40937984e-02 -3.36729810e-02 -1.36665821e-01 -1.08924977e-01 +6.65260330e-02 -1.14345059e-01 +9.87022594e-02 +1.10256486e-02 +1.04270682e-01 -9.95603018e-03 -2.52234712e-02 +2.12084338e-01 -1.23343884e-03 -2.90655345e-01 +1.18831368e-02 -1.65642753e-01 -1.90458670e-01 -1.50196338e-02 -7.20724314e-02 -5.13344631e-02 +4.26928401e-02 +1.81234106e-01 +3.25574018e-02 +1.18358716e-01 +5.19274138e-02 -1.83625698e-01 +2.45029684e-02 +7.11895013e-03 +1.02381051e-01 +6.07473627e-02 +8.79131928e-02 +1.11260325e-01 -1.04832806e-01 -4.06631753e-02 -5.44917025e-02 +7.52725601e-02 -5.20970039e-02 -7.45731816e-02 -6.01704745e-03 +1.31138906e-01 +1.36602491e-01 +1.89933851e-01 -2.26209164e-01 +1.19715385e-01 -9.16525070e-03 +1.26060888e-01 +1.91602692e-01 -2.62747824e-01 +1.49613723e-01 -7.99238905e-02 +7.55958334e-02 -1.97366234e-02 +2.01063603e-01 -1.19363954e-02 -4.34421338e-02 +1.98479109e-02 +3.15398141e-03 -1.24629743e-01 +2.17270236e-02 -6.21357933e-02 +1.11460261e-01 -4.81586456e-02 -8.02561343e-02 -5.28839491e-02 +5.12901954e-02 +4.34244471e-03 +3.83880548e-02 -1.56034902e-02 -1.66326314e-02 +8.72130040e-03 -1.04328603e-01 +1.75180092e-01 +6.91958750e-03 +8.89603570e-02 -1.87780783e-01 -3.59356292e-02 -2.63846312e-02 -6.19811639e-02 -7.46451542e-02 -3.66877429e-02 -1.60646096e-01 -1.36556253e-01 -1.02710411e-01 +5.81665821e-02 +2.03866735e-02 +1.13756821e-01 +4.67132926e-02 -5.57320192e-03 +1.60861075e-01 -1.03649832e-01 +3.91249210e-02 +1.82077929e-01 +1.25480443e-01 -1.09592803e-01 +1.12523973e-01 +1.01599015e-01 +9.76293162e-02 +5.06754182e-02 +1.32344037e-01 +6.57803863e-02 +2.12883577e-01 +2.80831661e-02 -8.93002525e-02 +4.87618335e-02 -2.31104139e-02 -4.59961500e-03 +1.04973055e-02 +2.30322748e-01 +1.09774657e-01 -1.20610319e-01 -1.87929031e-02 +3.97880450e-02 -4.81589995e-02 -5.62471487e-02 -4.73461449e-02 +1.42837921e-02 -2.16482077e-02 -1.66069955e-01 +1.13712087e-01 -2.41896398e-02 +7.67660215e-02 +7.07003847e-02 -7.50060454e-02 +1.56459674e-01 +1.75091997e-01 -1.14146538e-01 +5.91991730e-02 +7.70725012e-02 +4.26084548e-03 -3.57154682e-02 +1.13832531e-02 +1.80340752e-01 -5.17101288e-02 +1.38077009e-02 +8.09222534e-02 +1.21451907e-01 +1.36224991e-02 +8.06685537e-02 -4.70304377e-02 +6.71889409e-02 +2.56116867e-01 +2.76215017e-01 -1.05858110e-01 +2.01610848e-01 +1.28460929e-01 -7.46803433e-02 +2.29906514e-01 -1.32681206e-01 -1.38815260e-02 +4.54269759e-02 +1.64215460e-01 +1.02048710e-01 +4.44946736e-02 +4.17427644e-02 -9.17656273e-02 -1.05935350e-01 +4.24736924e-02 -9.45698544e-02 -3.81454304e-02 -6.92660129e-03 +1.45979328e-02 -9.01149884e-02 +1.37002587e-01 -8.62480141e-03 +6.44077640e-03 -2.31622998e-02 +4.12771478e-02 +6.71101287e-02 -4.31543868e-03 +2.19166994e-01 +3.26835364e-02 +1.80758402e-01 -1.25677958e-01 +1.27705678e-01 -2.06434876e-01 +7.29186982e-02 -1.14734970e-01 -1.05650194e-01 +6.94678649e-02 -1.30125120e-01 +4.42115497e-03 +1.42430216e-01 -4.46133651e-02 +7.01995045e-02 -1.34105198e-02 -4.31490652e-02 -1.35992914e-01 +2.89216693e-02 +7.60812089e-02 -5.69084361e-02 +1.28239483e-01 +1.53465942e-01 +3.26820165e-01 +5.32887764e-02 +5.77885434e-02 -1.27019674e-01 +1.05304800e-01 +4.72092666e-02 -6.85769469e-02 -7.25007430e-02 -8.04445520e-02 -2.00043693e-01 -1.37697741e-01 +4.14479570e-03 +2.21975893e-01 -1.21176839e-01 -3.42237763e-02 +1.74378157e-01 +1.93087623e-01 +6.71252385e-02 +4.51403856e-02 -5.41016981e-02 +2.56784086e-04 -1.07716553e-01 -6.48989826e-02 +9.11074281e-02 -1.40032666e-02 +1.87908858e-01 +2.85179138e-01 -9.53737125e-02 +1.23638682e-01 -2.13166345e-02 -1.94162071e-01 +1.49923831e-01 +2.26651996e-01 +1.81423798e-01 +2.11465731e-01 -1.57555386e-01 +9.07748938e-02 -7.28991777e-02 +1.53700439e-02 +1.70284852e-01 -2.24294260e-01 +1.16355821e-01 +7.60227069e-02 +1.66487619e-01 -1.34028107e-01 +2.37762168e-01 -2.29803249e-01 +9.00228322e-03 +6.46890514e-03 -2.31818780e-01 +5.87982237e-02 -6.68002144e-02 +1.70630459e-02 -1.43675745e-01 +1.59866914e-01 +1.71988346e-02 +1.24216400e-01 -2.26904377e-01 -6.77745193e-02 +3.89957763e-02 +6.63854331e-02 -8.98758471e-02 +5.04740402e-02 -8.13102201e-02 +3.16587882e-03 -1.41685456e-01 +9.51559618e-02 -1.36157244e-01 +7.17652068e-02 -1.54375851e-01 +1.80048719e-01 +1.21291734e-01 -1.69055566e-01 +2.69732893e-01 +2.73657650e-01 +1.20107152e-01 -3.24844122e-02 -3.83915454e-02 -2.35494956e-01 -1.94386676e-01 +3.40477042e-02 -2.40778297e-01 -2.23239954e-03 +1.23515360e-01 -6.31503090e-02 -2.10294470e-01 -2.33169213e-01 +3.64729166e-02 +8.18027928e-02 +3.44557226e-01 -8.42095613e-02 -1.25361726e-01 -2.42312178e-01 -5.45366257e-02 +4.75823209e-02 +1.31550342e-01 +9.96627808e-02 -2.82307088e-01 +2.74676085e-03 +2.58399695e-01 -2.56479859e-01 -6.85970485e-02 -6.01608269e-02 -5.54809161e-02 -2.61970684e-02 -3.25622857e-02 +6.74061105e-02 +3.16516273e-02 +1.52088940e-01 +3.49196196e-02 -1.39300615e-01 +6.70899525e-02 -2.24207178e-01 -3.45208682e-02 -2.72284389e-01 -1.01154745e-01 -4.88388203e-02 +1.34570912e-01 +1.06691591e-01 +2.33328775e-01 -5.01924148e-03 -4.86023314e-02 -1.28344119e-01 +1.72340721e-01 -9.23588872e-02 +4.54671541e-03 -1.68056265e-01 -2.45425895e-01 -4.21283543e-02 -1.14162669e-01 -3.01613748e-01 -2.09033594e-01 -2.47840472e-02 -2.03099832e-01 +8.26313719e-02 -4.07566428e-02 -1.27811553e-02 -5.81059717e-02 +3.91409062e-02 -1.02138601e-01 -3.38869579e-02 -2.27259815e-01 -1.11154452e-01 -2.43986741e-01 -8.85186996e-03 -1.07678235e-01 -1.44474292e-02 -7.63898566e-02 +1.22827411e-01 -1.30711019e-01 -2.29749247e-01 -4.83117625e-02 -1.06308125e-01 -5.88311665e-02 +1.70159906e-01 -5.08020446e-02 +7.57172927e-02 -1.48363467e-02 -2.81727582e-01 -2.41231009e-01 -5.52368797e-02 -2.01442093e-01 -1.64286464e-01 -3.97449359e-02 -6.94032833e-02 -2.04804033e-01 +3.47194262e-03 -6.50867596e-02 +6.76379539e-03 -2.52181023e-01 -1.23106152e-01 -1.87735721e-01 -8.31586495e-03 -1.57702774e-01 -1.61325306e-01 +7.08593205e-02 -8.63396935e-03 -7.26145208e-02 +7.12850913e-02 -4.04629335e-02 -2.05412239e-01 -6.26545027e-02 -2.93631762e-01 +5.93359210e-02 +4.33565602e-02 -1.88143447e-01 -1.13733314e-01 -1.40164644e-01 -1.22851714e-01 -1.89921826e-01 -1.90060154e-01 -9.20469612e-02 -6.29539834e-03 -2.35753298e-01 -7.00966045e-02 -1.80672742e-02 -5.96096478e-02 +1.43646568e-01 -9.53986645e-02 -2.93820035e-02 -4.25190836e-01 -4.87227812e-02 -7.00234959e-04 -2.15149060e-01 +5.39611876e-02 -4.81970832e-02 -1.54629946e-01 -3.91756388e-04 -1.29294872e-01 +3.62408794e-02 -1.11428499e-01 -8.03651363e-02 +1.23046763e-01 -5.80053451e-03 +6.02259301e-02 -2.54910439e-01 -1.41374609e-02 -5.45456596e-02 +4.52508293e-02 -1.96749166e-01 -2.14161918e-01 -1.51872551e-02 +4.46934998e-03 +2.04062700e-01 -7.12976558e-03 +3.83715034e-02 +1.17129907e-01 -2.11766781e-03 +1.02969371e-01 +5.55873178e-02 -2.62087107e-01 -1.45974290e-03 -1.21043073e-02 +8.82153139e-02 +2.36565787e-02 +6.76227883e-02 -9.28174332e-02 +9.12833661e-02 +1.65565968e-01 -1.74812630e-01 -1.92102104e-01 -9.28706303e-02 +2.12826371e-01 +5.66488989e-02 -2.93494076e-01 -8.77410993e-02 +1.50752729e-02 +7.24998564e-02 +5.17127737e-02 +8.59586820e-02 -1.09255120e-01 -1.14304341e-01 -6.31899908e-02 +4.89020012e-02 +1.70927837e-01 +1.99919820e-01 -8.00654516e-02 -4.10239212e-02 -1.88903019e-01 +1.77043200e-01 +1.62779630e-04 -4.42624651e-02 +1.90134704e-01 +2.62555853e-02 +9.56019238e-02 +5.39581105e-03 +1.65821910e-01 -5.42760864e-02 +7.86823630e-02 -8.43984634e-02 +2.10922714e-02 -1.06771834e-01 -4.09279130e-02 -1.16655290e-01 +9.54414234e-02 +3.48505527e-02 -9.99605935e-03 -1.50749475e-01 +1.38472915e-02 +9.12335813e-02 -1.62273556e-01 -1.11303821e-01 +6.60697417e-03 +2.21394207e-02 -7.68690091e-03 -2.37458572e-02 -8.25376585e-02 +4.28084321e-02 -1.12721428e-01 -5.86799830e-02 -7.41670653e-02 +1.02928638e-01 -7.84062371e-02 -2.07704201e-01 -3.76739830e-01 -1.34416506e-01 +5.23770824e-02 +6.72786087e-02 -8.17348659e-02 +7.35629052e-02 -1.94078833e-01 +5.71997836e-02 +8.26260000e-02 -9.80337262e-02 -1.60728306e-01 -1.22203700e-01 -1.91059578e-02 -4.92931195e-02 -1.52754813e-01 -1.65607929e-01 +1.82810239e-03 -2.86392182e-01 -1.83100905e-02 -3.85437906e-02 -8.15116167e-02 -1.72434136e-01 -6.09780252e-02 +8.89472663e-03 +9.53378994e-03 -1.28883481e-01 +3.87463793e-02 +1.18052334e-01 -1.24040432e-01 -3.56778838e-02 -4.82007153e-02 -2.44506210e-01 +9.92860049e-02 -1.68274507e-01 +6.48440421e-02 +9.82997492e-02 -8.66571665e-02 -5.91729842e-02 -2.43776456e-01 -5.46524972e-02 -8.08776021e-02 -2.98664141e-02 +1.43239079e-02 -2.60905415e-01 +9.85955913e-03 -2.05183476e-01 -2.11350828e-01 -3.06740999e-01 +2.20802445e-02 -7.49854222e-02 -2.76870336e-02 -7.68658295e-02 +4.29870524e-02 +1.22905280e-02 -6.11455888e-02 +1.38037521e-02 -1.75409183e-01 -1.46161646e-01 -1.01445906e-01 -1.82191372e-01 +2.25803480e-01 -1.11130819e-01 -4.66067307e-02 -1.06432907e-01 +2.59731058e-02 -2.01825321e-01 -1.05682490e-02 -3.30100060e-02 -8.08507670e-03 +3.91429663e-02 +1.23732932e-01 -9.21884626e-02 -1.50756771e-02 -1.47672206e-01 +7.14757517e-02 -1.76202729e-01 +7.88926855e-02 -1.45178571e-01 +6.00524060e-02 -4.47849669e-02 -9.48660746e-02 -8.72584954e-02 +6.17330968e-02 -1.15552545e-01 +4.25790064e-02 +6.34188950e-03 -2.12748036e-01 -6.59648925e-02 -1.90832406e-01 +4.17323783e-02 +9.21246707e-02 -3.54617774e-01 +8.44371319e-02 +7.70051181e-02 +7.72187784e-02 -1.15731940e-01 -8.44895691e-02 -1.14346385e-01 -1.31032184e-01 -5.37147708e-02 -2.29889959e-01 -2.27025226e-01 +2.63038441e-03 -9.94893983e-02 -1.22054279e-01 -2.88197160e-01 -3.20332915e-01 -2.08294466e-01 +1.28101140e-01 -1.62558407e-01 +3.17758955e-02 -1.59202710e-01 -9.50132757e-02 +1.15193002e-01 -8.17288160e-02 -8.33783001e-02 -2.90462542e-02 -9.95636657e-02 +1.08647950e-01 +4.86438535e-03 -1.81626812e-01 -2.62594104e-01 -2.55335439e-02 -9.44061652e-02 -8.53690580e-02 -2.68143177e-01 -6.37732372e-02 +7.41205812e-02 -2.87235081e-02 +3.63385864e-02 -3.40082799e-03 +4.47183959e-02 -5.96767850e-03 +1.09338999e-01 +4.09348905e-02 -2.73017120e-02 +4.88595059e-03 +4.90926318e-02 +8.48126709e-02 -2.96142846e-02 +5.29608727e-02 -6.69902936e-02 +4.94520701e-02 -4.17994149e-03 -1.73557666e-03 -1.12814739e-01 -1.33060187e-01 -4.26765978e-02 +7.41149187e-02 +4.69984896e-02 +4.36875597e-02 -2.53068004e-03 -1.57005538e-03 +1.15368769e-01 -7.50242472e-02 -1.61779344e-01 -3.39312330e-02 -7.82368258e-02 +1.17107198e-01 +3.79650146e-02 +1.55867577e-01 +7.07194582e-02 +2.33227178e-01 -1.21192791e-01 -1.13727860e-01 -7.48758763e-02 +1.14010451e-02 -8.49768333e-03 -9.95603297e-03 -1.02848910e-01 -1.14995681e-01 -5.94644807e-02 +1.97722949e-02 -8.55143145e-02 +2.53722258e-02 -8.54469836e-02 -1.85876429e-01 -4.52333083e-03 -7.28798807e-02 +2.49809530e-02 -3.34082954e-02 +9.42021757e-02 -3.87463868e-02 +9.63698775e-02 +1.67118117e-01 -1.09390505e-01 -8.43846127e-02 -1.16495572e-01 +6.64507523e-02 -1.13885015e-01 +5.22842966e-02 -1.22940913e-01 -1.23216882e-01 -9.16457921e-02 -6.90657347e-02 -7.01198131e-02 -2.77225468e-02 +1.51384473e-01 -1.40657574e-01 -8.89235139e-02 +1.34882569e-01 -2.99616829e-02 +4.68407236e-02 -1.32739723e-01 -8.45132470e-02 +8.16760808e-02 -2.61087362e-02 -4.23787385e-02 -1.57293543e-01 -3.47744994e-04 +1.73064359e-02 -5.91144264e-02 +8.40735734e-02 +1.41113028e-01 -3.39346007e-02 -1.54223025e-01 +8.18540901e-02 +7.61419162e-02 +4.85265851e-02 -2.16128007e-02 -1.67116374e-01 -2.41481420e-02 -1.15368746e-01 -1.62600353e-02 +1.72314212e-01 -1.54923536e-02 +8.26640800e-02 +1.45315677e-01 -2.50079036e-01 -1.18492357e-01 -1.64275635e-02 -2.82715321e-01 +2.86071766e-02 -2.58261003e-02 +2.16586679e-01 +4.57690917e-02 -1.84304297e-01 -1.06732890e-01 +5.40826358e-02 -4.71611731e-02 +1.09482013e-01 -6.06657229e-02 -5.27927428e-02 +1.84652895e-01 -6.47116033e-03 -2.55697290e-03 -6.09439127e-02 -3.05368036e-01 -1.43488824e-01 -6.43168762e-03 -9.26129986e-03 -5.85352220e-02 -1.52713731e-01 +4.26869914e-02 -1.07233651e-01 +1.80573035e-02 +7.49272034e-02 +4.79801111e-02 -1.91075698e-01 -1.29932448e-01 +1.34143934e-01 +8.02742094e-02 -7.88076520e-02 -2.69040734e-01 -3.24565843e-02 -5.72727136e-02 -1.63762033e-01 +8.53604153e-02 -1.15472712e-01 -2.82324314e-01 -1.48261294e-01 -6.29958063e-02 -7.79842213e-02 -1.36744920e-02 +7.05597401e-02 -5.34843169e-02 -2.22868901e-02 -4.71817590e-02 +3.05893123e-02 -1.91181570e-01 -5.03733754e-02 +9.69689190e-02 +1.82836741e-01 +4.10143211e-02 +3.78917344e-02 -1.82986289e-01 -1.17772751e-01 +1.21725947e-01 -2.11087704e-01 -2.29751945e-01 -1.47979319e-01 -1.49595737e-01 -6.89209178e-02 -3.31940013e-04 -2.20148563e-02 +3.85712907e-02 -4.07122485e-02 +8.03886261e-03 -3.00425291e-02 +1.70699090e-01 -1.27690360e-01 +4.21853289e-02 -1.26513869e-01 +9.07828808e-02 +6.17775880e-02 +1.41537227e-02 -1.08427346e-01 +6.92800730e-02 +2.72078831e-02 -2.00823117e-02 +1.74337775e-01 -1.03537343e-01 -5.55460602e-02 -1.02504849e-01 +7.93980807e-02 -3.85795146e-01 +4.06316146e-02 -1.51093945e-01 -1.19133070e-01 -1.33758321e-01 -1.20545559e-01 +1.19227683e-02 +2.93270033e-02 -7.96466470e-02 -1.95732713e-01 -2.36915693e-01 +4.98026684e-02 -2.09533870e-01 +5.57002723e-02 +2.37998646e-02 -9.91856828e-02 -2.22793162e-01 +1.09960265e-01 +4.00329120e-02 +9.00191963e-02 -9.65888202e-02 -4.45143282e-02 +5.96936755e-02 +1.16940305e-01 -1.15680262e-01 +2.03824475e-01 +8.78572688e-02 -4.92493156e-04 +1.20832026e-02 +2.24637568e-01 +9.18063521e-02 -1.29568418e-02 -2.43728861e-01 -4.64690328e-02 -1.92407712e-01 +6.76440299e-02 -7.43792132e-02 +2.46648118e-02 +4.78324071e-02 +3.64061370e-02 +4.71874140e-02 -1.22525059e-01 -1.27917990e-01 +8.97717625e-02 +1.80648100e-02 -5.29809780e-02 +9.66960490e-02 +1.76689312e-01 -1.26009449e-01 -9.72269177e-02 -1.22881323e-01 -1.56320542e-01 +4.87746857e-02 +1.01039499e-01 +7.84892142e-02 -1.56421050e-01 -3.24705653e-02 -1.84050456e-01 -2.00604927e-02 +1.05475746e-02 +1.63119406e-01 +3.39345075e-02 -1.45979196e-01 +1.50796235e-01 -8.85435194e-02 +4.13767435e-02 +3.78735997e-02 +1.02616422e-01 -2.07207382e-01 +1.87614411e-01 -2.28617147e-01 -9.28490609e-02 +2.51486808e-01 -1.94138616e-01 -1.02865696e-01 -1.40296042e-01 -6.43148348e-02 -1.49727896e-01 -1.44605041e-01 -2.62943983e-01 +7.20398054e-02 -6.59806207e-02 +2.42265034e-02 -2.35483393e-01 +3.49773914e-02 -2.09652796e-01 +1.24532513e-01 -2.17787981e-01 +1.58367366e-01 -2.60186531e-02 +4.15135510e-02 -1.41147943e-02 +1.92283824e-01 +4.00889963e-02 -2.41333783e-01 +9.74781625e-03 +9.58872307e-03 +2.62128282e-02 -3.26009654e-02 +3.58855367e-01 -2.18627825e-01 +1.15690054e-03 -1.43136516e-01 +1.12095311e-01 -6.24495000e-03 -1.02208890e-02 -9.29099042e-03 +1.05425783e-01 +1.35776490e-01 -2.49773245e-02 +9.21296999e-02 +2.35790312e-02 -3.40770446e-02 -6.21824479e-03 +9.92864445e-02 -2.20013693e-01 -7.62962773e-02 -5.66985309e-02 -3.04162413e-01 +1.02806672e-01 -3.45557407e-02 +1.60433073e-02 -1.98008120e-01 -7.81549290e-02 -1.00680359e-01 +7.65594989e-02 +1.46104932e-01 +2.24609300e-02 +1.02203831e-01 +7.29122162e-02 +1.09556004e-01 -4.32731025e-02 -1.99025705e-01 -1.24569610e-01 +5.18929251e-02 +8.24004039e-02 -3.64699401e-02 -1.88244566e-01 -5.45879230e-02 -2.18013376e-01 +1.03446506e-01 -4.85363081e-02 -6.87287971e-02 -1.10030554e-01 -1.06713489e-01 -1.22712716e-01 -2.15078630e-02 -1.22272775e-01 +2.94029843e-02 -3.25514413e-02 -1.49183750e-01 -6.40734807e-02 +1.84169665e-01 -8.55085179e-02 -1.55555502e-01 -4.10124473e-02 +8.77343491e-02 -7.94981197e-02 -5.61116189e-02 -5.31965606e-02 +1.22184232e-01 -6.98031345e-03 -3.76454904e-04 -2.97630951e-02 +3.24384421e-02 +1.84714779e-01 -1.92149773e-01 -1.22026905e-01 -1.29515126e-01 +1.45090327e-01 +1.95740253e-01 -3.66698265e-01 +6.71392530e-02 -5.64758899e-03 -2.67169207e-01 -1.47501916e-01 -1.35930374e-01 -2.88441200e-02 -6.56159967e-02 -1.65171027e-01 +7.64453551e-03 -9.93406400e-02 +7.42343813e-02 -2.37738639e-01 +1.07706394e-02 -7.18784258e-02 +1.19583234e-01 -1.79559022e-01 +4.86424426e-03 +4.59145941e-02 -8.99036508e-03 -2.37347081e-01 +1.84625998e-01 +2.14093074e-01 +1.08155966e-01 +1.04222178e-01 +6.32230863e-02 -1.66349150e-02 -8.70945901e-02 +2.59753257e-01 -3.44827116e-01 -1.89429964e-03 -2.22591162e-01 -5.40175736e-02 -1.29670396e-01 -8.23104382e-02 -2.32686669e-01 +4.70818207e-02 +1.37408465e-01 -1.84586614e-01 -8.70043039e-02 +4.45402712e-02 -1.30108818e-01 -1.89608052e-01 -2.47393106e-03 -8.90105292e-02 +1.22597732e-01 -8.26794878e-02 -1.11516483e-01 +1.61036700e-01 -1.80209219e-01 -2.75477227e-02 +6.86099529e-02 -7.39478320e-02 +3.30793709e-02 +1.65550083e-01 +2.51836050e-02 +1.10013202e-01 -2.86751002e-01 +8.37990791e-02 +7.81613886e-02 -1.23268105e-02 -1.74183831e-01 +1.67256605e-03 +1.00997776e-01 +5.43738492e-02 -5.79634123e-03 +7.58890435e-02 +8.47457498e-02 -1.28740504e-01 -6.86272904e-02 -1.94056824e-01 -3.31969559e-01 +6.48587495e-02 +3.05266455e-02 +1.33232266e-01 +9.58995894e-02 -4.21139747e-02 -1.24653719e-01 +1.27789438e-01 +1.02628104e-01 +1.19493768e-01 -1.38298079e-01 +7.86829740e-02 -1.02422491e-01 +2.26797746e-03 +1.22101806e-01 +7.23649785e-02 +5.21135749e-03 +5.11874855e-02 -1.10487171e-01 +7.72841182e-03 -3.88071723e-02 -3.53479423e-02 +8.50313678e-02 +1.69183627e-01 -6.34662881e-02 +1.00178324e-01 +2.02352464e-01 -2.98063643e-02 -2.90680514e-03 -7.75314048e-02 -1.16137989e-01 +5.82015216e-02 -1.23590164e-01 -3.16541344e-02 +1.31308794e-01 +9.09078196e-02 -1.04387574e-01 +8.26460421e-02 -6.51825499e-03 -1.48319360e-02 +9.63697135e-02 -2.96503305e-01 -1.15132220e-01 -1.35756910e-01 +7.00655729e-02 +1.28943637e-01 -6.11790642e-02 -1.74834073e-01 +2.09200487e-01 +1.50577277e-01 -6.01005070e-02 -5.18679731e-02 -9.64795053e-02 +3.82163152e-02 -1.83376029e-01 +2.12663729e-02 +8.37045908e-02 +6.99305534e-02 -3.60547262e-03 +4.00885753e-02 -1.63082495e-01 +1.69112943e-02 -1.10164195e-01 -1.88625306e-01 -2.23685950e-01 -5.46373017e-02 +1.58808157e-01 +3.59959230e-02 +3.33663858e-02 -1.36446431e-01 -1.17129989e-01 -2.12346867e-01 +1.70315847e-01 +2.78685056e-02 +1.86225116e-01 -1.08978868e-01 -2.19746873e-01 +1.17175169e-01 -3.27977799e-02 +5.12637710e-03 -1.56889051e-01 -6.08639643e-02 -1.90025762e-01 -2.75185760e-02 -4.85903174e-02 +5.44033619e-03 -9.96616483e-02 -1.29120499e-01 -1.65195823e-01 -4.91113625e-02 -2.26088107e-01 +1.44762456e-01 -1.01632942e-02 -4.80451733e-02 +8.53196457e-02 -1.08751869e-02 +1.37962088e-01 +3.14501256e-01 -3.85595202e-01 -1.70489214e-02 -3.38164151e-01 -1.70495570e-01 -1.57435417e-01 +2.43578002e-01 -9.53458473e-02 -1.41912788e-01 -1.93098888e-01 -5.52531183e-01 -3.26975226e-01 -2.57698983e-01 -1.27894521e-01 +2.80860245e-01 +6.42789677e-02 -6.07117824e-02 -1.28287241e-01 -1.42716691e-01 -9.56216529e-02 +5.37987053e-02 -1.44446492e-01 -2.62402743e-02 -4.06943448e-03 +1.33438617e-01 -5.88103905e-02 -2.04062864e-01 +5.82537055e-02 -3.33610997e-02 -2.04815164e-01 -1.75020635e-01 -9.29765627e-02 -1.01129770e-01 -2.35616491e-04 +4.46570665e-02 -1.58116892e-01 +2.22400129e-02 -2.97659457e-01 -1.07937202e-01 +2.76119858e-01 -2.03064710e-01 -9.98138487e-02 -5.77143542e-02 +3.38462442e-02 -2.55216420e-01 -3.78575474e-02 -1.35142103e-01 +2.60745317e-01 -5.15807122e-02 -5.40235713e-02 -1.86660007e-01 -3.37843657e-01 -8.28049034e-02 +1.21130213e-01 -1.44879948e-02 +1.66756347e-01 +2.97580063e-01 -2.83717722e-01 -1.65048853e-01 -2.16412678e-01 -2.33301651e-02 -3.82661849e-01 +3.62934656e-02 -3.06614749e-02 +9.46024507e-02 -4.37819250e-02 +4.33983617e-02 -2.66261399e-01 -9.20936689e-02 -2.17603780e-02 -2.79768348e-01 +2.89253928e-02 -1.35351881e-01 +2.48023927e-01 -7.31017813e-02 +1.88816786e-01 +6.91235289e-02 +1.21458836e-01 -1.49515644e-01 -1.50794080e-02 +5.48868254e-02 +3.69990468e-02 -1.62956253e-01 -1.14797510e-01 +2.73977607e-01 -1.37739912e-01 +9.44548547e-02 -4.22305018e-02 +6.07985221e-02 +3.53749879e-02 +4.32796851e-02 -1.35617077e-01 +4.09749895e-02 -7.57069513e-02 +2.15658501e-01 +8.37303698e-03 -1.97092444e-02 +3.17969844e-02 -7.87870958e-02 -1.93713624e-02 +1.10750161e-01 -1.33091033e-01 -1.29053265e-01 -7.51203224e-02 -8.85333195e-02 +5.76047525e-02 +1.99586414e-02 -1.19861588e-02 +1.25129148e-01 +5.34878075e-02 -2.11662471e-01 -6.99488586e-03 +2.43799109e-02 +9.94591713e-02 -1.25945807e-02 +7.66236742e-04 -1.66536301e-01 -5.98911680e-02 +7.75234178e-02 -8.19137394e-02 -4.24062684e-02 -1.06588006e-01 +7.02408105e-02 +5.43924831e-02 +1.64103478e-01 +8.06667209e-02 -8.23273957e-02 -1.02824252e-02 +1.62438318e-01 -5.88671714e-02 -8.92097354e-02 -2.45002154e-02 -1.81133717e-01 +2.28467640e-02 -1.12071615e-02 -3.01892132e-01 +6.70812577e-02 -1.22944109e-01 -3.51275168e-02 +2.03464806e-01 +3.22217960e-03 +1.77261844e-01 -1.89084962e-01 +4.77232225e-02 +4.11239602e-02 -3.72374915e-02 -6.34788647e-02 +1.19651094e-01 -2.30458640e-02 +9.51230642e-04 +6.43901080e-02 -2.25314237e-02 -4.20298278e-02 +8.91364813e-02 +8.28632787e-02 +7.15934709e-02 +1.79993838e-01 -8.20916742e-02 -1.68665752e-01 +4.91299257e-02 +3.23492259e-01 -3.10931146e-01 +1.26280971e-02 -1.07511871e-01 +4.13456112e-02 -1.52420044e-01 +1.03934042e-01 +6.41477481e-02 -1.36067212e-01 +1.65317580e-01 -1.65554672e-01 +2.25366354e-01 -5.67812100e-03 +2.34047413e-01 +3.91853973e-02 -4.91343811e-03 +4.54568788e-02 +1.06300510e-01 -5.26588410e-02 -2.09251598e-01 +1.23094305e-01 -5.56371436e-02 +4.28879075e-02 -1.58123210e-01 +4.14753407e-02 -1.93338424e-01 +1.19569309e-01 -5.85994013e-02 -3.65521498e-02 -1.01633973e-01 -1.54133499e-01 -1.41725048e-01 -1.22742362e-01 -1.60589367e-01 +8.26033875e-02 -4.05668421e-03 -1.13565065e-01 +8.37412998e-02 -9.08829644e-02 +1.34660020e-01 +2.38648504e-01 -2.30270714e-01 -2.81660706e-02 -1.43106595e-01 -7.35305473e-02 -1.25649363e-01 +6.68347403e-02 -5.61849251e-02 -1.59005433e-01 +2.91126426e-02 -2.81460762e-01 -1.14038572e-01 +8.25235061e-03 -7.07505345e-02 +1.63253337e-01 +4.33225408e-02 -6.47683740e-02 -1.24566704e-02 +7.33735412e-02 -9.26791802e-02 