#Parameter# /vanilla-lstm-builder/_0 {400,35} 224001 ZERO_GRAD
+4.98087183e-02 -2.02524420e-02 -1.13777205e-01 -1.36273876e-01 -2.00773150e-01 -3.27082500e-02 -2.08330639e-02 +5.54022752e-03 -6.46564411e-03 -1.52957246e-01 +1.19553894e-01 +2.74671782e-02 +3.84203158e-02 -5.24024069e-02 -8.39712694e-02 +2.70435307e-02 -1.47677943e-01 -8.60905349e-02 -7.19495714e-02 +7.48193711e-02 -1.66349813e-01 +1.43017694e-01 -2.92401370e-02 +4.89364304e-02 -1.69823334e-01 -7.27528110e-02 +2.11653821e-02 +1.91794783e-02 -1.81625307e-01 -5.39002679e-02 -4.92752716e-02 +1.23407058e-01 -1.62719682e-01 +1.30820498e-01 -3.27115916e-02 -2.17032671e-01 -1.45950809e-01 -3.55907865e-02 +2.97130756e-02 -2.24371940e-01 -3.72509770e-02 -5.79426810e-02 -1.22752562e-01 -9.33657512e-02 -9.89906490e-02 -4.21767682e-02 -2.24780887e-01 +7.89327174e-02 -1.19138047e-01 +1.10894732e-01 +1.98969662e-01 +6.90156296e-02 -6.53937459e-04 -4.99546863e-02 -2.39510238e-02 -1.17807843e-01 +1.70320660e-01 -1.64202631e-01 -5.59434481e-02 +7.76423961e-02 +3.26553211e-02 -1.52726457e-01 -5.63129671e-02 -2.09827542e-01 +1.38405427e-01 -5.44136353e-02 +3.75965275e-02 -3.66169922e-02 -1.10931277e-01 +3.82792810e-03 -1.07225828e-01 -1.22604609e-01 +3.29932012e-02 +8.06081891e-02 -3.31901349e-02 +5.52753992e-02 -1.32854864e-01 +8.78718197e-02 +8.55655968e-02 -3.46840881e-02 -1.12204552e-01 +1.14468619e-01 +1.55515462e-01 -1.51541475e-02 -1.35078400e-01 -1.05255455e-01 -5.75715601e-02 -1.18759602e-01 +8.90395269e-02 -9.27848667e-02 -1.61968559e-01 +1.62802860e-01 +1.21782962e-02 -1.13062739e-01 +5.37065230e-02 +5.61446920e-02 -3.05564385e-02 -2.30123512e-02 +4.10515070e-02 -1.66507721e-01 +6.14868328e-02 +8.01584721e-02 -3.86503004e-02 -1.25489654e-02 -4.45370078e-02 -1.99393377e-01 -9.31998529e-03 -2.00342327e-01 +5.74408919e-02 -3.19822729e-02 +4.52784263e-02 -7.62861501e-03 -1.33619517e-01 -7.37145618e-02 +4.33819592e-02 +1.80237982e-02 +1.51815280e-01 -7.61883557e-02 +4.73554945e-03 -1.67166200e-02 +9.91952270e-02 -1.90416068e-01 -9.96439233e-02 +3.18197422e-02 +4.61312793e-02 +2.73433756e-02 +3.79274897e-02 +8.59928727e-02 -1.55593023e-01 +1.61768310e-02 -3.73580903e-02 -1.30264074e-01 -8.57802927e-02 -8.12119842e-02 +1.47508048e-02 +8.38105157e-02 -8.47988352e-02 +9.75935981e-02 -2.47562490e-02 -1.32256120e-01 +1.57993976e-02 -1.84917115e-02 -8.85159597e-02 -1.34644195e-01 -1.73821807e-01 -8.91646072e-02 -1.28064096e-01 +5.57127185e-02 +1.13503776e-01 +8.44185352e-02 +1.14043593e-01 +2.26223469e-02 -3.09837554e-02 -3.54314409e-02 +8.97131767e-03 +2.50753630e-02 +5.72598428e-02 -8.80087391e-02 -1.15123466e-01 -1.53399017e-02 +4.60989960e-02 -1.96085587e-01 +2.15448085e-02 -5.73930740e-02 +1.52624948e-02 -1.33043557e-01 +8.03584903e-02 -1.03242986e-01 +5.25989309e-02 +2.57422365e-02 -9.26906839e-02 -4.10274863e-02 -9.30119753e-02 +2.37730920e-01 -8.21586400e-02 -1.06395587e-01 -7.00792298e-02 +1.43187493e-02 -4.52070795e-02 +5.92195578e-02 -3.10172830e-02 -3.85438744e-03 +8.64743516e-02 -8.48936215e-02 -2.19330564e-01 -9.51102003e-02 -2.38788147e-02 +2.91036945e-02 +4.41200584e-02 +4.19352911e-02 -5.28971106e-02 +3.65771055e-02 +1.46328658e-01 -1.01511836e-01 +4.58652303e-02 -2.43938193e-02 -1.69381369e-02 -8.94109011e-02 -1.05672916e-02 -2.43283529e-03 -8.17991868e-02 -4.40164097e-03 -1.02522433e-01 -1.68609276e-01 -2.84330603e-02 -5.43301068e-02 +3.47267650e-02 -6.33084252e-02 +1.02023897e-03 -1.73199773e-01 +1.37963861e-01 -7.32586756e-02 -1.11962982e-01 +1.22854318e-02 -1.45624503e-01 -1.94675043e-01 +1.50406379e-02 +7.33006448e-02 -6.29958138e-02 -1.48003474e-01 -1.43903896e-01 -1.02195621e-01 +8.81976858e-02 -4.24055755e-02 -9.16018412e-02 -7.79153854e-02 -2.46338658e-02 +9.29231346e-02 -1.35994732e-01 -9.38022882e-02 -2.69902293e-02 -1.49700910e-01 -1.22267216e-01 +3.34044406e-03 -6.99204654e-02 -1.59625709e-01 -2.00515479e-01 -2.13625748e-02 -6.75024018e-02 -2.26968169e-01 +1.18317738e-01 -9.39604267e-02 -3.17081094e-01 -1.15907617e-01 -7.91831911e-02 -8.69608149e-02 -2.37653792e-01 +1.47952083e-02 +5.16058020e-02 -1.16958566e-01 +2.63273418e-01 -2.35808082e-02 -3.61686163e-02 -4.84092981e-02 -6.33702576e-02 -2.12923497e-01 +1.40391842e-01 -8.45616609e-02 -3.43778282e-02 +1.56014055e-01 -1.93003759e-01 -1.74842268e-01 +8.83460566e-02 -1.71043187e-01 -2.16523513e-01 -1.97281674e-01 +2.31992360e-02 -2.22054198e-02 +1.72800329e-02 -1.48526460e-01 -4.27098051e-02 +7.61425646e-04 -2.33023658e-01 +4.59240675e-02 -2.37167776e-01 -8.08589160e-02 -1.12542644e-01 -2.47138292e-02 -1.69083983e-01 -9.81251895e-03 -1.07962348e-01 -1.04150228e-01 -2.36261450e-02 -4.87708747e-02 -1.26205027e-01 -4.26201187e-02 +2.64500603e-02 +7.98145384e-02 +1.12706646e-01 -5.66996075e-02 -1.09599605e-01 -1.65352196e-01 +2.53079861e-01 -2.30798826e-01 +2.37794500e-02 -6.09695446e-03 -2.88370531e-03 -1.47153407e-01 +4.85719070e-02 +5.29610515e-02 -1.34131551e-01 -1.18555449e-01 +1.13697080e-02 -1.40422389e-01 -4.58325818e-02 +2.40311529e-02 +8.13712627e-02 -1.22854330e-01 +7.43241459e-02 -1.27137482e-01 +8.13308284e-02 -6.05019443e-02 -1.11782797e-01 -7.63097312e-03 -1.16223164e-01 -9.57365558e-02 -1.37842558e-02 -2.36800890e-02 -1.06258504e-01 +1.51924074e-01 +5.37282452e-02 +1.23612694e-01 -8.95590261e-02 +2.95467805e-02 -1.03577012e-02 +2.39522569e-02 -9.84168947e-02 +7.59072453e-02 +4.20575440e-02 +3.78992744e-02 -7.27155358e-02 +1.51435390e-01 +1.28196077e-02 -1.89599887e-01 -1.46408036e-01 +2.19822209e-02 -7.58927613e-02 -2.65443288e-02 +7.87427574e-02 -3.44130583e-02 -1.23063341e-01 +1.56940520e-02 +3.70573178e-02 +2.19063647e-02 -5.12964651e-02 -3.51072960e-02 -2.97288448e-02 -6.67926148e-02 -5.27117178e-02 -3.45089287e-02 -2.17768058e-01 -1.86969697e-01 -1.50398925e-01 +4.16279808e-02 -1.17504308e-02 +8.65929648e-02 +8.77418965e-02 -7.86891133e-02 -3.50268297e-02 -1.27480850e-01 -9.82104093e-02 -1.38705716e-01 -7.78319538e-02 +2.60308123e-04 +2.18837112e-01 +7.19209984e-02 -1.04999550e-01 +6.59321025e-02 +6.89613000e-02 -6.73035160e-02 +1.27217755e-01 +1.48142323e-01 +1.12434477e-01 +5.35306372e-02 -6.04468882e-02 +7.69334808e-02 +3.11247837e-02 -1.38205037e-01 -1.54985756e-01 -3.60497311e-02 -1.19035006e-01 -1.34136021e-01 +4.38848585e-02 +8.84260014e-02 -1.17053188e-01 -8.87387991e-02 +6.68389797e-02 +1.86820363e-03 +1.80689767e-01 -6.32287860e-02 +2.60163634e-03 -1.77660599e-01 +1.04494572e-01 -8.05640873e-03 -1.40779242e-02 -9.92697477e-02 -1.03358224e-01 +3.97212245e-02 +1.08089045e-01 +9.42734182e-02 -1.50037408e-01 -1.68497175e-01 +5.38409762e-02 -1.40766755e-01 -2.25416958e-01 -5.66071831e-02 -1.96916208e-01 -2.24089790e-02 -5.98271638e-02 -5.74983358e-02 -2.07048422e-03 -1.65589929e-01 -7.64413998e-02 -2.05122724e-01 -2.82503039e-01 -1.10425606e-01 -1.11659117e-01 -7.97803178e-02 -1.25309378e-02 -2.56890029e-01 -1.86116993e-01 -9.50091183e-02 -1.04443334e-01 -1.43257380e-01 -1.44882321e-01 +5.21163829e-02 -1.94942906e-01 -2.21173137e-01 -1.29410937e-01 -2.53921717e-01 -9.21872724e-03 -7.07029030e-02 -1.06594704e-01 -2.48684213e-02 -3.80502529e-02 -9.27486420e-02 -5.70396148e-02 -1.17121816e-01 -3.81095409e-01 -1.02324672e-01 -1.87322274e-01 -1.29635468e-01 -2.09138423e-01 -1.11171387e-01 -2.26006314e-01 +9.66730863e-02 -3.36071686e-03 -1.36917889e-01 -1.38585702e-01 -1.17005810e-01 +4.77913395e-02 -2.17222229e-01 -2.59040147e-01 -9.94001925e-02 -9.97551009e-02 -3.48743908e-02 -2.66235083e-01 -1.52133688e-01 -6.24148212e-02 -1.47990003e-01 -1.67084008e-01 -6.20046780e-02 -1.85082212e-01 -1.43917114e-01 -5.39301038e-02 -1.86734438e-01 -1.62243500e-01 -2.35243097e-01 -1.14561625e-01 -1.78988412e-01 -2.83358812e-01 -4.85484675e-02 -1.40065163e-01 +6.53310120e-02 -2.45586351e-01 +4.24896292e-02 +4.58656577e-04 +4.16521654e-02 -1.93142369e-01 -1.33455232e-01 -2.45896891e-01 -2.01866671e-01 -1.16543181e-01 +3.21603902e-02 -7.55763650e-02 -4.47465293e-02 +9.94155183e-03 -1.82740673e-01 -2.18063407e-02 -2.93429047e-01 -2.44906574e-01 -1.57658368e-01 -3.11333269e-01 -1.33101806e-01 +1.01227472e-02 -2.80883729e-01 -1.74328431e-01 -1.13534980e-01 -6.73565045e-02 -2.56814748e-01 -3.02056670e-02 -8.22431743e-02 +1.13447636e-01 -1.12394795e-01 -1.39509439e-01 +1.45589249e-04 +3.83254215e-02 -1.89625453e-02 -9.82807204e-02 +8.30433667e-02 +7.06204101e-02 -8.15951899e-02 -5.47636114e-02 -1.35773094e-02 -1.31826878e-01 -1.20189026e-01 -1.01936003e-02 -2.13079229e-01 -1.18116736e-01 -1.63515091e-01 -4.04811427e-02 -1.28692746e-01 -1.43249452e-01 -1.34570643e-01 +2.31998693e-02 +7.00412467e-02 -5.95779903e-02 -1.09278262e-01 -2.19370961e-01 -1.07340954e-01 +1.36435069e-02 +5.44026569e-02 +1.56115219e-01 -3.53292748e-02 +8.90180022e-02 -9.75212641e-03 -2.89674439e-02 -5.40430211e-02 -5.97076677e-02 -7.32616568e-03 -9.08586476e-03 -5.00680618e-02 -1.25246599e-01 -1.94991350e-01 -1.30425645e-02 -7.10780323e-02 +7.98042789e-02 -2.05969214e-01 -1.33275479e-01 -1.18148655e-01 +7.77073056e-02 -1.19559662e-02 -7.23010823e-02 +1.36187032e-01 +6.96226880e-02 -2.96530239e-02 -1.90866292e-01 -1.49065197e-01 -1.72687709e-01 +1.81375548e-01 -1.16339453e-01 -1.58886418e-01 -8.28614738e-03 -1.11665845e-01 -8.94694701e-02 -1.69623300e-01 -1.24130525e-01 -1.53347805e-01 -5.57018705e-02 -2.01013923e-01 -1.15129955e-01 -2.96442788e-02 -9.53409728e-03 -4.72491421e-02 -6.76445290e-02 -1.23284594e-03 +7.85970315e-02 -6.90162331e-02 -2.10637286e-01 +1.11606922e-02 -9.83464196e-02 -9.51741189e-02 +2.34464891e-02 -8.99609402e-02 +7.00884014e-02 -1.15138730e-02 +1.46722589e-02 -5.15767597e-02 +9.10359919e-02 -4.15471345e-02 -9.72512458e-03 -5.64079545e-02 -8.99691358e-02 -1.45592064e-01 +5.73606826e-02 -7.44173722e-03 -1.68650568e-01 -1.19039817e-02 -9.49609503e-02 -2.06245333e-01 -4.80243005e-02 -1.82432428e-01 -1.07327789e-01 -2.02076524e-01 -7.21635893e-02 -2.39402846e-01 -2.20883191e-01 -1.12942867e-02 -1.54171526e-01 -4.29125782e-03 +6.33798838e-02 -1.93637475e-01 -3.20445672e-02 -1.21075764e-01 -2.77708620e-01 -6.11240193e-02 -1.79022923e-01 -1.22680001e-01 -8.99415836e-02 -2.41881087e-01 +7.69641027e-02 -1.83775619e-01 -7.71985054e-02 -1.30079627e-01 -4.78469618e-02 +7.45426863e-02 -2.62400776e-01 -1.39834568e-01 -3.58140804e-02 -2.09528863e-01 -1.82732642e-02 +3.84328924e-02 +1.53800594e-02 -4.35722396e-02 -1.49190336e-01 -9.18929279e-02 -8.61646831e-02 -2.27374405e-01 -2.76342303e-01 -1.46512866e-01 -1.03133857e-01 -2.24526107e-01 -4.17799056e-02 -1.85174297e-03 -1.96221262e-01 -1.28655910e-01 +6.80650994e-02 -2.52072662e-01 +3.41950497e-03 +1.44429073e-01 -8.85440707e-02 -1.48916682e-02 -2.31451094e-01 +1.28119320e-01 -1.72553845e-02 -2.78892480e-02 -2.16467723e-01 -4.62402683e-03 -1.05380878e-01 -1.03911370e-01 -8.88901129e-02 -1.30087614e-01 -1.35777280e-01 -2.00517163e-01 +2.38460060e-02 -1.88184366e-01 -2.53652900e-01 -1.56473741e-01 -8.11314806e-02 -2.13327765e-01 -1.25545070e-01 +3.34236249e-02 -1.27509102e-01 +1.77443653e-01 -1.01324566e-01 -7.09407404e-02 -1.45921130e-02 +4.91704559e-03 -4.16925102e-02 +9.44653340e-03 -4.74429457e-03 -1.48262978e-01 +1.46841705e-01 -5.84996603e-02 -8.88361111e-02 -2.68215805e-01 +7.76402233e-03 -1.74647793e-01 -1.72118559e-01 -1.91851377e-01 -1.06909107e-02 -1.78581029e-01 +1.45516917e-01 -2.39067823e-01 -2.67186314e-02 -3.53262760e-02 -2.13283464e-01 -9.63218734e-02 -2.27839157e-01 +4.32443153e-03 -5.63864931e-02 +4.47618663e-02 -6.92917258e-02 -8.80037919e-02 +1.02091677e-01 -1.23677410e-01 -3.60546559e-02 -6.99881911e-02 +1.32981971e-01 +1.00595012e-01 -1.18257085e-04 +1.21860407e-01 +1.12388417e-01 -7.63535947e-02 -8.06582123e-02 -1.78363007e-02 -1.38012201e-01 -6.81526512e-02 -8.18106383e-02 +4.35029455e-02 -9.59770009e-02 -4.11386304e-02 -1.07679345e-01 -7.03893900e-02 +5.49452342e-02 +3.11513841e-02 -7.07489578e-03 +5.10553606e-02 +1.93743967e-02 -2.60940157e-02 -4.43859305e-03 -1.28334835e-01 -8.72199163e-02 +3.86832282e-02 -4.41592894e-02 -1.10318519e-01 -4.86629494e-02 -5.11832386e-02 -5.98884262e-02 -1.09148033e-01 -4.87580597e-02 -7.50558898e-02 -1.58747043e-02 +6.90817907e-02 -2.40836795e-02 +7.34900907e-02 -7.16739148e-02 -5.40468954e-02 -3.84436063e-02 -1.70785002e-02 +1.01999000e-01 +1.46919116e-01 -9.73681584e-02 -1.09466337e-01 -3.19857821e-02 -1.18098184e-01 -5.73996492e-02 +1.82005595e-02 +5.92585728e-02 +1.33924577e-02 -3.12849768e-02 -5.54338917e-02 -5.50361350e-02 +2.48813555e-02 +5.95667250e-02 +4.05704007e-02 +6.41010627e-02 -9.12275612e-02 -2.76600327e-02 -4.74165864e-02 +5.15109226e-02 -1.18201703e-01 -4.04763632e-02 -7.21392706e-02 -8.06411952e-02 +8.18293914e-02 -4.66009267e-02 +1.40378684e-01 -2.53871456e-02 -9.59772244e-02 +1.12248711e-01 +1.03685103e-01 -1.92070790e-02 -4.16143471e-03 -9.53378305e-02 +5.92508465e-02 -5.41898943e-02 -1.18119247e-01 -5.98517731e-02 +8.86269435e-02 +1.02794264e-02 +9.93751269e-03 +5.02769761e-02 +8.38261936e-03 +7.88725317e-02 +1.70573574e-02 -3.99717726e-02 -1.12270340e-01 -3.35058346e-02 -7.34791234e-02 -1.89086825e-01 -6.12851381e-02 -8.61136690e-02 -1.27844155e-01 -4.09131721e-02 -1.00647487e-01 -2.09945545e-01 -1.27375737e-01 -3.87060940e-01 -2.50991434e-01 -1.49200574e-01 -1.34262756e-01 -1.10010087e-01 -5.29421642e-02 -5.91720305e-02 -2.17782244e-01 -1.42991871e-01 -9.09644412e-04 -6.06702305e-02 -1.45665973e-01 -7.05947429e-02 -2.56494582e-01 -6.38132319e-02 +3.74466926e-02 -1.86817646e-02 -1.66492194e-01 -8.41727331e-02 -9.61968154e-02 -1.00426674e-01 -1.14336036e-01 -5.17213792e-02 -1.27438545e-01 +7.21712643e-03 +4.41127419e-02 +4.39064652e-02 -1.23954788e-01 -1.19248591e-01 -7.64761120e-02 -1.82346076e-01 +5.82751743e-02 -2.17450798e-01 -1.92555234e-01 -1.61881462e-01 -1.36640565e-02 -1.66158006e-01 -6.17166199e-02 -7.04784244e-02 -1.34972051e-01 -5.73825538e-02 -8.85081515e-02 -1.38118610e-01 -1.21705517e-01 -7.81093389e-02 -9.62901413e-02 +1.14706703e-01 -9.16211456e-02 -3.87752540e-02 -1.51073918e-01 +1.12239107e-01 -1.36051640e-01 -2.07989782e-01 -1.76445264e-02 -1.63445815e-01 +1.86319761e-02 -3.36937666e-01 +2.06023175e-02 -1.24802224e-01 -3.72180194e-02 -5.25167473e-02 -5.34548722e-02 -1.44812509e-01 -2.57337064e-01 -9.64373276e-02 -1.37892932e-01 -1.79177925e-01 -5.80760166e-02 -1.89166322e-01 -1.36142880e-01 -2.33867109e-01 -9.30403098e-02 +8.77143145e-02 +2.54247040e-02 +7.01322332e-02 -6.38857037e-02 -1.68565735e-01 +7.83599988e-02 -1.00373685e-01 +8.02817270e-02 -2.10179046e-01 -6.69549629e-02 -2.52814263e-01 +1.47865771e-03 -5.02835698e-02 +2.59793065e-02 +1.56069240e-02 -2.17281014e-01 -2.17434108e-01 -1.39280066e-01 -1.97924778e-01 -1.42777711e-01 -1.46802701e-02 -2.77678579e-01 +3.17512527e-02 -3.77828069e-02 +2.23057345e-01 -1.39448401e-02 -1.79083690e-01 -2.13724241e-01 -1.37234807e-01 -1.73545957e-01 -2.22887099e-02 +7.95789137e-02 +7.48259127e-02 +1.07167931e-02 -5.64273121e-03 +1.39280170e-01 +7.24661648e-02 -2.95198313e-03 +8.02452564e-02 +3.94327100e-03 -5.01267500e-02 -9.35142264e-02 +6.92436993e-02 -1.08739398e-01 +4.18606587e-02 +8.39074999e-02 -1.88889280e-01 -1.84903428e-01 +2.70381719e-02 -1.70339882e-01 -1.23262018e-01 -1.11233324e-01 +6.40485086e-04 +3.21074873e-02 +2.51420110e-01 -1.86690271e-01 -4.37352690e-04 -1.28486678e-01 -1.81483433e-01 -6.49813712e-02 -2.04420552e-01 -3.08683872e-01 -5.88820949e-02 +5.36748022e-02 +9.92941260e-02 -1.04999974e-01 -5.46601377e-02 -1.93019677e-03 -1.22861922e-01 -1.53977880e-02 +1.80025548e-01 -9.86099988e-02 -2.08438709e-01 +1.34359032e-01 -5.08789010e-02 -9.06901360e-02 -1.00622661e-02 -2.41173487e-02 +9.89653692e-02 -3.15147154e-02 -1.95650280e-01 -1.41905844e-01 +1.60888135e-01 +2.18060538e-02 +8.96754116e-03 -1.58612505e-02 -5.41955233e-02 +8.43304545e-02 +2.62456462e-02 -9.85002667e-02 -2.32914716e-01 -2.05262586e-01 +1.81914672e-01 +1.85484365e-02 -2.57990867e-01 +1.33404300e-01 -2.03366175e-01 -1.07428119e-01 -2.13173404e-01 -1.54538110e-01 -5.42417988e-02 +1.96150601e-01 +2.23195136e-01 -1.51933372e-01 +2.05656625e-02 +1.94248427e-02 -3.42618767e-03 -1.92801416e-01 +6.83233514e-02 +1.92906693e-01 -1.17244534e-01 +1.98885664e-01 +1.62305295e-01 -1.71065077e-01 -1.68233112e-01 -2.43091315e-01 -3.79929133e-02 -4.78020459e-02 -5.29947802e-02 -2.13549584e-02 -2.06398353e-01 -1.12310730e-01 -9.92391035e-02 -2.51556695e-01 -5.13913557e-02 +2.91701257e-02 +1.71171799e-02 +3.27099860e-02 -1.17131993e-01 -2.53217936e-01 +1.02023691e-01 +1.21484119e-02 -6.72576651e-02 +8.29928592e-02 +8.43632370e-02 -9.06012207e-03 +2.35767365e-01 -6.06409311e-02 -7.49684125e-02 -3.34595405e-02 -2.30839476e-02 +1.19240219e-02 +8.51165205e-02 -9.31744128e-02 +1.42233316e-02 -1.39490934e-02 -1.27224207e-01 -2.57220685e-01 -9.65695754e-02 +3.60059831e-03 -1.59455255e-01 -4.56730239e-02 -2.59255737e-01 -2.52813790e-02 +1.05938807e-01 -2.83217013e-01 -1.87512033e-03 -1.80711612e-01 -1.21468410e-01 -3.26347761e-02 -1.06840394e-01 -2.12032542e-01 -3.11354399e-01 -1.46442637e-01 +1.30212486e-01 -2.78190859e-02 -1.33248493e-02 +1.94098428e-01 -1.95725709e-01 -3.30179304e-01 +2.09000707e-01 -5.18470071e-02 -1.21093519e-01 +8.16719308e-02 +6.41155764e-02 -4.30532806e-02 +1.08610384e-01 -6.49884194e-02 +5.68145663e-02 -1.68154955e-01 -2.48032972e-01 -6.88155442e-02 +2.67310560e-01 -7.70332199e-03 -4.33969982e-02 -4.32392567e-01 +2.05413178e-01 -1.37366086e-01 -7.57800564e-02 -8.07063505e-02 -1.93314791e-01 -1.18714765e-01 -1.17174685e-01 -1.16279364e-01 -1.45548329e-01 -1.04666844e-01 -6.64147437e-02 -4.32573855e-02 -6.64628744e-02 -2.15655342e-01 -7.03312382e-02 +6.52386174e-02 -1.67213768e-01 -1.77759036e-01 +4.02735919e-02 -1.38701990e-01 -1.63816825e-01 -2.09493618e-02 +1.72258750e-01 +6.30618585e-03 +1.10952973e-01 +1.76246703e-01 +2.51054987e-02 +8.80659441e-04 -7.22598508e-02 -3.03431344e-03 -1.33764878e-01 -2.40295045e-02 -3.13149750e-01 -1.73410460e-01 -4.38928045e-02 -1.00597925e-01 -4.42899019e-02 -6.64822012e-02 +1.04568347e-01 +1.02443807e-01 -1.45591982e-02 -1.51959676e-02 -3.36441547e-02 -5.75412363e-02 -8.38443935e-02 -1.50293838e-02 +1.04327369e-02 -1.26962036e-01 -5.86048178e-02 -2.16090009e-02 +6.30644932e-02 -8.03728551e-02 +2.98901070e-02 -3.78407761e-02 -1.49973318e-01 +6.47571497e-03 +9.76953804e-02 +3.88893820e-02 +2.56712679e-02 +1.56086357e-02 +8.53457227e-02 -1.06368000e-02 -4.90439795e-02 +8.03887248e-02 +8.66958201e-02 -1.30985633e-01 -1.96040913e-01 +8.46718326e-02 +5.90296574e-02 +6.90777525e-02 -1.39442543e-02 -4.55331691e-02 -7.29794949e-02 -7.15547279e-02 -1.74632773e-03 +3.79421152e-02 -8.17261115e-02 +6.44636378e-02 +5.78547753e-02 -3.05830874e-02 -5.29847369e-02 +3.69690917e-02 +4.98856269e-02 -5.18673332e-03 -1.95262473e-05 +3.70067880e-02 +2.82825548e-02 +1.08385652e-01 -1.77742258e-01 +3.91610079e-02 -1.70146510e-01 -4.51161750e-02 -1.38170421e-01 -1.14177493e-02 +7.26834834e-02 +1.02955125e-01 +8.62203166e-02 -7.12580308e-02 -8.27532914e-03 -9.51661542e-02 -1.08241267e-03 +3.26754041e-02 -8.79637199e-04 +1.17377572e-01 -7.57656693e-02 +5.08282222e-02 -9.55243558e-02 -4.97779511e-02 -1.18756719e-01 +9.21230167e-02 +1.05105489e-01 -4.02444042e-02 -3.93517464e-02 -1.50431767e-01 +1.34310037e-01 +8.41123015e-02 +4.81326766e-02 -9.12830010e-02 +2.28120461e-02 +6.97536394e-02 -1.69647299e-02 -5.50038964e-02 -2.04571001e-02 -8.40574652e-02 +9.18762311e-02 +4.63105664e-02 +5.40329181e-02 +7.44164139e-02 -1.51942849e-01 +5.72894700e-02 +8.97856802e-02 -1.08526833e-01 +1.27557795e-02 +4.63571772e-02 +2.26031885e-01 +2.98667818e-01 +1.33376777e-01 +9.05968696e-02 +8.43148082e-02 +4.53461617e-01 +1.78810149e-01 +1.54517712e-02 +5.32530665e-01 +3.85803849e-01 -1.63464397e-01 +4.61637795e-01 +3.56815547e-01 +5.73124647e-01 +4.79967833e-01 +2.08694518e-01 +4.56538141e-01 -1.85267553e-01 +1.74688727e-01 +3.44089389e-01 -1.35217980e-01 +5.18510342e-02 -6.09380193e-02 -8.37507844e-02 +6.67899668e-01 +3.98603052e-01 +3.34943652e-01 -5.62932752e-02 +2.23874465e-01 -1.21961117e-01 +4.39509571e-01 +6.51672602e-01 +1.30086407e-01 -1.76062614e-01 +4.02108818e-01 +3.74033719e-01 +2.10068718e-01 +2.14259252e-01 +2.63343722e-01 +2.83924848e-01 +3.75083774e-01 +3.90692562e-01 -1.24043643e-01 +1.05615355e-01 -1.78422883e-01 +5.93738370e-02 +1.34208575e-02 -2.17518151e-01 +3.18902582e-01 +2.03799501e-01 -8.50268081e-02 +3.57584208e-01 +5.95769882e-01 +4.14111584e-01 -2.01488346e-01 +1.29009774e-02 -7.74570554e-02 +1.49188399e-01 +1.50105078e-02 -1.81330413e-01 +6.63120747e-02 -6.83557615e-02 +5.57269156e-01 +1.66201010e-01 +3.65791082e-01 +2.18223520e-02 -5.49772903e-02 +7.79393911e-02 +1.71230584e-02 +1.51066869e-01 -3.97231057e-02 +3.46224662e-03 +1.11395910e-01 +1.98973596e-01 -2.92267967e-02 -1.57822520e-01 +2.15321988e-01 +4.94533628e-01 +4.47333083e-02 +1.16428815e-01 +2.57372141e-01 +2.32370690e-01 +1.22633219e-01 +1.56631559e-01 +6.09005615e-02 -9.39630121e-02 +1.78881660e-01 -1.03664972e-01 +2.20238462e-01 +1.05331376e-01 +1.83544114e-01 +2.62473792e-01 +2.03843608e-01 +3.04229945e-01 +3.59859943e-01 +4.28101152e-01 +2.16984406e-01 +3.81650269e-01 +1.02834562e-02 +5.36770821e-01 +1.76184446e-01 -1.92726865e-01 +1.04742937e-01 -3.01077306e-01 +9.08950567e-02 +2.80505009e-02 -8.31515864e-02 -5.97708412e-02 -3.20123076e-01 +3.65072280e-01 -1.90504489e-03 +5.62203825e-02 +7.12964311e-02 -2.06147861e-02 -1.71967641e-01 +2.17360035e-01 -5.24054654e-03 -1.59000173e-01 -1.33390337e-01 +1.30578326e-02 -2.78308034e-01 +3.15309241e-02 -7.55561236e-03 -7.81375617e-02 +9.81265828e-02 -1.16097279e-01 -2.57730901e-01 -1.92480043e-01 +1.25896826e-01 -5.50488718e-02 -2.75345176e-01 +1.88089907e-01 +6.51384518e-02 +9.25682783e-02 +5.28503917e-02 -4.07097936e-02 -1.25499919e-01 +9.85111073e-02 -1.27127111e-01 +6.62402883e-02 -3.11193347e-01 -2.79281676e-01 -7.15751201e-02 +3.89136933e-02 +2.84536816e-02 -7.59786293e-02 +1.08724751e-01 -2.79302597e-02 -5.93561567e-02 +2.17225030e-02 +3.31644304e-02 -8.08615312e-02 -2.72291243e-01 -2.49485672e-02 -1.10110432e-01 -1.01219498e-01 -5.07258363e-02 -8.62783864e-02 +4.24292535e-02 +5.00027910e-02 -1.01158351e-01 +5.64645827e-02 +4.97753173e-02 -8.89341831e-02 +1.13409184e-01 +1.80575013e-01 -6.54409975e-02 -1.16533406e-01 -2.35350546e-03 -1.48227021e-01 -4.99219336e-02 -5.20813800e-02 +6.11192605e-04 +9.54613686e-02 -1.46592259e-01 -6.75959960e-02 +1.30465657e-01 +9.46190953e-02 +8.68352354e-02 -3.42499405e-01 +1.12530768e-01 +2.14789305e-02 +1.89285993e-03 -6.30907714e-02 +3.29678468e-02 -1.57193631e-01 +4.25773673e-02 -6.35283440e-03 +7.24702552e-02 -2.65927225e-01 +8.94764289e-02 -1.46090358e-01 -2.29666069e-01 +8.47307369e-02 -1.49525851e-01 -2.11942971e-01 -1.82679608e-01 -9.20400023e-02 -4.66539040e-02 -1.25460401e-01 +1.03580602e-01 +8.44889656e-02 -1.00526094e-01 -2.13633239e-01 +5.25069423e-02 +2.41471976e-01 -4.37033512e-02 -1.25581577e-01 +2.08268151e-01 +4.53759968e-01 +5.22287935e-03 +2.69257993e-01 +2.63537854e-01 +2.16954306e-01 +2.49556452e-01 +1.72841981e-01 +2.58309633e-01 +1.94316041e-02 -2.74630427e-01 -5.67609780e-02 -2.14202330e-01 +1.17199525e-01 +3.51265669e-02 +3.21258046e-02 +7.13123307e-02 +1.26426760e-02 -2.59039681e-02 -2.07228869e-01 -7.80474544e-02 +9.48154256e-02 +1.35931760e-01 +4.37712073e-01 +1.48971230e-01 -7.13582858e-02 +1.08395055e-01 +2.18422979e-01 -1.40443901e-02 -9.63568091e-02 +1.47237450e-01 +2.53769875e-01 +5.14411628e-02 +1.77924216e-01 -1.54037401e-01 -2.16811389e-01 -7.41981342e-02 +6.03088066e-02 +1.12613037e-01 -2.41692930e-01 +7.71511644e-02 +1.33867860e-01 -9.59080085e-02 +3.63391638e-01 +4.89896357e-01 +1.78397700e-01 +9.22246370e-03 -1.17853947e-01 -1.46036565e-01 +7.48740509e-02 -2.14718014e-01 +6.47697132e-03 -1.27537936e-01 -4.73038033e-02 -1.62591130e-01 -3.81843336e-02 -7.92826246e-03 -2.60025293e-01 -3.62507766e-03 -1.94029078e-01 -1.79008991e-01 -5.25986888e-02 +6.66351244e-02 +8.26486796e-02 -2.43278876e-01 +6.56463802e-02 -6.91810474e-02 -1.51620016e-01 -9.05883014e-02 +3.15107822e-01 -1.69158727e-01 -2.03763962e-01 +2.65173823e-01 +2.10300133e-01 +2.32330263e-01 -1.09567061e-01 +5.89722581e-02 -2.61671871e-01 -1.67109281e-01 -2.11927239e-02 +1.64552748e-01 -1.65695041e-01 +2.41989851e-01 -1.63781926e-01 -8.88788998e-02 +1.40170217e-01 +2.92268455e-01 +4.21207607e-01 +1.83161497e-01 +1.51230088e-02 +1.10367410e-01 +3.44070047e-01 +1.92765266e-01 +3.11348021e-01 -1.09917000e-01 +2.76209205e-01 +1.09633319e-01 -3.83321017e-01 -3.78730625e-01 -3.67372595e-02 -5.06907046e-01 +4.02794063e-01 -3.00111976e-02 +3.74948114e-01 +3.67798537e-01 +5.53253949e-01 +4.71565515e-01 -1.91627622e-01 -5.26766956e-01 -4.56066951e-02 +2.39686593e-01 -3.43934715e-01 +1.43251702e-01 -1.27932176e-01 +3.33625525e-02 -2.32101992e-01 +6.41414344e-01 -4.61333454e-01 -3.21286827e-01 -1.41062275e-01 -2.91745663e-01 -4.62658890e-02 +4.20133859e-01 -4.34111327e-01 -1.24326929e-01 +8.08862504e-03 +4.20271158e-01 -3.35665017e-01 -1.31797850e-01 +7.35736489e-02 +3.08929414e-01 -2.37498894e-01 +5.37867010e-01 -3.98972183e-01 +1.02967061e-01 -9.89161879e-02 -2.60374192e-02 +1.38812497e-01 -1.44839054e-02 +7.73259997e-02 +2.09495008e-01 +2.61390805e-01 -3.39731425e-02 +5.17602980e-01 +5.50960422e-01 -5.81477821e-01 +2.26088408e-02 +8.94692075e-03 -6.57437220e-02 -2.75535166e-01 -1.94520652e-01 +5.08470796e-02 -1.14625052e-01 +1.73211619e-01 +4.88580287e-01 +3.11830252e-01 +4.17253315e-01 +2.93145664e-02 -8.40747729e-02 +5.95095903e-02 -1.34692296e-01 -1.57910362e-01 -1.38515115e-01 -1.89753309e-01 -2.73996204e-01 +8.33005607e-02 +5.28807305e-02 +3.07920668e-02 -1.50451317e-01 +3.61607850e-01 -1.26258042e-02 +2.96797097e-01 -4.21411246e-01 -2.55639464e-01 -1.15874566e-01 -2.02616885e-01 -8.33749399e-02 -7.65766576e-02 -3.29405256e-03 +3.53069976e-02 -3.66351873e-01 -3.62063825e-01 +2.39158630e-01 +4.27036792e-01 -3.35756063e-01 -3.20816487e-01 -4.56986725e-01 +4.96176124e-01 +3.22025418e-01 +3.52511853e-01 -2.84325868e-01 -4.84835982e-01 +2.26401120e-01 -2.36445013e-02 +9.87931788e-02 +8.67336541e-02 +1.35269845e-02 +1.54136121e-01 +3.49922299e-01 +3.63186896e-01 +2.08984241e-01 +3.52421254e-01 +5.88799566e-02 +1.45458773e-01 +1.76352456e-01 -1.09782100e-01 +4.00112718e-01 -3.55996448e-03 -1.18973048e-03 -1.81306466e-01 +3.44114661e-01 +2.34636009e-01 -9.27865580e-02 +2.38224827e-02 +2.14499041e-01 -1.16818137e-01 +1.36402369e-01 +2.91263640e-01 +1.74300373e-01 +9.33454558e-03 +1.30618233e-02 -2.27967978e-01 +1.86317861e-01 -1.53992057e-01 +1.85448423e-01 +2.48267427e-01 -1.26268193e-01 +2.08881631e-01 -1.34922460e-01 -2.45258972e-01 +9.63108316e-02 +4.29460183e-02 +2.28486285e-02 -3.60346748e-03 +2.47527589e-03 +9.45720226e-02 -1.46069393e-01 -3.29347923e-02 +9.69785228e-02 +5.14537059e-02 -2.05124199e-01 +8.63861106e-03 +1.27353773e-01 +3.46587092e-01 -1.12281151e-01 -8.56266320e-02 +2.32616812e-01 +4.30512801e-02 +1.20484814e-01 +1.13993078e-01 -7.17302412e-02 -4.90052812e-02 +2.50977516e-01 +3.43999326e-01 +1.94093198e-01 +5.00974990e-02 +3.86631757e-01 -1.23243742e-02 +1.28942251e-01 +3.82562764e-02 -1.50704443e-01 +1.10812023e-01 +4.12492961e-01 +1.34744644e-02 -1.03358582e-01 +2.05983952e-01 +3.58370423e-01 -1.57999814e-01 +1.35544002e-01 +4.03699249e-01 -2.43910864e-01 +8.04744661e-02 +4.53981049e-02 -1.61708035e-02 -1.27457708e-01 +2.10475266e-01 +1.04363620e-01 -1.60262689e-01 +2.73566335e-01 +1.21325687e-01 +2.73037225e-01 +2.53240705e-01 +5.27762026e-02 -1.23712723e-03 -2.22927272e-01 +6.26637414e-02 +1.05002962e-01 +3.52461249e-01 +4.43883896e-01 +6.30599484e-02 -2.12513939e-01 -1.67074017e-02 +2.39389479e-01 -2.28400797e-01 +1.04386471e-01 -1.69169933e-01 +2.57746428e-02 +1.10838152e-01 +7.60676991e-03 +1.25787988e-01 -1.83628276e-01 +1.79666787e-01 +1.95521802e-01 +1.05649695e-01 -3.50879435e-03 +1.34205908e-01 -1.65832981e-01 -1.07782431e-01 -1.12173162e-01 -1.22871250e-01 -4.65940796e-02 -8.64699425e-04 +9.30849183e-03 -7.13715255e-02 -2.66436059e-02 +8.93981457e-02 -1.27912045e-01 +1.88309073e-01 -2.35722326e-02 +8.54744241e-02 -1.74786836e-01 +7.09700510e-02 -3.75806019e-02 +6.00067824e-02 +1.11785546e-01 +2.34683946e-01 -7.93994591e-02 +1.83357745e-01 +8.32556805e-04 +3.08455732e-02 +1.90018918e-02 -5.26178852e-02 +7.20018195e-03 +5.37394471e-02 +4.63791601e-02 -1.20320871e-01 -9.77725089e-02 -1.12723768e-01 -2.38050539e-02 +9.21019912e-02 -1.75255969e-01 -3.33030224e-02 +7.08522946e-02 -1.44710228e-01 -6.26794100e-02 -1.08498838e-02 +1.52273074e-01 -1.81286726e-02 -4.92185839e-02 +1.12985991e-01 +9.10599232e-02 +7.92951882e-02 -2.69043237e-01 -1.16737433e-01 +1.55497432e-01 +2.97299796e-03 -1.79378137e-01 -1.51701570e-01 -1.35220662e-01 -8.02311231e-04 +2.39135548e-02 -2.72749782e-01 +2.04254270e-01 -1.25648350e-01 -1.32674724e-01 -1.11457162e-01 -1.29759982e-01 +8.09734222e-03 +1.93339661e-02 +7.79035613e-02 -2.60742456e-01 -7.10987672e-02 -1.65472806e-01 -3.09152380e-02 -1.08817136e-02 -8.58564079e-02 -3.07726748e-02 -5.81416301e-02 -6.93021566e-02 -6.99089989e-02 +9.41573009e-02 -1.41985297e-01 +8.94607976e-02 +1.61779329e-01 -1.30972564e-01 +1.90942198e-01 +1.12306096e-01 -3.05481479e-02 -1.17040560e-01 -1.61952183e-01 -1.74107492e-01 -2.62412608e-01 +8.52551982e-02 -1.18700117e-01 -3.59290130e-02 -5.66699244e-02 +1.45490579e-02 -1.99747920e-01 +1.27468601e-01 +1.21017896e-01 -1.65559813e-01 +2.42610395e-01 -1.23819923e-02 -1.42486721e-01 +9.26109683e-03 -6.72634691e-02 +3.88882905e-02 -9.87377465e-02 +1.73091933e-01 -6.96221218e-02 +3.92981917e-01 +9.50781330e-02 -2.46876776e-01 -2.34102353e-01 -6.18609637e-02 -8.05300474e-02 -9.98327583e-02 +2.33723581e-01 +6.29475862e-02 -3.56492437e-02 -1.31460130e-01 -7.51169994e-02 +6.15599416e-02 +5.73993064e-02 +1.68770045e-01 +1.72080830e-01 +3.51788960e-02 -1.18660778e-01 -7.04994127e-02 -1.13479421e-02 -1.55650009e-03 -5.52774407e-02 -9.09867212e-02 -4.07808833e-03 +5.34606725e-02 -1.38156205e-01 +1.93661768e-02 -1.76319271e-01 +3.69637907e-02 -3.20444978e-03 -2.17298985e-01 -1.11930892e-02 +1.13162465e-01 +1.92846373e-01 -1.37465551e-01 +8.97126868e-02 -1.23899721e-01 +4.32262309e-02 -8.03363100e-02 +9.41765979e-02 -1.78171948e-01 -5.75770484e-03 +1.36795610e-01 -7.41713047e-02 +3.30714017e-01 -2.36634314e-01 -9.97769181e-03 -2.62447536e-01 -1.95892230e-02 +2.58685797e-02 +6.02663355e-03 +2.00681891e-02 +3.58949661e-01 -1.08313762e-01 -2.26351025e-04 +9.83180925e-02 +1.40146865e-02 -1.04502305e-01 +2.03165561e-01 +3.56109053e-01 -1.15835860e-01 -1.00025199e-01 -2.95939874e-02 -1.25805125e-01 +9.64578986e-02 +1.64705902e-01 +1.88129842e-01 -2.52827317e-01 +9.18794572e-02 -1.18550517e-01 -3.27322632e-02 -2.36747295e-01 +8.33276287e-02 -7.22578540e-02 -2.28526488e-01 +2.20486239e-01 +1.77122856e-04 -1.24428384e-02 +7.43636936e-02 -2.51834452e-01 -7.10833594e-02 -4.61877994e-02 +3.13180424e-02 +1.55075550e-01 +1.78831324e-01 +2.41792485e-01 +2.45749921e-01 -3.45343858e-01 -3.22065115e-01 +3.31319630e-01 -3.23791623e-01 +3.81597489e-01 +2.42575526e-01 +1.70860291e-01 +3.11677694e-01 +2.78146639e-02 +3.26488942e-01 +1.28098473e-01 +2.39526927e-01 +3.78375389e-02 -4.58860576e-01 -2.98242033e-01 -1.39980510e-01 -2.11241528e-01 +2.30709612e-01 +5.92477173e-02 -1.92543745e-01 +2.76328653e-01 -2.96374291e-01 -1.52154252e-01 +2.22049519e-01 -1.01220061e-03 +2.54948050e-01 +4.17729318e-02 +7.13833123e-02 +3.81353796e-01 -8.44930038e-02 +7.44005367e-02 +5.26307449e-02 -3.11167911e-02 +1.11602053e-01 +1.35149509e-01 +2.12337285e-01 -1.48916738e-02 -9.94721800e-02 -2.15260759e-01 -1.00617863e-01 -3.12632680e-01 +2.16122344e-01 -1.34719580e-01 -5.67701422e-02 +1.62298560e-01 +2.92107373e-01 +3.85026664e-01 -3.99496518e-02 -4.41378157e-04 -2.35965818e-01 -1.46775424e-01 +2.29386657e-01 -2.32647538e-01 -8.05592090e-02 +1.94871146e-02 -2.65756786e-01 +3.03913742e-01 -2.04332232e-01 -1.36125609e-02 -3.37888688e-01 +8.77364576e-02 +2.84695834e-01 +9.19152871e-02 +1.28634200e-01 -3.35831732e-01 -3.55087399e-01 +6.25211000e-02 -2.43560225e-02 +2.54488975e-01 +3.52911353e-01 -1.23951420e-01 -7.75615918e-03 +4.72331583e-01 +6.81932569e-02 +2.11840719e-01 +2.20235303e-01 +8.27902742e-03 -1.17281377e-01 -3.52913707e-01 +2.71857589e-01 +7.67248422e-02 +3.00545752e-01 +1.24991462e-01 -3.75116199e-01 -4.31650221e-01 +1.26273811e-01 +1.89930871e-02 -1.33453056e-01 -7.35734357e-03 +1.83487549e-01 +2.56735116e-01 +4.76713568e-01 +1.00166418e-01 +6.44778013e-02 -2.29682431e-01 +4.84767854e-02 -1.73113897e-01 +9.13709309e-03 -2.10454106e-01 -2.27938443e-01 -2.24680483e-01 +6.05727965e-03 -1.56718165e-01 -9.27480832e-02 -8.85213688e-02 +2.69084096e-01 -1.52329579e-01 -1.03880428e-01 -4.05351780e-02 -1.39255688e-01 +1.07261032e-01 +1.02624945e-01 -7.64290988e-02 -1.51776284e-01 +6.69290051e-02 +2.91292667e-02 +7.47639686e-02 -1.22549519e-01 -1.94445118e-01 -1.17607385e-01 +1.61100954e-01 +1.20616101e-01 -3.27983424e-02 -3.51474553e-01 -4.45424393e-02 -1.89087987e-01 +2.26370096e-02 +4.62026708e-02 -1.98450878e-01 +1.12120742e-02 -3.39331657e-01 +4.42029871e-02 -1.31638736e-01 -1.16695138e-02 -1.81892514e-01 -9.16812867e-02 -2.93344080e-01 -1.14660800e-01 -6.26660585e-02 -1.35542437e-01 -4.45323512e-02 -6.97447211e-02 +2.13644225e-02 +1.04364775e-01 +2.89091151e-02 +3.06065404e-03 -2.46683434e-01 -2.39152655e-01 +8.08016583e-02 +5.07463217e-02 -3.09223160e-02 -4.86095808e-02 -1.78289890e-01 -2.02448275e-02 -2.83829086e-02 -1.62059858e-01 -2.40321189e-01 -8.07598084e-02 -1.06444426e-01 +2.77404282e-02 -1.35484695e-01 -8.44269022e-02 +3.69055718e-02 -2.20864847e-01 -1.43538892e-01 -1.93047121e-01 +6.72343150e-02 -2.67298013e-01 +1.69431493e-01 -2.12470829e-01 -3.68444473e-02 -3.08231805e-02 -2.03482851e-01 +2.29557812e-01 -3.17572623e-01 +2.71269768e-01 +3.64784896e-01 +1.46576077e-01 -8.45483840e-02 -2.72608381e-02 -1.40674129e-01 -2.31057778e-02 +1.06924593e-01 +9.76073667e-02 -6.16779737e-02 +1.57711715e-01 +6.98572323e-02 -1.74583852e-01 -7.97339976e-02 +1.29396558e-01 -1.89154312e-01 -8.20816308e-02 -1.39687538e-01 -1.22522764e-01 -2.24621683e-01 +3.58249247e-02 -4.31100614e-02 +8.43862146e-02 -2.98007205e-02 -7.44411126e-02 -1.73644274e-02 -1.36648547e-02 +4.69521061e-02 -1.96750492e-01 -9.88891572e-02 +2.95028463e-02 -1.10843085e-01 +2.01806556e-02 +1.29189640e-01 +3.35273729e-03 +9.57225412e-02 +1.81089044e-01 -2.40996201e-02 +1.73053034e-02 -4.50835302e-02 +9.39484015e-02 -1.53309196e-01 +9.04795900e-02 -1.64734393e-01 -1.46666259e-01 +2.37176195e-01 -8.49757716e-03 -1.20811023e-01 -7.18361288e-02 -1.30808473e-01 +3.39661539e-02 +6.72740787e-02 +3.07680946e-02 -2.53141761e-01 +8.95798877e-02 +8.53840355e-03 -1.94026515e-01 -3.52357477e-02 -1.38493583e-01 +2.16589142e-02 +2.18203723e-01 -1.45624056e-02 +7.51874689e-03 +1.75261088e-02 -5.11550196e-02 +9.81495753e-02 -1.58442214e-01 +1.01492228e-02 -2.02633053e-01 -3.09694037e-02 +1.37475312e-01 +3.41301337e-02 +2.06820555e-02 +4.60256077e-02 +7.17717484e-02 +8.70096907e-02 -3.38308178e-02 +7.51191080e-02 -7.47406557e-02 +1.72476649e-01 -3.67791280e-02 -7.75937960e-02 +8.65814388e-02 +6.16408624e-02 +9.04704854e-02 +1.43426200e-02 -7.61346444e-02 -9.98179466e-02 -1.06993683e-01 -1.64742023e-01 -2.32448593e-01 -6.26450032e-02 -1.38371304e-01 +2.02367678e-01 -6.34766594e-02 -2.44660601e-02 -3.37663926e-02 -9.74542648e-02 +1.11601427e-01 +5.32156788e-02 -8.19588304e-02 +2.89207608e-01 +2.42026988e-02 +3.17276386e-03 -1.01895062e-02 -6.67602569e-02 +2.97454596e-02 -2.11567618e-02 +3.58211733e-02 -2.05117747e-01 +1.39425129e-01 -5.23807928e-02 +5.71158528e-02 +2.90769190e-02 +1.10170312e-01 -7.51390634e-03 -1.13188781e-01 -3.48937586e-02 -1.55587541e-02 +4.83943969e-02 -4.99956012e-02 -3.53900976e-02 -1.39697760e-01 -1.70816556e-01 -7.31627271e-02 -1.46287382e-01 +2.45214980e-02 -2.20332995e-01 -1.58690964e-03 +5.51560186e-02 +1.81791455e-01 +6.11342676e-03 -1.78388253e-01 -2.57391557e-02 -1.96525916e-01 +2.44290769e-01 +2.67307669e-01 -1.06277227e-01 -9.53804925e-02 +8.40253979e-02 -8.93636514e-03 -8.43633860e-02 -3.93497311e-02 -2.44798839e-01 -1.31948262e-01 +8.40207264e-02 -3.77758406e-02 -1.38313234e-01 -2.48795241e-01 -2.37107202e-01 +2.67450027e-02 +3.53949592e-02 -1.12574652e-01 -1.84946865e-01 +9.90798473e-02 +5.82035668e-02 +1.04376256e-01 -2.91714761e-02 +9.92412195e-02 -1.36433512e-01 +7.76608735e-02 -5.93039859e-03 -3.76053713e-02 -9.64892581e-02 -1.32160783e-01 -5.79578206e-02 -1.70116529e-01 -2.36020193e-01 -1.45442888e-01 -4.85570207e-02 +6.52274638e-02 -7.92303383e-02 -6.64332276e-03 -5.72942868e-02 +2.58249100e-02 -1.29336208e-01 -6.86730891e-02 -9.82693285e-02 -2.15848938e-01 -2.11751144e-02 -4.49966714e-02 -1.89989403e-01 +2.64178198e-02 -4.95247766e-02 +1.28692701e-01 +1.36542153e-02 -1.18347272e-01 -1.98786125e-01 -6.28717989e-02 -1.27522886e-01 -3.02937120e-01 -1.07625248e-02 +1.05224801e-02 +2.19007470e-02 -2.29390055e-01 -8.95892754e-02 +1.84055164e-01 -1.66581988e-01 -1.14888541e-01 +7.76881725e-02 +1.70144364e-01 +2.51765221e-01 +2.04716489e-01 -1.76913023e-01 +1.28840864e-01 -2.22146183e-01 -1.38469301e-02 -1.16755188e-01 -6.07991479e-02 -7.75839016e-02 +1.71445422e-02 -7.61573166e-02 -3.69089395e-02 -8.78402367e-02 -3.29132266e-02 +3.45561393e-02 -1.08262226e-01 -4.17764857e-03 -3.24639715e-02 +7.78704137e-02 -1.26111388e-01 -7.11501017e-02 -8.52717087e-02 +1.20722376e-01 -8.41711531e-04 -5.70732132e-02 +9.98311490e-02 -1.09780796e-01 -9.72225964e-02 +1.67655900e-01 +2.41168916e-01 +1.09768860e-01 +3.94003242e-02 -1.89630594e-02 +1.84882820e-01 -3.21482152e-01 -2.94752363e-02 +9.79368910e-02 +7.63551444e-02 -2.73364276e-01 +3.19138058e-02 +1.70981541e-01 +2.08651889e-02 -6.96741194e-02 +1.13786831e-01 -8.75529423e-02 -1.43819973e-01 -1.55042097e-01 +4.72676940e-02 -7.88489282e-02 -7.59610161e-02 -1.78353965e-01 +2.22335272e-02 -6.68958277e-02 -6.58464730e-02 -1.15855508e-01 -2.82092631e-01 -2.60629635e-02 +2.27484494e-01 -8.29876587e-02 +6.44501299e-02 -1.48826003e-01 +1.48628503e-01 +1.50180131e-01 +1.81311890e-01 +4.16277722e-02 +8.43845680e-02 -1.19217955e-01 +1.59864798e-01 +1.43825099e-01 -5.78382313e-02 +4.96021174e-02 +1.31715477e-01 -5.61724156e-02 -7.65033141e-02 -1.74245425e-02 +8.45788866e-02 -1.88967913e-01 +2.18042582e-02 -9.70169306e-02 -6.43725395e-02 +3.90349925e-02 -1.29722273e-02 +4.21800278e-02 +3.88895422e-02 +1.93962455e-02 -2.56766267e-02 +1.57671988e-01 -2.92843953e-02 -1.15340479e-01 -8.73105973e-02 -1.84228361e-01 -7.35821277e-02 +2.75390758e-03 +1.40195847e-01 +9.57614556e-03 -1.92581624e-01 +1.31629795e-01 -2.71921188e-01 +2.06535012e-02 -3.26249242e-01 -3.59004229e-01 +1.63971052e-01 -1.44513054e-02 -2.39449784e-01 -9.72060636e-02 -9.13358182e-02 -5.40518090e-02 +2.15853348e-01 -3.38891077e-05 +1.46298647e-01 -5.88839836e-02 -3.09165064e-02 -4.31031995e-02 -1.85970441e-01 +1.40708471e-02 -5.98856173e-02 -9.98381376e-02 -7.67677948e-02 +1.05381459e-01 +4.53558154e-02 -1.39223397e-01 +1.46702036e-01 +4.16560173e-02 +1.29460126e-01 -1.52334914e-01 +8.35988969e-02 -1.15837723e-01 +7.80503452e-02 -1.50743991e-01 -3.94764133e-02 -1.83879696e-02 +8.36165026e-02 +1.14708170e-02 -1.35700896e-01 -8.12073797e-03 +1.44707277e-01 +2.38857605e-02 -3.11978534e-02 +7.22496361e-02 -1.97953761e-01 +7.81036094e-02 -3.45887691e-02 +1.05229355e-02 -1.31198943e-01 -7.34412372e-02 -3.87511514e-02 -2.64553756e-01 -1.28849354e-02 -4.45048697e-02 -2.25574970e-02 -1.46878138e-01 -9.37332138e-02 -1.20046727e-01 -1.56931907e-01 -2.04393268e-01 -2.56197870e-01 -1.63381845e-01 -2.77349532e-01 -4.90043052e-02 +6.05195612e-02 +7.69025236e-02 +1.12994667e-02 -1.08930036e-01 -5.14934957e-02 +7.31887817e-02 -2.46580523e-02 +5.08432798e-02 -3.30754220e-02 -5.88593772e-03 +1.24200247e-02 -1.64323121e-01 -2.64406502e-01 +1.73381902e-02 +2.44945630e-01 -7.74068907e-02 +1.58411518e-01 -2.65638024e-04 -1.40487745e-01 +1.23582473e-02 -7.36024827e-02 -5.17186597e-02 +1.60192892e-01 +2.71748193e-02 -1.62320226e-01 -7.95837194e-02 -6.64564744e-02 +2.29817200e-02 -2.92277597e-02 -2.15605155e-01 +2.79567502e-02 +1.38192043e-01 -1.28930390e-01 -6.68409141e-03 -6.30806014e-02 -1.65437683e-01 +7.93121234e-02 -1.57802314e-01 -1.78661555e-01 -2.19594371e-02 -1.72799602e-01 -2.78958003e-03 +8.89768973e-02 -5.99515848e-02 -1.49577305e-01 +5.10199331e-02 +1.14213295e-01 +1.09915465e-01 -5.07606678e-02 +3.37726846e-02 -5.17344289e-02 -4.09733579e-02 +7.09283575e-02 -2.02327833e-01 -6.38061091e-02 +1.07805673e-02 +1.00435399e-01 +6.11421652e-03 +6.26030043e-02 -9.84460339e-02 +1.45563111e-01 -2.47068759e-02 +1.28372267e-01 -4.40437831e-02 +4.13202532e-02 -2.10632026e-01 +7.56874084e-02 +5.73329702e-02 -1.55769885e-01 -3.74084413e-02 -1.64282601e-02 -4.08807397e-03 -1.62932388e-02 -1.23275243e-01 +1.01301394e-01 -3.71025056e-02 +6.19720072e-02 +8.05406123e-02 +1.77655831e-01 -4.73212823e-02 -2.78164027e-03 -1.60895124e-01 -6.55487478e-02 -1.22075640e-01 +3.18991654e-02 -1.03174798e-01 +4.73056920e-02 +1.85800985e-01 -2.87082721e-03 -2.13705316e-01 -1.79915607e-01 -7.05867410e-02 +2.22337004e-02 -4.91831228e-02 -1.60777256e-01 -3.65754142e-02 -6.86283549e-03 -1.40654027e-01 -5.01434393e-02 -3.71914878e-02 +1.94676176e-01 +1.49223700e-01 -2.02513888e-01 -5.07263839e-02 +4.54492792e-02 -5.72189428e-02 +7.92150870e-02 -2.85550039e-02 -7.96604007e-02 -1.39955118e-01 -5.94166294e-03 -1.00234471e-01 -9.53531861e-02 +8.58439058e-02 +1.77058801e-01 -1.10448107e-01 +1.10175587e-01 +1.15483448e-01 -3.27516422e-02 -5.66605888e-02 -1.11419566e-01 -5.17735817e-02 +1.35129124e-01 -1.30329251e-01 +5.27060702e-02 -2.55675688e-02 -1.90440789e-02 -8.63724737e-04 -1.51816616e-02 -1.64735362e-01 -2.59400290e-02 -5.34957647e-02 -2.52469182e-01 -7.71589056e-02 +1.93888277e-01 +1.85268950e-02 +2.45676264e-01 +7.89019912e-02 -1.43733248e-01 -8.50444138e-02 -1.34385750e-03 -1.03022028e-02 -1.67258382e-01 -4.08729911e-02 -1.59431368e-01 +3.16935852e-02 -1.25615939e-01 -1.81040056e-02 +1.02347406e-02 -1.17489919e-01 +7.61082917e-02 +6.48670867e-02 +1.10824242e-01 -4.88343835e-02 +1.24414694e-02 +7.39752054e-02 -9.12385583e-02 +5.13993353e-02 -5.01688384e-02 +1.40772071e-02 +3.64548936e-02 +4.70105968e-02 +1.68231130e-02 -1.28052101e-01 +9.05916374e-03 -1.75007865e-01 +4.60098907e-02 +8.08343366e-02 -1.40063763e-01 +7.43435696e-02 -1.47853151e-01 +7.83705562e-02 -2.98600681e-02 -1.25536829e-01 +5.18766642e-02 -2.43595734e-01 +2.92691022e-01 -4.56291884e-02 +2.32549846e-01 -4.26505804e-02 -3.54581662e-02 -1.63283184e-01 -3.28275710e-02 -9.63554010e-02 -5.40817417e-02 -3.77716892e-03 +9.58054885e-02 -9.33044627e-02 -2.07364887e-01 -2.64795303e-01 -9.87944659e-03 +2.17217449e-02 -7.87173659e-02 -3.84541787e-02 -2.76434235e-02 -5.11731431e-02 +3.21725607e-02 -8.65455493e-02 -8.69472027e-02 -1.14528671e-01 -1.24153737e-02 +2.64920499e-02 +1.36330528e-02 +1.71866305e-02 -7.08641484e-02 -9.97215509e-02 +2.34182961e-02 -1.59011722e-01 -7.65619949e-02 -1.03550665e-01 -1.79272741e-01 -1.32447720e-01 -1.32623211e-01 +1.16814256e-01 +1.71981640e-02 -1.76012978e-01 -4.62013949e-03 -5.12581654e-02 +9.74999964e-02 -1.75059438e-01 -1.25730142e-01 +4.69944871e-06 +1.78876445e-01 +9.62497853e-03 -3.10408138e-02 -1.17198601e-01 -1.06710240e-01 +8.38412251e-03 +3.80438641e-02 -2.04691231e-01 -4.14683558e-02 -1.58572793e-01 -1.12082250e-01 -3.61379161e-02 -9.19148140e-03 +6.01304062e-02 +2.04495743e-01 -1.53237566e-01 -2.07654789e-01 -1.04453668e-01 -1.65702740e-03 -1.20465785e-01 -1.62709698e-01 -4.53231931e-02 -8.14535096e-02 -8.25643837e-02 -1.28996238e-01 -1.60472676e-01 -2.13845849e-01 -1.21858746e-01 +5.65615930e-02 +1.77806581e-03 -1.19247854e-01 -9.71465036e-02 +5.42359315e-02 +3.28852683e-02 -1.98156890e-02 +7.54378885e-02 -6.89242631e-02 -1.26849683e-02 -6.45183101e-02 +1.10355671e-02 -4.73710410e-02 -1.07526913e-01 +1.18139669e-01 +2.38371454e-03 -9.55544859e-02 -6.64296821e-02 +2.02243388e-01 -3.01119220e-02 +2.34419946e-02 +3.93387973e-02 -7.76989385e-02 -1.55080843e-03 -7.34519660e-02 +1.68207243e-01 -6.79557845e-02 +6.27204329e-02 +4.06828634e-02 -4.73130681e-02 +3.95983569e-02 +1.25593916e-01 +1.41333684e-01 -3.29678655e-02 +7.22574741e-02 +3.51006128e-02 -2.80978605e-02 +1.21576115e-02 +1.99961856e-01 +1.25606060e-01 -9.98255461e-02 +9.07854065e-02 -5.54547198e-02 +6.15483932e-02 +1.75201103e-01 -1.01537608e-01 +2.30396856e-02 +2.92177778e-03 -3.12115010e-02 +1.43602639e-01 +8.77460092e-02 -1.08119637e-01 +6.21231180e-03 -2.70980541e-02 +1.05589174e-01 -7.57882968e-02 -6.00436814e-02 +1.24612771e-01 -9.11077112e-02 -1.23333648e-01 -3.66501212e-02 +1.18779540e-02 -3.64246257e-02 +9.31482464e-02 +1.16174042e-01 +6.87464550e-02 +1.42098874e-01 +4.17883657e-02 +1.55067060e-03 +1.68166291e-02 -2.15342622e-02 +1.43397301e-01 +9.91178863e-03 -1.05236202e-01 -9.92124155e-02 -1.07625917e-01 -8.10917765e-02 +1.52965471e-01 -5.69530949e-02 -1.45416835e-03 -9.65888724e-02 +2.51090825e-01 -3.60950269e-02 +2.02179044e-01 -9.95916501e-02 -5.90513647e-02 -1.16575316e-01 +4.68100607e-02 +5.91302849e-02 +3.81994173e-02 -1.80373862e-02 +1.39828384e-01 -1.59000263e-01 +3.85962352e-02 +4.03299741e-02 +2.43472178e-02 +9.89115089e-02 +9.51701030e-02 -1.08561642e-01 -1.08883224e-01 -1.63066443e-02 +4.52892520e-02 -1.31901890e-01 +2.37447973e-02 +5.17302379e-02 -6.60114661e-02 -1.39999643e-01 -1.91098750e-02 +3.90870795e-02 -3.87089401e-02 -9.78615060e-02 -1.05673485e-01 +4.45462056e-02 -7.36366808e-02 -1.15134776e-01 -3.75015028e-02 +2.54952759e-02 -1.76790580e-02 -1.40812039e-01 -1.52567578e-02 +2.12069973e-02 -6.50897771e-02 -2.07462739e-02 -1.53909311e-01 -7.14679733e-02 +1.58418231e-02 -2.95631234e-02 -1.26860172e-01 -1.22743391e-01 +5.01453206e-02 -4.30418886e-02 -2.30492175e-01 -1.31433338e-01 -1.40458152e-01 -1.97064802e-02 -3.03662475e-02 -2.08220780e-01 -1.81536585e-01 -8.37326329e-03 -4.35184725e-02 +4.93374430e-02 +1.72399171e-02 +1.37191981e-01 -3.43588367e-02 +3.64115238e-02 -5.08613288e-02 -2.26151161e-02 -8.53602216e-03 -7.11888671e-02 -1.10023953e-01 -4.47755344e-02 -1.40368730e-01 -8.58206600e-02 -1.28912657e-01 -2.39900779e-02 -1.65799320e-01 -1.11979321e-01 -1.54799730e-01 -2.71494389e-02 -3.35531905e-02 -5.75417131e-02 -1.05056718e-01 -1.97605610e-01 -2.20742878e-02 +4.45423350e-02 -8.77212584e-02 -1.73068434e-01 -1.14382818e-01 +6.29668171e-03 -9.96963680e-02 -6.12807348e-02 +3.28500047e-02 -2.89376872e-03 +1.41795687e-02 -1.89225469e-02 -1.04130037e-01 -1.90488815e-01 -1.74589287e-02 -2.23264679e-01 -1.27638265e-01 -1.20256513e-01 -9.61080790e-02 -1.44238383e-01 -1.58883724e-02 -1.52584866e-01 +1.11423142e-01 -8.21001455e-02 -1.48216300e-02 +1.25280600e-02 -1.54333152e-02 +8.03900510e-02 -1.97180882e-01 -1.66324005e-02 -6.41670972e-02 -7.53912702e-02 -6.56864140e-03 +6.55516312e-02 -8.57783332e-02 -4.98780161e-02 -3.05150393e-02 +1.34642497e-01 +1.30451694e-02 +7.33153075e-02 -2.60711193e-01 +1.12835109e-01 -1.49412230e-01 -2.21037477e-01 -1.56449527e-01 -8.62795636e-02 -1.34577170e-01 -8.37187991e-02 +9.14429575e-02 +1.69131327e-02 +9.32903513e-02 -1.12032726e-01 +3.75947282e-02 -2.03695726e-02 +1.30210042e-01 -8.14129189e-02 -7.84463361e-02 -2.34436896e-02 +3.09620909e-02 +2.48175766e-02 -7.40036219e-02 -1.25543540e-02 +2.60318257e-02 -1.02499835e-01 -7.59506226e-02 +7.38095269e-02 +7.15323985e-02 -1.77577272e-01 -1.79939404e-01 +1.75261088e-02 +2.07776092e-02 -5.57155982e-02 +1.02027850e-02 -5.01692630e-02 -4.08045761e-02 -1.48241788e-01 -1.09188519e-01 +8.88888538e-03 +4.03959081e-02 +2.39555106e-01 -1.45423904e-01 +1.33418096e-02 +5.13298297e-03 -1.89132392e-02 -2.56982055e-02 +1.70742758e-02 -3.23969908e-02 -3.89410853e-02 -9.19217896e-03 -3.34935710e-02 -1.18980266e-01 -9.38537493e-02 -1.43786654e-01 -7.62576237e-02 -4.38672267e-02 +7.26629198e-02 +8.87462348e-02 +9.06368624e-03 +1.02107204e-01 +3.80142778e-03 -6.29028380e-02 -5.57563454e-02 +4.71450314e-02 -2.22833693e-01 +1.28339157e-01 -2.24725336e-01 -1.39744300e-02 -1.25676878e-02 +1.42776901e-02 -5.71648329e-02 -1.13679841e-01 +5.44733107e-02 -1.66538879e-01 -2.89175391e-01 -1.13492407e-01 -1.80472150e-01 -3.79563905e-02 -3.86648066e-02 +6.97433129e-02 -1.12448968e-01 +1.02774337e-01 -2.03893371e-02 -1.05446808e-01 +1.07065149e-01 -6.98905811e-02 -1.73924178e-01 -1.80464927e-02 +1.70377120e-01 -7.60809928e-02 +1.47625338e-02 -6.89723343e-03 -2.38171853e-02 -5.93503341e-02 +2.16533542e-02 -1.64251909e-01 -1.05434686e-01 -6.84158057e-02 -1.65673885e-02 -1.72617465e-01 +6.35490566e-02 -1.06012784e-01 +1.83766291e-01 -2.11551394e-02 -2.17513442e-02 -6.67428076e-02 -7.91159347e-02 -2.23112963e-02 -4.49686721e-02 +7.37222210e-02 +1.02985427e-02 -2.46437564e-02 -1.67935744e-01 +1.24105234e-02 -1.27417356e-01 +4.61852215e-02 +3.95942107e-02 -3.17459852e-02 -5.95967695e-02 -9.39013511e-02 -7.56085068e-02 +1.39564052e-02 -2.80090645e-02 +6.30771220e-02 +2.63479352e-02 -1.33422852e-01 -1.31370738e-01 -9.10062045e-02 -2.92531569e-02 -1.32989883e-01 -6.80165365e-02 -1.09878249e-01 -1.57984525e-01 -4.64256704e-02 -6.86514378e-02 -6.18253760e-02 -8.18190947e-02 -2.63099167e-02 -1.15838453e-01 -8.65344033e-02 +1.16438203e-01 -5.62722832e-02 -1.06999144e-01 -9.07123741e-03 -1.27577305e-01 -2.18823832e-02 +7.47015849e-02 -9.00677815e-02 -3.79400402e-02 +4.25060512e-03 -1.94386560e-02 -1.64921314e-01 -5.37707470e-02 -1.61726981e-01 -2.74045728e-02 -2.66828269e-01 +3.71226966e-02 +2.09880888e-01 -1.21597685e-01 -2.16591498e-03 -1.43136494e-02 +3.88745107e-02 -7.00129867e-02 -1.42828867e-01 -1.96916386e-01 +8.37599263e-02 -9.30655971e-02 -1.33848652e-01 +1.13473982e-01 -6.79235682e-02 +1.03723295e-01 +8.47631022e-02 -1.56537385e-03 -8.81655291e-02 -1.48379300e-02 -2.05574818e-02 -1.04423203e-01 -1.16852589e-01 -1.82856426e-01 -3.90455313e-02 -9.11104530e-02 +3.87074091e-02 -1.73613772e-01 -3.78949046e-02 +4.30003703e-02 -6.31045699e-02 -1.25274867e-01 -8.30182806e-02 +2.30733916e-01 +8.18230286e-02 -8.66780058e-03 +5.95645458e-02 +6.29789904e-02 -1.22933954e-01 +3.55228968e-02 -9.79784727e-02 -1.45446733e-01 +1.53740421e-02 +1.29535168e-01 -8.73681158e-02 -1.16349533e-02 -3.82534275e-03 +8.78733024e-02 -7.45894983e-02 -1.69777304e-01 -1.65686503e-01 -9.85543057e-02 -2.11405605e-02 -4.15487960e-02 -7.44501203e-02 +4.88568768e-02 -6.83674142e-02 -1.32404016e-02 -1.26908496e-01 -1.09628804e-01 -1.66970268e-01 -2.24856324e-02 +7.73957968e-02 -8.97874311e-02 +7.66062364e-02 +1.63129181e-01 -8.52033198e-02 -9.80525389e-02 -1.16850473e-01 -3.23029608e-03 -9.01656821e-02 +1.15280353e-01 -1.00183571e-02 -5.66626228e-02 +1.05369568e-01 -1.32603839e-01 +4.56788801e-02 -8.76094252e-02 -2.40558898e-03 -3.90352234e-02 -1.13455383e-02 -1.32165998e-01 +4.10859324e-02 +1.10608719e-01 -4.79959138e-02 -1.10616200e-01 +1.48151547e-01 -7.71776587e-02 +1.18637517e-01 +1.23384878e-01 +3.63881998e-02 -1.22278214e-01 -8.77374262e-02 +5.01229987e-02 -1.22088298e-01 +8.46227407e-02 +9.13392082e-02 +5.60227185e-02 -6.94030151e-02 +5.87742822e-03 -6.25895932e-02 -7.81280026e-02 +8.39458853e-02 -1.63570400e-02 +5.68081401e-02 -4.54738662e-02 +5.65761626e-02 -1.14842549e-01 +2.29481123e-02 +4.46236879e-02 +5.24516925e-02 +8.85702670e-02 -1.01970196e-01 -9.76742990e-03 +9.15332958e-02 +8.84052292e-02 -9.61094722e-02 +4.07957807e-02 +3.51049192e-02 -5.84306046e-02 -2.51480788e-02 +2.30878964e-02 -6.97714239e-02 -1.15787670e-01 -1.00965060e-01 -8.22452530e-02 -5.83480764e-03 +7.94337317e-02 +1.19509950e-01 +8.14307295e-03 +1.24763370e-01 +1.20080143e-01 -9.42980424e-02 -7.42283389e-02 +3.13955173e-03 +9.39379781e-02 -1.77069530e-01 +5.92775047e-02 +8.71018786e-03 +5.77595606e-02 -2.02249810e-02 -2.60930452e-02 +4.53635156e-02 +1.72016725e-01 -2.63461843e-02 -8.46823901e-02 +1.33032992e-03 -1.29588857e-01 +5.29970117e-02 -3.09705064e-02 +8.33780318e-02 +5.08425683e-02 +5.88989295e-02 +1.87417325e-02 -6.00347444e-02 -1.87069356e-01 +5.47498316e-02 +2.15880685e-02 -1.06731392e-01 -1.58306792e-01 -7.64785782e-02 +5.26502132e-02 -1.09868072e-01 +1.04191124e-01 -1.23645082e-01 +1.09180689e-01 -1.08321719e-01 -5.04288226e-02 +5.62978201e-02 +2.10808776e-02 -1.58238962e-01 -2.13015035e-01 -6.91010952e-02 -8.13623220e-02 +2.96985498e-03 +1.15587294e-01 +2.87918840e-02 -1.06627218e-01 -5.54422699e-02 -1.93200439e-01 -2.73303129e-02 -1.09167196e-01 -9.66943651e-02 +4.82778177e-02 -6.84739798e-02 -1.31886452e-02 -1.66728497e-02 -1.10938184e-01 -1.90490216e-01 -5.06783314e-02 -1.15574978e-01 -5.07604443e-02 -5.88139966e-02 -1.46528319e-01 -1.50663227e-01 -2.65972726e-02 -9.75577906e-02 -1.30408883e-01 -1.37681708e-01 -1.00779131e-01 -4.01996002e-02 -4.70893122e-02 +6.47750497e-02 +9.75911841e-02 +1.37949631e-01 +1.93863630e-03 -1.98457148e-02 +7.60608763e-02 -4.83924188e-02 +4.63818610e-02 -1.80538788e-01 +8.39769915e-02 -4.18647900e-02 -1.54795796e-01 -1.75792694e-01 +3.11220028e-02 -6.81006238e-02 -3.44458371e-02 +6.81649521e-03 -1.78836554e-01 +4.55915853e-02 -1.02157213e-01 +6.35757670e-02 -6.63934834e-03 +1.75813556e-01 +3.05301324e-03 -9.22930706e-03 -5.69211617e-02 +8.84315968e-02 -6.19316660e-02 -7.31468797e-02 +1.60885632e-01 -8.87746364e-02 -1.41929910e-01 +2.44320985e-02 -4.32024598e-02 +1.45943128e-02 -3.81074101e-02 -6.10255413e-02 -1.35441814e-02 -1.51678324e-01 +2.71000899e-02 -2.13559195e-02 -2.97087468e-02 +1.38583079e-01 -5.60346395e-02 +3.36708352e-02 -1.80718333e-01 -2.83758324e-02 -1.13943383e-01 +1.24652550e-01 -1.64032176e-01 -1.68351665e-01 +4.41370416e-04 -8.70277137e-02 +1.05055287e-01 -5.02262972e-02 +9.74307954e-02 +8.23831465e-03 +5.19711338e-02 -8.59746337e-02 -1.58310890e-01 +1.47858456e-01 +1.16102267e-02 -1.32268285e-02 +1.74289420e-01 +2.07938738e-02 +1.58260286e-01 +8.56664702e-02 -9.08400640e-02 +2.61919051e-02 -1.41438365e-01 -2.67701950e-02 +4.83742505e-02 -5.85777126e-02 -1.11081041e-01 +2.31111273e-02 +9.22494531e-02 +2.01332822e-01 -7.82275200e-03 -7.06944987e-03 -2.17156589e-01 -1.10460609e-01 -6.81939721e-02 -1.35745674e-01 +7.30041638e-02 -1.79751106e-02 -1.16888277e-01 -1.08915940e-01 +3.92948799e-02 +3.95689905e-02 -7.91525170e-02 -1.23962715e-01 +1.35504380e-01 +5.97630665e-02 -8.39064345e-02 +5.66700809e-02 +7.93953240e-02 +1.31347645e-02 -2.41679084e-02 +7.70204514e-02 +9.03321430e-02 -6.61029480e-03 -3.53578702e-02 +2.55353212e-01 -1.20773673e-01 -3.56240906e-02 +4.28210311e-02 -7.54043534e-02 -4.59627919e-02 -5.43662868e-02 +1.01833276e-01 -1.72041189e-02 +7.39093944e-02 -1.09208331e-01 +1.20845504e-01 -1.59621805e-01 -5.64461201e-02 +9.90312919e-02 -1.34788573e-01 -1.17143430e-01 -4.16911840e-02 +1.04582757e-01 -7.42509812e-02 +6.79557696e-02 +4.63647172e-02 -2.33220886e-02 -7.51043409e-02 +1.58877656e-01 -1.97711810e-02 -6.61810860e-02 +4.75630164e-02 -1.27593189e-01 -3.81544977e-02 -7.71774501e-02 -1.10520497e-01 -9.91720036e-02 +7.73758814e-02 -1.29788995e-01 -6.08678050e-02 -4.98274788e-02 +1.08141251e-01 -6.51079863e-02 +2.77383644e-02 +1.10833719e-01 +2.13370994e-02 -2.80071562e-03 +1.52088031e-02 +9.01444703e-02 +6.50677904e-02 +3.65091600e-02 -5.19735646e-03 +3.75105739e-02 -5.31879067e-02 -5.35377078e-02 -9.78874117e-02 +2.53519546e-02 -9.54065770e-02 -3.37890573e-02 -9.20139104e-02 -4.73322272e-02 -1.09118447e-01 +7.62994140e-02 +1.42062679e-01 -1.49743140e-01 +1.26993001e-01 -5.88109866e-02 -8.62733498e-02 +1.26577551e-02 -1.15674397e-03 -1.55016318e-01 -8.40698089e-03 -1.27241597e-01 +7.05307126e-02 +9.97437835e-02 -7.62729198e-02 +1.27543092e-01 +1.84330977e-02 +1.88595057e-02 +1.56288370e-02 +2.46377457e-02 -8.45838264e-02 -2.24163234e-02 -1.03801079e-01 -2.19193399e-01 +7.29700923e-02 +8.97637457e-02 +1.55809382e-02 -1.87435791e-01 -3.22387507e-03 -1.00621358e-01 -9.44943652e-02 -2.21587926e-01 +3.08301076e-02 +1.01863900e-02 +1.67099424e-02 +5.46732619e-02 -3.04013286e-02 -5.15360534e-02 +3.39732990e-02 -6.02599874e-04 +8.06797519e-02 +1.52568996e-01 +1.44293189e-01 +3.62575650e-02 -2.02874810e-01 +1.89937092e-02 -8.59945267e-02 -1.78932399e-01 +1.21975891e-01 -5.59866428e-02 +1.60154365e-02 +4.30635102e-02 -1.95535764e-01 +4.21229303e-02 +1.00729249e-01 -8.46674070e-02 +5.01859300e-02 +4.35891747e-02 -3.79776247e-02 -9.19872001e-02 +4.19154502e-02 +8.99740905e-02 -1.00772917e-01 +4.32864800e-02 -2.12291300e-01 -1.04301430e-01 -4.23167050e-02 +1.14554897e-01 -7.84408301e-03 -1.60574734e-01 -6.30071983e-02 -1.48936570e-01 -1.18723093e-03 +2.25767288e-02 -6.22162297e-02 +4.65575047e-02 +1.41055048e-01 -6.88046822e-03 +5.55116609e-02 -1.90298799e-02 -2.35660654e-02 -1.38676062e-01 -7.56056979e-03 +9.76912454e-02 -7.98196569e-02 -1.91465050e-01 -1.26026690e-01 -1.20941043e-01 +7.52812326e-02 +1.50497660e-01 -8.33511651e-02 -1.02064036e-01 +7.34505951e-02 +7.96981901e-02 +9.77543592e-02 -3.70405763e-02 +1.09489761e-01 +2.59975456e-02 +3.56630161e-02 +1.23822220e-01 +6.22653477e-02 -6.16362430e-02 -4.59749512e-02 +1.00231938e-01 +4.31878269e-02 -3.56909186e-02 +9.07497332e-02 +1.51921973e-01 -7.25372434e-02 +4.08821031e-02 +4.37214486e-02 +9.55841690e-02 -5.67523530e-03 +7.00796843e-02 +1.24803513e-01 -6.57283738e-02 +2.71126982e-02 -1.05861977e-01 +4.96789441e-03 +5.08098751e-02 -3.29096541e-02 +1.27415627e-01 +8.20130929e-02 -2.75476687e-02 -4.36379835e-02 -3.27650569e-02 -6.23850012e-03 +5.29951975e-02 +8.27291831e-02 +4.45805639e-02 -3.71318534e-02 +1.97883211e-02 +2.11209338e-02 -2.50003915e-02 +5.49006239e-02 -8.76678005e-02 -6.81165978e-02 +2.51870975e-02 +9.08861905e-02 -4.07004245e-02 +1.12973355e-01 -1.15255162e-01 -4.36882339e-02 -1.29239172e-01 -1.66382287e-02 +1.70309492e-03 -4.12272476e-02 -4.68952768e-02 +9.95655581e-02 -4.68853675e-02 -8.31053406e-02 +9.00860354e-02 +7.69676268e-02 -9.72361118e-03 +5.68090677e-02 -3.50055583e-02 +6.13615103e-02 -2.79350709e-02 +4.81511913e-02 +6.00584447e-02 -4.59116045e-03 -1.94008288e-03 +2.21500490e-02 +1.77462429e-01 -4.48586345e-02 +1.23557419e-01 +2.75266599e-02 -1.92626975e-02 +6.47535846e-02 -1.16462842e-01 +8.97204131e-02 +4.81032357e-02 +6.75658360e-02 +1.55201048e-01 -8.44034255e-02 +5.00157475e-02 +4.24347147e-02 +8.69024843e-02 +1.36882395e-01 +3.92451603e-03 -3.09060663e-02 -9.10292789e-02 -2.87705604e-02 +7.30522648e-02 -1.31372243e-01 -3.44932564e-02 -4.56688143e-02 +3.30629274e-02 -6.44518435e-02 +4.72147726e-02 -2.30183196e-03 +1.91098510e-03 +5.20199165e-02 +5.56448214e-02 -8.69210437e-02 +2.71198124e-01 -1.23540729e-01 +3.67893577e-02 -2.80330591e-02 -1.74993612e-02 -1.40044212e-01 +2.51475479e-02 -9.69365984e-03 +6.44968972e-02 +5.93663864e-02 -1.75559893e-01 -7.58728990e-03 -6.28368780e-02 +4.72268946e-02 -1.55312046e-01 -1.58634886e-01 -1.25227451e-01 -1.09663956e-01 -1.59979776e-01 -7.46327415e-02 -1.79373566e-02 -8.87225941e-02 -1.42728835e-01 -1.18082628e-01 -6.15148023e-02 -9.61826891e-02 +8.34539905e-02 -1.92682557e-02 +4.34867479e-03 -9.25993249e-02 +1.07406870e-01 -2.30629355e-01 -2.02381052e-02 -1.53278276e-01 -3.91570851e-03 +7.26629421e-02 -6.98299287e-03 -8.88930634e-03 +4.77923006e-02 -1.92910030e-01 -9.88761485e-02 +1.76261082e-01 +2.01304946e-02 +4.64968905e-02 -1.84222460e-01 -1.55833997e-02 -1.03410639e-01 +1.23030944e-02 +7.67761245e-02 +9.18736607e-02 -1.56482920e-01 -1.80299804e-01 +1.37279302e-01 -1.46087497e-01 +6.88048452e-02 -2.96170637e-02 -1.50808543e-01 +6.98786527e-02 +2.83088516e-02 -1.02617860e-01 -8.69036317e-02 -3.23006907e-03 +5.23663536e-02 -7.95528367e-02 -1.16261788e-01 -2.75416020e-02 +1.10393934e-01 -1.26201600e-01 -9.71519202e-02 -2.48454418e-02 -1.10250287e-01 +3.64946425e-02 -8.62066671e-02 -6.10573478e-02 -5.06664999e-02 +2.92596314e-02 +7.78826885e-04 +2.41628006e-01 +1.97660565e-01 -2.00666159e-01 +8.23906511e-02 -3.57585400e-02 -6.43901387e-03 -8.81696120e-03 +6.02689162e-02 +1.23624384e-01 -5.80867678e-02 -1.76867861e-02 -1.38307616e-01 -2.15943810e-02 +2.45933458e-02 -5.17126955e-02 -4.53540124e-03 -2.95225699e-02 +4.08341028e-02 -7.52980486e-02 -6.46234527e-02 -2.64287759e-02 +3.90772447e-02 +9.55405296e-04 +7.40164295e-02 +9.52202603e-02 +1.07760439e-02 -7.40292147e-02 -2.60310229e-02 +9.24536120e-03 -1.12696782e-01 -3.21508758e-02 +6.85306685e-03 +3.48340347e-02 -6.06764108e-02 -5.70469983e-02 +6.64368346e-02 -6.25695437e-02 -3.80723132e-03 -8.29422772e-02 +7.98026472e-03 +1.15464419e-01 -1.27627119e-01 +9.97674912e-02 -6.88380152e-02 +1.44704552e-02 -1.72466129e-01 -1.68513313e-01 +4.46754787e-03 +3.72671336e-02 -1.07917130e-01 +9.80296880e-02 +9.20984074e-02 -1.32641822e-01 +5.85409887e-02 -1.08961456e-01 -7.70831704e-02 -1.42366350e-01 +6.46528527e-02 +1.10269345e-01 +8.96826535e-02 -8.58875886e-02 -1.90570671e-02 -4.14326452e-02 -6.23047352e-02 +3.40041285e-03 +2.56772172e-02 +3.44810938e-03 -4.97067124e-02 +1.42043540e-02 -1.26043364e-01 -4.40179184e-02 -1.53352603e-01 +6.49066493e-02 -2.09197178e-01 +7.24566430e-02 -5.05068004e-02 -1.80023119e-01 +1.68702036e-01 +3.99373807e-02 +4.98720184e-02 +1.41549483e-01 -1.31442428e-01 -8.85262415e-02 -5.63028380e-02 +1.14662498e-01 +9.22023952e-02 -3.12272549e-01 -1.35234315e-02 -3.11668543e-03 +8.12624115e-03 -4.29847501e-02 +4.88830684e-03 +7.04236999e-02 -3.04499492e-02 -1.29507154e-01 +8.55832845e-02 -1.20532602e-01 +8.85791611e-03 +9.55865458e-02 +8.19882751e-02 +2.29068324e-01 +4.49693203e-02 -1.23534659e-02 +8.34008902e-02 +2.52837576e-02 +1.04354642e-01 -6.62682652e-02 -6.90405071e-02 +1.52477166e-02 -2.17207968e-02 -1.09865032e-01 -1.30657390e-01 -1.03782251e-01 -3.26868258e-02 +1.32577226e-01 -1.23186626e-01 -8.05903822e-02 +1.34002820e-01 +1.05367735e-01 +2.14505568e-02 -4.00712676e-02 -1.40311286e-01 -1.28897250e-01 +1.22252271e-01 -2.29940116e-02 +2.85412502e-02 -5.50631844e-02 -6.05564788e-02 +3.52739803e-02 +3.52496281e-02 -4.69314195e-02 -1.68314055e-01 +2.37314170e-03 +7.47512206e-02 -1.74350888e-02 +8.57753828e-02 -1.71925947e-02 -3.44093367e-02 -1.34718418e-02 +4.26031016e-02 -6.35737255e-02 -5.79914972e-02 +9.30832550e-02 -6.43313229e-02 +1.74136441e-02 -4.64099906e-02 -9.44129750e-02 -1.48722082e-01 -1.42368719e-01 -5.11194728e-02 +3.10177589e-03 +1.46872550e-01 -7.11061507e-02 +5.72236143e-02 -1.99524790e-01 -2.33859286e-01 -8.10428709e-02 +1.08182400e-01 +3.69227380e-02 +2.77449898e-02 -2.34763458e-01 -1.53778523e-01 -7.99428895e-02 -1.66472167e-01 +3.47569324e-02 +9.45254490e-02 -5.32062761e-02 +3.73223238e-02 +9.41739008e-02 +1.88103653e-02 -3.84113081e-02 -1.57761335e-01 +1.28337801e-01 -2.57189553e-02 +8.93266648e-02 +1.81361452e-01 -1.93615034e-01 +6.51060268e-02 +2.66714096e-02 -8.10871050e-02 +1.41183108e-01 -1.61708921e-01 +3.15759261e-03 -2.18305290e-02 -6.27961457e-02 +5.83420694e-02 -3.37471038e-01 -1.19930252e-01 -2.43641045e-02 +6.64842455e-03 -1.79218292e-01 +1.00798830e-01 +4.43702638e-02 -4.71860915e-02 -8.52726623e-02 -1.01214133e-01 -1.14798054e-01 -9.78453606e-02 +1.12477668e-01 +1.42963722e-01 +1.40335441e-01 +1.53463200e-01 -1.25104457e-01 +6.67550638e-02 +6.75981268e-02 -9.00736079e-02 +4.08401676e-02 +7.38621652e-02 +6.84151947e-02 -1.82035239e-03 -1.19665071e-01 -7.17570186e-02 -2.59908885e-01 -4.87715192e-02 +7.08486810e-02 -8.93670619e-02 +9.02540386e-02 -1.54848164e-02 +3.89633700e-02 -1.20798610e-01 -6.97050765e-02 -1.27014920e-01 +8.04060325e-02 -2.22255260e-01 +5.55035211e-02 +2.52400190e-02 +1.02782652e-01 -1.64708838e-01 -3.93306985e-02 -1.92168765e-02 -4.77054268e-02 -1.39084775e-02 +1.61565505e-02 -9.91610214e-02 +4.25029583e-02 +2.76179332e-02 -1.23462662e-01 +4.93753031e-02 +2.33692094e-03 +6.99294731e-02 +3.58416177e-02 +1.20388523e-01 +2.94648651e-02 +7.96560645e-02 +5.63122425e-03 +8.56985226e-02 +4.63454127e-02 -1.04666119e-02 +7.81217217e-02 +7.62967244e-02 -1.43012717e-01 +8.38678703e-02 +4.30652872e-02 +1.55145317e-01 +1.20683856e-01 +1.02043882e-01 -6.52321207e-04 -2.30552461e-02 +5.01895174e-02 -3.41190882e-02 -3.28240357e-02 +7.65921839e-04 -3.25202718e-02 -1.25265811e-02 +2.02451229e-01 -1.66421816e-01 +6.17007501e-02 -5.31706512e-02 -1.33775517e-01 -4.17569801e-02 +4.13827226e-02 +3.35614942e-02 -3.98238376e-02 -3.39740366e-02 -3.66753303e-02 +2.42896929e-01 +1.63395051e-03 -7.47946352e-02 -1.29696444e-01 +9.63990167e-02 +9.62007046e-02 -9.63490307e-02 +1.54098570e-01 +1.30993530e-01 +3.39482278e-02 -1.57139227e-01 +7.87027460e-03 -7.57874399e-02 +1.31931156e-01 +2.60070294e-01 +8.80251601e-02 -5.71720079e-02 +1.49896666e-01 -1.02934860e-01 -1.60923034e-01 -3.91318910e-02 +1.14763342e-01 +1.70299216e-04 -3.60912010e-02 -1.90831468e-01 +3.06837410e-02 +3.80200781e-02 -7.89739862e-02 -1.51614457e-01 +5.83626591e-02 -3.02522909e-02 +2.00259797e-02 -2.86081582e-02 +1.25063583e-01 +3.83970998e-02 +1.55682728e-01 -9.56327319e-02 +7.44828582e-02 +2.61799246e-02 -2.84030512e-02 -1.19861484e-01 +2.69078221e-02 -8.41420144e-02 -8.15734267e-02 +1.13263994e-01 -2.53288031e-01 -2.79074702e-02 +4.12711352e-01 +2.21935436e-01 +1.76062975e-02 +1.37536004e-01 -4.59104180e-02 -2.09115483e-02 +1.55302426e-02 -1.91849336e-01 +2.74708122e-01 -1.87970117e-01 -2.37619542e-02 +2.74634749e-01 +4.47948091e-03 -3.28260325e-02 +1.74930412e-02 -2.41266135e-02 +7.17049763e-02 +2.62590766e-01 +2.42748689e-02 +1.89947575e-01 +1.78561267e-02 -5.09213507e-02 +2.59568769e-04 +2.96062410e-01 +1.42002389e-01 -3.67498733e-02 +1.02718145e-01 +7.06872270e-02 -3.09755802e-02 +7.99657777e-02 +2.12368481e-02 +2.35366359e-01 -2.41479829e-01 +1.12001486e-01 -1.59940913e-01 +3.19267660e-02 +3.36755663e-02 -1.74411044e-01 +1.50802778e-02 +3.52171138e-02 -9.70836729e-02 -8.23504031e-02 -7.17551857e-02 -9.87998489e-03 +9.24551040e-02 +8.72569531e-02 -7.10326135e-02 +2.80861944e-01 +1.19727656e-01 -1.74187217e-02 +9.87074971e-02 +1.17632456e-01 +2.95163915e-02 +5.79344593e-02 -1.18756093e-01 -8.82740766e-02 +1.56554300e-02 +2.12666944e-01 +4.61885519e-02 +7.84968585e-02 +8.40406213e-03 +2.35653408e-02 +3.78638655e-02 -3.82571481e-02 -9.67359468e-02 -1.81880653e-01 -2.46216520e-03 +5.90376556e-03 -1.12909749e-01 +3.43823999e-01 +2.75208980e-01 -6.06175559e-03 -5.82765043e-02 +2.20822319e-01 +4.00521271e-02 +3.55927423e-02 -4.48607206e-02 -1.62236542e-01 -6.84504807e-02 +1.05168857e-01 -2.04619803e-02 -1.43304765e-01 +5.08240275e-02 -2.57590234e-01 -8.20902735e-03 -8.57932717e-02 +6.90386370e-02 -8.43517780e-02 -1.17751658e-01 +1.92451522e-01 -1.25141203e-01 -1.79009721e-01 -9.90408733e-02 +1.48128614e-01 +2.11717356e-02 +2.99567431e-01 -8.93017054e-02 -8.91041085e-02 -1.30144969e-01 +1.12867884e-01 +5.30927628e-02 +1.55082807e-01 -5.81209026e-02 -1.65091679e-01 +3.01973429e-02 -1.64082006e-01 -3.22447275e-03 -1.81274936e-01 +2.58005589e-01 -1.82210028e-01 -2.44093090e-02 -3.81494574e-02 +6.16820790e-02 -1.00643843e-01 -9.88449156e-03 +2.14339551e-02 +5.86540103e-02 -3.15989256e-01 +1.48581326e-01 +1.27728298e-01 -2.38333121e-01 -1.03473002e-02 -2.33287603e-01 +2.58626312e-01 +3.26125138e-02 -1.78157479e-01 -1.36381775e-01 -7.94164762e-02 +7.32552409e-02 -5.02986498e-02 +9.36463624e-02 -1.19911835e-01 -1.41836122e-01 -4.31773476e-02 -7.86103234e-02 +5.74953519e-02 -1.55942038e-01 +2.62691230e-02 +1.38478344e-02 +1.18089862e-01 -3.77130415e-03 -1.89658836e-01 +5.87930828e-02 +4.51299176e-02 +1.45544544e-01 +2.12417588e-01 +2.27532629e-02 +1.76727343e-02 -3.22588012e-02 -1.30459130e-01 -9.68062207e-02 -1.19025474e-02 +5.85010312e-02 -2.14205552e-02 +1.26028713e-02 -2.63612628e-01 -2.22203374e-01 +1.11515313e-01 -1.70873031e-02 -2.07772076e-01 -2.00255856e-01 -7.89957717e-02 -2.85634518e-01 -2.52477735e-01 -2.23495260e-01 -1.22201040e-01 -7.80527666e-02 -1.35312527e-01 +1.27897307e-01 -3.69715132e-02 -1.49149016e-01 +9.17925239e-02 -2.34579295e-02 -3.18554230e-02 +1.46922078e-02 -2.34248772e-01 -8.49051923e-02 +2.52900794e-02 -1.54352896e-02 -2.16285348e-01 -1.28509894e-01 -5.64793013e-02 +7.12451935e-02 -4.03698497e-02 +2.86232289e-02 -1.82458624e-01 -1.24092028e-01 -1.75089672e-01 +3.59520577e-02 +9.16647017e-02 -1.20819487e-01 +2.64178962e-03 +1.45911515e-01 -1.03676664e-02 -4.28006500e-02 +3.48848701e-02 -1.90752625e-01 -3.07629071e-02 -1.47673681e-01 +1.07693568e-01 +1.05420768e-01 +2.28106916e-01 -1.57508537e-01 -2.26407841e-01 +6.10945486e-02 -1.19902201e-01 -6.16357699e-02 -2.33152866e-01 +6.94714040e-02 -2.84090430e-01 -2.12272584e-01 -7.26541653e-02 -2.22885590e-02 -8.42742175e-02 -4.28811796e-02 -7.22134933e-02 +6.46592081e-02 -8.49261880e-02 +4.14624959e-02 -2.77655758e-02 -1.83354110e-01 -2.24711057e-02 -1.13728888e-01 +2.30735958e-01 -1.77634820e-01 -1.12765580e-01 +1.63689908e-02 -2.26741768e-02 -2.12074835e-02 +5.43128327e-02 +6.66211098e-02 +1.70889691e-01 -6.83772787e-02 +5.86185306e-02 -1.34881020e-01 +2.85152346e-02 +7.34971911e-02 -1.74787968e-01 +2.42062472e-02 -4.41490076e-02 -2.14723367e-02 -7.84362704e-02 -4.11395282e-02 +4.87925075e-02 +1.15505949e-01 -1.41598359e-01 +6.62615299e-02 +2.19987243e-01 -6.76822662e-02 -8.03642124e-02 +7.30776740e-03 +1.02582783e-01 +5.66655658e-02 -1.95635092e-02 +6.71154112e-02 -3.76766324e-02 -3.55242230e-02 +1.08161107e-01 -7.46301562e-02 -1.76831841e-01 -1.08492680e-01 -1.35043442e-01 -1.77311122e-01 -1.96274981e-01 -1.64993688e-01 -1.09695666e-01 -6.78388402e-02 +7.51363933e-02 +1.18959332e-02 +2.26882756e-01 +7.99738169e-02 -1.16035581e-01 -1.31943405e-01 -6.20092936e-02 -2.93702207e-04 +2.36693136e-02 +7.71688744e-02 +8.42348859e-02 -5.46096712e-02 -1.45044327e-01 -1.67567715e-01 -6.72284439e-02 +7.45554268e-02 -2.37406388e-01 -1.42844804e-02 -9.24387481e-03 -1.38479061e-02 -6.90254867e-02 -1.19719744e-01 +1.44368500e-01 -7.49309286e-02 +5.29304110e-02 -8.67473632e-02 -5.37107186e-03 -7.90080652e-02 +3.96638140e-02 -9.60125476e-02 +1.37343377e-01 -1.41297644e-02 -1.99689716e-01 +3.38326871e-01 -1.64271221e-01 +4.56787869e-02 +2.99901664e-01 -1.32728130e-01 +2.07284823e-01 +2.54851907e-01 -1.20466501e-01 -2.71201462e-01 -2.79416703e-02 -1.65499970e-01 -2.57738382e-01 -1.78701174e-03 +3.28379795e-02 +1.73607111e-01 +1.57924984e-02 -1.39976040e-01 +3.12231004e-01 +4.86376546e-02 +1.04488812e-01 +1.54129609e-01 -2.14159545e-02 -6.83966652e-02 +3.82934362e-01 +2.37061098e-01 +9.48161706e-02 +1.48880184e-01 +1.59896165e-01 -1.03910021e-01 +2.91389704e-01 -6.92309067e-02 -3.22330683e-01 +3.25313136e-02 +2.06205070e-01 -6.67100623e-02 +1.68432668e-01 -9.63997021e-02 +6.14730492e-02 +7.46163055e-02 +9.72867608e-02 +5.06351627e-02 -1.81362387e-02 -1.62428424e-01 -8.43199156e-03 +8.27582106e-02 -1.04599603e-01 +3.03242132e-02 -2.97468275e-01 +1.59132238e-02 -1.34247979e-02 -3.13685447e-01 +1.94642454e-01 +4.11777273e-02 -2.65463650e-01 +6.74622953e-02 +1.55280545e-01 +1.48358494e-01 +3.19912612e-01 -8.21869746e-02 -1.26439586e-01 -6.21319413e-02 -1.29534528e-01 -1.68304518e-01 +7.35710934e-02 -1.02366984e-01 +2.79446412e-02 -6.23068176e-02 +2.14639202e-01 +4.18177582e-02 +3.40858042e-01 +2.49336109e-01 +3.82621847e-02 +1.13011457e-01 +1.83330104e-01 +7.92904794e-02 -2.38527671e-01 +1.94271654e-01 +5.33735380e-02 -4.89387847e-02 +2.36073032e-01 -1.41994491e-01 +2.15988737e-02 +1.28487274e-01 -3.83578725e-02 +2.22764045e-01 -9.28645432e-02 +1.08105332e-01 +4.30503562e-02 -5.91552891e-02 -2.27470607e-01 +5.43966107e-02 +6.77432790e-02 +1.98914990e-01 -2.08766982e-01 +1.58493370e-01 -2.77008772e-01 +1.37432620e-01 +1.54042915e-01 -1.67642266e-01 -2.63532877e-01 -1.00282945e-01 -2.07306787e-01 -6.83627790e-03 -1.44794330e-01 -1.17804289e-01 -2.40388617e-01 -1.37969628e-01 -2.37718537e-01 +1.96981542e-02 -1.45602182e-01 -1.53634563e-01 -1.08016886e-01 -3.76092762e-01 -1.75259352e-01 +2.01737180e-01 -2.60886904e-02 -2.17787579e-01 -1.46741271e-01 +1.01529106e-01 -8.43297765e-02 -1.84818625e-01 -5.62661849e-02 +1.04910843e-01 +1.29681885e-01 -1.47528291e-01 -2.67122656e-01 -2.63844579e-01 -1.37451902e-01 -1.26453474e-01 +3.53419338e-03 +9.95967612e-02 -6.96987137e-02 +1.36960149e-01 -4.33269978e-01 -1.45145774e-01 -3.65271449e-01 -2.75156558e-01 -1.48908421e-01 -1.49383154e-02 -3.40781331e-01 -1.49521410e-01 -1.65387273e-01 -2.11975381e-01 -1.51602998e-01 +1.03644282e-03 +3.94796170e-02 -1.14392482e-01 -1.23315990e-01 -4.40207385e-02 -3.98149848e-01 -2.82485306e-01 +2.82210201e-01 +2.87143458e-02 -4.14377116e-02 -1.35435179e-01 -9.51864049e-02 -1.92861483e-02 -4.71831039e-02 -3.28340262e-01 -1.94514260e-01 +6.01555072e-02 -8.49524513e-03 -2.61348467e-02 -2.76988864e-01 -5.47131412e-02 -2.31617391e-01 -6.59167469e-02 -1.77523211e-01 -2.79393226e-01 -1.23478942e-01 -1.63954258e-01 -8.23239163e-02 -1.66284785e-01 -1.79375410e-02 -2.47287095e-01 -3.90555412e-01 -5.03489412e-02 -3.95840973e-01 -1.73787937e-01 +4.33269814e-02 +6.88370466e-02 -1.72409594e-01 -1.47724673e-01 -1.78378358e-01 -1.13603145e-01 -1.33870840e-01 +1.07708648e-01 +3.55500635e-03 +1.50389835e-01 +1.08228602e-01 -2.02463299e-01 -2.38797083e-01 -1.01699769e-01 -2.96152592e-01 -2.24664822e-01 -2.65386194e-01 -1.50838383e-02 -1.37283221e-01 -1.08947203e-01 +2.35912129e-01 -4.94863465e-02 +1.28243014e-01 -9.48166102e-02 -2.59223450e-02 +1.40880510e-01 -1.54839875e-02 +8.75464305e-02 +2.02926084e-01 +1.43567309e-01 +1.34916157e-01 +5.77499159e-02 -2.80243773e-02 +1.89659536e-01 +3.97402197e-02 +3.01747471e-01 -2.91874617e-01 +1.13218099e-01 +9.16824862e-02 +1.27816990e-01 +2.17505079e-02 +3.14452462e-02 -7.58623406e-02 -9.74882618e-02 +5.14278859e-02 -1.02787457e-01 -4.69921902e-02 -1.41526803e-01 -1.77047044e-01 -1.05819076e-01 -1.13783842e-02 +3.62647139e-02 -1.53119341e-01 +5.14442846e-02 +2.55073428e-01 -2.29256362e-01 -2.02876367e-02 +8.31862167e-02 -1.22439535e-02 +3.73330154e-02 -6.15271255e-02 -4.32222225e-02 -2.57833809e-01 -3.82123813e-02 +8.50303750e-03 +1.74343467e-01 -1.57541290e-01 -1.04753040e-01 +6.00147545e-02 +7.41323233e-02 +2.83273123e-02 +2.10170820e-01 +1.37085110e-01 +1.00944474e-01 -3.07969772e-03 -2.35472858e-01 +2.50075143e-02 -1.03710786e-01 -6.33114800e-02 +6.20993786e-02 -5.20511530e-02 +4.21707183e-02 -8.42400566e-02 +1.26136526e-01 -1.61470890e-01 -4.22977731e-02 -7.66257569e-02 -8.20266306e-02 -1.30909517e-01 -2.29704946e-01 -6.21667355e-02 -1.01031423e-01 +1.47297420e-02 +3.04022841e-02 -4.77195382e-02 +6.75401762e-02 +1.38288081e-01 -1.66687593e-01 +6.86370581e-02 +1.25009790e-01 +1.41152456e-01 +3.92327011e-02 -4.93275560e-02 +1.05456211e-01 -7.47528151e-02 +3.59406918e-02 -8.69065747e-02 +2.40467981e-01 -2.50257142e-02 +1.67541921e-01 -1.34186773e-03 +1.52808487e-01 -5.86777031e-02 +1.57710865e-01 +3.18459630e-01 +2.05541085e-02 -4.17962223e-02 -2.03252062e-01 +1.49743497e-01 -6.21163286e-02 +1.63990885e-01 -7.38227740e-02 -1.36906952e-01 -3.67076062e-02 -2.75899880e-02 +1.41301408e-01 -7.14592636e-02 -1.21422887e-01 +5.89487627e-02 +1.41064301e-01 -1.37596399e-01 +7.39518404e-02 +6.35701343e-02 +6.06097654e-02 -1.33230910e-01 +3.19253772e-01 -1.90780282e-01 -6.22974597e-02 -8.28598738e-02 -8.38515088e-02 -2.22963750e-01 -2.46528294e-02 -2.32449129e-01 -3.76806483e-02 +6.85087368e-02 -8.91864151e-02 -1.48740321e-01 -2.20581219e-01 -1.45172030e-01 -9.02587473e-02 -6.54803216e-03 -4.32312489e-02 -1.52034119e-01 +7.37290531e-02 +2.05334336e-01 -1.21137127e-01 -1.18463658e-01 +1.81143880e-02 -2.24920481e-01 +2.53548652e-01 -1.08519616e-02 -9.19874832e-02 -2.36407340e-01 -3.87260783e-03 +3.29118334e-02 -2.97853118e-03 -2.14216501e-01 -1.48609921e-01 -1.67062581e-01 +6.89412504e-02 +1.38400048e-02 +1.47451475e-01 +1.32840931e-01 -6.17578626e-02 -2.37999052e-01 -1.18578970e-01 -6.93531521e-03 -1.61015004e-01 +3.07930969e-02 -7.17743784e-02 -1.10443212e-01 +1.15029298e-01 -2.36226901e-01 -8.23065862e-02 -1.74828038e-01 -2.50495970e-01 -1.98970810e-01 -9.87607092e-02 -2.92308748e-01 -1.28153279e-01 -3.82770337e-02 -1.49918318e-01 -3.81878652e-02 +8.93222466e-02 -1.61643013e-01 -6.83387667e-02 +1.06154397e-01 -2.30626568e-01 -2.45198491e-03 +1.97357804e-01 -5.18860668e-02 +1.30417608e-02 -2.15239748e-01 -1.16528660e-01 -4.93011177e-02 -1.00249788e-02 +2.23580599e-02 +6.87538385e-02 -1.89022616e-01 +6.31773844e-02 -1.23232916e-01 +7.21964911e-02 -1.48959175e-01 -8.17916915e-02 +2.61699766e-01 +8.90487581e-02 +1.41180893e-02 -4.51067388e-02 +1.15282074e-01 +1.00247420e-01 -8.84540528e-02 -1.19946152e-02 -8.49249400e-03 -7.67753571e-02 -5.67832068e-02 -1.54840332e-02 +1.65369976e-02 -5.88352047e-02 +9.56367981e-03 +3.23880650e-02 +3.02664358e-02 +6.70214370e-02 +5.08842319e-02 -3.76840085e-02 -6.83453605e-02 +3.48195987e-04 -1.09199271e-01 +1.59456283e-02 -1.52201086e-01 -5.00806905e-02 -7.54023045e-02 +5.15176281e-02 -1.69274155e-02 +5.83348237e-02 -8.42550471e-02 -6.89884275e-02 -8.20142552e-02 -7.77382329e-02 +4.86736745e-02 +2.41044629e-02 -3.86923328e-02 -6.61548972e-02 -4.02364507e-02 +1.23486351e-02 -5.40380590e-02 -9.86214541e-03 +8.79466832e-02 -6.23029843e-02 -1.04840957e-01 +1.30886510e-01 -1.00570470e-01 -4.85509411e-02 +7.00397715e-02 +9.80523452e-02 +8.28818604e-03 +3.03603951e-02 +1.46954209e-01 -7.98511282e-02 +2.30947547e-02 -4.68705148e-02 +3.91850844e-02 +3.86077724e-02 -8.29682872e-02 -6.52016923e-02 -4.81132530e-02 +1.33349359e-01 -1.05315655e-01 -1.17497206e-01 +6.05924763e-02 -3.20245512e-02 +1.17065139e-01 +6.39634281e-02 +1.32167086e-01 +1.36776464e-02 +3.08273826e-02 -6.11662045e-02 +2.46888176e-02 +7.46803638e-03 +4.50368458e-03 +1.02584332e-01 -8.07684436e-02 -1.86377913e-02 +1.10537419e-02 +1.22963287e-01 +5.79955988e-02 +5.43833524e-02 -8.60583708e-02 -7.07475394e-02 +1.35696322e-01 +1.22667938e-01 -1.48413032e-01 -1.17177870e-02 +4.24513333e-02 +7.30442554e-02 +2.60522738e-02 -3.18098776e-02 +4.74913009e-02 -1.13877952e-01 -1.17213182e-01 -3.86647731e-02 +6.08326942e-02 -5.39757423e-02 -5.38785160e-02 -1.02024570e-01 +4.75354828e-02 +7.65837058e-02 +5.04241930e-03 -1.70187101e-01 +4.92749140e-02 +8.48169550e-02 +2.09516823e-01 +3.50393727e-02 +1.04212873e-01 +8.97146091e-02 +2.28164062e-01 -5.06375581e-02 +3.61279398e-02 -5.20109013e-02 +2.81751335e-01 +2.59368688e-01 +1.41745672e-01 +1.58480018e-01 -5.22561409e-02 -6.93296194e-02 -4.09699418e-02 -3.14732268e-02 +3.29960883e-02 +6.52402407e-03 +2.71075331e-02 +5.16699888e-02 -2.57531684e-02 +1.41739473e-01 +1.28050253e-01 -1.41930401e-01 -1.16704479e-01 +3.40167657e-02 +2.86102116e-01 -8.95600021e-02 -3.63470428e-02 +4.61340472e-02 +5.53091392e-02 +5.75690083e-02 -1.46247417e-01 +1.66406885e-01 +1.75363302e-01 +2.53021687e-01 +2.39117537e-02 +9.71803740e-02 +1.69278644e-02 -1.49172142e-01 +1.23208435e-02 +7.07421079e-02 -9.43969116e-02 +9.80569720e-02 -6.83911219e-02 -8.65530074e-02 -7.07597733e-02 +1.27155289e-01 -7.16070011e-02 +6.78283349e-02 +1.41509429e-01 +2.98635066e-01 -1.37269035e-01 +1.58049669e-02 +7.28269145e-02 -3.53745185e-02 +1.06101230e-01 -5.04463874e-02 +3.31106670e-02 -1.34819567e-01 +2.72197574e-02 +3.45862359e-02 -7.99198747e-02 -1.01408146e-01 +6.37013763e-02 -2.13295415e-01 +1.09701484e-01 -8.53706747e-02 +1.06793262e-01 +2.15206519e-02 +9.14125592e-02 +3.20275575e-02 +1.23099595e-01 -2.02926397e-01 +5.50907478e-02 +1.56826228e-01 +3.26307952e-01 +1.06226474e-01 -1.99725498e-02 +2.59353936e-01 +2.07023874e-01 -3.32212597e-02 -7.82759413e-02 +3.53449844e-02 -1.58362955e-01 +1.04545588e-02 -8.23979974e-02 -1.26186028e-01 -1.49510235e-01 +1.28736682e-02 -4.65756990e-02 +8.55174065e-02 +4.13387008e-02 +2.32298095e-02 +1.96812022e-02 +1.97798727e-04 +2.14692265e-01 +4.92510060e-03 -1.70089275e-01 +1.11853937e-02 -2.06298113e-01 -1.76458895e-01 -7.70208891e-03 -5.42925633e-02 +1.30544426e-02 +6.26886189e-02 +7.38998428e-02 +1.48964608e-02 +1.39248401e-01 +1.49282336e-01 -1.17250621e-01 +7.49802440e-02 +2.80704573e-02 +5.56391329e-02 +9.48740393e-02 +7.55851194e-02 +1.28598288e-01 -1.04349002e-01 +2.67861094e-02 +6.79930439e-03 +5.72268665e-02 -6.19475450e-03 -4.58869413e-02 -2.21987888e-02 +1.54932858e-02 +1.21093348e-01 +1.65253147e-01 -1.60837233e-01 +1.44868046e-01 +4.02368270e-02 +1.07264243e-01 +1.62540257e-01 -2.71133959e-01 +1.68886095e-01 -1.45078555e-01 +5.51697388e-02 -9.01616216e-02 +6.52549565e-02 +3.92629355e-02 -1.01944722e-01 -8.92252922e-02 +9.44644883e-02 -8.77172723e-02 -9.95119512e-02 -9.71715525e-02 +9.66002569e-02 -1.53057259e-02 -4.04179282e-02 -4.55982015e-02 +6.69819117e-02 -7.27951601e-02 -5.02639748e-02 +3.70171256e-02 -2.16328688e-02 -5.25893830e-02 -8.61520767e-02 +7.50565752e-02 +3.41223627e-02 +1.24438070e-01 -1.05584264e-01 -7.05824001e-03 -4.57193963e-02 -2.63163671e-02 -1.03287593e-01 -1.07922638e-02 -1.79401204e-01 -7.85233155e-02 -9.45080742e-02 +1.28047422e-01 +4.49559931e-03 +1.48840994e-01 +5.64936809e-02 +9.07026604e-02 +1.48243174e-01 -7.95352384e-02 -1.70210470e-02 +1.92179441e-01 +5.61264679e-02 -1.51942611e-01 +1.67218805e-03 +1.30111456e-01 +6.45449162e-02 +8.42087790e-02 +6.45171329e-02 +3.65750343e-02 +9.86454412e-02 -3.43391858e-02 -1.11793429e-02 +4.51231524e-02 -4.09576669e-02 +4.08167727e-02 +1.33106532e-02 +2.42051780e-01 +2.09424999e-02 -1.39112204e-01 +1.22482264e-02 +6.99210465e-02 -8.05533305e-02 +7.74848042e-03 -8.89683738e-02 -8.49344656e-02 -1.07992366e-01 -1.75760537e-01 +6.40148968e-02 -4.57275510e-02 +6.51097223e-02 -5.02973199e-02 -1.13217086e-01 +2.00597838e-01 +2.53501713e-01 -9.89226922e-02 +1.21452503e-01 +8.44649598e-02 -4.37545031e-02 -6.28178120e-02 -2.68987454e-02 +1.88028723e-01 -1.09744705e-01 +5.64901717e-02 +8.03999156e-02 +1.19560763e-01 +1.42839521e-01 +9.15559679e-02 -6.53421879e-02 -4.36784886e-03 +1.91357836e-01 +2.82716334e-01 -6.86087385e-02 +1.22027986e-01 +2.01661095e-01 -2.55242940e-02 +1.48274064e-01 -1.98138088e-01 +3.14809680e-02 -4.15555527e-03 +1.04357094e-01 +2.31813751e-02 -7.56761879e-02 +6.43391758e-02 -1.29830420e-01 -1.34364024e-01 +6.99805543e-02 -6.63125589e-02 -1.37606412e-01 -2.09266301e-02 -3.27502340e-02 -6.18969500e-02 +1.60977140e-01 -1.61925203e-03 +3.81879434e-02 -2.31543966e-02 +1.52478321e-02 +6.82733282e-02 +4.28699851e-02 +1.01355910e-01 +4.73496728e-02 +1.26946330e-01 -1.63856089e-01 +1.37912035e-01 -1.03357419e-01 +5.42788543e-02 -1.31871566e-01 -6.84819072e-02 +2.09924486e-02 -1.11058697e-01 -2.54280809e-02 +1.63140312e-01 -4.29063626e-02 +1.40938416e-01 -7.93661475e-02 -1.24255056e-02 -1.29014865e-01 +1.85861722e-01 -6.33525774e-02 -6.82121217e-02 +1.44242048e-01 +1.32411093e-01 +2.46972695e-01 +2.15377323e-02 +4.92089018e-02 -6.93461597e-02 +1.50260374e-01 +1.37960603e-02 -8.19481686e-02 -1.55015245e-01 -8.63191858e-02 -2.01390207e-01 -1.98847465e-02 -6.98613748e-03 +8.46339688e-02 -1.00517616e-01 +5.25916703e-02 +1.87721983e-01 +1.58963785e-01 +3.88929173e-02 +6.65689185e-02 -1.56714879e-02 -3.58412266e-02 -1.10204645e-01 -2.75035314e-02 +1.29573703e-01 -5.71499430e-02 +1.82573751e-01 +1.86994106e-01 -1.24926299e-01 +3.94751318e-02 -9.33036879e-02 -1.57696098e-01 +1.77274674e-01 +2.19895512e-01 +2.44986832e-01 +1.47233412e-01 -6.25699982e-02 +1.13977216e-01 -6.74259216e-02 -6.46138266e-02 +9.58306193e-02 -1.37877971e-01 +2.62105875e-02 +1.25773162e-01 +1.09523132e-01 -9.22720432e-02 +1.72681719e-01 -8.98168311e-02 -3.11567932e-02 -5.39566614e-02 -1.99218333e-01 +5.95590137e-02 -6.58380389e-02 +3.86528857e-02 -2.00926542e-01 +1.66337669e-01 -3.61278132e-02 +1.67536497e-01 -2.61144072e-01 -1.43618718e-01 +8.88821334e-02 +1.05164230e-01 -1.34470969e-01 +6.66018054e-02 -1.37528554e-01 +3.27092153e-03 -5.28210066e-02 +1.03571594e-01 -2.63695493e-02 +1.24445677e-01 -6.78194463e-02 +2.18810439e-01 +1.39001042e-01 -1.25164479e-01 +2.90988028e-01 +2.23087743e-01 +9.39290449e-02 +5.65360067e-03 -1.08485244e-01 -1.47180662e-01 -2.20708236e-01 -1.19510097e-02 -1.69836864e-01 -6.07192703e-02 +1.57792360e-01 +2.93303840e-02 -1.18612431e-01 -1.60608351e-01 +7.01547265e-02 +7.15145245e-02 +2.67499328e-01 -1.21191524e-01 -8.45440403e-02 -1.47039711e-01 +8.28882121e-03 -1.43688191e-02 +1.29173383e-01 +9.46776122e-02 -2.20687002e-01 -4.99593876e-02 +2.51038134e-01 -2.13813484e-01 -9.66032296e-02 -1.69149831e-01 -6.09130263e-02 -6.30015060e-02 +4.18038927e-02 +2.55924053e-02 +7.00799078e-02 +1.10435583e-01 +6.73707649e-02 -1.13670819e-01 +1.91422477e-02 -1.63064405e-01 +4.26376946e-02 -2.71063596e-01 -5.97639047e-02 -2.57249214e-02 +1.77227840e-01 +1.21223092e-01 +1.68469742e-01 -6.31996170e-02 -5.14256172e-02 -1.06454693e-01 -1.55643905e-02 -1.24309093e-01 -4.57797982e-02 -1.69782892e-01 -1.65172040e-01 -5.56793623e-02 -1.70203015e-01 -2.37517804e-01 -1.84958383e-01 +2.94570737e-02 -1.34967640e-01 +1.06328331e-01 -4.50633690e-02 -6.81223050e-02 -1.46092800e-02 +8.54457915e-02 -8.91068131e-02 -9.62134153e-02 -2.00631082e-01 -7.09129795e-02 -1.28209695e-01 +7.76016191e-02 -9.70353633e-02 +2.00160686e-02 -1.08810209e-01 +7.50750825e-02 -1.10477798e-01 -2.69721180e-01 -1.10224232e-01 -3.25631313e-02 -2.52481317e-03 +5.58927916e-02 -7.79751036e-03 +1.36151806e-01 -5.28631024e-02 -9.01269391e-02 -1.84149116e-01 -1.37313113e-01 -1.95967436e-01 -1.76611751e-01 -8.65382776e-02 -7.15918243e-02 -2.13777691e-01 +2.10924796e-03 -3.37271392e-02 -2.42549647e-02 -1.59692407e-01 -1.86434954e-01 -8.05107579e-02 +5.30461557e-02 -1.69572577e-01 -1.18292414e-01 +4.30343337e-02 -6.41529728e-03 -1.30423442e-01 +1.11550689e-01 -1.29844889e-01 -1.23785794e-01 +1.63768642e-02 -2.45366991e-01 +3.73238511e-02 +1.47844804e-02 -1.07381620e-01 -8.38362202e-02 -1.33895382e-01 -1.19045600e-01 -1.66925207e-01 -2.45092884e-01 -9.75083336e-02 -1.48199260e-01 -1.58046871e-01 -7.51693174e-02 -3.19574377e-03 -1.28770843e-01 +9.22610238e-02 -3.20564322e-02 -3.56719270e-02 -3.11638802e-01 -4.68564443e-02 -1.24457069e-01 -1.41902253e-01 -5.58545701e-02 -1.28040733e-02 -1.53709948e-01 -1.35399744e-01 -1.61116615e-01 -9.31072682e-02 -2.01391354e-02 -2.54730973e-02 +7.16140047e-02 -7.92551264e-02 +1.26121521e-01 -1.89029887e-01 -6.37677908e-02 -3.07221804e-02 +4.38379906e-02 -1.64436325e-01 -1.90519437e-01 -2.82388330e-02 -5.89781739e-02 -9.01475549e-03 -4.29368503e-02 +9.29591805e-02 -2.11209804e-02 -1.50322476e-02 +8.21375772e-02 +2.10469626e-02 -1.65478721e-01 -7.63634965e-02 -6.26097322e-02 +6.51706159e-02 +4.23293486e-02 +1.71982013e-02 -1.32037967e-01 +2.41942145e-02 +1.05415471e-01 -1.43525347e-01 -2.49743536e-01 -1.49464786e-01 +1.38761401e-01 +1.20234117e-01 -1.59088165e-01 -1.16638392e-01 -1.07798152e-01 -7.01067131e-03 -3.57023478e-02 +7.58577362e-02 -1.52567536e-01 -1.45751804e-01 -4.72460799e-02 +8.81064497e-03 +1.47137821e-01 +1.63783714e-01 -2.20901161e-01 -8.47155452e-02 -1.90968767e-01 +1.66336581e-01 -7.55799487e-02 -2.69499812e-02 +1.58577740e-01 -6.15892746e-02 +3.36144641e-02 -9.48503539e-02 +1.19448110e-01 -1.50392978e-02 +1.23256758e-01 -4.40835245e-02 +1.91419311e-02 -1.97012629e-02 +8.87560751e-03 -1.68183222e-01 +6.35726377e-02 +4.95946258e-02 +1.22559220e-02 -1.98666409e-01 -7.73287266e-02 +3.72052379e-02 -1.02316365e-01 -2.13341806e-02 +6.82424242e-03 -4.15249504e-02 -8.66499618e-02 -4.64631170e-02 -1.35171115e-01 +3.61577459e-02 -1.48467794e-01 -4.74857353e-02 -1.94175914e-01 +4.32392433e-02 -1.37360021e-01 -1.62158296e-01 -2.77475715e-01 -9.78250057e-02 +2.84788124e-02 +1.77715458e-02 -7.26407468e-02 +7.94280507e-03 -1.74170464e-01 +3.56472023e-02 -7.71044847e-03 -1.96669891e-01 -2.47155607e-01 -1.10333458e-01 -4.03051414e-02 -7.38787651e-02 -2.87269741e-01 -1.96171016e-01 +5.41439727e-02 -1.50877073e-01 -5.87758198e-02 -7.44673237e-02 -1.12272404e-01 -2.05802545e-01 -1.07435159e-01 -4.77331914e-02 +2.07086303e-03 -1.68216065e-01 -5.99054098e-02 +4.18632254e-02 -8.13780129e-02 -3.19209024e-02 -8.04387257e-02 -1.45723596e-01 +8.51958767e-02 -1.10120051e-01 +6.83750585e-02 +5.22780232e-03 -2.27226950e-02 -2.17052326e-02 -1.80684716e-01 -5.99951819e-02 -6.36984184e-02 -8.21644962e-02 -2.23360881e-02 -1.95682779e-01 +2.96228006e-02 -1.80614889e-01 -2.91617632e-01 -3.11960667e-01 +9.33286082e-03 +9.84003767e-03 +3.59823927e-02 -3.36465202e-02 +4.16111536e-02 -1.08509120e-02 -1.51775986e-01 -1.91036724e-02 -1.77976012e-01 -1.35421991e-01 -7.41088837e-02 -1.96041420e-01 +1.74731851e-01 -6.51675537e-02 -4.95863408e-02 -1.71688408e-01 -8.50269943e-03 -1.21048026e-01 -9.95021686e-02 -1.37817174e-01 -4.14056964e-02 -5.38502960e-03 +4.84419018e-02 -1.16647936e-01 -3.25798094e-02 -8.85126516e-02 -2.12163460e-02 -1.66226581e-01 +1.94489416e-02 -1.05852231e-01 +1.42261475e-01 -1.04921505e-01 -8.97025093e-02 -1.03402555e-01 +1.10375121e-01 -1.16330959e-01 +5.97835071e-02 -5.71306646e-02 -2.11392343e-01 +1.69199444e-02 -1.59394905e-01 -1.36441579e-02 +4.41388078e-02 -2.74235427e-01 +6.90797865e-02 +5.41523546e-02 +4.22682054e-02 -5.68450764e-02 -1.50870144e-01 -1.04101665e-01 -2.30665326e-01 +4.32061106e-02 -1.29608050e-01 -2.09135830e-01 -3.02753169e-02 -1.15141667e-01 -1.23190820e-01 -2.55456984e-01 -1.97024226e-01 -2.35411316e-01 -9.86008253e-03 -1.33014798e-01 -6.35212362e-02 -5.57241105e-02 -7.67006874e-02 +1.50504578e-02 -7.52155110e-02 -1.45647243e-01 -1.87194848e-03 -1.48305982e-01 +3.87220681e-02 -3.40514705e-02 -1.70134068e-01 -1.56658933e-01 -1.09094277e-03 -1.05636090e-01 -6.87161162e-02 -2.59311885e-01 -1.22660942e-01 +8.21473524e-02 +8.04767534e-02 +6.55548498e-02 -4.19721268e-02 +5.83068430e-02 -4.99115698e-02 +1.19723178e-01 -2.74701845e-02 -5.74795865e-02 +3.07409987e-02 +2.02822164e-02 -7.69362971e-02 -7.91172124e-03 -6.04160037e-03 -9.87775344e-03 +4.98316027e-02 +1.46352500e-01 -8.69461372e-02 -1.63656309e-01 -1.47188688e-02 -2.17664521e-02 +1.34730741e-01 +7.22011477e-02 +1.62186012e-01 -1.17360920e-01 +8.40595514e-02 +5.50917313e-02 -1.25832990e-01 -1.15701780e-01 -4.07913402e-02 -8.19007866e-03 +1.19918078e-01 +1.53757660e-02 +1.50361806e-01 -5.51720224e-02 +3.02936733e-01 -1.27982423e-01 -5.72200380e-02 +9.05196965e-02 +1.91303138e-02 +2.01256443e-02 +4.15685102e-02 -1.05325080e-01 -6.57256544e-02 -7.47008156e-03 -6.25576228e-02 -1.50701115e-02 +5.10782301e-02 -1.72753483e-02 -5.39900102e-02 +2.05191448e-02 +3.76840995e-04 +9.02673695e-03 -1.14294097e-01 +3.83746214e-02 +3.21898386e-02 -2.93049756e-02 +2.38092080e-01 +3.76667315e-03 -1.55510977e-01 +2.09322292e-02 -1.77193601e-02 -4.11363207e-02 +1.20573677e-01 -1.00554831e-01 -9.49209780e-02 -4.23266999e-02 -6.32750615e-02 -1.28268689e-01 -5.29892519e-02 +9.88855064e-02 -2.97692092e-03 +4.44123447e-02 +1.12636045e-01 +6.45849630e-02 +3.26502137e-02 -5.30851893e-02 -9.66551378e-02 +5.91615029e-02 +1.59042049e-02 -5.69831207e-02 -7.23877847e-02 +1.56611651e-01 -7.81333297e-02 +1.08531199e-01 +1.23782627e-01 +3.21298353e-02 +2.89326385e-02 -1.03714028e-02 +1.56042771e-02 +5.25552966e-02 +9.84884128e-02 +7.20977634e-02 -2.27431536e-01 +8.83715898e-02 +1.71006024e-02 +1.28226206e-02 +1.59368798e-01 -9.97834355e-02 +3.91523726e-02 +1.11744165e-01 -2.50641733e-01 -1.20897084e-01 -1.03311203e-01 -2.43647680e-01 -1.08785972e-01 -4.06707004e-02 +1.51430458e-01 +8.53689089e-02 -2.04328507e-01 -1.08918734e-01 +5.25305122e-02 -1.62905212e-02 +5.97129650e-02 -1.87445730e-01 -7.97911063e-02 +1.03614919e-01 +5.06286621e-02 -8.02564397e-02 -1.77464187e-01 -2.86340714e-01 -2.16745257e-01 -2.47699916e-02 -2.75625624e-02 -1.38408333e-01 -1.90505281e-01 +3.84690017e-02 -2.08529755e-01 +1.82295721e-02 -4.87419665e-02 -3.63842659e-02 -1.54680640e-01 -8.65878761e-02 +9.98653620e-02 +8.36535078e-03 -1.25794768e-01 -2.12776735e-01 +3.72927189e-02 -7.46603981e-02 -1.92394212e-01 +7.71811679e-02 -1.31853998e-01 -2.64849186e-01 -2.04951674e-01 -1.14388689e-01 -8.14070702e-02 -8.01577419e-02 -6.09866856e-03 -1.45090118e-01 -7.62216896e-02 -3.82345431e-02 +4.15270478e-02 -1.26226693e-01 -1.15817353e-01 +7.31297880e-02 +1.31609932e-01 +3.81898433e-02 -4.92108949e-02 -1.22120470e-01 -6.90701082e-02 +1.17859624e-01 -1.77012056e-01 -2.31978714e-01 -7.88375139e-02 -1.86330169e-01 -6.29463494e-02 +3.44973430e-02 +2.40460020e-02 -8.38764831e-02 -1.10668987e-01 -1.18028335e-01 -3.94533537e-02 +1.44486919e-01 -2.08483845e-01 +3.29369307e-02 -1.84171170e-01 +8.52216780e-02 +8.54004547e-02 -1.28512559e-02 -9.74931847e-03 +9.80078876e-02 +3.43346745e-02 -5.11832796e-02 +1.84294760e-01 -1.80285588e-01 -1.16948605e-01 -1.65512353e-01 -1.04778260e-01 -3.07207525e-01 +1.09245814e-01 -1.57759801e-01 -1.23976044e-01 -2.02587679e-01 -2.05858499e-01 -9.03490707e-02 -1.01503348e-02 -8.93038586e-02 -2.09756896e-01 -2.29152232e-01 -2.11673826e-02 -2.25946277e-01 +9.70992967e-02 -9.58761945e-03 -1.30084470e-01 -1.66384980e-01 +2.00808533e-02 -6.75580725e-02 +1.53228687e-02 -1.20518589e-02 -4.85097729e-02 -5.12866117e-02 +1.49729371e-01 -1.78938136e-01 +1.14470042e-01 -2.21176911e-02 +2.41459720e-02 -4.43918742e-02 +1.98035896e-01 +1.77299343e-02 -9.32487175e-02 -3.48730385e-01 -4.60425988e-02 -1.30523816e-01 +1.38045311e-01 -1.20017715e-01 -4.00546305e-02 +1.05618034e-03 +4.47776139e-04 +5.63099515e-03 -1.81229144e-01 -1.41148046e-01 -1.52584389e-02 +5.86694479e-02 -9.28676687e-03 +8.45976919e-02 +3.64419073e-02 -6.94211125e-02 -8.03772882e-02 -7.57551119e-02 -1.81097209e-01 +1.91072319e-02 +1.10694356e-01 +5.38388714e-02 -2.06629604e-01 -6.91456050e-02 -2.22618580e-01 -3.02905124e-02 +5.91091514e-02 +9.40233618e-02 -1.15641944e-01 -1.41095996e-01 +1.99280858e-01 -4.20012809e-02 +1.06088482e-02 +2.71408129e-02 +1.07958868e-01 -1.67456284e-01 +9.22365636e-02 -1.85775205e-01 -1.58919424e-01 +1.86008155e-01 -1.54783875e-01 -1.15728676e-01 -1.86416969e-01 -1.79645225e-01 -1.55314237e-01 -1.15364090e-01 -2.36075059e-01 -6.64786175e-02 -9.10167843e-02 -7.78792202e-02 -2.06143573e-01 +1.90892275e-02 -2.50847101e-01 +1.46016359e-01 -2.12087482e-01 +8.26777220e-02 +3.96109447e-02 -5.49114961e-03 +1.03268661e-01 +1.88421354e-01 +3.42451781e-02 -2.06271604e-01 -1.94759574e-03 -9.53722298e-02 -3.12997364e-02 -7.06974715e-02 +2.08866119e-01 -1.47859097e-01 +1.09445617e-01 -1.79082349e-01 +8.59478414e-02 -7.69262910e-02 -3.16652395e-02 -4.71914820e-02 +3.59624103e-02 +1.46546856e-01 -1.97322667e-02 +4.19051051e-02 -1.09621018e-01 -5.43464199e-02 -6.18389100e-02 +1.30342558e-01 -2.16013297e-01 -5.27579635e-02 -1.52695000e-01 -2.80772895e-01 +5.88759296e-02 -7.68773034e-02 +5.62160090e-03 -1.35100827e-01 -3.82846072e-02 -1.24807179e-01 +7.60567859e-02 +1.82494503e-02 +3.95676494e-02 -1.50750661e-02 +1.27535313e-01 +3.06425560e-02 -1.49044454e-01 -2.50408053e-01 -1.64295100e-02 +1.47027774e-02 +1.08325452e-01 -6.63917661e-02 -2.06391647e-01 -4.89500724e-02 -1.96444303e-01 +7.76055381e-02 -1.24472626e-01 -1.20031618e-01 -1.44062623e-01 -1.01891093e-01 -5.98178580e-02 -1.30397696e-02 -1.09104775e-01 +3.93456928e-02 -7.47851953e-02 -1.28959179e-01 -1.73571616e-01 +3.95368747e-02 -9.28115323e-02 -1.32244989e-01 -6.23233914e-02 +2.77069919e-02 -1.80337608e-01 -1.04456045e-01 -4.17398103e-02 -1.85047947e-02 -8.87501612e-03 +2.84078047e-02 +2.90591847e-02 +1.00576011e-02 +7.48286098e-02 -1.95843488e-01 -5.70959374e-02 -7.81099796e-02 +8.85875300e-02 +1.33457571e-01 -3.72159123e-01 +3.17045487e-02 +3.11040487e-02 -2.06898600e-01 -1.33656859e-01 -1.98613450e-01 -1.20654613e-01 -7.58203939e-02 -1.74482420e-01 -1.08947784e-01 -9.90343392e-02 +9.89146574e-05 -2.17524052e-01 +1.57901850e-02 -1.75688982e-01 +1.10757612e-01 -2.33906806e-01 +2.51821857e-02 +6.16896302e-02 +2.40204930e-02 -1.40236855e-01 +1.54658660e-01 +9.34876651e-02 +1.07916094e-01 +7.98887238e-02 +6.15697056e-02 -1.12487502e-01 -1.25049040e-01 +1.15809269e-01 -2.70763218e-01 +8.18058755e-03 -2.54779994e-01 -6.76388368e-02 -8.33173245e-02 -1.05505742e-01 -2.33246565e-01 +5.93475066e-02 +1.06869355e-01 -1.37950376e-01 -7.98769295e-02 -4.09747884e-02 -5.73493280e-02 -5.37478514e-02 -6.46392554e-02 -6.64535016e-02 +7.23088980e-02 -7.21054673e-02 -4.61437739e-02 +1.51299626e-01 -1.60306200e-01 +7.13722408e-02 +4.42972668e-02 -7.58780446e-03 -2.06030812e-02 +1.67465612e-01 +8.50597546e-02 +8.30424204e-02 -1.79351240e-01 +1.16576396e-01 +4.88409325e-02 +2.56369561e-02 -1.15820669e-01 -3.11044101e-02 +8.01855475e-02 +4.98716831e-02 -1.05153266e-02 +8.87063742e-02 +1.03450246e-01 -7.70502537e-02 -7.03109382e-03 -1.37010217e-01 -1.50551409e-01 +3.03911641e-02 +5.86884841e-02 +2.79687271e-02 -3.04841753e-02 -1.00413993e-01 -6.43308312e-02 -1.56629696e-01 +1.09828502e-01 +9.37880129e-02 -1.37330592e-01 -6.35801069e-03 -4.18791771e-02 -6.64334446e-02 +1.29450500e-01 +3.87123413e-02 +3.55531685e-02 +4.35560681e-02 -1.00670233e-01 +6.50956184e-02 -1.01989180e-01 -8.71975347e-02 +3.66825573e-02 +7.91986063e-02 -1.93761662e-02 +5.39511405e-02 +8.82866234e-02 -5.44367693e-02 +6.93662763e-02 -5.62447980e-02 -1.25030503e-01 +8.75134617e-02 -6.72262907e-02 -2.92870179e-02 +5.23730181e-02 +8.76505747e-02 -1.26975372e-01 +8.37217197e-02 -4.63838950e-02 -2.20021699e-02 +3.10443547e-02 -1.71053663e-01 -7.49581307e-02 -4.87881191e-02 +1.46708335e-03 +6.74109091e-04 -6.18680902e-02 -8.67936313e-02 +1.62397176e-01 +5.85849546e-02 -1.72998622e-01 -8.47374573e-02 -8.12163502e-02 +1.23357356e-01 -1.11450367e-01 +2.06714142e-02 +6.33897558e-02 -1.32260192e-02 -1.55654270e-02 +1.45036131e-01 -1.36733323e-01 -4.94307838e-02 -8.52995515e-02 -5.95249757e-02 -6.93408623e-02 +2.23725662e-02 +6.93851039e-02 +3.39328647e-02 +2.95227934e-02 -9.40772444e-02 -5.71862981e-02 -7.89758787e-02 -1.07887946e-03 -8.58134255e-02 +6.49675280e-02 -1.58486098e-01 -1.74388811e-01 -1.08362017e-02 -6.85599148e-02 -1.12549931e-01 -7.87295103e-02 -3.72136161e-02 -1.24969363e-01 +6.72082454e-02 -1.17384046e-01 -7.61229321e-02 -9.52869728e-02 -1.47898421e-01 -2.12240681e-01 -5.76631390e-02 -1.69980675e-01 +2.56514717e-02 +3.40860989e-03 -2.60116532e-02 +6.88946173e-02 -4.51620668e-03 +6.83737472e-02 +1.58662245e-01 -2.32328057e-01 -2.30153389e-02 -2.74118334e-01 -3.95898446e-02 -5.15369251e-02 +1.42535836e-01 +1.21294782e-02 -1.47535190e-01 -2.62427419e-01 -2.37965524e-01 -2.74968565e-01 -3.52972239e-01 -1.26862362e-01 +1.39390424e-01 -5.28070107e-02 -1.41444281e-01 -1.18058890e-01 -1.41656175e-01 -4.71584052e-02 -6.67532235e-02 -7.21346959e-02 +6.92580268e-02 -7.77885392e-02 +4.78018895e-02 -1.05600297e-01 -2.16197401e-01 +3.88377085e-02 -1.22906245e-01 -9.16285515e-02 -2.27918431e-01 -8.43421891e-02 -3.63887474e-02 -3.52029735e-03 +6.18372336e-02 -5.23665845e-02 +5.79778142e-02 -2.50579238e-01 -1.68760791e-01 +1.52403042e-01 -1.74327806e-01 -1.08456299e-01 -9.30660069e-02 -2.29616798e-02 -1.85528040e-01 +2.16601472e-02 -1.60964787e-01 +1.91524670e-01 -1.72462940e-01 -5.10501117e-02 -5.34626879e-02 -2.45734185e-01 -7.04509690e-02 +2.67676148e-03 -9.69027355e-02 +2.05076545e-01 +1.41699553e-01 -1.75788239e-01 -2.32025847e-01 -2.06357732e-01 -1.91255193e-02 -1.99590281e-01 -6.46642074e-02 -3.13238986e-03 -4.36611064e-02 -3.86093296e-02 -2.43395101e-02 -1.57485843e-01 -2.12713964e-02 -6.42816648e-02 -2.23580986e-01 +2.10366379e-02 -1.02866814e-01 +9.86040607e-02 +9.64925960e-02 +7.33289570e-02 +9.76097677e-03 +8.16636533e-02 -1.60857961e-01 -3.87153476e-02 +3.32406834e-02 -1.55196395e-02 -1.89750522e-01 -7.05159754e-02 +2.24453658e-01 -1.62498176e-01 +1.54215276e-01 -3.71763892e-02 -2.07269136e-02 +4.05412912e-03 +2.48030573e-02 -1.23749323e-01 +5.22563122e-02 -1.23992808e-01 +2.04632834e-01 -3.90299410e-03 -4.75983769e-02 +4.67223339e-02 -1.18673943e-01 -3.65083478e-02 +8.63416865e-02 -7.60657713e-02 -9.25000682e-02 -5.29480353e-02 -5.11049516e-02 +9.80902165e-02 +5.01166768e-02 +3.82180251e-02 +8.03070366e-02 +4.74883020e-02 -1.98928148e-01 -3.32054845e-03 -3.82821038e-02 +5.40254675e-02 -5.88717833e-02 -7.72112608e-02 -2.03725293e-01 -5.42610884e-02 +2.22675111e-02 -3.77463810e-02 -8.93415809e-02 -3.37339230e-02 +9.90799069e-02 +5.64325228e-03 +1.41523033e-01 +1.52849238e-02 -1.40504450e-01 -5.83924577e-02 +1.33650362e-01 -2.51779463e-02 -7.93469399e-02 -7.63775185e-02 -1.54854462e-01 +3.90729643e-02 +9.38129262e-04 -2.38918379e-01 +2.93030553e-02 -1.45271435e-01 -6.11508004e-02 +1.50759488e-01 -2.13160925e-02 +1.83706701e-01 -1.96439475e-01 +1.81777738e-02 +3.44646275e-02 +7.78128346e-03 -8.16428289e-02 +1.20491378e-01 -6.46129996e-02 -3.43457609e-02 +8.13047215e-02 -3.17285098e-02 -6.80508912e-02 +2.32193321e-02 +1.26814004e-02 +4.24536541e-02 +1.05522141e-01 -4.26227897e-02 -2.04998374e-01 +9.18853749e-03 +2.32392356e-01 -2.22523704e-01 -2.72919815e-02 -1.33554146e-01 +9.69216879e-03 -1.86810538e-01 +5.30261099e-02 +9.98135209e-02 -8.53732154e-02 +9.67579186e-02 -1.23306394e-01 +2.16479361e-01 -3.51789370e-02 +2.00118855e-01 +5.42915575e-02 -1.17111862e-01 -2.35061366e-02 +5.19278385e-02 -6.20231666e-02 -2.04413980e-01 +3.55636925e-02 -1.54865846e-01 -2.60547847e-02 -8.19640681e-02 +8.75136480e-02 -1.72967017e-01 +2.16052741e-01 -7.31408224e-02 -1.07949987e-01 -1.07417062e-01 -1.63172439e-01 -1.20568223e-01 -1.15380079e-01 -1.80984125e-01 +4.08527851e-02 +1.15862349e-02 -7.03372508e-02 +9.70168412e-02 -6.33193105e-02 +1.35193184e-01 +1.10628530e-01 -1.46752626e-01 -1.42848752e-02 -1.18594736e-01 +1.19131198e-02 -8.42322931e-02 -2.40016617e-02 +2.12860610e-02 -1.56050727e-01 -8.17907825e-02 -2.19679832e-01 -3.61594073e-02 -7.05097467e-02 -1.45001620e-01 +6.51598424e-02 -4.95820679e-02 -1.16301142e-01 +4.53900285e-02 +5.23814466e-03 -3.50734107e-02 