#Parameter# /vanilla-lstm-builder/_0 {400,35} 224001 ZERO_GRAD
-4.08361405e-02 -1.49896899e-02 -7.44903982e-02 -1.03608161e-01 -1.81701437e-01 +2.07209159e-02 +4.38645110e-02 +1.49392430e-02 +5.91488481e-02 -1.75523639e-01 +3.54218259e-02 +7.96672925e-02 +8.01922232e-02 -4.00265269e-02 -1.02324113e-01 -8.97289719e-03 -1.25984728e-01 -2.04845648e-02 -9.46461931e-02 +5.12394905e-02 -1.36197403e-01 +9.24560800e-02 -8.15124810e-02 +2.50805505e-02 -1.65636212e-01 -3.10955476e-02 +9.98664647e-02 -1.48977088e-02 -1.62342697e-01 -1.44901395e-01 +2.11878829e-02 +5.74494451e-02 -1.66961297e-01 +7.72192106e-02 +1.02499379e-02 -9.56461132e-02 -1.55222610e-01 -1.93430051e-01 -6.41522706e-02 -2.22867250e-01 -8.42108205e-02 -1.26591951e-01 -1.07657939e-01 -1.16795555e-01 -1.57885686e-01 -2.03841962e-02 -1.53174222e-01 +6.30689412e-02 -8.99778455e-02 +9.90560353e-02 +1.47948608e-01 +4.11155373e-02 -8.89046565e-02 -3.47242802e-02 -1.47489726e-03 -1.19937748e-01 +1.95852399e-01 -2.62754977e-01 -4.09441739e-02 +3.20335403e-02 +4.20642570e-02 -2.02202246e-01 -5.29464334e-02 -2.95497179e-01 +1.56117484e-01 +3.24483328e-02 -2.80305799e-02 -9.04356986e-02 -1.02878749e-01 -1.62276745e-01 -1.28101140e-01 -7.85609707e-02 -1.22183086e-02 +4.79090624e-02 -1.04162037e-01 +8.28147531e-02 -6.58190027e-02 +1.21024296e-01 +8.65996480e-02 -1.13635659e-01 -1.38438955e-01 +1.00640818e-01 +1.70911148e-01 -1.47712559e-01 -1.86403364e-01 -1.57033280e-01 +8.14885087e-03 -2.18150333e-01 +6.74004480e-02 -6.37128800e-02 -9.25699174e-02 +2.60541856e-01 -4.07682508e-02 -1.57034546e-01 -1.00713275e-01 +1.06276758e-01 -1.09195948e-01 +2.21651364e-02 +9.75831077e-02 -8.91358629e-02 -7.47536030e-03 +1.01457857e-01 -3.60992029e-02 +1.63432471e-02 -2.19221935e-02 -1.43670261e-01 +6.72666207e-02 -2.08824858e-01 +8.15671012e-02 -5.11731319e-02 +2.31894311e-02 +2.06410997e-02 -9.74880233e-02 -6.16343394e-02 +1.86888576e-02 -1.06093949e-02 +1.74082354e-01 -3.56496722e-02 -1.16971461e-02 -2.94922832e-02 +1.20973006e-01 -2.29054704e-01 -1.49405763e-01 -4.69215866e-03 +5.17293476e-02 +7.24053606e-02 +8.73442218e-02 +7.02810511e-02 -1.48531824e-01 -5.85957281e-02 +2.94031128e-02 -1.90572411e-01 -1.31698817e-01 -1.05811462e-01 +1.39550641e-01 +1.08131953e-01 -2.23452300e-02 -3.64215299e-02 -1.30672380e-01 -1.75968304e-01 -7.24652596e-03 -9.97139886e-02 -4.75984551e-02 -1.56201243e-01 -2.47881517e-01 -6.74576908e-02 -6.68726116e-02 +3.33706103e-02 +1.48086414e-01 +8.50986838e-02 +7.71071315e-02 +1.15758153e-02 -1.11043856e-01 -1.83974355e-02 +3.37309241e-02 +2.59361938e-02 +9.20891762e-02 -1.96711794e-01 -1.29532412e-01 -9.85028315e-03 +4.92080711e-02 -2.38468617e-01 +2.85045244e-02 -1.45352840e-01 +3.69915739e-02 -7.83306584e-02 +1.87750962e-02 -1.17161460e-01 +5.44658192e-02 -1.06839396e-01 -1.11540735e-01 -1.35538951e-02 -8.62704441e-02 +2.26341933e-01 -1.81874633e-01 -8.55969712e-02 +6.97021373e-03 -3.47821899e-02 -3.46358120e-02 +6.14430010e-03 +2.60955915e-02 -6.49043024e-02 +9.20688882e-02 -2.08232477e-01 -2.73139328e-01 -1.51189640e-01 +1.94971112e-03 -6.99253157e-02 +3.28328311e-02 +5.94822951e-02 -1.71360653e-02 +9.62022766e-02 +1.05980158e-01 -1.29496723e-01 -1.08334862e-01 -1.25838621e-02 -9.49682146e-02 -2.25941129e-02 +4.07138169e-02 +7.83059821e-02 -1.63355514e-01 +2.96364725e-02 -7.21174628e-02 -1.75790891e-01 +6.62595849e-04 -6.81440756e-02 +3.44034843e-02 -4.50253300e-02 +7.24498555e-02 -1.86276838e-01 +1.59066573e-01 -1.10122964e-01 -6.00563250e-02 +4.11041193e-02 -1.23151973e-01 -2.42316246e-01 -4.98876460e-02 +1.33422136e-01 -3.96013856e-02 -9.40158740e-02 -2.47099072e-01 -1.14748523e-01 +1.13894626e-01 -7.41664842e-02 -1.87878966e-01 -1.82921648e-01 -3.84610496e-04 +6.66343570e-02 -1.13120966e-01 -1.85857117e-01 -6.39508595e-04 -1.60388499e-01 -1.92950875e-01 -6.84394613e-02 -3.81290540e-02 -8.45573843e-02 -1.83609024e-01 -6.38002530e-02 -9.19921026e-02 -2.84849823e-01 +1.83643147e-01 -1.11003317e-01 -2.43667886e-01 -1.34564117e-01 -4.36009951e-02 -7.43173957e-02 -1.70782983e-01 +7.40343779e-02 +9.48681906e-02 +1.20497206e-02 +2.55367130e-01 +3.97141166e-02 -3.90089341e-02 -4.71183062e-02 -7.29122832e-02 -2.75404751e-01 +1.30569026e-01 -1.40154377e-01 -1.69784278e-01 +1.29782960e-01 -1.75907880e-01 -2.19635636e-01 +4.37319838e-02 -3.89339596e-01 -2.31979251e-01 -1.61858186e-01 -8.12080782e-03 -4.70463000e-02 -7.45392293e-02 -3.04935187e-01 -1.02057464e-01 +1.20022567e-02 -2.25922823e-01 +1.61753714e-01 -3.23136568e-01 -1.64542094e-01 -9.75121111e-02 -2.37900931e-02 -1.89138636e-01 +4.39346172e-02 -1.38152570e-01 -1.58636168e-01 +5.10945916e-02 -8.66483226e-02 -5.85019551e-02 -8.10246393e-02 +7.34558627e-02 +2.84406450e-02 +8.12255889e-02 -6.30177483e-02 -1.05019286e-01 -1.06993340e-01 +2.62093306e-01 -2.80313939e-01 -5.96027151e-02 +3.43875140e-02 -5.22822291e-02 -1.11557916e-01 +7.21019134e-02 +1.22833952e-01 -8.25016573e-02 -1.79681659e-01 +2.59319935e-02 -1.60871252e-01 -6.66052401e-02 -1.25202630e-02 +4.74573746e-02 -7.24181309e-02 +1.10923506e-01 -1.39892012e-01 +6.52217567e-02 -4.60031480e-02 -7.06727281e-02 +8.43798555e-03 -1.42817363e-01 -7.95682669e-02 -3.36457193e-02 -2.35429201e-02 -9.72195342e-02 +1.65376425e-01 +2.10183393e-02 +1.16237722e-01 -7.59217069e-02 +1.56819355e-02 -2.54143905e-02 +5.18314391e-02 -1.16735548e-01 +8.84340107e-02 +4.05757315e-03 +8.23063552e-02 -5.27434275e-02 +2.04434857e-01 -3.96473259e-02 -2.18487948e-01 -1.62983194e-01 +9.26406384e-02 -1.30883500e-01 +9.06184986e-02 +8.04978888e-03 -2.57924106e-03 -7.44353309e-02 +3.57566588e-02 -3.03224772e-02 +4.48426865e-02 -1.39013857e-01 +2.86989100e-02 -7.55245462e-02 -1.06645972e-01 -4.92279083e-02 -2.18902472e-02 -2.01624781e-01 -1.67365402e-01 -2.07218841e-01 +7.88697749e-02 -4.19288799e-02 +5.51448651e-02 +1.20738536e-01 -4.01512235e-02 +8.48190021e-03 -8.83593857e-02 -6.30259514e-02 -1.17618538e-01 -6.41458333e-02 +1.80201400e-02 +2.46883079e-01 -1.07213331e-03 -1.65515497e-01 +4.31519561e-02 +6.72785640e-02 -1.13542952e-01 +1.59355342e-01 +9.83750895e-02 +9.10339728e-02 +6.51059151e-02 -7.40437731e-02 +8.45893845e-02 +2.18792763e-02 -1.27966955e-01 -1.54180393e-01 -5.48534244e-02 -1.24221563e-01 -1.50772393e-01 +1.07612282e-01 +1.59986690e-01 -8.81815851e-02 -1.31110847e-01 +6.61774725e-02 +6.13454729e-02 +1.53150931e-01 -6.93037137e-02 +4.15014140e-02 -1.63366303e-01 +7.30075091e-02 -3.20365727e-02 +7.20028430e-02 -1.16324052e-01 -7.41001964e-02 +2.12435611e-02 +7.44412020e-02 +1.28640920e-01 -1.36570111e-01 -1.12520635e-01 +9.78113785e-02 -1.41741827e-01 -2.56392807e-01 +3.51845175e-02 -1.77668780e-01 +1.14378724e-02 -5.48075289e-02 -3.26170325e-02 -5.59638767e-03 -1.25757709e-01 -1.45910889e-01 -2.36374825e-01 -2.41558939e-01 -4.75396104e-02 -1.95768476e-02 -8.13273713e-02 +1.73975583e-02 -3.35389435e-01 -2.29479820e-01 -1.30988136e-01 -1.44410461e-01 -1.80259109e-01 -7.56725818e-02 -7.31147081e-02 -2.30415389e-01 -3.05421323e-01 -1.61307648e-01 -2.07746476e-01 -9.80084836e-02 -4.93581221e-02 -1.80298835e-01 +4.96687852e-02 -4.90729511e-02 -1.68806359e-01 -7.39106387e-02 -9.27669778e-02 -3.42358410e-01 -5.79242632e-02 -2.30662316e-01 -5.47281392e-02 -2.52187908e-01 -8.02518949e-02 -1.47628859e-01 +3.65941674e-02 +4.44937916e-03 -1.95762783e-01 -1.41194910e-01 -1.69706300e-01 +3.17862891e-02 -1.83271229e-01 -2.56630212e-01 +1.28188943e-02 -1.17165804e-01 -5.62572591e-02 -3.15983117e-01 -1.24864705e-01 -1.33178636e-01 -2.44816065e-01 -2.38127485e-01 -7.39078447e-02 -1.13413915e-01 -7.75618479e-02 +2.85204798e-02 -2.74006248e-01 -7.82141834e-02 -1.93013549e-01 +1.29623460e-02 -5.84390461e-02 -2.79953510e-01 -1.16583422e-01 -1.47308275e-01 -5.50856851e-02 -2.24541411e-01 +1.38901904e-01 +1.91839747e-02 +8.77312496e-02 -1.27267569e-01 -9.23201144e-02 -2.03949213e-01 -2.57955879e-01 -1.91115275e-01 +1.96714159e-02 -5.22149168e-02 +6.87288046e-02 -3.87626537e-03 -2.24055186e-01 -1.10564120e-01 -3.64744723e-01 -2.55627036e-01 -1.27762288e-01 -4.89227802e-01 -1.14203490e-01 +2.39400342e-02 -2.64877975e-01 -2.32546642e-01 -1.30225852e-01 +3.24266404e-03 -2.57061750e-01 +2.40269117e-02 -4.78362851e-03 +1.44861460e-01 -1.28942817e-01 -4.10277583e-02 +1.21049456e-01 +1.01287507e-01 +9.70300566e-03 -1.65473521e-01 +1.53551400e-01 +1.39086485e-01 -5.53019228e-04 -2.89536212e-02 +2.43417043e-02 -6.73099533e-02 -2.33724695e-02 +7.72888437e-02 -1.83220446e-01 -1.10188715e-01 -9.15071666e-02 -3.20037790e-02 -1.70117795e-01 -6.62498102e-02 -1.50484309e-01 +1.53829694e-01 +3.93823311e-02 +3.64049748e-02 -1.24808349e-01 -2.53649801e-01 -6.68565407e-02 +4.28522285e-03 +1.20844699e-01 +1.30941883e-01 +4.80883345e-02 +2.22956523e-01 -6.22969978e-02 +1.58541441e-01 -6.80399090e-02 -1.19338296e-02 +3.95924039e-02 +9.59448982e-03 +8.66361111e-02 -6.23131320e-02 -1.15516879e-01 +2.62105353e-02 -7.78594688e-02 +7.91009292e-02 -2.37897992e-01 -6.89996779e-02 -2.28527471e-01 -4.66863113e-03 -1.38713149e-02 -5.38118593e-02 +1.32293373e-01 +9.99907479e-02 +2.22767461e-02 -1.05341040e-01 -7.79608712e-02 -1.38417736e-01 +1.07416861e-01 -1.54417381e-01 -9.94762033e-02 +1.12821154e-01 -3.20947468e-02 -9.91050340e-03 -2.49483302e-01 -1.35938182e-01 -8.77367258e-02 -5.10758837e-04 -1.27961576e-01 -2.37836521e-02 -4.63704728e-02 +1.94249079e-02 -4.95905429e-02 -1.70603599e-02 +6.43017888e-02 +1.02029003e-01 +2.00836863e-02 -1.75564751e-01 -9.53613035e-03 +6.90617710e-02 -3.34027298e-02 +7.34773278e-02 -4.31694239e-02 +9.15921256e-02 +8.70850757e-02 +1.65657684e-01 -5.15503176e-02 +1.01350926e-01 -1.18728451e-01 +3.89133058e-02 +2.87303142e-03 -6.37029558e-02 -1.91939220e-01 +1.85928419e-01 +7.07749575e-02 -1.66750357e-01 -1.26267653e-02 +3.33899446e-02 -2.00437874e-01 -7.98894987e-02 -2.22034886e-01 -8.56498182e-02 -2.07329318e-01 -2.59446111e-02 -1.93665579e-01 -2.14861184e-01 +1.17439583e-01 -1.50624007e-01 -1.24711003e-02 -3.82869281e-02 -1.43176943e-01 -7.47571439e-02 -1.09321117e-01 -2.25134507e-01 -5.31136617e-02 -1.69694617e-01 -7.10299090e-02 -4.14332785e-02 -2.28661492e-01 +4.40738574e-02 -1.85871661e-01 -1.74111143e-01 -1.21580653e-01 +1.52744874e-02 +7.55958483e-02 -1.62031859e-01 -2.17221618e-01 -7.43572786e-02 -2.44883493e-01 -1.14214569e-02 +3.93864997e-02 +1.39152873e-02 -6.05263487e-02 -8.35049823e-02 -1.26278713e-01 -2.09560737e-01 -2.59535193e-01 -2.15128720e-01 -6.06234558e-02 -1.38525277e-01 -1.20814495e-01 -6.33956939e-02 +9.02728215e-02 -1.37462750e-01 -1.50474444e-01 +5.76592311e-02 -2.40320802e-01 -1.69154424e-02 +6.16704337e-02 -8.77036899e-02 +7.25238323e-02 -1.57642052e-01 +1.19187683e-01 -9.02734026e-02 -9.72130224e-02 -2.06905082e-01 +2.96279658e-02 -1.20211616e-01 -9.89175141e-02 -1.36256218e-01 -1.78724661e-01 -7.06014931e-02 -2.46473774e-01 +1.00141875e-01 -2.36915872e-01 -2.45983854e-01 -1.37061998e-01 -1.92328468e-02 -2.03077272e-01 -1.82604134e-01 -1.96482874e-02 -1.25881627e-01 +1.30615592e-01 -7.55495727e-02 -7.60196000e-02 -6.75248262e-03 -7.38800913e-02 -5.66847883e-02 +9.04117599e-02 +1.17475338e-01 -1.76143751e-01 +9.55137685e-02 -8.52454379e-02 -6.27421960e-02 -2.05115229e-01 +4.89675365e-02 -2.03661159e-01 -3.18409950e-01 -1.63087502e-01 +3.30531858e-02 -1.22548498e-01 +1.46312863e-01 -3.09808135e-01 -9.16762203e-02 +3.38747799e-02 -2.41657108e-01 -7.04586431e-02 -1.55124202e-01 -2.21723597e-02 -9.58650410e-02 +9.97297615e-02 -8.42875391e-02 -6.28428981e-02 +2.29730681e-02 -2.00165093e-01 -4.80730571e-02 -1.03006057e-01 +4.30334099e-02 +1.59703001e-01 +1.35834208e-02 +1.84906691e-01 +1.89027458e-01 -8.02244768e-02 -2.86274664e-02 -1.04927637e-01 -1.84418485e-01 -1.18906260e-01 -1.72146503e-02 +2.29850393e-02 -4.21481878e-02 -9.42064077e-02 -6.92404658e-02 -1.14870980e-01 +8.44033882e-02 +2.43314002e-02 -3.57991457e-02 +1.47822807e-02 +1.09894782e-01 -1.29866928e-01 +5.06451018e-02 -1.68786511e-01 -3.80591787e-02 +1.23248689e-01 -9.26512666e-03 -1.67497829e-01 +4.19061221e-02 -5.21882996e-02 -1.49111180e-02 -1.14529923e-01 +3.72575037e-02 -9.93529111e-02 +3.74676883e-02 +1.29051879e-01 +1.61739439e-02 +4.94068190e-02 -1.40344314e-02 -5.43683320e-02 -1.08360626e-01 +2.60012913e-02 +1.90825522e-01 +1.96951687e-01 -4.55954932e-02 -1.24639183e-01 +3.21464688e-02 -3.01888864e-02 +4.06728499e-02 -5.02481265e-03 +3.39801796e-02 +4.31578830e-02 -1.02755137e-01 -6.12395108e-02 -1.88463889e-02 +5.68255521e-02 +1.08168803e-01 +6.78920299e-02 +1.30103767e-01 -1.36303365e-01 -1.67133719e-01 +7.12807104e-02 +2.14502700e-02 -1.57040387e-01 -1.03909187e-01 +1.95285529e-02 -3.76574993e-02 +1.21133327e-01 -1.05263568e-01 +1.94391802e-01 -1.71208456e-01 -1.06575094e-01 +9.67035145e-02 +8.94185454e-02 -9.12172869e-02 -1.50491036e-02 -1.00372531e-01 +1.62340328e-01 -4.73949872e-02 -1.50743544e-01 -1.19380295e-01 +6.63790330e-02 +6.21834435e-02 +4.83081453e-02 +4.54173014e-02 +1.11182698e-03 -2.61769556e-02 +3.97553220e-02 +4.74774577e-02 -1.91552266e-01 -9.14148837e-02 -7.69495815e-02 -1.16556592e-01 +5.30659966e-02 +9.23953652e-02 -1.22101605e-01 -1.19159326e-01 -2.80414540e-02 -2.22045705e-01 -3.12534086e-02 -5.47914207e-01 -1.95097819e-01 -1.65595487e-01 -1.78527668e-01 -2.16510698e-01 -3.04701596e-01 -1.46651044e-02 -9.94875431e-02 -1.46607041e-01 -1.80121183e-01 -2.02499107e-01 -4.06585261e-02 -9.86791681e-04 -1.98996469e-01 -2.07647830e-02 -5.55997975e-02 +1.37037069e-01 -2.98062295e-01 +2.18203105e-02 -2.52690345e-01 -3.06224942e-01 -1.08695187e-01 -1.85415000e-01 -2.21568361e-01 -2.52624997e-03 +7.59688765e-02 +6.37101606e-02 -1.79840297e-01 -1.21309154e-01 -9.86599699e-02 -1.42880797e-01 +2.37535194e-01 -3.16069543e-01 -1.12426721e-01 -2.37102017e-01 -1.10421337e-01 -4.69135381e-02 -1.20995484e-01 -1.09750263e-01 -2.15120062e-01 -1.11832067e-01 -1.50794238e-01 -1.66160539e-01 -7.49365464e-02 -1.83477923e-02 -1.14706330e-01 +1.31510273e-01 +1.15713313e-01 -5.04792258e-02 +5.33324433e-03 +1.30251423e-01 -3.06986958e-01 -3.59988689e-01 -7.17900991e-02 -1.02161296e-01 +1.34859830e-01 -2.52898097e-01 -7.61203393e-02 -2.15206146e-02 +8.17299336e-02 -2.06007976e-02 +3.53181995e-02 -1.54898772e-02 -3.90464336e-01 -8.37812424e-02 -1.29502609e-01 -1.31271213e-01 -1.34380220e-03 -3.08592916e-01 -3.81451845e-02 -1.43953025e-01 -4.03846949e-02 +1.99581951e-01 +4.57331836e-02 -1.00550048e-01 -9.58604068e-02 -1.29486099e-01 +1.88568085e-01 -1.22465231e-01 +2.39597902e-01 -1.37933090e-01 -3.53333741e-01 -2.13323534e-01 -7.67579153e-02 -1.71562791e-01 +4.81986031e-02 +2.12974846e-01 -2.15250403e-01 -3.26117277e-01 -3.16718429e-01 -2.50106096e-01 -9.47069228e-02 +2.59610653e-01 -1.19552076e-01 +2.11766809e-01 -3.66216078e-02 +1.85926318e-01 +9.14489254e-02 -1.78634286e-01 -1.18536584e-01 -2.26612985e-01 -1.09063864e-01 +5.74610196e-02 +4.65909531e-03 -3.08542550e-02 -8.48116875e-02 +2.58774534e-02 +2.53892660e-01 +8.51209164e-02 -1.79180562e-01 -2.01644912e-01 +1.11109339e-01 +2.44687907e-02 -1.20900214e-01 +1.80260479e-01 -1.87480882e-01 +2.14899257e-01 -4.03916836e-02 -2.96251010e-02 -2.47688711e-01 -5.48763089e-02 -1.43050224e-01 -1.91674367e-01 -1.78107262e-01 -9.82628670e-03 +7.18305632e-02 +3.67277712e-01 -2.30797201e-01 +2.98196048e-01 -1.71365902e-01 -1.30371228e-01 +8.43957141e-02 -2.52880841e-01 -2.41106465e-01 -7.29861781e-02 +1.17686922e-02 +2.35737860e-01 -1.94634110e-01 +6.20845519e-03 -8.68502930e-02 -1.30940825e-01 -1.04551993e-01 +1.53322458e-01 -7.13900104e-02 -1.17761962e-01 +1.56238467e-01 +9.62475613e-02 +1.21370710e-01 +2.81496858e-03 +1.43119648e-01 +3.05006415e-01 -1.86885566e-01 -4.02812064e-01 -2.03987285e-01 +3.02808017e-01 +1.03309937e-01 +8.61461461e-02 -1.22937903e-01 +2.03817226e-02 +2.00122327e-01 +6.27471209e-02 -7.12493882e-02 -5.27140200e-02 -3.40023041e-01 +1.57876596e-01 +2.74161901e-03 -2.18899697e-01 +2.68455893e-01 -2.48910785e-01 -5.21150231e-03 -1.19924285e-01 -1.58599928e-01 +1.12287700e-01 +2.91776091e-01 +1.47336453e-01 -1.30089343e-01 +4.64333706e-02 +1.20002851e-01 +1.83346495e-02 -5.57418093e-02 +1.78861052e-01 +5.79433143e-02 -6.62673190e-02 +2.31671229e-01 +6.10531829e-02 -1.03082962e-01 +1.28028356e-02 -3.14460784e-01 -1.47908956e-01 -1.06410787e-01 -8.44384283e-02 +2.06288304e-02 -2.21244767e-01 -2.97177434e-02 -1.29853457e-01 -1.41453207e-01 +3.00492160e-03 +1.39155924e-01 +8.93431827e-02 +1.56726599e-01 -2.76780397e-01 -2.58165151e-01 +2.63933297e-02 +1.07407004e-01 -1.94873631e-01 +1.37635589e-01 +1.74712136e-01 -1.34665649e-02 +4.15523082e-01 -7.54937157e-02 -3.42664644e-02 +1.70138888e-02 -2.98016258e-02 +2.06216961e-01 -3.99122611e-02 -5.74579984e-02 +6.87069669e-02 +9.15304348e-02 -5.07143810e-02 -1.98704645e-01 -2.21214935e-01 -9.01494399e-02 -1.95519164e-01 -9.85835642e-02 -1.90929681e-01 -7.97028169e-02 +1.93604469e-01 -2.54850417e-01 -3.85343507e-02 -7.88313970e-02 -1.15792364e-01 -4.19380963e-02 -1.45526737e-01 -2.32563734e-01 -4.22086477e-01 -6.72799647e-02 +1.46173075e-01 -2.50645597e-02 -4.45535928e-02 +1.19429186e-01 -2.48846948e-01 -4.03063595e-01 +1.62241518e-01 -4.04492766e-03 -7.47948959e-02 +1.26443699e-01 +8.83263648e-02 -2.75431070e-02 +2.33391106e-01 -7.09720030e-02 +1.13183387e-01 -2.54788369e-01 -2.89061844e-01 -1.25651538e-01 +4.85303313e-01 +1.09203637e-01 +4.98343110e-02 -4.83001769e-01 +3.88397127e-01 -9.20322686e-02 +1.60581619e-02 -1.78121969e-01 -2.77228445e-01 -1.76462829e-01 -5.88569604e-02 -1.54805139e-01 +8.12870264e-02 -1.35700196e-01 -7.48178139e-02 -1.33512408e-01 +2.06779931e-02 -2.22197220e-01 -6.51778206e-02 -8.20842311e-02 -2.41338208e-01 -2.93891162e-01 +1.13922678e-01 +1.31964600e-02 -6.01306893e-02 -3.07560246e-03 +4.02649865e-02 -1.15092960e-03 +6.34320676e-02 +3.34676117e-01 -1.80981085e-02 -1.02509789e-01 -1.50739476e-01 +7.59370402e-02 -7.07708299e-02 +7.65446499e-02 -2.15440214e-01 -3.87492664e-02 -1.43883809e-01 -4.16819453e-02 -5.03433906e-02 -1.25499284e-02 +1.13025665e-01 +1.83991287e-02 -2.83327401e-02 -1.13682121e-01 -1.89528450e-01 +6.63087741e-02 -3.35727930e-01 +1.42644837e-01 +8.83238167e-02 -1.37612417e-01 -1.02619333e-02 -1.09174348e-01 -6.82336930e-03 -1.60055965e-01 +7.56761879e-02 -1.64322361e-01 -1.13107435e-01 -5.22453375e-02 +2.22262233e-01 +8.95300508e-02 +5.74217439e-02 -8.12697187e-02 -6.93051377e-03 +3.97776477e-02 -7.08575845e-02 +4.91375513e-02 +7.35962018e-02 -1.22868516e-01 -5.72814867e-02 +1.73950747e-01 +1.26007959e-01 -1.04589187e-01 -1.45729780e-01 -1.11706987e-01 +1.66859441e-02 -1.72084242e-01 +8.18912163e-02 -2.84659378e-02 -3.92172905e-03 +2.70049814e-02 +1.42971277e-01 -1.23459317e-01 +6.91258907e-02 -1.76161025e-02 -1.24957394e-02 +1.59805089e-01 +1.16566122e-01 +8.26030225e-02 +4.85731624e-02 +1.15679987e-01 -1.71143308e-01 +1.71709836e-01 -1.59637421e-01 -2.03032598e-01 -1.42594799e-01 +1.16877906e-01 +6.74983114e-02 +4.37243544e-02 +1.10462286e-01 +1.38073578e-01 +1.42412931e-01 +4.99783829e-02 +1.49053723e-01 +2.62402315e-02 -6.61440790e-02 +2.21184552e-01 -2.07292676e-01 +8.46290588e-02 -2.04194248e-01 +7.45478123e-02 +1.12793684e-01 +6.19935878e-02 +8.59294981e-02 +2.18234379e-02 -1.52089179e-01 -1.63013086e-01 +5.08835614e-02 +9.77824628e-02 -3.81677411e-02 -2.60285378e-01 -1.32000417e-01 +1.68126255e-01 -1.06261618e-01 -1.98470399e-01 -9.63732973e-03 -2.50436038e-01 +1.22852318e-01 +3.00189313e-02 +7.90498685e-03 +1.17238693e-01 -2.72237241e-01 +2.35436380e-01 +1.28980085e-01 -2.01750338e-01 -3.77997197e-02 +1.14063332e-02 +9.90216494e-01 +3.55687052e-01 +2.76823670e-01 -1.03936922e-02 +9.94410589e-02 +5.24819255e-01 +2.48751581e-01 +1.61094099e-01 +5.87191582e-01 +4.71809953e-01 -3.45701933e-01 +5.60592234e-01 +2.46360481e-01 +5.47032177e-01 +6.38548911e-01 +4.53802615e-01 +5.02378941e-01 -2.54442692e-01 +2.23475680e-01 +3.85313064e-01 -8.95819068e-02 -4.26315144e-02 -9.39262882e-02 -1.81230724e-01 +7.14424610e-01 +2.34955996e-01 +4.24642324e-01 -1.78563863e-03 -2.49742419e-02 +3.27336639e-02 +6.50786042e-01 +7.27740824e-01 +1.34366736e-01 -2.70356387e-02 +4.29495335e-01 +3.13556075e-01 +2.34711885e+00 +2.27930292e-01 +3.91541153e-01 +3.92398566e-01 +3.23271245e-01 +5.42609930e-01 -1.22172564e-01 +8.55379179e-02 -1.78520791e-02 +5.81574626e-02 +1.76061946e-03 -3.04448098e-01 +2.30695590e-01 +6.30633682e-02 -2.26173803e-01 +4.43172395e-01 +6.18369818e-01 +4.78229314e-01 -2.29403317e-01 +1.47407487e-01 -4.16042022e-02 +3.49939495e-01 +2.48063914e-02 -4.43667024e-01 -1.46066174e-01 -9.60756689e-02 +6.18459344e-01 +3.32547218e-01 +3.83585572e-01 -7.39179775e-02 -6.22705594e-02 +5.16875647e-02 +4.71928269e-02 +3.00689578e-01 +1.01188697e-01 -1.62956506e-01 +2.32865915e-01 +7.02087656e-02 +2.30315164e-01 -4.93470691e-02 +4.66478646e-01 +5.77053607e-01 +1.72759309e-01 +2.51862437e-01 +3.87796015e-01 +2.69725949e-01 -5.94502911e-02 +3.84193569e-01 +1.38145849e-01 -7.05838809e-03 +4.72375512e-01 -1.20675765e-01 +2.20259428e-01 +5.83542027e-02 +2.64350057e-01 +2.22171143e-01 +9.16065723e-02 +5.41454911e-01 +6.26950622e-01 +3.72605920e-01 +3.85126233e-01 +2.85607219e-01 +1.19985834e-01 +5.63682020e-01 +7.72317886e-01 -1.17894053e-01 +2.60236681e-01 -4.41997975e-01 +6.93181977e-02 +1.06652983e-01 -1.08854309e-01 +2.66046729e-02 -4.29554313e-01 +4.93150026e-01 -1.75640926e-01 +1.28906071e-01 -6.68022409e-03 -2.99511906e-02 -4.59178574e-02 +5.19200802e-01 +2.31642891e-02 -2.23120764e-01 +5.91842923e-04 +6.89766407e-02 -3.13644141e-01 -5.92223592e-02 -1.25586629e-01 -1.47933081e-01 +1.67798534e-01 -2.28392795e-01 -2.02151686e-01 -3.77358906e-02 -1.60456989e-02 +1.16949141e-01 -2.31641084e-01 +2.49118909e-01 +8.52206945e-02 +2.48033732e-01 +4.38028798e-02 +4.11595814e-02 +1.24855006e+00 +1.40331909e-01 +8.05504713e-03 +1.58638537e-01 -3.95567983e-01 -1.29070610e-01 -1.61647305e-01 -3.83392684e-02 +1.74998075e-01 -7.91394636e-02 +1.23534851e-01 -9.98832807e-02 -8.59215856e-02 -9.14598703e-02 -6.11543953e-02 -4.95262258e-02 -1.84640363e-01 -4.71211486e-02 -1.60858274e-01 +7.74850398e-02 -5.65650761e-02 +1.48556128e-01 +7.11949617e-02 -9.01710168e-02 -3.36583495e-01 +4.40390594e-02 +6.50560930e-02 +7.73726702e-02 +1.17167443e-01 +1.39044613e-01 -1.43152531e-02 -9.77349132e-02 +2.04832219e-02 +2.90272813e-02 +1.09093316e-01 -1.70840189e-01 +8.39514136e-02 -2.08414737e-02 +2.85509918e-02 +6.31783232e-02 +2.38488004e-01 +1.99430630e-01 +1.58550978e-01 -3.19161624e-01 +2.60590732e-01 +4.31203619e-02 -1.36070564e-01 +1.91089168e-01 +1.00487716e-01 -3.72224525e-02 +1.53421357e-01 +2.47721411e-02 +5.30484915e-02 -1.69090673e-01 +1.32849753e-01 -2.29351699e-01 -3.85856152e-01 +3.38460863e-01 +1.30566537e-01 -4.39508080e-01 -4.35872599e-02 -1.11241132e-01 -5.28339436e-03 -1.50671780e-01 +1.84415132e-01 -9.58466232e-02 -1.12558432e-01 -2.19561934e-01 +6.11003041e-02 +3.74876887e-01 -2.03958843e-02 +4.91388738e-02 +1.88961402e-01 +5.51185906e-01 -1.91896975e-01 +3.76556426e-01 +1.53674483e-01 +1.18881024e-01 +4.05346692e-01 +2.99316674e-01 +3.18091959e-01 -7.06905648e-02 -2.53373653e-01 +2.36607809e-03 -3.26939672e-01 -2.46373564e-03 -1.50069013e-01 -1.26550093e-01 +1.01628080e-01 +4.25038785e-02 -5.69313243e-02 -1.90506116e-01 -2.08833426e-01 +1.82754859e-01 +1.78721204e-01 +4.99649078e-01 +1.19874373e-01 -1.48989543e-01 +6.66435882e-02 +2.30922192e-01 -1.53540283e-01 -2.06261903e-01 +3.03888261e-01 +1.23508625e-01 -9.60766971e-02 +3.42895925e-01 -3.45339715e-01 -2.89762676e-01 +9.09817033e-03 +7.02287555e-02 +8.57421197e-03 -4.53661352e-01 +3.05583496e-02 -7.35769942e-02 -3.94475371e-01 +3.92585903e-01 +4.96821195e-01 +1.83996931e-01 -1.00694068e-01 -1.27193317e-01 -1.90114260e-01 +1.57956481e-01 -1.25886306e-01 -2.22743422e-01 -4.78086233e-01 -9.34361368e-02 -9.01336372e-02 -2.82773040e-02 +9.72852390e-03 -3.56215745e-01 +2.34555788e-02 -3.87367815e-01 -1.58716843e-01 -1.18918717e-01 +7.20267743e-02 -1.42145365e-01 -1.25979632e-01 -2.04737693e-01 -2.39498280e-02 -3.45991701e-02 +2.12867223e-02 +3.63775820e-01 -1.07713848e-01 -1.38144314e-01 +3.00661355e-01 +2.01859280e-01 +8.05849433e-02 -1.34574592e-01 +1.65789336e-01 -1.77167639e-01 -2.98785985e-01 -1.13336079e-01 +4.45226505e-02 -2.32631281e-01 +7.29025304e-02 -2.81213820e-01 -2.09227115e-01 +1.26110882e-01 +3.24856728e-01 +4.63704586e-01 +1.56682923e-01 -6.30302504e-02 +2.38556311e-01 +4.01262313e-01 +4.48409803e-02 +3.54900211e-01 -9.96130854e-02 +3.91359985e-01 +7.35536665e-02 -4.76933897e-01 -4.82960105e-01 -1.31682798e-01 -6.53704286e-01 +4.58832741e-01 -1.06374227e-01 +4.66451466e-01 +3.46800745e-01 +6.53095961e-01 +5.73413432e-01 -3.62931430e-01 -5.87796688e-01 -3.42936404e-02 +3.79831344e-01 -4.45051044e-01 +2.28546038e-01 -1.84827954e-01 +1.18527122e-01 -3.43232393e-01 +6.49474382e-01 -4.70734954e-01 -3.91716778e-01 -1.81461096e-01 -1.56000957e-01 -1.92922309e-01 +4.73716110e-01 -4.79212254e-01 -6.46433383e-02 +1.42016843e-01 +5.02468944e-01 -4.41463619e-01 -6.59453571e-01 -4.35933024e-02 +3.73677135e-01 -2.35393733e-01 +6.21452868e-01 -4.78138387e-01 +2.04847232e-01 -1.28653780e-01 +9.81329158e-02 +1.83543593e-01 +8.38027596e-02 +1.90407261e-01 +1.65428951e-01 +3.83831829e-01 +1.05097152e-01 +5.93095958e-01 +5.85181117e-01 -6.46611631e-01 +2.18996555e-02 +1.53079689e-01 -4.45037559e-02 -3.88151437e-01 -1.72356233e-01 +1.80392548e-01 -2.68394798e-01 +9.73696336e-02 +5.37906766e-01 +4.12988842e-01 +4.66638803e-01 +1.72719866e-01 +8.64924025e-03 +2.21089665e-02 -2.05650136e-01 -3.79862227e-02 -2.47275457e-01 -1.74304068e-01 -3.90594453e-01 +1.82019383e-01 +1.58579007e-01 +8.14740285e-02 -2.83631265e-01 +4.38094229e-01 -1.06561162e-01 +2.36446396e-01 -4.65720236e-01 -2.70728827e-01 -2.19750494e-01 -3.37074846e-01 -1.03382505e-01 +3.37293968e-02 +4.31256257e-02 -6.44339770e-02 -3.87347639e-01 -4.04942453e-01 +3.27077478e-01 +4.61647600e-01 -3.90995950e-01 -4.09580290e-01 -5.61279118e-01 +7.46206820e-01 +2.58486629e-01 +2.81126976e-01 -3.65027100e-01 -5.68596959e-01 +4.56643641e-01 -4.68436629e-02 +1.01711713e-01 +4.08851616e-02 -5.00367321e-02 +1.56306610e-01 +3.15796435e-01 +4.46985960e-01 +2.13330492e-01 +4.54655141e-01 +1.11545622e-01 +9.41667929e-02 +1.49040982e-01 -1.72006443e-01 +4.17326093e-01 +2.88470984e-01 -4.30925302e-02 -2.68789053e-01 +3.67290884e-01 +2.47760952e-01 -2.21735641e-01 -2.83151437e-02 +2.89501250e-01 -1.57411426e-01 +1.67876706e-01 +9.17459205e-02 +8.19115192e-02 +7.84075335e-02 +2.29782045e-01 -1.56426609e-01 +1.56470582e-01 -1.85468122e-01 -1.87659748e-02 +3.46966356e-01 -2.46840686e-01 +2.45539337e-01 -2.42065601e-02 -3.94756980e-02 +9.26467702e-02 +1.05146095e-01 -2.08856855e-02 +1.70765966e-02 -1.04837626e-01 +4.59029488e-02 -1.37979880e-01 -1.29805580e-01 +1.96613595e-01 +7.34558189e-03 -1.53593570e-01 +5.11865392e-02 +2.14308605e-01 +3.57865512e-01 -1.67179525e-01 -1.24644287e-01 +2.55205512e-01 +1.07240342e-01 +1.23031557e-01 +2.53487945e-01 -2.10307613e-01 -1.14532508e-01 +2.21457928e-01 +4.91837382e-01 +1.61504969e-01 +1.73989281e-01 +2.98513025e-01 -1.11967951e-01 +1.49376601e-01 +9.02016759e-02 -1.06398270e-01 +2.98940301e-01 +4.88583088e-01 +1.31526543e-02 -1.52879596e-01 +1.57480657e-01 +3.88387620e-01 -2.51857996e-01 +1.01919599e-01 +4.69932288e-01 -3.27229291e-01 +1.99889883e-01 +9.22736898e-02 -3.49850878e-02 -7.11084679e-02 +3.25727671e-01 +1.17807575e-01 -7.14105740e-02 -1.81855336e-01 +2.86382794e-01 +2.22212687e-01 +1.04849339e-01 -5.78378886e-02 +1.14638181e-02 -2.54429579e-01 +1.71477705e-01 +3.60944301e-01 +1.83839753e-01 +4.85248774e-01 +9.03894156e-02 -2.97806919e-01 -6.83619902e-02 +4.89558965e-01 -1.83906466e-01 +1.70425221e-01 -1.91263497e-01 +1.58633053e-01 +1.68582916e-01 +6.16813004e-02 +2.04670936e-01 -1.28604487e-01 +3.22426498e-01 +3.72223169e-01 +1.23848915e-01 +5.03057837e-02 +2.08458632e-01 -7.96280131e-02 +1.51418686e-01 -7.88399279e-02 -4.42303196e-02 -9.57675464e-03 +7.42436126e-02 +1.28523961e-01 -6.46763965e-02 +9.08769518e-02 +2.00231567e-01 +3.28358337e-02 +2.37051740e-01 +6.15000799e-02 +1.51668787e-01 +3.46334018e-02 +1.49879590e-01 +1.63855292e-02 +1.08957544e-01 +7.59194717e-02 +4.23271686e-01 +3.19475979e-02 +1.11411035e-01 +1.97251245e-01 +2.38219604e-01 +8.10437873e-02 +2.53792107e-02 +8.39893743e-02 +9.48732272e-02 +1.32812545e-01 +3.35639752e-02 -4.89913188e-02 -9.02165398e-02 -1.09778726e-02 +1.48783579e-01 -4.20784205e-02 -7.14629740e-02 +1.18532784e-01 -1.09722532e-01 -9.68911424e-02 +6.38890779e-03 +2.97240376e-01 +8.28860998e-02 +8.66320729e-02 +3.43432575e-01 +1.77057400e-01 +8.30717608e-02 -1.77462637e-01 +1.23493455e-01 +2.33761832e-01 +1.31853446e-01 -2.17963859e-01 -2.48037323e-01 -1.13335967e-01 +1.80603728e-01 +1.00524373e-01 -1.99218228e-01 +3.32678914e-01 -4.60958015e-03 -1.35586649e-01 -6.08296245e-02 -1.19032832e-02 -4.61256690e-03 +9.18662548e-02 +1.64017975e-01 -1.59383059e-01 +1.36354268e-01 -4.02193367e-02 -1.39969662e-02 +1.87781185e-01 +9.89783779e-02 +5.38004609e-03 +6.38633128e-03 -3.97314847e-01 +1.81590915e-01 +1.18821539e-01 -2.10906938e-01 +1.46697402e-01 +3.41248900e-01 -1.93268768e-02 +2.69843340e-01 +4.87372845e-01 -3.68601270e-02 -7.42106810e-02 -9.54248458e-02 -8.59959275e-02 -2.67811537e-01 +7.93887228e-02 -2.46224180e-01 +9.18906089e-03 -2.11455092e-01 +2.91088670e-02 -2.40875348e-01 +5.58030047e-02 +8.33330676e-02 -1.86298281e-01 +2.87156075e-01 -5.86392283e-02 -2.08803549e-01 +5.86252920e-02 -8.26135185e-03 +2.75152363e-02 -1.90113056e-02 +6.52410835e-02 -6.07782975e-02 +4.33986843e-01 +6.02372251e-02 -3.48445952e-01 -2.35409111e-01 -6.16776124e-02 +2.31015254e-02 -1.68512091e-01 +2.08904222e-01 +5.40371276e-02 +6.12121001e-02 -2.86947321e-02 -6.35612085e-02 +1.75948262e-01 +1.09339915e-01 +2.30126396e-01 +3.61327976e-01 +3.04063987e-02 -1.50122985e-01 +2.04783399e-02 +1.56293243e-01 -6.17642775e-02 -3.25847417e-02 -1.18943177e-01 +3.73115437e-03 +1.13710381e-01 -8.07329565e-02 +2.94904634e-02 -1.51991263e-01 +1.32136226e-01 +1.33139879e-01 -2.90888082e-02 -9.69537944e-02 +1.08208954e-01 +2.29272500e-01 -1.23943575e-01 +5.29514775e-02 -2.09199935e-01 +1.40385240e-01 -4.37228642e-02 +8.63229409e-02 -2.17379704e-01 +9.97933969e-02 +1.35923937e-01 +1.60683125e-01 +2.84948558e-01 -1.85715124e-01 -7.99197704e-03 -3.00778389e-01 -2.25409065e-04 +6.36064187e-02 +3.58234718e-02 +1.33712381e-01 +4.56055999e-01 -4.77616712e-02 -7.20493644e-02 -2.02446547e-03 +9.86241773e-02 -1.20022282e-01 +2.21461564e-01 +4.41577047e-01 -1.84783101e-01 -5.48244454e-02 +9.80842933e-02 -4.83806692e-02 +6.88101202e-02 +3.58596653e-01 +1.65150359e-01 -1.38168961e-01 +1.65578574e-01 +8.26350003e-02 -1.59725398e-01 -2.23606631e-01 +1.00117117e-01 -5.78488484e-02 -2.68621922e-01 +3.42546105e-01 +1.93058059e-01 -7.42669851e-02 +1.26179844e-01 -1.71908095e-01 -9.10751969e-02 -1.53085604e-01 -3.89375351e-02 +1.97017446e-01 +2.11166471e-01 +1.99227512e-01 +1.64408222e-01 -3.94694328e-01 -3.65694135e-01 +3.48806024e-01 -3.42101216e-01 +4.35042948e-01 +2.26850256e-01 +2.24671751e-01 +3.45473349e-01 +6.96021914e-02 +3.09028506e-01 +2.32643075e-02 +2.20358029e-01 +7.19108153e-03 -4.02367860e-01 -3.53451222e-01 -8.49635378e-02 -1.89920336e-01 +2.31290549e-01 +2.29173582e-02 -1.45401627e-01 +1.88342184e-01 -3.55287760e-01 -2.18106493e-01 +3.66508663e-01 -8.99154544e-02 +3.19309443e-01 +9.76309273e-03 +2.51581937e-01 +4.11174715e-01 +1.45825772e-02 +5.08563556e-02 +8.82143751e-02 -6.42555803e-02 +1.30599067e-01 +1.36403844e-01 +2.27713719e-01 -3.41428183e-02 +6.33694977e-03 -1.65639803e-01 -9.05655324e-02 -3.45129251e-01 +3.48094761e-01 -1.15667082e-01 -1.11321352e-01 +2.34325930e-01 +4.07015145e-01 +4.10826802e-01 -4.58239913e-02 -1.70165747e-02 -1.21867299e-01 -8.45836550e-02 +3.57470840e-01 -2.87351578e-01 -1.93070471e-01 -1.35854688e-02 -3.38836789e-01 +2.57616043e-01 -1.46558061e-01 +3.54463086e-02 -3.06338996e-01 +1.85862571e-01 +3.26616257e-01 +7.58718476e-02 +7.31693059e-02 -2.75135607e-01 -3.94056559e-01 +9.93488543e-03 -4.69235405e-02 +2.16567278e-01 +3.67800832e-01 -1.07986264e-01 -7.08639845e-02 +4.94563907e-01 -1.81769747e-02 +1.85316354e-01 +1.87071279e-01 -4.36688960e-02 -2.25581110e-01 -3.71347159e-01 +3.08306426e-01 +9.13071781e-02 +6.33078873e-01 +1.51520759e-01 -2.92198837e-01 -5.11253893e-01 +1.91680983e-01 +1.08627439e-01 -1.94831431e-01 -6.64804727e-02 +1.06006019e-01 +2.80462742e-01 +4.42947358e-01 +1.38989046e-01 +6.78857043e-03 -2.14001969e-01 +7.14417920e-02 -1.97258770e-01 -8.78998339e-02 -2.75254071e-01 -2.86192954e-01 -1.75381601e-01 +4.91847135e-02 -1.88366994e-01 -1.27880678e-01 -7.55189583e-02 +2.82518446e-01 -1.52825236e-01 -1.15181200e-01 -6.76744208e-02 -1.41270027e-01 +1.79993600e-01 +1.07876986e-01 -6.97537214e-02 -1.59411117e-01 +5.73298708e-02 -1.04825022e-02 +9.53025669e-02 +2.31193192e-02 -2.55927056e-01 -1.23294622e-01 +6.96944371e-02 +1.23297274e-01 +1.20605913e-03 -3.03871959e-01 -5.03079668e-02 -1.84094757e-01 +3.61168757e-02 -2.68321205e-02 -1.48415297e-01 -1.88111607e-02 -4.14791107e-01 +1.11183949e-01 -1.97107166e-01 +5.03379479e-03 -2.58051932e-01 -1.53951213e-01 -2.66492039e-01 -1.13540575e-01 -1.28338546e-01 -1.98611543e-01 -4.15812954e-02 -5.01088612e-02 +6.26264978e-03 +5.60591333e-02 -2.94809183e-03 -5.76700876e-03 -2.89178938e-01 -3.04298967e-01 +2.91253757e-02 +1.60717163e-02 +2.66042463e-02 -1.25183873e-02 -1.66544333e-01 -1.06203139e-01 -3.25054415e-02 -2.39317626e-01 -2.46575534e-01 -1.00306563e-01 -9.94147807e-02 +5.65182753e-02 -2.46250942e-01 -1.01662561e-01 +4.76432182e-02 -2.53171325e-01 -1.20276704e-01 -2.02097818e-01 +9.27872211e-02 -2.67209202e-01 +9.06592011e-02 -2.26865575e-01 -9.50257927e-02 +3.39421793e-03 -1.82966992e-01 +2.67446727e-01 -3.59753728e-01 +2.85529941e-01 +3.81879807e-01 +1.17437519e-01 -6.28383532e-02 -8.09235647e-02 -1.49965957e-01 +8.98931473e-02 +7.29199573e-02 +8.28343928e-02 -1.48591891e-01 +1.62468240e-01 +6.10709116e-02 -1.95028052e-01 -2.88440417e-02 +2.13781580e-01 -2.14163691e-01 -1.09241512e-02 -1.80457786e-01 -9.29271355e-02 -2.15613529e-01 +1.33352727e-01 -6.92092925e-02 +5.50225601e-02 -8.79224911e-02 -3.49565111e-02 +6.80032223e-02 +7.85106122e-02 -4.32286076e-02 -3.01671952e-01 -4.00596075e-02 +1.11948721e-01 -8.69434997e-02 +4.18502577e-02 +1.39149353e-01 -4.73888926e-02 +1.79333776e-01 +1.37183100e-01 -3.90720628e-02 +4.01453972e-02 +1.99231133e-02 +8.70055035e-02 -1.56348169e-01 +2.06086323e-01 -1.48293421e-01 -8.39881301e-02 +2.13990867e-01 +4.80002398e-03 -4.28168885e-02 -4.94853146e-02 -1.23881079e-01 +1.24647334e-01 +1.30919904e-01 -1.40640074e-02 -1.76324457e-01 +1.77777335e-01 -3.17531191e-02 +2.52978094e-02 -6.61240965e-02 -8.30100998e-02 -5.88928070e-03 +2.14520246e-01 +3.85325029e-02 +4.49062809e-02 +9.07985214e-03 -7.80040994e-02 +1.11924283e-01 -1.08987935e-01 +1.09255956e-02 -1.80654511e-01 +6.30386779e-03 +1.66129276e-01 -3.40487547e-02 +1.16081014e-02 +1.06693069e-02 +4.77333851e-02 +1.76711440e-01 +5.08588925e-02 +1.48522958e-01 -6.46154433e-02 +1.68790758e-01 -4.86317724e-02 -5.59212789e-02 +1.09296381e-01 +1.26375586e-01 +1.69000953e-01 -1.07398786e-01 -1.06431499e-01 -1.00998089e-01 -9.21157524e-02 -1.37273252e-01 -1.77671000e-01 -2.41505522e-02 -1.15523055e-01 +1.67898819e-01 -8.24993625e-02 -2.89220270e-02 +1.08253155e-02 -5.95436133e-02 +1.09950967e-01 +4.90966588e-02 +2.14626584e-02 +3.60953301e-01 +5.98930642e-02 +8.46742392e-02 -1.26922419e-02 -5.73770329e-02 +1.81206152e-01 +1.87494867e-02 +6.32025450e-02 -2.70496935e-01 +1.50734618e-01 -4.23943289e-02 +1.16701752e-01 +1.09489247e-01 +2.04267904e-01 -8.91092978e-03 -3.73439193e-02 -4.36618701e-02 +8.61747414e-02 +1.58045515e-01 +8.20491929e-03 -1.32496417e-01 -2.48231247e-01 -2.90469855e-01 -1.18950956e-01 -1.36366367e-01 +1.42103923e-03 -2.61828542e-01 -9.14453119e-02 +9.03731063e-02 +1.80169016e-01 -4.09062281e-02 -1.77350283e-01 -6.88762143e-02 -2.39711478e-01 +2.64857739e-01 +1.94805786e-01 -1.32061779e-01 -1.07160755e-01 +6.08749501e-02 -8.33653361e-02 -5.86469956e-02 +5.01755625e-03 -2.67213523e-01 -1.95306242e-01 -4.72431332e-02 -1.10778816e-01 -5.75785600e-02 -2.08351269e-01 -2.29601681e-01 +1.10319547e-01 +9.98429283e-02 -2.02076599e-01 -1.18308514e-01 +7.52707496e-02 -3.74016389e-02 +2.09222153e-01 -8.38838220e-02 +1.03607237e-01 -1.22625440e-01 +7.82119185e-02 +7.83126354e-02 -3.39519158e-02 -1.14980668e-01 -1.71027794e-01 -4.51265089e-02 -1.83260024e-01 -2.02650204e-01 -1.27935842e-01 -6.29146323e-02 +3.64886522e-02 -3.37328799e-02 -5.64605137e-03 -1.41626298e-01 -9.24451426e-02 -7.62826279e-02 -8.15466493e-02 -5.23004420e-02 -3.41130346e-01 -4.85557765e-02 -1.05368577e-01 -1.41291976e-01 -2.88548637e-02 -1.19497210e-01 +1.40826538e-01 -6.46999553e-02 -1.31602421e-01 -2.11795777e-01 -7.39527866e-02 -1.45479292e-01 -2.59022772e-01 +1.41007584e-02 -4.25688513e-02 +6.86700409e-03 -2.32344523e-01 -1.59790933e-01 +2.58136660e-01 -1.33711174e-01 -1.31888270e-01 +1.44457981e-01 +2.24607468e-01 +3.57105404e-01 +1.84162259e-01 -1.06437892e-01 +1.26335785e-01 -1.93109721e-01 +1.19053647e-01 -1.18416719e-01 -9.71189141e-02 -1.64721861e-01 -3.64873260e-02 -1.31727487e-01 -4.65943292e-02 -2.16543321e-02 -7.77203881e-04 -1.35274250e-02 -3.79457176e-02 -2.12555807e-02 -4.01836038e-02 +4.13915515e-02 -1.61371157e-01 -4.17718403e-02 -9.06223878e-02 +1.64116099e-01 +3.27712186e-02 -1.07961304e-01 +1.21215686e-01 -1.13470390e-01 -2.11491168e-01 +1.89085335e-01 +2.24061191e-01 +1.26352042e-01 +3.16369087e-02 -7.76375011e-02 +2.38892585e-01 -3.55772197e-01 -3.86421494e-02 +1.42947227e-01 +3.60763855e-02 -2.76532859e-01 +4.35224026e-02 +1.95764229e-01 -3.82244810e-02 -4.71088476e-02 +1.24844491e-01 -7.70677626e-02 -1.53773531e-01 -2.25921452e-01 +7.79803097e-02 -1.30684882e-01 -6.41256347e-02 -1.80557236e-01 +5.46908714e-02 +1.01712989e-02 -4.28016558e-02 -1.64860353e-01 -1.63600817e-01 +1.05762910e-02 +2.46170938e-01 -3.22508290e-02 +1.24011494e-01 -1.88381344e-01 +1.97026774e-01 +9.64885056e-02 +1.95021495e-01 -1.47044118e-02 +1.11534618e-01 -1.59177557e-01 +1.67045414e-01 +1.97282627e-01 -1.89971216e-02 +1.05621278e-01 +1.79568946e-01 -7.14270473e-02 -4.06270288e-02 +5.72959930e-02 +7.91049674e-02 -2.11669430e-01 +3.09155807e-02 -1.11128472e-01 -7.62222111e-02 +6.39845878e-02 -1.25133954e-02 +4.80922200e-02 +1.54513977e-02 +3.14675383e-02 +3.04122595e-03 +2.07101420e-01 -4.13405038e-02 -3.80554162e-02 -2.14098036e-01 -1.83262810e-01 -5.97090386e-02 +5.34483790e-02 +1.87566370e-01 -1.23474030e-02 -2.36764565e-01 +1.99530572e-01 -3.37372452e-01 +5.47678545e-02 -3.23642433e-01 -3.15149426e-01 +1.11368224e-01 -8.49408209e-02 -2.61189997e-01 -9.10114273e-02 -7.10590035e-02 -2.33716499e-02 +1.43250480e-01 +1.46157509e-02 +1.52615339e-01 -7.87163228e-02 -3.03842016e-02 -1.51987106e-01 -2.05446050e-01 +4.19570059e-02 -2.55255145e-03 -6.64099306e-02 -7.55142495e-02 +7.06905127e-02 +1.15842998e-01 -2.20302269e-02 +1.31499454e-01 -2.30134770e-04 +4.02727686e-02 -1.46221340e-01 +7.17286095e-02 -7.96460360e-02 +4.59982082e-02 -2.36438349e-01 -1.95303168e-02 -8.91309008e-02 +5.23012020e-02 +3.32341418e-02 -7.22184032e-02 +4.51517925e-02 +1.16660215e-01 +2.28570942e-02 +4.37459350e-03 -6.92562163e-02 -1.26949489e-01 +1.20523140e-01 -1.35096032e-02 +7.13454932e-02 -1.70511082e-01 -3.00188921e-02 +1.80808885e-04 -2.75043875e-01 +3.39513435e-03 +1.46006746e-02 -3.55574340e-02 -1.98168591e-01 +1.82599090e-02 -1.10007226e-01 -1.50180966e-01 -1.69959530e-01 -3.03235859e-01 -1.27346218e-01 -2.55494297e-01 -3.75558250e-02 +3.14737707e-02 +1.34385228e-01 -4.21514027e-02 -1.21028990e-01 +1.89959090e-02 +1.25797629e-01 -7.83855543e-02 +1.77193023e-02 -3.46754454e-02 -2.57196631e-02 -4.42410447e-03 -1.63670301e-01 -2.92827278e-01 +4.91476692e-02 +2.21580565e-01 -3.54298055e-02 +1.12766750e-01 +9.00471862e-03 -5.45729026e-02 +7.90787712e-02 -2.03454047e-01 -5.79514094e-02 +1.19765513e-01 -5.61981909e-02 -2.71847069e-01 -7.08212554e-02 -3.00626946e-03 +1.61485076e-02 -3.86437587e-02 -1.54783055e-01 +8.32990557e-02 +1.87297717e-01 -1.74446046e-01 -6.84258267e-02 +3.39085087e-02 -1.61611915e-01 -2.73803324e-02 -1.13844670e-01 -5.88300675e-02 -4.06026021e-02 -1.45928442e-01 +8.00886080e-02 +5.25248684e-02 -3.95254306e-02 -3.03721074e-02 +9.08471644e-02 +8.21565613e-02 +8.77105668e-02 +2.38708388e-02 +1.74730774e-02 -6.96528703e-02 -3.99225913e-02 +3.17970440e-02 -2.64367640e-01 -6.26916289e-02 +4.91323173e-02 +6.29626885e-02 +3.36153843e-02 +6.04986586e-02 -2.40396429e-02 +2.19678998e-01 +4.78614010e-02 +1.24493606e-01 -9.01289433e-02 -4.46615107e-02 -2.04415679e-01 +6.79837614e-02 +8.43844414e-02 -1.62564233e-01 -1.31521970e-01 -1.12935342e-01 -8.77520964e-02 -4.49999236e-02 -1.44683287e-01 +1.73847690e-01 +1.76885575e-02 +1.21869221e-02 +8.32939222e-02 +2.04893649e-01 -1.90724447e-01 +7.62253404e-02 -1.07855469e-01 -9.40339044e-02 -8.14787149e-02 -3.98962907e-02 -9.77763608e-02 +1.02223217e-01 +1.62589788e-01 -4.22861055e-02 -1.51502430e-01 -2.02201873e-01 -1.51530936e-01 +1.29634023e-01 -4.08561639e-02 -9.05601382e-02 -1.05699420e-01 +7.51539553e-03 -1.11565061e-01 -1.50311803e-02 -8.15082118e-02 +1.44292012e-01 +2.26962164e-01 -2.50590205e-01 -6.34803325e-02 +1.12295054e-01 -3.74971777e-02 +7.03266412e-02 -5.88271245e-02 -7.30059594e-02 -1.52125672e-01 -2.52411738e-02 -8.72524455e-02 -9.79882330e-02 +1.20522149e-01 +1.62273213e-01 -9.00533423e-02 +7.22841322e-02 +1.11975357e-01 -2.50328965e-02 +3.05775926e-03 -2.51218259e-01 -6.69884309e-02 +5.64306118e-02 -2.09119305e-01 -6.84656873e-02 -3.07471715e-02 +3.77282351e-02 -1.22934382e-03 -2.04827581e-02 -9.77002233e-02 +1.53829867e-03 -2.76921708e-02 -2.94100940e-01 -1.84917197e-01 +2.45525643e-01 +1.59319723e-03 +1.51038960e-01 +1.14698291e-01 -2.27059629e-02 -1.36327073e-01 +3.87836583e-02 +4.00505811e-02 -2.35848203e-01 -1.54070640e-02 -9.59291011e-02 +7.01857358e-02 -1.24179430e-01 -4.77304570e-02 +2.33913176e-02 -1.92944750e-01 +2.23740861e-02 +6.52012825e-02 +2.03119181e-02 -8.13255534e-02 -9.41761676e-03 +5.94014525e-02 -1.31212234e-01 +7.03452453e-02 -5.80033958e-02 +8.67318064e-02 +1.09044626e-01 +9.56391692e-02 +8.82548019e-02 -1.86803281e-01 +4.07516621e-02 -1.95217565e-01 +1.05275996e-01 +1.49427935e-01 -1.66365132e-01 +3.53965871e-02 -2.07165644e-01 +1.65543128e-02 -7.83974603e-02 -9.42662954e-02 +1.48167312e-01 -2.89973408e-01 +3.16174150e-01 -5.81047237e-02 +2.98581809e-01 -1.32418305e-01 +4.61423695e-02 -1.57000363e-01 -1.01712905e-01 +1.88253019e-02 -2.30069011e-02 +1.06152520e-01 +1.68371931e-01 -4.06924598e-02 -2.61588544e-01 -2.51981288e-01 -2.29445659e-02 -1.47558865e-03 +6.13904232e-03 -4.88649048e-02 +9.01771784e-02 -7.77132483e-03 +7.53950030e-02 -1.07741587e-01 -2.53346004e-02 -7.78785497e-02 -2.18653423e-03 +1.33552089e-01 +6.20932430e-02 +2.10921597e-02 -3.09568066e-02 -5.30990548e-02 -7.90833961e-03 -1.78654507e-01 -1.15636565e-01 -1.64981231e-01 -2.21473292e-01 -1.06114715e-01 -1.08655587e-01 +1.85067728e-01 +8.64443555e-02 -1.56482235e-01 +4.35312577e-02 -9.09097120e-02 +1.96113944e-01 -1.14642411e-01 -1.86657473e-01 +1.04729291e-02 +2.38872960e-01 -7.68378302e-02 -1.36480451e-01 -2.93188822e-02 -9.44272149e-03 -2.21412368e-02 +4.10055332e-02 -2.60682642e-01 +5.67287207e-03 -8.15909430e-02 -1.65050253e-01 -1.08787820e-01 +9.30763111e-02 +1.31703019e-01 +2.08649606e-01 -1.70050159e-01 -1.57730594e-01 -4.42327708e-02 +1.02459202e-02 -1.55669674e-01 -1.41148970e-01 -7.80038983e-02 +1.74147803e-02 -3.40140983e-02 -1.08221084e-01 -1.88130870e-01 -3.00781846e-01 -1.27585381e-01 +7.78542385e-02 -2.00817082e-03 -1.60181522e-01 -1.18483059e-01 -5.05094603e-02 -1.90294476e-03 -4.81578484e-02 +1.16786145e-01 -3.69219519e-02 +5.76196760e-02 -1.51444927e-01 -2.10626666e-02 -4.18860056e-02 -1.01873673e-01 +1.80398181e-01 -1.56171219e-02 -1.25002846e-01 -8.19908231e-02 +1.39130011e-01 -5.31779490e-02 -2.90923081e-02 +3.96161228e-02 -1.19737647e-01 -3.11061349e-02 -1.76905487e-02 +7.58341178e-02 -4.57811095e-02 +1.27211109e-01 +8.14724788e-02 -2.85532884e-03 +7.19161183e-02 +1.42218336e-01 +2.11183161e-01 -2.55078971e-02 +4.82835397e-02 +3.75130698e-02 -9.31717828e-03 +4.23808396e-02 +2.79124767e-01 +5.26366271e-02 -1.71875864e-01 +1.32803753e-01 -7.10273953e-03 +1.30878463e-01 +1.87283978e-01 -1.57872051e-01 -5.07244207e-02 -6.49552122e-02 -1.65512171e-02 +1.18342251e-01 +1.61051229e-01 -1.20106943e-01 +8.24896842e-02 -4.70279269e-02 +1.66744143e-01 -1.35540009e-01 +1.15098767e-02 +1.81000918e-01 -3.49130556e-02 -9.91936326e-02 -1.10631995e-02 +3.00415549e-02 -5.14094345e-02 +1.39639914e-01 +1.23055942e-01 +1.37540460e-01 +1.11375093e-01 +1.11603076e-02 +1.86338611e-02 +7.31013343e-02 -5.50467744e-02 +1.14844285e-01 -4.08377200e-02 -1.43709958e-01 -1.27744824e-01 -2.40675900e-02 -2.04332825e-02 +1.73686355e-01 -4.34063561e-02 +8.96445587e-02 -1.88828260e-01 +2.86804587e-01 -3.59448232e-02 +2.91165680e-01 -1.38785904e-02 -7.44509995e-02 -7.01315105e-02 +6.59589693e-02 -4.21810336e-02 +1.25809908e-01 +5.00778258e-02 +1.36352971e-01 -2.26542294e-01 -7.08332360e-02 +8.02091435e-02 +9.13371667e-02 +9.67553258e-02 +3.61180045e-02 -1.02661505e-01 -4.92991619e-02 -5.14905155e-02 -1.76992733e-02 -2.11184397e-01 +2.94366796e-02 -7.85737019e-03 -9.47313905e-02 -8.01316053e-02 -1.98679138e-02 +4.06222753e-02 -3.23924646e-02 -2.57765651e-01 -3.77213806e-02 +8.69914889e-02 -1.57565635e-03 -1.96847275e-01 -4.13590707e-02 -9.78469290e-03 +1.36728294e-03 -1.65170535e-01 -1.01561807e-02 -2.53772736e-02 -9.72530097e-02 -1.87052097e-02 -1.75247937e-01 -6.48325309e-03 +8.13185051e-02 +3.77542200e-03 -1.88517183e-01 -2.24426344e-01 -2.67369132e-02 -1.91148985e-02 -2.35037357e-01 -1.27284363e-01 -1.73501074e-01 +4.96444060e-04 -1.02862656e-01 -2.14260980e-01 -2.53649592e-01 -9.91096795e-02 -4.36942093e-02 -1.67167354e-02 -2.36479491e-02 +1.67029858e-01 -2.02748906e-02 +9.42764878e-02 -2.17837766e-02 -1.59361869e-01 -8.68459605e-03 -3.96730639e-02 -1.33145541e-01 +3.81132029e-03 -1.71352521e-01 -8.88450220e-02 -1.26111299e-01 -5.53420074e-02 -1.65491790e-01 -6.86815530e-02 -2.44521946e-01 -1.00361472e-02 -1.91376470e-02 -3.04675847e-02 -1.22548133e-01 -1.68471947e-01 +6.30584955e-02 +9.46291313e-02 -1.24905922e-01 -2.28591636e-01 -7.57444203e-02 -3.28066349e-02 -8.19732994e-02 -1.12687923e-01 +1.05545139e-02 -8.50777942e-05 -6.59602359e-02 -2.35578548e-02 -7.00943619e-02 -1.42510623e-01 -3.30181792e-02 -2.14991570e-01 -1.01630516e-01 -1.32195100e-01 -1.20520696e-01 -1.64773017e-01 +1.81624051e-02 -2.07831055e-01 -2.95482838e-04 -2.04026848e-01 -7.90070444e-02 -7.25824526e-03 -2.39663310e-02 +8.31197724e-02 -2.14184374e-01 +4.95463498e-02 -6.33071512e-02 -1.20800152e-01 -3.45224291e-02 +7.20587596e-02 -1.63831964e-01 +3.03820204e-02 -2.01310460e-02 +9.92867798e-02 +1.79543085e-02 +8.27768967e-02 -2.98802197e-01 +1.59500360e-01 -1.05068184e-01 -2.36126587e-01 -1.67751253e-01 -1.33464575e-01 -5.57115227e-02 -2.08204195e-01 +1.95674270e-01 +6.24598935e-02 +2.35217914e-01 -9.50412452e-02 -2.72332021e-04 +2.94158626e-02 +2.23625585e-01 -1.16690695e-01 -2.14187093e-02 +4.41958830e-02 -7.74376141e-03 +1.56409517e-02 -4.94991392e-02 +8.19891542e-02 +6.13342747e-02 -9.13646072e-02 -1.05756901e-01 -1.50235780e-02 +3.31039578e-02 -1.05032317e-01 -1.90878510e-01 +9.41495374e-02 +3.25699747e-02 -8.64006300e-03 -7.38103911e-02 +8.42300430e-02 +2.37462707e-02 -2.31464505e-01 -1.05066709e-01 -8.44640508e-02 +3.96039635e-02 +2.89527863e-01 -2.59077370e-01 +7.67317563e-02 +6.04570024e-02 +3.27962711e-02 -6.64827228e-02 +1.09485693e-01 -6.33016527e-02 +8.72795582e-02 +8.08551237e-02 +4.25381139e-02 -1.04443029e-01 -1.48891300e-01 -2.01893672e-01 +7.31709355e-04 -1.17378488e-01 +8.23659748e-02 +9.70687196e-02 +4.36325707e-02 +1.53159440e-01 +2.93021109e-02 -5.88009469e-02 +3.41967307e-02 +3.32061946e-02 -2.08496451e-01 +2.12833598e-01 -3.07406694e-01 -2.76815221e-02 -7.51046166e-02 -6.96659982e-02 -3.26283649e-02 -8.23085904e-02 +7.68752396e-02 -1.39929026e-01 -3.62191379e-01 -9.11441520e-02 -9.25439224e-02 -7.47277439e-02 -3.85717750e-02 -6.96950010e-05 -5.72037250e-02 +2.46751070e-01 +4.72018011e-02 -2.42654830e-01 +8.61510113e-02 -1.25431925e-01 -1.41414344e-01 -5.81390820e-02 +3.07862878e-01 -7.10791051e-02 +1.29840419e-01 -1.64776873e-02 -5.99592216e-02 -5.59408031e-02 +1.08719915e-01 -2.18495026e-01 -1.16586201e-02 -1.69456199e-01 +5.74903823e-02 -1.26470745e-01 +1.21786967e-01 -2.23324150e-01 +2.45426446e-01 +4.79757264e-02 +2.17861291e-02 -1.42192990e-02 -7.65889511e-02 -3.89214349e-03 -1.72772825e-01 +1.03712976e-01 +5.53824985e-03 -1.20354707e-04 -1.18301637e-01 -4.12303628e-03 -7.43277967e-02 +1.03261493e-01 +7.28742480e-02 -7.63197467e-02 -8.75606313e-02 -1.10623769e-01 -1.14767559e-01 +3.87227023e-03 +4.30290401e-02 +1.29461244e-01 +2.76222602e-02 -1.12718374e-01 -1.69676304e-01 -1.29480094e-01 +9.04470086e-02 -1.19045906e-01 -3.28027084e-02 -5.31986058e-02 -8.78015459e-02 -5.85065037e-02 +6.19828515e-02 -1.21720254e-01 -1.68419808e-01 -1.42750442e-01 -2.02190682e-01 -1.57652661e-01 +1.85123652e-01 -1.44355178e-01 -5.49817365e-03 +2.18238868e-02 -1.95499539e-01 -9.80580505e-03 +1.36264414e-01 -9.81191695e-02 +7.74798319e-02 +6.27653375e-02 +8.14842153e-03 -9.88398865e-02 -8.71118680e-02 -1.64747506e-01 +2.02028430e-03 -2.78667599e-01 -2.62944214e-02 +2.68040985e-01 -3.34478468e-02 +3.17950137e-02 -8.77088343e-04 +8.51693004e-02 -3.06388512e-02 -2.16837674e-01 -1.46810055e-01 +1.11669138e-01 -6.28750622e-02 -1.37741223e-01 +1.47358790e-01 -1.03263184e-01 +1.46828786e-01 -2.89143976e-02 +6.66189119e-02 -2.58632526e-02 -3.89851406e-02 -8.70972592e-03 -5.79348579e-02 -2.13689238e-01 -2.60848075e-01 -1.14651620e-01 -1.08829752e-01 +1.48702696e-01 -9.63815004e-02 -3.38888131e-02 -4.14061248e-02 -1.58892125e-01 -1.29216418e-01 -7.20710680e-02 +3.73305261e-01 +6.15994409e-02 +5.37909009e-02 -4.46505705e-03 +6.01576455e-02 -1.71521589e-01 +1.27285108e-01 -1.49748221e-01 -1.25368893e-01 +6.99294508e-02 +1.13821164e-01 -1.59326829e-02 +5.14846407e-02 -1.30869955e-01 +4.25678156e-02 -1.28688691e-02 -1.44032091e-01 -1.36192322e-01 -8.41648281e-02 +6.30942360e-02 +1.82600953e-02 -1.35191470e-01 +1.12340778e-01 -1.49946213e-01 +6.52522687e-03 -7.59952962e-02 -5.58433235e-02 -1.11630008e-01 +4.51497808e-02 +4.16762084e-02 -2.36352626e-02 +2.84082387e-02 +1.60276920e-01 -1.15035914e-01 -1.42694518e-01 -1.45306885e-01 +5.47031239e-02 -1.05256476e-01 +3.91369462e-02 +4.69753034e-02 -1.16422616e-01 +9.13201049e-02 -1.20787285e-01 +6.52005225e-02 -1.41181096e-01 +4.99542505e-02 +2.87988000e-02 +5.59720322e-02 -1.49505258e-01 +8.15444663e-02 +4.61965092e-02 +1.23072683e-03 -1.53397411e-01 +1.39053687e-01 -1.43105119e-01 +1.77139699e-01 +8.56422484e-02 +6.42752573e-02 -1.68057099e-01 -5.73042333e-02 -2.83864606e-02 -6.54211789e-02 +1.24965014e-03 +8.13703462e-02 +1.11145452e-02 -7.05269203e-02 -3.82513031e-02 -1.11311696e-01 -5.89496717e-02 +1.16923274e-02 -9.69185680e-02 +1.29384333e-02 -8.15751404e-02 +1.22991689e-01 -2.05625102e-01 -8.74609221e-03 -1.35319016e-03 +9.23705474e-02 +1.54984906e-01 -1.47148922e-01 +2.43719015e-02 +1.06004454e-01 +3.16257179e-02 -1.72219813e-01 +9.77793336e-03 -1.38681550e-02 -8.44067261e-02 -2.42337771e-02 +2.28128657e-02 -1.11939916e-02 -1.00893475e-01 -9.93560031e-02 -4.09945250e-02 -7.79859573e-02 +2.82330122e-02 +6.70678988e-02 +7.79326111e-02 +6.28320128e-02 +7.11242482e-02 -1.39161214e-01 -5.58500625e-02 -4.18031104e-02 +1.85354352e-01 -1.48024693e-01 +1.03314154e-01 -3.20021249e-02 +7.12249428e-02 -8.33084248e-03 +9.15051326e-02 +1.06591620e-01 +1.16263285e-01 -9.14282873e-02 +1.65570993e-02 +5.02041876e-02 -1.22551106e-01 -2.73066256e-02 +3.29090059e-02 +7.25358203e-02 +9.51924324e-02 +1.53440788e-01 +7.40027651e-02 -3.31333019e-02 -2.83744365e-01 -1.20586595e-02 -1.32703623e-02 -1.19424775e-01 -2.21881658e-01 -1.18645549e-01 -6.05999306e-02 -8.07740465e-02 +1.07814437e-02 -1.20360032e-02 +8.86011217e-03 -1.58078015e-01 -4.41640690e-02 -3.96388061e-02 +1.19756214e-01 -2.26562485e-01 -1.81621149e-01 +4.82710917e-03 -1.49602041e-01 -8.11825469e-02 +2.64218859e-02 -8.48589838e-02 -6.19945712e-02 -7.64209330e-02 -1.70789659e-01 -5.40646687e-02 -9.81124789e-02 -1.33360580e-01 +8.18501338e-02 +3.41000296e-02 -1.03991188e-01 -4.28322032e-02 -1.05815321e-01 -2.97572166e-01 +9.17834267e-02 -1.44666165e-01 -5.56233078e-02 -6.72464743e-02 -2.26182342e-01 -1.17366873e-01 -6.28945753e-02 -1.68926552e-01 -1.65122539e-01 -1.58919826e-01 -1.70008481e-01 -1.03551291e-01 -9.88414362e-02 -8.01535249e-02 -7.16609322e-03 +8.31684619e-02 -6.46675155e-02 -5.98562360e-02 -8.15126393e-03 -8.55109990e-02 +6.00647330e-02 -2.19558835e-01 +1.02526657e-01 -1.27282381e-01 -2.88140595e-01 -2.00461373e-01 +1.12805188e-01 +3.42766903e-02 +4.98530231e-02 -1.35300696e-01 -2.01736853e-01 -1.99507177e-02 -1.02773152e-01 +5.62173873e-02 +7.98629783e-03 +6.60840794e-02 -1.09259784e-01 -1.17881671e-01 -6.41887784e-02 +4.85131145e-02 +2.22835336e-02 -7.62210367e-03 +2.34858975e-01 -1.18554741e-01 -7.01374412e-02 -4.52734455e-02 -9.91796777e-02 -2.47978847e-02 -8.84336606e-02 -3.38088945e-02 -4.39711064e-02 -2.13445500e-01 -1.20942600e-01 -9.86176729e-02 +2.80369399e-03 +1.32220984e-01 -1.51135817e-01 +1.91417541e-02 -2.56442845e-01 +1.97054278e-02 -1.27854511e-01 +1.93439741e-02 -9.96973217e-02 -2.32646450e-01 +1.35185152e-01 -1.32027745e-01 +8.83914530e-02 -8.94494429e-02 +1.12694316e-01 +1.85795277e-02 +4.04639728e-02 -1.20829076e-01 -1.96417287e-01 +2.01402053e-01 +6.75842166e-02 +3.38324569e-02 +1.09972842e-01 -3.35486233e-02 +1.76071987e-01 +9.21595395e-02 -3.17598544e-02 -1.48647893e-02 -1.35874704e-01 +5.21274433e-02 +3.93227786e-02 -1.14436500e-01 -1.27363250e-01 -3.42393443e-02 +1.38687074e-01 +1.21489115e-01 -1.67900287e-02 +2.67539769e-02 -1.54770240e-01 -8.40225592e-02 -2.40933076e-02 -7.98166692e-02 +1.86298247e-02 -1.20220054e-02 -1.11403659e-01 -1.73560247e-01 +4.02994663e-01 +3.58809941e-02 -7.26720169e-02 -1.21879481e-01 +1.20553672e-01 +8.32092166e-02 -6.74854070e-02 +8.74560233e-03 +7.81386495e-02 +1.57154612e-02 -3.53398770e-02 +3.47402804e-02 +1.51380375e-01 -9.85845327e-02 -6.07348606e-02 +2.72373945e-01 -1.27493620e-01 -4.22965251e-02 +1.61752645e-02 -3.52016650e-02 -9.28522944e-02 -2.63070371e-02 +1.02703966e-01 -1.04450643e-01 +1.08594121e-03 -8.14216658e-02 +1.50156960e-01 -7.20218942e-02 -3.42859104e-02 -4.53337241e-04 -1.63608134e-01 -1.44402862e-01 -2.29942650e-02 +1.28064439e-01 +1.73797633e-03 -1.22033767e-02 -2.85590719e-02 -9.08825397e-02 -9.69149023e-02 +1.75064951e-01 +4.54635136e-02 +3.79047059e-02 +1.32240236e-01 -1.10570095e-01 +6.25286400e-02 -3.83131728e-02 -1.08863004e-01 -7.74352476e-02 +3.33562754e-02 -7.06755519e-02 +6.10958934e-02 -1.16981957e-02 +1.09077595e-01 -1.28250062e-01 +3.89275216e-02 +1.12080030e-01 -9.31442308e-04 +2.46094763e-02 -4.58051562e-02 +1.12310767e-01 +1.01090692e-01 -3.28511298e-02 +5.24792597e-02 -1.22094797e-02 +4.41813190e-03 -1.44149527e-01 -1.24070801e-01 -1.54184774e-02 -1.39738470e-01 -4.78730015e-02 -1.52575180e-01 -4.53319289e-02 -1.84538171e-01 +1.14133567e-01 +7.53936991e-02 -1.23136237e-01 +6.80599138e-02 -9.83194858e-02 -1.08517528e-01 -8.36575478e-02 -6.35834550e-03 -1.79968044e-01 -2.31795348e-02 -1.25007093e-01 +1.82176251e-02 +6.06904998e-02 -1.43653259e-01 +5.89544401e-02 -1.16183702e-02 -2.48456839e-02 -4.28277161e-03 +7.46326074e-02 -3.55372988e-02 -1.17099949e-03 -1.47250136e-02 -1.44990906e-01 +3.79392654e-02 +9.14746597e-02 -2.31261123e-02 -2.11422667e-01 +4.31453027e-02 -1.61060080e-01 -8.99973661e-02 -2.59861857e-01 -4.74920459e-02 +1.14666363e-02 -3.07703353e-02 +2.72608344e-02 -4.48437892e-02 -5.10632657e-02 +1.77161936e-02 -7.46377558e-02 +1.33505434e-01 +4.93969508e-02 +7.38702565e-02 -2.83363927e-02 -2.46838391e-01 -3.04241218e-02 -1.47975519e-01 -1.56194091e-01 +8.73206332e-02 -8.60352814e-02 -1.90879740e-02 -1.11885564e-02 -2.80386209e-01 +4.62944172e-02 +8.98545086e-02 -2.79648378e-02 +4.26118746e-02 -5.32532297e-02 -6.81373179e-02 -1.49410024e-01 -1.75169238e-03 +1.23436876e-01 -4.82992306e-02 -4.69377600e-02 -2.78697908e-01 -1.83322772e-01 -9.09835547e-02 +5.62571287e-02 +8.27746317e-02 -1.19857334e-01 -6.71103820e-02 -2.07239807e-01 +8.14731866e-02 +2.77594849e-02 -1.44362062e-01 +6.35048077e-02 +6.23863116e-02 -3.07354406e-02 +3.74330990e-02 -8.07742868e-03 -1.41307265e-01 -1.50129989e-01 -1.52988024e-02 +6.57313690e-02 -1.55630514e-01 -1.55842274e-01 -1.75251186e-01 -1.10531688e-01 +1.11076050e-01 +9.61911604e-02 -7.64652565e-02 -1.47516891e-01 +1.87082738e-02 +1.62435293e-01 +2.32931934e-02 +2.58614924e-02 +6.08589053e-02 -8.13875198e-02 -1.68353375e-02 +2.42631752e-02 -1.82559192e-02 +7.46565536e-02 -5.52746430e-02 +2.33980075e-01 +9.39124972e-02 -1.75149355e-03 +1.73468679e-01 +1.67884707e-01 -1.80091977e-01 +3.34406756e-02 +9.54705775e-02 +2.12063058e-03 +7.33683929e-02 +1.01973653e-01 +1.68188125e-01 -1.09093010e-01 +1.07279770e-01 -1.71255514e-01 -1.33516520e-01 -6.10743053e-02 +8.66175741e-02 +7.54593313e-02 +2.21200809e-01 -1.34955183e-01 +7.93489292e-02 -9.71018616e-03 +9.33448970e-02 -4.16610911e-02 +3.20331752e-02 +7.93041140e-02 +4.53436114e-02 -2.00728271e-02 +1.22196645e-01 -1.69130489e-01 +1.47408098e-01 -7.93465674e-02 -2.98909098e-02 +4.15429100e-02 +1.81521863e-01 -3.20251547e-02 +1.11848891e-01 -9.45487991e-03 -7.55561574e-04 -2.38051955e-02 -3.70020606e-02 -6.07430264e-02 +2.51144674e-02 +1.51957117e-03 +1.64308667e-01 -2.98912432e-02 -2.04040006e-01 +1.04138024e-01 +4.22363542e-02 -3.20417061e-02 +1.69010341e-01 +1.08171768e-01 +1.42333314e-01 +2.80203745e-02 +7.75754675e-02 +5.09037152e-02 -7.99589306e-02 +3.14278416e-02 +2.18282943e-03 +1.49657607e-01 +3.16973180e-02 +1.73887968e-01 +9.77183282e-02 +1.13157136e-02 -9.20979902e-02 +5.63474670e-02 +1.23754935e-02 +1.75994951e-02 +1.85043598e-03 +1.87848285e-01 -2.32451171e-01 +4.08820733e-02 +2.57239118e-02 +1.37696221e-01 +2.11823180e-01 +9.40601993e-03 -1.01801425e-01 -1.11398630e-01 +1.12519249e-01 +1.18926927e-01 -1.72990769e-01 -7.19318092e-02 -5.05830795e-02 +1.68139532e-01 +7.32682366e-03 +1.52896261e-02 -7.18702450e-02 -4.16805483e-02 -1.00630969e-02 +1.19419038e-01 -1.46265790e-01 +2.33566105e-01 -1.71615481e-01 +8.98418799e-02 -8.85162875e-02 +6.35282844e-02 -1.20370373e-01 +4.43492718e-02 +1.21629201e-02 +2.85270140e-02 +1.14953138e-01 -2.26351097e-01 +6.67739734e-02 +6.51916303e-03 +5.36376424e-03 -2.03221679e-01 -2.12050512e-01 -1.28605634e-01 -1.61054939e-01 -1.24430016e-01 -9.52704772e-02 +2.64330991e-02 -1.53411016e-01 -1.92204535e-01 -1.64350316e-01 +1.08328216e-01 -2.33122334e-02 +1.15817539e-01 -4.44711484e-02 -1.32989828e-02 -7.66013041e-02 +1.80005193e-01 -2.94453800e-01 -5.34875989e-02 -2.29812711e-01 +1.31107986e-01 +1.46643341e-01 -4.86502144e-03 -9.25051197e-02 +1.17271639e-01 -2.83344299e-01 -1.48901030e-01 +2.61642337e-01 +4.35706005e-02 +7.87628368e-02 -2.03374878e-01 +6.82132542e-02 -1.21492349e-01 -5.81548996e-02 +1.48389176e-01 +1.42058805e-01 -2.01365635e-01 -2.59348035e-01 +2.37568900e-01 -1.98706210e-01 +1.68660223e-01 -5.22668362e-02 -1.94892332e-01 +1.25644520e-01 +9.98639539e-02 -1.42109782e-01 -1.34816870e-01 -3.79263535e-02 +3.10182143e-02 -8.32922906e-02 -1.61479041e-01 -1.10278375e-01 +1.22179449e-01 -3.92040610e-03 -7.29169277e-03 +4.69663553e-03 -1.78565219e-01 +1.16636846e-02 -1.68798923e-01 -1.01280339e-01 +4.03513834e-02 +8.30410719e-02 -4.41095326e-03 +2.98665166e-01 +2.83047646e-01 -3.03015053e-01 +1.74869284e-01 +6.55427277e-02 +1.11663342e-02 -2.46548969e-02 +1.60783961e-01 +7.44088292e-02 -1.50558323e-01 -4.93996143e-02 -2.04057485e-01 -4.69447672e-02 +4.85324115e-02 +5.69678203e-04 -6.70468956e-02 -2.22111747e-04 -4.94228769e-03 -1.07636608e-01 -1.70298070e-01 -1.35814786e-01 +9.40222219e-02 -6.20061951e-03 +2.09432431e-02 +5.74813187e-02 +3.65905128e-02 -9.71123353e-02 -1.89924687e-02 +4.20897873e-03 -8.04931521e-02 -1.85441393e-02 -4.16460559e-02 +1.07998677e-01 -9.76766795e-02 -1.16039207e-02 +1.54111564e-01 -9.95658115e-02 -4.59660403e-02 -1.46372139e-01 +3.06885652e-02 +5.80733865e-02 -8.72705653e-02 +7.48198256e-02 -4.33514155e-02 -1.23880422e-02 -2.67637402e-01 -2.16860667e-01 +1.53138384e-01 +4.97433916e-02 -6.38499260e-02 +8.89307484e-02 +6.89854845e-02 -1.09447666e-01 +1.51027501e-01 -1.16594248e-01 -8.28569680e-02 -4.10133488e-02 +1.98286787e-01 +1.68463275e-01 +7.62102902e-02 -1.85035601e-01 +6.84477985e-02 -1.61056072e-01 -8.53351802e-02 +8.21425691e-02 +5.53052165e-02 +3.61161195e-02 -2.32633073e-02 +1.09011389e-01 -1.01602994e-01 -8.14624503e-02 -1.01319671e-01 +7.92284310e-02 -2.47638300e-01 -3.57890560e-04 +4.94909547e-02 -2.43767321e-01 +2.79403776e-01 +3.27038094e-02 +1.55177325e-01 +1.87359780e-01 -9.97680724e-02 -1.32637084e-01 -1.22879975e-01 +4.52066883e-02 +1.78653166e-01 -3.31012726e-01 -6.42762780e-02 +4.95167822e-02 +2.17244867e-02 +1.07048541e-01 +1.00103877e-01 +1.17751509e-01 -1.03539042e-01 -1.58127382e-01 -1.51556171e-03 -1.34542480e-01 +8.42477530e-02 +1.45229146e-01 +1.05641797e-01 +3.27570915e-01 +6.75489381e-02 -9.15792286e-02 +7.08025098e-02 +4.67542745e-02 +1.31844252e-01 +3.32321860e-02 +5.37842996e-02 -5.92669994e-02 +3.05895638e-02 -1.54127151e-01 -1.99647650e-01 -1.39458716e-01 -1.46270758e-02 +1.81594670e-01 -1.69635192e-01 -3.07815932e-02 +9.48839337e-02 +7.42955729e-02 +5.98573722e-02 +8.12975243e-02 -2.18584195e-01 -1.54758081e-01 +6.85958192e-02 -5.88241406e-02 +3.75884883e-02 -8.93275067e-02 -1.22554861e-01 +3.17892469e-02 +3.49412486e-02 -4.14113924e-02 -2.13033006e-01 +7.96150342e-02 +4.08371277e-02 +3.81504707e-02 +2.28000134e-01 -6.77485317e-02 -5.26158474e-02 -3.34949940e-02 +2.35755295e-02 -1.51735067e-01 -8.59792344e-03 +1.08869217e-01 -2.40637995e-02 -2.68710982e-02 -1.02815196e-01 -1.50476500e-01 +4.63703535e-02 -1.44841775e-01 -5.38932458e-02 -3.28679709e-03 +1.21004023e-01 -2.64128838e-02 +1.76750347e-01 -2.85888821e-01 -1.97191924e-01 +6.42143488e-02 +2.25975990e-01 +2.59940531e-02 +4.90938015e-02 -3.45727086e-01 -1.52519807e-01 -4.65279669e-02 -2.14547753e-01 +1.30745783e-01 +1.20799080e-01 +2.78270263e-02 +1.03121012e-01 +1.12099633e-01 -3.73327769e-02 -1.19052619e-01 -1.02401935e-01 +2.28272542e-01 -7.90916681e-02 +2.42599528e-02 +3.30486983e-01 -2.54339218e-01 +1.34159967e-01 -2.35558134e-02 -8.31182972e-02 +2.21492454e-01 -1.19144619e-01 -6.07765317e-02 -4.22801785e-02 -1.20685250e-01 +6.43549114e-02 -3.31266284e-01 -1.56583741e-01 -5.54508530e-02 +9.83286370e-03 +3.75371915e-03 +2.40660280e-01 +8.34933668e-02 -9.83659029e-02 -3.70528400e-02 -1.57247305e-01 -1.40060380e-01 +9.46578011e-03 +1.26548946e-01 +2.13480800e-01 +3.12632024e-01 +3.16376358e-01 -1.74062237e-01 +2.19980568e-01 +8.68083164e-02 -9.61959064e-02 +1.32051423e-01 +2.44894251e-01 -1.94766209e-04 -5.36450259e-02 -1.39978662e-01 -1.44058108e-01 -2.88865924e-01 +7.95791950e-03 +2.11826652e-01 -1.57091886e-01 +1.64522350e-01 -4.40110900e-02 +1.22116320e-02 -2.36812964e-01 -1.00275256e-01 -9.69448686e-02 +1.10294022e-01 -2.52560556e-01 +8.58973041e-02 -4.79301177e-02 +1.34912759e-01 -2.24482059e-01 -1.41044110e-01 -3.48773273e-03 +3.22305877e-03 +2.60699503e-02 +9.53604132e-02 -1.32585004e-01 +1.09145075e-01 -5.28747626e-02 -8.09233338e-02 +8.32724348e-02 -4.12101671e-02 +6.24869466e-02 -1.31112980e-02 +1.60704285e-01 -2.96115614e-02 +1.30150989e-01 -5.50947450e-02 +1.27787068e-01 +7.90277272e-02 -1.11467533e-01 +1.19180538e-01 +3.26849297e-02 -1.72922641e-01 +9.76764262e-02 +1.18360065e-01 +2.13973209e-01 +7.69309253e-02 +2.66048852e-02 -7.37882033e-02 -9.36579332e-02 +1.02961399e-01 -2.75817309e-02 -5.55956885e-02 -6.00046441e-02 +4.15902287e-02 -4.75099869e-02 +2.68774360e-01 -1.94101155e-01 +1.65469050e-01 -1.08977355e-01 -1.80650398e-01 +2.59621665e-02 -8.22689198e-03 +1.14072539e-01 +2.48405654e-02 +9.54568479e-03 -9.28997844e-02 +3.34625661e-01 -4.32925858e-02 -1.67899430e-01 -7.57823363e-02 +3.86546366e-02 +1.42642066e-01 -1.24415368e-01 +1.13809608e-01 +9.53366533e-02 +1.04814237e-02 -1.87918946e-01 +8.72528031e-02 -4.13320623e-02 +7.90507123e-02 +3.06909561e-01 -2.46918835e-02 -1.53122067e-01 +1.88691616e-01 -1.44477710e-01 -6.02210760e-02 -8.20532888e-02 +1.40083611e-01 +9.11441147e-02 -3.75226699e-02 -1.86850518e-01 -5.14003076e-02 -3.22221331e-02 -3.64021100e-02 -2.36529469e-01 -2.72903237e-02 +4.42410000e-02 +1.46677839e-02 -6.19737506e-02 +1.65524974e-01 +8.53194445e-02 +1.20910816e-01 -1.50580764e-01 +8.59749988e-02 +1.00941136e-02 -1.05382718e-01 -1.47620812e-01 +6.84115440e-02 -3.65915075e-02 -5.14751822e-02 +1.46013692e-01 -1.28617128e-02 -2.44840011e-01 +4.48898524e-01 +1.82128921e-01 +5.79678304e-02 +2.27061450e-01 +2.51107868e-02 -2.12807432e-02 +8.60948488e-03 -6.21914044e-02 +2.29376167e-01 -6.76665083e-02 +3.44747072e-03 +2.20240846e-01 -2.84591801e-02 +1.18121840e-01 +3.23080905e-02 -9.69422013e-02 +4.24612351e-02 +3.37953389e-01 +1.19350195e-01 +1.38690993e-01 -9.22194719e-02 -1.03110760e-01 -5.56738265e-02 +5.16662672e-02 +2.26237774e-01 +5.17114904e-03 +6.74346834e-02 +1.41179070e-01 +3.59872207e-02 +1.25638634e-01 -1.13187097e-01 +3.07491928e-01 -1.89244002e-01 -8.20158720e-02 +8.76852512e-01 -5.98804280e-02 -5.39256632e-02 -1.95316255e-01 -1.64681152e-01 +4.50381152e-02 -2.00505018e-01 -1.24502532e-01 -1.10830612e-01 -1.13527536e-01 +8.45032707e-02 -4.58889501e-03 -3.07863373e-02 +2.15522230e-01 +8.35867226e-03 -1.13938317e-01 +6.62425086e-02 +2.19709769e-01 +5.54936267e-02 +1.14100397e-01 -1.78525776e-01 -1.21241748e-01 -5.69529571e-02 +1.38503611e-01 -3.60244177e-02 +1.05608948e-01 -1.31560734e-03 +1.50208175e-01 +5.39826155e-02 -8.88627842e-02 -1.18210308e-01 -2.33816177e-01 +1.31551668e-01 +2.42190268e-02 -1.08340487e-01 +3.10506761e-01 +2.37689123e-01 -1.31701648e-01 -8.31814706e-02 +3.38166714e-01 +1.56247884e-01 +2.73000836e-01 -1.10650815e-01 -8.53380263e-02 -2.64209881e-02 +2.43597478e-01 -8.33286569e-02 -2.35087276e-02 +5.90159744e-02 -1.81870937e-01 +4.33075517e-01 -8.38671550e-02 +2.97971871e-02 -2.85593241e-01 -2.15687484e-01 +1.31278425e-01 -3.31147701e-01 -1.24054156e-01 -8.37044790e-02 +7.23157972e-02 +3.62563990e-02 +3.35858613e-01 -8.69604349e-02 -7.79842064e-02 +5.61167635e-02 -2.72971801e-02 +1.83680683e-01 +1.03151493e-01 -6.19675545e-03 -7.99394175e-02 +1.03052095e-01 -1.32089674e-01 +4.77397665e-02 -5.23715541e-02 +2.70846248e-01 -9.14598554e-02 +2.51137596e-02 +2.85360012e-02 +6.25107763e-03 +7.78641254e-02 -1.43740140e-02 -3.49451713e-02 +2.45033741e-01 -2.31916696e-01 +2.45728076e-01 +8.46318901e-02 -3.02011460e-01 +1.11750022e-01 -2.50938892e-01 +2.16679230e-01 +8.29033926e-02 -1.63777798e-01 -8.88126120e-02 -3.24148796e-02 +1.10259376e-01 -6.48859143e-03 +3.44781019e-02 -5.18396869e-02 -3.30904545e-03 -7.42795169e-02 +8.24362814e-01 -9.97903943e-03 -2.72654533e-01 +1.21993758e-02 -1.44615456e-01 +1.25616536e-01 -1.12999231e-02 -1.57277495e-01 +2.25475580e-02 -2.08536200e-02 +5.93353622e-02 +2.07515627e-01 +5.62277734e-02 -2.05997564e-02 -1.17826588e-01 -1.77366182e-01 -1.87726095e-01 +1.64881200e-02 +6.69425279e-02 +7.82926381e-02 +2.19050739e-02 -3.46081465e-01 -1.92150891e-01 +7.80907422e-02 -3.96735314e-03 -1.79584131e-01 -1.93529993e-01 -2.47218460e-03 -2.86433250e-01 -2.87736654e-01 -1.97779626e-01 -1.22606829e-01 +3.05148177e-02 -1.04804121e-01 +1.29229978e-01 +3.75982584e-03 -2.49815285e-01 +1.24771968e-02 -7.16573447e-02 +1.04230568e-01 +1.09380521e-01 -3.75251435e-02 -8.10323805e-02 +3.16560939e-02 +3.90494391e-02 -1.10968746e-01 -1.61045462e-01 +6.89262077e-02 +5.80223091e-02 +2.52248626e-02 +3.06833923e-01 -1.61377147e-01 -1.78882003e-01 -2.74605662e-01 -6.21791855e-02 +6.87308563e-03 -2.74356753e-01 +5.85348308e-02 +1.56534150e-01 -6.86706305e-02 -2.90586855e-02 +6.73205554e-02 -1.80268347e-01 +8.90486166e-02 -2.02153251e-01 -1.35958329e-01 +1.18857354e-01 +3.45229089e-01 -8.87984931e-02 -2.23297715e-01 +1.33231252e-01 -1.70044586e-01 +6.36364296e-02 -1.96121007e-01 +1.09184392e-01 -3.30143720e-01 -1.89644188e-01 -1.57155082e-01 -7.00691193e-02 -7.54775479e-02 -1.33555740e-01 -1.16029359e-01 +1.07960597e-01 -1.13006823e-01 +3.17184739e-02 -1.19076036e-01 -1.68053493e-01 -6.26250133e-02 -2.38467529e-01 +1.39850095e-01 -2.82942742e-01 -1.26342941e-02 -2.05898210e-02 -8.56038928e-02 +6.61526620e-02 +8.04702044e-02 +5.57126589e-02 +1.45812362e-01 +4.95054349e-02 +7.17020929e-02 -2.44633228e-01 +1.30240554e-02 -8.32555629e-03 -2.22143009e-01 -5.24893627e-02 +9.65104345e-03 -7.65566528e-02 -3.32070179e-02 -6.61211684e-02 -2.22627819e-02 +2.42687464e-01 -2.34001920e-01 +9.27614421e-02 +2.18254730e-01 -2.92054445e-01 +3.83579917e-03 +6.69159219e-02 +1.85021862e-01 +7.85429403e-02 -4.16724794e-02 +1.28549024e-01 -8.53900611e-02 -1.59056127e-01 +6.72077462e-02 -2.93939821e-02 -1.30876347e-01 -1.17737137e-01 -2.11961225e-01 -2.15545923e-01 -1.43989861e-01 -1.36924922e-01 -2.31792286e-01 +5.32948710e-02 -9.08963904e-02 -7.56094456e-02 +1.52328894e-01 +2.13756915e-02 -7.90218264e-02 -1.80763543e-01 -2.34378669e-02 +2.79492401e-02 +1.60811812e-01 +4.13206443e-02 +1.43911034e-01 +2.89664883e-02 -1.40698895e-01 -8.43248814e-02 -4.12071608e-02 +5.32534197e-02 -2.16602355e-01 -3.77887487e-02 -2.72092298e-02 -1.26810104e-01 -1.41248833e-02 -2.86475360e-01 -2.56773699e-02 -7.31225535e-02 +9.76488888e-02 -1.76672384e-01 -5.10538109e-02 -5.58031797e-02 +1.40024528e-01 -4.27164584e-02 +7.71350861e-02 -1.28668332e-02 -1.63911745e-01 +3.24897230e-01 -1.23136401e-01 -4.00365219e-02 +1.93208665e-01 -1.74885467e-01 +1.62039235e-01 +2.22067162e-01 -4.15439084e-02 -3.74426514e-01 +4.97322008e-02 -2.35659376e-01 -2.23510846e-01 +3.79781239e-02 -3.93501297e-02 +1.75102025e-01 -2.41757147e-02 -5.20274751e-02 +2.80979246e-01 +1.16544649e-01 +9.02674869e-02 +2.59974569e-01 -7.06280246e-02 -7.56538212e-02 +3.79326463e-01 +1.42767936e-01 +1.23919159e-01 +1.98951915e-01 +1.33925781e-01 -1.32152468e-01 +3.29293370e-01 -1.56815704e-02 -3.09193701e-01 +1.51557267e-01 +1.52398571e-01 -3.94783646e-01 +2.65930802e-01 -1.38708621e-01 +9.79163721e-02 +1.97099119e-01 +8.23472813e-02 +1.02889843e-01 +1.30181005e-02 -1.93210691e-01 -5.14745153e-03 +1.41842872e-01 +3.56447212e-02 +1.30442336e-01 -2.05738083e-01 +1.57811090e-01 +4.68463562e-02 -4.02767181e-01 +1.38076410e-01 +1.76696107e-01 -2.70217061e-01 +1.61772013e-01 +1.55011356e-01 +1.36685163e-01 +3.89719903e-01 -1.92516416e-01 -5.68525866e-02 -5.41160554e-02 -1.02238797e-01 -1.68654814e-01 +9.96987745e-02 -5.33321761e-02 +5.62617276e-03 -1.91348165e-01 +2.51720250e-01 +6.20573349e-02 +4.43242162e-01 +3.10891926e-01 +1.68112040e-01 +2.29658082e-01 +1.97438493e-01 -3.36849280e-02 -1.14970759e-01 +1.83159620e-01 -9.21340659e-03 -5.69499917e-02 +1.88854441e-01 -2.30321914e-01 -2.10721307e-02 +1.58832982e-01 -8.81213322e-03 +1.49185479e-01 -1.94024909e-02 +1.00493610e-01 +4.05546129e-02 +1.22384187e-02 -1.69668078e-01 -9.52264369e-02 +9.07834843e-02 +1.92113936e-01 -8.80274996e-02 +2.44071260e-01 -3.16336274e-01 +8.56639817e-02 +9.88737494e-02 -9.33146253e-02 -2.81154007e-01 -1.16546489e-01 -2.86434412e-01 -9.55061894e-03 -5.87007143e-02 -1.66750282e-01 -2.27584586e-01 -2.47678205e-01 -2.11086899e-01 -7.37386867e-02 -1.58288822e-01 -2.92545676e-01 -2.03218192e-01 -3.74117941e-01 -5.13530001e-02 +2.09863737e-01 -1.11508094e-01 -2.75556237e-01 -8.66453350e-02 +4.18657921e-02 -1.84428111e-01 -2.73544908e-01 -2.20438629e-01 +1.75888106e-01 +5.88671975e-02 -1.10323168e-01 -3.11048418e-01 -3.19067627e-01 -9.58092064e-02 -1.44698530e-01 +3.68152261e-02 -1.57354604e-02 -1.06679149e-01 +7.99132884e-02 -5.34267306e-01 -2.06525266e-01 -4.02444184e-01 -2.34725326e-01 -1.08456381e-01 -1.27673104e-01 -2.32555538e-01 -2.45249003e-01 -2.62342840e-01 -1.23050503e-01 -2.18495861e-01 +1.62240248e-02 -4.90219034e-02 -1.74467191e-01 -2.27124020e-01 -1.39912352e-01 -4.57384974e-01 -2.84645885e-01 +3.27641815e-01 -4.45645452e-02 +3.38224769e-02 -1.81185097e-01 +9.15220603e-02 -7.87058100e-02 -1.70944229e-01 -5.18028378e-01 -2.03697592e-01 +1.52464285e-01 +1.25956237e-01 +6.31097630e-02 -4.72583979e-01 -4.25010175e-02 -3.31714123e-01 -6.04164191e-02 -4.40521576e-02 -2.43294075e-01 -2.92968631e-01 -1.97574377e-01 -2.83270210e-01 -1.21351562e-01 -7.08519667e-02 -2.29117349e-01 -3.53267759e-01 -2.42566112e-02 -3.63065153e-01 -3.58772874e-02 +9.59679186e-02 -6.75325692e-02 -2.76982039e-01 -1.45726532e-01 -7.69663900e-02 -5.06844670e-02 -5.42348810e-02 +6.92915544e-02 -1.45839959e-01 +1.98139593e-01 +7.10473508e-02 -3.98048520e-01 -2.23795339e-01 -1.34321870e-02 -2.62118280e-01 -2.38581449e-01 -3.89645517e-01 +1.44731645e-02 -1.60895243e-01 +6.17931262e-02 +2.90983260e-01 -2.95639038e-02 +2.31434479e-02 -7.27571398e-02 +9.91444662e-02 +1.21326223e-01 -2.23405231e-02 +3.46794762e-02 +3.30744505e-01 +1.51527867e-01 +1.43869162e-01 -3.16511355e-02 -7.86573812e-02 +2.23264739e-01 +2.03443483e-01 +3.26583475e-01 -4.23340887e-01 -7.96344206e-02 +1.75552696e-01 +1.22774959e-01 -7.44507685e-02 +5.12246639e-02 -1.24159068e-01 -1.84075665e-02 -4.48163562e-02 -5.75147644e-02 -6.34441003e-02 -1.59153298e-01 -1.07304208e-01 -9.81938690e-02 +7.43052810e-02 -3.11624240e-02 -6.21259697e-02 +1.34282634e-01 +2.16913834e-01 +6.34597316e-02 +1.69594176e-02 +1.47443518e-01 -2.68203225e-02 +2.58065686e-02 +3.84948365e-02 -7.90855289e-02 -2.86999345e-01 +5.48473448e-02 -9.49753672e-02 +1.60431549e-01 -2.47942150e-01 -8.27935785e-02 -5.35751507e-02 +3.23569076e-03 +5.83360307e-02 +2.57237643e-01 +1.42363936e-01 +1.27217531e-01 +1.48850843e-01 -2.47662216e-01 +1.85029626e-01 -6.08309880e-02 -1.83545858e-01 -8.06181431e-02 -1.08857015e-02 +5.99520691e-02 +4.13293391e-02 +2.05292881e-01 -3.12777907e-01 -4.94404100e-02 -1.92427784e-01 -3.58446985e-02 +5.49823744e-04 -6.22522719e-02 -1.50597557e-01 -1.49245217e-01 -7.83036947e-02 -1.40287902e-03 -3.04572731e-02 +1.24385148e-01 +2.78901070e-01 -1.01048917e-01 +1.43556548e-02 +3.10836732e-01 +2.53249198e-01 +3.97575758e-02 -1.37460902e-02 +7.33413622e-02 +5.11816936e-03 +2.03702554e-01 +9.67186764e-02 +2.30937600e-01 -1.41649604e-01 +1.73342079e-01 +3.75213549e-02 +1.44232556e-01 +5.97478673e-02 +3.53100955e-01 +3.06789368e-01 -8.52643512e-03 -7.60546699e-02 -1.67397007e-01 +1.45638257e-01 -2.90734917e-02 +4.97749634e-02 -6.67139590e-02 -2.33683392e-01 -8.13454762e-02 -1.16219446e-02 +6.64204136e-02 -4.07317430e-02 -2.12934509e-01 +8.27852413e-02 -2.70382315e-02 -8.65459144e-02 -5.02841733e-02 +1.68624183e-03 +2.45240796e-02 -6.35693446e-02 +2.87185907e-01 -2.85377562e-01 -1.16010629e-01 -2.91408077e-02 -1.61238119e-01 -3.00779849e-01 -2.13176385e-01 -3.27700794e-01 -9.04327258e-02 +2.06159949e-02 -5.48902079e-02 -1.02723636e-01 -2.36230552e-01 -1.30401224e-01 -3.20448689e-02 +9.44555402e-02 -3.36888023e-02 -1.03620306e-01 +4.53355610e-02 +2.40957856e-01 -7.39924386e-02 -1.08314849e-01 +5.95288090e-02 -1.93147108e-01 +1.84418842e-01 +2.74200030e-02 -2.11116478e-01 -3.09622169e-01 +7.28591233e-02 +3.21002007e-02 -2.15401873e-02 -3.22177112e-01 -1.38206065e-01 -2.62959301e-01 -5.01361042e-02 +3.56651992e-02 +1.75670072e-01 +5.64488582e-02 -1.88405216e-01 -1.93211317e-01 -2.16989174e-01 +8.12154040e-02 -2.38963813e-01 -9.03580412e-02 -1.66686594e-01 -7.34242722e-02 +1.54970005e-01 -1.67689338e-01 -5.71592012e-03 -3.35375458e-01 -2.50312924e-01 -3.27833414e-01 -8.37384090e-02 -2.02155203e-01 -9.35245976e-02 -1.42275497e-01 -2.07352087e-01 -2.04311371e-01 +1.01782382e-01 -3.00509185e-01 +1.63806118e-02 +8.35204870e-02 -2.40712106e-01 +1.61651745e-02 +4.21963185e-01 +1.89247988e-02 -1.42342925e-01 -2.22727329e-01 -1.35465577e-01 +6.30270466e-02 +2.46718042e-02 +1.66158766e-01 -1.07323453e-01 -2.48394653e-01 +8.95664766e-02 -1.68229863e-01 -8.14561080e-03 -9.63888615e-02 -8.36237296e-02 +2.86709398e-01 +1.00218274e-01 -6.74242452e-02 -6.42886609e-02 +5.68230785e-02 -1.67185497e-02 -6.28503859e-02 -2.63004517e-03 -3.92390601e-02 -1.48464426e-01 -1.73987851e-01 -4.65519615e-02 -7.84588233e-03 -3.73579040e-02 +1.21088482e-01 +4.65249084e-02 +1.23057097e-01 +1.87801778e-01 +4.51954640e-02 -7.36577483e-03 -1.91718102e-01 -1.64319519e-02 -1.20276846e-01 +6.61773458e-02 -2.95466721e-01 -3.80993113e-02 -4.52016219e-02 +2.94329599e-02 +1.72202494e-02 +5.09283766e-02 -1.23894796e-01 -1.07018754e-01 -1.97812542e-01 +1.00682201e-02 -3.95444930e-02 +1.54664725e-01 -1.39963493e-01 -1.21208290e-02 +4.89870012e-02 +5.92192486e-02 -1.17476255e-01 -1.55183703e-01 -4.66948608e-03 -1.61672048e-02 -1.56103909e-01 +1.69558898e-01 -2.30560213e-01 -7.26358518e-02 +4.29722369e-02 +1.44243076e-01 -2.78838221e-02 +1.48211848e-02 +1.10954151e-01 -1.98816031e-01 +4.78264242e-02 -1.96646452e-02 +1.34000376e-01 +9.29005593e-02 -5.87521084e-02 -7.10032359e-02 +6.28610030e-02 +1.51420116e-01 -2.28195950e-01 -1.12178914e-01 +2.62839943e-02 +1.99408047e-02 +3.58223990e-02 +3.40938643e-02 +2.88446486e-01 +1.10159524e-01 +2.61237714e-02 -4.54877540e-02 +3.13668065e-02 -2.81342044e-02 +1.24351770e-01 -3.39330547e-02 -2.00083017e-01 -2.71360353e-02 +1.46402968e-02 +1.83019847e-01 +8.46724510e-02 -9.92687345e-02 +3.14806141e-02 -1.37565747e-01 +1.74624860e-01 +2.37595756e-02 -2.44647965e-01 +1.93826426e-02 -2.87395939e-02 +6.52856529e-02 +1.35728508e-01 -1.39541058e-02 -8.01493078e-02 -3.90129648e-02 -1.83542490e-01 +3.55542339e-02 +5.25692627e-02 -8.18685219e-02 -1.47393644e-01 -2.26277202e-01 +3.68313938e-02 +5.58244810e-02 +3.31382500e-03 -2.53755033e-01 +6.53878450e-02 +4.53799292e-02 +1.92406982e-01 -3.94156277e-02 -2.36073043e-02 +9.91552249e-02 +1.16979718e-01 -3.67768817e-02 +1.04500026e-01 -3.10741477e-02 +2.38569796e-01 +2.64310956e-01 +6.31616339e-02 +1.32003382e-01 -1.31567493e-01 -5.47891529e-03 -6.99699223e-02 -6.55933172e-02 +2.61326246e-02 +4.22669649e-02 -7.06180260e-02 +5.29560912e-03 +2.02978440e-02 +1.73545271e-01 +1.17663607e-01 -1.49124965e-01 -1.12010986e-01 -1.06513925e-01 +2.78565079e-01 -8.62585232e-02 -7.47917667e-02 -2.69407853e-02 +1.98205840e-02 +8.51176977e-02 -1.37518376e-01 +4.95306365e-02 +1.72449902e-01 +1.46911889e-01 +1.13285676e-01 +1.86045796e-01 -3.82389277e-02 -1.75028428e-01 +4.47470397e-02 +1.68099180e-02 -1.29058152e-01 +2.46305734e-01 -4.78708409e-02 -5.88333085e-02 -1.33165956e-01 +1.01401553e-01 -1.15463816e-01 +6.35378137e-02 +1.46163374e-01 +3.99416238e-01 -1.33472204e-01 +2.27353685e-02 +9.94150639e-02 -3.78752984e-02 +1.65486172e-01 -4.66115810e-02 +4.50427905e-02 -2.22986132e-01 +1.39436750e-02 +2.89082192e-02 -1.48549736e-01 -1.01595648e-01 +6.10713474e-02 -1.85216054e-01 +1.20511018e-01 -1.14171855e-01 +3.81939299e-02 +6.07480630e-02 +5.95386326e-02 -4.46668640e-02 +5.58888428e-02 -1.50734276e-01 +8.35905224e-02 +1.45159870e-01 +3.01592976e-01 +1.72918320e-01 +1.61281303e-02 +2.30671123e-01 +1.91200376e-01 -6.38877228e-02 -1.05557173e-01 +1.46163300e-01 -1.75698966e-01 +6.40678704e-02 -3.36746946e-02 -1.36656165e-01 -1.08935781e-01 +6.65043220e-02 -1.14346422e-01 +9.87037867e-02 +1.10394927e-02 +1.04267165e-01 -9.93200764e-03 -2.52279676e-02 +2.12084427e-01 -1.23355468e-03 -2.90639907e-01 +1.16672004e-02 -1.65639728e-01 -1.90458238e-01 -1.50194904e-02 -7.20727444e-02 -5.13367206e-02 +4.26898077e-02 +1.81232944e-01 +3.25619318e-02 +1.18358485e-01 +5.19276522e-02 -1.83625713e-01 +2.45019291e-02 +7.12567428e-03 +1.02383696e-01 +6.07458763e-02 +8.79165605e-02 +1.11261435e-01 -1.04832314e-01 -4.06655259e-02 -5.44886515e-02 +7.52725676e-02 -5.20976707e-02 -7.45738745e-02 -6.01765653e-03 +1.31133765e-01 +1.36602044e-01 +1.89934358e-01 -2.26210698e-01 +1.19720362e-01 -9.16547328e-03 +1.26060829e-01 +1.91606954e-01 -2.62745887e-01 +1.49622381e-01 -7.99268410e-02 +7.55519718e-02 -1.97352208e-02 +2.01060697e-01 -1.19360331e-02 -4.34455238e-02 +1.98477730e-02 +3.14620230e-03 -1.24629371e-01 +2.17271931e-02 -6.21283427e-02 +1.11459948e-01 -4.81575578e-02 -8.02626908e-02 -5.28945066e-02 +5.12938909e-02 +4.34219930e-03 +3.83885503e-02 -1.56086916e-02 -1.66317187e-02 +8.72623175e-03 -1.04329936e-01 +1.75179750e-01 +6.92008622e-03 +8.89584944e-02 -1.87778533e-01 -3.59361917e-02 -2.63843182e-02 -6.19796254e-02 -7.46446028e-02 -3.66907790e-02 -1.60648242e-01 -1.36554152e-01 -1.02706738e-01 +5.81690520e-02 +2.03857180e-02 +1.13755979e-01 +4.67119366e-02 -5.57774119e-03 +1.60859451e-01 -1.03651039e-01 +3.91259044e-02 +1.82078987e-01 +1.25485644e-01 -1.09595612e-01 +1.12521499e-01 +1.01596095e-01 +9.76260379e-02 +5.06840013e-02 +1.32341325e-01 +6.57820627e-02 +2.12889388e-01 +2.80813947e-02 -8.92957747e-02 +4.87584174e-02 -2.31084023e-02 -4.59945481e-03 +1.04974406e-02 +2.30324537e-01 +1.09773204e-01 -1.20605007e-01 -1.88023709e-02 +3.97879072e-02 -4.81589809e-02 -5.62461130e-02 -4.73331176e-02 +1.42910909e-02 -2.16494128e-02 -1.66058630e-01 +1.13712348e-01 -2.41819564e-02 +7.67655149e-02 +7.06973895e-02 -7.49834850e-02 +1.56457797e-01 +1.75080881e-01 -1.14143707e-01 +5.91846295e-02 +7.70937800e-02 +4.27053170e-03 -3.57277691e-02 +1.13769965e-02 +1.80356592e-01 -5.17012365e-02 +1.38053261e-02 +8.09194818e-02 +1.21451527e-01 +1.36270653e-02 +8.06702152e-02 -4.70396318e-02 +6.71722367e-02 +2.56110847e-01 +2.76216745e-01 -1.05844699e-01 +2.01630205e-01 +1.28460541e-01 -7.46789873e-02 +2.29917616e-01 -1.32671759e-01 -1.38562480e-02 +4.54307757e-02 +1.64213866e-01 +1.02054797e-01 +4.44924049e-02 +4.17565145e-02 -9.17710066e-02 -1.05932534e-01 +4.24550734e-02 -9.45686996e-02 -3.81318405e-02 -6.88194297e-03 +1.45944934e-02 -9.01036337e-02 +1.36988610e-01 -8.63239821e-03 +6.43105013e-03 -2.31573340e-02 +4.12914418e-02 +6.70852214e-02 -4.34089685e-03 +2.19178110e-01 +3.26854438e-02 +1.80795804e-01 -1.25681609e-01 +1.27695486e-01 -2.06441373e-01 +7.29179680e-02 -1.14739142e-01 -1.05648175e-01 +6.94687739e-02 -1.30138800e-01 +4.44497354e-03 +1.42447710e-01 -4.46058922e-02 +7.02089667e-02 -1.34186745e-02 -4.31339294e-02 -1.35997042e-01 +2.89150588e-02 +7.60821998e-02 -5.69184348e-02 +1.28246084e-01 +1.53494895e-01 +3.26847345e-01 +5.32885864e-02 +5.77727780e-02 -1.27043188e-01 +1.05289683e-01 +4.72337306e-02 -6.85830116e-02 -7.24966750e-02 -8.04506615e-02 -2.00071871e-01 -1.37689069e-01 +4.13030153e-03 +2.21968874e-01 -1.21183120e-01 -3.42217647e-02 +1.74386188e-01 +1.93079054e-01 +6.71450198e-02 +4.51330878e-02 -5.41032329e-02 +2.56613217e-04 -1.07705705e-01 -6.49055541e-02 +9.12889317e-02 -1.40964389e-02 +1.88020229e-01 +2.85180867e-01 -9.54479873e-02 +1.23706281e-01 -2.13528685e-02 -1.94294468e-01 +1.49905860e-01 +2.26615980e-01 +1.81439742e-01 +2.11393595e-01 -1.57664016e-01 +9.08628553e-02 -7.28623420e-02 +1.52289420e-02 +1.70335039e-01 -2.24350318e-01 +1.16428509e-01 +7.61606619e-02 +1.66494608e-01 -1.34082705e-01 +2.37774581e-01 -2.29791760e-01 +8.89872201e-03 +6.37296261e-03 -2.31807992e-01 +5.88378608e-02 -6.69033974e-02 +1.70560461e-02 -1.43673137e-01 +1.60053715e-01 +1.72285996e-02 +1.24453612e-01 -2.27082521e-01 -6.54154494e-02 +3.89709361e-02 +6.64437935e-02 -8.98654312e-02 +5.07319495e-02 -8.13561454e-02 +3.35772149e-03 -1.41698241e-01 +9.52319130e-02 -1.36329070e-01 +7.18056038e-02 -1.54394001e-01 +1.80132359e-01 +1.21505320e-01 -1.68849051e-01 +2.69756019e-01 +2.73720562e-01 +1.19901635e-01 -3.22301500e-02 -3.83225195e-02 -2.35508934e-01 -1.94362894e-01 +3.39456052e-02 -2.40753621e-01 -2.25294149e-03 +1.23534918e-01 -6.31644279e-02 -2.10243002e-01 -2.33185351e-01 +3.65241691e-02 +8.18989128e-02 +3.44618469e-01 -8.42550099e-02 -1.25301287e-01 -2.42299110e-01 -5.44762649e-02 +4.75411899e-02 +1.31819874e-01 +9.97854024e-02 -2.82284975e-01 +2.68703885e-03 +2.58473635e-01 -2.56603658e-01 -6.85653985e-02 -6.00458831e-02 -5.53297363e-02 -2.65628286e-02 -3.26562114e-02 +6.73545152e-02 +3.16708572e-02 +1.52286798e-01 +3.49201187e-02 -1.39611900e-01 +6.70209825e-02 -2.24083990e-01 -3.45168114e-02 -2.72555351e-01 -1.01208478e-01 -4.88322377e-02 +1.34730190e-01 +1.06622614e-01 +2.33322620e-01 -5.03376173e-03 -4.88722958e-02 -1.28126726e-01 +1.72343716e-01 -9.23607349e-02 +4.54416499e-03 -1.68063805e-01 -2.45425165e-01 -4.21626121e-02 -1.14162825e-01 -3.01619202e-01 -2.09042713e-01 -2.48248074e-02 -2.03095302e-01 +8.26254711e-02 -4.07890193e-02 -1.27811143e-02 -5.81376404e-02 +3.91473658e-02 -1.02148563e-01 -3.39007415e-02 -2.27262348e-01 -1.11150682e-01 -2.43987203e-01 -8.86672456e-03 -1.07708305e-01 -1.44487955e-02 -7.64275044e-02 +1.22840576e-01 -1.30743712e-01 -2.29766890e-01 -4.83431071e-02 -1.06310703e-01 -5.88300861e-02 +1.70168042e-01 -5.08236960e-02 +7.57747963e-02 -1.48343071e-02 -2.82398641e-01 -2.41265893e-01 -5.52368797e-02 -2.01449841e-01 -1.64298132e-01 -3.97453532e-02 -6.94216117e-02 -2.04812631e-01 +3.46561102e-03 -6.50688484e-02 +6.75946148e-03 -2.52208114e-01 -1.23127855e-01 -1.87739313e-01 -8.32614489e-03 -1.57703012e-01 -1.61325887e-01 +7.08335340e-02 -8.66062474e-03 -7.26352483e-02 +7.12900311e-02 -4.04856391e-02 -2.05407843e-01 -6.26900271e-02 -2.93663949e-01 +5.93299381e-02 +4.33631651e-02 -1.88143730e-01 -1.13737792e-01 -1.40219018e-01 -1.22846536e-01 -1.89935878e-01 -1.90056026e-01 -9.20925811e-02 -6.33138651e-03 -2.35777259e-01 -7.00930953e-02 -1.80845186e-02 -5.96086085e-02 +1.43629894e-01 -9.53907147e-02 -2.93892976e-02 -4.25189406e-01 -4.87091094e-02 -7.05687795e-04 -2.15168059e-01 +5.39204553e-02 -4.82457690e-02 -1.54630020e-01 -4.11899295e-04 -1.29310042e-01 +3.62176150e-02 -1.11451454e-01 -8.03840756e-02 +1.23058565e-01 -5.82426507e-03 +6.02342002e-02 -2.54948795e-01 -1.41680762e-02 -5.45428433e-02 +4.52425070e-02 -1.96753249e-01 -2.14166924e-01 -1.52273057e-02 +5.01088751e-03 +2.04062700e-01 -7.12976558e-03 +3.83715034e-02 +1.17129907e-01 -2.11766781e-03 +1.02969371e-01 +5.55871576e-02 -2.62086898e-01 -1.45974290e-03 -1.21045634e-02 +8.82153139e-02 +2.36565787e-02 +6.76227883e-02 -9.28174332e-02 +9.12833139e-02 +1.65565968e-01 -1.74812913e-01 -1.92096993e-01 -9.28706303e-02 +2.12826371e-01 +5.66491969e-02 -2.93494076e-01 -8.77407491e-02 +1.50752254e-02 +7.24998415e-02 +5.17127737e-02 +8.59586820e-02 -1.09256193e-01 -1.14304341e-01 -6.31899908e-02 +4.89020012e-02 +1.70927688e-01 +1.99919820e-01 -8.00654516e-02 -4.10239547e-02 -1.88446149e-01 +1.77042440e-01 +1.62780634e-04 -4.42635752e-02 +1.90134704e-01 +2.62555853e-02 +9.56019163e-02 +5.39581105e-03 +1.65821508e-01 -5.42763434e-02 +7.86823630e-02 -8.44001472e-02 +2.10922714e-02 -1.06771834e-01 -4.09279130e-02 -1.16655290e-01 +9.54414234e-02 +3.48505527e-02 -9.99606308e-03 -1.50749117e-01 +1.38472505e-02 +9.12396014e-02 -1.62273616e-01 -1.11302607e-01 +6.59989705e-03 +2.21394207e-02 -7.68703315e-03 -2.37458572e-02 -8.25376585e-02 +4.28083539e-02 -1.12722732e-01 -5.86774461e-02 -7.41670653e-02 +1.02928683e-01 -7.84064829e-02 -2.07704663e-01 -3.76739830e-01 -1.34416506e-01 +5.23769930e-02 +6.72785491e-02 -8.17348659e-02 +7.35651180e-02 -1.94078833e-01 +5.71996234e-02 +8.26260000e-02 -9.80337262e-02 -1.60728306e-01 -1.22204907e-01 -1.91059578e-02 -4.92931195e-02 -1.52754813e-01 -1.65599659e-01 +1.82810239e-03 -2.86392182e-01 -1.83085352e-02 -3.85437906e-02 -8.15116167e-02 -1.72434136e-01 -6.09807149e-02 +8.89470335e-03 +9.52410232e-03 -1.28883928e-01 +3.87463793e-02 +1.18052334e-01 -1.24059081e-01 -3.56759168e-02 -4.82018441e-02 -2.44506598e-01 +9.92810726e-02 -1.68274090e-01 +6.48209378e-02 +9.83012095e-02 -8.66577700e-02 -5.91802076e-02 -2.43802175e-01 -5.46510108e-02 -8.08792487e-02 -2.98880804e-02 +1.43204182e-02 -2.60934919e-01 +9.86311119e-03 -2.05184951e-01 -2.11362496e-01 -3.06741178e-01 +2.20819321e-02 -7.49848187e-02 -2.76964065e-02 -7.68816695e-02 +4.29861173e-02 +1.22751901e-02 -6.11370131e-02 +1.37861799e-02 -1.75421581e-01 -1.46181151e-01 -1.01448141e-01 -1.82190701e-01 +2.25806370e-01 -1.11146599e-01 -4.65788282e-02 -1.06433325e-01 +2.59772036e-02 -2.01844260e-01 -1.05684474e-02 -3.30134556e-02 -8.09217617e-03 +3.91413160e-02 +1.23721480e-01 -9.21944156e-02 -1.50840264e-02 -1.47658750e-01 +7.14729056e-02 -1.76212743e-01 +7.88762271e-02 -1.45180866e-01 +6.00472502e-02 -4.47853282e-02 -9.48667303e-02 -8.72727260e-02 +6.17175661e-02 -1.15576051e-01 +4.25838195e-02 +6.35509146e-03 -2.12747023e-01 -6.59883991e-02 -1.90846294e-01 +4.17271070e-02 +9.21275169e-02 -3.54616821e-01 +8.44342783e-02 +7.69815668e-02 +7.72230327e-02 -1.15740694e-01 -8.44880268e-02 -1.14370339e-01 -1.31062746e-01 -5.37368432e-02 -2.29887724e-01 -2.27040559e-01 +2.62882840e-03 -9.95000303e-02 -1.22048527e-01 -2.88205862e-01 -3.20333451e-01 -2.08289772e-01 +1.28079146e-01 -1.62575707e-01 +3.17539088e-02 -1.59236655e-01 -9.50123593e-02 +1.15175523e-01 -8.17425698e-02 -8.34225938e-02 -2.90608853e-02 -9.95751768e-02 +1.08655319e-01 +4.85079270e-03 -1.81620494e-01 -2.62624979e-01 -2.55614426e-02 -9.44048762e-02 -8.53698403e-02 -2.68148094e-01 -6.37763888e-02 +7.40981922e-02 -2.89911758e-02 +3.65803279e-02 -3.56476265e-03 +4.46966849e-02 -6.11586403e-03 +1.09459095e-01 +4.06127982e-02 -2.74556968e-02 +5.01020905e-03 +4.90000322e-02 +8.45270231e-02 -2.95542721e-02 +5.29005490e-02 -6.67798370e-02 +4.94638607e-02 -3.91392456e-03 -2.42782640e-03 -1.12943508e-01 -1.32936418e-01 -4.26508226e-02 +7.44686201e-02 +4.69888486e-02 +4.39101905e-02 -2.77654012e-03 -1.36354414e-03 +1.14977270e-01 -7.53476396e-02 -1.61623821e-01 -3.37830558e-02 -7.80375376e-02 +1.17082730e-01 +3.79082486e-02 +1.56032756e-01 +7.05900714e-02 +2.33640701e-01 -1.21290013e-01 -1.13428563e-01 -7.46103525e-02 +1.13820061e-02 -8.71361420e-03 -9.64923482e-03 -1.02846391e-01 -1.14826620e-01 -5.93663715e-02 +1.96915716e-02 -8.55529830e-02 +2.56925523e-02 -8.52786601e-02 -1.85790151e-01 -4.39284742e-03 -7.25466385e-02 +2.49550994e-02 -3.34948711e-02 +9.38405022e-02 -3.84016037e-02 +9.62413624e-02 +1.67216390e-01 -1.09146103e-01 -8.44922885e-02 -1.16306812e-01 +6.62672669e-02 -1.13804922e-01 +5.24220355e-02 -1.22969836e-01 -1.23166665e-01 -9.13769007e-02 -6.90709502e-02 -7.02749491e-02 -2.77929492e-02 +1.51156574e-01 -1.40494481e-01 -8.88028964e-02 +1.34924442e-01 -2.97396109e-02 +4.68727723e-02 -1.32567063e-01 -8.45761076e-02 +8.17062408e-02 -2.61059050e-02 -4.23186459e-02 -1.57252967e-01 -1.24767103e-04 +1.67066529e-02 -5.87821305e-02 +8.40678737e-02 +1.40981555e-01 -3.38104777e-02 -1.54061168e-01 +8.15964341e-02 +7.59899989e-02 +4.88917343e-02 -2.12844554e-02 -1.67524755e-01 -2.39630938e-02 -1.15198106e-01 -1.60556678e-02 +1.72261253e-01 -1.56219173e-02 +8.25736374e-02 +1.44907013e-01 -2.49821186e-01 -1.18521623e-01 -1.64273325e-02 -2.82674998e-01 +2.86107752e-02 -2.57690195e-02 +2.16715753e-01 +4.57676090e-02 -1.84238285e-01 -1.06732175e-01 +5.40739857e-02 -4.71588522e-02 +1.09430283e-01 -6.05159998e-02 -5.27587421e-02 +1.84651867e-01 -6.49927417e-03 -2.45830487e-03 -6.08999319e-02 -3.05405885e-01 -1.43525049e-01 -6.42708316e-03 -9.18954425e-03 -5.84817119e-02 -1.52702764e-01 +4.26819213e-02 -1.07233286e-01 +1.80758741e-02 +7.48336315e-02 +4.81391847e-02 -1.91076547e-01 -1.29934341e-01 +1.34130523e-01 +8.03225562e-02 -7.88323656e-02 -2.69056052e-01 -3.02846879e-02 -5.72556816e-02 -1.63744360e-01 +8.53696540e-02 -1.15508050e-01 -2.82311440e-01 -1.48316979e-01 -6.29932061e-02 -7.79229030e-02 -1.36751384e-02 +7.05634803e-02 -5.34092486e-02 -2.23412644e-02 -4.72569391e-02 +3.05308588e-02 -1.91171050e-01 -5.03240563e-02 +9.69375148e-02 +1.82744861e-01 +4.10881415e-02 +3.79153043e-02 -1.82971805e-01 -1.17769577e-01 +1.21729724e-01 -2.11089432e-01 -2.29759857e-01 -1.47968814e-01 -1.49565548e-01 -6.89330995e-02 -3.32635187e-04 -2.20243037e-02 +3.86655703e-02 -4.07160185e-02 +8.11070669e-03 -3.00167277e-02 +1.70661509e-01 -1.27682701e-01 +4.21232469e-02 -1.26502782e-01 +9.07857865e-02 +6.18221574e-02 +1.42652160e-02 -1.08440802e-01 +6.92452341e-02 +2.70978007e-02 -2.02219114e-02 +1.74201518e-01 -1.03378877e-01 -5.55478856e-02 -1.02481879e-01 +7.92267472e-02 -3.85790348e-01 +4.05138209e-02 -1.51096329e-01 -1.19147912e-01 -1.33723199e-01 -1.20616987e-01 +1.20214690e-02 +2.93232966e-02 -7.96003789e-02 -1.95728585e-01 -2.36903489e-01 +4.98029664e-02 -2.09454089e-01 +5.61650284e-02 +2.38033477e-02 -9.91837606e-02 -2.22786248e-01 +1.09960489e-01 +4.00312655e-02 +9.00294185e-02 -9.65888500e-02 -4.44941856e-02 +5.96940070e-02 +1.16938956e-01 -1.15679771e-01 +2.03817666e-01 +8.78986865e-02 -4.81628871e-04 +1.20831812e-02 +2.24642098e-01 +9.18214694e-02 -1.29356412e-02 -2.43735105e-01 -4.64648083e-02 -1.92407459e-01 +6.76473901e-02 -7.43710995e-02 +2.46651508e-02 +4.78300750e-02 +3.64102907e-02 +4.71943952e-02 -1.22527212e-01 -1.27893806e-01 +8.97713974e-02 +1.80648938e-02 -5.29718325e-02 +9.67047513e-02 +1.76706135e-01 -1.26010507e-01 -9.66323540e-02 -1.22876085e-01 -1.56323045e-01 +4.87793423e-02 +1.01033501e-01 +7.84912184e-02 -1.56435460e-01 -3.24670337e-02 -1.84044138e-01 -2.00437494e-02 +1.05490712e-02 +1.63134262e-01 +3.39157358e-02 -1.45989284e-01 +1.50799885e-01 -8.85436088e-02 +4.13791388e-02 +3.78637835e-02 +1.02605753e-01 -2.07189605e-01 +1.87613189e-01 -2.28610590e-01 -9.28480104e-02 +2.51489162e-01 -1.94147334e-01 -1.02866337e-01 -1.40296996e-01 -6.43121228e-02 -1.49726331e-01 -1.44604221e-01 -2.62946159e-01 +7.20619112e-02 -6.59738109e-02 +2.42407061e-02 -2.35477939e-01 +3.49715203e-02 -2.09656447e-01 +1.24515310e-01 -2.17785075e-01 +1.58367664e-01 -2.60112509e-02 +4.15518954e-02 -1.40989237e-02 +1.92277923e-01 +4.00760099e-02 -2.41351023e-01 +9.72475298e-03 +9.62292310e-03 +2.62092259e-02 -3.25952098e-02 +3.58858317e-01 -2.18621090e-01 +1.15314790e-03 -1.43140748e-01 +1.12102814e-01 -6.24005124e-03 -1.02244169e-02 -9.27530788e-03 +1.05425827e-01 +1.35786533e-01 -2.49853693e-02 +9.21306312e-02 +2.35795472e-02 -3.40943076e-02 -6.14778418e-03 +9.92766395e-02 -2.20012799e-01 -7.62720108e-02 -5.66947050e-02 -3.04121494e-01 +1.02874935e-01 -3.45528759e-02 +1.60749760e-02 -1.98004484e-01 -7.81677961e-02 -1.00673057e-01 +7.65037984e-02 +1.46227092e-01 +2.25080848e-02 +1.02192245e-01 +7.28875622e-02 +1.09628715e-01 -4.32256423e-02 -1.99062288e-01 -1.24595463e-01 +5.18962853e-02 +8.24322924e-02 -3.64487618e-02 -1.88242882e-01 -5.46163544e-02 -2.18005776e-01 +1.03465542e-01 -4.85838316e-02 -6.85993433e-02 -1.10031880e-01 -1.06714755e-01 -1.22712128e-01 -2.14535855e-02 -1.22263879e-01 +2.93934532e-02 -3.25938202e-02 -1.49177760e-01 -6.40637130e-02 +1.84157684e-01 -8.55337158e-02 -1.55540541e-01 -4.10685651e-02 +8.77402872e-02 -7.94492811e-02 -5.60965762e-02 -5.32023087e-02 +1.22217588e-01 -7.05526117e-03 -4.27869993e-04 -2.97933761e-02 +3.24461013e-02 +1.84752107e-01 -1.92195222e-01 -1.22115538e-01 -1.29421711e-01 +1.45101324e-01 +1.95703045e-01 -3.66694719e-01 +6.71316311e-02 -5.66291530e-03 -2.67176837e-01 -1.47498578e-01 -1.35903299e-01 -2.88486145e-02 -6.56402111e-02 -1.65185809e-01 +7.70558091e-03 -9.93333757e-02 +7.43013024e-02 -2.37726226e-01 +1.06895957e-02 -7.18785375e-02 +1.19527571e-01 -1.79546952e-01 +4.85966401e-03 +4.59656529e-02 -8.87751672e-03 -2.37335697e-01 +1.84605077e-01 +2.14046985e-01 +1.08079351e-01 +1.04109034e-01 +6.33731782e-02 -1.66420601e-02 -8.70692655e-02 +2.59685099e-01 -3.44799548e-01 -1.94344088e-03 -2.22606137e-01 -5.40297031e-02 -1.29664317e-01 -8.23527351e-02 -2.32577264e-01 +4.70768325e-02 +1.37458354e-01 -1.84593067e-01 -8.70034620e-02 +4.45415042e-02 -1.30090326e-01 -1.89615875e-01 -1.97921135e-03 -8.92072394e-02 +1.23121351e-01 -8.26243684e-02 -1.11740358e-01 +1.61436528e-01 -1.80165559e-01 -2.82224640e-02 +6.86111748e-02 -7.39845037e-02 +3.30922492e-02 +1.65300697e-01 +2.44327169e-02 +1.10268831e-01 -2.86746413e-01 +8.35328773e-02 +7.84900412e-02 -1.27217509e-02 -1.74032450e-01 +1.94675627e-03 +1.01044811e-01 +5.40655516e-02 -5.58674941e-03 +7.57181644e-02 +8.46955925e-02 -1.28875136e-01 -6.87141418e-02 -1.94003344e-01 -3.32328022e-01 +6.48515970e-02 +3.05705443e-02 +1.33643419e-01 +9.60579962e-02 -4.16208468e-02 -1.25137269e-01 +1.35113299e-01 +1.02482721e-01 +1.19623907e-01 -1.38030037e-01 +7.98239484e-02 -1.02548763e-01 +2.78863381e-03 +1.21989958e-01 +7.25990683e-02 +4.61240252e-03 +5.11536822e-02 -1.10775605e-01 +7.96085037e-03 -3.80200520e-02 -3.46447229e-02 +8.51381198e-02 +1.69383243e-01 -6.40802085e-02 +1.01123959e-01 +2.02570319e-01 -2.99511384e-02 -2.95468024e-03 -7.77618513e-02 -1.16145857e-01 +5.82010932e-02 -1.23549327e-01 -3.17837149e-02 +1.31448552e-01 +9.08082277e-02 -1.04384802e-01 +8.29748511e-02 -6.04779739e-03 -1.49702774e-02 +9.66443345e-02 -2.96554118e-01 -1.14992142e-01 -1.35888323e-01 +7.09827095e-02 +1.29270703e-01 -6.11807145e-02 -1.75005436e-01 +2.09522635e-01 +1.50277153e-01 -5.99969625e-02 -5.13805486e-02 -9.60232764e-02 +3.70807908e-02 -1.83801249e-01 +2.11366601e-02 +8.38245228e-02 +7.06764311e-02 -3.61928064e-03 +3.86693142e-02 -1.63161352e-01 +1.71981230e-02 -1.10303320e-01 -1.89528286e-01 -2.23899409e-01 -5.46277240e-02 +1.59297556e-01 +3.58565636e-02 +3.34533565e-02 -1.36443898e-01 -1.18111886e-01 -2.13019177e-01 +1.70161098e-01 +2.78192386e-02 +1.86090007e-01 -1.08915247e-01 -2.19704673e-01 +1.17467217e-01 -3.27724367e-02 +5.08388272e-03 -1.56895548e-01 -6.08305149e-02 -1.90031871e-01 -2.76701786e-02 -4.81485464e-02 +5.40863397e-03 -9.96304601e-02 -1.29106879e-01 -1.64945751e-01 -4.90849875e-02 -2.26083279e-01 +1.44694090e-01 -1.01664839e-02 -4.80000377e-02 +8.55705738e-02 -1.08229248e-02 +1.38037294e-01 +3.14470410e-01 -3.85556430e-01 -1.68933813e-02 -3.38078856e-01 -1.70491293e-01 -1.57425106e-01 +2.43490353e-01 -9.52519551e-02 -1.41958937e-01 -1.93236902e-01 -5.52026212e-01 -3.26895684e-01 -2.57724285e-01 -1.27884015e-01 +2.80404270e-01 +6.42396584e-02 -6.08382635e-02 -1.28255785e-01 -1.42634958e-01 -9.55315828e-02 +5.38505465e-02 -1.44198209e-01 -2.64101550e-02 -4.16021608e-03 +1.33338660e-01 -5.88257089e-02 -2.04061136e-01 +5.81921786e-02 -3.36385220e-02 -2.04750583e-01 -1.74952671e-01 -9.29640606e-02 -1.01141043e-01 -2.03450109e-04 +4.47303578e-02 -1.58118889e-01 +2.22335085e-02 -2.97680736e-01 -1.07914433e-01 +2.76226610e-01 -2.02975437e-01 -9.96734127e-02 -5.77350259e-02 +3.40693593e-02 -2.55152822e-01 -3.78711745e-02 -1.35138944e-01 +2.60402620e-01 -5.16243577e-02 -5.40200770e-02 -1.86668277e-01 -3.37822676e-01 -8.27094615e-02 +1.21228196e-01 -1.44227985e-02 +1.66739449e-01 +2.97289342e-01 -2.83566684e-01 -1.65071353e-01 -2.16359943e-01 -2.35362537e-02 -3.82659316e-01 +3.60218994e-02 -3.06495838e-02 +9.45615396e-02 -4.37252410e-02 +4.31141704e-02 -2.66070187e-01 -9.21107531e-02 -2.17831284e-02 -2.79781133e-01 +2.89309565e-02 -1.35351226e-01 +2.47617885e-01 -7.33403340e-02 +1.88816786e-01 +6.91235289e-02 +1.21458836e-01 -1.49515644e-01 -1.50794080e-02 +5.48868254e-02 +3.69993895e-02 -1.62957549e-01 -1.14797510e-01 +2.73977578e-01 -1.37739912e-01 +9.44548547e-02 -4.22304645e-02 +6.07985221e-02 +3.53744440e-02 +4.32796851e-02 -1.35617048e-01 +4.09762710e-02 -7.57069513e-02 +2.15658501e-01 +8.37309472e-03 -1.97092444e-02 +3.17999721e-02 -7.87870958e-02 -1.93680655e-02 +1.10750161e-01 -1.33091033e-01 -1.29053026e-01 -7.51203224e-02 -8.85333195e-02 +5.76047525e-02 +1.99597683e-02 -1.19861588e-02 +1.25129148e-01 +5.34878112e-02 -2.10820779e-01 -6.99261017e-03 +2.43799109e-02 +9.94597003e-02 -1.25945807e-02 +7.66236742e-04 -1.66536301e-01 -5.98911680e-02 +7.75234401e-02 -8.19136426e-02 -4.24062684e-02 -1.06580637e-01 +7.02408105e-02 +5.43924831e-02 +1.64103478e-01 +8.06667209e-02 -8.23273957e-02 -1.02824252e-02 +1.62438318e-01 -5.88682108e-02 -8.92097354e-02 -2.44962685e-02 -1.81133717e-01 +2.28488520e-02 -1.11903660e-02 -3.01892132e-01 +6.70812577e-02 -1.22944109e-01 -3.51275168e-02 +2.03464836e-01 +3.22393444e-03 +1.77265570e-01 -1.89084962e-01 +4.77236845e-02 +4.11260650e-02 -3.72374691e-02 -6.34788647e-02 +1.19651094e-01 -2.30458099e-02 +9.50993970e-04 +6.43901080e-02 -2.25203037e-02 -4.20298278e-02 +8.91369432e-02 +8.28632563e-02 +7.15934709e-02 +1.79993838e-01 -8.20925012e-02 -1.68665752e-01 +4.91299257e-02 +3.23492259e-01 -3.10934305e-01 +1.26280971e-02 -1.07511871e-01 +4.13529612e-02 -1.52420044e-01 +1.03934042e-01 +6.41477481e-02 -1.36068001e-01 +1.65317580e-01 -1.65569395e-01 +2.25366339e-01 -5.67812100e-03 +2.34047413e-01 +3.91895622e-02 -5.02495095e-03 +4.54194881e-02 +1.06223375e-01 -5.26183285e-02 -2.09222689e-01 +1.23227552e-01 -5.56336641e-02 +4.28726785e-02 -1.58129483e-01 +4.14876677e-02 -1.93340465e-01 +1.19472221e-01 -5.83638884e-02 -3.65811847e-02 -1.01616055e-01 -1.54141992e-01 -1.41555130e-01 -1.22726418e-01 -1.60586745e-01 +8.25242624e-02 -4.05842811e-03 -1.13545857e-01 +8.38595927e-02 -9.08667222e-02 +1.34682029e-01 +2.38584712e-01 -2.30249897e-01 -2.81285420e-02 -1.43056378e-01 -7.35262111e-02 -1.25643715e-01 +6.67398944e-02 -5.61212935e-02 -1.59051567e-01 +2.90186722e-02 -2.81559348e-01 -1.13996111e-01 +8.23264290e-03 -7.07090497e-02 +1.62996635e-01 +4.32880893e-02 -6.48503229e-02 -1.24394484e-02 +7.34286681e-02 -9.25972089e-02 