#Parameter# /vanilla-lstm-builder/_0 {400,21} 134401 ZERO_GRAD
-1.01836598e+00 +9.84084725e-01 +2.98324913e-01 +1.40158415e+00 -2.18063712e-01 +9.08294499e-01 +5.46679437e-01 +5.41628480e-01 -1.41026831e+00 +1.03908110e+00 -3.48617256e-01 +2.92906791e-01 +1.04448104e+00 +5.10142036e-02 +1.56880534e+00 +1.03101480e+00 +5.77238321e-01 +4.87922698e-01 +1.02696741e+00 +4.98958617e-01 +1.18797295e-01 -5.12972414e-01 +7.87316784e-02 +1.04684806e+00 +1.96576510e-02 +6.25553727e-02 +8.70333672e-01 +7.19706655e-01 +1.06815648e+00 -7.50539124e-01 +9.00606588e-02 +9.29138064e-01 +7.83231184e-02 -9.39721800e-03 +8.45260561e-01 +1.51035726e-01 -5.60357869e-01 +2.18519107e-01 +1.33231616e+00 +3.42785746e-01 +1.60621583e-01 +2.18861610e-01 -4.85039167e-02 -1.10727549e+00 +3.97777945e-01 +3.80203426e-01 -1.61595368e+00 +7.64349043e-01 +8.65793765e-01 -2.45775133e-01 -6.07574582e-01 -1.78990111e-01 +3.55141282e-01 +6.21396825e-02 -1.11828768e+00 -5.00490546e-01 +3.59399617e-01 -6.22793317e-01 +1.74373507e-01 +1.47980720e-01 +1.50737119e+00 -1.10152018e+00 +8.37432314e-03 -9.91088927e-01 -2.09058132e-02 +8.61841619e-01 +1.69022071e+00 +1.77985281e-01 +1.58957195e+00 +4.87088084e-01 +1.31841958e+00 -3.68937641e-01 +1.28764176e+00 -4.88429189e-01 -6.04725406e-02 -5.56183934e-01 +1.14020276e+00 +3.44525397e-01 -2.85309613e-01 -5.19248247e-01 -1.16440684e-01 +5.18494666e-01 +4.43469524e-01 +5.42291582e-01 -1.69483107e-02 -1.24491200e-01 -4.41245884e-01 +1.21987140e+00 +1.18358779e+00 +8.04479897e-01 +6.29951537e-01 +6.92062318e-01 +6.20803118e-01 -4.41073090e-01 +6.17447555e-01 +3.11892778e-01 +5.41670442e-01 +6.35577664e-02 +4.24703471e-02 -5.13583362e-01 -3.93041790e-01 -3.74541819e-01 -1.99350625e-01 -2.54616708e-01 -5.44807911e-01 -1.73045516e-01 -4.49328721e-01 -5.23239553e-01 -4.88607921e-02 -9.57092226e-01 +4.74343956e-01 -1.22177452e-01 -6.82942986e-01 -3.16172391e-01 -6.55396402e-01 -1.04866242e+00 -5.41997015e-01 -1.15865433e+00 +7.32032299e-01 -6.56681061e-02 -5.69857538e-01 -3.50657463e-01 -4.09348130e-01 -2.34910753e-02 -5.50325513e-01 -1.91527271e+00 -1.62967157e+00 -6.91624939e-01 -2.14105606e-01 +2.93569744e-01 -3.66033286e-01 -2.22486377e-01 +1.83529839e-01 -4.97632354e-01 -7.24255800e-01 -4.09059256e-01 -5.07267892e-01 -8.05294216e-01 -7.57857382e-01 -5.55299163e-01 -5.75380623e-01 -2.56095499e-01 +3.22352111e-01 -7.30347037e-01 -5.34388602e-01 +3.55819732e-01 -4.94471788e-01 -5.66233873e-01 -6.27471805e-01 -5.20584702e-01 -5.27206659e-01 -5.47310188e-02 -9.46965575e-01 -1.26273990e-01 -2.33786985e-01 -1.26749587e+00 -5.16553581e-01 -7.16530800e-01 +2.03057885e-01 +2.12102905e-01 +1.59259707e-01 +2.04900857e-02 -7.00705826e-01 -4.95069861e-01 +5.67368090e-01 -1.23952937e+00 -4.73427624e-01 -1.60279199e-01 +2.96597749e-01 -8.66564870e-01 -8.37824643e-01 -1.68392181e-01 -1.46722484e+00 -1.44577515e+00 -1.25232890e-01 -2.12710664e-01 -1.21893191e+00 -3.93409908e-01 -5.11530221e-01 -1.54625131e-02 +5.47514595e-02 -7.22079873e-01 -1.40315980e-01 +5.58682159e-02 +1.96801379e-01 +4.30325031e-01 +7.07451582e-01 -6.17101371e-01 +2.47088581e-01 -8.49261880e-02 +1.49942473e-01 +4.55249608e-01 -3.76646817e-01 -5.95892727e-01 +5.00780828e-02 +3.39171290e-01 -7.49360025e-01 -4.49045599e-01 -4.46660727e-01 +7.82058537e-02 -1.12975490e+00 +1.07216740e+00 +1.19649731e-01 +7.89908648e-01 -1.61991552e-01 +6.68431580e-01 +4.13925767e-01 +2.42764741e-01 -8.54392201e-02 +6.72066092e-01 +9.92461368e-02 +2.27940142e-01 +5.11942804e-01 -2.63108611e-01 +9.24816728e-01 +1.23670077e+00 +7.00194538e-02 -1.57597154e-01 +6.17914259e-01 -9.45489109e-02 -3.02852601e-01 -6.02287710e-01 -2.37493336e-01 +1.24773514e+00 -3.29578429e-01 -5.55678129e-01 +4.37529325e-01 +1.11029990e-01 +2.10875705e-01 -6.92359984e-01 -2.57794172e-01 +1.12022616e-01 -1.82816625e-01 -4.32710826e-01 +4.39771622e-01 +5.42735338e-01 -1.06292464e-01 -8.56669903e-01 +4.75874424e-01 -1.13465926e-02 -2.31014550e-01 -1.77932024e-01 -3.17645893e-02 -8.46302629e-01 -7.70878941e-02 +7.13687599e-01 -9.93748367e-01 +6.19940341e-01 +7.25824773e-01 -2.68824667e-01 -8.72443438e-01 -1.04650593e+00 +1.75143540e-01 -1.28649011e-01 +1.22812226e-01 -7.76518106e-01 +5.33852458e-01 -1.07845068e+00 +2.25805908e-01 +1.95313424e-01 +8.78613353e-01 -2.60364592e-01 -4.11071628e-01 -8.42828929e-01 +8.22962105e-01 +7.98598111e-01 +1.07576001e+00 +3.38142924e-02 +8.17655385e-01 +2.01929629e-01 +2.37649783e-01 -7.93090224e-01 +5.14834225e-01 -8.85581017e-01 -9.62758720e-01 -6.76279724e-01 +4.32105839e-01 +1.05912797e-01 -8.25982213e-01 -9.25512612e-01 -1.14250518e-01 +1.29436463e-01 +1.04177095e-01 +9.82485652e-01 -1.00816995e-01 -2.87113130e-01 +9.70232934e-02 +6.97529435e-01 +5.07318199e-01 +2.27939472e-01 +8.43210742e-02 +4.57999468e-01 +1.31548762e-01 -7.15478122e-01 +3.01537782e-01 +1.58145837e-02 +4.00979370e-01 -1.80114079e-02 -5.61309636e-01 -6.25923932e-01 +1.27233461e-01 +3.56160611e-01 +6.17555976e-01 +8.87943566e-01 -3.64546061e-01 -9.78797495e-01 +1.09474003e+00 +8.26133609e-01 -8.22714865e-02 +1.33242607e+00 -3.30738008e-01 -6.00369453e-01 +9.53782797e-01 +8.44402015e-01 -1.51290309e+00 +1.14127934e+00 +1.24210358e-01 +8.71461511e-01 -1.15619504e+00 +7.40836203e-01 +1.10454571e+00 -1.10347182e-01 +1.87112987e-01 -9.09345686e-01 +1.05360579e+00 -3.00594777e-01 -1.21241689e+00 +1.01240945e+00 +1.20972943e+00 +5.64765513e-01 -1.79618061e-01 +1.33685374e+00 -6.47588313e-01 -6.31652296e-01 -9.57266152e-01 +2.33377367e-01 -9.38212499e-03 -7.42743850e-01 +1.37782621e+00 -8.43687713e-01 -6.98033869e-01 -3.28972220e-01 -8.78273100e-02 -4.58681844e-02 +1.36492938e-01 -1.82532358e+00 -9.07898024e-02 +1.01627231e+00 -1.20341408e+00 +4.21615988e-01 +6.42974019e-01 -5.39146177e-03 -8.17597508e-01 -1.20070882e-01 -7.14245215e-02 -1.02487791e+00 +5.18489718e-01 -2.02122152e-01 -2.06262171e-01 +7.50675142e-01 +1.42612481e+00 -8.55970681e-02 +5.97901344e-01 +2.77365714e-01 +2.72827446e-01 -1.60053313e+00 -1.11410284e+00 -6.19089961e-01 -1.32167125e+00 +6.84657156e-01 -1.20546842e+00 -6.26216590e-01 +1.35562646e+00 +2.04814941e-01 +5.45916855e-01 +4.58531737e-01 +1.12484622e+00 -9.29705858e-01 +6.41841054e-01 +3.60734880e-01 +2.50774413e-01 -7.75449574e-01 -6.47659898e-01 -7.30831802e-01 +3.87542486e-01 -8.83837581e-01 -6.97600394e-02 +1.33592534e+00 -1.66469312e+00 -9.94390547e-01 +6.07213140e-01 +6.70565665e-01 -7.58858442e-01 +3.28498781e-02 -9.32011724e-01 +6.33973718e-01 -1.02186255e-01 +7.45202541e-01 -2.64797091e-01 -2.04613209e-01 +7.85447881e-02 -2.07526237e-01 +7.24326074e-01 -1.65655702e-01 -9.20834243e-02 -2.88807809e-01 +3.88380021e-01 +1.25805950e+00 -6.71282038e-02 +5.97745776e-02 +5.06839514e-01 +4.42017436e-01 +1.27198207e+00 -8.77509043e-02 +5.59406996e-01 -7.69631624e-01 -8.23387921e-01 +1.00760233e+00 -8.94233406e-01 -2.48261049e-01 +1.30631518e+00 +7.02483580e-04 +1.06969380e+00 +9.22092915e-01 +7.66955078e-01 +5.94986677e-01 +5.38946569e-01 +7.25906610e-01 -1.00177348e+00 +4.68015254e-01 +5.06619036e-01 -3.69996101e-01 -1.77889240e+00 +5.14499784e-01 +3.83309931e-01 +3.02704960e-01 -3.35527092e-01 +8.30375016e-01 -8.47268045e-01 -5.24838269e-01 +2.46352196e-01 -4.07029986e-01 +8.72452080e-01 +1.60122305e-01 +5.07384717e-01 +1.13817847e+00 +5.67230046e-01 +6.32357955e-01 +1.13769636e-01 -2.68126845e-01 +4.04175311e-01 +1.19376130e-01 -2.06649244e-01 -2.49454007e-01 -7.35473633e-01 +3.77096802e-01 -7.28754938e-01 +1.13527882e+00 -1.41251057e-01 +1.01785135e+00 -7.74963140e-01 -9.50877249e-01 -6.62947834e-01 +4.23973143e-01 -1.45753399e-01 +6.04581475e-01 +2.83886105e-01 +1.06250203e+00 -1.20267320e+00 +9.41668823e-02 +5.09820998e-01 +1.15323412e+00 +9.98677313e-01 +1.35880673e+00 +6.57241821e-01 -1.60294876e-01 -4.78086472e-01 -4.03785020e-01 +5.04672706e-01 +5.80716372e-01 -3.05066314e-02 +8.25153172e-01 +1.10353661e+00 -1.53780267e-01 +7.99038589e-01 -4.44796169e-03 +7.62903214e-01 -1.18680406e+00 +4.28224206e-01 -1.63009059e+00 +4.53600973e-01 -9.82409000e-01 +3.38950306e-01 -3.71575058e-01 +1.30581677e+00 +1.75586939e-01 +1.37025371e-01 +1.28074217e+00 +5.55724621e-01 +1.25255316e-01 -2.86154121e-01 +1.27857357e-01 +5.48494518e-01 +1.23152949e-01 -5.27301252e-01 +3.48835230e-01 -5.64404368e-01 +1.34669900e-01 -3.39757681e-01 +1.25556737e-02 -2.75935709e-01 -5.17690599e-01 +1.85488507e-01 +2.36768574e-01 -7.63167918e-01 -2.90991187e-01 -7.31819093e-01 +6.00397736e-02 -7.59720922e-01 +1.12701528e-01 +3.57436270e-01 -1.12755394e+00 -8.50036442e-01 -3.52756768e-01 -2.02528879e-01 -1.37812197e+00 -1.17975287e-01 -9.11135674e-01 -7.63178766e-01 +4.12287470e-03 -5.09898067e-01 +1.01207018e-01 -7.21530259e-01 -3.45712602e-01 -8.57616886e-02 +1.77223653e-01 +5.64447488e-04 +2.12254971e-01 -2.20606238e-01 -2.29101941e-01 +2.40489393e-01 -8.24069008e-02 -2.39201158e-01 +2.52151906e-01 -6.74379468e-01 -3.82199228e-01 +2.76050746e-01 -3.17091942e-01 -1.54606760e+00 +1.55656815e-01 -2.88518816e-01 +4.37306836e-02 -2.98060179e-01 -6.19779289e-01 +5.17385602e-01 +9.12922263e-01 -4.69953746e-01 -6.58081889e-01 +3.58266354e-01 +1.51024953e-01 -7.96924829e-02 -1.50347561e-01 -4.82813865e-02 -3.05598050e-01 -4.81609046e-01 -4.11680400e-01 -7.92006075e-01 -6.44156188e-02 -1.03292257e-01 -4.43725139e-02 +1.16211154e-01 -3.59036982e-01 -1.92415285e+00 -4.76947993e-01 +2.81432718e-01 -1.76562816e-01 -1.90130487e-01 -3.90306890e-01 -1.38567126e+00 -1.12091333e-01 +7.64967978e-01 -1.57791644e-01 -8.38867486e-01 -2.43109614e-01 +9.97023731e-02 -2.88157463e-01 -3.06962430e-01 -6.27790391e-01 -2.98362821e-01 -1.82384580e-01 -1.97024554e-01 -1.88468054e-01 -3.24767619e-01 +3.23351264e-01 +2.23915167e-02 +4.79777306e-01 -6.62023902e-01 +1.40678450e-01 -1.19075023e-01 -1.24859229e-01 -3.13072562e-01 -4.81661469e-01 +6.82704449e-01 -3.08109552e-01 -5.91469169e-01 -3.05530816e-01 -1.51072159e-01 +8.05011451e-01 +6.30718917e-02 -3.38348955e-01 -7.06260055e-02 -1.69074431e-01 +8.10965776e-01 -4.63943452e-01 +6.97600842e-01 -1.19760945e-01 -1.46695161e+00 +3.27524751e-01 -4.76495564e-01 -1.30304424e-02 +3.12413424e-01 -1.51882440e-01 +1.29319286e+00 +8.02789688e-01 +7.38457918e-01 -2.03387812e-01 +1.56393737e-01 +7.24646151e-01 -6.32636786e-01 +2.17555016e-01 -2.33982071e-01 -3.24592531e-01 -1.79397130e+00 -1.37481451e-01 -2.06455931e-01 +4.74544048e-01 +2.00184822e-01 +2.52145320e-01 -1.56293899e-01 -1.48681149e-01 -2.93513685e-01 -2.28887081e-01 +1.01231766e+00 +4.02384043e-01 +2.39265472e-01 -4.04686302e-01 +1.25384644e-01 +2.80391037e-01 -5.76379776e-01 -6.79106772e-01 +2.63569504e-01 -2.59550452e-01 -4.95698154e-01 -8.87882352e-01 +5.44797182e-01 +3.27488512e-01 -8.75208080e-01 +8.95008087e-01 +5.08960545e-01 +6.76019639e-02 -4.41709250e-01 +1.95290938e-01 -5.20621359e-01 +4.14940804e-01 +3.57737452e-01 +3.35408717e-01 -2.20141530e-01 +8.13194335e-01 -4.13050622e-01 -7.85867795e-02 +8.53128910e-01 +6.93342626e-01 +1.06134248e+00 +8.48116755e-01 +2.36277282e-01 -1.10317075e+00 -8.95574749e-01 -6.23037577e-01 -2.46690698e-02 +4.71928835e-01 +5.87818861e-01 +8.07559907e-01 +8.77464116e-01 -1.84570596e-01 +5.66447079e-01 -6.96532950e-02 +5.50862193e-01 -9.75928426e-01 +2.94060975e-01 -7.77179062e-01 +8.06494653e-02 -1.03076763e-01 +1.45359904e-01 -1.00624636e-01 +5.66212535e-01 -2.37433225e-01 -7.41912067e-01 +1.37176991e+00 +5.41138649e-01 -2.56304294e-01 +5.51319540e-01 +1.60447046e-01 -3.52351904e-01 +3.42124328e-02 +4.49225605e-01 +1.20824508e-01 -1.38172412e+00 -1.03693962e+00 -8.53128433e-01 -5.13479352e-01 -7.20614433e-01 +8.82565603e-02 -1.45447421e+00 +7.54898190e-01 -8.18865895e-01 +1.63752923e-03 -1.02803990e-01 -4.30081934e-01 -2.23645195e-02 -7.31212080e-01 -1.47284424e+00 -5.50438285e-01 +1.22436273e+00 -1.15015543e+00 -6.25032604e-01 -2.07230318e-02 -8.88430059e-01 +1.52722073e+00 -4.33268815e-01 +5.71554303e-01 -7.73863018e-01 +4.16354120e-01 -8.05836976e-01 +4.60787237e-01 +1.02536631e+00 +7.57723451e-01 -3.35356593e-01 -8.68873835e-01 -1.78909957e-01 +5.20519465e-02 -5.53289473e-01 +1.73449680e-01 -8.08749080e-01 +6.76667392e-01 -1.10852528e+00 +2.27901638e-01 +1.07957029e+00 -7.44984090e-01 +4.63631749e-01 -1.17753237e-01 -6.29259646e-01 +2.67395288e-01 -4.56929892e-01 -1.80425614e-01 -1.77376390e-01 -3.26708138e-01 -2.34798670e-01 -1.25994587e+00 +3.44562650e-01 -1.38750839e+00 +2.53313065e-01 -5.72468758e-01 +3.29220682e-01 +8.84030879e-01 -8.58937740e-01 -7.55184174e-01 +6.17097259e-01 -1.41661859e+00 -3.80930454e-01 -4.32527006e-01 +8.41355085e-01 +8.69130790e-01 +2.04643965e+00 +1.44818759e+00 -1.35918069e+00 +8.53039548e-02 +5.84674813e-02 +3.63779329e-02 -1.37368977e+00 +9.05508280e-01 -4.34820473e-01 -8.67313266e-01 -1.26116693e+00 -1.28573716e-01 +4.37928975e-01 -1.62038937e-01 -8.49011242e-01 +1.48629755e-01 +1.15855885e+00 +7.54952431e-02 -5.62076211e-01 +1.46964956e-02 +1.35673881e-01 +4.02772963e-01 +5.34973800e-01 -9.65101838e-01 +2.71335542e-01 -6.48106277e-01 +7.11850166e-01 +4.06765431e-01 -3.41571234e-02 -5.46483159e-01 -4.75882083e-01 -8.32297027e-01 -1.37622523e+00 -3.05891931e-01 -4.99544621e-01 -5.05641520e-01 -4.57451731e-01 -4.61041480e-01 -6.54222488e-01 -9.73140895e-01 -8.86010408e-01 -9.77710068e-01 -1.52117491e+00 -1.14068198e+00 +5.62560797e-01 -6.95827425e-01 +1.95805505e-02 -1.46384388e-01 +4.51892465e-01 -4.48061287e-01 -7.69761503e-02 -1.25874847e-01 -5.62603295e-01 -1.70757616e+00 -7.69052207e-01 +3.29204738e-01 -1.97395205e-01 -3.98341656e-01 -7.45732903e-01 +8.03485692e-01 -8.83257508e-01 -6.90534472e-01 -9.18872505e-02 -1.85525864e-01 -1.21491656e-01 -7.65711308e-01 -7.82140732e-01 -1.27714646e+00 -9.14118290e-01 -3.77541393e-01 -5.41949034e-01 +2.03612655e-01 -3.33411694e-01 +3.07340294e-01 -2.06284955e-01 +3.36498320e-02 +1.68994591e-02 -2.31359527e-01 -7.00597279e-03 -3.72469090e-02 +2.69715637e-01 -9.63055193e-01 +6.41024113e-01 +4.79905844e-01 -2.00467855e-01 -6.80529326e-02 -1.30866897e+00 -8.24044049e-01 -7.33308136e-01 -2.02471405e-01 -1.57424974e+00 -9.25834894e-01 +9.87696409e-01 -2.65262663e-01 -8.49357426e-01 +1.86338976e-01 +1.51796550e-01 -2.25238409e-03 +4.78210419e-01 -6.17796898e-01 -5.02060294e-01 -6.20860696e-01 +1.89726487e-01 +7.96040714e-01 -3.21052760e-01 -1.07687509e+00 -6.87427759e-01 -1.27109087e+00 -8.77417028e-01 -6.94442749e-01 +2.55387247e-01 -4.97146994e-01 -1.35708213e+00 -2.34700702e-02 +1.09357119e+00 -5.50119877e-01 -4.88773108e-01 +3.47252674e-02 -1.04692030e+00 -3.94669443e-01 -6.22220159e-01 -1.32942748e+00 -2.48503387e-01 -1.00416934e+00 +5.45222759e-01 +3.57763559e-01 -8.78042340e-01 +2.47629598e-01 -1.85875982e-01 +9.05712903e-01 +1.43416166e+00 +1.94679463e+00 +2.93629915e-01 +5.35948277e-01 +3.41236591e-01 +7.69416809e-01 +1.78282335e-02 +3.52707684e-01 +1.53560534e-01 +3.59818935e-01 +6.39993012e-01 -6.96547747e-01 +1.47930002e+00 +6.50225505e-02 -3.23766232e-01 +3.76354367e-01 +1.68406081e+00 +2.50955880e-01 +1.09804857e+00 -3.04723363e-02 +9.02592659e-01 +8.03878784e-01 +2.75430620e-01 +7.16765285e-01 +4.52278286e-01 +1.66195428e+00 +8.65052700e-01 +2.87567973e-01 +4.37057495e-01 +9.21743989e-01 +1.74252614e-01 +5.72844386e-01 +1.13933277e+00 -1.33187205e-01 -4.03539501e-02 +5.45119286e-01 +6.03017092e-01 -5.09369671e-02 +6.12209082e-01 -7.04122111e-02 +1.59957364e-01 +9.46034908e-01 +1.08257794e+00 +2.06814814e+00 -2.24676374e-02 -1.54954255e-01 +5.30934930e-01 +7.22642958e-01 +9.93565261e-01 +9.57651198e-01 +1.04885268e+00 +1.00379229e+00 +6.94530845e-01 +7.77478337e-01 +1.44315207e+00 -2.09465683e-01 +1.25785911e+00 +1.38216838e-01 +1.24908209e+00 -7.55001381e-02 -7.16029942e-01 -2.26522721e-02 +1.28467762e+00 +5.10033190e-01 +6.16436660e-01 +1.27733314e+00 +4.31184411e-01 +3.31028879e-01 +9.15989578e-01 +7.04272628e-01 +3.59024018e-01 +1.57171130e+00 +5.72428942e-01 +5.34929633e-01 -3.59666675e-01 +2.75894463e-01 +1.79484046e+00 +1.57439160e+00 +1.52478492e+00 -1.41781256e-01 -6.09934926e-01 -6.40964866e-01 +1.20334065e+00 +1.86411142e-01 -7.64592409e-01 +2.33680010e-01 +1.01859069e+00 +8.68351817e-01 +2.07852036e-01 +7.11949110e-01 -2.43718162e-01 -3.18740875e-01 +1.24498403e+00 +6.30125880e-01 +1.54190969e+00 -2.44859651e-01 +3.84143323e-01 +1.06113863e+00 -1.06128335e+00 +8.36358011e-01 +9.26615655e-01 +6.24737978e-01 -5.02912402e-01 -2.70955503e-01 +4.34825778e-01 -2.46692240e-01 -7.75823951e-01 -4.74032849e-01 +6.39376283e-01 +7.46020615e-01 +8.94206703e-01 -4.68638301e-01 +7.85111845e-01 -1.02945459e+00 -4.78504926e-01 -4.79368716e-01 +5.75297713e-01 -5.07409811e-01 +1.43057331e-01 -2.62755584e-02 +4.11374092e-01 -2.96107650e-01 -5.27329087e-01 +6.74931943e-01 +1.53941035e-01 +3.73721957e-01 +1.09813952e+00 -2.22507298e-01 -2.87534982e-01 -4.76887040e-02 +2.63681978e-01 +3.63220274e-02 +8.29221725e-01 -2.74880111e-01 -7.19289556e-02 -9.44499373e-02 +3.62240463e-01 -1.27429962e-01 +2.03204844e-02 -4.16197747e-01 -2.28683457e-01 +6.43257380e-01 +7.51718044e-01 +7.10977137e-01 -1.48228243e-01 +4.00486548e-04 +2.41568774e-01 +1.87206611e-01 +3.84657741e-01 +4.48213965e-01 +1.00613213e+00 -1.28488994e+00 -4.89388034e-02 +1.43024385e-01 +6.66612566e-01 -4.68885362e-01 +7.03584909e-01 -6.96905613e-01 -2.45839611e-01 -1.11596096e+00 -1.12305117e+00 -6.03472173e-01 +6.92058355e-02 -6.27723098e-01 +3.45273763e-01 -4.10082890e-03 -4.82617766e-01 +2.81342864e-01 -3.88542712e-01 -2.47642234e-01 +3.45887870e-01 +6.72968566e-01 +1.81674361e-02 +5.48293233e-01 -1.52116609e+00 -9.32274759e-01 +1.30297422e+00 +1.12561798e+00 -2.64356822e-01 -6.54484034e-01 -3.62386554e-01 -1.45688668e-01 +2.99468309e-01 -1.71454605e-02 -1.65433586e-01 -8.16483855e-01 -8.20879042e-01 +8.68856236e-02 -3.97980422e-01 +4.66823190e-01 -7.82203615e-01 -1.12281895e+00 +2.85260201e-01 +1.90868378e-01 +8.88883471e-01 +1.65241763e-01 -5.02082229e-01 +4.67249274e-01 -2.11890638e-01 +6.31423891e-01 -1.24929750e+00 +9.09289122e-02 +5.77963471e-01 +1.58473894e-01 +2.14376718e-01 +8.75525594e-01 -4.16487664e-01 +7.11820927e-03 +6.31888151e-01 +5.47710121e-01 -1.61735639e-01 -7.15298355e-01 -6.17402077e-01 +8.88666511e-01 -7.39600062e-01 +1.12722337e+00 +1.25223029e+00 +9.62671161e-01 -6.29098296e-01 -1.42129683e+00 -7.85224438e-01 +5.52914202e-01 +4.43589389e-01 -6.81349635e-01 +2.14054406e-01 -6.32493675e-01 +4.74845409e-01 -1.20732011e-02 +2.59103268e-01 +5.25482059e-01 +1.75185800e-01 -3.43637139e-01 +1.87224820e-01 +2.42454842e-01 +4.10030693e-01 +6.51002526e-01 +7.28094056e-02 +4.31465656e-02 -7.28356987e-02 +2.44587600e-01 +5.78107357e-01 -1.66385496e+00 +1.14025033e+00 +1.24875546e+00 -1.79207996e-01 +7.46318758e-01 +1.02629519e+00 -6.50612041e-02 +3.50313447e-02 -5.56130171e-01 -7.96992660e-01 -9.15295124e-01 +3.20115805e-01 +3.92396301e-01 -1.03226863e-01 +9.23483789e-01 -5.34389615e-01 -3.97901505e-01 +2.40393624e-01 +6.59284770e-01 +6.32242978e-01 -7.82744467e-01 -2.94396188e-02 -3.69169116e-01 -4.80920225e-01 +8.52874219e-01 +8.93914513e-03 +8.41386676e-01 -1.08627152e+00 -8.09549153e-01 +2.81969100e-01 +4.23404813e-01 +3.05700183e-01 -5.57768762e-01 -7.62414336e-01 -4.94805984e-02 -8.57873499e-01 -4.19201672e-01 +2.43671671e-01 +6.77295029e-01 +2.22178414e-01 +3.80002260e-01 +6.38604388e-02 -1.18240692e-01 +1.07328010e+00 -2.37143859e-01 -2.45101482e-01 -6.95078298e-02 +3.29074599e-02 +6.96416080e-01 +6.25897273e-02 -1.76822856e-01 -4.02996004e-01 +8.45551640e-02 +1.19419158e+00 +1.15839827e+00 -2.67268211e-01 -1.96442053e-01 +3.30619156e-01 +2.28405058e-01 +7.55255938e-01 -7.45327175e-01 -1.00679851e+00 -1.02890849e+00 -1.51905918e+00 -1.43059361e+00 -7.04652548e-01 -1.10640585e+00 -1.13872206e+00 -1.75783503e+00 -9.86355066e-01 +1.90896213e-01 -1.69976461e+00 +3.62746328e-01 +6.93386793e-01 -5.79093695e-01 -8.59421551e-01 -1.19250691e+00 -7.78540611e-01 -2.15591049e+00 -1.71962059e+00 -1.13904929e+00 -2.03151420e-01 +1.37652898e+00 -1.42332926e-01 -1.23969889e+00 +3.64231825e-01 -7.30474651e-01 +1.06677032e+00 +2.26237521e-01 -1.78101254e+00 -9.00587201e-01 -2.28929663e+00 +4.02089387e-01 -2.76313365e-01 -7.14288235e-01 -1.71864820e+00 -7.13342369e-01 -2.33736858e-01 -1.43740714e+00 -7.86512077e-01 -1.30326056e+00 -1.57813835e+00 -1.62155107e-02 +3.56095076e-01 -2.82727456e+00 -3.62927556e-01 -5.00885367e-01 -6.89876854e-01 +2.80374855e-01 -1.10029018e+00 -7.22706318e-01 +1.15484178e+00 +3.37306887e-01 -1.55409241e+00 -3.70747000e-01 -3.09130520e-01 -5.37625194e-01 -1.04010284e+00 -8.20501864e-01 -1.81926954e+00 -5.13224125e-01 -4.92955416e-01 -1.02383375e-01 -4.74396706e-01 -5.12479246e-01 +4.97360021e-01 -8.40025365e-01 -5.15419900e-01 -2.77342260e-01 -5.86327791e-01 -3.13491613e-01 +5.28728902e-01 -3.39590341e-01 -2.06532526e+00 +4.32059854e-01 -2.49637038e-01 -4.64006692e-01 +2.40413830e-01 -7.66157329e-01 -3.73030186e-01 +2.64668369e+00 -1.49189755e-01 -1.11623478e+00 -7.54877806e-01 -2.43652612e-02 -8.24120641e-01 -7.17689931e-01 -1.45907128e+00 -1.29126787e+00 -1.29163659e+00 -6.61343873e-01 -5.16679168e-01 -7.10308731e-01 +7.70052969e-01 -8.36611450e-01 -1.86029971e-01 -4.98295091e-02 +2.89040506e-01 -5.28421938e-01 -1.07241380e+00 +3.50975364e-01 +1.29687381e+00 -3.72636199e-01 +4.33690220e-01 +1.89256072e+00 +2.49124229e-01 +9.94961083e-01 -1.38706040e+00 +1.82398009e+00 +7.18872011e-01 +1.01873553e+00 +2.43407464e+00 -1.33059001e+00 -3.28605390e+00 +8.31978321e-01 +1.42144728e+00 +8.77401531e-02 +2.17785195e-01 -1.32607830e+00 +2.90421813e-05 +1.02853906e+00 -2.47090742e-01 -2.15351605e+00 +9.28031087e-01 +2.99911141e+00 +1.10176349e+00 +9.32824910e-02 +9.77376640e-01 +1.34189582e+00 -2.03771237e-02 -9.10818428e-02 +6.38875663e-02 -1.85486042e+00 -1.88613367e+00 +1.56757772e-01 +4.33625787e-01 -1.67072809e+00 -8.12235713e-01 -1.36797756e-01 -5.08037806e-01 +1.05712259e+00 -1.81936443e+00 +8.73286188e-01 +2.87088633e-01 -3.59985143e-01 -2.95055747e-01 -9.11793888e-01 +9.32682037e-01 +1.19857180e+00 +1.05443084e+00 +1.18658793e+00 +1.26506329e+00 -4.40644510e-02 +8.02440226e-01 +6.43035114e-01 -1.48331702e+00 +5.59747696e-01 +1.57049680e+00 -1.66577780e+00 -9.03197467e-01 -8.44714165e-01 -2.99762696e-01 -3.22713107e-01 +1.11797476e+00 +6.29367530e-01 +6.46362424e-01 +1.07581683e-01 -1.00817752e+00 +5.71754515e-01 +3.65718126e-01 +1.27212310e+00 +1.11333036e+00 -6.23664200e-01 -2.01630330e+00 -4.58036572e-01 +1.68611348e+00 -1.01810956e+00 +2.84496427e-01 -3.99147749e-01 +2.42676213e-01 -3.28579617e+00 +1.15293622e+00 -1.71785563e-01 -7.12418556e-01 +9.02046263e-01 -1.15689613e-01 +1.35413384e+00 -4.35610354e-01 +1.39610219e+00 -1.22474265e+00 -9.14282858e-01 +1.89592373e+00 +4.30434681e-02 -2.12037325e+00 -1.10182321e+00 +5.42492449e-01 +9.89979506e-01 -3.92856309e-03 +1.93737388e-01 +4.59647864e-01 -2.21206665e+00 +5.16800165e-01 -4.08770710e-01 -1.46576390e-01 +1.04918387e-02 +9.28974509e-01 -4.86763060e-01 -1.60812044e+00 +7.22271264e-01 +1.09738684e+00 +2.76724011e-01 +1.74133062e+00 -4.24303859e-01 +5.51109374e-01 -2.81504784e-02 +1.98508739e+00 +4.05298710e-01 +5.28023958e-01 -1.59703541e+00 +1.48446277e-01 +1.24936247e+00 +5.08192718e-01 -4.71008807e-01 -9.46322501e-01 +1.80027020e+00 +2.62630165e-01 -5.66772819e-01 +9.32570398e-01 -8.94246221e-01 -4.98802930e-01 -1.17070150e+00 -8.11102211e-01 -3.90649498e-01 +3.86589468e-01 -1.58209965e-01 +4.78318036e-01 -1.11826301e+00 -1.04102850e+00 -2.42992550e-01 -5.36141753e-01 +1.00325704e+00 -2.06196594e+00 +1.68909180e+00 -7.98668265e-01 -1.18617511e+00 -3.17612551e-02 +1.95529796e-02 +7.21140802e-01 -1.18208885e+00 -9.27031279e-01 +3.16982776e-01 +9.36737001e-01 -9.08864066e-02 -1.37505308e-01 -3.44368130e-01 -1.23934782e+00 +1.10718429e+00 -1.75038204e-01 -1.67693567e+00 -1.28418911e+00 -7.50992417e-01 +2.90283680e-01 -1.84952068e+00 +6.62015498e-01 +6.02050982e-02 +1.51313651e+00 -1.18615091e+00 -4.79980081e-01 +7.47391582e-01 -1.08290899e+00 +1.32191181e+00 +1.54442501e+00 -6.68123424e-01 -6.92850053e-01 -6.80034086e-02 +1.33712029e+00 -5.28133869e-01 +9.28421736e-01 +1.58341333e-01 +7.70860195e-01 +3.62762839e-01 +1.43493688e+00 -6.63293481e-01 -1.93435359e+00 -6.98605031e-02 -1.88562661e-01 +7.87361085e-01 -6.44961894e-01 +3.86070430e-01 -1.86766315e+00 -8.67188394e-01 +1.44427991e+00 -1.45998776e+00 -1.20441997e+00 -1.15369248e+00 -1.92300403e+00 -4.75238711e-02 +8.12505662e-01 -5.12448847e-01 +2.16233596e-01 +2.83925623e-01 -1.13848746e-01 +1.33697665e+00 -1.09107651e-01 +2.23340347e-01 +1.48604482e-01 -2.63145529e-02 -2.81252295e-01 +2.74425745e-01 +1.89726532e-01 +1.22475058e-01 -2.37673193e-01 -1.07628095e+00 +2.34266591e+00 +9.11438286e-01 +2.87971586e-01 +4.44719404e-01 -1.54240131e-01 +6.44264102e-01 +1.10109955e-01 -3.26009765e-02 +1.26985943e+00 +2.25499105e+00 -2.15021498e-03 -2.05921263e-01 +3.18267137e-01 +1.58543527e-01 -3.29991337e-03 -1.22695034e-02 -4.12422895e-01 +3.54200751e-01 +5.29107153e-02 +2.67320156e+00 -1.45738876e+00 -6.57409728e-01 +4.97760415e-01 -1.89473361e-01 -2.91157752e-01 -4.13224511e-02 -4.99234237e-02 -7.23047912e-01 -5.28756857e-01 -5.56243472e-02 +2.05867663e-01 +5.30556440e-02 -5.86621642e-01 +3.29223990e-01 +2.07843676e-01 +6.65703639e-02 -1.00446355e+00 -8.26273143e-01 -3.23074490e-01 -4.13288623e-01 +6.50877878e-02 +2.68538892e-01 -2.38318563e-01 +1.81030065e-01 +2.80343890e-01 -8.62954378e-01 +4.60342206e-02 +6.77528620e-01 -2.34031752e-01 +2.64587671e-01 -3.85766476e-01 +2.55921245e-01 -1.76158950e-01 +4.72603112e-01 -3.45986187e-01 +7.43757784e-01 +1.57773048e-01 +6.19224370e-01 -3.77341121e-01 +3.35743159e-01 +3.38445604e-01 -1.68484187e+00 -3.27437073e-01 -6.59955084e-01 -3.06367099e-01 +2.79538393e-01 -1.78237543e-01 -4.02588320e+00 -7.49294102e-01 -1.14319265e-01 -1.39328003e+00 +1.19313908e+00 -2.00565383e-01 +4.40940745e-02 +5.14035164e-05 +1.53414339e-01 -1.07821859e-01 -2.52809310e+00 +3.29246968e-01 -2.81279653e-01 -1.49769723e+00 -7.71722555e-01 -1.24931073e+00 +4.67078686e-01 -8.13205481e-01 -1.94892108e-01 -3.02133828e-01 +1.79758966e-01 +5.51871419e-01 -3.95994782e-01 +1.13945186e+00 +2.77517945e-01 -2.11156718e-02 -4.79375839e-01 +1.03303576e+00 +9.86187398e-01 +6.66698575e-01 +1.00490391e+00 +9.77203369e-01 +8.80810261e-01 -8.93374503e-01 +6.68255985e-01 -3.29964489e-01 +8.69113803e-01 +5.59628546e-01 +1.35941064e+00 +9.92514372e-01 +5.25812507e-01 -1.85863942e-01 +9.67227936e-01 -2.86968589e-01 +7.47986078e-01 -7.20992446e-01 -5.36264896e-01 +1.53760850e-01 -7.64699399e-01 -1.33195087e-01 +1.48428845e+00 +6.63704038e-01 -9.24120545e-02 +8.39968249e-02 +1.41577089e+00 -8.42022955e-01 +1.48158860e+00 +1.46892321e+00 +5.66773832e-01 +6.53431773e-01 -5.56953311e-01 +1.60718286e+00 +1.10355210e+00 +5.59620917e-01 -4.26399469e-01 -6.69651568e-01 -1.54350504e-01 -1.46252483e-01 -3.68552357e-01 +8.49131107e-01 +2.31592566e-01 +7.36126453e-02 -1.85959622e-01 -3.31442982e-01 -8.76367450e-01 +9.57779586e-02 +8.94198596e-01 -1.64468005e-01 +2.47174844e-01 +6.37014508e-01 +7.12182760e-01 +2.15878457e-01 -3.30708116e-01 -1.55228630e-01 -1.49194241e+00 +8.50568712e-01 +3.88126224e-01 -8.79762948e-01 -1.81117490e-01 -5.63732743e-01 -3.43622267e-02 +2.06450343e-01 -3.47185582e-01 -2.19756439e-01 +1.08248091e+00 +9.67039943e-01 +8.76101404e-02 +8.25733125e-01 +1.54080778e-01 -1.19217701e-01 +4.03659701e-01 +1.44206774e+00 -5.45625389e-01 +2.08895564e-01 +4.63478148e-01 -5.71743190e-01 -9.06692088e-01 -2.15399284e-02 -4.31227446e-01 +1.35476899e+00 -3.11526656e-01 -1.10344596e-01 +5.73209047e-01 +1.20783544e+00 +1.19003534e+00 +1.08339703e+00 +8.65650415e-01 -1.14771247e+00 +3.90926987e-01 +3.39640081e-02 +1.42995909e-01 -5.09391487e-01 -1.13698423e-01 -9.78398204e-01 -9.33821559e-01 -3.09221655e-01 +1.75317992e-02 -7.42672145e-01 -1.53843629e+00 -1.56444445e-01 -1.52090758e-01 -9.49331880e-01 -1.09129119e+00 -1.17975362e-01 -1.18064511e+00 +2.04697475e-01 -7.80796707e-01 -8.52150857e-01 +1.51608750e-01 -7.15610445e-01 -4.75259244e-01 +3.03424507e-01 -1.41216910e+00 -2.84234107e-01 -7.93302655e-01 -1.12035704e+00 -7.47875810e-01 -1.89079106e-01 -3.46793443e-01 +3.31908524e-01 -8.00949872e-01 +4.10560161e-01 -2.66571343e-01 -3.31456333e-01 +7.26290345e-02 -8.58167112e-01 -1.30485213e+00 -8.52043867e-01 +2.63201803e-01 -9.23075140e-01 -1.74552854e-02 -8.62849176e-01 -3.88449132e-01 -8.50093126e-01 -2.92599022e-01 -4.56598401e-01 -2.17690274e-01 -6.39350489e-02 +4.83055599e-02 +1.23219043e-01 -8.84468555e-01 -6.69036508e-01 -5.96644282e-01 -4.49637681e-01 -9.31014061e-01 -4.94573981e-01 -7.11081386e-01 +1.92197219e-01 -8.55079114e-01 -2.18923017e-01 -1.23486435e+00 +3.50506693e-01 -7.32382953e-01 -1.69285536e-01 -4.73955125e-01 +3.74627441e-01 -5.68156660e-01 +7.49977410e-01 +1.70380816e-01 -6.38581038e-01 -2.53634006e-01 -7.02828944e-01 -3.52151662e-01 -6.74727321e-01 +4.71751183e-01 -8.38313282e-01 +6.92344129e-01 -1.02264547e+00 +5.26183434e-02 +7.64931366e-02 -5.32247901e-01 -2.39395127e-01 -4.29365635e-01 +1.10765591e-01 -1.26796353e+00 -6.69851780e-01 -9.38752964e-02 -4.81237888e-01 +6.92163825e-01 -6.59280539e-01 -2.24926516e-01 -1.93678126e-01 -6.66786849e-01 -9.69894350e-01 -9.70519960e-01 -4.17581387e-02 +7.14953765e-02 -1.27091455e+00 -2.29426265e-01 -2.25712225e-01 +6.26725972e-01 -1.18233047e-01 -2.10049987e-01 +7.68022001e-01 +2.28532910e-01 -1.00219198e-01 -3.77426594e-01 +6.85607314e-01 +5.04153371e-01 +1.31831616e-01 +9.28588569e-01 +7.35344827e-01 +2.04836875e-01 -6.16328511e-03 -2.03571096e-01 -3.27006459e-01 +4.18895185e-01 -6.65669143e-02 +1.03349113e+00 +5.64334035e-01 +2.22846285e-01 -1.48870274e-01 +8.49518657e-01 -3.60216528e-01 +2.23057941e-01 -4.23721462e-01 -5.82949162e-01 +1.86030269e-01 -1.84575975e-01 -1.57764390e-01 +4.02457744e-01 +4.81071591e-01 -1.12679839e-01 -5.73513687e-01 +5.60844600e-01 -1.07666850e+00 +1.51753533e+00 +9.40805495e-01 +2.32903451e-01 +4.60493922e-01 +3.77802998e-02 +1.34244025e+00 +5.97465694e-01 -1.31924197e-01 -6.49956346e-01 -7.44279325e-01 +3.08672100e-01 -4.00890350e-01 -1.80234045e-01 +1.72907755e-01 -4.42501098e-01 -2.42855459e-01 -1.50479183e-01 -1.14664435e+00 -4.48949873e-01 -2.84781933e-01 -9.84989628e-02 -5.00364065e-01 -2.65510708e-01 +3.41607422e-01 +4.14983660e-01 -7.94572175e-01 -7.95375288e-01 -1.89299956e-01 -6.24699712e-01 +4.61509228e-01 +1.96683809e-01 -6.57608211e-02 +1.98450446e-01 -8.18081617e-01 -9.43193883e-02 -5.40587008e-01 -1.52565849e+00 -3.81710678e-01 +6.00446939e-01 +4.51111466e-01 +3.67172003e-01 -2.57318407e-01 +6.12958133e-01 +4.93317991e-01 +1.02335668e+00 +3.48053128e-01 -9.77070332e-01 +2.10656241e-01 +1.35900348e-01 +1.81664601e-01 -2.87095428e-01 -1.32095248e-01 -3.35133791e-01 +7.60144830e-01 -3.80118579e-01 -3.25752228e-01 -8.42943713e-02 +1.46058679e+00 +7.43551850e-01 +9.78099525e-01 +6.00371242e-01 -3.91244501e-01 -7.40401387e-01 +2.01963201e-01 -8.80920887e-01 +8.38973224e-01 -3.06924552e-01 -1.11511409e+00 -9.84456003e-01 -7.93396950e-01 +9.08847451e-02 +8.84328723e-01 +8.50499451e-01 +5.90585411e-01 +1.02634907e+00 +1.27321613e+00 +7.04905093e-01 -4.63770749e-03 +1.17709005e+00 +2.16214314e-01 -1.21422315e+00 +1.11170816e+00 +1.38019335e+00 -1.02114844e+00 +9.53921914e-01 -4.53212745e-02 -9.45133448e-01 +1.27576113e-01 -9.91302311e-01 -1.02449372e-01 -2.17190027e-01 -6.99404597e-01 -7.28208348e-02 -2.91813910e-01 -1.08052778e+00 +8.70189607e-01 -6.50233269e-01 +2.25838199e-01 +1.60019708e+00 +2.27744505e-01 -1.45040262e+00 +1.62220693e+00 -1.14055371e+00 +7.04047263e-01 +3.65283042e-01 +1.34247696e+00 +9.69655693e-01 +1.05312860e+00 +4.18342873e-02 -1.25041142e-01 +2.46727824e-01 +3.57241303e-01 +5.18271685e-01 +1.22612011e+00 -2.03773260e-01 +9.47249651e-01 +6.79956853e-01 -1.44672319e-01 +9.99138951e-02 +5.77935755e-01 -9.47285831e-01 -5.17652690e-01 -1.03141844e+00 -9.61452127e-01 -1.25144386e+00 -7.10865319e-01 +2.80839086e-01 +5.34068763e-01 +2.62365252e-01 +1.21360528e+00 +5.02660573e-01 +1.24164615e-02 -9.83660817e-01 +1.97266847e-01 -2.87257075e-01 +1.07842183e+00 -4.45188582e-02 +1.67380244e-01 +8.73864591e-01 -8.28437805e-01 +1.90318435e-01 +1.57855260e+00 +9.58991766e-01 -4.48719978e-01 +6.72853470e-01 -8.72202814e-01 -2.89484948e-01 +7.80199349e-01 -1.28276813e+00 +5.27507603e-01 +1.55163288e-01 +1.99148610e-01 +2.12766886e-01 -1.12064898e+00 +2.69224167e-01 -1.78765371e-01 -1.29392540e+00 +1.41047013e+00 +9.64284420e-01 -8.94327939e-01 +7.53850281e-01 -1.79550067e-01 -5.81687868e-01 -3.60929258e-02 -8.45495403e-01 -2.84864932e-01 +2.87420392e-01 -1.51483309e+00 -6.27255261e-01 -1.35172546e+00 -4.22813177e-01 +1.84220642e-01 -7.22217858e-01 -1.97729096e-02 -3.45699221e-01 -1.56865609e+00 +7.70015240e-01 +6.32162988e-01 -4.82292414e-01 -3.88443232e-01 -9.89613235e-01 -3.28059226e-01 -1.58570126e-01 -3.24779987e-01 -1.68423128e+00 -7.02546239e-01 -8.20283651e-01 -8.95134509e-01 -1.78511035e+00 +1.45375162e-01 -4.94594485e-01 -8.60781908e-01 -6.59036458e-01 +5.79062402e-01 -8.85349393e-01 -8.43923330e-01 +8.54983404e-02 +1.29353356e+00 -7.35188901e-01 -2.82236218e-01 -1.37365508e+00 -3.64865333e-01 -9.16596293e-01 -1.00156412e-01 +2.23192200e-01 -1.20836926e+00 +1.80610880e-01 -1.20009637e+00 -6.49435341e-01 -4.02460732e-02 -8.02476287e-01 -8.04676652e-01 -7.05373108e-01 +6.01038150e-02 -1.43575299e+00 -2.60443330e-01 -3.58636081e-01 +1.58852890e-01 -9.43408251e-01 -9.77051020e-01 +1.38476133e-01 -1.06592512e+00 -9.07696486e-02 +1.16998637e+00 -1.13969639e-01 +9.87667620e-01 -2.89515972e-01 -8.11170876e-01 -1.01171839e+00 -5.59774935e-01 -1.38775736e-01 +4.85696286e-01 +7.80790687e-01 +1.39802560e-01 -5.37051797e-01 +2.80741870e-01 +1.89549530e+00 +1.69929147e-01 -5.06687641e-01 -5.86805940e-01 -1.06700361e-01 -1.19765794e+00 -6.42970443e-01 -1.27486065e-01 +1.60303819e+00 +3.62579405e-01 -9.51133490e-01 +6.10870183e-01 -5.89430571e-01 +7.08539933e-02 -1.19828570e+00 -7.51672864e-01 -2.45372564e-01 -6.98414981e-01 +7.48445332e-01 +1.32053077e-01 -9.99913692e-01 -9.77209508e-02 -1.51101446e+00 -1.10760343e+00 -1.59937119e+00 +1.37640713e-02 +5.00837505e-01 +4.33314770e-01 +1.99655616e+00 -7.27189898e-01 -1.66806638e-01 -6.04056045e-02 -1.09791958e+00 -6.55078411e-01 -9.87647653e-01 -5.02576470e-01 -3.80451649e-01 -3.78975630e-01 +5.27772427e-01 -1.05498902e-01 +7.46578515e-01 +1.42214060e+00 -9.82133567e-01 -1.46766043e+00 +4.84670177e-02 -3.19873273e-01 -2.30917320e-01 +8.85391116e-01 -6.33497417e-01 -1.06323349e+00 +2.27244571e-01 +1.01086819e+00 -1.76314652e+00 -3.75442892e-01 -3.50367516e-01 +8.48307610e-02 -2.04033002e-01 -3.24916631e-01 -6.51570633e-02 +1.10418797e-01 -1.44267336e-01 +1.54410458e+00 +3.58466834e-01 +6.45548642e-01 +1.82972327e-01 +6.76814377e-01 +6.21995330e-01 -5.55767298e-01 -1.13784981e+00 -1.94685757e-01 +1.11066794e+00 -6.50877118e-01 -1.03775525e+00 +1.05823541e+00 +1.56622159e+00 -2.77852595e-01 -8.83521438e-01 +1.31326067e+00 -3.46790999e-02 +4.63740110e-01 -5.47108054e-01 +1.69781768e+00 -4.72961366e-01 +5.81283152e-01 +5.22436976e-01 -1.66267037e+00 +1.00121148e-01 +1.62875906e-01 -8.11651647e-01 -6.02851868e-01 +6.32704437e-01 -4.03179616e-01 +1.83408648e-01 -8.45017850e-01 -1.13347936e+00 -6.13650739e-01 +1.22751153e+00 +4.67216045e-01 +3.90369982e-01 +4.58781987e-01 +1.81908476e+00 +5.36583662e-01 -3.47410589e-01 -1.31689727e+00 -1.12181380e-01 +8.22450221e-01 +6.35284334e-02 -8.43706667e-01 -1.08086005e-01 +5.07193685e-01 +1.73775673e-01 -3.64014626e-01 -8.74710549e-03 -1.47025216e+00 -6.27610385e-01 -8.64640117e-01 -2.11989224e-01 -2.58457139e-02 -7.81121612e-01 -1.32787776e+00 -1.16366231e+00 +1.02354288e+00 -9.95573759e-01 -3.24908942e-01 -3.00309867e-01 +9.46502853e-03 -6.33482873e-01 +1.10238500e-01 +2.08835793e+00 -1.49610251e-01 +1.38441718e+00 -4.24881756e-01 -1.39282167e+00 -1.55515563e+00 -1.07028842e+00 -1.54425293e-01 +1.04841284e-01 -1.09793925e+00 +2.37284258e-01 +1.88060235e-02 +1.63593745e+00 +5.52149892e-01 +5.40687025e-01 -1.02305859e-01 -2.41962850e-01 -5.98390043e-01 -3.21997106e-01 -2.94488132e-01 +1.31476909e-01 -8.33225727e-01 -3.73617083e-01 +1.44785476e+00 -7.79821277e-01 +2.43863821e-01 -6.85464799e-01 +7.64179170e-01 -3.29722196e-01 +2.96356946e-01 -5.85090041e-01 +1.96471483e-01 -2.44457781e-01 +1.03465688e+00 +5.88217795e-01 +9.75533247e-01 -3.45799357e-01 +8.02923501e-01 +3.97263765e-01 -6.51175916e-01 +4.11020428e-01 -6.22617900e-01 -8.50258693e-02 -1.14879453e+00 -1.08207393e+00 -1.86707839e-01 -1.35059047e+00 -2.50807196e-01 -8.09578598e-01 +1.84233475e+00 -7.08154738e-02 -5.05577661e-02 -4.57139872e-02 +2.61934781e+00 -2.77565330e-01 +1.05845535e+00 -1.45375478e+00 -6.49038613e-01 +8.88819456e-01 +1.33997321e+00 +4.07403409e-02 -5.94535708e-01 +3.23007375e-01 -3.20019811e-01 -7.68083394e-01 -4.01385635e-01 -1.22117072e-01 -1.05562961e+00 +1.06352365e+00 +1.12606680e+00 -2.92235553e-01 -6.73938870e-01 +1.58066952e+00 +1.24778748e-01 -2.07443554e-02 -1.16125381e+00 +1.80103764e-01 -3.37865144e-01 -1.40271449e+00 -1.37430608e-01 -5.10136336e-02 +4.98565376e-01 -6.61185980e-01 +8.83056521e-01 -4.26163711e-02 -1.40035701e+00 -6.92600533e-02 -7.71758199e-01 +4.91604358e-01 -3.58117908e-01 +7.87262678e-01 -4.80179936e-01 -8.01370859e-01 +1.09703290e+00 -1.88332057e+00 -5.82746923e-01 -1.29067504e+00 -6.13118052e-01 -5.15850708e-02 -1.32870018e+00 +1.50693163e-01 +2.10955158e-01 -5.31734407e-01 +3.14421356e-01 +4.07236338e-01 -1.76404938e-01 -5.39880851e-03 +9.98778939e-01 +2.55376190e-01 +5.17838418e-01 +2.36813337e-01 +3.12727466e-02 +1.60228109e+00 -1.68394411e+00 -8.42512488e-01 -5.58617651e-01 -1.39317229e-01 +3.97499144e-01 +5.82760632e-01 -4.29140061e-01 +4.07765061e-01 -1.00956869e+00 -2.86937267e-01 -3.21439683e-01 -2.99861461e-01 +3.98222804e-01 -2.87277877e-01 -3.07638198e-01 -1.47447847e-02 +3.41842204e-01 +4.88059558e-02 -1.97626561e-01 -6.46394372e-01 +1.55781925e+00 +2.64070570e-01 +1.74420282e-01 +6.68035224e-02 +2.90790975e-01 +5.55700719e-01 +8.26898992e-01 +1.08358026e+00 +3.42778802e-01 +9.98487592e-01 -1.67737171e-01 -1.44730866e-01 +1.10771787e+00 -6.32147014e-01 -1.08598478e-01 -1.54814675e-01 -7.88595617e-01 -2.30748117e-01 +8.66044760e-01 +7.43539512e-01 +3.36038500e-01 +8.43673885e-01 -1.40751112e+00 +4.89351571e-01 +2.56488979e-01 +3.87427151e-01 +2.89374977e-01 -4.12839264e-01 -8.84722844e-02 -2.25127310e-01 -2.31587335e-01 +7.65580833e-01 -8.06782022e-02 +2.91345209e-01 -7.51992315e-02 -4.39502984e-01 +6.96676910e-01 -1.56816363e-01 +3.76465261e-01 -2.18990755e+00 -7.74914145e-01 -2.12091222e-01 +1.15623973e-01 -6.00135140e-02 -2.14653969e-01 -3.46463323e-02 +3.58612239e-01 +2.23359227e+00 -7.88302481e-01 +2.73903638e-01 +3.89625639e-01 -2.16266662e-01 -3.21677834e-01 -1.98244452e-01 +4.62849587e-02 +8.03122669e-02 -1.17761314e-01 +7.52865970e-01 -7.39274979e-01 +4.77993160e-01 +5.01014650e-01 +4.66848314e-01 -4.28805858e-01 -3.54829691e-02 -1.34931982e+00 +6.46862626e-01 +4.90178943e-01 -2.69066431e-02 -4.12835628e-01 +8.00538421e-01 +2.74378359e-01 -5.71985543e-01 +1.77166805e-01 +8.92436028e-01 +1.95561826e-01 +2.41251200e-01 +4.26879555e-01 +2.64407009e-01 -1.05225790e+00 -6.48407638e-01 +4.76617515e-02 -1.04492259e+00 -5.38593829e-01 +1.01984394e+00 -8.72082829e-01 -6.81139290e-01 +1.04590082e+00 +2.54812837e-01 +8.78990889e-01 +1.90838382e-01 +2.90046811e-01 +8.04362059e-01 -6.04780138e-01 -2.28540972e-01 +2.58030236e-01 +1.09028864e+00 +1.52279234e+00 +3.96486461e-01 -9.39036906e-02 +3.94173712e-01 +5.19062102e-01 +3.95372391e-01 +4.28970397e-01 +5.34740567e-01 +3.61314535e-01 +1.58080065e+00 +4.91732895e-01 +7.85891593e-01 +2.91154772e-01 -8.43832552e-01 +5.53449452e-01 +6.27145171e-01 +1.41521823e+00 +6.60525084e-01 -2.36296147e-01 -1.12241901e-01 -3.82321626e-01 -7.75810853e-02 +3.30510646e-01 +4.47578073e-01 -1.46803439e-01 +9.11168694e-01 +4.31632668e-01 +7.09254563e-01 +1.43860802e-01 +1.05575573e+00 -7.78454423e-01 +3.13479267e-02 +1.04058707e+00 +2.99275070e-01 +5.03966331e-01 +1.03741574e+00 -1.30216432e+00 +4.82311398e-01 +1.66848809e-01 -3.24769258e-01 +4.28112596e-01 +4.03612554e-01 -1.08662260e+00 +1.31971007e-02 +3.39754894e-02 -8.05004674e-04 +2.61165708e-01 +6.62389278e-01 +3.43482345e-01 +1.07423043e+00 +4.80901688e-01 -2.34513566e-01 +4.00849521e-01 -3.46916646e-01 +7.80219853e-01 +5.71964622e-01 -6.67095125e-01 -1.24319708e+00 +2.12526947e-01 +8.21728334e-02 +8.84145558e-01 +8.10849071e-01 -3.89580756e-01 -4.35205817e-01 -1.76828578e-01 -1.14100493e-01 -1.55870855e-01 +1.58273369e-01 -6.03751123e-01 -3.48990649e-01 -1.10135868e-01 -7.49934986e-02 -9.66568112e-01 -1.65935559e-03 -9.55676496e-01 -3.29740912e-01 -4.10501629e-01 -7.39464104e-01 +2.42012605e-01 -1.81498781e-01 +1.06285550e-01 -2.76599526e-01 -7.14932859e-01 -1.51729673e-01 -5.15270047e-02 -6.65449321e-01 -5.02589524e-01 +1.50713986e-02 +2.92304218e-01 -8.18804622e-01 -6.20850742e-01 -2.51707882e-02 -9.81660604e-01 -6.25993490e-01 -1.17653884e-01 -1.07895397e-01 +7.08524063e-02 +7.62714267e-01 -1.53439149e-01 -4.11564589e-01 -1.14015841e+00 -4.75204110e-01 -8.05948675e-01 -9.61995244e-01 -6.76891387e-01 -1.91704705e-01 +2.39065289e-01 -1.97922215e-01 -6.91218138e-01 -9.19326901e-01 -1.23709589e-01 -2.65011519e-01 -6.11639544e-02 -1.92413153e-03 +9.89705250e-02 -3.94083768e-01 -2.09475830e-01 -4.66877848e-01 -6.72344923e-01 -8.30572993e-02 -4.08555299e-01 -3.07030141e-01 +2.33920708e-01 +4.94878173e-01 -4.73417789e-01 -4.79013711e-01 +8.62215012e-02 -5.85558891e-01 -5.56190729e-01 -1.02198184e+00 -6.39664531e-01 -4.35784506e-03 -1.87269852e-01 +4.09238577e-01 -8.89923930e-01 -2.96028525e-01 -5.15500963e-01 +2.43567094e-01 +5.67455053e-01 -7.19767094e-01 +5.18319495e-02 -9.50259745e-01 +8.40362847e-01 -2.38238931e-01 -2.26931378e-01 +1.02698375e-02 -9.61471200e-01 -6.99595809e-01 +3.36986572e-01 -9.42550361e-01 -1.04070616e+00 +1.86640084e-01 -1.52491167e-01 -4.24847543e-01 +3.88798654e-01 -2.97865987e-01 -5.43635562e-02 -5.26777208e-02 +5.28393984e-02 -1.76196873e-01 -7.42313147e-01 -8.47020984e-01 -3.28420997e-01 +1.13003068e-01 -2.70059049e-01 +2.14359373e-01 -8.79542232e-02 +1.25518320e-02 -1.05915737e+00 +2.88188219e-01 +1.11833721e-01 -5.33811927e-01 -7.56251454e-01 +1.19685304e+00 -3.37852150e-01 -6.76727891e-01 -2.90752411e-01 +9.00554895e-01 -3.69605534e-02 +3.46181333e-01 +1.06259637e-01 +5.07701457e-01 -1.08427179e+00 -5.98257661e-01 +2.97136128e-01 -6.33201182e-01 -1.50971532e-01 -7.39327073e-02 +1.79371059e-01 -1.07409322e+00 +9.87061083e-01 +2.64211863e-01 +5.62567949e-01 -1.81976244e-01 +3.55960041e-01 +3.95564169e-01 -4.15235639e-01 +7.54654631e-02 +3.74008775e-01 +1.13667345e+00 +1.96706915e+00 -6.30653724e-02 -8.14759791e-01 +1.81629956e-01 +3.27770203e-01 +4.53502648e-02 +2.26910502e-01 +2.89470120e-03 -2.86932677e-01 +6.03412330e-01 +5.70685148e-01 +5.16488999e-02 +1.35783777e-01 -1.58188832e+00 +5.36349833e-01 +7.56601393e-01 +1.79995024e+00 +1.78989083e-01 -5.68817794e-01 -4.97226268e-01 -8.15902233e-01 -2.92660505e-01 -1.27632916e-01 +1.61880001e-01 +2.43390709e-01 +4.49480444e-01 +1.01459496e-01 -8.56987014e-02 -2.35275269e-01 -2.87873983e-01 -1.00127470e+00 +1.75998375e-01 +8.98458540e-01 +3.61996263e-01 +5.76534986e-01 +8.11698496e-01 -4.92005587e-01 +5.75678945e-01 -1.24009140e-01 -8.81910980e-01 +3.07547688e-01 -3.72331232e-01 +3.92358333e-01 -1.07424366e+00 -4.64668959e-01 -4.00444210e-01 -1.94975123e-01 +5.92675030e-01 -3.25732917e-01 +1.30340898e+00 -1.17377356e-01 +7.82623962e-02 +2.44635865e-01 -5.84535122e-01 +1.14499211e+00 +5.53784072e-01 +3.23659509e-01 -9.71946895e-01 +1.21154800e-01 -6.56103194e-02 +2.04542145e-01 +1.06849885e+00 -5.49922764e-01 -6.05277181e-01 -5.41514941e-02 +2.41048500e-01 +1.69338182e-01 -4.98732746e-01 -1.78528056e-01 +7.37953424e-01 -7.32024610e-01 +4.25179571e-01 +5.52175045e-01 +8.49572957e-01 +6.88691795e-01 +6.89451933e-01 -5.12148380e-01 -1.17008841e+00 -6.79006279e-01 +1.83530986e-01 -3.77189249e-01 -3.38085592e-01 +4.61757593e-02 -1.06575340e-01 +5.15208066e-01 +6.48335516e-02 -1.68178499e-01 +1.36757183e+00 -5.18416941e-01 -2.63232756e-02 +1.36394286e+00 +1.29519153e+00 -1.16030645e+00 -3.70644808e-01 +7.48991966e-01 -1.10794079e+00 +2.57411957e-01 +6.12904057e-02 -5.77635169e-01 -1.61412883e+00 +1.58109641e+00 +8.39019835e-01 -4.01261479e-01 +7.00234771e-01 +8.46919179e-01 -3.42613399e-01 +4.02385563e-01 +9.94717479e-01 -3.20390224e-01 +1.93459630e+00 +1.17133141e+00 -4.86719787e-01 +5.79708576e-01 +5.89993559e-02 -1.43919194e+00 -1.02164412e+00 +1.60150778e+00 -7.88184941e-01 -1.47335753e-01 +1.76688526e-02 -7.51371309e-02 -1.43497974e-01 +1.05622733e+00 +1.15927733e-01 -6.97877467e-01 +1.27820420e+00 -6.31757438e-01 +1.14976645e+00 -5.99330783e-01 +1.01463056e+00 -2.23996006e-02 -4.70524371e-01 -1.39901197e+00 -3.52432370e-01 -1.03972363e+00 +1.41034698e+00 +2.60332227e-01 -8.10126126e-01 -3.13473642e-02 -2.31121592e-02 -1.04217660e+00 +5.39235711e-01 +4.39526081e-01 -3.88951123e-01 +1.83825307e-02 +9.92261991e-02 -7.10379720e-01 -1.12314558e+00 -5.19916952e-01 -1.37778866e+00 -9.67127383e-01 +2.25856267e-02 +4.77348536e-01 -2.08524153e-01 -7.38329470e-01 +1.57951522e+00 +7.12072849e-01 +4.25026238e-01 +4.86504763e-01 +1.12662363e+00 +1.27629757e+00 -1.07253444e+00 -5.81964493e-01 +1.32072434e-01 +2.55371898e-01 +6.96091831e-01 +6.70826137e-01 -1.66541919e-01 +5.90748131e-01 -6.10917926e-01 -1.22270584e+00 -1.08717859e+00 -5.36955118e-01 -3.26493353e-01 -1.22758830e+00 -5.64335823e-01 -7.15372801e-01 +8.06550831e-02 -1.25468636e+00 -3.23578745e-01 -5.88710248e-01 -6.30028307e-01 -1.04386473e+00 -6.05560303e-01 +9.91626859e-01 +3.60748380e-01 -7.80311167e-01 -7.61202335e-01 -8.42060968e-02 -1.11108899e+00 -1.64063513e-01 +3.93547237e-01 -4.62821126e-01 -9.28510606e-01 -9.18220997e-01 +3.56050253e-01 -1.01395100e-01 +1.89755466e-02 -3.85805130e-01 +2.24242210e-01 -4.39463928e-02 -8.20190907e-01 +4.99643907e-02 +7.84431770e-02 -8.06925595e-01 -8.96810949e-01 -8.18455338e-01 -7.82267749e-01 +1.55494034e-01 -9.15621936e-01 -6.85703039e-01 -2.57492363e-01 -1.22958183e+00 +3.41856331e-01 -1.09260833e+00 +2.83664852e-01 +3.15502197e-01 -2.97538579e-01 +5.95324218e-01 -8.24311912e-01 -1.44471371e+00 -1.35111547e+00 +3.37201729e-02 +5.94325960e-01 -3.36538367e-02 +1.46503821e-01 -5.55678010e-01 -8.43093276e-01 -1.41450554e-01 -1.11497343e-01 -9.43726361e-01 -5.46832502e-01 -1.53234871e-02 +2.36904025e-01 -4.02111381e-01 -4.21040535e-01 -1.45355597e-01 -2.68089116e-01 +2.11286142e-01 -9.86663759e-01 -2.30437085e-01 -4.33805317e-01 +1.05188899e-02 +8.04063499e-01 +1.70226887e-01 -1.06048274e+00 -1.24750054e+00 -1.02235103e+00 -5.71301699e-01 -1.73491478e-01 +2.77068883e-01 -1.04929662e+00 -1.18249869e+00 -2.00118199e-01 +1.14766467e+00 -8.76310885e-01 -7.77142346e-01 -2.68004596e-01 -1.09293059e-01 -5.73504806e-01 -3.40864137e-02 -3.09389800e-01 -5.44300899e-02 -4.83920515e-01 +3.05606127e-01 -1.41533017e+00 -4.95373935e-01 +4.27976757e-01 +6.41180813e-01 -8.52727830e-01 +8.26975882e-01 +1.93905234e+00 +5.95233500e-01 +6.94627643e-01 +2.94742994e-02 +1.26176131e+00 +5.24343289e-02 +4.81939107e-01 -1.87951043e-01 -4.46872622e-01 +5.28259277e-01 -6.25646353e-01 +1.07172287e+00 -5.45758486e-01 +8.87225270e-01 +4.02659386e-01 +1.21683586e+00 +2.80009598e-01 +5.89859903e-01 -5.03640473e-01 +6.14946246e-01 +8.48574638e-01 -1.13887954e+00 +6.30083382e-02 +6.99221790e-01 +1.68102813e+00 +7.63143718e-01 +5.00725567e-01 +3.86270553e-01 +8.23928833e-01 -9.40628275e-02 +2.45900184e-01 +6.55509472e-01 -8.04785907e-01 +1.39236778e-01 +7.27007747e-01 +7.07175672e-01 -1.81523353e-01 +3.65315616e-01 +2.02175036e-01 -4.39372808e-01 +5.90792537e-01 +8.81224871e-01 +2.14271164e+00 -2.25830287e-01 -2.65927672e-01 +1.06598341e+00 +4.19571400e-01 -3.24117333e-01 +1.11214077e+00 +7.90610552e-01 +5.56945324e-01 +6.59324586e-01 +8.53185713e-01 +1.24112165e+00 +1.90928638e-01 +5.32323718e-01 +2.33919963e-01 +9.72960949e-01 +6.00876808e-01 -4.70051140e-01 -1.59346133e-01 +1.17206621e+00 +3.76153499e-01 +7.00535119e-01 +1.01887679e+00 +4.70520407e-01 -2.42042970e-02 +9.30416405e-01 +9.82987285e-01 +9.52796116e-02 +7.73039520e-01 +8.10190916e-01 +9.31229591e-01 -2.15782169e-02 -2.71504313e-01 +1.34666502e+00 +1.19399142e+00 +1.46542978e+00 -6.81409299e-01 -1.19990846e-02 -8.99089098e-01 +9.39936459e-01 +4.00871754e-01 +7.95739114e-01 +1.70500711e-01 +7.04231858e-01 +9.84809518e-01 -7.11475730e-01 +4.03244972e-01 -3.93925577e-01 -9.55722988e-01 +1.16479003e+00 +3.32656622e-01 +1.77271223e+00 -9.96679246e-01 -2.05604345e-01 +1.07765889e+00 +9.29047883e-01 -5.77179193e-01 +2.36492932e-01 +1.49796039e-01 +1.15269713e-01 +4.13051620e-02 -1.46720260e-01 +2.80289531e-01 -7.12324023e-01 +1.14695288e-01 -1.02168404e-01 -1.11381221e+00 +2.24180728e-01 -6.52228355e-01 -2.34153226e-01 +2.75880367e-01 +4.49182808e-01 +5.43587208e-01 -4.08054739e-02 -3.98540020e-01 +3.41991961e-01 -9.65515077e-01 +2.66969167e-02 -3.25436205e-01 -5.11741817e-01 +6.05518147e-02 +3.57539773e-01 +1.56748921e-01 +6.10236049e-01 -5.85857294e-02 -4.07955319e-01 +4.63314056e-01 -1.18401892e-01 +6.01263903e-02 -1.96625262e-01 +2.12172851e-01 -5.62472045e-01 +2.16409311e-01 +4.33870971e-01 -2.54509747e-01 -5.23355603e-01 -1.62269443e-01 -7.78789163e-01 +5.96324861e-01 +1.43001631e-01 +1.09321073e-01 -1.44187316e-01 -3.81488323e-01 +5.01238406e-01 -1.64897978e-01 +3.84798974e-01 +8.77789259e-01 +5.41406810e-01 -3.72360647e-01 -2.24104956e-01 +7.89489806e-01 +2.30489671e-01 -9.87040475e-02 +7.40663707e-01 -2.20210459e-02 +6.84926808e-01 -1.56346723e-01 -8.18500400e-01 -9.42504466e-01 +2.25856736e-01 -7.08310187e-01 -2.43168563e-01 +7.51870424e-02 -9.20484960e-02 -8.21827769e-01 -4.01860833e-01 +5.62632918e-01 -4.75207895e-01 +1.04308069e-01 +1.57920673e-01 +1.17480314e+00 -3.52379173e-01 -2.83137947e-01 +6.47236884e-01 +8.09730053e-01 +5.05777121e-01 -5.92503309e-01 +5.48497923e-02 -8.66163731e-01 -1.72663406e-01 -7.30100095e-01 +8.74536932e-01 -1.06406085e-01 -1.57259762e-01 +5.49439907e-01 -3.33275616e-01 +4.73542750e-01 -9.27461311e-02 -5.83023369e-01 +2.43304938e-01 -5.79966664e-01 +8.75809968e-01 -1.79312980e+00 -1.25395298e+00 +1.94869554e+00 -8.87809932e-01 -9.51978266e-01 -6.76535606e-01 -6.24436364e-02 -9.70786214e-01 +3.24223161e-01 -1.88197941e-01 +3.55172724e-01 -1.67773739e-01 -9.24466729e-01 -3.26704234e-01 -3.74223441e-01 -2.58627832e-02 -7.85520196e-01 -2.48789147e-01 -4.51633602e-01 -1.31634045e+00 +1.47888017e+00 +4.44594592e-01 +1.06946182e+00 -1.97295502e-01 -1.53293729e-01 -6.04810715e-01 +8.29206407e-01 +7.10779428e-02 -9.01208103e-01 +3.04791957e-01 -7.68405557e-01 +1.10506618e+00 +4.78883088e-02 +4.61563796e-01 +4.73112375e-01 +2.93455329e-02 -4.69014734e-01 -9.60076377e-02 -5.00019610e-01 +6.15222752e-01 +6.68419302e-01 +1.92914516e-01 +2.69374013e-01 +9.33972657e-01 +6.46506011e-01 -4.71857041e-02 -1.40306878e+00 +1.01531243e+00 +9.54433858e-01 -6.10190034e-01 +1.07466221e+00 +1.35087657e+00 +1.49544943e-02 +8.70808065e-02 -4.80775803e-01 -4.97999787e-01 -1.17021978e+00 +3.00838917e-01 +6.04013443e-01 +1.64877355e-01 +1.07728624e+00 +6.16767108e-01 -3.61400992e-02 +8.47454309e-01 +9.06061709e-01 -4.32990752e-02 -8.41837823e-01 +1.68321162e-01 +2.65771359e-01 -1.08159673e+00 +8.25930595e-01 -5.48673719e-02 +8.81741226e-01 -4.17420357e-01 -7.26061106e-01 +2.57556289e-01 -1.05604254e-01 +1.36825174e-01 -1.69618201e+00 -3.75251889e-01 -1.84982941e-01 -6.46718621e-01 -1.16461337e-01 +7.96067297e-01 +1.67588592e-01 +4.60851073e-01 +1.33843973e-01 -2.83585846e-01 -1.90082401e-01 +1.09763825e+00 -1.78766251e-01 -8.70942771e-01 -2.67818868e-01 -7.94795603e-02 +3.17399979e-01 +4.54502225e-01 -9.44229186e-01 -4.06793177e-01 -4.12947804e-01 +1.73086226e+00 +4.52421904e-01 -7.51786888e-01 -4.83493924e-01 -8.89675260e-01 -4.75864470e-01 -1.24446762e+00 -1.05290008e+00 -4.50295031e-01 -8.42706919e-01 +3.86755854e-01 +6.88471913e-01 -5.02772890e-02 -1.27907336e+00 -5.01368046e-01 -2.93951571e-01 -2.37677738e-01 +8.40331018e-01 -2.06120275e-02 +5.35780132e-01 +5.54393113e-01 -1.07777834e+00 -7.40994155e-01 -1.18151116e+00 -1.98666126e-01 +4.43180710e-01 -9.06341255e-01 -4.58509922e-01 -1.18632853e+00 +7.33821243e-02 -8.14211547e-01 -8.24202418e-01 +5.00851393e-01 -3.74330044e-01 +2.23564878e-02 +7.80967116e-01 +1.73576951e-01 +2.31614769e-01 +1.79680794e-01 -7.16148436e-01 -4.16514762e-02 -7.93725729e-01 +4.64162290e-01 +8.38716090e-01 -7.97730148e-01 -2.08708704e-01 +1.43484402e+00 -1.49665475e+00 +6.83007360e-01 -1.82824075e+00 -2.34210208e-01 -5.16603649e-01 -3.97434980e-01 +2.29116708e-01 -4.49559093e-01 +8.90610337e-01 -1.25819945e+00 +7.71749079e-01 -5.07195592e-01 -2.63288587e-01 -8.62316310e-01 +8.56611659e-05 +8.16733241e-01 -7.01235652e-01 -8.66438597e-02 -3.54633510e-01 -1.17577267e+00 +5.85157275e-02 -8.38804901e-01 +7.38380969e-01 +1.54722393e-01 -1.36298567e-01 -7.15545237e-01 -4.84732538e-02 -3.89394015e-01 -9.56884146e-01 -1.37966990e+00 -3.83075207e-01 -9.24557090e-01 -2.94256449e-01 -6.86397433e-01 -7.21376717e-01 -1.51422083e+00 -1.10427344e+00 -3.95283788e-01 -7.94320762e-01 -6.64643407e-01 -2.91570991e-01 +9.38569456e-02 -9.05208945e-01 -6.80243611e-01 -1.09112298e+00 -4.37329561e-01 -9.01623070e-01 -4.97848064e-01 -1.04529762e+00 -9.81592715e-01 -3.54696393e-01 +2.34468892e-01 -1.60254431e+00 +2.26708859e-01 +8.27069342e-01 -2.51417961e-02 +4.16792512e-01 +4.43484902e-01 -4.02954072e-01 -6.44154191e-01 -6.92533135e-01 +9.14554521e-02 -6.13245666e-01 -2.00909162e+00 -8.46628964e-01 -6.20362759e-01 -1.49239266e+00 -5.38342118e-01 -1.06429569e-01 +6.89473987e-01 -1.47428066e-01 -4.29293007e-01 -6.24894261e-01 -7.60089934e-01 -6.82727635e-01 -4.74537969e-01 -6.71301663e-01 -8.90090406e-01 -8.05348754e-01 -1.41976631e+00 -1.84849650e-01 -6.66322887e-01 -4.76083845e-01 -6.80196941e-01 +7.37904072e-01 -8.15291584e-01 -4.84846495e-02 +8.18593353e-02 -4.50600624e-01 -5.11246562e-01 -4.26152050e-01 -4.23144907e-01 -2.54774988e-01 +2.48274401e-01 -7.41744041e-01 -3.77878338e-01 -1.22283936e+00 -1.23820019e+00 -6.75138891e-01 +5.28488234e-02 +4.90244955e-01 -5.92838645e-01 -1.16889668e+00 -9.93224561e-01 -5.34929216e-01 -6.74427986e-01 -8.55836213e-01 +2.23493651e-01 +6.36868000e-01 +6.02240086e-01 +2.50049710e-01 -6.26480460e-01 -9.87652481e-01 -6.42354131e-01 +2.04824582e-01 -3.53470415e-01 -1.12528300e+00 -6.24207377e-01 -3.48990887e-01 -6.58361256e-01 -6.70823380e-02 -6.44840181e-01 -1.77743793e-01 -4.72042292e-01 +7.15014994e-01 +6.60136789e-02 -5.77739656e-01 -1.84552655e-01 -1.51785031e-01 +1.73643813e-01 +1.11273468e+00 -1.14199185e+00 +1.90804854e-01 +6.15568340e-01 -6.36037469e-01 -3.60717952e-01 -7.93368593e-02 -4.32898164e-01 -1.37664402e+00 -7.64507279e-02 +9.72983479e-01 -5.79045117e-01 +8.62970829e-01 +1.80482626e-01 -8.81137788e-01 -3.79462928e-01 -7.63143599e-01 -1.18079901e+00 +1.34719327e-01 -7.47243524e-01 -3.22333157e-01 -8.43080640e-01 -1.22923650e-01 -4.48088497e-01 +1.99740559e-01 +2.90232897e-01 +9.04260337e-01 +3.35449964e-01 -4.13246095e-01 -1.20118999e+00 -9.55363095e-01 -1.10069886e-01 -5.37117720e-01 -1.20996952e+00 +2.40621060e-01 +1.39223129e-01 -1.56995332e+00 -7.02925026e-01 +4.10111487e-01 +6.21759258e-02 +2.10540056e-01 +7.84005448e-02 +8.10460806e-01 +1.38815239e-01 +6.30197749e-02 +2.64321297e-01 -6.69611335e-01 -1.11940718e+00 +3.37677717e-01 -1.48234916e+00 +4.15836908e-02 -9.62679803e-01 -4.89627749e-01 -5.99328101e-01 -2.80966926e-02 +6.72489703e-02 -1.76876724e-01 +2.33548149e-01 -1.20594494e-01 -2.26248145e-01 -5.90452671e-01 -6.03068948e-01 -1.23001099e+00 +3.69803548e-01 -9.11956906e-01 +5.83969533e-01 -1.00411594e+00 -1.49669003e+00 -3.22299093e-01 +4.96513426e-01 -5.56502104e-01 -7.73620427e-01 -8.04787993e-01 -1.41596973e+00 -6.35618150e-01 -8.17134678e-01 -8.99791718e-01 -4.82452542e-01 +7.58734822e-01 +1.67934507e-01 -3.21522117e-01 -6.87468767e-01 -2.74741620e-01 -4.50688064e-01 -6.06779382e-02 -5.89105844e-01 -9.59421217e-01 +1.14063151e-01 -2.76843309e-01 -4.28832918e-01 -5.25066972e-01 +1.36476606e-01 +4.59463060e-01 +4.11449820e-01 +1.33706987e-01 -4.72674400e-01 +2.14518636e-01 -3.11280727e-01 +1.37960494e-01 +4.27171914e-03 +1.11807847e+00 -8.06667805e-01 +3.45339447e-01 +5.11246979e-01 -1.60257769e+00 -1.63927868e-01 +1.08069532e-01 -1.41508192e-01 -1.21116960e+00 -2.34695122e-01 +4.48109329e-01 -6.29800677e-01 +3.87387872e-01 -6.03872895e-01 -1.66560650e+00 -6.19293809e-01 +2.93305129e-01 -1.06532097e+00 +2.79464990e-01 -4.44713891e-01 -3.28650437e-02 -1.77030697e-01 -1.69744360e+00 -5.70973337e-01 +5.04569948e-01 +6.63043678e-01 -5.33073545e-01 +2.74709940e-01 +2.07441729e-02 -6.74678326e-01 +5.66010118e-01 -1.53027162e-01 +5.36170974e-02 +3.93636733e-01 -1.40720382e-01 +8.61957371e-02 +6.90782130e-01 +4.32050735e-01 -2.85992503e-01 +1.16964674e+00 -1.66084006e-01 -4.31236289e-02 +5.46311975e-01 +2.45729029e-01 -6.57567441e-01 -8.12853634e-01 +7.80532897e-01 +3.74831080e-01 +1.21728420e+00 +1.12434790e-01 +5.27562685e-02 -2.79259384e-01 +6.45823598e-01 -2.91400075e-01 +2.02067152e-01 +1.04013450e-01 -1.54251456e-01 +4.49683666e-01 -2.91678816e-01 +6.52170241e-01 -6.02540910e-01 -1.09500420e+00 +9.88148302e-02 +2.06075862e-01 -3.17184955e-01 +8.14933106e-02 +5.79176784e-01 +2.44443953e-01 +8.10433745e-01 -8.29091907e-01 -5.83062112e-01 -4.97004569e-01 -2.12089047e-01 +2.53821700e-03 +6.75161183e-01 -5.31725645e-01 +6.24183416e-01 +3.75294358e-01 -1.23156369e-01 -2.00092897e-01 +9.69523668e-01 -8.19137752e-01 -1.61770999e-01 -3.81668322e-02 +7.06809044e-01 +1.84997931e-01 +1.63268790e-01 +4.12839949e-01 +2.54007936e-01 -6.47036374e-01 -9.06279624e-01 +3.06571811e-01 +6.20131612e-01 -6.54468909e-02 +7.84677684e-01 -1.41827568e-01 +8.41281533e-01 -3.90610009e-01 -8.27027559e-02 +1.36468513e-02 -5.26101179e-02 +4.80928123e-01 -6.35764360e-01 +1.20602512e+00 -6.27387404e-01 +2.32189566e-01 -5.95972836e-01 +2.19341412e-01 -9.70315754e-01 +3.46778065e-01 -3.21373910e-01 -5.63493788e-01 -3.73017460e-01 -6.21840358e-01 +9.70939398e-01 -6.07403815e-01 -2.13927686e-01 -6.30013272e-03 -1.77676100e-02 -6.77763969e-02 +5.46919584e-01 +3.50064218e-01 +2.57300943e-01 +2.26752594e-01 -1.50012839e+00 -3.92793000e-01 +4.55743760e-01 -1.08164632e+00 -6.69550717e-01 -6.21346176e-01 -1.37876725e+00 -1.02420890e+00 -4.85827953e-01 -1.17006743e+00 -1.78272402e+00 -1.46470809e+00 -1.04273939e+00 -8.57531846e-01 -1.15577161e+00 -1.04956543e+00 -1.15795588e+00 -1.87626505e+00 -7.27140546e-01 -1.51388800e+00 -1.29408920e+00 -4.17207748e-01 -9.29623306e-01 -1.00778091e+00 -1.12952983e+00 -1.06148863e+00 -1.73761857e+00 -3.60396981e-01 -1.46300089e+00 -5.36228657e-01 -1.61626244e+00 -1.30762899e+00 -7.59409547e-01 -6.30207837e-01 -1.46882701e+00 -1.16707242e+00 -1.17046773e+00 -1.01217306e+00 -1.61319569e-01 -1.00007296e+00 -1.56794941e+00 -9.39525485e-01 -4.13833946e-01 -1.11675501e+00 -6.03366554e-01 -9.96269166e-01 -1.17468750e+00 -6.31850481e-01 -1.35458922e+00 -1.32085538e+00 -1.66945088e+00 -8.79605114e-01 -5.47802448e-01 -1.26827037e+00 -2.15840504e-01 -1.55310333e+00 -2.13333344e+00 -1.92142475e+00 -3.89833897e-01 -8.51525605e-01 -1.31704462e+00 +9.42101359e-01 -8.73303115e-01 -1.21893406e+00 -7.56864130e-01 -9.56745207e-01 -1.26744711e+00 -1.14075720e+00 -8.15888464e-01 -7.69410789e-01 -1.75304568e+00 -1.70194793e+00 -5.92933893e-01 -8.81815791e-01 -1.34989524e+00 -7.57815301e-01 -1.12941098e+00 -1.94766402e+00 -1.44684911e+00 -1.91316855e+00 -1.05727315e+00 -3.75452518e-01 -9.57151949e-01 -1.34460402e+00 -4.53531235e-01 -9.65611696e-01 -3.12908745e+00 -7.45258152e-01 -1.07453489e+00 -9.70836878e-01 -1.71151292e+00 -1.93401897e+00 -1.96521997e+00 -1.03261566e+00 -1.20231354e+00 -1.76366949e+00 -1.20010769e+00 -6.14611864e-01 -8.08211684e-01 -9.48612273e-01 -1.31581450e+00 -5.83217442e-01 -1.12377977e+00 -4.07717615e-01 -6.62770271e-01 -1.15730715e+00 +4.59199175e-02 -8.37300062e-01 -6.11427009e-01 -9.69135702e-01 -1.19317782e+00 +9.51720402e-03 -1.03953457e+00 -1.40752840e+00 -5.30376911e-01 -1.68121427e-01 +7.02187093e-03 -1.39719677e+00 +5.05613148e-01 -5.94434559e-01 -1.03755045e+00 -2.42902249e-01 +6.30818456e-02 +7.59715438e-02 -7.69252002e-01 -1.19898355e+00 -2.83196509e-01 -1.17849672e+00 +4.21603248e-02 -1.48988104e+00 -6.78314686e-01 +2.37598673e-01 -1.15985513e+00 -1.58046091e+00 -7.94291943e-02 -1.13102829e+00 -1.53663665e-01 -6.17680252e-01 -5.10742962e-02 +1.53620109e-01 -2.77526975e-01 -6.89946190e-02 -7.89302826e-01 -1.11806548e+00 +6.63064346e-02 -1.03486292e-01 -4.19768542e-01 -1.08494389e+00 -7.55015314e-01 +2.59807948e-02 -8.77906978e-01 -1.34666920e+00 -8.19937468e-01 -1.28916085e+00 -3.35554957e-01 -1.14030659e+00 -2.67718919e-03 +1.07126255e-02 -1.38647306e+00 -3.67155522e-01 -8.78223777e-01 -3.92531395e-01 -1.83948696e-01 -6.02538705e-01 -6.54883012e-02 -7.92059898e-01 -7.20842659e-01 -5.38406633e-02 -7.85797834e-01 -1.00313592e+00 -2.51609415e-01 -1.53613925e-01 -7.89854705e-01 +5.42223811e-01 +6.31588325e-02 -7.81513035e-01 -7.83621967e-01 +5.83156943e-02 -5.21542966e-01 -1.23889959e+00 -8.34659413e-02 -1.48060787e+00 -2.65043765e-01 +6.78734660e-01 -8.34512889e-01 +1.89475656e-01 +6.10683598e-02 -4.16120559e-01 -1.36222851e+00 -8.48024189e-01 -2.05958262e-01 +6.29953206e-01 -3.61377835e-01 -1.57037079e+00 -3.99425387e-01 -6.93969011e-01 -8.34786057e-01 -1.34940475e-01 +2.71334797e-01 -1.49394512e+00 -6.19601905e-02 -8.84940505e-01 -1.08066894e-01 -6.19186938e-01 -1.15450788e+00 -9.54241753e-01 -1.14612627e+00 -1.27304959e+00 -1.02404785e+00 -1.22548962e+00 -1.62724268e+00 -4.21042025e-01 -9.35288906e-01 -1.62424517e+00 -2.31045842e+00 -6.99826419e-01 -3.36689293e-01 -8.31331551e-01 +1.19813597e+00 -4.21390176e-01 -4.26486880e-01 -1.07299650e+00 -5.96663058e-01 -2.83256978e-01 -4.96715248e-01 -1.29633641e+00 -7.51991451e-01 -3.42259258e-01 -3.84238631e-01 -1.51716316e+00 -7.35301912e-01 -2.95386076e-01 -3.97917092e-01 -1.19623888e+00 -4.92368728e-01 -1.53190517e+00 -2.05123663e-01 -6.85166121e-01 +3.30824912e-01 +6.94546878e-01 -5.65373659e-01 -1.92369625e-01 -9.81983006e-01 -8.07672620e-01 -2.79645324e-01 -6.22848332e-01 -6.64101839e-01 -1.39110923e+00 -1.37949884e+00 +1.40675038e-01 -1.59397280e+00 -1.57029593e+00 -8.30275714e-01 -1.63409078e+00 -4.84669626e-01 -1.98737609e+00 -1.01605582e+00 -9.73183274e-01 -5.01033306e-01 -1.23769605e+00 -1.00632834e+00 -1.07999861e+00 -2.27321252e-01 -5.10256648e-01 +1.14251889e-01 -1.10011554e+00 -8.41028452e-01 +3.27334225e-01 -4.90490675e-01 -9.53014672e-01 -8.34230721e-01 -2.96631515e-01 -4.52601194e-01 +2.28696942e-01 -5.12751043e-01 -1.69281220e+00 -9.20522809e-01 -7.09212482e-01 +4.09617245e-01 -1.81006181e+00 -6.49652600e-01 -1.58203185e+00 -3.22588414e-01 -1.47763729e-01 -1.19458340e-01 +3.04262564e-02 -5.03547430e-01 -7.49892414e-01 -1.80144608e+00 -1.05661333e+00 -6.98096275e-01 -7.04756007e-02 -1.17490745e+00 -1.36869466e+00 -1.01057982e+00 -7.07460582e-01 -8.86498392e-01 -1.25261557e+00 -6.31879628e-01 -2.33795834e+00 -6.99734449e-01 -7.70009458e-01 -1.01889813e+00 -4.84879613e-01 +7.02384651e-01 -1.44178793e-01 -1.12768985e-01 +1.20635562e-01 +3.45986485e-02 -5.29163629e-02 -1.31411165e-01 -3.59597862e-01 +6.31614923e-01 +3.32739204e-01 -3.84447455e-01 +7.10196555e-01 +2.77087629e-01 +1.11834623e-01 +1.07332945e+00 -3.33941489e-01 +4.47583139e-01 +1.13658488e-01 -5.78507543e-01 +1.05266273e+00 +5.05168736e-01 +5.48445165e-01 +2.12420672e-01 +3.70301679e-02 +5.16566858e-02 -4.36005712e-01 -2.03028619e-02 +2.64562517e-01 -7.13352621e-01 +1.33069143e-01 +7.10923374e-02 +4.22745436e-01 +7.31913030e-01 +2.64091104e-01 -1.30650949e+00 +8.34694207e-01 -1.07621513e-02 -5.31095639e-02 -1.03663921e+00 +4.75802064e-01 -1.11778736e+00 -3.31486881e-01 +5.57527900e-01 +8.99612457e-02 -6.48763895e-01 +9.73967835e-02 -1.77836604e-02 -6.81851566e-01 -3.96599501e-01 +1.50086302e-02 +5.07766247e-01 +1.05893895e-01 -3.45933229e-01 +1.45859450e-01 +1.49125397e-01 +2.89602846e-01 -4.43056554e-01 -2.46031672e-01 -3.73099804e-01 -2.17243195e-01 -4.23258513e-01 -3.78346831e-01 +7.14328170e-01 +1.79994345e-01 -1.05724192e+00 -6.18261434e-02 -2.70975083e-02 -2.83074051e-01 +7.49902189e-01 +2.15971589e-01 -2.10728616e-01 -6.88928664e-02 +1.16685182e-01 +2.29438737e-01 -8.20159137e-01 +5.68510354e-01 +1.29136279e-01 +1.32209569e-01 +1.59021959e-01 -1.48627415e-01 +7.63673857e-02 -3.47806007e-01 +4.81449328e-02 -3.70901465e-01 +3.12331915e-01 -4.69647765e-01 -1.32572353e-01 +7.16330886e-01 -1.82917252e-01 -2.77202785e-01 -5.48891008e-01 -3.88840914e-01 -5.83124578e-01 +2.03575209e-01 +9.35942158e-02 -1.22288682e-01 -9.67404693e-02 +2.91745663e-01 +3.01001698e-01 -7.32164800e-01 +2.06347201e-02 -2.58470088e-01 -1.23778439e+00 +3.70182127e-01 +6.48197904e-02 -8.56960058e-01 -6.86095476e-01 +2.73707271e-01 -3.82005244e-01 -4.75643463e-02 +1.24177051e+00 -6.35707617e-01 -6.63354635e-01 -1.26990199e+00 -6.67276800e-01 +6.83833182e-01 +1.78119823e-01 -6.14841104e-01 +6.98654771e-01 -7.01481044e-01 +9.33813006e-02 -5.86313069e-01 -5.30258238e-01 +3.97662878e-01 +2.65084648e+00 -6.29356623e-01 -9.25641418e-01 -1.09460568e+00 +9.94040444e-02 -1.96515167e+00 +8.03199932e-02 -9.10629988e-01 -9.39118862e-01 -2.43858504e+00 +1.20123780e+00 +7.19710410e-01 +4.63830203e-01 -1.81290019e+00 +4.10836518e-01 +4.85124946e-01 -1.31108925e-01 -1.83911872e+00 +1.02594227e-01 -2.14210019e-01 -1.05269802e+00 -4.68692988e-01 -6.37483239e-01 -1.45459741e-01 +2.16028050e-01 -3.42629194e-01 -8.61601591e-01 -9.02715981e-01 +3.36135149e+00 -1.34938583e-01 -5.41061223e-01 -1.25184131e+00 -1.00301754e+00 -1.01742232e+00 -2.39377499e-01 -1.09797394e+00 -4.10310626e-01 -1.80712211e+00 -9.82297838e-01 -1.55145213e-01 +2.01005220e+00 +1.18366390e-01 -1.18280657e-01 -7.29107380e-01 -8.73893678e-01 -5.05097568e-01 +2.11478576e-01 -4.98787582e-01 -1.01147056e+00 +2.08938681e-02 -2.39195660e-01 +9.15858448e-01 -2.44626865e-01 -7.17545331e-01 +7.72086561e-01 -3.56494814e-01 +1.05135329e-01 +1.63065307e-02 +1.82190728e+00 -1.16362226e+00 -6.19968116e-01 -5.84749460e-01 +6.30232021e-02 -2.09977984e+00 -2.85152406e-01 -7.10802257e-01 -2.59213179e-01 -2.09143594e-01 +2.08483148e+00 -6.95273519e-01 -1.36393511e+00 -3.58994654e-03 +1.30980659e+00 -1.50411177e+00 -1.39018428e+00 -7.51161873e-01 -1.25783861e+00 -1.36874533e+00 -1.03107381e+00 -1.19071245e+00 -8.88220429e-01 +1.51839006e+00 -1.15991235e+00 +9.65015352e-01 +1.78279459e-01 +2.83578634e-01 +1.85189143e-01 -3.31796221e-02 -1.99300066e-01 -5.70295095e-01 -5.93511879e-01 +3.75146723e+00 -1.14261174e+00 -2.03013018e-01 +1.11821783e+00 +1.71442568e-01 +4.17283237e-01 +5.77794850e-01 +6.10373020e-01 -7.16439858e-02 +2.57937050e+00 -1.03782952e+00 +4.30036858e-02 -2.05683661e+00 -1.46652257e+00 +5.64314704e-03 -9.14288223e-01 -1.13872722e-01 +1.13273859e+00 +7.24795520e-01 +2.26886570e-01 +1.30244315e+00 +1.06697059e+00 -9.21171188e-01 +9.81019855e-01 +8.87439668e-01 +5.29273152e-01 +4.39325809e-01 +1.40280664e+00 +1.65554893e+00 -5.79982400e-01 +3.55682001e-02 +1.33165431e+00 +8.94607723e-01 -4.20787483e-01 -1.20566256e-01 -1.49435747e+00 -9.11920786e-01 -3.18731856e+00 -2.65722722e-02 -7.56698772e-02 -8.14985693e-01 +2.95761168e-01 -1.21064126e+00 +6.89005628e-02 -1.06959951e+00 +6.62930310e-01 -8.70932043e-01 +5.56788325e-01 +4.12291497e-01 +5.85876584e-01 -7.77899444e-01 +1.86379507e-01 -1.24795151e+00 -1.28177309e+00 +2.17599824e-01 +1.56119108e-01 -8.08434427e-01 -8.90445232e-01 -1.51200384e-01 +9.55109000e-01 -1.54939568e+00 +3.16557586e-02 -9.86992419e-01 -9.96573150e-01 +4.17457283e-01 -1.00624120e+00 +1.35699058e+00 +1.06493378e+00 -3.13764870e-01 -1.30154753e+00 +1.16996241e+00 +2.04513624e-01 +7.18354702e-01 -4.90853101e-01 +2.68646896e-01 -6.24991536e-01 +1.05021060e+00 -1.39170122e+00 +2.95221001e-01 +2.91538715e-01 +3.10330653e+00 -5.95305920e-01 -9.00795609e-02 +1.12766266e+00 -4.70272809e-01 -1.80610880e-01 -1.17784786e+00 -1.52877784e+00 -4.03523505e-01 -4.72145140e-01 +1.53018069e+00 -4.12645452e-02 +1.05247545e+00 +2.22344205e-01 +1.49307949e-02 +1.11168540e+00 -2.41148233e-01 -4.16524827e-01 -5.65146923e-01 +1.15316205e-01 +4.70268279e-01 -9.06597495e-01 -5.74351192e-01 +5.28995097e-01 -2.19655380e-01 +9.84250009e-01 +9.04385388e-01 +5.76639831e-01 +8.16841841e-01 +2.08219099e+00 -1.00862575e+00 +2.33791769e-01 -1.66304553e+00 -3.41811866e-01 +9.52199027e-02 -1.36954165e+00 -4.57395762e-01 +1.21815860e+00 +2.85830766e-01 +3.24460506e-01 +5.91240168e-01 +5.61620295e-01 -1.26260269e+00 +1.21251822e+00 +3.85436803e-01 +4.04683173e-01 -1.36347651e-01 +1.29056603e-01 +1.86107171e+00 -2.40245938e+00 -3.06106180e-01 +1.22575545e+00 +1.66959405e+00 +1.06907511e+00 +7.45972469e-02 -7.88879573e-01 -4.40510184e-01 +1.55977249e+00 +1.05439472e+00 +2.05103606e-01 -1.01101317e-01 +1.66912064e-01 -2.23557329e+00 -1.04816653e-01 -3.12796563e-01 +1.51944721e+00 -1.41621912e+00 -4.60995853e-01 +7.02603996e-01 +1.94655657e+00 -8.16292524e-01 +4.63846862e-01 -9.05663610e-01 -1.12125587e+00 -2.08620448e-02 -5.73712707e-01 -3.77350271e-01 -6.31687105e-01 +1.68053687e-01 +1.09926760e+00 +6.85583279e-02 +9.68789816e-01 -1.22036934e+00 -7.18097448e-01 +3.35383058e-01 -1.34912109e+00 +6.77806437e-01 +1.66454113e+00 -7.82374918e-01 -1.64475906e+00 +1.03944802e+00 -4.62170839e-01 +5.52232504e-01 -3.47865194e-01 -4.45067823e-01 +2.35862285e-01 +9.10372853e-01 +1.78856993e+00 -2.61556745e-01 -5.30566394e-01 +1.08439791e+00 +1.75264168e+00 -4.36377615e-01 +3.70921463e-01 +5.46160221e-01 +1.27084744e+00 +1.09977388e+00 +3.70896161e-01 +1.75135767e+00 +3.64941269e-01 -2.33472407e-01 -2.68730700e-01 +1.39280036e-01 -3.81772146e-02 -3.76656294e-01 +2.49293756e+00 -3.18856746e-01 +2.67724961e-01 -9.94417369e-02 -6.83753610e-01 -2.54196215e+00 -1.60405540e+00 -7.35914588e-01 -6.41308427e-01 -1.55740708e-01 +8.97254646e-02 -2.57517964e-01 -5.59677631e-02 -5.59973001e-01 -3.81161714e+00 -4.14158314e-01 -2.46034384e-01 -5.10637164e-01 +8.29827309e-01 -2.44958833e-01 -3.88291538e-01 +1.18329756e-01 -2.26215437e-01 -4.86406572e-02 -2.76299524e+00 +3.03707623e+00 +2.88793802e-01 +1.94943354e-01 -9.71973121e-01 +6.75411105e-01 +3.31094563e-01 +4.66715664e-01 -9.19379115e-01 +1.20639706e+00 +3.45407426e-02 +1.13006413e-01 +3.83613318e-01 -3.69285733e-01 -4.98482734e-01 +4.01257239e-02 +2.98419029e-01 +1.33127689e-01 +2.72411990e+00 -3.73420954e-01 -1.45110220e-01 +4.34440196e-01 -7.34700635e-02 +9.90952432e-01 -1.58010200e-01 -2.34088898e-01 +3.69898111e-01 +1.52858987e-01 -5.32997809e-02 +2.74873674e-01 +4.81589049e-01 -4.80808198e-01 -7.52959326e-02 -1.50507897e-01 -1.31483555e-01 -1.72629222e-01 +2.98119873e-01 +2.09409535e-01 +1.94560289e-01 -5.84836543e-01 -1.77173710e+00 -1.00767124e+00 +9.87817466e-01 -2.26664484e-01 +1.12572765e+00 +1.22326151e-01 +2.84315467e-01 +1.04970783e-01 +2.75943494e+00 -5.58237255e-01 -2.62442350e-01 +7.32973754e-01 -1.99563935e-01 -1.11197874e-01 -3.60878706e-01 +5.44993401e-01 -8.56474876e-01 -6.15535557e-01 +2.30577445e+00 +3.11671585e-01 +1.80162594e-01 +2.37944984e+00 +2.18986130e+00 -1.10330358e-01 +1.49486378e-01 +1.00266647e+00 +2.61827171e-01 +8.30659986e-01 -5.41734159e-01 -3.81522208e-01 +8.54700089e-01 +1.05628502e+00 -2.05605030e-01 +1.42185163e+00 -2.69905329e-01 -1.10340640e-01 +1.05278599e+00 -9.25832152e-01 +3.16308111e-01 +1.07778728e+00 -6.76387072e-01 +3.71931762e-01 -7.19954491e-01 -1.02222192e+00 +7.21843004e-01 -2.32247368e-01 -7.68490791e-01 +2.53235638e-01 -1.52145073e-01 -1.60850361e-01 +2.68951148e-01 +9.07600760e-01 +1.02959371e+00 +8.23769450e-01 +9.90653634e-02 +1.26710749e+00 +2.08415717e-01 +7.32866824e-01 +5.43619156e-01 +1.83999807e-01 +1.61198601e-01 -7.05683887e-01 -1.16657460e+00 -1.31850541e+00 -3.40910286e-01 -1.06789395e-01 -4.01794374e-01 +1.21021140e+00 +1.08115780e+00 -7.78868079e-01 +1.49575144e-01 -3.98195803e-01 +7.31931984e-01 +6.05405331e-01 +6.98021889e-01 -9.40248907e-01 -2.23934799e-01 +9.64303970e-01 +3.27010125e-01 +1.13479722e+00 +6.07978880e-01 +1.30875850e+00 -7.06272066e-01 +2.05273896e-01 -1.12189531e+00 +9.25764024e-01 -8.32644582e-01 +1.82803273e-01 +1.33383226e+00 +1.31359911e+00 +4.12736475e-01 -3.84782732e-01 -1.57708383e+00 +8.74166191e-01 +1.64611429e-01 -2.43943557e-01 +2.85476297e-01 -2.25109592e-01 -2.44305342e-01 +1.00025117e+00 +6.73124790e-02 +3.75963822e-02 +3.59085910e-02 +7.41275370e-01 +2.47238800e-01 +1.67324281e+00 -6.52193904e-01 +7.47704983e-01 -6.15630627e-01 -3.88357714e-02 +7.46535838e-01 -6.64177239e-01 -5.69830000e-01 +1.93681836e-01 +1.02031779e+00 +1.32928979e+00 +1.16579723e+00 +4.68259692e-01 +3.97827148e-01 +1.05922818e+00 +5.58522880e-01 -1.67362362e-01 -4.50312406e-01 +2.53580004e-01 +7.03278780e-01 -7.50950456e-01 -1.36989504e-01 -4.30118263e-01 +2.81980217e-01 -8.63761604e-01 -3.00861925e-01 -1.01940358e+00 -4.98146117e-01 -1.10016726e-01 -7.67218709e-01 -1.11847317e+00 -1.16155982e+00 -4.43855003e-02 -6.47136450e-01 -8.04057002e-01 -1.85794383e-01 +1.19491823e-01 +2.77675334e-02 -3.74165952e-01 +1.87413916e-01 -1.39332652e-01 -7.00031519e-01 -9.49249685e-01 -3.83011937e-01 -3.50826651e-01 -2.46871307e-01 +5.17293215e-02 -5.09823561e-01 +6.25781834e-01 -7.76279330e-01 -4.47381705e-01 +1.20029375e-02 -8.55171859e-01 -5.51693738e-01 -3.96206528e-01 -7.65659451e-01 +6.16698638e-02 -5.24861813e-01 +1.16064191e-01 -1.35903805e-02 -1.06849647e+00 -1.35675609e-01 -2.27528870e-01 +7.65152797e-02 -9.13409814e-02 -6.19822741e-01 +2.90845931e-01 -7.87934840e-01 -9.03724849e-01 -6.05271816e-01 -4.83260691e-01 +2.02183917e-01 -1.46495163e+00 -9.47151423e-01 -3.26932430e-01 +2.98653916e-03 -2.14030281e-01 +5.35620041e-02 +2.35003933e-01 -1.84498861e-01 -3.84720206e-01 +1.34293392e-01 +3.05463552e-01 -7.73311079e-01 -2.23836109e-01 +1.40781730e-01 -5.22143960e-01 -6.31538272e-01 -5.68045139e-01 -1.56705439e-01 +1.05226986e-01 -6.58749938e-01 -7.26141393e-01 +1.04148023e-01 -5.55222750e-01 -3.34212899e-01 +3.76653895e-02 -1.89255401e-01 -8.03869784e-01 +3.58500451e-01 -4.22926188e-01 -2.91274488e-01 +4.52760220e-01 -3.81872952e-01 -6.41813815e-01 -1.12762320e+00 -1.17524946e+00 -4.09199357e-01 -1.21251069e-01 +2.92235285e-01 -5.06766677e-01 -4.95848030e-01 -2.22988844e-01 +2.13128151e-04 +3.59938115e-01 -1.12006985e-01 -8.91121447e-01 -4.62104201e-01 +1.24287397e-01 +2.29477838e-01 +5.67338347e-01 +5.27535081e-01 +9.44338381e-01 -3.72803748e-01 -1.00222516e+00 +6.75012589e-01 -9.91259590e-02 -2.84294724e-01 +4.96728420e-01 -1.78293392e-01 -2.88128018e-01 +1.15736639e+00 -6.62168980e-01 +3.10053945e-01 +9.90451396e-01 -1.03570306e+00 +2.30455771e-01 -6.24372065e-01 -1.13882113e+00 +4.04735118e-01 +3.30942869e-02 -9.65290546e-01 +2.08151057e-01 -5.70318639e-01 -6.92757731e-03 +4.13353503e-01 +7.56988943e-01 +3.95788372e-01 +5.22471011e-01 -9.83126741e-03 +1.29567361e+00 -6.76719844e-02 +2.59533316e-01 +4.36717838e-01 -4.79464419e-02 -6.61233664e-02 -7.21296251e-01 -7.93870628e-01 -2.63019264e-01 -1.83278292e-01 -4.39816087e-01 -4.86244738e-01 +1.32246172e+00 +1.20419692e-02 -8.41275394e-01 -6.60595059e-01 -5.92986606e-02 +4.30740952e-01 +5.81544697e-01 +4.42540079e-01 -1.46335304e+00 +1.64372370e-01 +4.53013033e-01 -9.27519381e-01 +7.20527411e-01 +2.41394177e-01 +1.21474290e+00 -8.83730710e-01 +6.93110824e-01 -8.78833890e-01 +4.79670942e-01 +2.31730685e-01 +1.11943737e-01 +1.14771640e+00 +3.87722433e-01 +3.87960970e-01 -9.60784197e-01 -9.86517310e-01 +3.13170105e-01 +1.83030754e-01 -5.79110265e-01 -3.93154509e-02 -5.11330128e-01 -8.88880849e-01 +6.87574267e-01 -6.07215762e-01 +1.06846273e-01 -8.33937675e-02 +2.05669239e-01 -8.33490416e-02 +6.33216679e-01 -7.50160336e-01 +3.51107389e-01 +3.06665123e-01 -1.51984319e-01 +4.64476377e-01 -1.36314809e+00 -1.48045998e-02 -5.11810541e-01 +6.64567232e-01 +9.12948489e-01 +1.40036964e+00 +4.04530585e-01 +5.61465979e-01 +8.63439441e-01 -6.60273246e-03 -1.42962843e-01 -3.74049008e-01 +2.35118687e-01 -2.55809695e-01 +8.43224764e-01 -4.36824709e-02 +1.27328622e+00 -7.23469019e-01 +1.20777942e-01 -8.33817303e-01 +1.12844622e+00 +6.84418678e-01 +1.67817438e+00 +2.06550360e-01 -1.70420796e-01 +7.85354197e-01 +3.63416284e-01 -8.71112585e-01 +1.05478251e+00 -7.44796932e-01 +1.12955451e+00 -5.99919021e-01 +1.12581477e-01 -1.03580868e+00 +4.58141893e-01 -3.42645794e-01 -9.64749515e-01 +4.76328284e-01 -1.96063280e-01 +5.75402260e-01 -5.10694206e-01 -1.28942347e+00 +9.92379665e-01 -9.69190896e-01 +1.16549885e+00 -9.98442888e-01 +9.57353175e-01 +8.34493577e-01 -7.92676330e-01 +6.34200931e-01 -2.45687068e-01 -1.49421796e-01 -3.81379008e-01 +4.02503639e-01 -4.67046976e-01 -4.39054519e-01 -1.28908932e+00 -4.51492399e-01 -2.67472565e-01 +2.59329200e-01 -1.14592925e-01 -7.86869943e-01 -1.09986806e+00 +1.54333007e+00 +3.00031960e-01 -1.52175084e-01 -9.06983793e-01 +3.68300021e-01 -1.35262406e+00 +5.85815907e-01 +1.15893805e+00 +3.84718478e-01 +8.03924024e-01 +2.28119910e-01 -1.03918338e+00 +1.53043628e-01 -1.12703823e-01 +1.12854540e+00 +1.58250773e+00 -2.14603618e-02 -2.08818726e-02 -2.82454025e-02 +1.37114549e+00 +5.41840374e-01 -1.08922221e-01 +5.02995729e-01 -2.77260896e-02 +1.23045295e-01 -1.62105036e+00 -4.81012277e-02 +9.99534503e-02 -2.41417646e-01 -5.87489545e-01 -6.46529719e-02 -8.97549212e-01 +1.25725791e-01 +1.32160616e+00 +1.72156855e-01 -4.17642623e-01 +1.03670752e+00 +3.57483059e-01 -2.45942652e-01 +1.14529240e+00 -1.65433526e+00 -1.50983500e+00 -1.86309040e+00 +8.43863368e-01 +1.06747675e+00 +1.38023567e+00 +8.94775033e-01 -5.94039679e-01 +2.46958613e-01 +6.10796452e-01 +6.29235983e-01 +1.29359639e+00 +6.21088088e-01 +5.98327339e-01 -7.38145530e-01 +1.19052505e+00 +7.86635727e-02 +1.55881464e-01 +4.89780717e-02 +6.53349102e-01 +1.14746201e+00 +4.02436137e-01 -2.80426443e-01 +8.41786489e-02 +1.45026422e+00 -1.29927412e-01 -5.15580416e-01 -9.94455516e-02 +8.86020586e-02 +6.75363541e-01 -1.11040147e-03 +3.40558179e-02 +4.99861315e-02 -5.07842541e-01 -3.29910576e-01 -4.72293228e-01 -3.08053404e-01 +3.09661597e-01 +1.55478120e+00 +1.24236465e+00 +1.09996355e+00 -1.40001878e-01 +7.07064688e-01 -2.86378741e-01 -3.94013703e-01 +2.03214347e-01 +2.58479744e-01 +7.54145503e-01 -1.24262726e+00 +1.07842624e+00 +6.72372617e-03 +5.30465782e-01 -1.29841805e-01 +1.72227606e-01 -6.56800568e-01 -1.62690610e-01 +2.44351089e-01 +7.89725602e-01 -1.90456316e-01 -3.51090014e-01 +8.23049903e-01 +1.54071021e+00 +1.80237544e+00 +1.12260652e+00 +4.16678041e-01 -1.65536404e-01 +2.76969612e-01 +1.42152274e+00 +8.07492197e-01 +2.26021990e-01 +1.53756440e+00 -1.04190879e-01 +5.24920285e-01 -2.14218765e-01 -3.93484890e-01 -8.85717154e-01 -2.59304624e-02 +8.78101289e-01 -1.95252985e-01 -2.31999099e-01 -9.06671677e-03 -2.57978290e-01 +4.40189093e-01 -2.37504080e-01 +1.29556406e+00 +5.13861120e-01 +1.19998977e-01 -4.35866952e-01 +4.19042051e-01 +1.40056872e+00 +4.20479417e-01 +5.58732092e-01 -6.95250928e-02 +4.76423241e-02 -4.00844634e-01 +6.37030721e-01 +1.08655345e+00 -4.97171104e-01 +1.17818482e-01 +1.09350912e-01 +1.34224367e+00 +6.89657480e-02 -1.16387165e+00 -6.34908199e-01 +5.50297320e-01 +1.57403994e+00 +1.19354367e+00 +1.92004412e-01 -6.28316939e-01 -3.76769751e-01 -2.64032334e-01 -4.88126218e-01 -3.84159416e-01 -4.28126678e-02 -3.02243769e-01 -4.63738471e-01 -9.77130830e-01 -7.79829144e-01 -6.71920598e-01 -8.89809251e-01 -9.04950321e-01 -1.35553455e+00 -4.17709261e-01 -6.96202278e-01 -2.52698660e-01 -1.67027175e+00 -5.10557294e-01 -4.25700575e-01 -5.95835328e-01 +4.05086398e-01 -2.53311962e-01 +2.19846442e-01 -8.92863452e-01 -1.08636968e-01 +3.90785038e-02 -1.68668544e+00 +5.15668094e-02 -1.78860769e-01 -9.12968040e-01 -8.63635659e-01 +8.46746787e-02 -6.10952795e-01 -2.64685631e-01 -6.13525867e-01 -4.36536908e-01 -2.65187740e-01 -3.76695901e-01 -4.27329063e-01 -2.11435452e-01 -5.86343944e-01 +2.39225790e-01 -4.91946727e-01 -7.88435698e-01 -7.84328580e-01 -6.91705167e-01 +6.52128682e-02 +2.95814484e-01 -5.11735201e-01 -3.77669811e-01 -2.75845081e-01 -1.64400995e-01 -7.65607715e-01 -1.52380157e+00 -1.19150734e+00 -9.79759037e-01 +1.13933071e-01 -2.88251877e-01 -1.07108295e+00 -1.07234597e+00 -1.91779360e-01 -5.22966087e-01 -5.23304760e-01 -3.95741493e-01 -7.15819359e-01 +1.56905100e-01 -3.50326858e-02 -2.21823547e-02 -1.19530487e+00 -6.74534321e-01 -9.04064238e-01 -7.55957842e-01 -5.43414056e-01 +5.96917033e-01 -7.14303792e-01 -1.25429258e-01 +3.96137208e-01 -4.98995960e-01 -1.28503859e+00 -1.04835927e+00 -7.79213309e-02 -4.90106493e-01 -1.03759438e-01 +1.63612589e-01 -1.05797961e-01 -5.31941354e-01 -8.85037356e-04 -8.37180614e-01 -1.06073666e+00 -2.74995267e-01 +7.46982336e-01 -1.01850820e+00 -4.92464870e-01 -1.01349270e+00 -1.08231091e+00 +3.44990380e-02 -6.68959200e-01 -5.35376608e-01 -1.14065874e+00 -3.40926319e-01 -1.88001335e-01 -5.14636636e-01 +7.86447465e-01 +3.51554573e-01 +6.15170479e-01 -1.88345075e-01 +1.27323568e+00 -3.72719914e-01 +2.51833200e-01 -5.16466141e-01 -5.16560733e-01 +1.04361355e+00 +3.16652283e-03 -1.32129490e-01 -2.53474712e-01 +2.09892958e-01 -4.96544689e-01 -7.23994136e-01 -3.36494476e-01 -6.32267296e-01 +3.77449393e-01 -5.06873667e-01 -5.68430424e-01 -3.71424779e-02 -8.81572783e-01 -7.38330662e-01 -5.38985133e-01 +4.77094144e-01 +7.61589874e-03 +9.49730098e-01 +5.04441112e-02 +1.15664196e+00 -3.34277570e-01 +4.62514646e-02 -1.17430665e-01 -5.83095372e-01 -1.40012622e-01 +3.11627597e-01 -1.03752851e+00 -3.61335218e-01 +1.01457441e+00 +1.86277747e-01 -2.99056828e-01 +6.07647188e-03 -3.23930085e-01 -4.82270628e-01 +2.73099402e-03 -3.40048522e-02 -2.77532876e-01 -2.19836116e-01 -3.56484383e-01 +6.40301943e-01 +1.07612157e+00 +4.35985267e-01 +1.78075790e-01 +2.95142710e-01 -2.49554694e-01 +1.92283511e-01 +5.84215105e-01 +1.71631157e-01 -6.47916645e-02 +1.48106480e+00 -3.51423740e-01 +2.02687368e-01 -3.47436875e-01 -2.48722702e-01 -7.42234051e-01 +1.10252416e-02 +2.08540872e-01 -6.69388175e-01 -6.58434212e-01 -3.40984344e-01 -4.58189428e-01 +3.81567061e-01 -6.66657746e-01 +9.38346684e-01 +2.04378754e-01 -7.58018315e-01 -8.08035076e-01 -1.92964360e-01 +9.25923586e-01 -4.64381069e-01 +2.24652678e-01 -1.38176888e-01 -6.48186922e-01 -1.58254087e-01 +6.11775637e-01 +6.98494196e-01 -8.35954607e-01 -1.91978887e-02 -1.07216351e-01 +4.60144788e-01 -6.56016648e-01 -2.09519982e+00 -7.48956382e-01 +1.00296104e+00 +6.91956401e-01 +8.78676832e-01 +9.04291272e-02 -4.96855289e-01 +1.72556967e-01 +3.96479040e-01 -1.43661952e+00 +5.60446024e-01 -5.90579987e-01 +1.40444517e-01 -1.35362363e+00 +7.19136894e-01 +4.64472979e-01 +1.81473926e-01 -8.84577394e-01 +9.40072775e-01 +1.22132623e+00 +2.16590688e-01 +8.73593464e-02 -1.04521227e+00 +6.20045543e-01 +3.13163519e-01 +3.03378344e-01 +2.16482952e-01 +7.89045453e-01 +9.51622427e-03 +4.25868034e-01 -6.15957499e-01 +2.55271971e-01 +3.80504727e-01 +8.99523675e-01 -3.33535969e-01 +8.99366975e-01 +1.48548234e+00 -1.44295549e+00 -1.08259392e+00 +4.09425974e-01 +1.09722257e+00 -1.20034078e-02 +5.24049640e-01 +1.59376204e-01 +7.89833188e-01 +1.53538257e-01 +2.39525184e-01 -1.15448177e+00 -2.10535780e-01 -9.00947034e-01 +4.38740402e-01 +1.77064851e-01 +1.50777609e-03 +1.80774152e-01 -8.53324056e-01 -1.24934983e+00 +4.01692122e-01 +2.72072703e-01 -4.88269567e-01 -1.14165652e+00 -1.81123126e+00 -1.42409980e+00 -7.37033725e-01 +6.48303270e-01 +6.93693995e-01 -7.09786236e-01 -1.00047708e+00 +5.78859031e-01 +1.15597415e+00 -2.33547792e-01 +1.63816482e-01 +6.38795912e-01 -1.18618600e-01 +2.83073723e-01 +4.13395226e-01 +9.19398069e-01 +4.90223095e-02 -4.58791018e-01 +6.43730402e-01 +7.40796804e-01 -4.45851237e-01 +3.81257534e-01 -1.60890627e+00 +1.05884492e+00 -3.42425448e-03 +3.51231754e-01 -8.54625523e-01 +1.63124812e+00 +4.04274195e-01 -7.46798992e-01 +1.95296451e-01 -3.33124518e-01 -1.35143697e-01 +6.64476037e-01 +1.11281836e+00 +3.07822317e-01 -7.30277836e-01 -1.05977988e+00 +1.58006847e+00 +4.56488192e-01 -2.53077090e-01 +6.70187294e-01 -6.74667001e-01 -1.34419394e+00 +1.00299072e+00 -3.40867549e-01 +8.30848739e-02 +7.57521251e-03 -1.03541899e+00 -1.95208132e-01 -9.89207253e-03 -3.67284805e-01 +1.50175846e+00 -7.14822769e-01 -1.66432001e-02 -1.10428679e+00 -1.04361665e+00 -4.08628225e-01 -3.54738981e-01 -8.49998355e-01 -6.08157635e-01 -9.55608070e-01 -1.21352279e+00 -1.45705128e+00 +3.89857590e-01 -1.18549681e+00 -1.62057257e+00 -6.47456408e-01 -4.70890552e-01 -1.07361674e+00 -3.68929923e-01 -9.87801015e-01 -1.14929676e+00 +4.67986345e-01 -8.99044991e-01 +2.10006669e-01 -9.45262015e-01 -4.49104697e-01 -1.69620961e-02 -1.49760699e+00 -9.88794208e-01 -1.66839337e+00 -5.57668746e-01 -7.47167289e-01 +4.31838840e-01 +2.40699351e-02 +7.23870993e-01 -1.58903372e+00 -8.31766248e-01 -6.53135300e-01 -1.18574655e+00 -1.06911741e-01 -2.97937125e-01 -4.33132499e-01 -1.88502073e-02 -2.96032608e-01 -8.67178559e-01 -2.76806265e-01 -1.12188315e+00 -8.20785165e-01 -6.43498480e-01 -5.34559131e-01 -5.84695697e-01 +3.81684542e-01 +8.50556493e-02 -1.16815902e-01 -6.84924722e-01 +7.27785528e-01 -4.28897291e-01 -5.02871871e-01 -5.29362977e-01 -5.72197139e-01 +2.14070082e-01 +2.82240003e-01 -1.03438675e+00 -5.96396863e-01 -3.86693805e-01 -1.90134975e-03 -3.52503598e-01 -1.34462363e-03 +2.45507061e-01 +4.42434430e-01 +5.94026625e-01 +4.30266380e-01 +1.14820647e+00 -6.97533965e-01 -3.77567708e-01 +2.77222037e-01 -2.41039544e-02 +2.69077629e-01 -7.10023582e-01 -6.11699760e-01 -6.49794221e-01 -1.96546867e-01 -1.23762500e+00 -1.18346846e+00 -3.93724978e-01 -3.34111899e-01 -3.51725221e-01 +1.50514826e-01 -4.07240361e-01 -6.07350394e-02 -5.87723076e-01 -6.46416783e-01 +2.73380399e-01 +4.32255626e-01 -1.39852194e-02 -1.18292704e-01 -7.71364391e-01 -7.18868449e-02 +6.18529499e-01 +1.18130304e-01 -4.26993787e-01 -9.14217830e-01 +2.75800437e-01 +1.09638309e+00 -1.15263581e-01 -3.04399282e-01 +2.67461121e-01 -3.03242188e-02 -5.07663712e-02 +1.65914464e+00 -1.12006414e+00 -8.49912405e-01 +1.49243087e-01 -2.78990716e-01 +3.21019799e-01 -1.74172431e-01 +9.58370328e-01 +1.47396755e+00 -5.57399452e-01 +1.27626508e-01 +3.58937919e-01 +3.09286356e-01 +1.31557226e+00 -4.44997549e-02 +3.69328141e-01 -2.11516589e-01 -1.13823795e+00 -8.67938995e-01 +9.18550566e-02 +5.78573048e-01 +1.18613815e+00 +2.55946904e-01 +2.29070783e-01 -2.74118692e-01 +1.06988633e+00 -1.44322014e+00 +5.64792752e-01 -1.26591595e-02 +9.79218602e-01 +2.73113325e-02 +6.55434877e-02 -1.15455723e+00 -6.85653985e-01 +1.57661092e+00 +4.34384227e-01 +4.64337856e-01 -4.26058531e-01 -6.21522129e-01 -7.51081169e-01 +3.76655817e-01 -4.01892066e-01 +8.32456112e-01 -1.18815258e-01 +3.77764851e-01 +1.01983130e+00 +1.94366410e-01 +3.80829901e-01 -1.03322744e+00 +1.00778866e+00 +3.43363613e-01 +3.13714534e-01 +4.83069599e-01 -6.82530344e-01 -4.01227862e-01 +5.65829694e-01 -1.08758152e+00 +3.94932538e-01 +4.92635876e-01 +1.31905627e+00 +1.00611776e-01 -5.21773705e-03 +1.16680539e+00 -1.00142598e-01 -1.09450631e-02 +9.25757766e-01 -3.19320224e-02 -6.28777802e-01 +1.83183992e+00 -6.41906500e-01 -1.08136944e-01 +9.84199107e-01 +2.93865293e-01 -1.03208458e+00 -3.20317149e-01 +5.27760208e-01 -9.87341404e-02 +6.48459494e-02 -5.93983471e-01 -5.81518769e-01 +5.43033957e-01 -2.84902573e-01 +5.36866300e-02 +1.36047363e+00 -1.09258664e+00 +1.34103030e-01 +2.83537060e-02 -7.70343840e-01 -4.94700432e-01 +8.75904560e-02 -6.03034616e-01 -5.02155066e-01 -1.40076411e+00 +5.20747840e-01 +1.03186738e+00 +6.05028458e-02 +1.30284717e-02 -2.33857483e-02 -1.86761498e-01 +6.08567715e-01 +2.77506411e-01 -4.01398033e-01 -9.71242785e-01 -2.58325666e-01 -1.15294027e+00 -4.81670946e-01 -4.92322803e-01 +5.49651921e-01 +1.16360426e+00 -1.23726688e-01 -1.03018269e-01 +2.72261888e-01 +7.50685394e-01 +4.68157232e-01 -6.48336887e-01 +4.14748102e-01 -1.88438773e-01 -6.39049888e-01 -1.01244044e+00 +5.90302706e-01 -2.14020070e-02 +1.21618223e+00 -9.27441940e-02 -2.08812326e-01 -1.26685396e-01 +1.22419262e+00 -1.85493100e+00 +3.97162497e-01 +2.01621294e-01 +1.14040065e+00 +3.41794282e-01 +2.36032709e-01 -6.68181062e-01 -8.88597965e-01 +1.00749207e+00 +5.57727478e-02 +6.39321506e-01 -1.08005679e+00 -7.95101106e-01 -1.11875200e+00 +6.27637148e-01 -8.73459578e-01 +2.08459750e-01 +1.51465774e-01 -7.36100003e-02 +6.16198301e-01 +1.68429874e-03 +1.02922273e+00 -1.08424401e+00 -3.05348665e-01 -6.89235866e-01 +8.89009595e-01 +7.22990930e-01 -4.95285660e-01 -6.61427438e-01 +5.47914624e-01 -5.40199339e-01 -4.92224514e-01 +1.90098166e-01 +5.04866362e-01 +5.05730510e-01 -7.48965740e-01 +3.81939888e-01 +3.67789447e-01 -7.53925443e-01 +7.41006255e-01 -6.42480373e-01 -6.61550164e-01 -1.46947786e-01 -3.36208761e-01 -8.96543860e-01 +6.14413261e-01 -8.24258253e-02 -9.30821478e-01 -1.40509415e+00 +1.50374621e-01 -7.45720983e-01 -6.14893675e-01 -2.97806412e-01 -2.14552715e-01 +9.25618052e-01 -5.36172569e-01 -1.68835744e-01 +9.98575211e-01 -2.33697757e-01 +1.78490967e-01 -1.25266850e+00 -1.23832500e+00 +3.54461521e-01 +3.52545738e-01 +7.57068023e-02 +3.98596615e-01 +5.61168909e-01 +1.41105011e-01 -6.99063838e-01 -3.07660013e-01 +2.00936813e-02 +4.83261555e-01 -1.21860951e-01 +3.99299145e-01 +6.43020123e-02 +5.55079103e-01 -1.61744043e-01 +5.99808335e-01 +2.35973969e-01 -2.99006373e-01 -1.73378080e-01 -5.72575629e-01 -2.54439712e-01 +4.85176980e-01 -2.17344478e-01 +3.54059219e-01 +4.91333842e-01 +1.86882466e-01 +3.65286976e-01 +4.14583534e-01 -1.37120679e-01 +7.13421464e-01 -3.26434761e-01 -5.04624903e-01 -3.23446482e-01 -3.35616410e-01 +5.08794963e-01 -1.00908540e-01 -3.63998502e-01 -2.97291100e-01 +2.89396465e-01 -3.48322958e-01 -3.91061515e-01 -5.55050969e-01 +5.73116899e-01 +2.69069225e-01 +3.13369453e-01 -6.35256946e-01 +3.93176168e-01 -6.03222787e-01 -1.14824750e-01 +5.81387281e-01 -1.61511362e-01 -4.64440793e-01 -2.90435672e-01 -3.81048799e-01 -3.22972387e-01 -1.04889178e+00 +1.59924671e-01 +5.17683506e-01 -3.52368474e-01 -2.07951754e-01 -4.42364067e-01 -1.59724563e-01 -3.79530668e-01 +1.77462086e-01 +1.79217577e-01 -6.63420618e-01 -3.00186992e-01 +2.05541044e-01 +9.84335244e-01 -8.46633196e-01 +1.69784740e-01 +1.73765346e-01 +3.34007978e-01 +1.77131608e-01 -1.56046674e-01 -3.05404872e-01 +7.36108005e-01 +6.43336594e-01 -5.22309728e-02 -6.91312075e-01 +4.96310517e-02 -2.13375226e-01 -3.62017080e-02 +4.46909636e-01 -2.61728466e-01 -1.34496028e-02 -7.38304734e-01 -4.22630906e-01 +1.53440148e-01 -2.22026363e-01 +7.20428467e-01 -2.28260040e-01 -7.31246114e-01 -6.52317286e-01 +1.41363740e-01 -3.20404530e-01 -3.49369794e-01 -6.40678927e-02 +1.08427890e-01 -3.55686039e-01 -1.00662887e+00 -1.27953172e+00 -3.88993889e-01 -8.57057452e-01 -9.47778761e-01 +7.73057103e-01 -1.25195241e+00 -1.64466828e-01 -5.07353306e-01 -3.41926903e-01 -3.60231787e-01 -6.42696500e-01 -4.92292106e-01 -4.75051969e-01 -4.95502949e-01 +1.14678264e+00 -4.46707904e-01 +2.21500978e-01 +8.32306921e-01 -1.15528333e+00 -6.14169598e-01 -4.91540253e-01 -9.52585936e-01 +1.90467998e-01 -1.05176985e+00 -4.47760046e-01 -7.01839507e-01 -3.35764378e-01 -5.04610658e-01 -1.36949706e+00 +3.47343497e-02 -5.68004131e-01 -1.15814006e+00 -1.12811255e+00 -3.14408451e-01 -6.54177070e-01 -3.48670632e-01 -4.07996207e-01 -1.68391153e-01 -1.03040934e+00 -1.53614163e+00 -1.35549879e+00 -4.35392976e-01 +7.26364672e-01 -3.50150138e-01 -3.62164557e-01 -4.80082929e-01 -2.05821991e-01 +6.06718548e-02 -7.80257285e-01 -1.25302804e+00 -6.01142406e-01 -6.14454746e-01 -1.06186879e+00 +7.49875903e-02 +9.63863969e-01 -9.03884053e-01 -5.13059378e-01 -4.11786944e-01 -2.37121452e-02 -3.48367959e-01 -1.12778091e+00 -6.59146130e-01 -1.03426421e+00 +3.47385436e-01 -1.04784250e+00 -7.60065734e-01 +5.79715312e-01 -1.43917036e+00 -6.42320812e-01 -7.55341351e-01 -1.47591820e-02 -4.98758912e-01 -1.13862097e+00 -3.58094513e-01 -9.07174945e-01 -2.27184013e-01 -4.42919463e-01 -9.27927792e-01 +6.74900770e-01 -9.62132096e-01 +4.72346812e-01 -8.09376001e-01 -9.15982485e-01 -1.04771711e-01 +7.13269413e-03 -1.15090370e+00 -1.55862892e+00 -1.60878494e-01 -1.06687498e+00 -6.41391337e-01 -2.46025935e-01 -1.45108533e+00 -1.63785979e-01 -1.14055943e+00 -9.52292010e-02 -1.32015705e+00 -9.85720992e-01 -1.47667778e+00 -1.78962618e-01 +1.04558662e-01 -1.47977844e-02 -1.09405696e+00 +8.75002265e-01 -4.13419127e-01 -9.22971308e-01 +3.05283278e-01 +1.15881804e-02 -3.16031324e-03 -4.52107400e-01 +3.96276802e-01 +6.51598871e-01 -2.07177043e-01 +5.64056993e-01 -4.48887795e-01 +7.79268563e-01 -2.39478931e-01 +1.62303261e-02 +7.11045936e-02 -7.57296383e-01 +1.57055169e-01 +5.89700341e-01 +3.98716837e-01 +2.17410907e-01 -1.86783835e-01 +1.74742118e-01 +4.21742827e-01 -1.78040493e+00 +1.23878825e+00 -3.28585714e-01 -4.30772394e-01 -6.03225768e-01 +2.53975368e-03 +8.29511225e-01 -6.44913971e-01 -2.32027471e-01 +8.16330463e-02 -3.04926008e-01 -4.57946986e-01 +4.24760759e-01 +1.15446568e-01 +6.05472207e-01 -1.28899753e+00 -7.79389024e-01 -4.32631701e-01 -3.86032313e-02 +4.90863353e-01 +5.61407954e-02 -3.63048553e-01 -8.22095335e-01 -2.83616841e-01 -3.32781672e-01 +3.32006633e-01 -4.77760211e-02 -4.93396342e-01 +7.79681981e-01 -1.15013599e+00 -8.53043795e-01 +1.93847179e-01 +9.56342041e-01 -5.03583431e-01 -5.00847816e-01 -8.96194398e-01 -1.12794209e+00 +7.31203379e-03 -2.00394249e+00 -5.90495050e-01 -4.17951494e-01 -2.83673592e-02 -8.19492400e-01 -7.31365085e-01 +8.77896190e-01 +3.11615109e-01 -4.04078245e-01 +8.17954540e-01 +2.09371135e-01 -1.32672083e+00 +6.08955503e-01 -1.57279968e+00 -1.35261917e+00 -5.29714882e-01 +2.32216537e-01 +3.54582220e-02 +7.25403130e-01 -8.59323323e-01 +9.94282067e-02 -3.97242039e-01 +3.35671097e-01 +6.13151729e-01 -2.59238154e-01 -1.90099910e-01 -1.37122303e-01 +5.09512365e-01 +7.44391233e-02 +4.43452656e-01 -1.01609254e+00 -4.08371329e-01 -3.90202045e-01 -1.00169694e+00 +4.91258472e-01 -4.16976750e-01 -6.32105112e-01 -1.00769448e+00 +3.16400647e-01 -4.37542647e-01 -1.16373909e+00 +1.05467029e-01 +7.86749646e-02 -5.84629893e-01 -7.36169875e-01 +3.47879767e-01 +6.06368065e-01 -4.81696993e-01 +3.18800658e-01 -3.51210833e-01 +1.27185953e+00 -2.35091239e-01 +9.73444998e-01 -3.18711489e-01 +5.23030579e-01 -2.47183084e-01 -2.08500728e-01 -2.39664629e-01 -6.75357580e-02 -8.39704692e-01 +8.44626278e-02 -8.89154851e-01 -8.13273787e-01 +5.77944636e-01 -9.02613223e-01 -1.06298275e-01 +2.11005360e-01 -2.49867499e-01 +1.16068268e+00 -1.21911752e+00 -3.86742204e-01 +1.04336731e-01 +4.48021859e-01 -6.90220833e-01 +3.13035876e-01 -5.11658452e-02 +1.85644045e-01 -6.77105963e-01 +5.04000843e-01 -2.98365623e-01 +4.36521828e-01 -1.26105741e-01 -2.03494392e-02 +9.62830856e-02 -1.29094553e+00 -8.45665634e-01 -1.79967210e-02 +8.22932005e-01 -2.25307092e-01 -7.90870607e-01 +7.49536693e-01 -1.13341701e+00 -7.31971502e-01 -4.42326486e-01 +5.91229200e-02 -5.53116977e-01 +3.40942860e-01 -2.90401459e-01 -8.59421611e-01 -3.77883941e-01 -9.11196113e-01 -1.12263286e+00 +2.30128914e-01 -6.62974834e-01 -6.21572435e-01 -3.62027854e-01 +5.38723841e-02 +9.23962355e-01 -3.87974113e-01 -5.04850388e-01 +2.25321963e-01 -6.59395695e-01 +2.57876575e-01 -1.93492711e+00 -1.75904989e-01 -1.43912807e-01 +4.17045094e-02 -6.13020472e-02 +4.81482446e-01 -4.98953015e-01 +1.87942535e-01 -1.11943591e+00 +5.35491407e-01 +3.11273515e-01 -7.92152882e-01 -4.96361643e-01 -7.52059817e-01 +7.18973577e-01 +2.72505172e-02 +9.22715943e-03 -6.42327905e-01 -9.56432641e-01 -3.26366305e-01 -4.82788354e-01 +9.02464986e-01 +1.73885956e-01 -9.14194822e-01 +2.07340822e-01 +2.45857850e-01 -1.02718726e-01 -5.07764518e-01 -4.08991069e-01 -6.18810773e-01 -1.13686657e+00 -9.02495012e-02 +1.04951344e-01 +4.47163247e-02 -4.16726321e-01 +2.87004530e-01 +1.97688952e-01 +2.07510400e+00 -5.38746834e-01 +2.15546459e-01 -5.46282709e-01 +8.50803375e-01 +1.19486675e-01 -1.11699261e-01 -1.32861882e-01 -6.96374893e-01 +4.84586567e-01 +6.67036712e-01 -1.22774951e-01 -2.25649378e-03 -2.42856622e-01 -7.76442438e-02 +8.73823911e-02 +5.59418499e-01 +1.02798738e-01 +4.79376763e-01 +7.99651384e-01 -2.28373215e-01 +3.15100074e-01 -4.18433994e-01 -7.66161382e-01 +1.99578300e-01 -7.69864380e-01 -4.98452723e-01 +9.21194553e-01 +8.53711545e-01 -9.69379842e-01 +7.51819685e-02 -2.58942723e-01 +4.43945676e-01 -3.09407502e-01 -3.78591537e-01 -6.75842836e-02 +1.03573855e-02 -4.92072776e-02 -4.21562225e-01 +2.79305607e-01 +5.42619288e-01 -2.49315836e-02 -6.63592279e-01 -1.84135616e-01 -4.11352932e-01 -2.82897085e-01 -2.02170342e-01 -2.07219020e-01 +1.86075136e-01 -7.68984020e-01 -3.54118049e-01 +1.50058314e-01 -6.66086435e-01 -4.53697622e-01 -2.93597057e-02 +5.77225015e-02 -4.14852411e-01 +4.77656245e-01 +1.66106913e-02 +4.69072729e-01 -3.79932433e-01 -2.73765057e-01 +5.82507104e-02 +4.57072973e-01 +3.05232316e-01 +7.39749894e-02 +8.48956227e-01 -6.93619251e-01 -1.51791394e-01 +7.08405912e-01 -9.80829075e-02 +3.48427445e-01 +6.22648478e-01 -1.96972385e-01 +1.66698933e-01 +5.15840948e-02 +3.44616085e-01 -5.54651856e-01 +5.08867860e-01 -2.06945121e-01 -9.77389395e-01 +5.55013902e-02 -3.97108406e-01 +5.64161055e-02 +1.57932416e-01 -3.05504769e-01 +3.84717435e-01 +2.14984566e-01 +1.54197261e-01 -1.95364311e-01 +2.88593560e-01 -1.13340847e-01 +1.25525212e+00 +5.15844166e-01 -1.39937878e+00 -3.87793869e-01 +1.34569740e+00 -1.22586656e+00 -3.68986845e-01 -1.87451199e-01 +8.51656199e-02 +7.55654946e-02 +7.93698430e-01 +4.66667473e-01 -1.01159215e+00 -1.75575376e-01 +6.00217104e-01 -5.52386679e-02 +9.42970365e-02 -1.01869309e+00 +3.82785261e-01 -2.63749212e-01 -1.14200902e+00 +2.10664779e-01 -5.44980466e-01 -4.53046262e-01 +3.05099517e-01 +2.00287342e-01 -6.27650619e-01 -6.71276987e-01 +1.17860436e+00 +5.76245859e-02 -1.03766620e+00 -3.56385350e-01 +2.33161464e-01 -1.53554142e-01 -6.87508166e-01 -1.00618005e+00 +1.27863467e+00 -2.50741720e-01 -4.33868527e-01 -8.43223631e-01 +3.45185488e-01 -7.70054042e-01 +5.54805279e-01 -2.79292971e-01 -2.87311971e-02 +1.00811470e+00 +1.41757822e+00 -4.59527463e-01 +1.32161066e-01 -3.11317861e-01 -6.11607373e-01 +1.93845585e-01 -7.47059807e-02 -4.79520619e-01 -8.74725223e-01 -5.66663444e-01 +3.51598696e-03 -8.53660047e-01 -3.35428536e-01 -8.38736534e-01 -3.38265300e-01 +1.13269711e+00 -1.89291835e-01 -8.36045265e-01 -5.82699120e-01 -3.67751867e-01 -6.34284675e-01 -5.13959229e-01 -2.32365012e-01 +3.02224159e-01 +7.95080811e-02 +9.32788491e-01 -1.17652559e+00 -1.01336682e+00 -5.69486499e-01 -2.32647449e-01 +3.46908689e-01 -1.98725864e-01 +2.06672132e-01 -8.11937988e-01 +2.76068877e-02 -8.83191943e-01 -9.95916408e-03 -6.50704384e-01 -1.02790785e+00 -8.46778631e-01 -1.63669062e+00 -4.93586272e-01 -3.80111158e-01 -5.82786798e-01 -1.07671571e+00 -6.81369156e-02 -2.91485071e-01 -3.02021336e-02 -6.82805598e-01 -7.04862177e-01 -1.30947137e+00 -6.47518754e-01 +2.30492055e-02 +2.10835382e-01 -1.65530592e-02 +2.95173824e-01 -5.68349063e-01 -5.99086404e-01 -1.98376274e+00 -7.95944128e-03 -9.09320235e-01 -3.07408810e-01 -1.22533798e+00 +1.45960569e+00 -6.66418135e-01 -2.29566574e-01 -6.17341138e-02 +2.49725014e-01 +1.88021287e-02 -7.29037374e-02 +7.18947291e-01 -3.59148502e-01 +1.26897132e+00 -4.61398512e-01 +1.04885769e+00 +8.64242688e-02 -1.54224828e-01 +2.78179824e-01 +3.71701092e-01 -6.07710540e-01 -1.22582769e+00 +3.71286154e-01 +1.04650557e+00 -4.90424752e-01 -7.52897739e-01 +4.92581397e-01 -5.72164953e-01 -3.88113707e-01 -1.65657476e-01 -1.50574803e-01 -3.33642393e-01 -1.45320252e-01 +1.99378431e-01 -7.95739949e-01 -1.12670600e+00 -1.14253426e+00 -3.71607602e-01 +4.82256198e-03 -6.59061372e-01 -9.54186022e-01 +1.31444502e+00 -6.98675737e-02 -4.52459812e-01 +8.46002400e-01 -3.12702477e-01 -2.76675135e-01 -6.06169283e-01 -3.56091321e-01 -9.33620870e-01 -2.10208043e-01 -3.13764587e-02 +2.66655773e-01 -4.24277961e-01 +6.53844103e-02 +2.36873955e-01 +5.22014797e-01 -1.20961033e-01 -5.01214862e-02 +4.23949093e-01 -4.04717982e-01 -3.36719379e-02 +5.42402625e-01 -6.24475360e-01 +2.17445925e-01 -5.66322684e-01 -3.83101612e-01 +9.05001998e-01 +1.54745245e+00 -2.11120695e-01 -8.10864046e-02 +2.17835975e+00 -4.95162278e-01 +8.05752799e-02 -1.01676548e+00 -5.16485631e-01 +3.48844528e-01 +5.21945119e-01 -9.64906037e-01 -1.29314139e-01 -1.23090267e+00 -6.98132021e-03 +1.14151865e-01 +2.14219749e-01 +6.80651426e-01 +4.54812460e-02 +1.64861605e-02 +4.90919232e-01 -4.49377537e-01 +2.67305881e-01 -9.47251357e-03 -2.62466341e-01 -9.97832045e-02 +1.06010072e-01 -3.77514690e-01 +1.17279708e+00 +5.17076731e-01 -1.08112323e+00 -3.59689951e-01 -2.59417165e-02 -4.76761371e-01 -6.51075363e-01 -3.70979786e-01 -3.73723119e-01 +1.35349071e+00 +7.82746077e-02 -2.52083868e-01 +5.58861017e-01 +2.44859740e-01 +3.08977008e-01 -9.12296027e-02 +1.38270810e-01 -9.68077064e-01 +6.92046881e-01 -5.66958249e-01 -1.87736064e-01 -2.71877766e-01 -2.72983730e-01 +2.42229789e-01 +2.68137425e-01 +5.37502646e-01 -1.69519889e+00 -3.02826852e-01 +1.36947048e+00 -1.83018163e-01 -7.03151226e-01 +1.75343335e-01 -2.44524613e-01 -2.94221520e-01 -4.25937325e-01 -8.88870060e-01 +4.75188822e-01 +4.89688152e-03 -3.98587734e-01 