#Parameter# /vanilla-lstm-builder/_0 {400,21} 134401 ZERO_GRAD
-1.03607810e+00 +1.17113996e+00 +2.92923093e-01 +1.56930506e+00 -1.34460658e-01 +8.65641296e-01 +5.86754858e-01 +3.96382630e-01 -1.52926576e+00 +1.22938335e+00 -2.91552067e-01 +1.38068736e-01 +9.24117506e-01 +1.30566150e-01 +1.74081039e+00 +8.78979146e-01 +2.95462877e-01 +4.17244524e-01 +8.85722101e-01 +4.88001347e-01 +1.51751414e-01 -4.36233133e-01 +1.69896007e-01 +1.01814163e+00 +1.51213899e-01 +1.11932173e-01 +9.69115794e-01 +8.58592272e-01 +1.39096034e+00 -7.17121243e-01 -3.76167297e-02 +8.40228856e-01 +1.10435762e-01 -1.07274309e-01 +7.25222945e-01 +1.11701466e-01 -7.89227962e-01 +2.45800853e-01 +1.36664355e+00 +3.78975004e-01 +2.24475250e-01 +3.47852379e-01 -4.25718948e-02 -1.29502881e+00 +3.75405192e-01 +1.88250631e-01 -1.66832471e+00 +1.01011312e+00 +9.51211154e-01 -1.28595814e-01 -5.05232155e-01 -1.92798018e-01 +4.29746419e-01 +1.15543678e-01 -1.21011436e+00 -4.74674076e-01 +2.90064365e-01 -7.72328436e-01 +3.17374021e-01 +2.65308887e-01 +1.65551007e+00 -1.37145138e+00 +1.27346024e-01 -1.18604887e+00 -5.55545390e-02 +8.28418136e-01 +1.82783842e+00 +6.01588488e-02 +1.81029522e+00 +5.62692702e-01 +1.26903141e+00 -3.82863045e-01 +1.37730241e+00 -5.42920589e-01 -1.30388528e-01 -5.28491616e-01 +1.10445452e+00 +3.71029496e-01 -2.14523464e-01 -6.99720502e-01 -3.50509472e-02 +6.55722320e-01 +6.43614471e-01 +4.64313835e-01 -9.57823731e-03 +5.53191826e-02 -4.49625999e-01 +1.33039677e+00 +1.22775853e+00 +9.14337158e-01 +7.00143218e-01 +5.07096529e-01 +7.59724259e-01 -5.53108394e-01 +8.51307750e-01 +3.00774336e-01 +4.60622758e-01 -8.88312832e-02 -5.99022098e-02 -4.25020844e-01 -5.49981654e-01 -3.68673325e-01 -2.57429630e-01 -3.54791641e-01 -8.19304883e-01 +4.47573513e-02 -3.27870071e-01 -5.95033228e-01 -2.11834535e-01 -1.06379008e+00 +3.14812124e-01 +1.23413198e-01 -5.66350579e-01 -2.46989831e-01 -9.33505714e-01 -1.08177745e+00 -8.03256929e-01 -1.13123691e+00 +8.79987597e-01 -3.57270062e-01 -4.83305246e-01 -4.19332832e-01 -1.58725336e-01 -9.04806033e-02 -4.82864946e-01 -1.98551941e+00 -1.69477427e+00 -6.95587218e-01 -1.93424806e-01 +5.04288733e-01 -3.34107071e-01 -4.93964821e-01 +1.98151350e-01 -6.05693400e-01 -7.68836915e-01 -3.27324420e-01 -4.43338454e-01 -8.97440672e-01 -7.75273323e-01 -3.34453255e-01 -4.48346823e-01 -4.14016843e-01 +2.32330203e-01 -8.72962236e-01 -6.22109234e-01 +4.82942939e-01 -5.34282684e-01 -5.64501524e-01 -7.95322776e-01 -2.31982604e-01 -5.68692863e-01 -3.00153140e-02 -8.97844791e-01 -3.12526077e-01 -1.70953661e-01 -1.18261945e+00 -5.99802315e-01 -1.00107813e+00 +3.87972444e-01 -2.18520053e-02 +3.05047393e-01 -1.16784364e-01 -3.49436492e-01 -3.81888330e-01 +5.53118765e-01 -1.50184119e+00 -3.62677634e-01 +1.12568557e-01 +4.67381664e-02 -9.08329546e-01 -9.16583717e-01 -3.01244184e-02 -1.62097156e+00 -1.57535934e+00 -2.31550083e-01 -1.26555145e-01 -1.28471410e+00 -4.94822621e-01 -4.11587358e-01 -1.15387052e-01 -8.07734057e-02 -6.55395508e-01 -2.46594772e-01 +4.14672941e-02 -2.70663332e-02 +3.40153873e-01 +9.94663119e-01 -7.74901807e-01 +3.51568758e-01 -2.26949021e-01 +1.14431493e-01 +2.44379893e-01 -2.64205337e-01 -3.65052491e-01 -3.09336692e-01 +5.85736454e-01 -9.47380960e-01 -3.17168385e-01 -3.55218530e-01 +7.64194131e-02 -1.14812899e+00 +1.17547703e+00 +2.41680965e-01 +7.66376972e-01 -6.96313977e-02 +5.45447707e-01 +2.69693047e-01 +2.65882730e-01 -1.58285022e-01 +7.53824472e-01 +1.27695411e-01 +2.78440148e-01 +5.05619407e-01 -2.69828230e-01 +1.19175899e+00 +1.04502583e+00 -2.57500559e-01 -2.48394251e-01 +7.30278969e-01 -1.78114742e-01 -4.13571388e-01 -5.23514390e-01 -1.21813871e-01 +1.34224916e+00 -2.04407781e-01 -4.81040537e-01 +4.99006748e-01 +3.09758604e-01 +2.89062887e-01 -5.61942875e-01 -1.71286002e-01 -1.78018361e-01 -2.97687560e-01 -5.30118525e-01 +3.38955522e-01 +5.12531102e-01 -2.96355277e-01 -7.75281727e-01 +3.60861182e-01 -1.08939670e-01 -2.63438553e-01 -2.38607571e-01 -2.14856192e-02 -8.62552166e-01 -2.83315796e-02 +6.54186249e-01 -9.73522723e-01 +8.53493273e-01 +6.51546657e-01 -1.96492910e-01 -6.93854570e-01 -1.01892614e+00 +1.68269470e-01 +2.21423969e-01 +2.16278017e-01 -7.03589737e-01 +4.63890284e-01 -1.32378232e+00 +4.67824817e-01 +1.02582358e-01 +1.07743919e+00 -4.26727831e-01 -1.55062780e-01 -1.00375295e+00 +7.63209343e-01 +7.70661056e-01 +1.05668378e+00 +1.63877364e-02 +8.57609689e-01 +2.11907357e-01 +2.15588108e-01 -7.60109246e-01 +4.78013307e-01 -8.12749982e-01 -8.94518495e-01 -7.07300663e-01 +4.34288174e-01 +1.47483572e-01 -7.98786700e-01 -9.56822753e-01 -1.50243029e-01 +3.27558249e-01 +3.43167692e-01 +9.86983597e-01 +8.27459022e-02 -3.78645398e-02 +2.37799257e-01 +7.07365692e-01 +4.34482336e-01 +1.00866772e-01 +1.10268846e-01 +4.55835819e-01 +2.94589520e-01 -6.79451466e-01 +4.84179825e-01 -2.15205047e-02 +3.31711084e-01 -7.93375894e-02 -6.28956199e-01 -4.32720542e-01 +4.70703933e-03 +3.83516282e-01 +5.80138326e-01 +8.94242525e-01 -5.20056725e-01 -8.48827839e-01 +9.28062439e-01 +7.78929293e-01 -2.50669509e-01 +1.35098338e+00 -2.36638889e-01 -8.13475072e-01 +9.64859664e-01 +9.60304976e-01 -1.58347321e+00 +1.02761722e+00 +1.10381767e-01 +8.31303477e-01 -1.15471244e+00 +1.03605652e+00 +1.36609364e+00 -2.67401993e-01 +3.85497510e-01 -7.70601809e-01 +1.10968018e+00 -2.94901580e-01 -1.24128425e+00 +1.17738497e+00 +1.54545093e+00 +4.48256135e-01 -3.52611065e-01 +1.47801208e+00 -6.67097449e-01 -4.61180836e-01 -9.76790130e-01 +2.52377838e-01 +3.15928124e-02 -1.00925457e+00 +1.34639549e+00 -8.49722922e-01 -8.93383503e-01 -4.63888973e-01 -9.78448018e-02 +1.60516769e-01 +1.42291486e-01 -1.91344440e+00 -3.87566574e-02 +1.17524576e+00 -1.32500386e+00 +2.35139251e-01 +6.22130632e-01 +1.04721203e-01 -8.13826978e-01 -9.70769748e-02 -1.86457723e-01 -1.05545199e+00 +3.16548556e-01 -1.48321807e-01 -3.20942014e-01 +9.33736384e-01 +1.66873205e+00 +1.23341260e-02 +5.21589994e-01 +2.42050618e-01 -2.27101315e-02 -1.75231755e+00 -1.05278111e+00 -6.90631747e-01 -1.52739787e+00 +8.01141500e-01 -1.24572599e+00 -7.28519380e-01 +1.33174002e+00 +2.44392306e-01 +6.73418224e-01 +5.12296855e-01 +1.37420964e+00 -1.08714187e+00 +7.55780637e-01 +4.89489108e-01 +4.15406436e-01 -7.22164750e-01 -7.91856885e-01 -8.74541223e-01 +5.03668249e-01 -8.90645862e-01 -6.31372407e-02 +1.49728060e+00 -1.94034386e+00 -1.09868658e+00 +5.86029291e-01 +5.89531720e-01 -7.91863382e-01 +3.48588198e-01 -1.12835288e+00 +6.80704057e-01 -9.83587354e-02 +6.15315139e-01 -2.41962478e-01 -2.10434660e-01 +1.83058485e-01 -1.49702102e-01 +7.43072450e-01 -1.72931328e-01 -1.07556932e-01 -1.64585546e-01 +6.07727468e-01 +1.30729389e+00 +8.20129551e-03 -4.72797081e-02 +3.86016011e-01 +4.09780800e-01 +1.44273090e+00 -3.44412960e-02 +6.87090755e-01 -1.04667723e+00 -8.03009629e-01 +9.38274860e-01 -1.06883681e+00 -2.95851558e-01 +1.38930047e+00 +4.57833819e-02 +1.15021741e+00 +1.06853151e+00 +9.50250506e-01 +5.82109153e-01 +6.68033600e-01 +7.79951155e-01 -1.04788804e+00 +4.87099409e-01 +4.77223516e-01 -2.91470408e-01 -1.62473440e+00 +5.87916374e-01 +5.38388014e-01 +4.60299581e-01 -7.19449401e-01 +8.67368400e-01 -5.63325524e-01 -5.67529917e-01 +3.17185283e-01 -4.92546290e-01 +9.64513898e-01 +1.66739941e-01 +3.24689209e-01 +1.34890234e+00 +6.92490280e-01 +3.87134820e-01 +9.94920954e-02 -3.76047105e-01 +4.54774439e-01 +9.10338163e-02 -2.08623365e-01 -1.08152017e-01 -8.12348902e-01 +5.36238194e-01 -6.48501456e-01 +1.31626809e+00 -2.17672125e-01 +1.23307383e+00 -7.44841814e-01 -1.11155367e+00 -7.63169527e-01 +4.56891656e-01 -2.22525403e-01 +4.40157980e-01 +4.02689964e-01 +1.12771511e+00 -1.34912992e+00 +3.34391534e-01 +3.98244768e-01 +1.33358455e+00 +9.75849509e-01 +1.49837959e+00 +5.24035513e-01 -2.33973548e-01 -6.23035967e-01 -5.32161415e-01 +6.53636217e-01 +6.76422715e-01 -9.12421197e-02 +8.86039972e-01 +1.16851938e+00 -1.91102400e-01 +7.74483442e-01 -2.13115495e-02 +6.22182965e-01 -1.42775750e+00 +3.65846515e-01 -1.77833831e+00 +5.22759914e-01 -8.57013881e-01 +1.94847643e-01 -6.19250536e-01 +1.51695991e+00 +3.10203463e-01 +1.01707645e-01 +1.51957023e+00 +3.64604175e-01 +7.02309534e-02 -2.31580585e-01 +3.73049915e-01 +8.49938452e-01 +7.87691996e-02 -7.37482011e-01 +4.02600974e-01 -4.29503024e-01 +7.16244876e-02 -2.58466572e-01 -3.30071062e-01 -2.43930042e-01 -5.68635225e-01 +1.56948209e-01 +1.28313377e-01 -1.10758018e+00 -2.49355540e-01 -5.48570037e-01 -2.71506887e-02 -7.69735992e-01 +1.49738923e-01 +3.31168771e-01 -1.05791378e+00 -6.56309664e-01 -2.74226904e-01 -2.04772323e-01 -1.43396533e+00 -2.84230679e-01 -1.10745192e+00 -8.66567731e-01 -6.24480024e-02 -4.61549222e-01 +1.39874861e-01 -9.28537428e-01 -5.74881792e-01 -1.19621903e-01 +4.06488717e-01 +9.12596732e-02 +3.22499961e-01 -5.92488609e-02 -2.41650000e-01 +1.72951028e-01 -2.02963307e-01 +7.39502069e-03 +5.48596561e-01 -9.46468472e-01 -3.62688988e-01 +2.63348579e-01 -4.80153859e-01 -1.56589758e+00 -3.69534940e-02 -3.91304344e-01 +1.09110534e-01 -2.65407503e-01 -5.75976849e-01 +4.85392809e-01 +9.67634618e-01 -4.81337488e-01 -4.26734626e-01 +4.44892377e-01 +1.88782923e-02 -3.41346264e-01 -3.41118276e-01 -2.93515772e-02 -1.91276327e-01 -3.71995687e-01 -5.69248915e-01 -6.96763694e-01 -6.53720647e-02 -2.70973772e-01 +6.49572164e-02 +1.78167671e-01 -3.85806173e-01 -2.20978642e+00 -5.79159796e-01 +3.03835899e-01 -1.08248860e-01 -1.42531380e-01 -3.38392705e-01 -1.53270221e+00 +3.66543494e-02 +7.87498176e-01 -8.10703486e-02 -1.00174880e+00 -3.51803750e-02 -2.84347162e-02 -1.48683369e-01 -2.91512758e-01 -5.51093221e-01 -1.59580529e-01 -3.01936686e-01 -3.43285918e-01 -1.42980933e-01 -2.33469695e-01 +7.63767287e-02 +1.65528432e-02 +5.00263274e-01 -6.83852136e-01 +4.06814590e-02 +1.02454603e-01 -1.18083589e-01 -2.52594292e-01 -3.65298748e-01 +8.48363876e-01 -3.56487900e-01 -5.78251958e-01 -4.46372122e-01 -4.68159877e-02 +8.57883513e-01 -8.07411447e-02 -4.56400096e-01 -1.09420583e-01 -7.04585314e-02 +8.45241606e-01 -3.91350180e-01 +5.64158797e-01 -1.13696687e-01 -1.36233830e+00 +9.21405628e-02 -3.99441212e-01 -2.03632057e-01 +3.08620304e-01 -6.39607832e-02 +1.53374004e+00 +8.96005213e-01 +9.84989643e-01 -2.80901957e-02 +8.56592953e-02 +8.50720227e-01 -6.37567282e-01 +1.00986481e-01 -5.55443943e-01 -2.63647437e-01 -1.64590597e+00 -3.00278246e-01 -2.18108237e-01 +5.59385836e-01 +1.54370904e-01 +1.63223520e-01 +1.33876473e-01 +1.12652637e-01 -3.44200134e-01 -5.79348028e-01 +1.03686607e+00 +4.30830956e-01 +3.87714468e-02 -4.48597401e-01 -5.19012399e-02 +6.90502971e-02 -6.85033023e-01 -7.49038339e-01 +2.84059286e-01 -2.86017209e-01 -5.43897688e-01 -1.14041007e+00 +5.56562185e-01 +4.21686977e-01 -1.01810682e+00 +1.04210198e+00 +5.35939813e-01 -2.34154519e-02 -6.95345700e-01 +1.12136811e-01 -6.15650058e-01 +4.92715448e-01 +3.51827711e-01 +1.02037564e-01 +1.40528843e-01 +1.01069367e+00 -7.02356696e-01 +1.26494765e-01 +8.01036000e-01 +7.83434629e-01 +1.23599696e+00 +9.18721974e-01 +9.92607232e-03 -1.30429351e+00 -9.37452197e-01 -6.41864717e-01 +1.46634039e-02 +4.42411751e-01 +5.08971751e-01 +9.15173292e-01 +8.28303933e-01 +1.24467388e-01 +5.86010456e-01 -2.06667244e-01 +4.46696937e-01 -1.07951891e+00 +2.17936054e-01 -9.95085061e-01 +1.82004124e-01 -1.02523975e-01 -2.30229273e-02 -1.85284927e-01 +5.96714199e-01 -8.98541883e-02 -9.10927415e-01 +1.54690492e+00 +4.95065242e-01 -3.64730328e-01 +5.85505903e-01 +1.27963619e-02 -2.55517513e-01 +3.02691665e-02 +5.26667416e-01 +4.81224991e-02 -1.41034079e+00 -1.11836708e+00 -8.75479400e-01 -5.55602849e-01 -7.43848741e-01 +1.18722342e-01 -1.57528794e+00 +7.86441565e-01 -8.25457931e-01 -5.22176065e-02 +9.36950743e-02 -4.33661103e-01 -1.68304548e-01 -9.68762338e-01 -1.42765772e+00 -4.21952784e-01 +1.33939302e+00 -1.17186844e+00 -6.39439642e-01 -1.06089581e-02 -9.86145973e-01 +1.66566586e+00 -3.33927751e-01 +5.35046995e-01 -6.64614379e-01 +6.01743460e-01 -8.22925806e-01 +4.04770434e-01 +9.40488458e-01 +9.59016144e-01 -4.34545666e-01 -8.27703476e-01 -3.75904828e-01 +5.49697019e-02 -5.04694223e-01 +3.28362994e-02 -8.22156250e-01 +6.84021950e-01 -1.13693917e+00 +2.23003373e-01 +1.09233844e+00 -8.37812603e-01 +4.12531793e-01 -1.34042263e-01 -7.14794993e-01 +3.78441662e-01 -5.66850126e-01 -3.10904711e-01 -8.05349052e-02 -3.11171889e-01 -2.41061360e-01 -1.34763908e+00 +3.85159433e-01 -1.45524526e+00 +5.52670658e-02 -7.37592936e-01 +1.19989710e-02 +9.69810188e-01 -9.81860101e-01 -9.15924788e-01 +6.48204327e-01 -1.41045618e+00 -2.35057741e-01 -5.59039414e-01 +7.96129286e-01 +8.35230410e-01 +2.11365080e+00 +1.53252923e+00 -1.37399459e+00 +1.42929703e-01 +2.22035367e-02 +3.10599834e-01 -1.30801451e+00 +9.62926567e-01 -5.32316744e-01 -8.15165997e-01 -1.30873287e+00 -1.02471083e-01 +5.92001438e-01 -2.04096943e-01 -8.50185931e-01 +5.25013804e-02 +1.17541349e+00 -2.02976223e-02 -6.84688747e-01 -1.99168716e-02 +2.00949863e-01 +2.47182295e-01 +5.25624275e-01 -1.10599649e+00 +2.81162828e-01 -5.55792689e-01 +8.09525371e-01 +4.00646180e-01 -2.29309462e-02 -5.50360262e-01 -4.67060894e-01 -1.00002861e+00 -1.35393953e+00 -2.59732962e-01 -5.08303404e-01 -6.00076377e-01 -4.22694683e-01 -4.91470456e-01 -7.35308826e-01 -1.20384336e+00 -7.79111505e-01 -1.03934836e+00 -1.59492159e+00 -1.27703869e+00 +5.13648808e-01 -6.25335395e-01 -1.31753981e-01 -1.92480862e-01 +3.18381906e-01 -6.77787602e-01 +1.14076585e-01 -9.85057205e-02 -4.51623678e-01 -1.93487036e+00 -4.12470877e-01 +3.22115839e-01 -3.57678920e-01 -3.64272952e-01 -6.65030777e-01 +8.54503453e-01 -8.71613681e-01 -6.01210952e-01 -1.75896600e-01 -1.43159226e-01 -9.90416482e-02 -6.74451947e-01 -6.59062088e-01 -1.37660325e+00 -1.03030539e+00 -5.07388115e-01 -3.59597683e-01 +2.70087093e-01 -4.43311453e-01 +2.03972980e-01 -1.72234327e-02 -2.68753134e-02 +1.05040483e-02 -3.25861692e-01 -1.12579197e-01 -2.64020681e-01 +9.34536904e-02 -1.11423600e+00 +5.36353528e-01 +4.87385213e-01 -1.71808377e-01 -9.36860889e-02 -1.46020746e+00 -9.13478374e-01 -6.57942891e-01 -1.64885089e-01 -1.83697343e+00 -7.88119137e-01 +1.10698199e+00 -2.35290840e-01 -7.02069879e-01 +1.02881327e-01 +3.82745892e-01 +3.05270795e-02 +3.27640504e-01 -7.75481462e-01 -6.31421685e-01 -6.55986726e-01 +1.97211087e-01 +7.31568694e-01 -4.22869027e-01 -1.07974827e+00 -1.02191818e+00 -1.33554780e+00 -6.20898128e-01 -6.62993014e-01 +1.31377965e-01 -4.50121194e-01 -1.36935103e+00 +3.10135707e-02 +1.08672345e+00 -5.06995499e-01 -6.56964064e-01 -9.54308063e-02 -1.19990695e+00 -5.06954432e-01 -6.12604678e-01 -1.38999891e+00 -3.33033502e-01 -1.43290293e+00 +7.47486949e-01 +3.47394228e-01 -6.94339454e-01 +2.06754550e-01 -2.46716067e-01 +9.19123530e-01 +1.50680351e+00 +2.15076900e+00 +3.35338145e-01 +3.13677162e-01 +2.11697116e-01 +1.07800043e+00 +9.35431495e-02 +6.12945080e-01 +2.45490447e-01 +5.04126489e-01 +5.04730999e-01 -1.00402713e+00 +1.61885846e+00 +1.30377650e-01 -3.09118301e-01 +1.84444577e-01 +2.00964189e+00 +2.41635874e-01 +8.75971138e-01 -3.59268725e-01 +1.01950157e+00 +6.35306537e-01 +3.74449193e-01 +9.11158681e-01 +3.59304458e-01 +1.81070840e+00 +9.06333208e-01 +2.58791953e-01 +5.22864819e-01 +9.25623417e-01 -5.31979091e-02 +8.25100660e-01 +1.37411880e+00 -4.18373644e-01 -2.27019880e-02 +5.56180775e-01 +5.86575806e-01 -9.54333618e-02 +6.70417011e-01 +3.54004167e-02 -1.78269655e-01 +1.14766681e+00 +1.22819304e+00 +2.26423550e+00 +5.96608147e-02 +9.08443630e-02 +6.48552477e-01 +7.26605773e-01 +9.75470424e-01 +9.44313824e-01 +9.69464362e-01 +1.16795421e+00 +9.92776513e-01 +8.04831326e-01 +1.53227806e+00 -3.20904851e-01 +1.25768661e+00 +1.64508358e-01 +1.32797158e+00 -7.29237124e-02 -8.32927763e-01 +3.67800258e-02 +1.43104625e+00 +6.90599382e-01 +3.76810998e-01 +1.28861952e+00 +4.74268228e-01 +1.67921036e-01 +1.04138160e+00 +7.73221731e-01 +1.88601270e-01 +1.55126083e+00 +6.80501103e-01 +4.50782150e-01 -4.66834694e-01 +3.59220803e-01 +1.87784469e+00 +1.63244116e+00 +1.78272700e+00 +7.50194266e-02 -5.35569131e-01 -8.15929234e-01 +1.26713216e+00 +9.59426910e-02 -9.09304261e-01 +4.80347931e-01 +1.02147877e+00 +7.39614308e-01 +5.96475005e-01 +5.67623854e-01 -4.90815341e-01 -4.45627004e-01 +1.39952958e+00 +8.83313000e-01 +1.87285650e+00 -3.95098291e-02 +5.13267279e-01 +8.58284175e-01 -9.64496672e-01 +9.47885156e-01 +1.10571754e+00 +7.98357964e-01 -4.55334187e-01 -5.03795207e-01 +3.42454046e-01 -2.24786833e-01 -6.18633032e-01 -4.91240114e-01 +8.03848803e-01 +8.19975078e-01 +8.37136149e-01 -7.16064751e-01 +1.17683697e+00 -8.64784122e-01 -4.83388901e-01 -5.63564122e-01 +8.31038952e-01 -6.37606025e-01 +1.47776276e-01 -2.65953273e-01 +4.34147149e-01 -2.19578817e-01 -5.38304031e-01 +7.51210988e-01 -2.52342552e-01 +4.02055919e-01 +1.25559914e+00 +2.73573846e-02 -4.24125612e-01 -6.95645139e-02 +1.11889532e-02 +1.33859962e-01 +8.93586934e-01 -1.23464830e-01 -2.55327262e-02 -1.85427472e-01 +1.77224606e-01 -4.24515978e-02 +1.85391620e-01 -3.36769044e-01 -2.92325437e-01 +9.76161182e-01 +8.26874793e-01 +7.41134226e-01 -4.55420166e-02 +2.99131930e-01 +3.37776572e-01 +3.41336459e-01 +3.74807328e-01 +4.02896196e-01 +1.10378909e+00 -1.49437892e+00 -7.32726976e-02 +2.61205882e-01 +3.72015059e-01 -4.79625791e-01 +6.18323088e-01 -8.76501560e-01 -2.80376673e-01 -1.09356499e+00 -1.27927768e+00 -5.36326408e-01 -1.93254724e-01 -6.44375205e-01 +2.66545027e-01 -9.77965072e-02 -3.23362440e-01 +2.36467928e-01 -2.95230716e-01 -5.17113090e-01 +3.69105488e-01 +4.43947852e-01 -1.81159109e-01 +5.55868566e-01 -1.75298417e+00 -1.31534111e+00 +1.28216636e+00 +1.21526051e+00 -2.52311707e-01 -7.34503984e-01 -6.14237010e-01 -6.66503683e-02 +2.20048606e-01 +7.05923811e-02 -2.41529718e-01 -8.74830604e-01 -8.28153133e-01 +7.18679279e-02 -2.43270714e-02 +3.63443315e-01 -9.32187378e-01 -1.21544242e+00 +1.91900507e-01 +3.19129437e-01 +1.07430780e+00 +2.43335739e-01 -2.61893868e-01 +3.32034230e-01 -3.63565892e-01 +7.04741955e-01 -1.28334451e+00 +1.78806916e-01 +6.30759895e-01 -1.97009346e-03 +1.76104218e-01 +1.08386695e+00 -4.97690797e-01 +4.52791378e-02 +8.98305357e-01 +6.31412625e-01 -7.81379789e-02 -1.03076482e+00 -5.70339680e-01 +6.72385275e-01 -6.93184316e-01 +1.05892754e+00 +1.40193617e+00 +6.97063446e-01 -8.20467710e-01 -1.24269676e+00 -8.94226134e-01 +5.17504692e-01 +5.29390991e-01 -9.89636302e-01 +1.29738286e-01 -5.84565043e-01 +4.82803702e-01 -1.31100446e-01 +3.93152773e-01 +5.15043080e-01 +1.60736963e-01 -2.29442075e-01 +3.88924956e-01 +1.43822297e-01 +5.35525918e-01 +7.03803003e-01 -1.52302474e-01 +1.11954160e-01 -1.26526922e-01 +3.04192841e-01 +4.04635847e-01 -1.83901560e+00 +1.24783862e+00 +1.24166501e+00 -2.52410293e-01 +7.73393214e-01 +1.08835709e+00 +1.77761577e-02 +1.17617272e-01 -4.73431736e-01 -9.20796812e-01 -1.00083041e+00 +6.02381289e-01 +5.87370694e-01 -2.46531993e-01 +1.10438573e+00 -4.92868543e-01 -3.58151346e-01 +3.57520193e-01 +7.25223482e-01 +6.85437799e-01 -8.99339437e-01 -5.51426075e-02 -4.63117272e-01 -3.48187178e-01 +1.04179013e+00 +1.87335655e-01 +7.38212943e-01 -1.06457734e+00 -9.20310736e-01 +1.04882404e-01 +2.92664349e-01 +3.93219382e-01 -5.92699349e-01 -7.82923877e-01 -1.55265182e-01 -8.24558258e-01 -3.94778073e-01 +4.34236348e-01 +6.34804904e-01 +1.74067423e-01 +4.81911272e-01 +1.04696840e-01 +1.95238404e-02 +1.07927394e+00 -5.97086012e-01 -1.91860601e-01 -6.66187033e-02 +2.76972294e-01 +8.48039508e-01 +1.30980968e-01 -1.90677851e-01 -3.80411029e-01 +3.39641929e-01 +1.02478981e+00 +1.26076353e+00 -3.07131261e-01 -4.25087288e-02 +4.03380305e-01 +1.27415612e-01 +7.18835652e-01 -8.09945643e-01 -1.12286687e+00 -1.07256711e+00 -1.60787416e+00 -1.65915155e+00 -9.20609474e-01 -1.06455326e+00 -7.39437878e-01 -2.03477120e+00 -1.01312923e+00 +2.45001525e-01 -1.78886747e+00 +2.71339923e-01 +9.14487183e-01 -8.10363114e-01 -1.14928019e+00 -1.12364352e+00 -9.76150692e-01 -2.14256978e+00 -1.83858156e+00 -1.12441170e+00 -1.34518389e-02 +1.61652708e+00 -1.38512492e-01 -1.60459101e+00 +2.16916919e-01 -5.12316942e-01 +1.09439898e+00 +1.53617645e-02 -1.35852098e+00 -1.22975576e+00 -2.27142715e+00 +3.38683069e-01 -1.82224080e-01 -6.50803030e-01 -1.91906667e+00 -4.29199755e-01 -2.04362020e-01 -1.36543798e+00 -1.11563551e+00 -1.45763338e+00 -1.78665257e+00 +7.69848237e-03 +2.15996921e-01 -2.97870469e+00 -2.76020825e-01 -3.14480096e-01 -9.28202212e-01 +2.94817656e-01 -1.28735960e+00 -6.77974522e-01 +1.20117557e+00 +2.75212944e-01 -1.84289324e+00 -4.59274143e-01 -3.41574132e-01 -8.35580826e-01 -1.52122390e+00 -8.21651518e-01 -1.80870914e+00 -4.08201158e-01 -5.08397281e-01 -2.79405624e-01 -5.35593390e-01 -5.38135350e-01 +6.35427713e-01 -8.33761454e-01 -4.02468920e-01 -3.83707315e-01 -7.03669548e-01 -6.18671119e-01 +5.15347779e-01 -1.92784026e-01 -2.31338954e+00 +7.10484743e-01 -1.13014266e-01 -5.51599681e-01 +3.29022497e-01 -1.00215912e+00 -2.85833508e-01 +2.93212175e+00 -1.54258594e-01 -1.10103905e+00 -9.41363931e-01 +6.14159070e-02 -7.80679047e-01 -8.77791941e-01 -1.98983729e+00 -1.54687297e+00 -1.28562152e+00 -8.14413667e-01 -3.81162226e-01 -7.59626448e-01 +9.88143384e-01 -9.03187692e-01 -1.11998886e-01 +1.31436467e-01 +4.46969002e-01 -5.21105528e-01 -1.14953279e+00 +3.64225298e-01 +1.53614235e+00 -1.54194847e-01 +1.75236449e-01 +1.94561720e+00 +4.76328343e-01 +1.33631539e+00 -1.13978839e+00 +2.04008794e+00 +9.19548571e-01 +1.40952098e+00 +2.91939545e+00 -1.12219644e+00 -3.50857925e+00 +8.83574605e-01 +1.20477808e+00 +7.02860057e-02 +1.33307159e-01 -1.35044634e+00 +1.20168380e-01 +8.46588492e-01 -4.09767181e-01 -2.27831364e+00 +1.31267869e+00 +3.27901340e+00 +1.14041388e+00 +1.80365250e-01 +1.10507953e+00 +1.47798765e+00 -4.37472798e-02 +1.14929616e-01 +1.20158605e-01 -2.20155430e+00 -2.05394983e+00 +2.49306798e-01 +7.74194062e-01 -1.75814235e+00 -9.76948082e-01 -5.41198254e-02 -2.68613428e-01 +1.26728916e+00 -1.87999141e+00 +9.08177733e-01 +3.82354647e-01 -3.68465662e-01 -7.47891814e-02 -6.32370234e-01 +9.80037808e-01 +1.36667383e+00 +1.51569939e+00 +1.10307789e+00 +1.35023594e+00 +1.59303427e-01 +8.56319249e-01 +8.11835885e-01 -1.66157162e+00 +6.05796695e-01 +1.86949408e+00 -1.47837198e+00 -8.44991684e-01 -1.11306775e+00 -4.49794471e-01 -2.20105842e-01 +1.11553323e+00 +7.98253417e-01 +6.38754427e-01 +1.11767568e-01 -1.17337930e+00 +4.55797166e-01 +4.13643003e-01 +1.27923357e+00 +1.11183321e+00 -5.49965680e-01 -2.14546609e+00 -6.44852877e-01 +1.64936912e+00 -1.20876765e+00 +3.60973142e-02 -1.50662869e-01 +3.24429303e-01 -3.42815328e+00 +1.24530613e+00 -3.06410491e-01 -5.77748239e-01 +8.84081721e-01 -4.55250621e-01 +1.22752118e+00 -5.42528033e-01 +1.54750967e+00 -1.19719243e+00 -1.08967841e+00 +2.01070738e+00 +3.04564506e-01 -2.27094722e+00 -1.16853106e+00 +7.09459305e-01 +1.23828888e+00 +3.61616649e-02 +2.75253385e-01 +4.16419744e-01 -2.31048369e+00 +6.28377616e-01 -4.89035219e-01 -7.67826885e-02 +2.52580255e-01 +1.00060368e+00 -2.52876371e-01 -1.15301704e+00 +8.40042591e-01 +1.31124580e+00 +7.27399766e-01 +2.20033908e+00 -5.11126101e-01 +8.22543979e-01 -3.24735880e-01 +1.99966955e+00 +7.26769328e-01 +5.29532671e-01 -1.54729688e+00 +4.22935218e-01 +1.20893908e+00 +7.25163579e-01 -1.61385715e-01 -8.77748907e-01 +1.98807061e+00 +2.71804363e-01 -6.97059751e-01 +1.14345646e+00 -9.58685458e-01 -4.45928901e-01 -1.02316403e+00 -7.93533504e-01 -3.72183800e-01 +3.97401452e-01 -7.71215856e-02 +7.11695373e-01 -1.02547789e+00 -1.09217572e+00 -1.75655410e-01 -6.85066700e-01 +1.11754990e+00 -2.24684906e+00 +1.68370807e+00 -9.17391121e-01 -1.16360235e+00 +1.84047967e-02 +6.14373013e-02 +7.22056329e-01 -1.39621603e+00 -9.18842256e-01 +2.66577423e-01 +1.10890543e+00 -1.64867118e-01 +4.73260880e-02 -3.69928062e-01 -1.29073656e+00 +1.53137147e+00 -1.15977995e-01 -1.68813419e+00 -1.35084319e+00 -6.06408656e-01 +1.84909716e-01 -2.01917005e+00 +5.48650444e-01 +2.34235339e-02 +1.57700181e+00 -8.92838240e-01 -3.34275723e-01 +9.89408612e-01 -1.24797726e+00 +1.33298564e+00 +1.57822895e+00 -6.33318722e-01 -7.26605654e-01 +8.92781690e-02 +1.49196851e+00 -6.99418068e-01 +1.11294699e+00 +2.10431725e-01 +8.11581373e-01 +3.87676626e-01 +1.84397173e+00 -8.80500019e-01 -2.03852177e+00 +1.92053393e-01 -3.33377212e-01 +1.07549274e+00 -9.94362116e-01 +7.49639928e-01 -2.08192301e+00 -9.75470006e-01 +1.42540598e+00 -1.49154282e+00 -1.19460142e+00 -1.20488811e+00 -1.85272765e+00 -1.39200449e-01 +7.03081489e-01 -5.46135306e-01 +3.53752971e-01 +1.80634320e-01 -4.37280685e-02 +1.50592387e+00 -1.32048950e-01 +1.30383641e-01 +2.79811025e-01 +2.19174519e-01 -4.92825657e-02 +4.36313152e-01 +2.54796892e-01 +7.70919770e-02 -2.00611338e-01 -1.23057067e+00 +2.52839446e+00 +9.52510238e-01 +2.19117910e-01 +5.63645184e-01 -1.14700474e-01 +7.80015469e-01 -2.01157797e-02 -6.88176155e-02 +1.58453238e+00 +2.46413684e+00 +6.38618395e-02 -4.09597233e-02 +1.47654101e-01 +3.69946331e-01 -1.99133288e-02 +7.29272515e-02 -6.73030555e-01 +1.79487780e-01 +1.37607679e-01 +3.01260948e+00 -1.54407561e+00 -7.99372137e-01 +4.98373419e-01 -3.37164253e-01 -2.64350832e-01 -2.03023314e-01 +2.59476621e-03 -6.82565510e-01 -5.50686538e-01 +4.25381698e-02 +1.84836194e-01 +3.48718941e-01 -5.96009970e-01 +2.05426246e-01 +1.94060028e-01 +6.97432756e-02 -1.32479143e+00 -6.58201635e-01 -3.83038342e-01 -4.35924560e-01 +1.09174363e-01 +2.11753875e-01 -1.97850078e-01 +1.40302554e-01 +1.62001789e-01 -7.97545969e-01 -2.68464405e-02 +7.40698636e-01 -3.10711503e-01 +2.92181641e-01 -3.66173089e-01 +2.30451524e-01 -1.53203607e-01 +7.03986645e-01 -3.81236374e-01 +4.96993780e-01 +8.62515718e-02 +3.97644609e-01 -3.18742573e-01 +3.18882376e-01 +1.66951135e-01 -1.84167969e+00 -1.52514011e-01 -6.88408136e-01 -4.84810144e-01 +3.46770048e-01 -2.19656050e-01 -4.28988743e+00 -6.22976363e-01 -2.34719156e-03 -1.58082604e+00 +1.44925630e+00 -3.62844229e-01 -7.35857561e-02 +7.87412375e-03 +2.63077877e-02 -1.61011785e-01 -2.71694422e+00 +4.70958292e-01 -3.97570372e-01 -1.48684120e+00 -6.57187521e-01 -1.47077811e+00 +3.57676715e-01 -6.12894118e-01 -2.53641367e-01 -3.18559498e-01 +1.63561150e-01 +5.80228269e-01 -3.57058913e-01 +1.23975742e+00 +4.13890123e-01 +2.53483150e-02 -3.53805393e-01 +1.03048813e+00 +9.30966020e-01 +6.02908850e-01 +9.69244123e-01 +1.14646864e+00 +9.78880823e-01 -1.19145501e+00 +8.25318336e-01 -2.68867582e-01 +9.12706614e-01 +6.47559285e-01 +1.43162549e+00 +1.12252355e+00 +5.81647158e-01 -4.74623770e-01 +1.11601150e+00 -4.48616922e-01 +6.92607284e-01 -6.61246717e-01 -4.21216547e-01 +1.32570252e-01 -1.07851136e+00 -4.39817458e-01 +1.57502794e+00 +8.33791673e-01 -7.41547823e-01 +7.56423175e-02 +1.45876360e+00 -8.91213298e-01 +1.48016477e+00 +1.39847851e+00 +4.80257958e-01 +4.87141728e-01 -7.37494767e-01 +1.61689484e+00 +1.18534923e+00 +6.57479942e-01 -4.99179482e-01 -6.18501782e-01 -1.85240209e-01 -1.50905550e-01 -4.72590834e-01 +8.81625175e-01 +2.23972321e-01 -2.38637663e-02 -3.17106456e-01 -1.27066985e-01 -7.52626419e-01 -7.89326578e-02 +8.24777126e-01 -2.31875986e-01 -3.90867516e-03 +7.58772016e-01 +7.01988280e-01 +7.55468532e-02 -3.26615870e-01 -2.07132265e-01 -1.55200624e+00 +9.87718225e-01 +2.98180670e-01 -9.70717251e-01 -1.99704334e-01 -7.58144438e-01 -2.11279932e-02 +2.99492896e-01 -4.71669018e-01 -3.64048928e-01 +9.28861082e-01 +8.07931960e-01 -4.09328416e-02 +9.84942853e-01 -1.24495579e-02 -2.27466390e-01 +5.14162540e-01 +1.57970071e+00 -5.34008682e-01 +2.61536449e-01 +6.93520904e-01 -6.25191092e-01 -1.04177630e+00 +4.81304061e-03 -2.45244369e-01 +1.36180198e+00 -9.95813087e-02 -3.52492362e-01 +8.37463200e-01 +1.40528095e+00 +1.04285479e+00 +1.10756075e+00 +1.04885042e+00 -1.30903268e+00 +5.24361193e-01 -1.25917405e-01 +2.49599040e-01 -3.00217062e-01 -3.28660682e-02 -9.70104873e-01 -8.19663227e-01 -4.07099515e-01 +4.45566297e-01 -7.77585089e-01 -1.54540753e+00 -6.74044937e-02 -2.50217736e-01 -1.13099802e+00 -1.19495296e+00 -4.39572096e-01 -1.16120613e+00 +7.30150864e-02 -8.65594685e-01 -1.01320302e+00 +4.14226741e-01 -9.06834245e-01 -3.76112580e-01 +6.55955732e-01 -1.54465342e+00 -1.24528319e-01 -4.27624941e-01 -1.12922001e+00 -7.62178004e-01 -4.71799612e-01 -2.22429529e-01 +4.10934687e-01 -5.50088882e-01 +2.88297266e-01 -3.48465472e-01 -3.14442128e-01 +2.70798743e-01 -6.71157837e-01 -1.55698764e+00 -7.39789426e-01 +1.56480372e-01 -7.94105053e-01 -1.99670076e-01 -7.87439167e-01 -4.21286553e-01 -8.86806548e-01 -1.92982092e-01 -5.32452762e-01 -1.57058805e-01 +1.80015162e-01 +1.28988057e-01 +8.27774554e-02 -1.06081605e+00 -7.34119177e-01 -4.82849956e-01 -3.63545716e-01 -9.40073967e-01 -4.14304018e-01 -4.97244149e-01 +1.24916442e-01 -9.97448325e-01 -2.56772220e-01 -1.25713265e+00 +2.57033825e-01 -2.91544080e-01 -1.73601717e-01 -4.73662049e-01 +3.20012182e-01 -4.80685145e-01 +6.37506068e-01 +1.59179330e-01 -7.53528357e-01 -2.43307501e-01 -6.26422167e-01 -3.27957988e-01 -6.72670960e-01 +4.40407306e-01 -7.52587438e-01 +8.16334188e-01 -1.11294103e+00 +1.60924438e-02 -1.82622895e-01 -5.00981867e-01 -3.48135173e-01 -4.46075916e-01 +4.43953872e-01 -1.24561918e+00 -4.15719926e-01 -7.54753873e-02 -2.91234553e-01 +6.96731567e-01 -7.29587972e-01 -9.99558270e-02 -1.14987142e-01 -5.21070004e-01 -9.91385460e-01 -6.31956160e-01 -7.40480945e-02 -1.24117538e-01 -1.13247490e+00 -1.42693579e-01 -2.74692118e-01 +5.70403934e-01 +8.63991678e-02 -9.08381641e-02 +9.31090474e-01 +2.85659909e-01 -3.48775327e-01 -3.55309129e-01 +8.05082083e-01 +3.24504465e-01 +3.67655344e-02 +9.15422261e-01 +8.27391148e-01 +1.62054285e-01 -4.48533624e-01 -1.64794534e-01 -5.89218140e-01 +4.27901089e-01 -1.84434518e-01 +1.14762199e+00 +6.69995904e-01 +3.12130541e-01 -3.84384036e-01 +9.99303758e-01 -6.60940111e-01 -1.05979346e-01 -3.23071867e-01 -5.37546933e-01 +9.35885496e-03 -1.15704894e-01 -4.66775894e-01 +5.81400216e-01 +5.76912940e-01 -2.20198944e-01 -5.10769010e-01 +7.26524413e-01 -1.15099883e+00 +1.71141422e+00 +1.07239485e+00 +2.81490982e-01 +2.72495538e-01 +4.78543490e-02 +1.21993279e+00 +5.49979448e-01 -2.47345958e-02 -6.06768548e-01 -6.68549895e-01 +3.19112748e-01 -2.07773730e-01 -1.34258285e-01 +2.76716411e-01 -6.80289090e-01 -2.51778841e-01 -3.39485228e-01 -1.00422490e+00 -2.41836831e-01 -5.01347899e-01 -1.75510943e-01 -6.66912317e-01 -4.33200002e-01 +5.44005394e-01 +4.45448339e-01 -8.87306631e-01 -8.45650852e-01 -1.65592849e-01 -7.70350397e-01 +5.91921151e-01 +9.09889489e-02 -2.95004416e-02 +7.64810592e-02 -9.72399831e-01 +5.48450835e-02 -4.48131531e-01 -1.61772084e+00 -5.38150311e-01 +6.62517905e-01 +1.66958749e-01 +9.92524158e-03 -2.22554445e-01 +7.07761109e-01 +2.89886817e-02 +1.06848121e+00 +8.20075348e-02 -1.05626822e+00 +6.78167790e-02 +3.50643307e-01 +2.60590523e-01 -3.42865229e-01 -6.58080131e-02 -4.05849934e-01 +6.72105074e-01 -2.46572688e-01 -4.35903102e-01 +2.61985540e-01 +1.31712639e+00 +7.28834152e-01 +1.13011217e+00 +6.23467803e-01 -4.11218643e-01 -7.34185398e-01 +2.29250029e-01 -7.93421447e-01 +1.06637609e+00 -2.39383459e-01 -1.22916675e+00 -1.18408442e+00 -8.70966136e-01 +1.94535479e-01 +1.04931378e+00 +8.45027804e-01 +6.04792058e-01 +9.94387805e-01 +1.29863572e+00 +8.99170995e-01 -1.72200099e-01 +1.27062488e+00 +1.55964851e-01 -1.25615823e+00 +1.26036894e+00 +1.52777755e+00 -1.17731714e+00 +9.10880685e-01 +2.55974889e-01 -9.24034953e-01 +2.20005020e-01 -1.07538235e+00 -2.94797309e-02 -1.07124619e-01 -9.71678555e-01 -1.03219174e-01 -3.48036587e-01 -1.13269258e+00 +1.05237639e+00 -8.29159021e-01 +1.35083079e-01 +1.68023968e+00 +1.74512938e-01 -1.64478362e+00 +1.64414406e+00 -1.29629612e+00 +5.85402966e-01 +4.34654862e-01 +1.40833271e+00 +8.32810104e-01 +1.13933027e+00 +1.32935390e-01 -3.41956541e-02 +3.94843549e-01 +4.44301963e-01 +4.06458050e-01 +1.27033913e+00 -2.71173388e-01 +7.52591491e-01 +6.82898343e-01 -3.62578511e-01 +1.21326767e-01 +4.24685210e-01 -9.69411552e-01 -4.13253158e-01 -1.10169923e+00 -1.13646472e+00 -1.38449967e+00 -6.15743160e-01 +1.45931587e-01 +6.58838511e-01 +2.20068749e-02 +1.29857266e+00 +5.68162262e-01 -6.56223372e-02 -1.15804803e+00 +2.46639416e-01 -3.31431627e-01 +1.05990624e+00 -2.51411069e-02 +2.68041760e-01 +8.55436265e-01 -7.05993950e-01 +1.04994275e-01 +1.74613035e+00 +1.05485106e+00 -5.44985056e-01 +7.40067363e-01 -8.57153296e-01 -2.87911862e-01 +7.62672126e-01 -1.45536113e+00 +4.62345034e-01 +3.98199946e-01 +2.02233762e-01 +2.16723591e-01 -1.19292116e+00 +4.03486103e-01 -2.75960058e-01 -1.36111295e+00 +1.37353408e+00 +8.80025983e-01 -1.01663435e+00 +8.87686968e-01 -1.92816243e-01 -7.16768026e-01 +2.36752834e-02 -8.53090584e-01 -5.01753986e-01 +3.23818654e-01 -1.75071275e+00 -5.72560132e-01 -1.49725842e+00 -3.29162031e-01 +1.22694723e-01 -8.08808804e-01 -4.84773740e-02 -3.62719893e-01 -1.60966921e+00 +1.06808925e+00 +8.21352661e-01 -2.85914570e-01 -2.15273634e-01 -1.07281566e+00 -2.66754508e-01 -3.09396207e-01 -1.97517872e-01 -1.61820960e+00 -6.54567122e-01 -8.31088364e-01 -6.91551566e-01 -1.80468225e+00 +2.08742306e-01 -5.52825809e-01 -8.88448298e-01 -8.57088685e-01 +5.21481335e-01 -8.46563876e-01 -8.88224065e-01 +1.04351185e-01 +1.56279612e+00 -7.97866762e-01 -2.70717114e-01 -1.44823754e+00 -4.80935276e-01 -1.03778756e+00 -9.86345336e-02 +3.39560419e-01 -1.29082966e+00 +7.72995949e-02 -1.46024632e+00 -4.99305993e-01 +8.01320281e-03 -8.10169041e-01 -9.86128390e-01 -7.84444571e-01 -5.09158103e-03 -1.71355307e+00 -4.07808453e-01 -2.05382019e-01 +3.12937379e-01 -8.42326880e-01 -1.04713905e+00 -1.49122346e-03 -1.32963502e+00 -1.57419354e-01 +1.23541713e+00 -1.55290544e-01 +9.49205220e-01 -2.29452655e-01 -8.11937332e-01 -1.15230572e+00 -7.52808094e-01 -3.21934283e-01 +3.82918984e-01 +7.36659467e-01 +1.34572700e-01 -5.79328358e-01 +2.50276923e-01 +2.15398216e+00 +1.89590573e-01 -4.80698675e-01 -5.11177123e-01 -2.89694220e-01 -1.13235545e+00 -4.64221984e-01 -4.11275655e-01 +1.89031780e+00 +5.57625890e-01 -9.48603034e-01 +6.72938585e-01 -6.26788437e-01 -2.76150834e-02 -1.19825590e+00 -7.46732831e-01 +1.16260722e-02 -6.84916496e-01 +6.93966866e-01 +6.76546693e-02 -1.07669342e+00 -1.18495353e-01 -1.57456994e+00 -1.20442402e+00 -1.74322176e+00 +4.08810169e-01 +3.15918624e-01 +3.66746932e-01 +2.45174670e+00 -7.37660825e-01 -2.78627098e-01 +2.95768976e-01 -9.24413979e-01 -2.82294959e-01 -9.89732265e-01 -6.08539462e-01 -3.30101997e-01 -5.89422226e-01 +4.78379101e-01 -1.53352514e-01 +8.25224757e-01 +1.39426351e+00 -1.00556970e+00 -1.38527012e+00 +1.70355216e-01 -2.78106689e-01 -3.93838733e-01 +1.00139451e+00 -6.25434220e-01 -1.30992270e+00 -1.43297734e-02 +9.90796924e-01 -1.99571884e+00 -4.35607761e-01 -5.29668272e-01 +2.89084226e-01 -7.08745420e-02 -2.81511962e-01 -2.13666782e-01 +2.64438428e-03 -3.23859930e-01 +1.92360473e+00 +2.06852615e-01 +7.04992533e-01 +7.57745430e-02 +4.70198512e-01 +6.69483542e-01 -6.93881631e-01 -1.04871917e+00 -4.13201898e-01 +1.35812497e+00 -6.98407650e-01 -1.20459330e+00 +1.02185357e+00 +1.67552340e+00 -3.87545317e-01 -7.69897938e-01 +1.38993335e+00 +5.18806875e-02 +1.75691798e-01 -4.33655471e-01 +1.81301904e+00 -3.99262339e-01 +6.80721879e-01 +3.86220098e-01 -1.66492558e+00 -3.58728096e-02 +2.21969366e-01 -7.48364925e-01 -3.97650123e-01 +4.64188576e-01 -7.30076075e-01 +2.89123654e-01 -1.03318167e+00 -1.26436126e+00 -5.81557155e-01 +1.32043445e+00 +7.45178282e-01 +3.09208453e-01 +3.98670137e-01 +2.00423121e+00 +3.93980056e-01 -3.28202933e-01 -1.33075726e+00 +8.55755657e-02 +8.32806945e-01 +2.33129293e-01 -7.20177889e-01 -1.31846324e-01 +4.53373849e-01 +1.51277378e-01 -6.75999045e-01 -2.53954828e-01 -1.22233200e+00 -7.58894265e-01 -9.92098093e-01 -4.15875107e-01 -1.50145575e-01 -7.53125787e-01 -1.26351142e+00 -1.49249792e+00 +1.11226571e+00 -1.07639778e+00 -4.20273006e-01 -1.63109511e-01 +1.17423587e-01 -8.81978989e-01 +3.97737101e-02 +2.39367604e+00 -2.48726845e-01 +1.62881041e+00 -3.24814588e-01 -1.20559049e+00 -1.53007531e+00 -1.17669380e+00 -1.50579557e-01 +2.66054809e-01 -1.40066850e+00 +2.99178243e-01 -2.51687795e-01 +1.77484822e+00 +7.37023950e-01 +8.19218397e-01 -8.60115364e-02 -3.94114286e-01 -6.21540904e-01 -4.82708067e-01 -2.50593066e-01 +1.23566166e-01 -8.58294904e-01 -6.18433893e-01 +1.74120140e+00 -8.06016147e-01 +3.70966524e-01 -7.58335590e-01 +8.53498578e-01 -2.85288878e-02 +2.73043543e-01 -6.75426662e-01 +6.41187578e-02 -2.70033747e-01 +1.51050031e+00 +6.45493448e-01 +1.04154015e+00 -3.93069297e-01 +7.85000920e-01 +6.72700763e-01 -6.35505497e-01 +5.89406610e-01 -8.96543503e-01 +6.09851535e-03 -1.03268409e+00 -1.02304983e+00 -2.62438565e-01 -1.17898941e+00 -5.13104498e-01 -6.09922707e-01 +1.95875108e+00 -2.38420621e-01 -2.33228013e-01 +1.34507805e-01 +2.76429605e+00 -1.99116081e-01 +1.11112440e+00 -1.29558349e+00 -7.63100088e-01 +8.22063923e-01 +1.54162729e+00 +2.08540678e-01 -5.84536016e-01 +3.64271790e-01 -6.76320553e-01 -8.00851583e-01 -5.53556979e-01 -3.23281735e-01 -8.76704752e-01 +1.19099236e+00 +1.57345819e+00 -3.89678031e-01 -8.92631233e-01 +1.50642776e+00 +2.83895940e-01 +1.65586531e-01 -1.26173818e+00 -1.03676684e-01 -3.45645875e-01 -1.10220528e+00 +1.04890324e-01 -7.48783648e-02 +4.44230705e-01 -7.34385788e-01 +9.97471571e-01 -8.43409672e-02 -1.29382801e+00 -5.82279600e-02 -8.38609040e-01 +7.14939296e-01 -3.50725949e-01 +7.33391047e-01 -5.69312334e-01 -9.68174875e-01 +1.30043805e+00 -1.96876633e+00 -8.16071212e-01 -1.35450327e+00 -6.85268641e-01 -1.59906894e-01 -1.54020357e+00 +2.52786040e-01 +1.48958176e-01 -7.82844901e-01 +1.39666989e-01 +4.13555413e-01 -2.09072605e-01 -1.51358113e-01 +8.23092103e-01 +2.41246596e-01 +4.30734158e-01 +1.97391540e-01 -4.61606272e-02 +1.73098111e+00 -1.75378871e+00 -8.62999141e-01 -4.87876773e-01 -1.99644014e-01 +2.23231867e-01 +6.78720772e-01 -5.47848821e-01 +3.88158113e-01 -1.04366636e+00 -2.23416984e-01 -5.32763660e-01 -2.87960112e-01 +3.80105853e-01 -1.76627681e-01 -2.42583975e-01 +2.54657954e-01 +7.12151304e-02 -5.94854774e-03 -8.93559456e-02 -6.75571799e-01 +1.62222636e+00 +2.85143763e-01 +1.71072021e-01 +1.64370835e-01 +3.79515052e-01 +4.46751237e-01 +6.04573905e-01 +1.24073219e+00 +1.70786545e-01 +9.53234673e-01 +1.25347361e-01 -1.78807631e-01 +1.30224633e+00 -5.74455559e-01 -4.20647897e-02 -2.04270959e-01 -6.66448176e-01 -4.38279390e-01 +7.38078117e-01 +6.57072783e-01 +3.28563750e-01 +7.79373050e-01 -1.53033614e+00 +2.86623746e-01 +2.43513346e-01 +1.86699495e-01 +4.00702000e-01 -4.72197115e-01 -2.04297990e-01 -2.97095299e-01 -2.12702602e-01 +8.41615140e-01 -2.03662246e-01 +1.45408168e-01 -1.05165392e-01 -2.31317952e-01 +7.50220001e-01 -2.12058619e-01 +3.48812789e-01 -2.42973614e+00 -8.46622288e-01 -3.61156493e-01 +1.05848230e-01 -2.11669013e-01 -3.18225533e-01 -8.27256814e-02 +3.46627802e-01 +2.45270038e+00 -1.11479998e+00 +2.32246220e-01 +4.34632778e-01 -3.83343309e-01 -2.64551640e-01 -2.28173584e-01 +5.86587638e-02 +2.13358089e-01 -1.00638948e-01 +7.99377441e-01 -7.51560211e-01 +4.50260907e-01 +4.50831026e-01 +5.51702261e-01 -3.47543210e-01 -2.95282722e-01 -1.20624900e+00 +6.24664485e-01 +3.25232595e-01 +6.20610500e-03 -4.38415468e-01 +6.94197536e-01 +2.05087140e-01 -6.84496462e-01 +1.13240696e-01 +1.24934494e+00 +3.94117773e-01 +2.46595696e-01 +3.98271471e-01 +4.82307673e-01 -1.19938135e+00 -3.87819082e-01 +8.23896229e-02 -1.00128496e+00 -4.50664103e-01 +1.10718012e+00 -9.93300557e-01 -6.44201398e-01 +1.03679717e+00 +2.79067785e-01 +8.39564502e-01 +2.68577963e-01 +1.56912237e-01 +1.02951443e+00 -5.98764300e-01 -9.77156460e-02 +2.01841146e-01 +1.05080521e+00 +1.54789042e+00 +5.47520697e-01 -2.35316008e-01 +3.61172527e-01 +5.99913239e-01 +7.48836994e-01 +3.57777804e-01 +6.62435114e-01 +1.84877113e-01 +1.73051918e+00 +5.91256976e-01 +9.35587704e-01 +5.38961053e-01 -7.81705737e-01 +7.48247802e-01 +7.37724602e-01 +1.56127107e+00 +5.99823177e-01 -6.19610369e-01 -8.05200115e-02 -4.13015306e-01 -8.19569826e-02 +4.53673989e-01 +5.73498845e-01 -3.46865863e-01 +8.13878298e-01 +3.76534581e-01 +6.18327200e-01 +2.94229060e-01 +1.02080214e+00 -7.26558626e-01 -1.38487950e-01 +9.90887463e-01 +2.59762168e-01 +4.48795915e-01 +1.09376967e+00 -1.15842950e+00 +6.49932206e-01 +9.26457718e-02 -6.13252640e-01 +1.38273120e-01 +3.34637046e-01 -1.27762187e+00 +3.62395234e-02 +1.58467263e-01 +1.91417575e-01 +3.26231450e-01 +5.61161816e-01 +3.96974683e-01 +1.05568373e+00 +4.76503462e-01 -6.02141619e-02 +3.90705198e-01 -4.35785830e-01 +8.86470914e-01 +5.61044633e-01 -7.14614689e-01 -1.10210419e+00 +3.66424710e-01 -2.07887311e-03 +7.85115123e-01 +8.38325977e-01 -3.89526844e-01 -4.64301020e-01 -2.35145241e-01 -1.06335752e-01 -5.09649850e-02 +3.53961468e-01 -3.16582620e-01 -4.14673209e-01 -1.58731192e-02 +7.72162676e-02 -1.05624843e+00 +5.45344083e-03 -1.19349539e+00 -2.98311949e-01 -4.32571590e-01 -5.33151388e-01 +4.38677996e-01 -1.95606694e-01 +1.78843990e-01 +2.01155543e-02 -7.75125206e-01 -5.44132531e-01 -5.06589822e-02 -8.31584930e-01 -5.08436799e-01 +3.87698784e-02 +1.15364835e-01 -6.50407910e-01 -7.25441039e-01 -2.53995657e-01 -9.63953912e-01 -7.71309555e-01 -1.87996238e-01 -2.49673098e-01 +1.80606216e-01 +8.65686178e-01 -2.71485209e-01 -4.50425386e-01 -1.26573753e+00 -3.95226777e-01 -1.09168661e+00 -1.15600610e+00 -7.08291471e-01 -3.70600164e-01 -4.11901139e-02 -8.20121467e-02 -7.73011506e-01 -9.77458417e-01 -1.71116367e-01 -6.15367591e-01 -1.64535433e-01 +1.35469317e-01 -5.54548725e-02 -4.46876943e-01 -4.64570791e-01 -3.57647628e-01 -8.46714079e-01 +1.94651484e-01 -3.18160921e-01 -2.47011378e-01 +2.16822043e-01 +8.70399833e-01 -4.63844568e-01 -7.39853799e-01 -1.66681595e-02 -4.71568137e-01 -6.08792663e-01 -8.69955242e-01 -5.51236868e-01 -4.09976952e-02 -5.32792211e-02 +5.63979805e-01 -9.15989995e-01 -4.46463704e-01 -3.28565359e-01 +3.03640962e-01 +7.73524106e-01 -5.48970044e-01 +2.47869700e-01 -1.03149414e+00 +7.92792678e-01 -3.00422132e-01 -3.36567126e-02 +7.45748878e-02 -1.02793658e+00 -7.54235089e-01 +3.51375997e-01 -7.59036899e-01 -9.71412301e-01 -5.38652167e-02 +1.48762897e-01 -5.22627056e-01 -8.16536049e-05 -5.74111938e-01 -1.29325807e-01 +6.65835738e-02 +7.51239732e-02 -2.97891617e-01 -8.21656108e-01 -9.11638200e-01 -5.14818013e-01 +2.54180223e-01 +1.30406832e-02 +4.01870022e-03 -1.90405592e-01 +2.36993190e-02 -9.02220130e-01 +1.80632129e-01 -3.33255827e-02 -7.96496630e-01 -8.55590105e-01 +1.14263201e+00 -3.83007705e-01 -8.47059369e-01 -9.15059522e-02 +1.26997924e+00 +7.95526803e-02 +4.19713825e-01 -3.36904228e-02 +7.56776154e-01 -1.23396254e+00 -6.33048356e-01 +2.52462626e-01 -7.93615580e-01 -2.84530401e-01 -5.15850075e-02 +2.06763998e-01 -1.01105213e+00 +1.15772879e+00 +2.04602659e-01 +5.64736307e-01 -1.32643998e-01 +2.54515886e-01 +6.06524765e-01 -3.45554411e-01 +1.21937945e-01 +8.41422006e-02 +1.24389625e+00 +2.26944566e+00 -5.94646670e-02 -8.08435261e-01 +2.06316918e-01 +3.18999529e-01 +9.66995731e-02 +1.46923780e-01 -1.07822351e-01 -1.51731998e-01 +6.88315690e-01 +7.22309649e-01 +2.51743775e-02 +4.39635724e-01 -1.51953959e+00 +6.59766197e-01 +9.22374547e-01 +2.05679083e+00 +2.25474462e-01 -1.00373125e+00 -3.92453045e-01 -8.61959279e-01 -8.41993243e-02 -3.71988676e-02 +3.67658228e-01 +2.82222182e-01 +3.82574767e-01 +1.13680460e-01 +5.38451225e-02 -1.88001804e-02 -2.17102636e-02 -9.25160885e-01 +1.80955324e-03 +1.21961796e+00 +4.11726534e-01 +5.69309592e-01 +8.38952780e-01 -2.33557656e-01 +6.29120827e-01 -7.83511549e-02 -7.86456585e-01 +2.59283066e-01 -3.11884344e-01 +6.09568238e-01 -1.06684184e+00 -2.08088160e-01 -3.11900854e-01 -7.67058283e-02 +5.18404067e-01 -1.21162377e-01 +1.41167271e+00 -1.31950211e-02 -4.92872074e-02 +4.27883267e-01 -7.66526580e-01 +1.07009888e+00 +4.63808417e-01 +3.06599051e-01 -7.98755944e-01 +1.85525015e-01 -2.43327409e-01 +1.14245519e-01 +1.22776842e+00 -5.96034288e-01 -7.73809969e-01 +7.51497447e-02 +1.78736702e-01 +3.63604426e-01 -4.40996140e-01 -4.33116220e-02 +7.28634417e-01 -7.68913686e-01 +2.05466062e-01 +4.73202735e-01 +8.43603790e-01 +6.60815060e-01 +7.40346074e-01 -3.85827124e-01 -1.10947394e+00 -7.29613960e-01 +2.97129661e-01 -2.95569599e-01 -5.09781122e-01 +8.48334283e-02 +1.15450220e-02 +5.54992914e-01 +2.30212569e-01 -2.44728103e-01 +1.46463037e+00 -5.96882582e-01 +1.16210036e-01 +1.39222479e+00 +1.46206915e+00 -1.24418056e+00 -4.38975930e-01 +7.02219903e-01 -1.28940403e+00 +2.94983983e-01 +2.16475964e-01 -6.09574556e-01 -1.66674328e+00 +1.59895241e+00 +8.21823239e-01 -3.83487165e-01 +6.82818413e-01 +1.16456401e+00 -1.76263124e-01 +4.57911193e-01 +1.06446004e+00 -3.02322507e-01 +2.11802626e+00 +1.30996764e+00 -7.00902164e-01 +7.96030581e-01 +1.46017119e-01 -1.57119179e+00 -1.13542283e+00 +1.54233682e+00 -7.16500282e-01 -1.94800749e-01 +1.36362433e-01 +1.25607569e-02 -6.07401803e-02 +1.12012243e+00 +8.74435231e-02 -6.33769095e-01 +1.37123191e+00 -4.88779426e-01 +1.15941703e+00 -5.44580400e-01 +8.32496107e-01 +2.84126580e-01 -4.66544241e-01 -1.35060000e+00 -4.16775972e-01 -1.11912680e+00 +1.57845485e+00 +3.06135744e-01 -8.27974379e-01 -1.41019309e-02 +1.98170811e-01 -1.16520000e+00 +6.56494975e-01 +2.92109907e-01 -5.05119860e-01 -9.43591073e-02 -1.96005031e-02 -8.15378666e-01 -1.23542154e+00 -4.52643514e-01 -1.44844306e+00 -9.87420142e-01 +2.81836595e-02 +2.90716946e-01 -2.77460933e-01 -7.88423836e-01 +1.71448720e+00 +7.48170435e-01 +5.47315896e-01 +5.39675772e-01 +1.23530364e+00 +1.37695146e+00 -9.53290343e-01 -6.82867587e-01 +4.17750299e-01 +1.83965951e-01 +5.78708529e-01 +6.62340283e-01 +6.20558858e-02 +4.23005909e-01 -5.97006917e-01 -1.61278427e+00 -1.18453026e+00 -5.26646554e-01 -2.95446128e-01 -1.19333839e+00 -6.85041428e-01 -8.19382727e-01 +1.48448080e-01 -1.52483821e+00 -1.83948278e-01 -4.95677024e-01 -4.11630005e-01 -1.06895030e+00 -4.20227885e-01 +9.52201903e-01 +6.83122575e-01 -8.55837166e-01 -7.00112045e-01 -1.51199505e-01 -1.04645753e+00 -3.78815606e-02 +7.03468442e-01 -6.31103396e-01 -1.04335296e+00 -6.98166132e-01 +3.44930232e-01 -1.71882272e-01 +2.83941299e-01 -2.62866527e-01 +3.21831405e-01 -1.83329269e-01 -9.78214681e-01 +5.54609671e-02 -1.73270088e-02 -1.06550598e+00 -6.44876301e-01 -8.49721372e-01 -5.53462565e-01 +7.52221644e-02 -1.03438723e+00 -7.19730079e-01 -1.95646226e-01 -1.26284015e+00 +2.92424619e-01 -1.19846976e+00 +1.99987382e-01 +3.05664897e-01 -4.77107257e-01 +9.67302144e-01 -8.47575247e-01 -1.59956598e+00 -1.49468708e+00 -2.23471329e-01 +5.00446141e-01 -6.17760792e-02 +3.18797469e-01 -4.70602006e-01 -8.11906457e-01 -2.61609077e-01 -1.31031200e-01 -1.27038395e+00 -5.67296684e-01 +9.69983265e-03 +1.80020183e-01 -2.79614907e-02 -4.44251209e-01 +2.40738839e-02 -2.25794420e-01 -1.68135405e-01 -1.13688982e+00 -3.88824828e-02 -6.04265809e-01 +6.83929697e-02 +7.57136345e-01 +2.49954000e-01 -1.42587233e+00 -1.34493387e+00 -9.85774815e-01 -4.94229525e-01 -1.35995418e-01 +1.58886105e-01 -1.05048740e+00 -1.14438248e+00 -2.73072958e-01 +1.15086210e+00 -7.93295741e-01 -9.57776666e-01 -2.07886413e-01 -1.39419287e-01 -6.65025711e-01 -8.75112489e-02 -3.87830317e-01 +1.63198169e-02 -4.49876994e-01 +4.22187805e-01 -1.45318580e+00 -2.88518995e-01 +5.05672038e-01 +5.16054571e-01 -9.13118184e-01 +9.49118674e-01 +2.15274906e+00 +5.89109123e-01 +6.60224080e-01 +1.80915847e-01 +1.39809453e+00 +2.12400109e-01 +6.51998580e-01 -2.26063117e-01 -5.48540771e-01 +4.39612776e-01 -7.17264891e-01 +1.30468953e+00 -6.26407981e-01 +8.23499739e-01 +1.63837284e-01 +1.39932489e+00 +2.00945213e-01 +3.21756899e-01 -4.06494856e-01 +8.46250534e-01 +6.67820454e-01 -1.41057634e+00 +1.24535479e-01 +8.41384113e-01 +1.94943535e+00 +7.53186762e-01 +4.91585702e-01 +5.06591916e-01 +8.10559809e-01 -4.73937839e-01 +4.82011586e-01 +6.63384557e-01 -8.21076930e-01 +3.32915306e-01 +8.14699948e-01 +8.79782140e-01 -3.28207463e-01 +4.68107104e-01 +2.21053615e-01 -5.00419497e-01 +5.97436428e-01 +1.03484523e+00 +2.31404376e+00 -9.65139940e-02 -2.82126218e-01 +1.13248622e+00 +3.96893084e-01 -7.11771727e-01 +1.01576388e+00 +8.06972504e-01 +7.47447133e-01 +7.48116910e-01 +7.18415022e-01 +1.35581124e+00 +1.36903793e-01 +4.24686164e-01 +2.69208282e-01 +1.01351202e+00 +5.82153440e-01 -5.95671535e-01 -1.06432410e-02 +1.36376977e+00 +5.47206998e-01 +3.97729039e-01 +1.13153958e+00 +6.96081400e-01 -1.23962164e-01 +1.01267290e+00 +1.25391388e+00 -3.56149942e-01 +7.36168981e-01 +1.00196266e+00 +8.03442061e-01 -6.90013990e-02 -3.90912771e-01 +1.44614387e+00 +1.32633674e+00 +1.78889239e+00 -6.07681811e-01 +4.28298824e-02 -1.03100514e+00 +1.06597972e+00 +3.67867708e-01 +7.27256894e-01 +3.73477668e-01 +6.94564700e-01 +9.70208883e-01 -5.29419124e-01 +2.80016065e-01 -6.55817747e-01 -8.85953426e-01 +1.28184760e+00 +5.37066102e-01 +1.91330469e+00 -9.92900074e-01 -1.63830698e-01 +1.05987501e+00 +7.54379988e-01 -5.47509968e-01 +2.75381297e-01 +1.56812385e-01 +4.81075533e-02 -1.76437944e-01 -5.88173494e-02 +1.59091026e-01 -7.40824163e-01 +1.72225997e-01 -1.38300315e-01 -1.25484729e+00 -7.17388093e-02 -7.47777164e-01 -2.11090475e-01 +2.60708869e-01 +3.68639678e-01 +6.71914935e-01 +6.11886270e-02 -1.26649171e-01 +2.44170547e-01 -7.90231109e-01 +5.84285669e-02 -3.81026208e-01 -7.34995544e-01 +1.62124470e-01 +3.14558506e-01 +1.35230348e-01 +4.24143106e-01 +1.10485226e-01 -3.38937193e-01 +4.49054211e-01 -5.19190013e-01 +1.63966462e-01 -3.20109814e-01 +2.04992771e-01 -8.24487627e-01 +1.93601742e-01 +3.00620675e-01 -8.72512311e-02 -5.03968060e-01 -1.22290641e-01 -7.91950941e-01 +5.90584695e-01 +8.44132751e-02 +3.63647640e-02 -1.83254957e-01 -3.85176688e-01 +4.46467489e-01 -3.00195724e-01 +5.46324492e-01 +8.18716764e-01 +5.99380910e-01 -2.92944252e-01 -5.19947708e-01 +7.09306836e-01 +2.55917996e-01 -3.71372188e-03 +9.36845064e-01 -2.03335300e-01 +6.07149243e-01 -2.52653897e-01 -9.77249205e-01 -6.73226535e-01 +1.74018100e-01 -9.28970695e-01 -3.16905916e-01 +1.09556198e-01 +2.12769091e-01 -9.77216244e-01 -6.99911714e-01 +7.60364711e-01 -7.97339678e-01 +2.21184734e-02 +9.73543897e-02 +1.02059627e+00 -4.57765430e-01 -3.68675023e-01 +6.31446004e-01 +1.09210038e+00 +5.68067074e-01 -6.29168868e-01 -6.19915314e-03 -1.05626702e+00 -2.20588118e-01 -8.39286447e-01 +9.00170445e-01 +7.43389223e-03 -4.42724794e-01 +4.04975057e-01 -1.89488605e-01 +3.96422654e-01 -4.33238953e-01 -6.57483637e-01 -3.28993239e-02 -5.86883664e-01 +8.65379035e-01 -1.78027999e+00 -1.43676972e+00 +2.17009521e+00 -7.30967879e-01 -1.04885185e+00 -7.04410195e-01 -9.30527151e-02 -1.07968009e+00 +3.14803809e-01 -4.73913550e-03 +4.27229196e-01 -1.76577330e-01 -9.19763803e-01 -2.18046233e-01 -7.14152217e-01 -1.30556524e-02 -9.20747280e-01 -4.27914560e-01 -4.78724986e-01 -1.49449337e+00 +1.57145870e+00 +6.23356700e-01 +9.81077790e-01 -2.91341722e-01 -3.23379874e-01 -7.22258031e-01 +8.97438169e-01 +2.27115631e-01 -1.00147545e+00 +3.07684511e-01 -9.30498242e-01 +9.51210678e-01 +2.11418897e-01 +5.67279100e-01 +5.67225337e-01 +2.13198319e-01 -4.40198749e-01 -1.12997532e-01 -5.25062799e-01 +7.03219414e-01 +6.62171066e-01 +2.26889223e-01 +3.38959455e-01 +9.64727402e-01 +7.31573224e-01 -1.87111184e-01 -1.43138540e+00 +1.04990673e+00 +8.05120707e-01 -5.91503382e-01 +1.07216144e+00 +1.54961896e+00 +2.33570516e-01 +4.03874099e-01 -3.44905496e-01 -5.17120898e-01 -1.28848445e+00 +4.31704164e-01 +5.47034383e-01 -4.94503528e-02 +1.22991765e+00 +8.62905681e-01 +1.03207968e-01 +1.03494287e+00 +9.66269851e-01 +7.42029995e-02 -8.09924901e-01 +1.15956396e-01 +3.41714680e-01 -1.14615333e+00 +1.03202248e+00 +2.99158514e-01 +1.01949692e+00 -4.95379478e-01 -8.57804120e-01 +2.90475756e-01 -2.56889701e-01 +1.65489554e-01 -1.79565167e+00 -4.19259667e-01 -1.49250790e-01 -5.14462769e-01 -1.78113714e-01 +7.79210508e-01 +1.10564314e-01 +4.56354469e-01 +1.83996096e-01 -2.25144580e-01 -1.04418203e-01 +1.06217206e+00 -4.39059734e-01 -9.13531303e-01 -4.17779148e-01 +4.36865315e-02 +4.32734102e-01 +6.46256745e-01 -8.16992342e-01 -5.43883860e-01 -3.22240740e-01 +1.75577986e+00 +5.34130394e-01 -8.61208498e-01 -3.44557762e-01 -7.06912100e-01 -3.04881215e-01 -1.03544962e+00 -1.14488077e+00 -5.03292143e-01 -1.00583768e+00 +1.98216572e-01 +1.07996166e+00 -2.16616243e-01 -1.14255416e+00 -9.26475406e-01 -1.79379359e-01 -5.99483669e-01 +7.85305619e-01 +2.74733379e-02 +2.89097518e-01 +8.06001306e-01 -1.29345989e+00 -7.22181201e-01 -1.10521638e+00 -1.22802362e-01 +5.81211030e-01 -8.10341179e-01 -4.46315974e-01 -1.14332056e+00 -6.14934117e-02 -8.13206494e-01 -9.69450235e-01 +4.14141655e-01 -3.06022882e-01 +9.50344875e-02 +6.72671139e-01 +3.32038134e-01 +2.32648820e-01 -3.85998338e-02 -3.28484774e-01 +1.05665356e-01 -1.04610980e+00 +6.44216418e-01 +9.58057046e-01 -5.11306167e-01 -2.43844211e-01 +1.41469944e+00 -1.48176646e+00 +6.42627537e-01 -1.69812965e+00 -3.74253124e-01 -2.73609936e-01 -2.12224290e-01 +5.26681840e-02 -5.38132668e-01 +4.95004594e-01 -1.26563382e+00 +8.78825784e-01 -7.51549661e-01 -3.22701335e-01 -9.51729774e-01 +1.22896522e-01 +7.32789874e-01 -6.33092940e-01 -1.41315535e-01 -6.84913337e-01 -1.07875371e+00 +1.20293558e-01 -1.02152586e+00 +6.74152076e-01 +3.66774231e-01 -3.11575115e-01 -7.22022533e-01 +2.32064351e-01 -7.67147064e-01 -1.04876304e+00 -1.51224089e+00 -2.79208690e-01 -8.91375780e-01 -5.67179978e-01 -4.50880170e-01 -8.41912031e-01 -1.54641593e+00 -9.96592760e-01 -5.09795845e-01 -8.24446917e-01 -8.51157069e-01 -3.80285650e-01 +5.06310701e-01 -7.99709082e-01 -5.73873341e-01 -1.16809285e+00 -4.38228399e-01 -8.79213393e-01 -2.27131873e-01 -1.08589602e+00 -1.04854655e+00 -3.64296496e-01 +2.44351253e-01 -1.42238224e+00 +6.15177989e-01 +9.98511851e-01 +2.09072411e-01 +7.05756366e-01 +5.01662791e-01 -5.15233397e-01 -4.67682362e-01 -5.56911051e-01 +1.39665917e-01 -4.32612509e-01 -1.89885914e+00 -8.42607796e-01 -3.93008947e-01 -1.51488853e+00 -7.17747033e-01 -1.37697175e-01 +1.09677362e+00 -2.42231771e-01 -6.21970654e-01 -6.28241956e-01 -9.86005366e-01 -4.47922200e-01 -1.55784786e-01 -1.05310190e+00 -8.95237863e-01 -9.72288609e-01 -1.69007885e+00 +4.09072340e-02 -2.55040765e-01 -1.26180738e-01 -7.05991864e-01 +7.75293767e-01 -1.10771990e+00 +1.17955253e-01 +1.41213194e-01 -1.07452720e-01 -5.99075913e-01 -3.29020172e-02 -3.45094711e-01 -1.86654165e-01 +3.90808046e-01 -7.53112316e-01 -3.19446266e-01 -1.25168681e+00 -1.38739419e+00 -4.86995041e-01 +9.99822691e-02 +6.29150033e-01 -8.20873022e-01 -1.39693260e+00 -8.55338514e-01 -4.48283941e-01 -6.25995636e-01 -7.16957986e-01 +3.89505595e-01 +5.67666650e-01 +4.00660336e-01 +2.41845861e-01 -8.58206868e-01 -1.02185524e+00 -8.21912646e-01 +2.64965206e-01 -3.91669601e-01 -9.52334642e-01 -6.41761124e-01 -4.15154338e-01 -6.07301712e-01 +3.79034579e-02 -5.04778624e-01 -2.60822356e-01 -8.03331137e-01 +9.46425438e-01 +9.10508335e-02 -5.14030576e-01 -2.17974529e-01 -8.71634558e-02 -8.59559700e-02 +1.07716715e+00 -1.27967381e+00 +3.46081823e-01 +7.08443344e-01 -6.96249485e-01 -6.12420797e-01 -1.11101486e-01 -3.04829866e-01 -1.44073129e+00 -1.76895171e-01 +9.07762110e-01 -8.29596281e-01 +7.59503603e-01 +1.60716310e-01 -1.20053422e+00 -1.47915632e-01 -1.07645607e+00 -1.29923701e+00 +2.58132845e-01 -9.36170638e-01 -4.73081112e-01 -8.54796946e-01 +3.91357899e-01 -4.53898251e-01 +5.57244420e-01 +5.28618813e-01 +9.83650029e-01 +5.82701743e-01 -1.73625216e-01 -1.08627200e+00 -1.10082901e+00 -1.03438877e-01 -3.10018688e-01 -1.19436836e+00 +6.92254364e-01 +4.97805178e-02 -1.58586431e+00 -1.05595767e+00 +4.94132966e-01 +1.76534414e-01 +1.08984105e-01 -8.53022859e-02 +8.25878143e-01 +3.05803001e-01 +7.76936114e-02 +4.90087062e-01 -8.70416164e-01 -1.26655436e+00 +5.48665583e-01 -1.78765345e+00 +3.92742306e-02 -6.12289488e-01 -5.40068328e-01 -6.56783521e-01 -6.41363338e-02 -1.80840418e-01 -3.57948020e-02 +1.70322880e-01 -1.28973529e-01 -1.06860347e-01 -4.72028524e-01 -4.63028163e-01 -7.96483636e-01 +5.71827292e-01 -8.08019042e-01 +9.14162695e-01 -9.82623160e-01 -1.34203839e+00 -1.18802667e-01 +3.12099993e-01 -8.09692204e-01 -7.68144786e-01 -7.85428047e-01 -1.76042056e+00 -5.16798019e-01 -7.65992582e-01 -1.00906849e+00 -4.73480344e-01 +4.76657242e-01 +1.98157523e-02 -3.66891235e-01 -7.32132435e-01 -4.04274732e-01 -4.81104612e-01 +8.45668372e-04 -5.56434155e-01 -9.90889907e-01 -1.43960090e-02 -3.60537589e-01 -3.59420896e-01 -6.55613244e-01 +2.40401000e-01 +3.91401321e-01 +4.42034334e-01 +1.63313732e-01 -5.25653362e-01 +3.80088061e-01 -4.52661932e-01 +2.51360625e-01 -5.63287698e-02 +1.14976132e+00 -9.70498800e-01 -6.43803999e-02 +5.40682316e-01 -2.01439166e+00 -1.01748459e-01 +1.60730913e-01 +1.82479948e-01 -1.29630899e+00 -4.87180948e-01 +3.23848248e-01 -6.88340127e-01 +3.64763409e-01 -3.80783439e-01 -1.52807713e+00 -7.81446040e-01 +1.05073843e-02 -9.40655112e-01 +3.04410756e-01 -5.13580799e-01 -4.69380394e-02 -1.70587912e-01 -1.31879973e+00 -5.08221567e-01 +7.93161094e-01 +8.90461743e-01 -6.16781890e-01 +4.20234680e-01 +1.33902699e-01 -5.80247223e-01 +7.18032837e-01 -1.74092203e-02 -2.45491549e-01 +2.39689276e-01 -2.20680796e-02 +1.52608678e-02 +8.89821053e-01 +6.17256701e-01 -6.71491325e-01 +1.28097355e+00 -9.94719341e-02 -6.60429820e-02 +5.13355851e-01 +1.66977152e-01 -1.02989197e+00 -1.04082084e+00 +8.14814627e-01 +4.73433435e-01 +1.29546487e+00 +3.07313561e-01 -1.66776776e-01 -3.33956838e-01 +7.25770175e-01 -4.83567774e-01 +2.11929642e-02 +1.77606225e-01 +2.90954225e-02 +4.41856414e-01 -1.39142677e-01 +5.01716495e-01 -6.37698829e-01 -8.02115917e-01 +1.93154857e-01 +4.03472692e-01 -5.96764266e-01 -7.04398155e-02 +5.77183664e-01 +2.94125408e-01 +9.04144347e-01 -9.48689997e-01 -5.93934536e-01 -4.84732658e-01 -4.96572047e-01 +1.59348965e-01 +8.32899630e-01 -3.81998152e-01 +5.64479291e-01 +4.54126060e-01 -9.66709778e-02 -5.65264337e-02 +1.18127298e+00 -7.62493968e-01 +1.60441939e-02 -7.38313124e-02 +7.08468020e-01 -2.09399536e-01 +1.15731768e-01 +5.55804849e-01 +2.27095395e-01 -7.53302097e-01 -7.97293961e-01 +6.14291802e-02 +5.57875097e-01 -3.65723781e-02 +1.04383588e+00 -3.37132029e-02 +8.04786980e-01 -6.43895209e-01 -8.72675925e-02 -3.45000088e-01 +9.32361037e-02 +5.83793998e-01 -6.37329936e-01 +1.21345603e+00 -7.74682283e-01 +3.41840267e-01 -5.85912943e-01 +2.92815447e-01 -8.80039334e-01 +2.79313862e-01 -3.04812193e-01 -2.88644195e-01 -2.42570460e-01 -6.85595989e-01 +1.11606765e+00 -7.59697556e-01 -7.75189921e-02 -2.13168249e-01 +9.51358527e-02 -1.14686705e-01 +6.45189881e-01 +5.25538445e-01 -7.01984391e-02 +1.91099390e-01 -1.83391106e+00 -4.53539640e-01 +3.91596884e-01 -1.15868509e+00 -7.43990362e-01 -6.38766646e-01 -1.39819312e+00 -1.22163057e+00 -5.85694313e-01 -1.29588091e+00 -1.91449332e+00 -1.65045166e+00 -9.22759295e-01 -1.15152395e+00 -1.18231559e+00 -1.09946525e+00 -1.27237809e+00 -1.88416612e+00 -8.97026479e-01 -1.75320804e+00 -1.57552946e+00 -4.70036685e-01 -9.29415226e-01 -1.06526363e+00 -1.30169010e+00 -1.12832499e+00 -1.63450599e+00 -2.79926807e-01 -1.58594191e+00 -5.67683637e-01 -1.83372068e+00 -1.30170906e+00 -1.10960543e+00 -1.16180134e+00 -1.57183480e+00 -1.23580158e+00 -1.27291179e+00 -8.33955228e-01 -6.69917166e-02 -1.12867367e+00 -1.76057780e+00 -7.63706982e-01 -4.06302392e-01 -1.28062654e+00 -7.61433005e-01 -1.13694119e+00 -1.13486910e+00 -4.21203822e-01 -1.33755136e+00 -1.41328764e+00 -1.79695034e+00 -9.67641592e-01 -6.41803443e-01 -1.35443521e+00 -2.00766027e-01 -1.48588979e+00 -2.33152103e+00 -2.41704750e+00 -5.11099279e-01 -9.83679354e-01 -1.46782506e+00 +1.30265570e+00 -8.85457873e-01 -1.39743030e+00 -9.19307530e-01 -7.18659997e-01 -1.35465932e+00 -1.19328892e+00 -6.95313036e-01 -9.21819210e-01 -2.08649802e+00 -1.78831744e+00 -5.65514803e-01 -1.13945568e+00 -1.48384976e+00 -1.01674449e+00 -1.20909798e+00 -2.08211350e+00 -1.54758358e+00 -1.81796038e+00 -1.41426611e+00 -6.93922400e-01 -1.05321956e+00 -1.43976164e+00 -4.68076855e-01 -1.19719040e+00 -3.30468702e+00 -8.99493277e-01 -9.62213218e-01 -9.38806891e-01 -1.80373728e+00 -2.04228473e+00 -2.38733292e+00 -1.14948463e+00 -1.00346506e+00 -1.83539438e+00 -1.36933231e+00 -6.98607147e-01 -6.10850751e-01 -1.13723922e+00 -1.18600214e+00 -6.19165480e-01 -1.26097763e+00 -4.15244967e-01 -9.73961353e-01 -8.93299937e-01 +8.06366280e-02 -7.78453946e-01 -4.62460488e-01 -8.52189898e-01 -1.53472996e+00 +8.32066387e-02 -7.97054887e-01 -1.73401570e+00 -6.42504513e-01 -1.22043677e-01 -1.21882536e-01 -1.57226396e+00 +2.89789438e-01 -7.57624686e-01 -8.91193449e-01 -1.79625764e-01 +3.54266055e-02 -2.99003795e-02 -7.63911605e-01 -1.17958236e+00 -2.04768464e-01 -1.41361403e+00 +2.27519765e-01 -1.43090153e+00 -7.69383311e-01 +3.44502836e-01 -1.19461536e+00 -1.77534103e+00 -5.97009696e-02 -1.16434610e+00 -3.23211998e-01 -7.10691035e-01 -2.37464473e-01 +2.43997321e-01 -3.28955650e-01 -9.03308839e-02 -7.33761668e-01 -1.14159155e+00 -1.21460240e-02 -1.55127391e-01 -3.42159212e-01 -1.26524627e+00 -7.71237671e-01 -6.48593307e-02 -9.09251928e-01 -1.48639762e+00 -8.46109092e-01 -1.49521840e+00 -3.54636043e-01 -1.30115402e+00 +2.32421845e-01 -1.38072968e-01 -1.38913536e+00 -3.61772567e-01 -1.00968516e+00 -5.37306786e-01 -2.49209866e-01 -7.23086953e-01 -2.01095846e-02 -7.50824213e-01 -6.10728979e-01 -2.37071201e-01 -9.95167077e-01 -1.02425003e+00 -1.58724502e-01 -1.28426179e-01 -8.77263427e-01 +5.74175000e-01 +5.32079721e-03 -7.12628841e-01 -9.39914167e-01 -1.84978768e-02 -7.99331486e-01 -1.09162045e+00 -1.80579245e-01 -1.45705569e+00 -2.71167606e-01 +6.49482727e-01 -8.56608629e-01 +1.64937139e-01 +2.51380563e-01 -4.84469354e-01 -1.56054139e+00 -9.53464985e-01 -1.48342982e-01 +7.12460756e-01 -4.88134980e-01 -1.59862316e+00 -4.80367243e-01 -5.77231765e-01 -8.68537605e-01 -1.06631443e-01 +2.67227381e-01 -1.79748273e+00 +7.38517381e-03 -8.43716323e-01 -1.88147262e-01 -7.46633470e-01 -1.32250869e+00 -8.33829761e-01 -1.31439471e+00 -1.35618758e+00 -1.16126144e+00 -1.24118042e+00 -1.85366774e+00 -4.34357017e-01 -8.93624604e-01 -1.99661541e+00 -2.51880908e+00 -1.04848921e+00 -3.16314578e-01 -8.21545184e-01 +1.30498576e+00 -6.17184639e-01 -6.05884075e-01 -1.11161423e+00 -5.93562961e-01 -2.83295602e-01 -6.42825305e-01 -1.34867823e+00 -7.84761310e-01 -3.61710191e-01 -3.03059727e-01 -1.39291883e+00 -8.29030812e-01 -2.57754743e-01 -7.11319804e-01 -1.50628912e+00 -4.44439799e-01 -1.74044514e+00 -2.59056151e-01 -4.31629270e-01 +4.40948665e-01 +9.42433357e-01 -8.65798891e-01 -2.63379812e-01 -9.44999158e-01 -9.37657714e-01 -4.44526196e-01 -7.49408066e-01 -4.56370264e-01 -1.50483716e+00 -1.54546058e+00 +1.61730513e-01 -1.66115487e+00 -1.55314207e+00 -1.05980039e+00 -1.78252614e+00 -4.61972505e-01 -2.12880039e+00 -1.00552201e+00 -1.23895931e+00 -8.13763797e-01 -1.30828488e+00 -1.03107846e+00 -1.21050024e+00 -1.88560441e-01 -6.69166386e-01 +9.07383338e-02 -9.57047343e-01 -9.41812396e-01 +4.12393421e-01 -5.41839004e-01 -1.05035567e+00 -8.16589594e-01 -3.68144602e-01 -5.43687463e-01 +2.19385743e-01 -8.08631539e-01 -1.73953903e+00 -1.00673985e+00 -7.75721371e-01 +5.98298252e-01 -1.56870246e+00 -7.79632688e-01 -1.78611386e+00 -3.93165708e-01 -2.79741704e-01 -2.23643243e-01 -1.05185375e-01 -3.60358685e-01 -9.71757531e-01 -1.87603748e+00 -1.26116562e+00 -6.28468394e-01 -1.20301418e-01 -1.25374472e+00 -1.52430451e+00 -8.83842170e-01 -6.09835386e-01 -9.86492753e-01 -1.19750428e+00 -6.04947507e-01 -2.69058585e+00 -5.83287954e-01 -9.22258675e-01 -8.90690088e-01 -2.10343957e-01 +7.98267603e-01 -1.39857113e-01 +5.45847509e-03 +2.69266754e-01 +2.91299801e-02 -1.45079372e-02 -1.69779822e-01 -1.32403776e-01 +8.39092791e-01 +4.59841937e-01 -3.32684070e-01 +6.72666848e-01 -3.26472968e-02 +3.47998649e-01 +9.55340922e-01 -1.97975978e-01 +3.37853789e-01 +2.55668730e-01 -7.16508210e-01 +1.00301993e+00 +3.50591719e-01 +6.12824857e-01 +1.30020589e-01 +1.43723473e-01 +5.78816682e-02 -5.64480066e-01 +4.33339253e-02 +2.53405750e-01 -7.94247389e-01 +1.41009748e-01 +8.85434076e-02 +6.23684764e-01 +7.26599038e-01 +6.18657172e-01 -1.64208412e+00 +9.08724427e-01 -2.59282440e-01 -1.43564180e-01 -1.00635755e+00 +5.01650929e-01 -8.95129144e-01 -3.53999615e-01 +4.32113826e-01 +5.51977642e-02 -7.93702602e-01 +1.86737135e-01 +3.38554411e-04 -7.28486478e-01 -4.33457434e-01 -9.28945020e-02 +4.09808248e-01 +1.09745197e-01 -4.44953024e-01 +7.04659075e-02 +3.35931718e-01 +2.16972366e-01 -6.85259581e-01 -2.11965382e-01 -3.93576294e-01 -8.45023915e-02 -5.30325532e-01 -7.43277013e-01 +8.74462783e-01 +1.56056613e-01 -1.18615520e+00 -5.27633121e-03 -2.28557691e-01 -3.06326061e-01 +6.64954484e-01 +1.41524315e-01 -2.23537311e-01 -1.59862891e-01 +4.46352363e-02 +3.19099605e-01 -7.88114548e-01 +7.10984349e-01 +2.40052640e-01 +1.20965503e-01 -1.94175001e-02 -4.36415017e-01 +8.92477517e-04 -4.21041876e-01 +1.76492721e-01 -4.91038531e-01 +4.38602716e-01 -2.44163573e-01 -3.73350292e-01 +6.93481445e-01 -2.57339895e-01 -3.81699264e-01 -7.36900628e-01 -5.05128562e-01 -6.72670722e-01 +7.56129399e-02 -2.03387812e-01 -3.52552265e-01 +1.86752394e-01 +5.08369744e-01 +3.19228262e-01 -7.01588690e-01 +1.06940240e-01 -2.09525242e-01 -1.27789819e+00 +3.98553729e-01 +1.63361654e-01 -8.86500120e-01 -5.42282522e-01 +8.96416605e-02 -6.02123380e-01 -2.38218144e-01 +1.32829213e+00 -7.18223989e-01 -5.37548065e-01 -1.29825652e+00 -7.23483741e-01 +8.18828762e-01 +7.04015866e-02 -6.59767985e-01 +9.41241682e-01 -8.18161249e-01 +1.74681664e-01 -7.06862450e-01 -5.25697887e-01 +1.68590009e-01 +2.86352849e+00 -4.80304152e-01 -8.27361584e-01 -9.74172533e-01 -3.14478995e-03 -2.04525089e+00 +3.39561671e-01 -1.24369609e+00 -8.86165202e-01 -2.49447942e+00 +1.26217377e+00 +7.18307018e-01 +6.27812028e-01 -1.88880515e+00 +5.87180316e-01 +4.01941627e-01 -1.07116692e-01 -1.48080778e+00 +1.83923632e-01 -7.99880102e-02 -1.03560054e+00 -6.39949679e-01 -1.02009094e+00 -1.47419989e-01 +3.23786259e-01 -4.34132636e-01 -8.34398150e-01 -8.43531728e-01 +3.65724635e+00 -1.86039850e-01 -5.56354940e-01 -1.35261655e+00 -1.02601361e+00 -1.28532839e+00 -2.85060257e-01 -9.17669713e-01 -2.77854651e-01 -2.10865951e+00 -1.06326997e+00 -9.06119123e-02 +2.08179450e+00 +6.71588778e-02 +1.30334776e-03 -1.01411641e+00 -6.37454629e-01 -6.07948780e-01 +1.10945001e-01 -5.74582815e-01 -1.05117917e+00 -6.07701540e-02 -1.54107824e-01 +1.12377727e+00 -1.23231277e-01 -5.62209785e-01 +1.02011001e+00 -3.76067162e-01 +4.25919741e-01 +3.45643580e-01 +2.12998819e+00 -1.17614508e+00 -7.73015916e-01 -8.24003458e-01 +1.96795255e-01 -2.25859785e+00 -3.55805337e-01 -9.25684512e-01 -1.99199587e-01 -2.64513701e-01 +2.15491247e+00 -7.92792320e-01 -1.37828362e+00 +1.44915491e-01 +1.41578019e+00 -1.52702498e+00 -1.14487290e+00 -9.37845826e-01 -1.47855783e+00 -1.62788987e+00 -1.28764093e+00 -1.15034294e+00 -8.44420433e-01 +1.40647399e+00 -1.05360162e+00 +1.04528332e+00 +2.30657995e-01 +2.60104448e-01 +2.02638090e-01 -5.14706261e-02 -8.27293545e-02 -6.00973785e-01 -4.77880359e-01 +4.05243969e+00 -1.20546198e+00 -2.66736388e-01 +1.20237863e+00 +2.22196370e-01 +4.18360263e-01 +4.59562987e-01 +8.20388019e-01 -2.06979010e-02 +2.82926965e+00 -1.02529287e+00 +2.03623101e-01 -2.12523961e+00 -1.81075966e+00 -1.23457171e-01 -7.87145555e-01 -9.61227566e-02 +1.21838808e+00 +4.66356874e-01 +3.04697514e-01 +1.33977330e+00 +1.01626182e+00 -8.01387727e-01 +9.55157280e-01 +1.05016983e+00 +5.10170937e-01 +2.05328062e-01 +1.41478026e+00 +1.85028994e+00 -6.36560082e-01 +9.97703150e-02 +1.41500938e+00 +6.90951526e-01 -7.06989527e-01 +1.13190047e-01 -1.57393467e+00 -9.70857441e-01 -3.43477035e+00 -1.36218071e-01 -2.52807558e-01 -1.18192756e+00 +4.10958141e-01 -1.01292241e+00 +1.44369245e-01 -1.03448164e+00 +5.44690132e-01 -8.42001319e-01 +4.77453440e-01 +1.71884105e-01 +5.54476857e-01 -6.40258789e-01 +3.93073767e-01 -1.40129423e+00 -1.29539573e+00 +2.91569501e-01 +1.52707890e-01 -1.06698382e+00 -9.36621070e-01 +8.95758346e-03 +9.69991446e-01 -1.55175662e+00 +3.36584374e-02 -7.14649260e-01 -1.21482873e+00 +6.28184676e-01 -1.21635950e+00 +1.25647318e+00 +1.30384982e+00 -5.52863598e-01 -1.26483536e+00 +1.42221522e+00 +5.44903338e-01 +7.23015010e-01 -5.00589669e-01 +3.34977686e-01 -8.86911213e-01 +1.22759306e+00 -1.50615942e+00 +4.34855431e-01 +6.53617680e-02 +3.35819316e+00 -5.85866332e-01 -4.03457284e-02 +1.33837211e+00 -4.69753712e-01 -1.03642523e-01 -1.47516203e+00 -1.80201268e+00 -2.20676377e-01 -4.50780928e-01 +1.37200868e+00 +2.76729703e-01 +8.36980641e-01 +5.98381236e-02 -2.95237064e-01 +1.28809750e+00 -4.43963319e-01 -1.24240875e-01 -7.35072494e-01 +9.85611230e-02 +4.58663642e-01 -1.14908278e+00 -8.13433647e-01 +4.80309576e-01 +9.31385439e-04 +1.19151211e+00 +7.14621603e-01 +6.27956271e-01 +5.91064632e-01 +2.24113441e+00 -1.07742655e+00 +2.95051545e-01 -1.56116652e+00 -5.15120089e-01 +3.37834448e-01 -1.72923517e+00 -5.22722065e-01 +1.12865210e+00 +2.31412530e-01 +3.01943362e-01 +7.97690511e-01 +4.89824742e-01 -1.30791390e+00 +1.03274071e+00 +2.89214373e-01 +5.14027894e-01 -8.52997750e-02 +2.89115071e-01 +1.89475048e+00 -2.63181281e+00 -5.09709775e-01 +1.02306795e+00 +1.48384035e+00 +1.01802361e+00 +2.93999434e-01 -6.39508605e-01 -2.92521447e-01 +1.63601136e+00 +1.06254733e+00 +1.94051743e-01 -2.07938910e-01 +7.91318063e-03 -2.17612624e+00 -3.01293403e-01 -1.84285507e-01 +1.62441146e+00 -1.68963981e+00 -6.49370730e-01 +6.05994940e-01 +2.23110938e+00 -5.52181959e-01 +5.01732349e-01 -1.24072242e+00 -8.69920850e-01 +9.04040858e-02 -7.85015523e-01 -4.34930325e-01 -6.08856559e-01 +1.63731575e-01 +1.21811056e+00 +4.25193347e-02 +9.50432599e-01 -1.06281447e+00 -6.16332769e-01 +5.15301228e-01 -1.42911482e+00 +4.62919593e-01 +1.78966928e+00 -8.54201019e-01 -1.71523809e+00 +1.18179941e+00 -4.75819051e-01 +6.03814542e-01 -3.56454730e-01 -5.30500472e-01 +2.21276119e-01 +1.08786547e+00 +1.73219955e+00 -1.21836536e-01 -8.02733123e-01 +1.26648021e+00 +1.94793677e+00 -6.20917380e-01 +6.18155301e-01 +4.23263341e-01 +1.61713481e+00 +1.08229756e+00 +4.35402721e-01 +1.79790127e+00 +3.05111110e-01 -2.40747243e-01 -4.87065047e-01 +1.86156318e-01 -3.56159844e-02 -3.50791305e-01 +2.64362550e+00 -1.38049692e-01 +2.89854616e-01 +4.83862683e-02 -6.49456382e-01 -2.86188817e+00 -1.59275508e+00 -8.62223446e-01 -5.88955879e-01 -1.49432555e-01 +3.34028572e-01 -3.00488293e-01 +2.46810708e-02 -8.54043484e-01 -4.25158691e+00 -4.51740146e-01 -3.35291415e-01 -4.52255100e-01 +8.00903618e-01 -1.06220603e-01 -4.90836412e-01 +2.48317152e-01 -3.48618895e-01 -8.32185894e-03 -2.99764633e+00 +3.37074804e+00 +4.51472074e-01 +1.24229863e-01 -1.13179862e+00 +7.08635688e-01 +4.34096277e-01 +5.95023870e-01 -1.05979598e+00 +1.34320450e+00 +3.46973181e-01 +1.28552362e-01 +3.01459253e-01 -3.25410903e-01 -6.63924277e-01 +4.22635768e-03 +3.00764740e-01 +4.07002009e-02 +2.91031194e+00 -1.49906561e-01 -3.23193669e-01 +3.96728247e-01 +9.85606909e-02 +1.23176885e+00 +1.78303141e-02 -4.85656261e-01 +4.90521491e-01 +1.46135256e-01 -1.75941929e-01 +8.29774514e-02 +4.03854817e-01 -4.81178015e-01 +5.25224879e-02 -7.80502781e-02 +2.60409743e-01 -1.27986938e-01 +3.46543729e-01 +8.00630301e-02 +1.15687028e-01 -4.21724349e-01 -2.04714274e+00 -1.23140383e+00 +1.14745855e+00 -2.58152455e-01 +1.12634265e+00 +2.75058568e-01 +1.38853997e-01 +1.33238686e-02 +3.15905261e+00 -4.62360710e-01 -2.61356056e-01 +8.01905215e-01 -2.20569089e-01 -7.90277869e-02 -3.81745547e-01 +3.33421379e-01 -1.00798011e+00 -5.78984201e-01 +2.58423877e+00 +2.57879764e-01 +2.39808604e-01 +2.57838082e+00 +2.35269189e+00 -1.88752383e-01 +1.95454180e-01 +1.07626927e+00 +4.41520751e-01 +9.16302025e-01 -7.04139769e-01 -5.76110661e-01 +7.22813427e-01 +1.14866924e+00 -8.96894932e-03 +1.48510957e+00 -3.80367815e-01 +2.64331307e-02 +9.49442029e-01 -9.97907221e-01 +3.57804805e-01 +1.10804915e+00 -5.66039801e-01 +4.75010037e-01 -6.36714458e-01 -1.39629710e+00 +6.86962247e-01 -1.60896167e-01 -9.45937335e-01 +4.08812404e-01 -8.61446559e-02 -1.21783271e-01 +2.76443869e-01 +1.12608457e+00 +1.15205789e+00 +8.06774139e-01 +2.76349008e-01 +1.36135578e+00 +1.31422743e-01 +9.12674367e-01 +5.33755422e-01 +1.47931188e-01 +2.64076740e-01 -7.80880749e-01 -1.18612194e+00 -1.42833102e+00 -2.52096474e-01 -2.03613788e-01 -5.63944876e-01 +1.33291793e+00 +1.11479402e+00 -5.65321326e-01 +3.26151788e-01 -3.27053100e-01 +5.98900020e-01 +6.54072702e-01 +9.32231188e-01 -1.38862002e+00 -2.59836823e-01 +9.92923796e-01 +1.39916494e-01 +1.22910511e+00 +8.04667413e-01 +1.34771395e+00 -6.90948129e-01 +3.00604731e-01 -1.27094054e+00 +6.30565345e-01 -6.83666587e-01 +3.44623923e-01 +1.51773715e+00 +1.41332316e+00 +3.25762033e-01 -3.82383466e-01 -1.67171323e+00 +8.43830884e-01 +2.70428270e-01 +1.44557953e-01 +2.24609762e-01 -3.46152663e-01 -3.39181542e-01 +1.12079096e+00 +2.43807331e-01 -1.20562883e-02 +1.43885612e-01 +6.59591615e-01 +3.61032903e-01 +1.42116380e+00 -4.64401573e-01 +7.31457353e-01 -6.27048969e-01 -2.12600172e-01 +8.70328426e-01 -7.00903296e-01 -7.08443105e-01 +1.25336707e-01 +1.11730671e+00 +1.68259943e+00 +1.15973043e+00 +6.26506269e-01 +4.77770239e-01 +1.10244322e+00 +4.80754316e-01 +7.23826662e-02 -2.42439508e-01 +3.49652886e-01 +7.17258751e-01 -7.17793226e-01 -1.17883660e-01 -5.14524460e-01 +3.49345356e-01 -7.98611581e-01 -4.14320707e-01 -7.89555252e-01 -4.39739972e-01 -8.46337806e-03 -1.15700912e+00 -1.10275674e+00 -1.20029223e+00 -1.69606492e-01 -8.12732935e-01 -1.04069555e+00 -4.04065028e-02 -1.82822552e-02 -9.63471979e-02 -4.27314699e-01 +5.54760620e-02 +4.88804691e-02 -8.51625860e-01 -9.98351216e-01 -2.71347821e-01 -5.14373243e-01 -2.88901836e-01 -2.68771406e-02 -4.61898625e-01 +8.76812041e-01 -6.44999802e-01 -3.99315804e-01 +1.73649430e-01 -1.00274575e+00 -6.23229980e-01 -2.03564525e-01 -7.83248127e-01 +1.76570028e-01 -8.30794036e-01 -2.81877127e-02 +1.52342767e-02 -1.20980632e+00 -2.05207855e-01 -5.63322902e-02 +3.59240510e-02 +9.34972018e-02 -5.95850408e-01 +7.21983388e-02 -1.02034569e+00 -7.71003246e-01 -5.10166645e-01 -5.97005963e-01 +1.22047946e-01 -1.52910936e+00 -1.02879751e+00 -4.16214645e-01 +2.00623512e-01 -2.24067822e-01 +1.35698244e-01 +9.52413976e-02 -4.14043844e-01 -4.56379175e-01 +4.15813120e-05 +4.89619821e-01 -1.07310665e+00 -2.54851609e-01 +4.14157659e-01 -4.14197773e-01 -7.07670271e-01 -3.99051189e-01 -3.80708098e-01 -8.99368674e-02 -8.70280325e-01 -7.89291263e-01 +2.50391901e-01 -6.95769489e-01 -4.16263014e-01 -5.45522710e-03 -4.20231253e-01 -9.33418691e-01 +3.02790135e-01 -3.23610753e-01 -2.08952688e-02 +5.41104198e-01 -4.74475950e-01 -5.86936951e-01 -1.17750108e+00 -1.06655860e+00 -4.83065456e-01 -2.51644641e-01 +5.05493224e-01 -9.73649621e-01 -4.71038699e-01 -2.57571489e-01 -8.13457221e-02 +4.13688689e-01 -1.17282122e-01 -8.04111600e-01 -4.35678750e-01 +9.87883881e-02 +4.15029287e-01 +6.26766324e-01 +7.35652566e-01 +1.00161850e+00 -4.40666735e-01 -1.21490109e+00 +5.09631813e-01 +3.10179759e-02 -1.95558369e-01 +5.08883774e-01 -3.52751195e-01 -2.82799810e-01 +1.22836387e+00 -5.38507104e-01 +4.08195168e-01 +1.11907136e+00 -1.06599557e+00 +2.56160378e-01 -5.80477715e-01 -1.30703080e+00 +3.07743520e-01 +7.80193210e-02 -1.15301478e+00 +4.48688477e-01 -4.97493267e-01 -1.61089242e-01 +4.18878138e-01 +1.05651331e+00 +4.49750245e-01 +4.65731651e-01 +1.55340880e-01 +1.56887782e+00 -1.36963755e-01 +3.30260009e-01 +5.44448614e-01 -5.83034419e-02 -3.74871306e-02 -9.39943969e-01 -1.11746168e+00 -4.04301167e-01 -7.44630247e-02 -7.33514130e-01 -7.33773351e-01 +1.57982457e+00 -3.21727276e-01 -6.68300927e-01 -6.22650921e-01 -1.46777093e-01 +2.89991856e-01 +7.27203488e-01 +5.32506526e-01 -1.79588878e+00 +1.23979740e-01 +3.43565792e-01 -1.27129483e+00 +7.64011383e-01 +4.68446225e-01 +9.20937061e-01 -8.94865215e-01 +8.37817371e-01 -1.18862474e+00 +1.63651496e-01 +2.34648049e-01 +2.75168478e-01 +1.45607412e+00 +3.33092719e-01 +4.44536418e-01 -9.94374812e-01 -9.32401240e-01 +2.83921272e-01 +2.75339693e-01 -6.10583663e-01 -2.17225999e-01 -3.52500111e-01 -6.86406791e-01 +6.95587099e-01 -5.69967628e-01 +3.04095745e-02 -1.45575196e-01 +1.71120033e-01 -1.97753266e-01 +6.41367435e-01 -5.15733957e-01 +4.44018692e-01 +5.08569658e-01 -1.65526718e-01 +5.33892691e-01 -1.30219913e+00 -2.24022735e-02 -6.00873530e-01 +8.00173342e-01 +1.13279688e+00 +1.67883456e+00 +4.30454075e-01 +5.84803700e-01 +7.07866013e-01 -2.33841196e-01 +6.66584820e-02 -1.85450032e-01 +2.11303532e-01 -2.49654539e-02 +8.28086913e-01 -8.70851800e-02 +1.29593909e+00 -7.65050113e-01 +2.37340346e-01 -8.17229748e-01 +1.14356971e+00 +7.76241362e-01 +1.80209386e+00 +3.28280628e-01 -1.19145475e-01 +8.30659986e-01 +3.50105554e-01 -9.92014170e-01 +1.18834162e+00 -8.58425319e-01 +1.31288350e+00 -6.44160986e-01 -7.08468407e-02 -1.05875170e+00 +5.51906765e-01 -4.11022276e-01 -1.18564713e+00 +4.37983394e-01 -2.04921037e-01 +4.18081969e-01 -5.86681902e-01 -1.24864471e+00 +9.53906178e-01 -1.00263321e+00 +1.22860205e+00 -7.52109587e-01 +1.20898283e+00 +8.07379603e-01 -7.33993411e-01 +7.93285728e-01 -2.98628211e-01 -9.30233374e-02 -6.13577604e-01 +5.17808199e-01 -4.16844428e-01 -4.79048222e-01 -1.28914380e+00 -5.19740105e-01 -3.97514910e-01 +1.32179916e-01 -1.51400873e-02 -9.31747317e-01 -1.22938597e+00 +1.79460990e+00 +3.46110612e-01 -1.81263208e-01 -1.01779199e+00 +3.74822319e-01 -1.47956419e+00 +6.29015088e-01 +1.35477102e+00 +2.35964164e-01 +9.93228436e-01 +2.53784806e-01 -1.12330174e+00 +1.47802219e-01 -3.10363084e-01 +1.37420321e+00 +1.60524309e+00 +5.65514229e-02 -2.14804336e-01 -2.18096837e-01 +1.38956523e+00 +7.32458353e-01 -1.53496504e-01 +5.14991522e-01 -1.43429801e-01 +1.44945517e-01 -1.97712529e+00 -3.45091186e-02 -3.88794905e-03 -2.93835580e-01 -7.59533465e-01 -5.50046600e-02 -9.54062402e-01 +1.78411752e-01 +1.34991479e+00 +6.05438352e-02 -3.80545259e-01 +1.24741411e+00 +1.67094395e-01 -3.73052895e-01 +1.21190023e+00 -1.70452476e+00 -1.78035426e+00 -1.85658336e+00 +8.52782607e-01 +1.11080790e+00 +1.54784393e+00 +9.64857519e-01 -7.93385327e-01 +3.71757656e-01 +7.20733404e-01 +4.99585927e-01 +1.23410368e+00 +6.68652892e-01 +8.85414124e-01 -7.50270367e-01 +1.09591103e+00 +3.05507362e-01 +1.46397933e-01 -7.43509308e-02 +7.08970428e-01 +1.15387702e+00 +1.85007721e-01 -1.57355160e-01 -1.14738688e-01 +1.33266926e+00 -1.21207610e-01 -7.19694853e-01 -2.80298322e-01 -2.19326969e-02 +8.06193709e-01 +4.98527810e-02 +1.30642325e-01 +2.90862054e-01 -4.95501429e-01 -5.69717526e-01 -5.32658637e-01 -3.24446946e-01 +4.29991215e-01 +1.87279665e+00 +1.36980963e+00 +1.06380999e+00 -3.06666523e-01 +6.19632125e-01 -3.06443214e-01 -3.00906003e-01 +3.07393521e-01 +3.89445186e-01 +7.59324670e-01 -1.19257152e+00 +1.14021206e+00 -7.19377100e-02 +7.27545202e-01 +5.27233519e-02 -1.37212619e-01 -7.61407912e-01 -5.46533726e-02 +5.91569953e-02 +6.47938728e-01 -2.46481419e-01 -3.10396403e-01 +9.01065588e-01 +1.57092237e+00 +1.89532459e+00 +1.41598475e+00 +2.30820045e-01 -2.55293310e-01 +2.66310990e-01 +1.45350313e+00 +6.86024666e-01 +7.67669454e-02 +1.64358866e+00 -1.11868523e-01 +5.26277959e-01 -3.35315615e-02 -2.51532316e-01 -1.07532477e+00 +2.33327240e-01 +8.91696632e-01 +7.29409307e-02 -2.09437087e-01 -3.10097814e-01 -2.40354359e-01 +5.00077009e-01 -3.91342081e-02 +1.33735859e+00 +5.28124452e-01 +7.75463134e-02 -3.56434703e-01 +4.11552668e-01 +1.48938417e+00 +4.80665445e-01 +6.25225723e-01 +3.38485360e-01 +3.84409577e-02 -4.90872562e-01 +7.34087050e-01 +1.01676714e+00 -1.83841571e-01 +1.59941107e-01 -9.09222104e-03 +1.52388787e+00 +6.72795698e-02 -1.11715555e+00 -7.63572872e-01 +5.96451819e-01 +1.62194216e+00 +1.12204635e+00 +1.10963359e-01 -9.77593660e-01 -4.47611243e-01 -4.51183110e-01 -6.50815904e-01 -4.52788025e-01 -2.86034346e-01 -4.06129569e-01 -5.28194964e-01 -6.24541402e-01 -6.49179876e-01 -6.25639677e-01 -7.87420750e-01 -8.43152046e-01 -1.21616113e+00 -5.41461229e-01 -9.75333869e-01 -3.32257330e-01 -1.95758057e+00 -1.70862913e-01 -4.59034443e-01 -4.73268449e-01 +4.05122131e-01 -1.01716146e-01 +2.21355483e-01 -9.08230722e-01 +7.77661195e-03 +2.57099777e-01 -1.58700037e+00 -1.56233624e-01 -2.73763239e-01 -7.69448638e-01 -8.57803106e-01 +3.18337172e-01 -5.73324859e-01 -8.87049139e-02 -3.92905742e-01 -3.95401120e-01 -2.59108633e-01 -5.66992700e-01 -3.65865946e-01 -3.47014517e-01 -6.10632122e-01 +9.34691578e-02 -5.47801077e-01 -7.15609133e-01 -8.50634634e-01 -5.38256526e-01 +3.77897739e-01 +3.35228682e-01 -5.68028152e-01 -4.22741503e-01 -3.24704558e-01 -2.36058250e-01 -8.17580223e-01 -1.91751695e+00 -1.16276705e+00 -1.34891093e+00 -3.42861637e-02 -1.55779004e-01 -9.63698030e-01 -1.03519297e+00 -2.04435289e-01 -5.16576409e-01 -6.10107124e-01 -5.23699164e-01 -4.80843663e-01 +3.43489856e-01 -2.21403539e-02 +2.15430930e-01 -1.17279112e+00 -2.94222325e-01 -8.60698521e-01 -6.75950527e-01 -3.96225363e-01 +4.25425977e-01 -1.03362906e+00 -2.45848477e-01 +3.31007391e-01 -5.98969817e-01 -1.37541676e+00 -1.09524333e+00 +1.09451925e-02 -6.15282655e-01 -1.06840879e-01 +2.65266508e-01 -1.11267895e-01 -5.37487030e-01 -1.70727536e-01 -9.26201940e-01 -8.04741800e-01 -1.06515795e-01 +8.95235658e-01 -9.35546637e-01 -4.63593602e-01 -1.10424232e+00 -1.10708439e+00 +1.39801279e-01 -5.31622589e-01 -4.67612743e-01 -1.20450485e+00 -3.83638769e-01 -1.11699559e-01 -4.26904827e-01 +6.89542413e-01 +4.62555647e-01 +6.09866977e-01 -1.90217942e-01 +1.10508418e+00 -1.20472372e-01 +2.01077178e-01 -6.07763350e-01 -5.20840824e-01 +1.08582032e+00 -1.92643747e-01 -4.36618626e-01 -3.57580155e-01 +1.82724386e-01 -7.34981537e-01 -7.10680425e-01 -4.61254537e-01 -8.07085395e-01 +2.89015383e-01 -5.11073828e-01 -7.60781467e-01 +1.90142840e-01 -6.60522521e-01 -8.24948311e-01 -5.67849517e-01 +2.19315380e-01 -1.13950958e-02 +9.82382417e-01 +1.41343504e-01 +1.24545884e+00 -3.88313532e-01 -4.14034836e-02 -1.45497872e-02 -6.78267360e-01 -4.96832915e-02 +2.63335675e-01 -1.23627782e+00 -5.03919423e-01 +9.74565864e-01 +2.57676125e-01 -1.02284513e-01 +9.73936841e-02 -5.68036139e-01 -8.49787951e-01 -8.38896632e-02 +2.32518017e-02 -2.74787009e-01 -1.93548366e-01 -4.20932680e-01 +6.63216650e-01 +1.21172106e+00 +2.48524860e-01 +9.96837765e-02 +2.28819862e-01 -4.36489612e-01 +2.06936419e-01 +6.85657203e-01 +9.83530208e-02 -2.05092400e-01 +1.57920277e+00 -2.27721497e-01 +1.34866089e-01 -1.23029813e-01 -1.21962324e-01 -6.36422813e-01 +3.18328530e-01 +3.26283813e-01 -2.73757160e-01 -3.41810942e-01 -7.01455176e-01 -1.96596742e-01 +4.45933014e-01 -7.42379487e-01 +8.70383918e-01 +1.46766007e-01 -8.14645052e-01 -7.20316768e-01 -2.68632919e-01 +8.93522084e-01 -5.39630055e-01 +5.96792959e-02 +9.62452814e-02 -7.26299584e-01 -1.60511717e-01 +7.87382305e-01 +7.23113358e-01 -6.70359910e-01 +1.67685270e-01 +2.84313023e-01 +4.00591850e-01 -6.04051590e-01 -2.37432718e+00 -7.88190722e-01 +9.86269116e-01 +6.39700651e-01 +9.04716074e-01 -2.65846718e-02 -8.26409698e-01 +7.27324933e-02 +6.54952347e-01 -1.52341080e+00 +6.47684455e-01 -7.09456682e-01 +4.17280257e-01 -1.45367610e+00 +6.35210156e-01 +6.11224830e-01 +2.32821390e-01 -9.02190447e-01 +1.09963870e+00 +1.35523605e+00 +2.09171966e-01 -7.30513735e-03 -8.94378543e-01 +5.23631334e-01 +3.16741288e-01 +3.50829095e-01 +9.52583030e-02 +8.04100275e-01 +1.07972600e-01 +4.81223047e-01 -6.57658637e-01 +4.74055260e-01 +3.06040764e-01 +9.76985812e-01 -4.21551883e-01 +8.60335886e-01 +1.53598499e+00 -1.51570487e+00 -1.00784934e+00 +2.25560322e-01 +1.09154332e+00 +1.14114679e-01 +6.03565693e-01 +2.19141185e-01 +1.18435657e+00 +8.31987858e-02 +3.34496379e-01 -1.15621758e+00 -1.74871996e-01 -1.01977122e+00 +6.15582526e-01 +1.35651946e-01 +1.25596151e-01 +2.11079404e-01 -8.87732983e-01 -1.49903548e+00 +4.61468816e-01 +1.40786812e-01 -5.86458862e-01 -1.11244071e+00 -1.95922565e+00 -1.56446660e+00 -7.41809428e-01 +9.22592819e-01 +6.19528353e-01 -6.67532206e-01 -1.23478270e+00 +5.82159817e-01 +1.18509150e+00 -2.26662844e-01 +2.09436983e-01 +6.63970351e-01 +8.97875503e-02 +2.12353528e-01 +3.05995673e-01 +9.93167341e-01 +3.42256650e-02 -5.67550361e-01 +6.33724034e-01 +6.78373575e-01 -4.48084652e-01 +6.06501698e-01 -1.57044065e+00 +1.09250367e+00 +1.58086289e-02 +3.88023496e-01 -9.85743821e-01 +1.53302836e+00 +4.06756371e-01 -8.79779756e-01 +1.56112909e-01 -3.37630302e-01 -2.77219951e-01 +7.23790288e-01 +1.19260383e+00 +7.77432546e-02 -7.85768926e-01 -9.70169246e-01 +1.55039680e+00 +4.61002141e-01 -1.75865784e-01 +6.94934785e-01 -6.94559693e-01 -1.30825078e+00 +9.74109650e-01 -2.95659781e-01 +1.34061322e-01 +2.04785690e-01 -9.43690836e-01 -2.63940364e-01 -7.62385279e-02 -5.67916572e-01 +1.50421023e+00 -8.82847548e-01 +4.02478278e-02 -1.52971566e+00 -1.32678127e+00 -3.55877250e-01 -4.33772236e-01 -7.67166674e-01 -8.09673071e-01 -1.23134971e+00 -1.18130696e+00 -1.42493546e+00 +3.01066905e-01 -1.33169925e+00 -1.99186146e+00 -9.04271603e-01 -4.19000745e-01 -9.61249650e-01 -5.42591989e-01 -1.32866275e+00 -1.15247285e+00 +3.53314459e-01 -8.02520633e-01 -1.64272472e-01 -9.88835275e-01 -1.27289653e-01 -1.28009379e-01 -1.40127611e+00 -1.25200200e+00 -1.91658986e+00 -3.85193706e-01 -8.20399344e-01 +9.56453010e-03 +1.31990135e-01 +6.83859646e-01 -1.37091124e+00 -8.10644925e-01 -8.47143054e-01 -1.07993877e+00 +1.35378584e-01 -2.41138503e-01 -5.02344549e-01 -1.96455613e-01 -2.09096432e-01 -8.23218763e-01 -3.20071429e-02 -1.27752984e+00 -6.75628245e-01 -3.94856572e-01 -7.18635380e-01 -7.57278621e-01 +5.46338081e-01 -3.34253609e-02 +7.93248639e-02 -6.66024923e-01 +6.40034497e-01 -5.34236670e-01 -4.13270593e-01 -4.06253129e-01 -3.95944029e-01 +6.55705869e-01 +3.95048738e-01 -1.20301569e+00 -7.46778667e-01 -2.79104561e-02 -5.50233088e-02 -5.74291885e-01 -1.32079974e-01 +2.40321219e-01 +3.86405855e-01 +6.01253211e-01 +4.77901191e-01 +9.99957800e-01 -1.15715671e+00 -3.09271127e-01 +3.86892669e-02 -3.14063311e-01 +1.51186898e-01 -8.30337942e-01 -6.68686152e-01 -6.78604424e-01 -2.69618362e-01 -1.41848958e+00 -1.22604275e+00 -3.16958338e-01 -4.24491763e-01 -4.02919024e-01 +1.73498709e-02 -5.25901675e-01 +9.00913849e-02 -6.76522732e-01 -7.22815990e-01 +1.29768610e-01 +5.13162255e-01 +7.18967915e-02 -1.41400158e-01 -9.41206396e-01 -9.43765715e-02 +6.24324620e-01 -3.11994739e-03 -2.19233662e-01 -1.01114738e+00 +3.60884219e-02 +1.31431448e+00 -1.55958027e-01 -4.03176248e-01 +5.67478538e-01 +1.04001075e-01 +1.05730906e-01 +1.99172390e+00 -1.43127203e+00 -8.60244751e-01 +7.50480518e-02 -3.15778732e-01 +3.44096243e-01 -1.27541780e-01 +1.14438903e+00 +1.30299437e+00 -6.06655061e-01 +1.58820301e-01 +3.70799363e-01 +3.45672548e-01 +1.40382183e+00 +6.32650182e-02 +4.88774538e-01 -3.87039602e-01 -9.09862041e-01 -6.71966374e-01 +2.40994453e-01 +6.63009465e-01 +7.24087238e-01 +2.15608269e-01 +4.12000507e-01 -3.80923361e-01 +1.33796227e+00 -1.39540803e+00 +7.10129201e-01 -1.80050552e-01 +9.71567452e-01 +2.22318739e-01 -2.14826480e-01 -1.35791969e+00 -4.26610827e-01 +1.71491337e+00 +5.50090857e-02 +3.91661406e-01 -4.47174668e-01 -6.17217541e-01 -7.70263314e-01 +5.38498282e-01 -5.57862163e-01 +8.48461747e-01 -2.30097800e-01 +5.19719422e-01 +1.16142642e+00 +2.62409747e-01 +1.28111631e-01 -1.05645788e+00 +1.20190132e+00 +4.95013744e-01 +3.89381200e-01 +4.19451028e-01 -6.67530775e-01 -2.24090829e-01 +5.63030541e-01 -1.09059739e+00 +1.73734918e-01 +4.12592173e-01 +1.13455868e+00 +9.52284858e-02 -1.76366076e-01 +9.96523201e-01 +8.17948133e-02 -1.70355439e-01 +1.04925132e+00 +3.15578878e-01 -7.62287378e-01 +1.73489165e+00 -9.09649432e-01 -2.12333947e-01 +1.27630270e+00 +3.97810996e-01 -1.38552964e+00 -1.93074778e-01 +6.75812066e-01 -2.63491124e-01 -2.96416841e-02 -6.39753640e-01 -6.44061148e-01 +5.75479805e-01 -3.63188207e-01 +9.67951939e-02 +1.33702731e+00 -1.00150812e+00 +3.61237116e-02 -2.28707641e-02 -8.88395250e-01 -5.78022778e-01 +1.49455860e-01 -8.15769613e-01 -2.75064468e-01 -1.48183072e+00 +5.05703390e-01 +1.17326450e+00 +6.02810197e-02 -6.72120899e-02 +5.50578050e-02 -9.62621868e-02 +5.31449437e-01 +4.69706595e-01 -4.82933253e-01 -1.12522197e+00 -3.09813201e-01 -1.37911534e+00 -5.30762553e-01 -8.14414918e-01 +8.79843473e-01 +1.16920781e+00 -2.85760164e-01 -3.10341924e-01 +2.96368062e-01 +8.64810228e-01 +5.74857950e-01 -5.07717729e-01 +4.87114131e-01 -1.98919579e-01 -6.44177616e-01 -9.15927887e-01 +6.93764985e-01 -7.73127005e-02 +1.11231029e+00 +2.53986180e-01 -3.05514008e-01 -3.51297110e-02 +1.28391767e+00 -1.76614392e+00 +5.88961124e-01 +5.49322888e-02 +1.08179367e+00 +5.94599962e-01 +3.48002106e-01 -8.94494236e-01 -8.37083459e-01 +1.00938511e+00 +3.76090929e-02 +5.40273488e-01 -9.31018472e-01 -6.34488285e-01 -1.06003118e+00 +5.33870280e-01 -1.25744462e+00 +2.42466435e-01 +9.37307253e-02 -3.56973290e-01 +6.69395864e-01 -1.50273874e-01 +9.63475823e-01 -9.27944243e-01 -2.16140419e-01 -4.55233604e-01 +1.35075068e+00 +1.02388787e+00 -6.84069455e-01 -4.25906986e-01 +4.48448241e-01 -4.87816006e-01 -9.74343061e-01 +2.30455860e-01 +4.49332327e-01 +2.53053993e-01 -8.54628086e-01 +5.19550502e-01 +3.73878330e-01 -1.05534256e+00 +7.49088228e-01 -6.94156766e-01 -8.15313697e-01 -1.32540345e-01 -2.06198961e-01 -9.55338895e-01 +6.90984011e-01 +9.86969024e-02 -1.32243407e+00 -1.54339719e+00 +4.50586621e-03 -7.29983568e-01 -6.94233656e-01 -4.43206161e-01 -2.19536915e-01 +1.06804204e+00 -6.66007340e-01 -2.69427970e-02 +1.03348243e+00 -1.84194818e-01 +2.61422873e-01 -1.24438870e+00 -1.06950307e+00 +9.02247354e-02 +6.10958815e-01 -1.62188020e-02 +3.84187579e-01 +4.37538356e-01 +1.78537294e-01 -8.10049832e-01 -5.50888360e-01 +8.41716379e-02 +6.86175644e-01 -9.36287418e-02 +5.00825107e-01 +6.09063618e-02 +4.08608615e-01 -1.47429183e-01 +6.59046829e-01 +1.46763504e-01 -1.49129435e-01 +1.20939918e-01 -6.98508441e-01 -1.78699538e-01 +4.89975810e-01 -2.81791866e-01 +4.22598153e-01 +4.58162367e-01 +3.71823817e-01 +4.32038307e-01 +6.97471559e-01 -2.50276774e-01 +7.60671139e-01 -2.36035258e-01 -3.53152484e-01 -2.30732530e-01 -6.21657789e-01 +2.66477466e-01 -2.02294558e-01 -3.71640265e-01 -1.22090667e-01 +1.63418531e-01 -6.70745432e-01 +2.44227815e-02 -7.69457519e-01 +4.14279789e-01 -5.71298376e-02 +1.78413689e-01 -5.18966794e-01 +3.80394697e-01 -5.02164006e-01 +5.19584380e-02 +4.04630512e-01 -1.41049102e-01 -7.11731017e-01 -4.38750327e-01 -5.47722161e-01 -5.70897162e-01 -1.28099787e+00 -1.71680585e-01 +6.83198631e-01 -2.25841925e-02 -3.56280774e-01 -3.44860882e-01 -2.02526957e-01 -4.22057718e-01 +1.26999602e-01 +2.53711581e-01 -5.93207598e-01 -6.76611066e-03 +8.50307383e-03 +9.69052017e-01 -1.03934383e+00 +3.10283661e-01 +3.20482254e-02 +3.84901553e-01 -2.01155525e-02 -3.46970633e-02 -4.36477870e-01 +9.53159928e-01 +5.09474576e-01 -3.11808616e-01 -6.31079078e-01 -2.87750196e-02 -3.60179901e-01 -3.42397913e-02 +4.24351841e-01 -2.60228276e-01 -3.19093317e-01 -8.27794254e-01 -4.61250991e-01 +1.73553362e-01 -7.93188140e-02 +6.63724959e-01 -3.95758539e-01 -9.32057619e-01 -8.54507446e-01 +2.48505861e-01 -5.72776854e-01 -1.68443412e-01 -1.18518449e-01 +2.79340595e-01 -3.07551295e-01 -8.29115391e-01 -1.43815434e+00 +1.33413345e-01 -7.65695632e-01 -1.04188979e+00 +1.09236586e+00 -1.34472179e+00 -5.78961790e-01 -4.56263453e-01 -2.51509666e-01 -6.29897594e-01 -8.77642751e-01 -4.23096269e-01 -4.81389701e-01 -5.86009145e-01 +1.28887451e+00 -5.07463396e-01 +3.40034842e-01 +9.96671438e-01 -1.46938133e+00 -4.66737270e-01 -4.63014811e-01 -1.03214586e+00 +8.62521008e-02 -1.41873968e+00 -5.93032479e-01 -5.77580571e-01 -9.88676678e-03 -6.98689699e-01 -1.50285804e+00 -1.38193026e-01 -5.61258137e-01 -1.45970535e+00 -1.17535889e+00 -4.85088259e-01 -8.05874944e-01 -5.81308186e-01 -3.85149986e-01 -2.41972759e-01 -1.32902586e+00 -1.59948182e+00 -1.41889060e+00 -5.52351892e-01 +4.94421750e-01 -3.13975453e-01 -3.07208419e-01 -6.49068713e-01 -5.75735867e-01 -1.43506333e-01 -6.61858737e-01 -1.09393835e+00 -7.28160739e-01 -5.45033038e-01 -1.31731510e+00 +4.31191968e-03 +7.99255371e-01 -1.31230712e+00 -3.38746339e-01 -5.95011711e-01 +6.93496643e-03 -4.39803958e-01 -1.34788394e+00 -6.98754430e-01 -1.22183549e+00 +3.35588306e-01 -1.63182044e+00 -1.04777777e+00 +6.44827664e-01 -1.67046452e+00 -7.22459376e-01 -6.27430737e-01 -9.86874476e-02 -5.38675845e-01 -8.62463355e-01 -4.84117061e-01 -7.94057071e-01 -2.30216935e-01 -5.20105541e-01 -6.98944807e-01 +4.40530062e-01 -8.78629804e-01 +4.80650336e-01 -1.22550476e+00 -8.96409512e-01 -3.19849163e-01 -1.45946667e-01 -1.32996976e+00 -1.53873527e+00 +1.42762093e-02 -1.12243652e+00 -1.02548528e+00 -3.76578659e-01 -1.40374112e+00 -9.67480242e-02 -1.10014594e+00 -1.06119655e-01 -1.62361181e+00 -1.05777538e+00 -1.39018321e+00 -3.83173138e-01 +2.21562371e-01 +2.00131714e-01 -1.55137634e+00 +7.03648269e-01 -3.67687166e-01 -1.19157052e+00 +4.61019695e-01 -1.24417745e-01 +1.12366430e-01 -1.50629535e-01 +5.13328373e-01 +9.50624466e-01 -4.67240959e-01 +7.17181265e-01 -4.14999306e-01 +7.88781404e-01 -3.60258192e-01 -1.97040960e-02 +1.20000191e-01 -7.51294017e-01 +4.78947125e-02 +5.38898230e-01 +6.05684698e-01 +4.20521498e-01 -3.94883156e-01 +1.77783251e-01 +4.82776582e-01 -1.89509189e+00 +1.41196430e+00 -4.57046807e-01 -7.54680216e-01 -7.73608565e-01 +7.83255249e-02 +6.15021288e-01 -7.36317396e-01 -2.87152946e-01 +1.76889431e-02 -1.98663995e-01 -5.01822531e-01 +4.32410091e-01 +8.60528052e-02 +5.70843160e-01 -1.69953716e+00 -6.82673097e-01 -5.66262901e-02 -1.92446828e-01 +3.07470590e-01 -3.90104093e-02 -3.63148957e-01 -6.23698235e-01 -3.06656003e-01 -3.42006594e-01 +3.88676852e-01 -6.07490279e-02 -3.50303322e-01 +7.77554870e-01 -1.39365590e+00 -9.67978477e-01 +1.76316947e-02 +1.01858318e+00 -8.31894219e-01 -7.12920249e-01 -8.56491566e-01 -1.20664537e+00 +2.14457482e-01 -2.18557692e+00 -4.67945218e-01 -4.19836640e-01 -2.95155317e-01 -9.05493319e-01 -5.27579427e-01 +8.11864495e-01 +2.50830948e-01 -7.14522839e-01 +8.67732286e-01 +1.97097793e-01 -1.20962656e+00 +7.88790107e-01 -1.89341116e+00 -1.64509380e+00 -7.72865236e-01 +3.26756805e-01 -1.01854585e-01 +8.71501029e-01 -7.75787711e-01 +2.66804034e-03 -4.91238683e-01 +3.84181201e-01 +5.72500765e-01 -2.80706495e-01 +7.67720863e-02 -2.36544505e-01 +8.32609236e-01 +3.05539519e-01 +5.12945354e-01 -1.32597435e+00 -4.26989138e-01 -3.34421277e-01 -1.15082538e+00 +6.62267566e-01 -2.40012169e-01 -6.60261989e-01 -9.57292020e-01 +1.78559199e-01 -1.94349900e-01 -1.21339154e+00 +7.12543428e-02 -4.14533645e-01 -3.29652965e-01 -4.67935711e-01 +2.55975336e-01 +4.79152560e-01 -7.72901237e-01 +5.27233303e-01 -2.02054158e-01 +1.56706536e+00 -1.85012698e-01 +8.73764277e-01 +9.44094434e-02 +3.89656216e-01 -8.12806934e-02 -2.40828320e-01 +3.84897888e-02 -4.01119441e-01 -1.30665541e+00 +1.68834195e-01 -8.70121777e-01 -7.42164791e-01 +8.29612494e-01 -1.05959916e+00 -1.02239415e-01 +1.35525256e-01 -2.37600356e-01 +1.02853811e+00 -1.48883367e+00 -4.82756257e-01 +1.07331142e-01 +3.83087695e-01 -8.42363477e-01 +6.67265356e-02 +1.68355718e-01 +1.40815631e-01 -9.80661392e-01 +4.33302730e-01 +1.08775571e-01 +2.41770908e-01 -2.71416977e-02 -4.25998420e-01 +2.54353993e-02 -1.50858223e+00 -8.15782249e-01 -8.86003077e-02 +1.05037463e+00 -2.75674406e-02 -6.44122899e-01 +5.66490591e-01 -1.08745384e+00 -6.99709415e-01 -4.64707315e-01 +4.34185773e-01 -4.72728997e-01 +3.34116280e-01 -3.57120067e-01 -9.91482913e-01 -1.82517186e-01 -9.52420771e-01 -1.31620574e+00 +3.48757863e-01 -8.78622711e-01 -7.00369179e-01 -1.91882804e-01 -1.59746975e-01 +8.04114759e-01 -3.45893294e-01 -4.23024774e-01 +4.66253571e-02 -7.13751256e-01 +4.31023568e-01 -2.25727201e+00 -2.79638141e-01 -2.11024657e-01 -9.36312079e-02 -6.24767020e-02 +7.15121448e-01 -5.91318429e-01 +5.27714752e-02 -1.15609610e+00 +6.40163660e-01 +1.57813817e-01 -8.03795516e-01 -3.58864069e-01 -6.86243594e-01 +8.34473431e-01 +1.10506587e-01 -1.80724546e-01 -8.76255333e-01 -8.25471163e-01 -1.47047386e-01 -5.11282623e-01 +1.04255390e+00 +2.06600711e-01 -9.07734752e-01 +5.19596115e-02 +1.64240912e-01 -1.46976173e-01 -3.19526672e-01 -5.28589487e-01 -8.85082424e-01 -1.42718482e+00 -2.64683604e-01 +2.67775208e-01 +2.02161938e-01 -3.80786538e-01 +4.94848132e-01 +2.32936628e-02 +2.13536596e+00 -4.92411077e-01 +3.01389545e-01 -8.25390518e-01 +9.20504689e-01 +3.82145286e-01 -1.75896361e-01 +1.30578935e-01 -7.98450172e-01 +1.51883066e-01 +6.95677578e-01 +7.15454761e-03 -8.18622261e-02 -2.89231211e-01 -2.89029151e-01 +1.08342558e-01 +6.58056498e-01 +1.49345383e-01 +2.90451229e-01 +7.70997167e-01 -2.09192261e-01 +2.10187994e-02 -3.13210726e-01 -7.03557789e-01 +7.23343110e-03 -8.13858449e-01 -6.35629594e-01 +1.15187573e+00 +1.05862653e+00 -9.33722138e-01 -2.50670221e-02 -2.51191705e-01 +6.86374068e-01 -5.09160757e-01 -4.82138991e-01 +1.35395423e-01 +9.14777964e-02 +3.54921557e-02 -3.15787464e-01 +2.07784310e-01 +6.34142220e-01 -3.57886404e-02 -7.11162984e-01 +4.47334163e-03 -4.95695919e-01 -8.94758329e-02 -5.44090629e-01 -4.72833425e-01 +2.64489532e-01 -1.06751537e+00 -3.52804124e-01 +9.92204472e-02 -5.07559240e-01 -4.99334306e-01 +1.52146528e-02 +1.65049493e-01 -5.50942183e-01 +4.49932724e-01 -1.54638827e-01 +5.34268975e-01 -5.29888630e-01 -1.92754418e-01 +2.13749021e-01 +5.70164442e-01 +1.92899212e-01 -6.26599789e-02 +9.14137125e-01 -8.76429439e-01 +1.27436012e-01 +3.92925024e-01 +5.58629408e-02 +4.11976248e-01 +7.81749308e-01 -2.85497695e-01 +4.74685170e-02 +4.00979370e-02 +3.04362029e-01 -6.29357278e-01 +8.46447527e-01 -4.32821989e-01 -9.73261595e-01 +2.37926975e-01 -4.39476639e-01 +3.00596118e-01 +4.85421151e-01 -3.31738383e-01 +4.85521197e-01 +3.21769357e-01 -1.45464260e-02 -1.08575813e-01 +2.32041582e-01 -2.20607519e-01 +1.45087337e+00 +8.08896661e-01 -1.06215668e+00 -1.00863054e-01 +1.86685896e+00 -1.20650387e+00 -5.02430618e-01 -2.02512860e-01 +7.37576336e-02 +1.30729213e-01 +8.42415988e-01 +4.75295693e-01 -1.01493871e+00 -7.33585581e-02 +6.99206829e-01 -3.37605774e-01 +7.85492063e-02 -1.16692483e+00 +4.38348591e-01 -2.67012089e-01 -1.13423574e+00 +1.73951402e-01 -5.47930121e-01 -4.40185338e-01 +4.15526867e-01 +1.79699704e-01 -3.85721147e-01 -7.83934176e-01 +1.27741897e+00 +3.78482975e-02 -7.06906736e-01 -4.93915915e-01 +3.64490718e-01 +1.19007461e-01 -8.68563712e-01 -1.17014647e+00 +1.33007312e+00 -4.13471758e-01 -5.60551107e-01 -8.71495664e-01 +6.57199144e-01 -6.63106680e-01 +6.35441720e-01 -2.42300764e-01 +5.01973405e-02 +1.04843104e+00 +1.46929181e+00 -3.31686497e-01 +1.44860178e-01 -3.46518308e-01 -4.94627714e-01 +3.69970948e-01 +1.75628185e-01 -4.40473258e-01 -7.61963069e-01 -5.45864224e-01 -7.72792175e-02 -8.02572429e-01 -3.71847093e-01 -8.26422632e-01 -6.15825593e-01 +1.23935080e+00 +7.63198361e-03 -7.93313086e-01 -6.33229792e-01 -3.20981830e-01 -6.85058415e-01 -6.38752997e-01 -2.61186033e-01 +4.75252360e-01 +1.88095748e-01 +1.11441791e+00 -1.29711998e+00 -1.00743794e+00 -7.45677114e-01 -1.98782101e-01 +2.05310747e-01 -1.89113334e-01 +1.25755891e-01 -9.52008605e-01 +9.34399292e-02 -9.64552879e-01 -1.53933868e-01 -5.24967432e-01 -1.04970503e+00 -9.54553604e-01 -1.71343398e+00 -4.91630554e-01 -3.77200395e-01 -6.85997248e-01 -1.12120628e+00 -5.27977617e-03 -7.44698107e-01 +1.49158791e-01 -5.58338404e-01 -8.06465387e-01 -1.59526372e+00 -7.15278685e-01 -6.66584587e-04 +2.59682298e-01 -3.39792781e-02 +4.48542416e-01 -4.35008734e-01 -7.07014918e-01 -2.22936487e+00 -1.92097008e-01 -9.84551907e-01 -3.29601198e-01 -1.33103228e+00 +1.46901059e+00 -5.78167975e-01 -4.43843901e-02 +2.46075094e-01 +1.97755352e-01 +2.30091482e-01 -1.31020546e-01 +6.88146293e-01 -2.32744902e-01 +9.99873698e-01 -3.35069299e-01 +9.03246582e-01 -7.16848075e-02 -8.61297175e-02 +2.25525528e-01 +3.57887506e-01 -6.70089543e-01 -1.49006486e+00 +2.57719070e-01 +1.12597597e+00 -5.01558721e-01 -8.08398843e-01 +3.98405463e-01 -6.56009376e-01 -4.70476478e-01 -2.01438800e-01 +9.03348774e-02 -3.11700881e-01 +7.28597119e-02 +1.07995838e-01 -6.16212785e-01 -8.30103397e-01 -1.34666002e+00 -3.41449559e-01 -4.96185496e-02 -7.70132124e-01 -9.29004133e-01 +1.31484532e+00 +2.18704430e-04 -4.56997603e-01 +9.95386004e-01 -3.65608484e-01 -3.02115470e-01 -3.84255767e-01 -2.93838173e-01 -8.00598741e-01 -3.26363951e-01 -3.85516286e-02 +5.03274858e-01 -3.52309942e-01 +1.21995106e-01 +9.70369875e-02 +5.83045483e-01 -3.74402761e-01 -1.21566020e-01 +7.68784046e-01 -5.33755362e-01 +2.23188996e-01 +6.87838554e-01 -8.23834598e-01 +3.05332065e-01 -6.26150370e-01 -4.82935429e-01 +7.14025021e-01 +1.84440613e+00 +8.41207430e-02 +4.53583710e-03 +2.30209446e+00 -6.58461571e-01 +2.97366887e-01 -9.71833825e-01 -5.62279344e-01 +2.43003801e-01 +5.41492760e-01 -9.91775572e-01 -3.19258928e-01 -1.43073022e+00 +2.16943949e-01 +1.15072750e-01 +4.96191353e-01 +9.21446860e-01 -2.66546428e-01 +2.24221442e-02 +3.75554413e-01 -4.99342144e-01 +2.21135557e-01 -7.03985989e-02 -3.50397885e-01 +4.58022729e-02 +2.04477549e-01 -3.53872836e-01 +1.44842136e+00 +7.86958218e-01 -9.62555945e-01 -2.54834861e-01 +9.35136229e-02 -3.46604794e-01 -4.41943318e-01 -2.18059763e-01 -3.88702959e-01 +1.38560009e+00 +4.91939522e-02 -2.28284687e-01 +7.45471060e-01 +3.06091458e-01 +3.59109610e-01 -4.25491393e-01 +2.83683509e-01 -8.92072856e-01 +5.51098287e-01 -5.25561273e-01 -3.75884801e-01 -4.47405785e-01 -2.07599610e-01 +2.36451507e-01 +2.96225697e-01 +6.69041395e-01 -1.89128327e+00 -4.26039368e-01 +1.43964720e+00 -3.86432707e-02 -6.78804219e-01 -3.68185490e-02 -2.51013875e-01 -5.15737310e-02 -6.98575020e-01 -8.82414162e-01 +5.69295108e-01 +5.10292407e-03 -3.08956921e-01 